-1.646371930837631226e-01 1.605148166418075562e-01 2.449828833341598511e-01 6.680037379264831543e-01 7.146922349929809570e-01 4.122893810272216797e-01 -4.590273648500442505e-02 2.627185583114624023e-01 -1.900405287742614746e-01 -4.345404207706451416e-01 5.701200664043426514e-02 6.340863704681396484e-01 5.474853888154029846e-02 5.559493228793144226e-02 2.446606904268264771e-01 4.018615782260894775e-01 5.015230923891067505e-02 2.867573201656341553e-01 6.382909417152404785e-02 8.950031995773315430e-01 -6.663402915000915527e-02 -6.909214705228805542e-02 -2.431029379367828369e-01 2.948295176029205322e-01 -9.505104273557662964e-03 -9.382759779691696167e-02 -2.503359317779541016e-01 2.808586061000823975e-01 3.146737813949584961e-01 3.460822701454162598e-01 -3.585541248321533203e-02 1.190082654356956482e-01 2.111148536205291748e-01 9.466431289911270142e-02 4.535593092441558838e-01 -3.091390803456306458e-02 -3.598597049713134766e-01 6.708459854125976562e-01 5.001295208930969238e-01 -3.499149978160858154e-01 1.335101127624511719e-01 -1.542334258556365967e-02 4.372714161872863770e-01 4.925405383110046387e-01 -4.074447154998779297e-01 -8.217341452836990356e-02 -5.766373872756958008e-01 -5.755461752414703369e-02 -1.683438867330551147e-01 1.751581281423568726e-01 6.626561284065246582e-02 4.252845048904418945e-01 5.335485339164733887e-01 3.907015621662139893e-01 3.396723866462707520e-01 5.707605928182601929e-02 -6.252060532569885254e-01 1.775622218847274780e-01 7.485833764076232910e-01 -1.297510117292404175e-01 1.005902960896492004e-01 1.631525754928588867e-01 3.095698058605194092e-01 2.559455335140228271e-01 2.760359048843383789e-01 -4.426432400941848755e-02 3.784165158867835999e-02 -2.833952382206916809e-02 2.673172652721405029e-01 9.342800080776214600e-02 4.599348008632659912e-01 3.756579160690307617e-01 -1.716882735490798950e-01 8.476004749536514282e-02 3.020024001598358154e-01 2.256926149129867554e-01 1.626642793416976929e-01 -3.946481645107269287e-01 1.381208062171936035e+00 2.528735697269439697e-01 2.560896612703800201e-02 1.093712374567985535e-01 4.339216649532318115e-01 -2.081304043531417847e-01 4.099127948284149170e-01 2.816062569618225098e-01 -8.251634240150451660e-02 -1.330406218767166138e-01 -4.727259278297424316e-01 2.248402982950210571e-01 4.315025508403778076e-01 4.748127162456512451e-01 3.359165787696838379e-01 -4.880340769886970520e-02 1.234918683767318726e-01 -6.527998447418212891e-01 2.803002297878265381e-01 3.147194087505340576e-01 -2.254717238247394562e-02 6.825460493564605713e-02 1.978076249361038208e-01 -1.504382193088531494e-01 2.537047564983367920e-01 4.656829684972763062e-02 4.754603654146194458e-02 -2.356306165456771851e-01 -2.050876468420028687e-01 -6.043538078665733337e-02 -5.884192585945129395e-01 -3.872069120407104492e-01 4.439838230609893799e-01 -2.233376801013946533e-01 4.474678635597229004e-01 -4.887266457080841064e-01 1.763754785060882568e-01 -2.764630615711212158e-01 1.165330037474632263e-01 -1.539383828639984131e-01 1.895985454320907593e-01 3.788691759109497070e-01 -2.016175836324691772e-01 4.137305021286010742e-01 -1.526370346546173096e-01 -3.022454082965850830e-01 5.887827277183532715e-01 8.144997358322143555e-01 1.429282575845718384e-01 4.752385616302490234e-01
4.112125933170318604e-01 -5.011321976780891418e-02 3.163809776306152344e-01 -2.458333522081375122e-01 1.098838225007057190e-01 5.263680815696716309e-01 1.114417314529418945e+00 1.536781042814254761e-01 9.657414630055427551e-03 2.171144038438796997e-01 6.323427557945251465e-01 7.088564634323120117e-01 1.310611027292907238e-03 2.534004747867584229e-01 4.598954021930694580e-01 3.604229688644409180e-01 1.118695884943008423e-01 -4.202336668968200684e-01 -3.585445284843444824e-01 5.116568803787231445e-01 6.033315658569335938e-01 1.109587401151657104e-01 -8.092068880796432495e-02 -9.956444054841995239e-02 1.170359328389167786e-01 5.598219037055969238e-01 1.452245414257049561e-01 3.570848405361175537e-01 4.163885116577148438e-01 4.770427644252777100e-01 4.541223123669624329e-02 5.812267959117889404e-02 2.364326417446136475e-01 9.413557648658752441e-01 2.903795838356018066e-01 1.953953653573989868e-01 2.611564993858337402e-01 -1.481879353523254395e-01 2.244764566421508789e-01 3.096334934234619141e-01 4.307606518268585205e-01 4.526219367980957031e-01 4.935832321643829346e-01 5.169585943222045898e-01 5.266512632369995117e-01 6.795950531959533691e-01 -1.042749639600515366e-02 8.027869462966918945e-02 8.186938762664794922e-01 5.533485412597656250e-01 5.987432003021240234e-01 4.199226796627044678e-01 -5.443162918090820312e-01 1.431305427104234695e-02 9.633745998144149780e-02 3.888016566634178162e-02 -6.046589612960815430e-01 -3.837921619415283203e-01 7.401386499404907227e-01 2.881205677986145020e-01 4.386643469333648682e-01 5.094237923622131348e-01 -2.691023647785186768e-01 -2.268210351467132568e-01 6.434386372566223145e-01 5.120791196823120117e-01 5.351019501686096191e-01 2.375897616147994995e-01 3.212226629257202148e-01 -2.228055708110332489e-02 4.053738713264465332e-01 2.690228447318077087e-02 -2.996073365211486816e-01 5.477994084358215332e-01 9.409583806991577148e-01 -2.141435891389846802e-01 8.406236767768859863e-02 -7.247372269630432129e-01 1.138078093528747559e+00 1.829096674919128418e-01 -2.511670999228954315e-02 6.768352985382080078e-01 4.539645090699195862e-02 4.108727872371673584e-01 8.012115955352783203e-01 4.114481806755065918e-01 6.754783540964126587e-02 -1.066075414419174194e-01 -9.004753828048706055e-01 8.655053377151489258e-01 6.972699761390686035e-01 -4.101142585277557373e-01 7.114852070808410645e-01 1.131987348198890686e-01 8.120097965002059937e-02 3.143728375434875488e-01 4.573715031147003174e-01 8.667191118001937866e-02 4.808617234230041504e-01 2.610267102718353271e-01 1.727516353130340576e-01 2.205271422863006592e-01 1.610507071018218994e-01 1.272918134927749634e-01 3.991266787052154541e-01 5.717683956027030945e-02 1.021461859345436096e-01 -1.545195430517196655e-01 -4.667972028255462646e-01 6.074912548065185547e-01 3.940567746758460999e-02 -3.976579308509826660e-01 1.941817104816436768e-01 4.621211290359497070e-01 2.919930815696716309e-01 2.886014878749847412e-01 -6.230558082461357117e-02 9.656816124916076660e-01 6.477550864219665527e-01 -7.731711864471435547e-02 -1.712013632059097290e-01 -6.099369376897811890e-02 -1.929450631141662598e-01 3.248246014118194580e-01 4.628120064735412598e-01 1.706705428659915924e-02 4.334447085857391357e-01 6.349969506263732910e-01
-9.521404653787612915e-02 2.314734458923339844e-01 -7.927051931619644165e-02 -8.571084588766098022e-02 1.025475040078163147e-01 -6.527700275182723999e-02 1.987434178590774536e-02 -1.143118515610694885e-01 -5.326521396636962891e-02 -1.995118856430053711e-01 3.090441226959228516e-01 3.062589168548583984e-01 2.485050857067108154e-01 1.990098655223846436e-01 -7.533569633960723877e-02 4.336133301258087158e-01 3.094439506530761719e-01 3.678372800350189209e-01 1.079403534531593323e-01 -3.831635415554046631e-01 4.219861235469579697e-03 -3.074083328247070312e-01 2.365561202168464661e-02 -2.810670435428619385e-01 7.575300056487321854e-03 -1.753377169370651245e-01 -3.280828893184661865e-01 -1.616896502673625946e-02 -4.443223401904106140e-02 1.247389093041419983e-01 -1.166976317763328552e-01 -1.802116073668003082e-02 -1.166969835758209229e-01 2.843679487705230713e-01 6.431536674499511719e-01 2.806337177753448486e-01 1.138125285506248474e-01 1.383790671825408936e-01 -1.552045792341232300e-01 2.842009998857975006e-02 -1.340832859277725220e-01 -2.282256484031677246e-01 6.798844039440155029e-02 3.181258440017700195e-01 -1.792305707931518555e-01 -2.370799630880355835e-01 1.675487011671066284e-01 9.973216801881790161e-02 3.737018108367919922e-01 -1.177075877785682678e-02 2.972527146339416504e-01 -4.389561116695404053e-01 2.839323282241821289e-01 9.729573130607604980e-02 6.350362300872802734e-02 -2.494855523109436035e-01 -4.868682622909545898e-01 -2.061404287815093994e-02 8.257123231887817383e-01 -2.172409743070602417e-01 3.465722501277923584e-01 1.414962708950042725e-01 -1.709973514080047607e-01 -1.890453398227691650e-01 6.712912917137145996e-01 -1.545083075761795044e-01 -1.184692159295082092e-01 -3.667357563972473145e-01 -2.465530186891555786e-01 1.268060505390167236e-01 -3.783381879329681396e-01 -4.955788850784301758e-01 6.406556814908981323e-02 -1.652726531028747559e-01 -8.436746597290039062e-01 -2.032967656850814819e-01 6.030956748872995377e-03 -5.541639924049377441e-01 1.451483249664306641e+00 -3.107618987560272217e-01 9.074705094099044800e-02 3.390792012214660645e-01 -3.835949599742889404e-01 4.875043034553527832e-01 4.956365823745727539e-01 -2.808200716972351074e-01 -1.680770963430404663e-01 6.740116477012634277e-01 -7.845045924186706543e-01 4.251480102539062500e-01 5.058881640434265137e-02 5.495061278343200684e-01 -5.305647850036621094e-01 3.094817101955413818e-01 5.772309303283691406e-01 9.994127601385116577e-02 4.421244859695434570e-01 -3.579558059573173523e-02 2.881669998168945312e-01 -6.037932038307189941e-01 -3.123400211334228516e-01 -2.438638955354690552e-01 3.207135712727904320e-03 -8.381874561309814453e-01 1.812404841184616089e-01 4.862518236041069031e-02 -5.588772147893905640e-02 1.082786098122596741e-01 -6.400897502899169922e-01 -7.841251492500305176e-01 5.349639058113098145e-01 -6.737139075994491577e-03 1.966256350278854370e-01 -2.994290888309478760e-01 -1.015847921371459961e-01 1.542146950960159302e-01 8.111707121133804321e-02 -1.900136023759841919e-01 -2.530782818794250488e-01 -1.487292647361755371e-01 -5.596986413002014160e-02 2.112210988998413086e-01 1.987240314483642578e-01 -3.021635711193084717e-01 3.000455796718597412e-01 4.242129027843475342e-01 -1.716682016849517822e-01 6.181734800338745117e-02
1.028960496187210083e-01 -2.853468060493469238e-02 1.477757543325424194e-01 -2.424944192171096802e-02 -3.389231860637664795e-01 -6.683913990855216980e-03 6.957569122314453125e-01 2.431489229202270508e-01 1.248753368854522705e-01 -2.874627709388732910e-01 2.860922217369079590e-01 -5.840592458844184875e-02 2.632464766502380371e-01 -6.587470322847366333e-02 -2.016349695622920990e-03 4.957735538482666016e-01 -2.325111329555511475e-01 4.361652433872222900e-01 3.265452086925506592e-01 2.169714123010635376e-01 -2.474519461393356323e-01 -2.479324787855148315e-01 3.159844279289245605e-01 4.061195254325866699e-01 -4.953137934207916260e-01 -2.074072137475013733e-02 -8.065691590309143066e-02 -5.709829330444335938e-01 -1.929476559162139893e-01 3.650434687733650208e-02 5.343260765075683594e-01 -8.756688237190246582e-02 -2.842364609241485596e-01 1.951046437025070190e-01 -3.070894181728363037e-01 1.061303261667490005e-02 -4.747532308101654053e-01 2.794632017612457275e-01 -1.569276601076126099e-01 5.312024150043725967e-04 -5.379439145326614380e-02 -2.702326178550720215e-01 6.270387768745422363e-01 2.235398860648274422e-03 -7.609827071428298950e-02 -3.269062563776969910e-02 -9.781073033809661865e-02 6.655502319335937500e-02 3.741838932037353516e-01 -6.191601753234863281e-01 -2.258632183074951172e-01 -6.982286274433135986e-02 -1.685597747564315796e-01 -1.274521201848983765e-01 2.254286557435989380e-01 6.993853021413087845e-03 3.241246193647384644e-02 -3.879876434803009033e-01 -7.100591808557510376e-02 4.447119832038879395e-01 -2.875144779682159424e-01 -2.112719267606735229e-01 -2.759504616260528564e-01 -2.620946764945983887e-01 1.028134077787399292e-01 -8.842074871063232422e-02 3.108085989952087402e-01 1.489460840821266174e-02 -4.115670323371887207e-01 -1.428004056215286255e-01 -1.554790735244750977e-01 8.782397955656051636e-02 2.330126762390136719e-01 -1.776722371578216553e-01 1.733696758747100830e-01 -8.407343924045562744e-02 -3.846422210335731506e-02 2.868828177452087402e-01 6.452347636222839355e-01 1.123749092221260071e-01 5.113125443458557129e-01 1.475418508052825928e-01 -1.569740474224090576e-01 2.173903584480285645e-01 4.306968152523040771e-01 6.036320328712463379e-02 -2.462750375270843506e-01 1.440613120794296265e-01 -9.229713678359985352e-01 2.288959026336669922e-01 -2.425723224878311157e-01 1.869115233421325684e-01 7.892077416181564331e-02 6.894935965538024902e-01 1.861064881086349487e-02 2.173754274845123291e-01 -1.726925075054168701e-01 -2.211666256189346313e-01 -8.585111051797866821e-02 1.816149353981018066e-01 -4.925503209233283997e-02 3.581333458423614502e-01 -5.910775661468505859e-01 -2.158659845590591431e-01 -4.680716618895530701e-02 -2.982048094272613525e-01 3.753814697265625000e-01 -1.393751949071884155e-01 -7.223600149154663086e-01 -2.263243049383163452e-01 2.545574307441711426e-01 5.868725776672363281e-01 -2.088737040758132935e-01 -2.670688331127166748e-01 -2.071254700422286987e-01 1.009241044521331787e-01 -2.056316733360290527e-01 -5.669292807579040527e-01 3.312579095363616943e-01 3.635735064744949341e-02 1.156066805124282837e-01 -2.400915026664733887e-01 -1.495265513658523560e-01 2.008905857801437378e-01 -7.803314179182052612e-02 -3.776326775550842285e-02 8.814397454261779785e-02 -2.180838286876678467e-01
7.165888696908950806e-02 2.540496885776519775e-01 2.471840232610702515e-01 -1.017178818583488464e-01 2.081947624683380127e-01 -3.806998729705810547e-01 8.498230576515197754e-01 2.893584072589874268e-01 -1.810132265090942383e-01 2.241578251123428345e-01 5.653551220893859863e-02 -4.204035997390747070e-01 -2.652914822101593018e-01 1.606854200363159180e-01 8.697286993265151978e-02 7.900809496641159058e-02 3.087770044803619385e-01 9.404355287551879883e-02 -1.079879760742187500e+00 2.365155369043350220e-01 3.707422316074371338e-01 6.437569390982389450e-03 3.055126219987869263e-02 5.839887857437133789e-01 -1.645738035440444946e-01 3.378184735774993896e-01 4.316002726554870605e-01 -3.401443958282470703e-01 9.533144831657409668e-01 2.550013363361358643e-01 -2.204651683568954468e-01 6.123576760292053223e-01 3.670981824398040771e-01 4.789126217365264893e-01 6.198360323905944824e-01 -2.243743687868118286e-01 5.573543310165405273e-01 1.248890087008476257e-01 4.816699922084808350e-01 3.750424683094024658e-01 -1.850913651287555695e-02 6.345896124839782715e-01 7.865315675735473633e-01 4.341326355934143066e-01 1.495711207389831543e-01 -3.940593004226684570e-01 -7.857727259397506714e-02 4.262696802616119385e-01 2.712094038724899292e-02 3.819503784179687500e-01 3.958887457847595215e-01 4.747596010565757751e-02 9.368084073066711426e-01 1.213169768452644348e-01 4.468134939670562744e-01 3.727356195449829102e-01 3.134708106517791748e-02 7.679988145828247070e-01 4.243009984493255615e-01 3.858405649662017822e-01 -1.487744301557540894e-01 8.038501143455505371e-01 -5.851816013455390930e-02 7.399854063987731934e-01 4.906863868236541748e-01 4.919910430908203125e-01 -1.658457070589065552e-01 7.920281887054443359e-01 4.795798659324645996e-01 -4.076237976551055908e-01 4.881923198699951172e-01 1.722655892372131348e-01 -8.798636496067047119e-02 9.387135505676269531e-03 2.957967296242713928e-02 5.943220853805541992e-01 2.372439950704574585e-01 1.664247959852218628e-01 8.887235522270202637e-01 2.134411185979843140e-01 5.221047401428222656e-01 6.490395665168762207e-01 4.462913796305656433e-02 6.847558617591857910e-01 3.318664059042930603e-02 9.097966551780700684e-02 3.538054823875427246e-01 6.589226722717285156e-01 -1.088876962661743164e+00 1.094955801963806152e+00 5.362605452537536621e-01 2.473010867834091187e-01 5.736122727394104004e-01 -1.721135973930358887e-01 -9.916125982999801636e-02 3.057233691215515137e-01 7.796606421470642090e-02 2.595864534378051758e-01 -1.563441753387451172e-01 -1.560177654027938843e-02 3.874546885490417480e-01 4.584650397300720215e-01 8.447705507278442383e-01 -1.382185667753219604e-01 3.875038623809814453e-01 3.891665339469909668e-01 4.134881198406219482e-01 3.478964269161224365e-01 -7.040795087814331055e-01 6.447465419769287109e-01 8.861624002456665039e-01 -4.343035817146301270e-01 3.282255679368972778e-02 6.327368617057800293e-01 -1.550331115722656250e-01 3.885447978973388672e-01 1.321952342987060547e-01 -9.468333795666694641e-03 -4.658794775605201721e-02 3.686240911483764648e-01 3.303258121013641357e-01 4.820191562175750732e-01 -5.264629721641540527e-01 1.393523514270782471e-01 -3.515657484531402588e-01 7.651027441024780273e-01 2.393087297677993774e-01 4.721910059452056885e-01
-4.093933999538421631e-01 -3.416154161095619202e-02 2.960289716720581055e-01 1.639488786458969116e-01 -5.563751459121704102e-01 -1.774160712957382202e-01 -4.130032956600189209e-01 -5.665256381034851074e-01 -5.084704607725143433e-02 6.578249484300613403e-02 -1.283154487609863281e-01 -2.393929362297058105e-01 -5.843417644500732422e-01 -4.926759600639343262e-01 -4.837836325168609619e-01 -4.522339701652526855e-01 -2.693760395050048828e-01 -3.027662336826324463e-01 2.979381084442138672e-01 1.664408296346664429e-01 -5.599865689873695374e-02 -8.910939693450927734e-01 -2.900597453117370605e-01 -2.729355990886688232e-01 -4.323742166161537170e-02 -5.022476911544799805e-01 -1.185992956161499023e-01 -9.786300361156463623e-02 -3.417201042175292969e-01 -1.451566815376281738e-01 -4.484033286571502686e-01 -1.132431812584400177e-02 5.610725283622741699e-01 1.706680059432983398e-01 -4.072931036353111267e-02 -1.228053346276283264e-01 -6.796396523714065552e-02 -8.015711903572082520e-01 -4.054490923881530762e-01 -5.967587605118751526e-02 4.666569456458091736e-02 -1.251525878906250000e-01 1.644168794155120850e-01 -2.902660667896270752e-01 2.482222206890583038e-02 -1.277048140764236450e-01 -4.314953684806823730e-01 1.496416702866554260e-02 1.437744945287704468e-01 -7.734847068786621094e-02 4.679522477090358734e-03 -7.684708833694458008e-01 -3.699480742216110229e-02 -2.568002976477146149e-02 -1.374904960393905640e-01 -7.021225094795227051e-01 -7.717407345771789551e-01 6.672731600701808929e-03 4.711660444736480713e-01 6.243467703461647034e-02 -1.797893792390823364e-01 -4.399725049734115601e-02 -2.632733285427093506e-01 -3.749097287654876709e-01 -2.720324136316776276e-02 -1.223537102341651917e-01 -5.912595987319946289e-01 1.660565659403800964e-02 -4.540067911148071289e-02 -1.252376884222030640e-01 -2.825351953506469727e-01 -3.496012985706329346e-01 -5.435522198677062988e-01 -4.046884775161743164e-01 -2.667374014854431152e-01 -4.709219038486480713e-01 -7.862469553947448730e-02 -3.078906834125518799e-01 1.283694863319396973e+00 2.032407373189926147e-01 -8.825100958347320557e-02 -4.776281118392944336e-01 -4.313842058181762695e-01 3.790845870971679688e-01 -1.459567397832870483e-01 -3.293480277061462402e-01 -3.352087438106536865e-01 -1.527094244956970215e-01 -5.902354121208190918e-01 -3.474504128098487854e-02 -4.109210371971130371e-01 2.336241155862808228e-01 1.089420169591903687e-01 -1.581349670886993408e-01 -4.090169370174407959e-01 -3.969584107398986816e-01 -3.920561373233795166e-01 5.682422593235969543e-02 2.310932278633117676e-01 -7.138058543205261230e-01 1.864365935325622559e-01 -2.085833698511123657e-01 -4.563501477241516113e-01 -5.900783538818359375e-01 -4.181931018829345703e-01 -5.187278985977172852e-01 -1.570895910263061523e-01 -6.434301733970642090e-01 -1.140848845243453979e-01 -1.814231127500534058e-01 -2.113078087568283081e-01 -1.465915411245077848e-04 -1.007925719022750854e-01 -8.927457034587860107e-02 -4.624773189425468445e-02 -2.385937869548797607e-01 5.579833388328552246e-01 -8.077535778284072876e-02 -5.616862177848815918e-01 -3.325702548027038574e-01 -1.285811364650726318e-01 -2.517044246196746826e-01 -9.766845405101776123e-02 5.187021568417549133e-02 -4.768520295619964600e-01 -8.565340191125869751e-02 -1.247102171182632446e-01 -3.309972286224365234e-01
-3.954133093357086182e-01 -2.095774114131927490e-01 -2.958034574985504150e-01 9.747537970542907715e-01 1.491507701575756073e-02 -3.262562751770019531e-01 -6.345605850219726562e-01 -3.866365849971771240e-01 1.664587408304214478e-01 -2.490520924329757690e-01 4.772877693176269531e-01 -7.626377791166305542e-02 2.885527908802032471e-01 1.620036661624908447e-01 -3.269519209861755371e-01 -3.012226819992065430e-01 -8.941624313592910767e-02 1.169777631759643555e+00 -1.094920486211776733e-01 -1.905512064695358276e-01 -1.646441668272018433e-01 -3.030119836330413818e-01 1.151557564735412598e-01 3.027048408985137939e-01 1.087380386888980865e-02 -1.848305575549602509e-02 -2.074439525604248047e-01 1.566396653652191162e-01 -3.427425399422645569e-02 -3.625636994838714600e-01 5.910821557044982910e-01 -5.209365114569664001e-02 2.270281910896301270e-01 2.167983800172805786e-01 -8.282053470611572266e-02 3.270374536514282227e-01 -3.228781223297119141e-01 1.155603229999542236e-01 -5.064567923545837402e-01 -3.879385888576507568e-01 -6.872770190238952637e-02 -4.999696314334869385e-01 1.600605547428131104e-01 1.158846467733383179e-01 -1.007399410009384155e-01 -2.993369400501251221e-01 5.545065402984619141e-01 -2.571192979812622070e-01 -2.274095863103866577e-01 6.981588900089263916e-02 4.145579636096954346e-01 -4.120481386780738831e-02 9.635837376117706299e-02 -4.017795920372009277e-01 1.975339949131011963e-01 -1.193067207932472229e-01 -5.220132470130920410e-01 -4.438015222549438477e-01 1.891792863607406616e-01 2.975505888462066650e-01 -3.954962491989135742e-01 -6.972806453704833984e-01 -7.600706815719604492e-02 8.937267661094665527e-01 6.305676698684692383e-01 -2.883853018283843994e-01 -1.422238796949386597e-01 -3.306592702865600586e-01 -3.360616564750671387e-01 -2.783087491989135742e-01 -2.101679332554340363e-02 -9.504609555006027222e-02 1.341081112623214722e-01 3.143199905753135681e-02 1.886668056249618530e-01 -2.536009065806865692e-02 3.316707611083984375e-01 5.782468244433403015e-02 7.954453229904174805e-01 7.833159714937210083e-02 -3.994346559047698975e-01 7.345842570066452026e-02 -5.087051987648010254e-01 -5.531582832336425781e-01 7.658703327178955078e-01 3.991065621376037598e-01 -1.995687372982501984e-02 1.003899201750755310e-01 -7.465070486068725586e-01 6.372173428535461426e-01 -3.126584365963935852e-02 4.478285312652587891e-01 -1.963045299053192139e-01 -2.102185338735580444e-01 -3.933041393756866455e-01 8.273745775222778320e-01 -8.444888889789581299e-02 4.593924582004547119e-01 -5.938268080353736877e-02 -1.701268851757049561e-01 -2.485239803791046143e-01 6.254040002822875977e-01 2.055949121713638306e-01 -5.160233974456787109e-01 -2.719489932060241699e-01 -3.307780250906944275e-02 -2.601582743227481842e-02 4.353845119476318359e-02 -2.043959945440292358e-01 -1.992532014846801758e-01 -1.068262606859207153e-01 -4.620224535465240479e-01 4.186772704124450684e-01 -2.722111642360687256e-01 3.534316644072532654e-02 -3.245576024055480957e-01 -6.123460829257965088e-02 -3.071477115154266357e-01 -7.477749139070510864e-02 -1.941086947917938232e-01 2.474186420440673828e-01 -6.238165497779846191e-02 -1.180628910660743713e-01 4.770100414752960205e-01 1.759634464979171753e-01 2.831328511238098145e-01 -4.045263826847076416e-01 -3.224960863590240479e-01
-4.936001300811767578e-01 2.165874242782592773e-01 -2.047849446535110474e-02 2.798058791086077690e-03 -5.734694004058837891e-01 3.100139200687408447e-01 -7.365217059850692749e-02 8.784833550453186035e-02 -3.957795202732086182e-01 1.738336682319641113e-01 -4.209289848804473877e-01 -3.099268376827239990e-01 -3.432518839836120605e-01 2.432790547609329224e-01 -3.637610673904418945e-01 -1.914775073528289795e-01 -4.501681923866271973e-01 -6.010309457778930664e-01 1.248606219887733459e-01 -1.788909137248992920e-01 -2.724113762378692627e-01 1.512803137302398682e-01 -1.299474388360977173e-01 -4.537187218666076660e-01 1.890030801296234131e-01 1.418721377849578857e-01 -1.710761636495590210e-01 1.278174370527267456e-01 1.100968867540359497e-01 -2.971915304660797119e-01 4.569052755832672119e-01 -1.807044260203838348e-02 7.230709493160247803e-02 4.995971918106079102e-01 4.425110816955566406e-01 -6.262511014938354492e-01 -4.096613228321075439e-01 3.513002097606658936e-01 -1.093091368675231934e-01 1.300027221441268921e-01 2.682215869426727295e-01 -5.814952850341796875e-01 -2.065773606300354004e-01 5.680193006992340088e-02 1.263306736946105957e-01 1.619628816843032837e-01 -2.659493982791900635e-01 -9.521484375000000000e-02 -2.392426691949367523e-02 -2.772985100746154785e-01 3.590817749500274658e-01 -2.969145774841308594e-01 -7.744082808494567871e-02 3.945203125476837158e-01 -6.496078968048095703e-01 4.723847657442092896e-02 -2.913068532943725586e-01 3.882085382938385010e-01 2.372607588768005371e-01 1.189121827483177185e-01 1.161217968910932541e-02 6.700652837753295898e-02 -9.727681986987590790e-03 1.198562681674957275e-01 1.955568939447402954e-01 -2.241849154233932495e-01 1.897395551204681396e-01 -3.315048217773437500e-01 1.531965583562850952e-01 6.841414421796798706e-02 -1.999491006135940552e-01 -1.398840844631195068e-01 -1.132875829935073853e-01 -1.517426222562789917e-01 1.980652362108230591e-01 -6.720909476280212402e-01 1.329925507307052612e-01 -3.928284645080566406e-01 4.153872430324554443e-01 3.053402304649353027e-01 -1.083599478006362915e-01 8.259364962577819824e-02 -3.191282749176025391e-01 -2.527122795581817627e-01 -1.211868152022361755e-01 -1.024607047438621521e-01 -3.714758902788162231e-02 -9.397572278976440430e-02 -2.020309418439865112e-01 1.223959803581237793e+00 -1.534459739923477173e-01 -5.231546759605407715e-01 -3.330308943986892700e-02 -1.297531723976135254e-01 -1.107876002788543701e-02 4.624850451946258545e-01 -2.070942372083663940e-01 -3.211626037955284119e-02 -2.100218683481216431e-01 1.674520224332809448e-01 -2.643243074417114258e-01 4.029471278190612793e-01 2.459982186555862427e-01 1.753308326005935669e-01 -5.259222984313964844e-01 -1.734280772507190704e-02 -1.993933767080307007e-01 -2.013622820377349854e-01 -1.552539914846420288e-01 -2.657507061958312988e-01 2.344582825899124146e-01 9.909782558679580688e-02 -2.078384757041931152e-01 -2.646189630031585693e-01 5.682480707764625549e-02 -3.747923374176025391e-01 2.340755425393581390e-02 -2.268984764814376831e-01 -3.048104047775268555e-01 -2.095210999250411987e-01 9.099519252777099609e-02 -6.256789434701204300e-03 1.158869042992591858e-01 -2.167480587959289551e-01 4.066552221775054932e-02 4.184735715389251709e-01 -1.516420990228652954e-01 4.392799735069274902e-01
-3.346612453460693359e-01 1.346130371093750000e-01 -5.250028967857360840e-01 -1.498396992683410645e-01 -3.402081131935119629e-01 -3.431781530380249023e-01 2.626828849315643311e-01 -1.149190515279769897e-01 1.254818290472030640e-01 -1.902564615011215210e-01 -9.445853531360626221e-02 -6.210301518440246582e-01 -3.888967931270599365e-01 -6.749459505081176758e-01 -5.850635170936584473e-01 -4.326421394944190979e-02 -1.890972405672073364e-01 -1.036161854863166809e-01 -3.089858889579772949e-01 -3.435204923152923584e-01 6.339983642101287842e-02 -9.117577224969863892e-03 -4.548725187778472900e-01 -5.359855666756629944e-02 -2.627490162849426270e-01 -1.671129018068313599e-01 2.927287518978118896e-01 -7.002382874488830566e-01 8.034494519233703613e-02 -2.129556983709335327e-01 -3.172509670257568359e-01 -5.758230686187744141e-01 -4.159338176250457764e-01 1.236448064446449280e-03 -5.746195912361145020e-01 -3.767489492893218994e-01 -2.329831421375274658e-01 -2.072683870792388916e-01 -1.090029627084732056e-01 -1.277858391404151917e-03 -8.177464455366134644e-02 -7.862569689750671387e-01 -5.532313883304595947e-02 -3.352411687374114990e-01 -3.482267558574676514e-01 -2.498995065689086914e-01 6.073886156082153320e-02 2.299023568630218506e-01 6.329228729009628296e-02 2.930244617164134979e-02 -9.939762204885482788e-02 5.608824267983436584e-02 -2.951126396656036377e-01 -1.761300414800643921e-01 -1.661354005336761475e-01 -4.109959900379180908e-01 -4.708741009235382080e-01 -3.925359845161437988e-01 -1.998196542263031006e-01 2.211831510066986084e-01 -2.244212925434112549e-01 -2.692256569862365723e-01 -7.281353473663330078e-01 -7.535290718078613281e-01 -3.526885509490966797e-01 -3.624758720397949219e-01 -3.874278068542480469e-01 -4.678316414356231689e-01 -1.539447903633117676e-01 1.658847779035568237e-01 -1.858865469694137573e-01 -2.186461240053176880e-01 -1.859812587499618530e-01 -6.122488528490066528e-02 -1.754381507635116577e-02 -3.089306056499481201e-01 -2.251836210489273071e-01 -2.955501079559326172e-01 5.263509750366210938e-01 3.114616870880126953e-01 3.633279800415039062e-01 -7.640731930732727051e-01 -4.920812249183654785e-01 -7.342308294028043747e-03 -3.750462532043457031e-01 -4.603704810142517090e-01 -3.983515501022338867e-01 2.597357630729675293e-01 -3.633354902267456055e-01 -5.790797472000122070e-01 -1.293006911873817444e-02 1.058837026357650757e-01 5.743074417114257812e-02 -4.020086303353309631e-02 -2.174987196922302246e-01 -1.469520181417465210e-01 -6.080626249313354492e-01 7.249000668525695801e-02 -2.298858612775802612e-01 -2.115049213171005249e-01 -1.890638321638107300e-01 -2.859558761119842529e-01 2.305369526147842407e-01 -7.768062353134155273e-01 -1.931925863027572632e-01 8.789639919996261597e-02 -3.265959918498992920e-01 -1.616054475307464600e-01 -2.754083089530467987e-02 -9.718681871891021729e-02 -2.363963872194290161e-01 -6.920036673545837402e-01 1.778078824281692505e-02 -2.717866003513336182e-01 -3.027273714542388916e-01 -2.655573487281799316e-01 -2.464129924774169922e-01 -3.632012009620666504e-01 -5.630840063095092773e-01 -3.699650168418884277e-01 -2.555706501007080078e-01 -2.194050848484039307e-01 2.267070561647415161e-01 2.250437289476394653e-01 -4.850914478302001953e-01 3.039138682652264833e-04 -2.549830675125122070e-01 2.710785865783691406e-01
-6.143341213464736938e-02 -4.994939565658569336e-01 1.932890154421329498e-02 -1.412339061498641968e-01 -2.536821663379669189e-01 5.887390971183776855e-01 3.078869283199310303e-01 4.715068638324737549e-02 -7.694071531295776367e-02 -1.630369387567043304e-02 -1.175967007875442505e-01 3.691942617297172546e-02 9.811754524707794189e-02 3.524646861478686333e-03 -4.407609999179840088e-01 -9.385195374488830566e-01 1.385024040937423706e-01 -2.863198816776275635e-01 -1.926999688148498535e-01 9.394671022891998291e-02 1.388807892799377441e-01 2.754307985305786133e-01 1.178133636713027954e-01 3.809113204479217529e-01 -4.334015548229217529e-01 4.144750833511352539e-01 4.097494482994079590e-01 -2.329924851655960083e-01 3.617172837257385254e-01 4.929577112197875977e-01 -6.144098564982414246e-02 2.583644390106201172e-01 -6.727816164493560791e-02 -5.805878341197967529e-02 1.358401626348495483e-01 2.543523311614990234e-01 -1.335246488451957703e-02 -2.711998820304870605e-01 6.057457253336906433e-02 -2.449165582656860352e-01 3.049950897693634033e-01 -2.219895571470260620e-01 5.354220271110534668e-01 -6.701585371047258377e-03 3.711715936660766602e-01 -1.472663730382919312e-01 4.757155776023864746e-01 2.996707893908023834e-02 -1.287206355482339859e-02 3.100643754005432129e-01 8.987496495246887207e-01 -1.997471451759338379e-01 -5.997385382652282715e-01 1.973204910755157471e-01 2.386207729578018188e-01 1.234761103987693787e-01 1.305895328521728516e+00 6.922718286514282227e-01 -1.320805102586746216e-01 9.632338583469390869e-02 1.528907418251037598e-01 -3.053765594959259033e-01 -4.913005232810974121e-02 -4.725875556468963623e-01 3.945037424564361572e-01 2.725591883063316345e-02 -2.112778462469577789e-02 -9.255002439022064209e-02 2.214127220213413239e-02 1.619408726692199707e-01 -2.008708566427230835e-02 1.445676386356353760e-01 7.422558218240737915e-02 -9.946873784065246582e-02 5.051057338714599609e-01 2.065834999084472656e-01 2.599292993545532227e-02 6.206469535827636719e-01 -9.163478761911392212e-02 2.229495048522949219e-01 8.653362095355987549e-02 1.920671910047531128e-01 1.942468434572219849e-01 1.601644046604633331e-02 -4.151235520839691162e-02 8.839447796344757080e-02 2.734098117798566818e-03 1.386755555868148804e-01 2.173833847045898438e-01 -1.569961160421371460e-01 2.378747761249542236e-01 2.551607787609100342e-01 -1.897673159837722778e-01 6.191633343696594238e-01 1.819052249193191528e-01 7.073065042495727539e-01 -2.719590663909912109e-01 2.611254453659057617e-01 6.369578093290328979e-02 3.273499906063079834e-01 3.410747945308685303e-01 -2.575491666793823242e-01 -1.192202512174844742e-02 -5.667366459965705872e-02 4.537620544433593750e-01 -1.841739565134048462e-01 4.156102240085601807e-01 5.614016652107238770e-01 -2.085351496934890747e-01 -1.541925221681594849e-01 -1.028977707028388977e-01 -5.577630996704101562e-01 -1.031464412808418274e-01 -4.147133827209472656e-01 3.568500876426696777e-01 -5.670261010527610779e-02 -6.131952162832021713e-03 2.079981118440628052e-01 -1.111856549978256226e-01 3.108262121677398682e-01 -1.939294934272766113e-01 -2.905771136283874512e-01 1.538979858160018921e-01 5.367958173155784607e-02 4.473626241087913513e-02 -3.118273913860321045e-01 -1.999615877866744995e-01 -3.089382946491241455e-01
-1.835802346467971802e-01 6.740456819534301758e-01 3.895665407180786133e-01 -2.892981171607971191e-01 -1.962962448596954346e-01 9.521201997995376587e-02 9.859162569046020508e-02 -2.427142560482025146e-01 -2.653797343373298645e-02 8.858199417591094971e-02 2.314738929271697998e-02 -2.397789806127548218e-01 -1.048152893781661987e-02 -1.208136454224586487e-01 2.694683372974395752e-01 -6.249298453330993652e-01 3.924168348312377930e-01 -4.112312197685241699e-01 -4.170295596122741699e-02 -1.475003659725189209e-01 4.389839470386505127e-01 3.640250861644744873e-01 -1.192052289843559265e-01 -1.041566580533981323e-01 1.989909857511520386e-01 3.748371899127960205e-01 -4.915567636489868164e-01 1.832802295684814453e-01 -1.536146700382232666e-01 2.134149074554443359e-01 7.639066874980926514e-02 -4.137625396251678467e-01 1.761350333690643311e-01 2.233603745698928833e-01 -8.815671801567077637e-01 9.922844916582107544e-02 2.262753993272781372e-01 2.824937403202056885e-01 -1.369206607341766357e-01 7.218242436647415161e-02 6.918110698461532593e-02 5.666936635971069336e-01 -1.503736525774002075e-01 -6.263068318367004395e-02 1.495183557271957397e-01 2.579970061779022217e-01 -8.365465700626373291e-02 2.750064730644226074e-01 -4.725561439990997314e-01 3.713565766811370850e-01 3.751705288887023926e-01 -2.632316052913665771e-01 -4.094915688037872314e-01 1.276694983243942261e-01 2.085495367646217346e-02 -3.891592025756835938e-01 1.236952468752861023e-01 -2.533038854598999023e-01 2.596048414707183838e-01 -6.321052312850952148e-01 1.999239474534988403e-01 3.100831508636474609e-01 8.689732849597930908e-02 -5.811357498168945312e-01 -2.595364451408386230e-01 6.464090198278427124e-02 8.667593449354171753e-02 1.830335147678852081e-02 1.520461738109588623e-01 -2.748675085604190826e-02 -2.609996199607849121e-01 2.544015049934387207e-01 -9.075678884983062744e-02 3.441061973571777344e-01 -4.734529554843902588e-01 -8.039008826017379761e-02 9.406226128339767456e-02 3.244293928146362305e-01 -4.081121385097503662e-01 -3.685329258441925049e-01 3.342171665281057358e-03 2.496607303619384766e-01 2.898205816745758057e-01 1.886723488569259644e-01 1.469445228576660156e-01 -5.432747304439544678e-02 -1.052788719534873962e-01 4.361409842967987061e-01 -4.347162246704101562e-01 -9.963150322437286377e-02 4.955453425645828247e-02 3.754297494888305664e-01 -2.400017902255058289e-02 -1.398594230413436890e-01 -7.776337210088968277e-03 1.774528324604034424e-01 7.469145208597183228e-02 -4.993235692381858826e-02 -1.221820525825023651e-02 8.404675126075744629e-02 2.544532120227813721e-01 -3.432501256465911865e-01 -4.031838178634643555e-01 2.461024522781372070e-01 3.167753219604492188e-01 7.130717486143112183e-02 6.516136974096298218e-02 3.489452004432678223e-01 -2.124493867158889771e-01 1.268518418073654175e-01 -1.195699255913496017e-02 -1.947870850563049316e-02 7.283537648618221283e-03 -8.726914227008819580e-02 3.086450397968292236e-01 -3.400443196296691895e-01 -2.797373235225677490e-01 7.079391181468963623e-02 4.068149626255035400e-01 -4.165374115109443665e-02 1.626768559217453003e-01 1.883631050586700439e-01 4.936439096927642822e-01 -2.224550694227218628e-01 3.712702170014381409e-02 2.738671600818634033e-01 2.567275762557983398e-01 5.777801945805549622e-02
-4.322501420974731445e-01 -1.661638170480728149e-02 -1.333369612693786621e-01 -1.873026341199874878e-01 -7.415548563003540039e-01 4.251852631568908691e-01 2.506393566727638245e-02 3.215214908123016357e-01 -7.088900357484817505e-02 -1.483971178531646729e-01 -3.927688896656036377e-01 -3.914954364299774170e-01 1.838923394680023193e-01 1.390555500984191895e-01 2.025146186351776123e-01 8.359537124633789062e-01 -1.609410643577575684e-01 -6.239966675639152527e-02 -1.578044891357421875e-01 4.863854870200157166e-02 2.139701843261718750e-01 4.670967459678649902e-01 -3.691652715206146240e-01 2.437875419855117798e-01 3.484067320823669434e-01 5.794517695903778076e-02 -2.085507810115814209e-01 8.947711437940597534e-02 5.016255974769592285e-01 2.003868073225021362e-01 1.233280897140502930e+00 4.942130148410797119e-01 2.417274713516235352e-01 -4.419826567173004150e-01 3.028602600097656250e-01 -1.637283861637115479e-01 -1.391980797052383423e-01 3.114406764507293701e-01 -1.017582044005393982e-01 -3.390731215476989746e-01 3.449118733406066895e-01 -4.474884569644927979e-01 -3.163074851036071777e-01 -6.366109848022460938e-02 -9.665211290121078491e-02 -1.441265791654586792e-01 5.130461975932121277e-02 -2.210238575935363770e-01 5.254120826721191406e-01 2.443266361951828003e-01 -7.214690092951059341e-03 1.592032164335250854e-01 -4.742876291275024414e-01 -3.563499078154563904e-02 -1.017291173338890076e-01 1.358096301555633545e-01 -8.966413736343383789e-01 -1.336462050676345825e-01 6.167024374008178711e-02 5.291174724698066711e-02 2.219969406723976135e-02 2.492885105311870575e-02 1.200076118111610413e-01 1.557479649782180786e-01 3.009935319423675537e-01 5.363380312919616699e-01 -1.523972004652023315e-01 -1.800419092178344727e-01 2.744161188602447510e-01 -1.882518678903579712e-01 2.334752082824707031e-01 -1.979091316461563110e-01 4.026575013995170593e-02 2.249505184590816498e-02 3.179628551006317139e-01 -7.996073365211486816e-02 -2.869666814804077148e-01 -1.557616889476776123e-01 1.175757408142089844e+00 2.197846919298171997e-01 3.024495542049407959e-01 -4.229107871651649475e-02 3.430962860584259033e-01 3.650445640087127686e-01 1.407862305641174316e-01 -4.958004131913185120e-02 7.352916896343231201e-02 3.878679275512695312e-01 -1.011107325553894043e+00 1.096903443336486816e+00 1.510516852140426636e-01 -7.516164332628250122e-02 1.493868827819824219e-01 -2.846664190292358398e-01 -2.900669574737548828e-01 9.588714689016342163e-02 -4.580059051513671875e-01 7.224398106336593628e-02 3.993039429187774658e-01 2.679782509803771973e-01 1.216714456677436829e-01 -7.093448191881179810e-02 4.192714691162109375e-01 5.523198843002319336e-01 4.782140254974365234e-01 -8.534061163663864136e-02 -8.265491127967834473e-01 -8.006326109170913696e-02 9.056684374809265137e-02 1.924838274717330933e-01 -1.550185400992631912e-02 2.002393901348114014e-01 -6.708005070686340332e-01 4.190196096897125244e-01 3.794451355934143066e-01 -3.882595300674438477e-01 1.942739188671112061e-01 3.431317806243896484e-01 -7.532185316085815430e-02 2.349770069122314453e-01 9.981351345777511597e-02 -2.447353005409240723e-01 2.442560195922851562e-01 3.583953380584716797e-01 4.604861140251159668e-01 2.224289625883102417e-02 -9.450469911098480225e-02 7.366442084312438965e-01
-7.646632194519042969e-02 -4.939463138580322266e-01 -5.009290948510169983e-02 3.729690611362457275e-01 1.916579902172088623e-01 -3.596796393394470215e-01 -7.230310887098312378e-02 3.693813458085060120e-02 4.936570227146148682e-01 -7.258655875921249390e-02 2.822877466678619385e-01 -5.050202608108520508e-01 -1.330731362104415894e-01 -1.923671513795852661e-01 8.749165572226047516e-03 2.145700901746749878e-01 3.417330086231231689e-01 2.653034329414367676e-01 1.428218483924865723e-01 2.547671273350715637e-02 5.137756839394569397e-02 4.275943040847778320e-01 -1.290514022111892700e-01 -4.705083668231964111e-01 -8.078672885894775391e-01 -7.976610064506530762e-01 -5.429235845804214478e-02 -1.193313896656036377e-01 2.409890443086624146e-01 -5.560261607170104980e-01 4.017634391784667969e-01 8.255600929260253906e-02 -1.095420308411121368e-02 -5.325783789157867432e-02 -5.195464566349983215e-02 4.119137525558471680e-01 -3.312048614025115967e-01 -1.920727044343948364e-01 1.772064156830310822e-02 -3.164694309234619141e-01 -2.537342160940170288e-02 4.198098182678222656e-01 -1.247135475277900696e-01 6.521769613027572632e-02 1.584391295909881592e-01 -2.896069288253784180e-01 1.752876639366149902e-01 -1.657906174659729004e-02 -2.853146791458129883e-01 -3.252363502979278564e-01 -3.179234862327575684e-01 -8.763098716735839844e-02 -3.026366531848907471e-01 -4.708565771579742432e-01 -5.174850821495056152e-01 -8.782105147838592529e-02 1.211056351661682129e+00 9.444983005523681641e-01 1.880080252885818481e-01 -3.106361329555511475e-01 -1.148567721247673035e-01 -3.481678068637847900e-01 -1.586915850639343262e-01 3.535229265689849854e-01 5.325674265623092651e-02 -2.267760336399078369e-01 -1.106255203485488892e-01 1.996500492095947266e-01 7.202743552625179291e-03 -1.570724844932556152e-01 5.622488912194967270e-03 1.032100766897201538e-01 -4.108677431941032410e-02 -7.541424632072448730e-01 -4.738326966762542725e-01 -9.886759519577026367e-02 -4.399532079696655273e-01 9.849274158477783203e-01 4.914898276329040527e-01 -4.359809160232543945e-01 -3.914253115653991699e-01 2.662183642387390137e-01 1.962414681911468506e-01 -6.991055011749267578e-01 2.312600910663604736e-01 9.953711414709687233e-04 4.232346415519714355e-01 3.272408246994018555e-01 1.183454871177673340e+00 1.299518108367919922e+00 3.062179386615753174e-01 -5.597293376922607422e-01 -9.004020690917968750e-02 1.781793832778930664e-01 6.932348757982254028e-02 1.607425063848495483e-01 -4.297749996185302734e-01 -5.158667564392089844e-01 6.027203798294067383e-01 -5.799639821052551270e-01 1.028828993439674377e-01 3.177890777587890625e-01 4.681306779384613037e-01 1.171799421310424805e+00 -4.890412688255310059e-01 2.489237189292907715e-01 3.203656524419784546e-02 5.463297963142395020e-01 6.971217989921569824e-01 -3.247387707233428955e-01 4.515264630317687988e-01 9.267476946115493774e-02 -9.048986434936523438e-02 6.558468937873840332e-01 2.545871734619140625e-01 2.196851521730422974e-01 -3.817349076271057129e-01 6.832258105278015137e-01 -3.436762094497680664e-01 -3.272592127323150635e-01 2.426487803459167480e-01 2.385973744094371796e-02 -1.387683033943176270e+00 -2.568362057209014893e-01 4.166561961174011230e-01 3.306826204061508179e-02 2.739575803279876709e-01 8.434944152832031250e-01
1.483281850814819336e-01 -7.403061985969543457e-01 9.808401018381118774e-02 4.624658226966857910e-01 -1.822605580091476440e-01 -4.029515683650970459e-01 2.963508367538452148e-01 1.943895965814590454e-01 -7.206546068191528320e-01 1.651323288679122925e-01 1.741438955068588257e-01 -4.205965101718902588e-01 -4.154014289379119873e-01 2.647292613983154297e-01 -7.341291010379791260e-02 -3.264857828617095947e-01 -1.333193387836217880e-02 -7.186205983161926270e-01 -3.251251876354217529e-01 -2.613893449306488037e-01 6.168552041053771973e-01 7.872471585869789124e-03 -1.695441156625747681e-01 -1.681411862373352051e-01 -2.001311630010604858e-02 2.398175001144409180e-02 -3.024700880050659180e-01 -3.957975208759307861e-01 6.255599260330200195e-01 -4.524679183959960938e-01 1.877611279487609863e-01 -1.559058725833892822e-01 -2.161093503236770630e-01 1.413463652133941650e-01 -4.088223278522491455e-01 -2.181673794984817505e-01 -1.817560493946075439e-01 5.880993232131004333e-02 -2.034389227628707886e-02 -1.940310448408126831e-01 2.757116854190826416e-01 1.199345067143440247e-01 -1.039059087634086609e-01 1.056892201304435730e-01 1.876107603311538696e-01 -2.112260460853576660e-01 -1.068153604865074158e-01 -2.960315532982349396e-02 1.843817085027694702e-01 2.867028415203094482e-01 -2.915139123797416687e-02 1.112302765250205994e-01 -2.241803109645843506e-01 -3.459281101822853088e-02 -3.576378524303436279e-01 -2.146514952182769775e-01 -4.052298665046691895e-01 -3.610986769199371338e-01 2.530986666679382324e-01 2.859076857566833496e-01 -2.684799730777740479e-01 1.414837241172790527e-01 -4.244222044944763184e-01 7.367261052131652832e-01 3.393089175224304199e-01 2.554021216928958893e-02 -1.315288543701171875e-01 1.558146178722381592e-01 2.369658648967742920e-01 -1.885807365179061890e-01 -3.313866853713989258e-01 -5.650306940078735352e-01 -5.424026250839233398e-01 -3.344703018665313721e-01 -1.819430291652679443e-02 3.854530155658721924e-01 -7.110509276390075684e-02 -6.943500638008117676e-01 5.544435381889343262e-01 8.654099702835083008e-01 -2.124289423227310181e-01 -1.806409806013107300e-01 1.033975258469581604e-01 3.959692120552062988e-01 1.480084359645843506e-01 1.357814073562622070e-01 -1.768327057361602783e-01 1.045529991388320923e-01 7.320392131805419922e-02 1.614064574241638184e-01 -2.304905466735363007e-02 -1.114453315734863281e+00 -1.374396085739135742e-01 -6.895384937524795532e-02 -4.230148494243621826e-01 1.217761784791946411e-01 -2.993319630622863770e-01 2.536648511886596680e-01 -4.287514090538024902e-02 -3.378314673900604248e-01 -3.169074356555938721e-01 -9.118358790874481201e-02 -7.452142983675003052e-02 -4.563065767288208008e-01 1.839045882225036621e-01 4.359476566314697266e-01 1.634305417537689209e-01 -4.165130257606506348e-01 -7.122567892074584961e-01 -6.026959046721458435e-02 -1.892304271459579468e-01 1.731424331665039062e-01 -2.492087334394454956e-01 -9.082192927598953247e-02 3.033430278301239014e-01 1.085778847336769104e-01 -2.574825286865234375e-01 -4.386093318462371826e-01 -3.517198935151100159e-02 -8.072003722190856934e-01 2.054486274719238281e-01 -6.857647746801376343e-02 -4.718900024890899658e-01 -3.627048730850219727e-01 -3.396154344081878662e-01 6.896281838417053223e-01 4.600099027156829834e-01 -2.782634794712066650e-01
-2.732427716255187988e-01 -1.234278604388237000e-01 -1.625677347183227539e-01 2.114383131265640259e-01 -4.743169546127319336e-01 3.461239933967590332e-01 9.717569500207901001e-02 7.449705898761749268e-02 -4.000344276428222656e-01 -4.088448882102966309e-01 9.416378289461135864e-02 -2.077118903398513794e-01 2.005456238985061646e-01 2.613863721489906311e-02 4.059672951698303223e-01 -1.992238909006118774e-01 -5.151906609535217285e-02 -1.714665591716766357e-01 1.674589514732360840e-01 3.839058876037597656e-01 1.506721973419189453e-01 3.614596426486968994e-01 7.204967737197875977e-02 7.180390506982803345e-02 3.728244602680206299e-01 -5.197702646255493164e-01 -2.768508195877075195e-01 2.557479962706565857e-02 -2.222717553377151489e-01 8.455093950033187866e-02 8.825389146804809570e-01 1.135816276073455811e-01 -9.437511861324310303e-02 2.055639028549194336e-01 -1.327790468931198120e-01 -2.401321232318878174e-01 -1.309503242373466492e-02 1.435251086950302124e-01 2.621190249919891357e-02 -3.018805682659149170e-01 3.166565001010894775e-01 1.634884811937808990e-02 1.176785230636596680e-01 -1.149992793798446655e-01 2.765709161758422852e-01 -6.387539207935333252e-03 5.218921899795532227e-01 -3.589745759963989258e-01 4.634501934051513672e-01 2.447222620248794556e-01 -2.008405923843383789e-01 -1.580100208520889282e-01 4.365418553352355957e-01 -1.566365733742713928e-02 1.542832553386688232e-01 1.130720451474189758e-01 6.928571313619613647e-02 4.534195959568023682e-01 4.963623881340026855e-01 4.208862185478210449e-01 -2.023850083351135254e-01 2.381649240851402283e-02 3.594860732555389404e-01 1.431103199720382690e-01 7.895778119564056396e-02 2.206861823797225952e-01 7.197243571281433105e-01 9.808067232370376587e-03 4.191517829895019531e-01 -1.760711371898651123e-01 -8.623248338699340820e-02 2.828035354614257812e-01 -1.061646081507205963e-02 -1.492927670478820801e-01 -6.173096969723701477e-02 -1.158435866236686707e-01 2.360834777355194092e-01 -3.102596998214721680e-01 5.198896527290344238e-01 -4.738310351967811584e-02 3.233927190303802490e-01 3.586088418960571289e-01 1.999311447143554688e-01 2.011067122220993042e-01 -1.941577047109603882e-01 2.898117899894714355e-01 5.253465175628662109e-01 1.368020288646221161e-02 -2.959380149841308594e-01 1.554181277751922607e-01 -6.106400117278099060e-02 -1.044000089168548584e-01 -1.538582891225814819e-01 -2.390372157096862793e-01 2.486845245584845543e-03 4.044713377952575684e-01 -1.917216479778289795e-01 -3.049354553222656250e-01 1.517441719770431519e-01 1.591251194477081299e-01 -5.429369211196899414e-01 8.225607275962829590e-01 -1.061268001794815063e-01 -6.431294232606887817e-02 -2.666103467345237732e-02 1.959235779941082001e-02 -2.754735946655273438e-01 9.683070704340934753e-03 1.894610077142715454e-01 -6.616766005754470825e-02 3.751029372215270996e-01 4.791877269744873047e-01 5.077422857284545898e-01 3.065251111984252930e-01 3.248929381370544434e-01 -1.345214247703552246e-02 5.286415219306945801e-01 -7.515195757150650024e-02 -6.634514313191175461e-03 5.036458000540733337e-02 3.889612555503845215e-01 -1.183064654469490051e-01 2.756853103637695312e-01 -1.424642503261566162e-01 -2.181497812271118164e-01 8.622314333915710449e-01 -2.748218774795532227e-01 5.396689176559448242e-01
1.363788694143295288e-01 1.990001797676086426e-01 2.893433570861816406e-01 2.654575109481811523e-01 8.168541826307773590e-03 3.713783621788024902e-01 3.237097561359405518e-01 5.434739217162132263e-02 2.423196434974670410e-01 6.479114890098571777e-01 -4.136137664318084717e-01 -3.633462786674499512e-01 2.114684581756591797e-01 4.019369482994079590e-01 3.515963554382324219e-01 1.661348342895507812e-01 4.042605683207511902e-02 -9.407629817724227905e-02 -2.776488848030567169e-02 6.574342250823974609e-01 1.136287972331047058e-01 -2.621486186981201172e-01 2.648900747299194336e-01 2.108932733535766602e-01 1.228395625948905945e-01 6.393871903419494629e-01 -1.547874808311462402e-01 5.604034662246704102e-02 6.233395263552665710e-02 2.734127044677734375e-01 -1.019606888294219971e-01 4.585266411304473877e-01 5.902202427387237549e-02 -6.976238638162612915e-02 7.319523692131042480e-01 6.865504980087280273e-01 1.798871010541915894e-01 7.000205665826797485e-02 -4.734759628772735596e-01 -1.932714432477951050e-01 1.390640139579772949e-01 6.884157657623291016e-01 5.009623169898986816e-01 1.839628219604492188e-01 3.580107390880584717e-01 1.469744890928268433e-01 -4.466001391410827637e-01 -2.529852688312530518e-01 3.137501478195190430e-01 1.465039253234863281e-01 3.859473764896392822e-01 6.713682413101196289e-01 -8.450938761234283447e-02 1.504374891519546509e-01 1.583438217639923096e-01 -2.470743954181671143e-01 1.401595324277877808e-01 1.021762117743492126e-01 2.811772525310516357e-01 1.571732461452484131e-01 -1.159953996539115906e-01 4.313907325267791748e-01 -2.253054380416870117e-01 3.724538981914520264e-01 6.071819663047790527e-01 1.718685328960418701e-01 5.343549251556396484e-01 3.555497899651527405e-02 4.898797571659088135e-01 2.498826831579208374e-01 -4.602524638175964355e-02 3.108565509319305420e-01 1.420312374830245972e-01 -1.333081070333719254e-02 2.602994209155440331e-03 3.481406271457672119e-01 8.548006415367126465e-02 1.311657875776290894e-01 3.351288437843322754e-01 2.137037552893161774e-02 -2.820420861244201660e-01 2.820325195789337158e-01 2.908245027065277100e-01 1.853155940771102905e-01 6.578539609909057617e-01 4.511516094207763672e-01 -2.768592163920402527e-02 -1.575493998825550079e-02 -8.145036101341247559e-01 9.108674526214599609e-02 4.424914419651031494e-01 2.857038080692291260e-01 4.411233067512512207e-01 4.938558936119079590e-01 3.075371682643890381e-01 6.165564432740211487e-02 7.530742287635803223e-01 -2.161561101675033569e-01 1.084041869034990668e-04 2.546745538711547852e-01 4.776912629604339600e-01 1.978728361427783966e-02 -4.506421089172363281e-01 3.866083025932312012e-01 -1.210258379578590393e-01 -4.499975219368934631e-02 1.162779033184051514e-01 -4.062621891498565674e-01 -1.273191869258880615e-01 5.649594590067863464e-02 3.736689686775207520e-01 -2.298672348260879517e-01 5.255359038710594177e-02 -4.470448940992355347e-02 3.938042819499969482e-01 -9.573183953762054443e-02 3.302083611488342285e-01 4.293847978115081787e-01 2.122954577207565308e-01 -1.573814898729324341e-01 1.914448440074920654e-01 -1.463746130466461182e-01 -1.531569939106702805e-02 -3.291986584663391113e-01 5.570768713951110840e-01 -4.680995047092437744e-01 1.064416468143463135e-01 6.695839017629623413e-02
4.719879329204559326e-01 3.404455482959747314e-01 -8.620670996606349945e-03 -3.527441918849945068e-01 1.686476022005081177e-01 1.951406449079513550e-01 3.051818907260894775e-01 1.006969809532165527e-01 3.284203708171844482e-01 -1.106940135359764099e-01 1.648506224155426025e-01 7.967945188283920288e-02 8.653651475906372070e-01 2.808237969875335693e-01 2.221844904124736786e-02 3.044536709785461426e-01 -3.132763803005218506e-01 -1.758965780027210712e-03 -3.282831311225891113e-01 -7.879247516393661499e-02 4.246077537536621094e-01 3.356216847896575928e-01 4.704240262508392334e-01 2.092036008834838867e-01 2.243058569729328156e-02 4.561251997947692871e-01 2.483263984322547913e-02 7.981110364198684692e-02 1.837417185306549072e-01 6.562576889991760254e-01 6.059599518775939941e-01 4.321134388446807861e-01 1.138048395514488220e-01 2.322362363338470459e-01 9.920177459716796875e-01 4.616492390632629395e-01 -1.090103089809417725e-01 1.103061661124229431e-01 4.656754732131958008e-01 9.847858548164367676e-02 4.287121891975402832e-01 2.301001697778701782e-01 6.892687678337097168e-01 1.808818131685256958e-01 7.646322250366210938e-01 3.351693153381347656e-01 8.485261350870132446e-03 3.366008400917053223e-01 5.979243516921997070e-01 4.483923316001892090e-01 5.181609988212585449e-01 1.544967573136091232e-02 -7.083020359277725220e-02 5.316777229309082031e-01 7.811643183231353760e-02 1.906437277793884277e-01 -1.158979758620262146e-01 2.044916898012161255e-01 2.172150462865829468e-01 3.891135379672050476e-02 9.044191837310791016e-01 6.345931887626647949e-01 2.473623603582382202e-01 -5.107602477073669434e-02 1.935715377330780029e-01 -2.419687993824481964e-02 5.616604685783386230e-01 4.396252334117889404e-01 5.565311312675476074e-01 5.465405434370040894e-02 -5.429078638553619385e-02 1.021413803100585938e-01 -3.271112963557243347e-02 3.991332650184631348e-01 -1.260369569063186646e-01 3.452862501144409180e-01 1.906467080116271973e-01 6.957412511110305786e-02 3.926196098327636719e-01 2.034086585044860840e-01 -1.336604654788970947e-01 2.214099019765853882e-01 8.904007822275161743e-02 3.621289432048797607e-01 -3.593657314777374268e-01 5.300647020339965820e-01 1.253564655780792236e-01 2.492860406637191772e-01 -5.179471969604492188e-01 2.103610187768936157e-01 3.031780123710632324e-01 1.774258315563201904e-01 2.059140503406524658e-01 3.995172083377838135e-01 2.224778831005096436e-01 1.879995763301849365e-01 -2.749095857143402100e-02 4.836799502372741699e-01 5.891750454902648926e-01 1.370301842689514160e-01 5.663634538650512695e-01 2.202972173690795898e-01 3.401626944541931152e-01 7.916978746652603149e-02 2.794449031352996826e-01 1.087534800171852112e-01 -2.499890923500061035e-01 1.045263484120368958e-01 -1.882498152554035187e-02 5.162518024444580078e-01 2.003920972347259521e-01 6.477576494216918945e-02 3.061958849430084229e-01 6.372453570365905762e-01 1.232355237007141113e-01 2.295880168676376343e-01 1.676414310932159424e-01 3.839702531695365906e-02 5.757017731666564941e-01 4.120607972145080566e-01 9.886409156024456024e-03 4.618397355079650879e-01 -4.709381610155105591e-02 2.472582608461380005e-01 3.291183710098266602e-01 3.608184158802032471e-01 6.405008435249328613e-01 2.921059429645538330e-01
2.343459427356719971e-01 -4.637590646743774414e-01 -7.415664941072463989e-02 1.334488540887832642e-01 1.444608718156814575e-01 3.018075227737426758e-02 5.455930829048156738e-01 -2.723449468612670898e-01 -3.228469192981719971e-01 3.574256598949432373e-01 2.174626141786575317e-01 -1.473063528537750244e-01 7.539106905460357666e-02 -1.703970506787300110e-02 -3.824816942214965820e-01 6.623328328132629395e-01 2.739045321941375732e-01 -6.522706747055053711e-01 -1.482429802417755127e-01 6.604012250900268555e-01 3.990862071514129639e-01 -8.951133489608764648e-02 1.605952084064483643e-01 -3.156708776950836182e-01 -1.265709847211837769e-01 -1.412765588611364365e-02 -1.653446853160858154e-01 2.519994676113128662e-01 6.638457775115966797e-01 1.665576100349426270e-01 3.580492436885833740e-01 3.383136391639709473e-01 6.244162321090698242e-01 1.371939480304718018e-01 3.656308650970458984e-01 -2.341550439596176147e-01 3.695986866950988770e-01 -2.951479852199554443e-01 -5.191701930016279221e-03 -3.471157252788543701e-01 1.858361810445785522e-01 2.893137633800506592e-01 5.973759293556213379e-01 1.889133304357528687e-01 -7.998832315206527710e-02 -5.997522547841072083e-02 -3.225861862301826477e-02 5.377807095646858215e-02 4.151668250560760498e-01 1.124849095940589905e-01 1.548468470573425293e-01 -5.208469629287719727e-01 -7.869016528129577637e-01 8.861064165830612183e-02 2.427520453929901123e-01 -9.425362944602966309e-02 1.277342140674591064e-01 -1.634877622127532959e-01 7.602591514587402344e-01 1.272971630096435547e-01 -2.002833783626556396e-01 8.708934783935546875e-01 -4.869408905506134033e-02 1.501575857400894165e-01 3.868206441402435303e-01 7.320576906204223633e-01 6.368336081504821777e-01 4.056209623813629150e-01 9.196855127811431885e-02 3.469052910804748535e-01 1.598633676767349243e-01 3.719610571861267090e-01 -1.299717426300048828e-01 8.254175633192062378e-02 1.262169331312179565e-01 8.773196488618850708e-02 4.674245137721300125e-04 -3.609121963381767273e-02 1.432530283927917480e+00 5.492882132530212402e-01 9.731901809573173523e-03 2.823477424681186676e-02 -1.853427439928054810e-01 2.937292158603668213e-01 4.501217901706695557e-01 1.159864068031311035e-01 -4.802816547453403473e-03 2.478207200765609741e-01 -1.145495176315307617e+00 3.489492535591125488e-01 -7.766964286565780640e-02 2.186449617147445679e-01 -8.344930410385131836e-02 -5.362968444824218750e-01 2.660433948040008545e-01 3.522646129131317139e-01 1.184456497430801392e-01 -1.567739993333816528e-01 8.165438473224639893e-02 2.445517331361770630e-01 7.189649939537048340e-01 5.958044528961181641e-01 6.524956822395324707e-01 -2.395462542772293091e-01 3.119861781597137451e-01 -2.975591421127319336e-01 -3.564134538173675537e-01 -4.313981533050537109e-02 -2.980401217937469482e-01 5.375373959541320801e-01 7.475047707557678223e-01 1.231421828269958496e-01 1.830064654350280762e-01 4.107423722743988037e-01 1.446942836046218872e-01 2.857300639152526855e-02 2.120501995086669922e-01 3.503063917160034180e-01 -1.463887561112642288e-02 1.180989220738410950e-01 7.563704848289489746e-01 -3.383844792842864990e-01 2.177623957395553589e-01 9.290283173322677612e-02 -1.166903898119926453e-01 2.444940507411956787e-01 -3.207582235336303711e-01 3.215892314910888672e-01
5.779230594635009766e-01 -1.241109073162078857e-01 6.575034856796264648e-01 -2.315838336944580078e-01 2.638458013534545898e-01 -3.557592332363128662e-01 -1.011407598853111267e-01 4.729046225547790527e-01 2.143976688385009766e-01 -2.144865840673446655e-01 4.402702674269676208e-02 -7.426434159278869629e-01 4.807225763797760010e-01 7.119227945804595947e-02 2.048080414533615112e-01 5.133118629455566406e-01 1.617098599672317505e-01 -2.830542065203189850e-02 4.033072292804718018e-01 2.694969475269317627e-01 8.943484723567962646e-02 4.669976234436035156e-01 1.914306730031967163e-01 4.107225313782691956e-02 5.051296576857566833e-02 3.143444061279296875e-01 1.117118299007415771e-01 -1.384220123291015625e-01 2.582361102104187012e-01 1.110661774873733521e-01 -2.041719406843185425e-01 -1.444736719131469727e-01 6.523369550704956055e-01 6.233494281768798828e-01 -8.269278332591056824e-03 1.978020649403333664e-03 -6.360152363777160645e-02 6.574347615242004395e-01 3.440371155738830566e-01 8.146984130144119263e-02 1.164070814847946167e-01 4.648370146751403809e-01 3.685277700424194336e-01 -2.489131391048431396e-01 3.025178313255310059e-01 5.446297526359558105e-01 2.613759040832519531e-01 1.964344978332519531e-01 -5.401775985956192017e-02 9.243524819612503052e-02 2.399247884750366211e-01 4.359039068222045898e-01 1.595636755228042603e-01 -7.988478243350982666e-02 1.303960978984832764e-01 -2.620802223682403564e-01 1.296369135379791260e-01 6.018831133842468262e-01 1.251879781484603882e-01 2.764700055122375488e-01 1.653887182474136353e-01 6.588620543479919434e-01 -8.452187292277812958e-03 5.023693442344665527e-01 4.512676894664764404e-01 5.178747773170471191e-01 4.873634278774261475e-01 -2.534242570400238037e-01 4.495289623737335205e-01 1.603487282991409302e-01 -2.274016737937927246e-01 -3.299033641815185547e-02 -1.297706388868391514e-03 1.879025250673294067e-01 -2.670452594757080078e-01 5.074568390846252441e-01 1.722205057740211487e-02 2.483245879411697388e-01 9.178816080093383789e-01 3.344753682613372803e-01 -1.949467360973358154e-01 -2.181540578603744507e-01 7.192677259445190430e-02 1.897856891155242920e-01 4.082682728767395020e-01 -4.797853901982307434e-02 -1.659986227750778198e-01 3.824273347854614258e-01 -7.175286412239074707e-01 1.049716770648956299e-01 2.651410102844238281e-01 5.935707688331604004e-01 5.597856268286705017e-02 3.038880825042724609e-01 -1.596539169549942017e-01 2.051308453083038330e-01 -3.112228401005268097e-02 -1.397851854562759399e-01 7.062220573425292969e-02 -8.554071933031082153e-02 6.721787154674530029e-02 1.194631606340408325e-01 -7.661405205726623535e-02 -2.736292481422424316e-01 -1.664633490145206451e-02 1.740846484899520874e-01 6.940346956253051758e-01 4.217659831047058105e-01 -4.004245698451995850e-01 1.483656167984008789e-01 6.339428424835205078e-01 1.349667459726333618e-01 6.497011333703994751e-02 -1.677333414554595947e-01 -9.276462346315383911e-02 2.604411840438842773e-01 -3.617877960205078125e-01 1.265863925218582153e-01 1.787545979022979736e-01 2.138318121433258057e-01 7.745082974433898926e-01 1.866856217384338379e-01 -2.081655710935592651e-01 8.040812611579895020e-02 6.098212003707885742e-01 -7.493289560079574585e-02 7.277662754058837891e-01 4.541894793510437012e-01
-4.095271527767181396e-01 -3.026136755943298340e-01 3.809509575366973877e-01 -6.095301508903503418e-01 -2.836304903030395508e-01 -2.870813570916652679e-02 -4.512325301766395569e-02 4.323920607566833496e-02 1.201934337615966797e+00 -1.516634821891784668e-01 4.521878361701965332e-01 1.049105450510978699e-02 -4.170027375221252441e-01 -9.545403718948364258e-02 -6.301850080490112305e-01 6.541472077369689941e-01 1.204261630773544312e-01 8.751814365386962891e-01 -2.154684066772460938e-02 4.595231115818023682e-01 2.533956766128540039e-01 2.884994149208068848e-01 1.964435353875160217e-02 5.579560399055480957e-01 8.956530690193176270e-02 -5.866112932562828064e-02 -4.865616559982299805e-01 -9.254594892263412476e-02 5.218270048499107361e-02 2.638257145881652832e-01 -1.950635910034179688e-01 -3.000849485397338867e-01 -2.260739654302597046e-01 3.195840166881680489e-03 5.453431010246276855e-01 -1.037216484546661377e-01 5.758582949638366699e-01 -3.649014234542846680e-01 5.802948474884033203e-01 6.493131816387176514e-02 2.268474847078323364e-01 2.729909680783748627e-02 3.042467236518859863e-01 1.527832122519612312e-03 -3.643405735492706299e-01 -9.659540653228759766e-02 -3.091622292995452881e-01 1.229814961552619934e-01 -2.952288091182708740e-01 2.130454331636428833e-01 -2.244802266359329224e-01 2.421423345804214478e-01 -2.965422905981540680e-02 1.991304010152816772e-02 -2.071199864149093628e-01 3.671629428863525391e-01 1.422060608863830566e+00 3.467359542846679688e-01 -2.448279410600662231e-01 -1.919656544923782349e-01 -2.214192152023315430e-01 4.805693328380584717e-01 2.171125113964080811e-01 4.008856415748596191e-01 -1.110520437359809875e-01 -7.979120314121246338e-02 1.304513216018676758e-01 3.717950731515884399e-02 1.500039696693420410e-01 -3.454543352127075195e-01 -9.117520600557327271e-02 -3.263968825340270996e-01 3.469330668449401855e-01 2.664885250851511955e-03 2.939517796039581299e-01 7.958191633224487305e-01 1.317931711673736572e-01 1.667899370193481445e+00 9.020825028419494629e-01 6.241279840469360352e-01 8.677869290113449097e-02 -7.570382356643676758e-01 5.442031621932983398e-01 -2.315278351306915283e-02 -3.416491746902465820e-01 1.589111983776092529e-01 -1.116508021950721741e-01 -6.072378754615783691e-01 8.297364115715026855e-01 3.540499806404113770e-01 3.702856898307800293e-01 -5.170786976814270020e-01 -1.944365054368972778e-01 1.572834402322769165e-01 -3.886466026306152344e-01 -4.137897491455078125e-02 1.238882690668106079e-01 -4.577050730586051941e-02 -4.671210646629333496e-01 7.183523178100585938e-01 -6.024124622344970703e-01 1.535171419382095337e-01 3.404375538229942322e-02 5.393295288085937500e-01 -1.668291836977005005e-01 8.921941369771957397e-02 -6.337418556213378906e-01 -3.714023903012275696e-02 5.978109836578369141e-01 3.569882363080978394e-02 1.641256213188171387e-01 1.657056063413619995e-02 -3.395578563213348389e-01 1.698018908500671387e-01 5.005342364311218262e-01 -4.458093047142028809e-01 -1.005481630563735962e-01 3.162038922309875488e-01 9.209644049406051636e-02 7.839899510145187378e-03 -3.897262811660766602e-01 -2.119227200746536255e-01 8.271123468875885010e-02 2.739523053169250488e-01 1.545383483171463013e-01 -3.773556351661682129e-01 6.909220665693283081e-02 3.727003931999206543e-01
-4.339103400707244873e-01 -7.727014422416687012e-01 4.801865667104721069e-03 1.294385433197021484e+00 3.939354419708251953e-01 -4.320990145206451416e-01 2.583852112293243408e-01 -5.298102498054504395e-01 -1.623409688472747803e-01 3.654202818870544434e-02 -1.120361089706420898e-01 2.468239068984985352e-01 -2.351059168577194214e-01 3.848440647125244141e-01 -4.711850583553314209e-01 6.259664148092269897e-02 3.438626229763031006e-01 2.184386104345321655e-01 2.886677682399749756e-01 1.475011706352233887e-01 3.709573447704315186e-01 -2.229678481817245483e-01 -2.556152045726776123e-01 2.870146036148071289e-01 1.209147572517395020e-01 -3.181813284754753113e-02 -6.485457420349121094e-01 -5.306865274906158447e-02 1.406954884529113770e+00 -2.467321902513504028e-01 -6.908089667558670044e-02 -6.014769077301025391e-01 6.574454251676797867e-03 4.292331933975219727e-01 3.201092779636383057e-01 -3.462331593036651611e-01 9.202145934104919434e-01 4.542669355869293213e-01 -5.578674077987670898e-01 -3.804984986782073975e-01 8.604202419519424438e-02 5.333824753761291504e-01 -1.959294080734252930e-01 -2.336951941251754761e-01 -1.041759774088859558e-01 -6.639427505433559418e-03 -2.724398076534271240e-01 -1.749812364578247070e-01 1.837039589881896973e-01 1.072010546922683716e-01 -7.153348624706268311e-02 2.737137675285339355e-01 -3.105912506580352783e-01 -6.150045990943908691e-01 -2.228626161813735962e-01 -5.696678757667541504e-01 -6.403329968452453613e-01 -6.616231799125671387e-01 3.915389180183410645e-01 3.620197474956512451e-01 1.628897041082382202e-01 5.186359882354736328e-01 -4.896142482757568359e-01 -1.369287222623825073e-01 4.705049991607666016e-01 -1.070988643914461136e-02 1.589873880147933960e-01 -2.826254665851593018e-01 3.182775676250457764e-01 -4.120275676250457764e-01 -5.902979373931884766e-01 -2.097611725330352783e-01 -2.518602907657623291e-01 -1.399043798446655273e-01 1.742004901170730591e-01 8.549637198448181152e-01 -2.461065500974655151e-01 -3.837886452674865723e-01 2.297755002975463867e+00 5.812681913375854492e-01 3.400099575519561768e-01 -2.382353693246841431e-01 -8.724280595779418945e-01 2.969302833080291748e-01 7.254398465156555176e-01 -1.861065742559731007e-03 3.686834871768951416e-01 -7.206642627716064453e-02 -8.798444271087646484e-01 8.034107089042663574e-01 -2.651498913764953613e-01 3.414022624492645264e-01 -5.714693665504455566e-01 3.082488179206848145e-01 5.923387780785560608e-02 4.648734331130981445e-01 -3.217765986919403076e-01 3.819825351238250732e-01 -1.662151664495468140e-01 -1.485306769609451294e-01 -5.499765276908874512e-01 3.182921707630157471e-01 -4.581076204776763916e-01 -6.362406611442565918e-01 -8.497583866119384766e-02 -4.174584746360778809e-01 -1.919205039739608765e-01 -3.106475770473480225e-01 -1.004963994026184082e+00 3.276839256286621094e-01 3.878240287303924561e-02 -2.847864031791687012e-01 4.972545504570007324e-01 8.081517815589904785e-01 -5.785207748413085938e-01 4.837029054760932922e-02 -4.027624130249023438e-01 3.269473612308502197e-01 3.519400954246520996e-01 6.133600696921348572e-02 6.659442186355590820e-02 2.808424830436706543e-01 -8.006677031517028809e-01 -1.463309377431869507e-01 -3.604999184608459473e-02 2.927421927452087402e-01 9.621132165193557739e-02 2.989935576915740967e-01
2.245259704068303108e-03 2.123889476060867310e-01 -1.513268500566482544e-01 -6.630854308605194092e-02 8.059103786945343018e-02 8.723943829536437988e-01 5.287115573883056641e-01 -6.511127948760986328e-02 9.086718559265136719e-01 -2.070647180080413818e-01 7.031844854354858398e-01 -5.096698403358459473e-01 -4.241296350955963135e-01 -2.770202979445457458e-02 8.772194981575012207e-01 6.263411641120910645e-01 6.295089721679687500e-01 7.804247736930847168e-01 -8.859900385141372681e-02 1.971324384212493896e-01 -1.061261594295501709e-01 -1.669013500213623047e-01 3.106470108032226562e-01 -1.460936665534973145e-01 1.073172926902770996e+00 -9.430000931024551392e-02 3.287087008357048035e-02 6.532821059226989746e-02 4.787594974040985107e-01 3.901815786957740784e-02 -3.854956924915313721e-01 -1.141080819070339203e-02 -1.403811126947402954e-01 -6.276780366897583008e-01 3.006235361099243164e-01 1.397592872381210327e-01 4.744776785373687744e-01 5.180717706680297852e-01 6.402724981307983398e-02 -4.014973528683185577e-03 1.999101191759109497e-01 2.922818064689636230e-01 2.086322456598281860e-01 -1.903000324964523315e-01 -3.464667499065399170e-01 1.067558884620666504e+00 1.488372869789600372e-02 2.809408307075500488e-01 2.090128660202026367e-01 2.030190974473953247e-01 7.542355060577392578e-01 5.562624931335449219e-01 1.307314276695251465e+00 5.428618788719177246e-01 4.288378357887268066e-01 3.021714463829994202e-02 8.819899559020996094e-01 2.800816893577575684e-01 -2.879053950309753418e-01 -7.207608222961425781e-02 2.247192263603210449e-01 4.189993143081665039e-01 -2.913264185190200806e-02 1.623190045356750488e+00 9.238108396530151367e-01 9.032593369483947754e-01 -2.399492514086887240e-04 -2.011250704526901245e-01 4.833537340164184570e-01 9.851875305175781250e-01 3.645152226090431213e-02 2.789444625377655029e-01 -3.895761072635650635e-02 -2.984709665179252625e-02 -2.864005416631698608e-02 1.695111840963363647e-01 2.590917423367500305e-02 3.833345696330070496e-02 1.521654844284057617e+00 5.996204614639282227e-01 7.796017825603485107e-02 1.357462443411350250e-02 8.873563259840011597e-02 6.556547880172729492e-01 1.134002923965454102e+00 2.624705433845520020e-01 -1.031135395169258118e-01 -1.570303291082382202e-01 4.918598011136054993e-02 2.960435390472412109e+00 2.374860495328903198e-01 1.851769238710403442e-01 2.321516396477818489e-03 1.949839442968368530e-01 9.275633841753005981e-02 -6.567859556525945663e-03 3.701215684413909912e-01 5.210452079772949219e-01 -1.662352830171585083e-01 1.030852556228637695e+00 5.197973847389221191e-01 1.673964112997055054e-01 1.372157335281372070e+00 7.971089482307434082e-01 5.395151376724243164e-01 8.324728608131408691e-01 2.112889885902404785e-01 4.199809581041336060e-02 -3.784311115741729736e-01 2.923351526260375977e-01 3.696894645690917969e-01 -2.219639271497726440e-01 1.830997914075851440e-01 1.171203613281250000e+00 9.349269270896911621e-01 1.383286267518997192e-01 1.206847876310348511e-01 2.441696226596832275e-01 9.898375719785690308e-02 4.313643276691436768e-02 2.006526887416839600e-01 -2.645728550851345062e-02 9.635384678840637207e-01 -1.240851879119873047e-01 1.145854711532592773e+00 7.914099097251892090e-01 -4.021177887916564941e-01 -1.008939072489738464e-01
-3.125997781753540039e-01 -1.699537187814712524e-01 -3.159554898738861084e-01 -7.215928435325622559e-01 -7.293543219566345215e-02 -2.693095505237579346e-01 2.458689510822296143e-01 1.344065368175506592e-01 -3.524056077003479004e-01 -2.440329790115356445e-01 -5.607887357473373413e-02 -4.860749244689941406e-01 -1.917256116867065430e-01 -1.530243307352066040e-01 4.478452205657958984e-01 -6.566354036331176758e-01 -5.253153294324874878e-02 2.237704247236251831e-01 2.606347203254699707e-01 -2.064188271760940552e-01 2.868910431861877441e-01 -5.497661232948303223e-01 -5.342301353812217712e-02 -6.611605733633041382e-02 -1.244052648544311523e-01 -5.609976649284362793e-01 -3.271476030349731445e-01 1.197899878025054932e-01 -3.663108646869659424e-01 -2.496770769357681274e-01 -4.717879891395568848e-01 6.923421025276184082e-01 2.148298174142837524e-01 -2.109072804450988770e-01 -3.100173175334930420e-01 -1.543794721364974976e-01 -4.566702246665954590e-01 -3.078060448169708252e-01 -4.960589110851287842e-01 5.921055749058723450e-02 -1.415683776140213013e-01 -1.601869016885757446e-01 1.398898214101791382e-01 -2.928430438041687012e-01 1.815131008625030518e-01 2.145763188600540161e-01 -3.709634765982627869e-02 -3.142791986465454102e-01 3.678239881992340088e-01 -4.155090451240539551e-01 -3.688347041606903076e-01 -5.219336748123168945e-01 2.332111597061157227e-01 1.085870936512947083e-01 -6.005201116204261780e-02 -2.705245018005371094e-01 -1.031949639320373535e+00 5.260741710662841797e-01 -6.194926500320434570e-01 -8.754789829254150391e-02 -2.305313199758529663e-01 -2.743472754955291748e-01 -1.216600835323333740e-01 -2.534291148185729980e-01 1.858591735363006592e-01 2.394775673747062683e-02 2.325622588396072388e-01 5.337562561035156250e-01 -2.375406622886657715e-01 -4.810789227485656738e-01 -5.011808872222900391e-01 2.643741965293884277e-01 -3.582705557346343994e-02 4.613716527819633484e-02 -4.243733584880828857e-01 3.249373659491539001e-02 -3.990324735641479492e-01 -8.940631747245788574e-01 -8.856760710477828979e-02 5.061083436012268066e-01 -1.597019881010055542e-01 -2.585964798927307129e-01 -3.645436093211174011e-02 -3.002267777919769287e-01 4.977884888648986816e-01 1.904832422733306885e-01 1.360967159271240234e-01 -3.982808589935302734e-01 -1.507033705711364746e+00 -9.290551394224166870e-02 -1.823939383029937744e-01 -4.774562716484069824e-01 -2.536509931087493896e-01 -2.854443788528442383e-01 -1.111058443784713745e-01 -3.611097633838653564e-01 -3.561108708381652832e-01 -2.306235283613204956e-01 -3.473795950412750244e-01 -4.545410275459289551e-01 -4.440538287162780762e-01 1.226130127906799316e-01 1.576900854706764221e-02 -6.161907911300659180e-01 -1.175051555037498474e-01 2.893741726875305176e-01 8.703608065843582153e-02 -3.681638240814208984e-01 -2.086227387189865112e-01 5.457316339015960693e-02 -9.432498365640640259e-02 -9.277796149253845215e-01 3.848770633339881897e-02 2.058328986167907715e-01 -1.957899034023284912e-01 -4.562829062342643738e-02 1.784694790840148926e-01 -5.588255822658538818e-02 1.676197946071624756e-01 -1.148735433816909790e-01 3.982596099376678467e-01 6.376561522483825684e-02 -4.369197189807891846e-01 8.712624013423919678e-02 1.461270749568939209e-01 2.817660570144653320e-01 -4.131108894944190979e-02 -3.053983747959136963e-01
1.229450404644012451e-01 1.692038178443908691e-01 2.772027850151062012e-01 3.980365395545959473e-01 1.886596232652664185e-01 -1.786312460899353027e-01 2.770598530769348145e-01 -3.199197649955749512e-01 1.407199352979660034e-01 1.079934686422348022e-01 5.661967396736145020e-01 -1.674082279205322266e-01 -1.378138810396194458e-01 -1.014156341552734375e-01 3.270954787731170654e-01 3.976677954196929932e-01 7.599942386150360107e-02 -1.819402277469635010e-01 1.913870275020599365e-01 2.897610664367675781e-01 1.319372206926345825e-01 7.136451452970504761e-02 1.013684645295143127e-01 4.865734577178955078e-01 -2.274177223443984985e-02 3.088045120239257812e-01 1.093590185046195984e-01 -2.345654368400573730e-01 1.338372081518173218e-01 1.280164718627929688e-01 1.792795807123184204e-01 3.013852424919605255e-02 -5.819612741470336914e-01 -1.029161885380744934e-01 3.023404777050018311e-01 2.537739872932434082e-01 -8.456573635339736938e-02 -1.683938354253768921e-01 2.937163412570953369e-01 -1.289545446634292603e-01 -5.648777484893798828e-01 3.499173745512962341e-02 6.707282066345214844e-01 1.498218625783920288e-01 -1.529131382703781128e-01 1.245056316256523132e-01 8.520262837409973145e-01 -9.055498056113719940e-03 7.410498708486557007e-02 5.816438794136047363e-02 5.891028046607971191e-01 -7.079138606786727905e-02 6.362462043762207031e-01 2.276238799095153809e-01 1.830882877111434937e-01 -1.010601595044136047e-01 5.622369237244129181e-03 -6.246396303176879883e-01 -2.689993008971214294e-02 3.727068006992340088e-01 -1.507469862699508667e-01 -1.741468161344528198e-01 8.365868777036666870e-02 -5.429860353469848633e-01 3.658061027526855469e-01 -1.408825442194938660e-02 -1.882408559322357178e-01 -2.433022558689117432e-01 -7.304962724447250366e-02 -2.589844465255737305e-01 -5.696079507470130920e-02 2.377212606370449066e-02 1.810143142938613892e-02 -1.067952588200569153e-01 4.835245609283447266e-01 1.307862997055053711e-01 2.008262425661087036e-01 1.976337879896163940e-01 9.076809883117675781e-01 -4.839761257171630859e-01 -1.975177228450775146e-01 1.082525476813316345e-01 -1.530390381813049316e-01 6.083878874778747559e-01 -2.158848047256469727e-01 3.192707598209381104e-01 1.898966282606124878e-01 2.961222529411315918e-01 -2.306293696165084839e-01 2.092877775430679321e-02 -9.492495656013488770e-02 1.606554836034774780e-01 -1.803549528121948242e-01 -6.159054636955261230e-01 -4.836975410580635071e-02 -1.609418913722038269e-02 4.041101783514022827e-02 -2.613011896610260010e-01 -4.464776515960693359e-01 -6.155021786689758301e-01 -3.828005865216255188e-02 4.634515345096588135e-01 -1.187711507081985474e-01 3.478743508458137512e-02 -3.689543157815933228e-02 -3.143250048160552979e-01 5.351955890655517578e-01 -1.344702839851379395e-01 -2.002776116132736206e-01 -4.833790287375450134e-02 1.798486858606338501e-01 -2.837285995483398438e-01 8.783593773841857910e-01 -1.256216466426849365e-01 1.041362509131431580e-01 3.542828559875488281e-01 3.736678659915924072e-01 2.045619338750839233e-01 -1.272421628236770630e-01 2.217795848846435547e-01 -3.495636582374572754e-01 3.488670885562896729e-01 1.311790850013494492e-02 -1.833264343440532684e-02 5.250712037086486816e-01 -5.414621829986572266e-01 1.743728965520858765e-01 1.042295843944884837e-04
6.897657513618469238e-01 1.786389797925949097e-01 -2.922179698944091797e-01 7.202257215976715088e-02 -2.045506983995437622e-01 -2.984260953962802887e-02 -3.068677522242069244e-02 -1.469731777906417847e-01 3.045015633106231689e-01 1.912951320409774780e-01 1.972011923789978027e-01 -4.190976619720458984e-01 -1.931140720844268799e-01 -1.978924125432968140e-02 -3.605152964591979980e-01 5.700810551643371582e-01 2.609792537987232208e-02 -1.395741105079650879e-01 -8.802001923322677612e-02 4.730195403099060059e-01 1.952483952045440674e-01 -2.915921807289123535e-01 -1.528551429510116577e-01 6.502210348844528198e-02 -4.198518991470336914e-01 2.867440879344940186e-01 2.647232115268707275e-01 -4.868597537279129028e-02 -3.614524006843566895e-02 -2.034015059471130371e-01 -4.743316024541854858e-02 5.981722474098205566e-02 -6.992971301078796387e-01 -4.301866590976715088e-01 5.244400501251220703e-01 7.016198635101318359e-01 -6.745650768280029297e-01 -4.043359756469726562e-01 2.489545792341232300e-01 2.305587083101272583e-01 -1.489184647798538208e-01 1.473502665758132935e-01 3.591084182262420654e-01 -9.927470982074737549e-02 2.325431257486343384e-01 -6.600864231586456299e-02 6.414450407028198242e-01 -2.815688848495483398e-01 2.974143326282501221e-01 -2.320909053087234497e-01 -1.921353489160537720e-01 -3.096649348735809326e-01 9.433462619781494141e-01 1.131733357906341553e-01 7.659035921096801758e-02 1.584704965353012085e-01 3.465563654899597168e-01 -2.290698438882827759e-01 -3.616509437561035156e-01 7.170254588127136230e-01 -9.024259448051452637e-02 3.130269646644592285e-01 2.302257902920246124e-02 3.441641852259635925e-02 4.249212145805358887e-01 -1.185815315693616867e-03 -4.647542238235473633e-01 -2.991693317890167236e-01 2.771838903427124023e-01 2.082525491714477539e-01 -2.977377176284790039e-01 2.786653637886047363e-01 5.339393615722656250e-01 -2.450338453054428101e-01 5.404563546180725098e-01 -7.726478576660156250e-02 3.062498569488525391e-01 -2.140123844146728516e-01 6.068975329399108887e-01 -1.233398169279098511e-01 -1.479950733482837677e-02 1.967712938785552979e-01 2.485235221683979034e-02 6.487303972244262695e-01 5.069754123687744141e-01 -2.272403240203857422e-01 2.276476472616195679e-01 -4.246194064617156982e-01 3.519691899418830872e-02 1.006294786930084229e-01 -1.940208114683628082e-02 3.124773800373077393e-01 -5.903680622577667236e-02 -2.260263115167617798e-01 -5.844888836145401001e-02 9.502705186605453491e-02 3.383431732654571533e-01 3.148714452981948853e-02 -2.020470947027206421e-01 -2.723732888698577881e-01 -8.054816722869873047e-01 2.778451144695281982e-01 -2.107482403516769409e-01 1.575896739959716797e-01 -8.994471281766891479e-02 -3.465155065059661865e-01 1.457350552082061768e-01 -1.819517165422439575e-01 2.809797227382659912e-02 -2.353230724111199379e-03 7.819406688213348389e-02 -2.735283374786376953e-01 4.197609424591064453e-01 -1.250222921371459961e-01 -9.433970600366592407e-02 1.644385457038879395e-01 -2.961204648017883301e-01 -1.714836210012435913e-01 -3.221096396446228027e-01 1.863670796155929565e-01 -2.900699973106384277e-01 -1.974977552890777588e-01 -1.173543781042098999e-01 -2.530916333198547363e-01 6.455060094594955444e-02 -3.643138706684112549e-01 -8.098808676004409790e-02 -6.050442904233932495e-02
7.924644351005554199e-01 1.429894864559173584e-01 3.501265347003936768e-01 -2.121996432542800903e-01 1.623660475015640259e-01 2.308221459388732910e-01 5.986137986183166504e-01 5.789684057235717773e-01 2.469151318073272705e-01 1.332099884748458862e-01 1.806401461362838745e-01 1.520276516675949097e-01 6.410829424858093262e-01 -3.483446836471557617e-01 -3.612028360366821289e-01 1.023942232131958008e+00 -5.819278955459594727e-02 6.883662939071655273e-01 -8.619538694620132446e-02 5.083137154579162598e-01 4.958131611347198486e-01 -1.139469519257545471e-01 -1.368596311658620834e-02 6.104767322540283203e-01 -6.749543547630310059e-02 6.528789997100830078e-01 5.456135421991348267e-02 -2.880475819110870361e-01 3.003567755222320557e-01 3.689790964126586914e-01 -3.293237388134002686e-01 6.962557882070541382e-02 8.114913702011108398e-01 4.357540011405944824e-01 8.502915501594543457e-01 6.927406787872314453e-01 -3.746728003025054932e-01 1.262463778257369995e-01 1.272174566984176636e-01 2.430081665515899658e-01 2.208227217197418213e-01 5.455393791198730469e-01 7.957414388656616211e-01 2.581471800804138184e-01 9.644536375999450684e-01 1.683522164821624756e-01 -3.425590097904205322e-01 -2.634869515895843506e-01 1.795339584350585938e-01 5.612553954124450684e-01 3.001764714717864990e-01 -1.749714463949203491e-01 8.546167612075805664e-01 1.643840968608856201e-01 5.088020563125610352e-01 -3.467357158660888672e-01 6.821908354759216309e-01 -1.211004927754402161e-01 1.361681669950485229e-01 -1.313185542821884155e-01 4.666921794414520264e-01 4.641019105911254883e-01 -3.243991732597351074e-01 5.093759894371032715e-01 1.176822662353515625e+00 3.398575782775878906e-01 -6.822255998849868774e-02 -2.264671958982944489e-02 2.299005538225173950e-01 4.347935914993286133e-01 -9.752311557531356812e-02 4.012235403060913086e-01 9.077090024948120117e-02 2.222767174243927002e-01 7.284792661666870117e-01 5.874417424201965332e-01 2.060851156711578369e-01 1.291839480400085449e-01 1.353943109512329102e+00 6.342241168022155762e-01 3.305342197418212891e-01 -3.517965599894523621e-02 6.286340951919555664e-02 8.266816139221191406e-01 7.143131494522094727e-01 3.315844237804412842e-01 9.420946240425109863e-02 2.353757619857788086e-01 -3.275479078292846680e-01 5.606775283813476562e-01 8.946083784103393555e-01 5.095059871673583984e-01 1.786624193191528320e-01 -1.710924506187438965e-01 -1.992828212678432465e-02 -2.050682455301284790e-01 2.342118918895721436e-01 2.913073301315307617e-01 -5.163769125938415527e-01 -1.632940582931041718e-02 5.616918802261352539e-01 2.341272383928298950e-01 2.636577486991882324e-01 9.006692469120025635e-02 3.256295323371887207e-01 1.152648031711578369e-01 8.614554256200790405e-02 2.235766872763633728e-02 -2.525317668914794922e-01 4.672800302505493164e-01 1.149331688880920410e+00 2.140431702136993408e-01 1.625802367925643921e-01 5.143650770187377930e-01 2.442065328359603882e-01 1.739604771137237549e-01 2.964248508214950562e-02 5.357189774513244629e-01 4.970502555370330811e-01 -4.089321196079254150e-01 8.667713403701782227e-01 1.788265109062194824e-01 -2.307500839233398438e-01 -5.319435894489288330e-02 8.272603750228881836e-01 6.682966649532318115e-02 2.250666767358779907e-01 1.423157811164855957e+00
3.554171621799468994e-01 -1.030608415603637695e-01 1.365445256233215332e-01 2.909897863864898682e-01 2.548927068710327148e-01 -1.395325064659118652e-01 3.855762481689453125e-01 6.624180078506469727e-02 -2.150208055973052979e-01 5.463910475373268127e-02 3.376453816890716553e-01 -1.045945361256599426e-01 -3.070323169231414795e-01 4.435357078909873962e-02 5.214614272117614746e-01 -2.970676422119140625e-01 3.849084973335266113e-01 -5.772483721375465393e-02 4.453490674495697021e-01 1.841071248054504395e-01 1.085208579897880554e-01 3.921157717704772949e-01 9.890526533126831055e-02 3.198941648006439209e-01 -1.938327848911285400e-01 6.591507047414779663e-02 9.526363015174865723e-02 -4.979265108704566956e-02 -2.313005179166793823e-02 -4.032584130764007568e-01 -3.894235491752624512e-01 -5.784271359443664551e-01 -7.356235384941101074e-02 2.219795435667037964e-01 2.264158874750137329e-01 1.933687180280685425e-01 3.310731947422027588e-01 -5.637028440833091736e-02 1.822735816240310669e-01 3.004845082759857178e-01 -3.409901559352874756e-01 3.191442489624023438e-01 -2.102841883897781372e-01 2.210408747196197510e-01 2.518911957740783691e-01 6.603017449378967285e-02 -5.436413884162902832e-01 1.310903280973434448e-01 3.083254396915435791e-01 5.701433494687080383e-02 -1.911227256059646606e-01 -1.318607330322265625e-01 2.015894055366516113e-01 -4.313259124755859375e-01 2.224697023630142212e-01 -3.263437375426292419e-02 -3.717553918249905109e-04 1.863789744675159454e-02 2.632427513599395752e-01 -3.129521608352661133e-01 7.222387194633483887e-02 7.111560106277465820e-01 -4.658233225345611572e-01 2.288420349359512329e-01 -8.858833909034729004e-01 7.263471186161041260e-02 2.920625498518347740e-03 -9.758301079273223877e-02 -2.144099622964859009e-01 -2.717702686786651611e-01 -8.733763545751571655e-02 1.009233966469764709e-01 -2.264675348997116089e-01 1.547857969999313354e-01 4.286971390247344971e-01 -4.103253185749053955e-01 -4.103608727455139160e-01 1.001679182052612305e+00 2.090179920196533203e+00 -5.090884398669004440e-03 -2.384783178567886353e-01 -5.394206643104553223e-01 5.232861042022705078e-01 -2.363089472055435181e-01 3.196053951978683472e-02 -3.486612141132354736e-01 -3.270384669303894043e-01 4.102497994899749756e-01 -6.749088764190673828e-01 6.722750067710876465e-01 3.580193817615509033e-01 3.026874065399169922e-01 -1.515837293118238449e-02 -2.190642207860946655e-01 -2.862434983253479004e-01 9.760062396526336670e-02 -6.800380349159240723e-01 2.895421981811523438e-01 -2.259067632257938385e-02 6.652919948101043701e-02 -5.861299633979797363e-01 8.827601373195648193e-02 1.476112455129623413e-01 4.088201522827148438e-01 -6.847107410430908203e-02 -1.666068583726882935e-01 -7.515802383422851562e-01 1.494745612144470215e-01 7.393807917833328247e-02 -2.773453593254089355e-01 3.902517557144165039e-01 2.592884004116058350e-01 1.965826451778411865e-01 5.089163184165954590e-01 1.690461039543151855e-01 -8.920665085315704346e-02 -5.991247892379760742e-01 3.618678748607635498e-01 3.729812204837799072e-01 -9.803404100239276886e-03 -2.691037058830261230e-01 2.839184105396270752e-01 -5.972647666931152344e-01 2.191506326198577881e-02 2.563091516494750977e-01 -6.679435819387435913e-02 7.957661151885986328e-01 4.187330231070518494e-02
7.446428537368774414e-01 5.635223984718322754e-01 6.094484925270080566e-01 2.974694669246673584e-01 5.821231007575988770e-01 1.551477015018463135e-01 3.746073544025421143e-01 -1.400566697120666504e-01 9.590712189674377441e-02 1.761939674615859985e-01 -2.374858409166336060e-01 -3.743581473827362061e-02 2.274230122566223145e-01 1.190747693181037903e-01 7.056963443756103516e-01 3.616620898246765137e-01 1.652204394340515137e-01 5.995911359786987305e-01 2.255369722843170166e-02 9.590395092964172363e-01 -7.453059405088424683e-02 3.775494396686553955e-01 5.122699141502380371e-01 3.456365764141082764e-01 1.236464455723762512e-01 6.871926188468933105e-01 -1.351651698350906372e-01 2.067148685455322266e-01 5.082901120185852051e-01 4.809653460979461670e-01 4.218851402401924133e-02 5.964589491486549377e-02 4.023009240627288818e-01 1.413896679878234863e-01 4.641908034682273865e-02 5.096240043640136719e-01 5.826978087425231934e-01 1.513506174087524414e-01 5.911106616258621216e-02 5.409414768218994141e-01 2.164902985095977783e-01 4.718713164329528809e-01 3.803116083145141602e-01 4.556708037853240967e-01 3.503217995166778564e-01 3.172497153282165527e-01 9.054124355316162109e-02 1.241111457347869873e-01 -2.101486772298812866e-01 4.752780795097351074e-01 4.492768943309783936e-01 3.923538923263549805e-01 2.030925750732421875e-01 4.063836336135864258e-01 1.431088745594024658e-01 2.403477132320404053e-01 6.884709596633911133e-01 4.343775808811187744e-01 7.041479945182800293e-01 2.511751353740692139e-01 7.406795024871826172e-01 3.589493632316589355e-01 4.962885081768035889e-01 1.146503329277038574e+00 3.479163050651550293e-01 1.966062188148498535e-01 -1.013408228754997253e-01 1.150631755590438843e-01 2.579763829708099365e-01 -3.468260169029235840e-02 5.657426118850708008e-01 2.469876408576965332e-01 6.485257744789123535e-01 4.010583758354187012e-01 -1.718371510505676270e-01 -1.752443164587020874e-01 3.886442780494689941e-01 8.020837306976318359e-01 -1.182169932872056961e-02 2.712629437446594238e-01 3.295277357101440430e-01 4.793616533279418945e-01 2.757252752780914307e-01 2.099296897649765015e-01 2.433266639709472656e-01 2.944891154766082764e-01 2.070429623126983643e-01 9.799920022487640381e-03 -2.043987363576889038e-01 3.952460587024688721e-01 8.882631659507751465e-01 -2.831699848175048828e-01 6.259030103683471680e-01 3.857535719871520996e-01 -2.960886657238006592e-01 5.494826436042785645e-01 -4.155673831701278687e-02 6.132328510284423828e-02 1.257966905832290649e-01 1.383907943964004517e-01 4.428606927394866943e-01 4.672885239124298096e-01 6.910847425460815430e-01 3.430583178997039795e-01 7.370630502700805664e-01 5.020764470100402832e-01 4.429090619087219238e-01 2.567920386791229248e-01 5.205275863409042358e-02 5.024749636650085449e-01 -2.882837355136871338e-01 -3.598832786083221436e-01 -2.121146321296691895e-01 -2.149351835250854492e-01 -6.961617618799209595e-02 1.181856989860534668e-01 2.558640241622924805e-01 4.320111572742462158e-01 9.043368101119995117e-01 6.213820576667785645e-01 3.362352550029754639e-01 1.374915838241577148e-01 2.793031036853790283e-01 8.939559012651443481e-02 1.120355367660522461e+00 -2.875777184963226318e-01 4.084646999835968018e-01 2.521025538444519043e-01
1.079196631908416748e-01 5.150745511054992676e-01 -2.259764820337295532e-01 -3.483595252037048340e-01 -5.876401066780090332e-01 3.107147812843322754e-01 2.086283415555953979e-01 -1.785747855901718140e-01 3.924261331558227539e-01 -6.589573025703430176e-01 1.317230612039566040e-01 -3.198615014553070068e-01 -3.268935531377792358e-02 -4.233805835247039795e-01 4.406817257404327393e-02 9.963897615671157837e-02 -1.824159026145935059e-01 8.175085484981536865e-02 -2.506428398191928864e-02 -2.825613319873809814e-02 -3.017259240150451660e-01 -8.853969722986221313e-02 1.762777417898178101e-01 -1.269004046916961670e-01 1.111512109637260437e-01 2.444243580102920532e-01 3.525506556034088135e-01 -3.957296609878540039e-01 -7.135132551193237305e-01 2.374923825263977051e-01 2.185994237661361694e-01 -2.697090804576873779e-01 -1.579665988683700562e-01 -2.513649761676788330e-01 -1.470264885574579239e-02 -1.546508967876434326e-01 -2.194985747337341309e-01 2.182231396436691284e-01 -4.991056323051452637e-01 2.933750674128532410e-02 3.176705911755561829e-02 2.791221141815185547e-01 -4.621987789869308472e-02 -1.743125170469284058e-01 4.809056222438812256e-02 4.277449101209640503e-02 -2.467546164989471436e-01 -1.154363006353378296e-01 -1.907560676336288452e-01 -2.793658375740051270e-01 2.717386782169342041e-01 -1.342862695455551147e-01 -6.281212568283081055e-01 1.744714565575122833e-02 9.884412586688995361e-02 -1.093313470482826233e-01 6.854553222656250000e-01 3.532676994800567627e-01 -4.800689816474914551e-01 -7.204378843307495117e-01 -1.216298714280128479e-01 -3.086187243461608887e-01 7.209470123052597046e-02 1.618550121784210205e-01 -1.037526607513427734e+00 3.234679400920867920e-01 -7.075785398483276367e-01 -4.016725420951843262e-01 -1.984108388423919678e-01 -1.892592906951904297e-01 -1.411491632461547852e-01 4.118860960006713867e-01 -3.871623575687408447e-01 -4.122053831815719604e-02 2.928206324577331543e-01 -1.941409409046173096e-01 -1.160052418708801270e-02 -2.055139094591140747e-01 2.699043154716491699e-01 6.679027527570724487e-02 -3.898240327835083008e-01 -1.963724009692668915e-02 -1.565826088190078735e-01 -6.325066089630126953e-02 -1.951725035905838013e-01 -2.585072219371795654e-01 -2.312704473733901978e-01 5.307915806770324707e-02 -8.595375418663024902e-01 -8.139618672430515289e-03 -6.268900036811828613e-01 3.571470975875854492e-01 2.359265647828578949e-02 -7.872544527053833008e-01 -8.221977204084396362e-02 -5.618551000952720642e-02 -2.237060815095901489e-01 -5.213441252708435059e-01 -3.319565355777740479e-01 3.101946413516998291e-01 -3.577113850042223930e-03 -1.279782056808471680e-01 1.296462118625640869e-01 5.514935255050659180e-01 2.682637870311737061e-01 1.355326324701309204e-01 -4.159182775765657425e-03 1.805174946784973145e-01 -1.712403446435928345e-01 -1.245848983526229858e-01 -1.826511323451995850e-01 -2.851656675338745117e-01 3.031434956938028336e-03 -1.040581226348876953e+00 2.767457962036132812e-01 -2.536645531654357910e-01 -3.988601863384246826e-01 1.548039615154266357e-01 -2.465425729751586914e-01 5.961224064230918884e-02 4.162836372852325439e-01 -2.104161381721496582e-01 1.057749390602111816e-01 -6.457891315221786499e-02 -7.205544710159301758e-01 -3.798793256282806396e-02 -3.025882840156555176e-01 -4.445529282093048096e-01
-7.305412553250789642e-03 -5.968478694558143616e-02 -1.583961397409439087e-01 -9.772210568189620972e-02 2.055146694183349609e-01 -3.091210424900054932e-01 -2.895237803459167480e-01 -5.606912970542907715e-01 -1.671118438243865967e-01 1.963009834289550781e-01 -1.943553611636161804e-02 -1.712297648191452026e-01 -8.702950924634933472e-02 -3.173448741436004639e-01 -7.223531603813171387e-01 -1.013088673353195190e-01 -2.293025255203247070e-01 -2.862105369567871094e-01 -1.971720345318317413e-02 -1.345309913158416748e-01 3.929242491722106934e-01 1.958505958318710327e-01 -1.315008550882339478e-01 4.366999492049217224e-03 1.075629219412803650e-01 -1.855333447456359863e-01 -4.569905400276184082e-01 -3.493499457836151123e-01 6.334312558174133301e-01 -3.306142687797546387e-01 7.526738941669464111e-02 -2.293673902750015259e-02 1.431708484888076782e-01 -3.098313510417938232e-01 9.716484695672988892e-02 -5.346866790205240250e-03 -2.909447848796844482e-01 -2.102837115526199341e-01 -4.191847145557403564e-01 -1.011270359158515930e-01 -6.985055208206176758e-01 1.287564188241958618e-01 8.147145062685012817e-02 1.618227660655975342e-01 1.993475407361984253e-01 -1.293505877256393433e-01 2.425585538148880005e-01 -1.433248631656169891e-03 -2.876763641834259033e-01 -5.220343545079231262e-02 1.245145946741104126e-01 -4.043880105018615723e-01 5.245011448860168457e-01 -3.839760124683380127e-01 -3.521214723587036133e-01 7.118802517652511597e-02 3.779926151037216187e-02 -6.670664548873901367e-01 1.351424008607864380e-01 7.008662819862365723e-02 3.729228675365447998e-02 6.496313214302062988e-01 -3.070747852325439453e-01 5.805365443229675293e-01 2.963493168354034424e-01 -9.283706545829772949e-02 7.715749740600585938e-02 -7.372307777404785156e-01 -4.920186698436737061e-01 -4.257054924964904785e-01 1.123136430978775024e-01 -3.263283669948577881e-01 -3.172066807746887207e-01 2.743132412433624268e-03 3.592033982276916504e-01 7.459516078233718872e-02 -1.657071709632873535e-02 -6.222915649414062500e-01 1.769204497337341309e+00 5.168402791023254395e-01 -3.272100687026977539e-01 1.333714872598648071e-01 -3.272221609950065613e-02 -2.377710938453674316e-01 5.858386158943176270e-01 -2.532463967800140381e-01 2.172784954309463501e-01 2.482537552714347839e-02 -1.331342577934265137e+00 3.065726757049560547e-01 4.092003703117370605e-01 -5.788313746452331543e-01 -3.820841014385223389e-02 -3.257503211498260498e-01 -5.150092244148254395e-01 4.725485444068908691e-01 -7.200278341770172119e-02 -1.941274702548980713e-01 -5.909231305122375488e-01 -5.411720275878906250e-01 4.166546836495399475e-02 -1.589803099632263184e-01 -1.864019036293029785e-01 -6.669117212295532227e-01 -1.061444431543350220e-01 -2.378592044115066528e-01 1.473997831344604492e-01 -7.286608815193176270e-01 -5.101110339164733887e-01 -1.240937486290931702e-01 -9.593630582094192505e-02 -1.527802646160125732e-01 3.487923145294189453e-01 -1.562624722719192505e-01 -7.802289724349975586e-01 -1.979750096797943115e-01 5.696243420243263245e-02 -2.522191107273101807e-01 -2.111455947160720825e-01 -1.353200972080230713e-01 -3.951410949230194092e-01 -1.129805520176887512e-01 -1.613143235445022583e-01 5.240783691406250000e-01 2.992637753486633301e-01 6.488050222396850586e-01 -8.274196088314056396e-02 -5.666607618331909180e-01
