-1.028385877609252930e+00 -9.330841898918151855e-01 2.835389971733093262e-01 5.522312596440315247e-02 -3.480452299118041992e-01 -3.177612125873565674e-01 -2.544698953628540039e+00 -2.751724794507026672e-02 -8.541811108589172363e-01 -9.457311630249023438e-01 5.608330015093088150e-03 1.800925582647323608e-01 -1.175442695617675781e+00 4.653010666370391846e-01 -2.927232161164283752e-02 -1.499818205833435059e+00 3.080879747867584229e-01 1.033099889755249023e+00 1.293114542961120605e+00 2.071107476949691772e-01 7.711653709411621094e-01 -4.346357882022857666e-01 -1.804882884025573730e+00 -1.658869981765747070e+00 -6.285759806632995605e-01 -1.294676661491394043e+00 -4.872768223285675049e-01 -8.419454693794250488e-01 3.763565719127655029e-01 -7.555512189865112305e-01 -5.657215118408203125e-01 -2.895954608917236328e+00 -1.572744131088256836e+00 -1.378386318683624268e-01 -2.806603014469146729e-01 -1.933364510536193848e+00 -6.749518513679504395e-01 -1.453224718570709229e-01 -1.521187186241149902e+00 7.683660387992858887e-01 1.265942454338073730e-01 3.597311675548553467e-01 7.355213165283203125e-02 1.173999309539794922e+00 9.477142691612243652e-01 3.194576501846313477e-01 -4.115281105041503906e-01 6.790685653686523438e-01 7.391304969787597656e-01 2.166220426559448242e+00 1.511950045824050903e-01 -2.035112857818603516e+00 -1.096905916929244995e-01 -1.011408805847167969e+00 -9.142291545867919922e-02 -2.165441751480102539e+00 -2.872208133339881897e-02 8.857183456420898438e-01 -2.388035506010055542e-01 1.419779896736145020e+00 -1.399437189102172852e+00 -9.620374441146850586e-01 -1.496108919382095337e-01 1.320546865463256836e+00 -9.822170138359069824e-01 -1.371916174888610840e+00 3.815369009971618652e-01 -4.453821480274200439e-01 3.459667265415191650e-01 1.045079156756401062e-01 -6.009276583790779114e-02 -3.432782292366027832e-01 -3.953965008258819580e-01 -6.214734632521867752e-03 -1.987506628036499023e+00 6.436737179756164551e-01 -5.132233500480651855e-01 2.147349119186401367e-01 -1.058706119656562805e-01 -6.309996843338012695e-01 7.271437644958496094e-01 4.335237443447113037e-01 7.656256556510925293e-01 -4.560889899730682373e-01 4.921666383743286133e-01 -4.397242963314056396e-01 1.426419138908386230e+00 1.387021183967590332e+00 -3.129795193672180176e-01 2.823626756668090820e+00 -2.882122099399566650e-01 1.829234480857849121e+00 -6.251604557037353516e-01 -1.212358117103576660e+00 2.003726810216903687e-01 -6.624456048011779785e-01 4.816777259111404419e-02 -1.038351893424987793e+00 -2.377098500728607178e-01 -4.725577831268310547e-01 1.122275471687316895e+00 6.848744750022888184e-01 1.957636177539825439e-01 -9.979121685028076172e-01 -7.202154994010925293e-01 7.367132902145385742e-01 8.108931779861450195e-01 8.101126551628112793e-02 1.804191991686820984e-02 1.652330279350280762e+00 -1.475278973579406738e+00 6.518529057502746582e-01 -6.477379202842712402e-01 -8.590739965438842773e-01 4.743978679180145264e-01 2.651608884334564209e-01 6.709112524986267090e-01 -3.229277729988098145e-01 9.462416172027587891e-01 7.097279429435729980e-01 -5.678392648696899414e-01 -1.911474347114562988e+00 7.305760402232408524e-03 -2.843972742557525635e-01 3.344312608242034912e-01 -5.709858536720275879e-01 -5.964942574501037598e-01 3.652995526790618896e-01
-5.106456875801086426e-01 6.096025109291076660e-01 1.237917542457580566e-01 9.806137084960937500e-01 -1.226929545402526855e+00 -8.513351678848266602e-01 -6.003021597862243652e-01 -1.138319253921508789e+00 -9.962344914674758911e-02 6.426319479942321777e-01 3.924927711486816406e-01 -1.679274916648864746e+00 9.055154025554656982e-02 3.285435438156127930e-01 9.766452908515930176e-01 -9.978431463241577148e-02 -5.549219250679016113e-01 -2.271762937307357788e-01 1.500919938087463379e+00 2.693547904491424561e-01 -4.142932221293449402e-02 -1.274453759193420410e+00 -6.007260680198669434e-01 6.555622071027755737e-02 5.420936346054077148e-01 1.435689926147460938e+00 2.815686352550983429e-02 1.568986624479293823e-01 -1.306090503931045532e-01 1.035114645957946777e+00 -5.205501317977905273e-01 -4.081659913063049316e-01 1.698147803544998169e-01 2.113026529550552368e-01 -5.462979674339294434e-01 4.631082713603973389e-01 -6.960234045982360840e-02 -1.041475772857666016e+00 -1.373398423194885254e+00 2.586612999439239502e-01 -8.189148306846618652e-01 -7.758147120475769043e-01 1.634803712368011475e-01 -4.511381089687347412e-01 3.171404004096984863e-01 -7.695336639881134033e-02 1.733676195144653320e-01 -2.590514719486236572e-01 -1.449029892683029175e-01 8.103907108306884766e-01 -3.386202156543731689e-01 1.100971549749374390e-02 4.277998805046081543e-01 1.654403567314147949e+00 -9.067190289497375488e-01 1.304719150066375732e-01 1.422811597585678101e-01 1.110379099845886230e+00 2.717609405517578125e-01 -1.165567159652709961e+00 -1.092706799507141113e+00 -1.391852051019668579e-01 -4.909101128578186035e-01 -1.394144773483276367e+00 -2.285112589597702026e-01 4.304765760898590088e-01 4.371469914913177490e-01 2.326739281415939331e-01 7.257450819015502930e-01 6.473779082298278809e-01 1.131714105606079102e+00 6.854748725891113281e-01 -1.474935859441757202e-01 -5.225518941879272461e-01 9.683637022972106934e-01 3.523325920104980469e-01 -1.881576329469680786e-01 5.559307336807250977e-01 -6.351087093353271484e-01 3.442404866218566895e-01 4.586556926369667053e-02 1.267168968915939331e-01 7.113190889358520508e-01 -2.873580753803253174e-01 -1.226849794387817383e+00 -2.249948263168334961e+00 9.081770181655883789e-01 -7.817735075950622559e-01 4.912151396274566650e-01 2.116138786077499390e-01 -2.513837814331054688e-01 -6.871361732482910156e-01 -3.066527545452117920e-01 4.153359308838844299e-02 1.447897791862487793e+00 -1.406648635864257812e+00 1.380435585975646973e+00 -5.600862503051757812e-01 -5.085783004760742188e-01 -8.494767546653747559e-01 -9.497289061546325684e-01 -8.278796672821044922e-01 7.819332480430603027e-01 2.901567220687866211e-01 -3.294106125831604004e-01 -4.168460071086883545e-01 1.196222782135009766e+00 4.658963978290557861e-01 -9.573179483413696289e-01 -2.337482124567031860e-01 -6.502618193626403809e-01 7.153206318616867065e-02 -1.540168821811676025e-01 8.677790313959121704e-02 -2.494051009416580200e-01 4.826845228672027588e-01 -6.060581207275390625e-01 -4.150545969605445862e-02 1.303981423377990723e+00 -6.914713978767395020e-01 -5.798860192298889160e-01 2.413650989532470703e+00 -8.262317180633544922e-01 7.444905638694763184e-01 -1.873776018619537354e-01 5.518106222152709961e-01 -6.523023825138807297e-03 -2.965558767318725586e-01
8.364821672439575195e-01 4.827883467078208923e-02 -9.397212862968444824e-01 2.873035371303558350e-01 5.456126332283020020e-01 1.990981996059417725e-01 4.010280966758728027e-01 -7.794035226106643677e-02 -5.290374755859375000e-01 2.187405675649642944e-01 -6.037713885307312012e-01 6.454222798347473145e-01 2.295452207326889038e-01 1.022290997207164764e-02 7.976254224777221680e-01 -6.060732007026672363e-01 1.140866279602050781e+00 -6.434265375137329102e-01 -5.387442708015441895e-01 1.336167216300964355e+00 -1.234315708279609680e-01 1.082708120346069336e+00 -4.269122183322906494e-01 9.921571016311645508e-01 6.446652412414550781e-01 -4.891771972179412842e-01 6.614232659339904785e-01 -1.690535187721252441e+00 -7.348768115043640137e-01 2.156063914299011230e-01 6.770362257957458496e-01 1.245678782463073730e+00 4.131317138671875000e-01 -7.408289909362792969e-01 9.403447508811950684e-01 -3.590616285800933838e-01 8.881422877311706543e-01 -4.048284888267517090e-01 5.981908440589904785e-01 -1.440722942352294922e-01 -8.295997232198715210e-02 3.221730589866638184e-01 3.134957849979400635e-01 -5.040715336799621582e-01 -5.410944819450378418e-01 5.466268658638000488e-01 -1.054617688059806824e-01 1.691060215234756470e-01 -8.199636340141296387e-01 -3.220658302307128906e-01 -9.537169337272644043e-02 1.274261474609375000e+00 -9.130436778068542480e-01 1.526674032211303711e-01 -8.398647606372833252e-02 6.690529733896255493e-02 1.621794819831848145e+00 -6.480031609535217285e-01 2.657552957534790039e-01 8.410457372665405273e-01 5.627958178520202637e-01 3.212106525897979736e-01 6.503612399101257324e-01 -2.524699270725250244e-01 3.202556967735290527e-01 -2.923846244812011719e-01 -7.269148826599121094e-01 6.735990941524505615e-02 1.234381124377250671e-01 4.119272828102111816e-01 3.711204826831817627e-01 1.320442676544189453e+00 -4.356473088264465332e-01 1.574043780565261841e-01 6.793025135993957520e-01 -7.973455190658569336e-01 -4.245161712169647217e-01 -6.651057004928588867e-01 8.213246464729309082e-01 -7.475185990333557129e-01 -3.343255817890167236e-01 4.098831675946712494e-03 -3.006203472614288330e-01 6.584692001342773438e-01 8.263213038444519043e-01 -1.953497081995010376e-01 5.951299667358398438e-01 -7.188804745674133301e-01 6.305186152458190918e-01 -1.197022348642349243e-01 -3.186937570571899414e-01 1.293748378753662109e+00 4.836775064468383789e-01 -3.166162669658660889e-01 6.733843088150024414e-01 3.312324285507202148e-01 3.809095621109008789e-01 2.090547084808349609e-01 -2.573902606964111328e-01 4.082297384738922119e-01 4.716036841273307800e-02 4.467670917510986328e-01 -1.203133344650268555e+00 -2.023521810770034790e-02 2.268262580037117004e-02 -6.599540114402770996e-01 -5.623711347579956055e-01 3.938282728195190430e-01 7.884822487831115723e-01 4.692845642566680908e-01 -1.583019196987152100e-01 -3.505099937319755554e-02 -9.094913303852081299e-02 -8.227442502975463867e-01 -3.909052610397338867e-01 9.828157722949981689e-02 7.442666292190551758e-01 -1.548282355070114136e-01 4.086389020085334778e-02 4.316634535789489746e-01 9.162798523902893066e-01 1.150540336966514587e-01 2.044747173786163330e-01 -3.888551294803619385e-01 1.109448671340942383e+00 -1.043049097061157227e-01 3.202156126499176025e-01 -6.754908561706542969e-01
3.015660941600799561e-01 5.346373915672302246e-01 -1.120187640190124512e+00 6.219770312309265137e-01 1.653928637504577637e+00 -3.856216073036193848e-01 7.174988389015197754e-01 -9.035586714744567871e-01 7.549313902854919434e-01 1.393319010734558105e+00 7.690295577049255371e-01 6.833156943321228027e-01 2.323464304208755493e-01 -9.800695776939392090e-01 4.108740091323852539e-01 2.045481950044631958e-01 2.014258056879043579e-01 1.427843093872070312e+00 -5.633367225527763367e-02 -1.854478716850280762e-01 -2.797601521015167236e-01 -2.647318542003631592e-01 7.535925507545471191e-01 3.383446335792541504e-01 -8.211345672607421875e-01 -2.962790802121162415e-02 -3.446015119552612305e-01 9.669519662857055664e-01 -1.133356541395187378e-01 -1.726765483617782593e-01 4.255308508872985840e-01 -3.212122917175292969e-01 -5.825258325785398483e-03 -4.698024094104766846e-01 9.138270616531372070e-01 1.217273399233818054e-01 1.379408121109008789e+00 -1.242636799812316895e+00 1.416949748992919922e+00 -3.603479564189910889e-01 -6.030021905899047852e-01 -6.951723992824554443e-02 2.423403970897197723e-02 2.952957153320312500e-01 -1.066467881202697754e+00 1.811636239290237427e-01 -5.289188027381896973e-01 -3.218902051448822021e-01 -6.337694525718688965e-01 2.735425531864166260e-01 7.960372567176818848e-01 -4.863619506359100342e-01 6.209291815757751465e-01 3.738480210304260254e-01 2.984069585800170898e-01 -9.010493755340576172e-02 1.040081381797790527e+00 -5.405077338218688965e-01 -3.186807632446289062e-01 7.941487431526184082e-02 -3.175673782825469971e-01 -3.657170832157135010e-01 8.290681838989257812e-01 2.856452167034149170e-01 -4.824937582015991211e-01 9.510108828544616699e-01 5.921824276447296143e-02 7.959909737110137939e-03 -1.098129376769065857e-01 -6.035563349723815918e-01 1.334121465682983398e+00 5.782418251037597656e-01 2.380323261022567749e-01 -1.133581530302762985e-02 6.446514129638671875e-01 3.744328618049621582e-01 -1.737036108970642090e-01 1.696007847785949707e+00 -1.178490519523620605e+00 1.059668660163879395e-01 7.043953537940979004e-01 3.150156736373901367e-01 -4.999237656593322754e-01 -9.963160753250122070e-01 -1.407266259193420410e-01 1.155008792877197266e+00 7.463710308074951172e-01 2.919983267784118652e-01 -3.107076585292816162e-01 -5.099112987518310547e-01 -2.561776340007781982e-01 5.513740777969360352e-01 5.879109501838684082e-01 -1.506349444389343262e-01 -1.151805877685546875e+00 -1.563911080360412598e+00 1.070394515991210938e+00 1.155385076999664307e-01 -4.860024452209472656e-01 -5.232999324798583984e-01 1.057148456573486328e+00 7.890530824661254883e-01 -5.670965313911437988e-01 8.139412403106689453e-01 -8.741306662559509277e-01 2.897344827651977539e-01 -3.275482654571533203e-01 -6.540071368217468262e-01 7.551943659782409668e-01 -1.683649778366088867e+00 -2.706482410430908203e-01 1.456698626279830933e-01 1.532916575670242310e-01 8.482254147529602051e-01 -3.998699784278869629e-01 2.649469673633575439e-01 -1.096691727638244629e+00 1.041147828102111816e+00 1.680819541215896606e-01 8.934506177902221680e-01 -9.732388854026794434e-01 7.719483375549316406e-01 -1.718911886215209961e+00 -3.552130758762359619e-01 -1.346625566482543945e+00 -7.533638179302215576e-02 -1.415540456771850586e+00 -1.177158355712890625e+00
-9.945929050445556641e-01 5.346077084541320801e-01 1.977532356977462769e-02 -8.132871389389038086e-01 7.076558470726013184e-01 -9.072837233543395996e-01 1.703877598047256470e-01 3.161152005195617676e-01 2.543695271015167236e-01 -2.635480165481567383e-01 -2.268295884132385254e-01 1.663213521242141724e-01 -2.331201285123825073e-01 3.750400543212890625e-01 -5.236566662788391113e-01 7.407853007316589355e-01 1.700368076562881470e-01 -1.346598982810974121e+00 -2.306208372116088867e+00 -1.593628339469432831e-02 4.233790338039398193e-01 7.196171879768371582e-01 2.660859525203704834e-01 -2.557772696018218994e-01 -8.533698916435241699e-01 -1.610903292894363403e-01 -9.869404435157775879e-01 -2.826600670814514160e-01 -1.039694428443908691e+00 1.220273971557617188e-02 -1.546534895896911621e+00 -1.943921089172363281e+00 -3.092744946479797363e-01 -6.290819495916366577e-02 1.167033314704895020e+00 -9.243517369031906128e-02 9.574403762817382812e-01 2.330780029296875000e+00 4.852969571948051453e-02 -4.908953607082366943e-01 -5.367131829261779785e-01 -1.200490351766347885e-02 -9.934468865394592285e-01 1.204599022865295410e+00 -4.791760146617889404e-01 -1.144054889678955078e+00 -3.416386842727661133e-01 -5.052696466445922852e-01 -1.320188641548156738e-01 -7.130471467971801758e-01 -4.296945035457611084e-01 -2.086116313934326172e+00 -8.721063137054443359e-01 -1.042185276746749878e-01 -4.581070840358734131e-01 2.935155294835567474e-02 -5.216249227523803711e-01 -4.074691832065582275e-01 -6.397803425788879395e-01 -7.466037869453430176e-01 2.428409337997436523e+00 -5.120537877082824707e-01 -6.669929027557373047e-01 -4.012512862682342529e-01 -2.296314835548400879e-01 7.411780953407287598e-01 3.644608557224273682e-01 2.324243068695068359e+00 -2.044504135847091675e-02 3.971857726573944092e-01 -9.394493699073791504e-01 -7.108469009399414062e-01 -7.948870658874511719e-01 -2.005604356527328491e-01 1.212192103266716003e-01 -1.058897450566291809e-01 -6.508155912160873413e-02 -7.233475446701049805e-01 1.561434715986251831e-01 -1.217587366700172424e-01 -6.298060417175292969e-01 3.676222562789916992e-01 -6.888526082038879395e-01 -8.576922416687011719e-01 -6.896810233592987061e-02 -2.289446145296096802e-01 -7.645658850669860840e-01 -4.391238093376159668e-01 -8.724001049995422363e-01 5.452713370323181152e-02 -1.424517929553985596e-01 -1.422276198863983154e-01 -6.531938910484313965e-01 3.647173643112182617e-01 -1.950702220201492310e-01 2.690578937530517578e+00 -1.436419486999511719e+00 -1.123441681265830994e-01 -3.513098657131195068e-01 4.923528432846069336e-01 8.495879173278808594e-01 1.741935312747955322e-01 -7.714233994483947754e-01 3.091768026351928711e-01 -5.809036642313003540e-02 -3.483064770698547363e-01 -9.306554794311523438e-01 -2.140765190124511719e-01 8.438728451728820801e-01 -1.299094438552856445e+00 -7.439731359481811523e-01 -4.875369369983673096e-01 -9.703623503446578979e-02 1.880532801151275635e-01 7.589391469955444336e-01 -5.723788738250732422e-01 -1.030124306678771973e+00 -8.637596368789672852e-01 -5.731843113899230957e-01 -3.398740291595458984e-01 8.405218124389648438e-01 2.405165433883666992e+00 -7.813276648521423340e-01 -1.681800931692123413e-01 5.390285253524780273e-01 6.508766412734985352e-01 8.208830654621124268e-02 1.201901674270629883e+00
8.179372549057006836e-02 2.848858535289764404e-01 4.223825335502624512e-01 4.533215761184692383e-01 1.254107356071472168e-01 -3.437207639217376709e-02 -1.129753947257995605e+00 4.522549510002136230e-01 -5.772551298141479492e-01 -5.798097252845764160e-01 -4.923447370529174805e-01 6.436432003974914551e-01 5.956636667251586914e-01 3.258794844150543213e-01 8.821917176246643066e-01 2.170163244009017944e-01 7.566448301076889038e-02 8.447064161300659180e-01 -2.319223880767822266e+00 -1.926462501287460327e-01 1.320829153060913086e+00 7.561386823654174805e-01 8.824759721755981445e-01 -8.806096017360687256e-02 -6.553748846054077148e-01 5.519942566752433777e-02 2.194889634847640991e-01 1.267345249652862549e-01 -7.547158747911453247e-02 1.306829690933227539e+00 -2.366971254348754883e+00 -3.921252250671386719e+00 -7.644376158714294434e-01 1.434834152460098267e-01 -6.629979014396667480e-01 9.136626124382019043e-01 3.144687116146087646e-01 1.075957566499710083e-01 -5.166012048721313477e-01 7.189108729362487793e-01 2.023741006851196289e-01 5.741330981254577637e-01 -4.188351333141326904e-01 4.046142399311065674e-01 7.525007724761962891e-01 1.031937226653099060e-01 5.103063583374023438e-01 7.434982806444168091e-02 8.739667385816574097e-02 5.623509883880615234e-01 -4.347341954708099365e-01 -2.785279273986816406e+00 1.118649840354919434e+00 1.012861013412475586e+00 2.369560003280639648e-01 9.889734983444213867e-01 -9.014343619346618652e-01 2.216108143329620361e-01 -4.379746913909912109e-01 4.462352693080902100e-01 -5.239999294281005859e-01 -2.170431762933731079e-01 -8.406984210014343262e-01 -8.196464180946350098e-02 -2.349967211484909058e-01 2.695587277412414551e-01 -8.502562530338764191e-03 4.681330025196075439e-01 -5.802935957908630371e-01 -1.436225511133670807e-02 -1.522287875413894653e-01 4.062549173831939697e-01 -4.795836806297302246e-01 -7.059907913208007812e-02 1.242902159690856934e+00 -3.546708822250366211e-01 7.155217528343200684e-01 -9.658994674682617188e-01 -8.295005559921264648e-01 -3.694435060024261475e-01 5.636298656463623047e-01 -7.953194379806518555e-01 -5.771351456642150879e-01 -3.620014786720275879e-01 1.658762395381927490e-01 -5.121235847473144531e-01 5.404908061027526855e-01 -1.110319852828979492e+00 1.387808322906494141e-01 1.394908428192138672e-01 9.934991598129272461e-02 -5.875990986824035645e-01 -2.596592605113983154e-01 -3.972297012805938721e-01 1.008565664291381836e+00 1.304589509963989258e+00 -2.830490469932556152e-01 -1.475526094436645508e+00 -5.324421450495719910e-02 5.429970622062683105e-01 1.350728422403335571e-01 -4.409724846482276917e-03 8.955685794353485107e-02 6.623980998992919922e-01 1.830981522798538208e-01 -3.038319647312164307e-01 -1.742075383663177490e-01 -2.281787805259227753e-02 -3.349434137344360352e-01 3.766175806522369385e-01 -7.050155848264694214e-02 -7.721263170242309570e-01 1.286969631910324097e-01 6.775337457656860352e-02 1.345707654953002930e+00 -2.074016928672790527e-01 6.287562251091003418e-01 -4.160666465759277344e-01 8.315731287002563477e-01 4.856307804584503174e-01 -2.165881246328353882e-01 1.872007131576538086e+00 6.233653426170349121e-01 1.258182048797607422e+00 -6.422013044357299805e-02 5.815554261207580566e-01 4.346360862255096436e-01 -3.674069941043853760e-01
2.233835011720657349e-01 -1.098432540893554688e+00 4.814952611923217773e-01 -1.198305964469909668e+00 -2.059247642755508423e-01 5.344924330711364746e-01 -6.764910221099853516e-01 -4.254002496600151062e-02 -5.714895725250244141e-01 -2.904653549194335938e-01 -9.255657196044921875e-01 2.911046743392944336e+00 -3.700917661190032959e-01 -7.297719120979309082e-01 1.174477562308311462e-01 -5.350916385650634766e-01 -8.202853798866271973e-01 8.756403326988220215e-01 -2.164085626602172852e+00 -5.834110379219055176e-01 1.552714705467224121e+00 8.737460374832153320e-01 -1.301615387201309204e-01 1.617555320262908936e-01 -9.603670984506607056e-02 9.919984638690948486e-02 2.082663059234619141e+00 6.880738735198974609e-01 -5.089465379714965820e-01 -6.251718401908874512e-01 -2.212266206741333008e+00 -1.426466226577758789e+00 -6.222047805786132812e-01 5.778415799140930176e-01 -4.295390099287033081e-02 -2.951552867889404297e-01 -4.335338473320007324e-01 7.627272605895996094e-01 1.685266613960266113e+00 1.022109031677246094e+00 -4.648065567016601562e-01 -7.797573804855346680e-01 -4.039800763130187988e-01 1.548790782690048218e-01 1.022883430123329163e-01 9.479036182165145874e-02 -2.569625973701477051e-01 -1.306372165679931641e+00 -1.698574982583522797e-02 6.068562865257263184e-01 -2.524212896823883057e-01 -2.620066404342651367e+00 4.495868682861328125e-01 1.928554773330688477e-01 2.601526379585266113e-01 -1.814382374286651611e-01 -3.287109732627868652e-01 2.142250061035156250e+00 -8.769811987876892090e-01 -4.792245477437973022e-02 1.204451203346252441e+00 -1.825619861483573914e-02 5.819097757339477539e-01 1.894089341163635254e+00 -2.850914895534515381e-01 3.997334837913513184e-01 1.062448263168334961e+00 5.115060210227966309e-01 -2.012345492839813232e-01 1.693691253662109375e+00 -1.563721299171447754e-01 1.075240612030029297e+00 -1.060231447219848633e+00 -5.408064723014831543e-01 3.430427312850952148e-01 2.364390045404434204e-01 -7.585893273353576660e-01 2.073611021041870117e+00 -7.764182686805725098e-01 -6.137629151344299316e-01 1.224399685859680176e+00 -9.329723715782165527e-01 -1.184512019157409668e+00 -2.733309864997863770e-01 2.476067990064620972e-01 1.476501703262329102e+00 2.695750892162322998e-01 -2.462911456823348999e-01 2.816282026469707489e-02 6.860622167587280273e-01 1.780668944120407104e-01 -1.195459440350532532e-01 7.130541205406188965e-01 -2.908305525779724121e-01 -1.104489445686340332e+00 8.710966110229492188e-01 -7.743055373430252075e-02 6.053875088691711426e-01 -4.833435714244842529e-01 1.822489053010940552e-01 -1.369526833295822144e-01 -3.601613640785217285e-01 4.541224241256713867e-01 -6.893838047981262207e-01 -8.062223196029663086e-01 -1.021760225296020508e+00 -5.399802327156066895e-01 -4.866581559181213379e-01 -2.609526738524436951e-02 8.507209420204162598e-01 -2.806842625141143799e-01 6.140161752700805664e-01 4.343938529491424561e-01 -4.359873756766319275e-02 1.528937935829162598e+00 4.868475496768951416e-01 -9.779110550880432129e-01 1.959774494171142578e+00 1.231329917907714844e+00 1.021685957908630371e+00 5.313604474067687988e-01 1.081050634384155273e+00 -3.846265375614166260e-01 1.386862993240356445e+00 1.735560536384582520e+00 -5.597212910652160645e-02 3.809219598770141602e-02 -4.549705088138580322e-01
4.937656596302986145e-02 4.345958232879638672e+00 1.666816830635070801e+00 1.470093280076980591e-01 5.923014283180236816e-01 1.393231034278869629e+00 -1.148315429687500000e+00 1.211243987083435059e+00 4.852352291345596313e-02 2.597413659095764160e-01 -7.909973710775375366e-02 3.343338966369628906e+00 -3.736624717712402344e-01 -3.231344819068908691e-01 -2.733504772186279297e-01 1.694355130195617676e+00 -1.028368592262268066e+00 -8.287588119506835938e+00 1.486971974372863770e+00 -1.709157377481460571e-01 3.357701003551483154e-01 1.818560838699340820e+00 -6.151412725448608398e-01 1.648295998573303223e+00 1.903379321098327637e+00 8.590498566627502441e-01 7.095096260309219360e-02 -3.407794833183288574e-01 1.214204281568527222e-01 -1.603412747383117676e+00 -1.617837995290756226e-01 -1.234885931015014648e+00 -1.361131481826305389e-02 3.230968952178955078e+00 1.886974275112152100e-01 -2.407188177108764648e+00 -2.422435432672500610e-01 5.540040731430053711e-01 -6.385059356689453125e-01 2.317523211240768433e-01 9.754955172538757324e-01 2.448770999908447266e+00 9.195116162300109863e-01 -1.478026270866394043e+00 -1.853216767311096191e+00 1.579495906829833984e+00 5.374270915985107422e+00 -7.083661556243896484e-01 3.507756710052490234e+00 -7.810313105583190918e-01 5.651803612709045410e-01 3.793567419052124023e-02 2.990809082984924316e-01 -2.742760181427001953e+00 -4.980391860008239746e-01 3.446016907691955566e-01 1.046105623245239258e+00 3.269932985305786133e+00 -6.458604335784912109e-01 3.728856801986694336e+00 1.882749915122985840e+00 2.001462221145629883e+00 -6.729302406311035156e-01 3.767791688442230225e-01 6.518735736608505249e-02 8.752237558364868164e-01 -3.017787933349609375e+00 1.934136629104614258e+00 9.941977858543395996e-01 3.618796169757843018e-01 -5.349820852279663086e-01 -3.469981670379638672e+00 -4.571435153484344482e-01 7.924338579177856445e-01 -9.838163107633590698e-02 1.789809584617614746e+00 6.981818675994873047e-01 -9.092185646295547485e-02 2.937256574630737305e+00 7.048269510269165039e-01 9.784107655286788940e-02 3.178236186504364014e-01 1.673462152481079102e+00 -5.232020020484924316e-01 5.414005756378173828e+00 4.386166632175445557e-01 -1.351519584655761719e+00 3.100364446640014648e+00 -8.845672011375427246e-03 1.643128752708435059e+00 6.320770740509033203e+00 3.817534446716308594e-01 4.686765074729919434e-01 4.009965062141418457e-01 4.414550662040710449e-01 2.205213308334350586e+00 9.551251423545181751e-05 4.778959751129150391e-01 2.568006142973899841e-02 4.378978908061981201e-01 1.389374971389770508e+00 2.939462423324584961e+00 -1.126365780830383301e+00 -2.793909609317779541e-01 1.309773325920104980e+00 7.276953458786010742e-01 7.296673059463500977e-01 1.379750013351440430e+00 -1.238837242126464844e+00 1.929463148117065430e+00 3.507601320743560791e-01 -1.275246143341064453e+00 1.369260065257549286e-02 -1.675378203392028809e+00 2.082724809646606445e+00 -4.465640068054199219e+00 -3.878130614757537842e-01 -6.349097728729248047e+00 8.267030119895935059e-01 9.499784111976623535e-01 3.422404825687408447e-02 -1.519500315189361572e-01 3.266489744186401367e+00 -1.747910231351852417e-01 5.757573843002319336e-01 4.339117527008056641e+00 1.692380785942077637e+00 2.445494890213012695e+00
-5.979494452476501465e-01 -1.032502770423889160e+00 -1.716604709625244141e+00 -2.404115796089172363e-01 -7.386337518692016602e-01 -6.250637117773294449e-03 7.349155545234680176e-01 7.518966794013977051e-01 -2.043480724096298218e-01 2.602010667324066162e-01 -3.860776722431182861e-01 -5.495830774307250977e-01 1.237569212913513184e+00 1.045874714851379395e+00 -1.673650145530700684e+00 2.017894238233566284e-01 8.538147807121276855e-01 -1.830140501260757446e-01 1.395536899566650391e+00 5.946681275963783264e-02 1.952425837516784668e-01 3.423968553543090820e-01 2.313391119241714478e-01 -3.242051601409912109e-01 8.864942193031311035e-01 -3.392939865589141846e-01 -5.079575777053833008e-01 9.619328379631042480e-01 -1.710240691900253296e-01 6.637043356895446777e-01 1.836880326271057129e+00 3.636026382446289062e-01 -2.487139105796813965e-01 1.410955548286437988e+00 9.918370842933654785e-01 3.178483545780181885e-01 -6.858702898025512695e-01 2.464881986379623413e-01 1.091549515724182129e+00 -3.378630802035331726e-02 1.569236040115356445e+00 1.111580803990364075e-01 -1.834742575883865356e-01 -8.302284777164459229e-02 3.055679202079772949e-01 -7.929127663373947144e-02 8.364017605781555176e-01 -7.246996462345123291e-02 -5.940694212913513184e-01 1.546508520841598511e-01 6.224204897880554199e-01 -3.203079998493194580e-01 -5.375241637229919434e-01 -2.459058523178100586e+00 2.461894005537033081e-01 8.770971298217773438e-01 5.221639759838581085e-03 1.176727488636970520e-01 6.893142461776733398e-01 2.205734699964523315e-01 3.022075891494750977e-01 -1.020660877227783203e+00 7.074437737464904785e-01 6.912023425102233887e-01 2.030710428953170776e-01 -9.403667449951171875e-01 1.747493594884872437e-01 6.072997450828552246e-01 1.577642440795898438e+00 3.133940994739532471e-01 -5.016086697578430176e-01 -2.843527793884277344e+00 -2.718965709209442139e-02 7.824898958206176758e-01 -1.614174485206604004e+00 5.149077773094177246e-01 1.278413295745849609e+00 -2.114188909530639648e+00 7.014772891998291016e-01 7.612687945365905762e-01 2.552650570869445801e-01 8.128793239593505859e-01 9.046473354101181030e-02 -2.003517746925354004e-01 -5.466558933258056641e-01 7.008612155914306641e-01 -1.148161888122558594e+00 3.603545129299163818e-01 -3.931507840752601624e-02 -1.578647196292877197e-01 -1.074413895606994629e+00 1.242484927177429199e+00 -9.588371217250823975e-02 7.863329350948333740e-02 2.670554518699645996e-01 7.201707959175109863e-01 5.378183126449584961e-01 5.106242895126342773e-01 -1.631781935691833496e+00 1.395954251289367676e+00 1.220855474472045898e+00 -7.316486835479736328e-01 -1.606694698333740234e+00 6.934629678726196289e-01 2.202660739421844482e-01 1.475335478782653809e+00 1.227030992507934570e+00 8.809817433357238770e-01 7.281721234321594238e-01 -3.070303797721862793e-01 2.846359610557556152e-01 -7.634643316268920898e-01 -6.056509017944335938e-01 1.032440550625324249e-02 -5.756986513733863831e-02 1.088041588664054871e-01 -3.788723796606063843e-02 -1.672446370124816895e+00 -2.075667619705200195e+00 6.604803800582885742e-01 5.462535023689270020e-01 -2.751108407974243164e+00 -4.213857352733612061e-01 5.980294942855834961e-01 2.845316529273986816e-01 -1.076785564422607422e+00 1.238190084695816040e-01 5.980921387672424316e-01
-2.908219695091247559e-01 9.670669436454772949e-01 -9.677010029554367065e-02 -6.712874770164489746e-01 1.055432409048080444e-01 -3.423278927803039551e-01 -4.269536137580871582e-01 3.304413855075836182e-01 1.866258859634399414e+00 -7.537882924079895020e-01 -1.716237328946590424e-02 -1.124765515327453613e+00 1.736868262290954590e+00 -4.276636540889739990e-01 -2.320732921361923218e-01 1.064712285995483398e+00 4.648308157920837402e-01 4.460934102535247803e-01 -1.452153325080871582e+00 2.145119428634643555e+00 4.353348612785339355e-01 -7.522737383842468262e-01 3.058465123176574707e-01 -5.498317480087280273e-01 6.750419139862060547e-01 7.662284374237060547e-01 -1.341709494590759277e-01 2.565757513046264648e+00 -2.185274511575698853e-01 6.347165703773498535e-01 -1.885604381561279297e+00 -3.455824136734008789e+00 1.515520215034484863e+00 2.068156599998474121e-01 6.037822961807250977e-01 1.678209662437438965e+00 3.719177842140197754e-01 -8.120238780975341797e-01 -1.170279502868652344e+00 -7.384755015373229980e-01 3.203822672367095947e-01 2.565343379974365234e-01 -4.044690132141113281e-01 4.109036326408386230e-01 -4.049289226531982422e-01 2.737810313701629639e-01 6.500380635261535645e-01 9.495113492012023926e-01 -2.695373594760894775e-01 7.432864904403686523e-01 -6.592019796371459961e-01 -2.698993444442749023e+00 -2.717102169990539551e-01 -5.029349923133850098e-01 -6.733494997024536133e-01 -9.823078513145446777e-01 -2.048581987619400024e-01 4.317533671855926514e-01 4.554290771484375000e-01 2.600327730178833008e-01 -1.019163966178894043e+00 -6.692332029342651367e-01 -3.962267935276031494e-01 5.283062532544136047e-02 1.094285130500793457e+00 -7.071323394775390625e-01 3.626461029052734375e-01 -3.021167516708374023e-01 -4.100809693336486816e-01 4.390213266015052795e-02 -2.000730633735656738e-01 -4.811725616455078125e-01 6.658872961997985840e-01 6.204062700271606445e-01 8.237894624471664429e-02 -8.332133293151855469e-01 -2.511851489543914795e-01 3.366241231560707092e-02 -4.492096602916717529e-01 -1.041592806577682495e-01 -1.355466246604919434e+00 1.219923377037048340e+00 5.502183735370635986e-02 -1.083297133445739746e-01 1.744474291801452637e+00 3.748058676719665527e-01 -3.806537985801696777e-01 9.096565246582031250e-01 -8.699186444282531738e-01 1.765919327735900879e+00 2.614119052886962891e-01 2.162930727005004883e+00 -3.172584772109985352e-01 -1.184660270810127258e-01 -1.305863618850708008e+00 -3.970023989677429199e-01 -1.419963836669921875e+00 -7.402660846710205078e-01 8.150349259376525879e-01 7.786678075790405273e-01 9.083021283149719238e-01 7.029163241386413574e-01 1.337547004222869873e-01 -3.770965933799743652e-01 -5.514253377914428711e-01 4.981893599033355713e-01 1.545687317848205566e+00 7.610420584678649902e-01 -1.051338076591491699e+00 -6.848450303077697754e-01 -2.247842699289321899e-01 8.974950760602951050e-02 5.454961583018302917e-02 8.569678068161010742e-01 8.100749850273132324e-01 1.840845346450805664e-01 -1.702034473419189453e+00 -1.169031672179698944e-02 2.650590538978576660e-01 -2.872513793408870697e-02 -1.044900894165039062e+00 -1.077661156654357910e+00 4.921974539756774902e-01 -9.254665970802307129e-01 -9.398671984672546387e-01 1.840839534997940063e-01 -4.848900139331817627e-01 -3.055746555328369141e-01
1.940450072288513184e+00 -4.896440804004669189e-01 1.713823229074478149e-01 1.245652794837951660e+00 -5.084130167961120605e-02 -1.096687465906143188e-01 5.469883084297180176e-01 2.192117571830749512e-01 -6.778210997581481934e-01 9.542807340621948242e-01 9.026551246643066406e-02 -1.035560250282287598e+00 5.318681597709655762e-01 -1.320254445075988770e+00 3.410124182701110840e-01 -6.191604211926460266e-02 1.445656120777130127e-01 -2.902102768421173096e-01 -3.805864572525024414e+00 -3.545347452163696289e-01 1.165383577346801758e+00 -6.537351757287979126e-02 4.636016190052032471e-01 2.827274322509765625e+00 1.570604801177978516e+00 -5.392004251480102539e-01 6.774461865425109863e-01 3.194311261177062988e-02 2.895700931549072266e-01 5.906496047973632812e-01 -1.489652037620544434e+00 -3.416568279266357422e+00 7.049494385719299316e-01 9.787472337484359741e-02 1.287827372550964355e+00 -1.347707033157348633e+00 2.563889324665069580e-01 1.003788709640502930e+00 7.362757921218872070e-01 4.181986451148986816e-01 7.832474261522293091e-02 2.138511091470718384e-01 -8.130150437355041504e-01 8.151115775108337402e-01 5.542520284652709961e-01 4.738804101943969727e-01 2.583163380622863770e-01 -1.989183276891708374e-01 -2.898507118225097656e-01 2.547377943992614746e-01 -1.889128535985946655e-01 -1.968780159950256348e+00 1.199907585978507996e-01 5.972363948822021484e-01 -2.679685950279235840e-01 6.815181672573089600e-02 4.208116054534912109e+00 -1.192347764968872070e+00 1.859643161296844482e-01 5.848669409751892090e-01 -6.298242211341857910e-01 5.139428973197937012e-01 9.282939434051513672e-01 7.654487341642379761e-02 8.675760775804519653e-02 7.311145067214965820e-01 4.526629745960235596e-01 -1.110310107469558716e-01 -6.037888303399085999e-02 1.870599389076232910e-02 1.034503802657127380e-01 3.707958757877349854e-01 5.672338604927062988e-01 1.279194205999374390e-01 4.474443793296813965e-01 2.925065159797668457e-02 6.270134449005126953e-01 -1.360482573509216309e+00 1.212242007255554199e+00 7.043401598930358887e-01 7.538599967956542969e-01 3.277995437383651733e-02 -7.734184861183166504e-01 1.645805537700653076e-01 -3.740832954645156860e-02 -1.638528853654861450e-01 -1.949866265058517456e-01 5.035401582717895508e-01 2.009016424417495728e-01 -1.366661190986633301e+00 8.757728934288024902e-01 3.608546555042266846e-01 1.136906385421752930e+00 7.250469923019409180e-01 1.999687962234020233e-02 2.525486946105957031e-01 1.212925195693969727e+00 -8.291545510292053223e-01 3.759713768959045410e-01 5.204814076423645020e-01 -1.264669299125671387e+00 3.219469487667083740e-01 -2.196284681558609009e-01 3.670931756496429443e-01 -2.488220930099487305e-01 1.090627759695053101e-01 -2.129075229167938232e-01 -1.017734706401824951e-01 1.271297693252563477e+00 4.241552352905273438e-01 4.951344430446624756e-01 -9.331063926219940186e-02 -2.103858888149261475e-01 3.331893980503082275e-01 1.333804249763488770e+00 5.687644705176353455e-02 9.908917546272277832e-01 4.533581435680389404e-01 3.371781408786773682e-01 -2.212719470262527466e-01 1.641004979610443115e-01 -2.229672074317932129e-01 3.366574943065643311e-01 9.999922513961791992e-01 -1.982534527778625488e-01 -7.972401380538940430e-01 2.228066772222518921e-01 -8.746600151062011719e-01
6.035078167915344238e-01 -8.541748523712158203e-01 -9.598143696784973145e-01 5.958261489868164062e-01 -1.738512158393859863e+00 -5.652229115366935730e-02 -5.657463520765304565e-02 2.373720169067382812e+00 -3.599750399589538574e-01 -9.810836315155029297e-01 3.199785947799682617e-01 -4.633547961711883545e-01 -6.446566581726074219e-01 -4.012251198291778564e-01 7.561900615692138672e-01 -1.998589158058166504e+00 -1.634344339370727539e+00 -8.474798500537872314e-02 -3.769534230232238770e-01 -1.186355233192443848e+00 5.861387252807617188e-01 8.853169083595275879e-01 -3.171084165573120117e+00 -1.085205674171447754e+00 6.157912611961364746e-01 -1.890868902206420898e+00 -9.889783859252929688e-01 7.054375410079956055e-01 5.530484318733215332e-01 1.566690802574157715e+00 -1.508731961250305176e+00 1.737180948257446289e+00 5.082795619964599609e-01 1.599883317947387695e+00 -9.150376915931701660e-01 -8.277927041053771973e-01 3.759107291698455811e-01 -6.647981405258178711e-01 -7.572878003120422363e-01 -4.124910533428192139e-01 3.300108611583709717e-01 -7.333526015281677246e-01 -5.321646928787231445e-01 5.463231801986694336e-01 9.458229541778564453e-01 5.939368009567260742e-01 9.955557584762573242e-01 -4.303781092166900635e-01 6.124092340469360352e-01 -6.118700504302978516e-01 1.381243824958801270e+00 1.299836754798889160e+00 -1.383433580398559570e+00 7.641211152076721191e-01 -2.672463655471801758e+00 3.761554658412933350e-01 -8.046259880065917969e-01 -3.631380796432495117e-01 4.625484049320220947e-01 1.796149611473083496e+00 -1.548157095909118652e+00 -3.067918419837951660e-01 -4.253596961498260498e-01 -8.852025121450424194e-02 1.076398715376853943e-01 1.473514318466186523e+00 7.631023526191711426e-01 -6.906619668006896973e-01 2.094124555587768555e-01 5.277810096740722656e-01 9.742372632026672363e-01 2.995299100875854492e-01 -3.158557042479515076e-02 -2.169010877609252930e+00 1.887415170669555664e+00 4.235573112964630127e-01 1.060572385787963867e+00 -3.560577929019927979e-01 -1.215388253331184387e-01 1.295787096023559570e+00 -1.808335036039352417e-01 -2.729320824146270752e-01 -1.096857547760009766e+00 -7.995585799217224121e-01 -7.384237647056579590e-01 1.788244992494583130e-01 -6.295641660690307617e-01 3.553504705429077148e+00 -1.183090731501579285e-01 3.259994685649871826e-01 9.853265285491943359e-01 3.214923441410064697e-01 4.570270478725433350e-01 5.265997052192687988e-01 4.484717547893524170e-02 4.163427352905273438e-01 1.066451907157897949e+00 -5.783851146697998047e-01 -4.349187016487121582e-02 -1.768425703048706055e+00 -1.829394698143005371e+00 -5.041962862014770508e-01 -3.426470458507537842e-01 -1.258318424224853516e-01 -1.223447561264038086e+00 1.475576281547546387e+00 5.041570067405700684e-01 -8.400804400444030762e-01 -2.039930820465087891e+00 1.315930932760238647e-01 -3.219689726829528809e-01 -9.875923395156860352e-01 5.556147098541259766e-01 6.588174700736999512e-01 5.414597392082214355e-01 3.223150491714477539e+00 3.949672281742095947e-01 -1.324801564216613770e+00 5.885449051856994629e-01 -3.644051313400268555e+00 9.588905572891235352e-01 -1.186831668019294739e-02 1.403400897979736328e+00 8.983604311943054199e-01 1.108339309692382812e+00 -2.376764535903930664e+00 8.474624156951904297e-02 3.662347793579101562e-01
1.415890574455261230e+00 9.552115201950073242e-02 -1.184428811073303223e+00 -5.129503011703491211e-01 3.799021840095520020e-01 -4.311116039752960205e-01 -1.123188257217407227e+00 -3.892418742179870605e-01 -8.417401313781738281e-01 -2.558656036853790283e-01 1.753283143043518066e-01 5.553724169731140137e-01 4.261899888515472412e-01 8.617147207260131836e-01 9.419363737106323242e-01 -6.646170020103454590e-01 -6.368635892868041992e-01 3.324412405490875244e-01 -1.306615948677062988e+00 -1.854444146156311035e-01 5.709385275840759277e-01 9.689500331878662109e-01 -9.714499115943908691e-01 -5.512730479240417480e-01 2.357742488384246826e-01 -1.021835803985595703e+00 6.272143721580505371e-01 -9.314449429512023926e-01 -8.700111508369445801e-01 -3.835230469703674316e-01 -4.267891645431518555e-01 -8.679754734039306641e-01 -1.016536206007003784e-01 -1.145315289497375488e+00 -1.065346717834472656e+00 -5.334334447979927063e-02 2.805374003946781158e-02 -5.027681589126586914e-01 5.979185700416564941e-01 -1.753613650798797607e-01 6.926434636116027832e-01 -1.090320706367492676e+00 -6.729976534843444824e-01 2.551199495792388916e-01 -3.602695837616920471e-02 -6.634569764137268066e-01 1.370660185813903809e+00 -2.343631833791732788e-01 5.203740596771240234e-01 -3.485848903656005859e-01 -8.517516851425170898e-01 -1.374403595924377441e+00 3.377504348754882812e-01 -1.436163764446973801e-02 -5.901445150375366211e-01 4.494653940200805664e-01 -7.685011029243469238e-01 -3.066166639328002930e-01 1.141611695289611816e+00 1.022552251815795898e+00 4.460637867450714111e-01 -8.263580203056335449e-01 -8.477370738983154297e-01 -6.315962076187133789e-01 -5.377469956874847412e-02 -8.484246730804443359e-01 -1.377971768379211426e+00 -5.113445520401000977e-01 -3.036259710788726807e-01 -3.529579937458038330e-01 -1.056964278221130371e+00 -5.059701204299926758e-01 6.640396714210510254e-01 5.747661590576171875e-01 1.393812894821166992e+00 -7.498493790626525879e-01 -4.494694769382476807e-01 1.182137846946716309e+00 -4.083280861377716064e-01 -8.960251212120056152e-01 3.682163357734680176e-01 4.877552390098571777e-02 -1.355401426553726196e-01 5.436803102493286133e-01 8.605853319168090820e-01 1.317582130432128906e-01 8.778690546751022339e-02 -1.302069127559661865e-01 -6.517729759216308594e-01 -2.020088732242584229e-01 3.034868538379669189e-01 6.367353200912475586e-01 -1.019719362258911133e+00 8.725760579109191895e-01 -4.851381778717041016e-01 1.554172188043594360e-01 -1.325961112976074219e+00 9.739883542060852051e-01 -6.380506157875061035e-01 -6.197435259819030762e-01 1.173573017120361328e+00 -8.057473301887512207e-01 4.310311973094940186e-01 1.023688435554504395e+00 -2.382649630308151245e-01 4.491935074329376221e-01 -6.120532155036926270e-01 -1.126405298709869385e-01 1.847519129514694214e-01 2.965068519115447998e-01 -4.966368153691291809e-02 1.059901356697082520e+00 1.025281906127929688e+00 -8.171758055686950684e-01 6.265603303909301758e-01 5.121326446533203125e-01 3.994299471378326416e-01 -4.386667907238006592e-01 -1.059772744774818420e-01 -5.152748525142669678e-02 1.918810606002807617e-01 -4.410739839076995850e-01 1.749635219573974609e+00 1.777771115303039551e+00 2.241425812244415283e-01 2.922805547714233398e-01 7.446060180664062500e-01 -6.583091616630554199e-01
2.401680946350097656e+00 -2.790521860122680664e+00 -1.262488245964050293e+00 -9.824990034103393555e-01 -6.790732741355895996e-01 -2.336437225341796875e+00 -8.232414722442626953e-01 3.626215457916259766e-01 -1.388099044561386108e-01 -8.185450434684753418e-01 5.327405929565429688e-01 -1.459954679012298584e-01 1.075137734413146973e+00 1.121524333953857422e+00 -1.703758478164672852e+00 1.453315317630767822e-01 1.151103377342224121e+00 -1.443690657615661621e+00 -1.220796704292297363e+00 -4.341311380267143250e-02 -2.899319306015968323e-02 -1.487531542778015137e+00 -4.213605403900146484e+00 2.865286767482757568e-01 -7.631114721298217773e-01 -3.323787689208984375e+00 -1.389140129089355469e+00 -1.962336540222167969e+00 -1.873761415481567383e+00 2.483211040496826172e+00 -1.497197628021240234e+00 -1.033146902918815613e-01 2.466247528791427612e-01 -4.506719112396240234e+00 -1.123582839965820312e+00 -1.226253032684326172e+00 6.587424874305725098e-01 -1.157336592674255371e+00 -1.396089553833007812e+00 -1.934702396392822266e+00 -1.866742521524429321e-01 -1.641616463661193848e+00 -8.293221592903137207e-01 5.656020045280456543e-01 -1.301332265138626099e-01 7.069556415081024170e-02 -1.701477527618408203e+00 -9.536659121513366699e-01 -2.834966182708740234e+00 -2.741907596588134766e+00 -1.723605245351791382e-01 2.180837988853454590e-01 -1.832998991012573242e+00 6.239787340164184570e-01 -3.210609197616577148e+00 -1.385168075561523438e+00 -7.490529417991638184e-01 -3.569067418575286865e-01 2.685905218124389648e+00 -2.275593757629394531e+00 -1.261222600936889648e+00 -2.441055774688720703e+00 5.019007250666618347e-02 -9.003895521163940430e-01 1.067880511283874512e+00 4.342019855976104736e-01 1.063688993453979492e+00 -5.281715393066406250e-01 6.679954528808593750e-01 8.225794136524200439e-02 1.186575174331665039e+00 -1.681575179100036621e+00 -1.871637940406799316e+00 -1.404647707939147949e+00 3.494169235229492188e+00 -2.481451988220214844e+00 -2.703163862228393555e+00 5.642593652009963989e-02 -1.731782674789428711e+00 8.702468872070312500e-01 -1.293737053871154785e+00 2.770922482013702393e-01 -1.129851937294006348e+00 -2.395804643630981445e+00 -6.313162446022033691e-01 -1.021582722663879395e+00 -3.174840688705444336e+00 -3.686269998550415039e+00 -1.332975983619689941e+00 2.718017995357513428e-01 -3.113970994949340820e+00 -1.147683739662170410e+00 -7.519639134407043457e-01 1.541164398193359375e+00 1.446928381919860840e-01 -6.036767959594726562e-01 1.460440754890441895e+00 1.301175951957702637e+00 -1.430178992450237274e-02 -9.892840385437011719e-01 -1.085388422012329102e+00 -2.713304996490478516e+00 -1.252601385116577148e+00 -5.551635026931762695e-01 -1.823231577873229980e+00 -1.623599767684936523e+00 -2.568060457706451416e-01 -1.863917894661426544e-02 -9.405682794749736786e-03 -1.234024882316589355e+00 -1.296694993972778320e+00 -1.006939888000488281e+00 2.326682090759277344e+00 -6.838690638542175293e-01 7.734911143779754639e-02 -2.668272733688354492e+00 4.917369186878204346e-01 3.159170866012573242e+00 -1.454702019691467285e+00 -3.009268522262573242e+00 8.659780621528625488e-01 -1.101881265640258789e+00 1.331648588180541992e+00 -2.980795502662658691e-01 -1.842206001281738281e+00 -2.301569461822509766e+00 -1.752858012914657593e-01 -1.728425145149230957e+00
7.425979971885681152e-01 -4.055433869361877441e-01 8.201892971992492676e-01 5.227860808372497559e-01 -5.948619842529296875e-01 1.379172921180725098e+00 7.100510410964488983e-03 2.391939401626586914e+00 2.603611722588539124e-02 3.307827115058898926e-01 4.667294025421142578e-01 -5.152633190155029297e-01 -1.147205904126167297e-01 5.119261518120765686e-02 -6.088958382606506348e-01 -5.768730640411376953e-01 -2.041388511657714844e+00 -4.158477783203125000e-01 -1.029561281204223633e+00 -5.171799063682556152e-01 4.691522419452667236e-01 1.575944304466247559e+00 6.494949460029602051e-01 -1.015716791152954102e+00 -1.694946587085723877e-01 3.294978737831115723e-01 -1.239748299121856689e-01 -3.659336268901824951e-01 -1.831931024789810181e-01 3.230608701705932617e-01 -2.578611373901367188e+00 -1.530424356460571289e+00 -4.964445531368255615e-02 2.294222354888916016e+00 -8.078876137733459473e-01 7.824420332908630371e-01 1.531816869974136353e-01 -3.083423376083374023e-01 -1.083473563194274902e-01 1.006600141525268555e+00 -8.361977338790893555e-01 -1.038548707962036133e+00 -2.717994451522827148e-01 1.197572469711303711e+00 -5.106906890869140625e-01 7.940117120742797852e-01 -3.951709568500518799e-01 2.742052972316741943e-01 2.267471700906753540e-01 -9.171055555343627930e-01 1.492215871810913086e+00 -2.352128177881240845e-01 -1.356255710124969482e-01 9.199475646018981934e-01 2.149291336536407471e-01 1.236950039863586426e+00 -5.132812261581420898e-02 7.123745679855346680e-01 -6.243801116943359375e-01 4.149581789970397949e-01 8.041210770606994629e-01 9.510815143585205078e-01 4.409557580947875977e-02 7.208451628684997559e-02 -6.211873292922973633e-01 -1.930344998836517334e-01 1.252258718013763428e-01 -4.220423102378845215e-01 1.038998588919639587e-01 -4.794282913208007812e-01 -3.692071437835693359e-01 8.566576242446899414e-01 -2.939620316028594971e-01 -4.029727280139923096e-01 1.619154453277587891e+00 -4.670029878616333008e-01 2.467663437128067017e-01 -6.631683558225631714e-03 6.901935338973999023e-01 1.184173226356506348e-01 -1.526463866233825684e+00 -2.818466424942016602e-01 -7.728795409202575684e-01 1.132156401872634888e-01 -4.133734703063964844e-01 -2.972355782985687256e-01 -3.897440433502197266e-01 7.856178283691406250e-01 3.134999871253967285e-01 -6.682819128036499023e-01 -8.906086087226867676e-01 -4.454792141914367676e-01 1.220163702964782715e+00 4.295630156993865967e-01 8.369312882423400879e-01 6.533764600753784180e-01 -4.731581509113311768e-01 4.867788553237915039e-01 9.313964843750000000e-01 6.587045192718505859e-01 -1.044331550598144531e+00 8.608308434486389160e-01 -5.526958107948303223e-01 4.251105785369873047e-01 1.383828073740005493e-01 1.455038338899612427e-01 -8.318065404891967773e-01 -1.471196562051773071e-01 -7.356223464012145996e-01 5.395934581756591797e-01 1.008520424365997314e-01 9.818987548351287842e-02 9.347606450319290161e-02 -3.164576292037963867e-01 7.306296229362487793e-01 1.448574423789978027e+00 -7.544826269149780273e-01 4.735037088394165039e-01 -5.139501765370368958e-02 -2.132387399673461914e+00 1.781854391098022461e+00 5.678629875183105469e-01 -6.702325344085693359e-01 -1.055927634239196777e+00 4.729337692260742188e-01 -1.147106528282165527e+00 -2.821936458349227905e-02 1.341455340385437012e+00
-3.656913042068481445e-01 1.401633918285369873e-01 -6.878834962844848633e-01 6.642664670944213867e-01 4.630145803093910217e-02 5.873623490333557129e-01 -3.488822579383850098e-01 -6.197685003280639648e-02 -1.910747960209846497e-02 4.478523880243301392e-02 -5.033903717994689941e-01 -7.950389981269836426e-01 -5.770412683486938477e-01 -2.754495739936828613e-01 2.152813196182250977e+00 -1.077928900718688965e+00 2.859336733818054199e-01 -8.121349215507507324e-01 -1.813079237937927246e+00 4.377124905586242676e-01 3.793652057647705078e-01 5.783490538597106934e-01 1.825883984565734863e+00 -1.098196983337402344e+00 8.828904032707214355e-01 -2.088534832000732422e-01 1.121330499649047852e+00 -1.146830439567565918e+00 -8.310983777046203613e-01 -5.796467065811157227e-01 -1.842282414436340332e+00 -7.115066796541213989e-02 2.946771681308746338e-01 8.197026252746582031e-01 -1.649294793605804443e-01 -1.681056320667266846e-01 1.672765851020812988e+00 -6.234537363052368164e-01 1.209669709205627441e+00 -7.131298780441284180e-01 2.642269134521484375e-01 1.186290502548217773e+00 -5.603708624839782715e-01 1.110843062400817871e+00 1.191621553152799606e-02 5.430232882499694824e-01 -3.656629920005798340e-01 -3.278262913227081299e-01 7.138986140489578247e-02 7.609232068061828613e-01 8.736969828605651855e-01 -1.913132786750793457e+00 -1.074483036994934082e+00 1.429356336593627930e+00 5.450639873743057251e-02 1.366347312927246094e+00 -3.391323983669281006e-01 1.240987796336412430e-02 -1.565274745225906372e-01 3.012251555919647217e-01 -1.509424567222595215e+00 7.235054373741149902e-01 9.262968301773071289e-01 -3.077673614025115967e-01 1.702913761138916016e+00 4.808203876018524170e-02 -3.984666168689727783e-01 6.211300939321517944e-02 2.869892306625843048e-02 -4.833444058895111084e-01 9.424860477447509766e-01 9.323284029960632324e-01 -7.230583578348159790e-02 -4.379846528172492981e-02 3.231276273727416992e+00 -1.093736384063959122e-02 1.321027874946594238e+00 -2.805495448410511017e-02 1.405093431472778320e+00 -5.748730897903442383e-01 -5.669099092483520508e-01 5.012494921684265137e-01 -1.801365733146667480e+00 -1.636473894119262695e+00 -8.537210822105407715e-01 1.576660394668579102e+00 2.567001104354858398e+00 -8.074401021003723145e-01 -7.935919761657714844e-01 -3.006954491138458252e-01 8.336592316627502441e-01 6.238734722137451172e-01 1.773798465728759766e+00 -3.585649728775024414e-01 2.732726931571960449e-02 3.170657157897949219e-01 -1.433471202850341797e+00 -3.144390583038330078e-01 -6.186482906341552734e-01 -1.244224309921264648e+00 9.311376214027404785e-01 -2.159876376390457153e-01 3.512617647647857666e-01 -1.350713253021240234e+00 4.885242581367492676e-01 1.503096371889114380e-01 -1.291117787361145020e+00 -6.610606312751770020e-01 7.888886928558349609e-01 6.908831000328063965e-01 5.872113704681396484e-01 1.697629094123840332e-01 2.049970149993896484e+00 5.579872131347656250e-01 5.527673363685607910e-01 1.817519813776016235e-01 1.672305703163146973e+00 -1.215423226356506348e+00 8.205114006996154785e-01 2.101547718048095703e+00 -1.782456338405609131e-01 2.106152474880218506e-01 5.270371437072753906e-01 3.079571723937988281e-01 -4.263726770877838135e-01 2.586114704608917236e-01 2.200007140636444092e-01 2.163279056549072266e+00
-2.472977489233016968e-01 3.465159237384796143e-01 -3.584250211715698242e-01 7.974808216094970703e-01 5.353448912501335144e-02 1.071230649948120117e+00 1.183239817619323730e+00 2.011286318302154541e-01 -2.144929468631744385e-01 1.520862430334091187e-01 -6.810881495475769043e-01 1.183077931404113770e+00 4.959205389022827148e-01 1.713790372014045715e-02 1.434078693389892578e+00 -1.286476731300354004e+00 -1.747930794954299927e-01 -2.559321820735931396e-01 -1.446938633918762207e+00 -5.589249134063720703e-01 7.733358144760131836e-01 6.587966680526733398e-01 -3.605844378471374512e-01 -9.590442776679992676e-01 2.167567491531372070e+00 -4.100341498851776123e-01 -2.009613960981369019e-01 -1.684534311294555664e+00 5.071008801460266113e-01 -1.068415641784667969e+00 6.924105882644653320e-01 -4.779592514038085938e+00 -1.538185775279998779e-01 -3.631133437156677246e-01 -1.094655513763427734e+00 4.655535519123077393e-01 -2.842025458812713623e-01 -3.591058254241943359e-01 -1.122954726219177246e+00 -3.168925940990447998e-01 3.047695197165012360e-02 -3.420373797416687012e-01 -5.081137642264366150e-02 3.604227900505065918e-01 -2.156935632228851318e-01 7.559041380882263184e-01 -3.647165596485137939e-01 4.313588887453079224e-02 -7.561409473419189453e-01 6.451009511947631836e-01 1.552968978881835938e+00 -1.289715051651000977e+00 -1.178768992424011230e+00 1.294877052307128906e+00 -4.943811595439910889e-01 3.415530174970626831e-02 -4.515006244182586670e-01 -2.429548054933547974e-01 -3.519367575645446777e-01 -7.271260768175125122e-02 5.014168024063110352e-01 1.713922858238220215e+00 -7.094002366065979004e-01 -7.119240760803222656e-01 -2.049924373626708984e+00 -1.742214679718017578e+00 -2.035976052284240723e-01 -1.125341176986694336e+00 -5.378038287162780762e-01 6.129738092422485352e-01 -5.318737030029296875e-02 -7.494319975376129150e-02 1.067467331886291504e+00 1.123474687337875366e-01 4.152724519371986389e-02 -1.923993676900863647e-01 1.552959382534027100e-01 3.884318470954895020e-01 -5.479698181152343750e-01 -7.458406090736389160e-01 -9.963780641555786133e-01 -6.576487421989440918e-01 1.215976476669311523e+00 2.325771331787109375e+00 -4.049780070781707764e-01 -6.457635164260864258e-01 1.640564799308776855e+00 2.573739051818847656e+00 5.320510864257812500e-01 -9.376747608184814453e-01 -4.849581122398376465e-01 -2.438459247350692749e-01 8.428973704576492310e-02 -1.509287953376770020e-01 7.509157657623291016e-01 -3.832613304257392883e-02 5.925112962722778320e-02 -2.063802033662796021e-01 -9.210253953933715820e-01 -1.386381268501281738e+00 -4.876574873924255371e-01 -2.371684610843658447e-01 -8.523932099342346191e-01 -6.124297976493835449e-01 3.253951966762542725e-01 4.757877886295318604e-01 -5.510911345481872559e-01 9.676963835954666138e-02 1.762736678123474121e+00 -4.733150899410247803e-01 -7.010491490364074707e-01 8.425745964050292969e-01 -3.044984340667724609e-01 -4.610021412372589111e-01 1.210501551628112793e+00 7.421838641166687012e-01 9.829985499382019043e-01 -7.450820803642272949e-01 -2.857748270034790039e-01 2.004073858261108398e+00 -1.879357397556304932e-01 -6.201732754707336426e-01 -2.556267678737640381e-01 -7.440257072448730469e-01 2.584631443023681641e-01 -6.409251093864440918e-01 6.716088205575942993e-02 1.815074682235717773e+00
7.290202379226684570e-01 -9.608738422393798828e-01 -5.061491131782531738e-01 5.822821855545043945e-01 5.468486547470092773e-01 1.069981694221496582e+00 -3.206838965415954590e-01 -3.579267859458923340e-01 -4.845952093601226807e-01 -4.300481975078582764e-01 4.444044232368469238e-01 2.127249717712402344e+00 8.156712055206298828e-01 3.138351738452911377e-01 4.081631898880004883e-01 1.624608874320983887e+00 -1.456377625465393066e+00 -4.665949940681457520e-01 2.928443998098373413e-02 5.614273548126220703e-01 5.921285748481750488e-01 5.401143431663513184e-01 -3.410817589610815048e-03 7.897663116455078125e-02 -1.067362651228904724e-01 4.246462285518646240e-01 -8.709944486618041992e-01 4.148173332214355469e-01 -7.980691790580749512e-01 6.289767026901245117e-01 -4.515626728534698486e-01 -1.469459176063537598e+00 -1.987953782081604004e-01 7.351160049438476562e-01 -7.381337881088256836e-01 -2.213427573442459106e-01 -1.345983624458312988e+00 2.404477596282958984e-01 -1.940860271453857422e+00 1.252800524234771729e-01 -9.508586525917053223e-01 -2.409012079238891602e+00 -9.689185023307800293e-01 -2.900660634040832520e-01 -7.222545146942138672e-01 -2.428948879241943359e-01 -1.077126115560531616e-01 -5.244909524917602539e-01 9.673465490341186523e-01 1.327455520629882812e+00 4.844719469547271729e-01 1.498546242713928223e+00 -5.794339179992675781e-01 -9.255232661962509155e-02 2.373104572296142578e+00 -1.713317483663558960e-01 -4.047780856490135193e-02 -1.538836508989334106e-01 1.818965971469879150e-01 1.731747388839721680e+00 1.165494203567504883e+00 7.344376295804977417e-02 -1.839294552803039551e+00 -8.542579412460327148e-02 -1.752206206321716309e+00 1.701923012733459473e+00 2.766601443290710449e-01 6.468555927276611328e-01 -1.043910741806030273e+00 1.357220172882080078e+00 5.062336325645446777e-01 6.286191940307617188e-01 -9.401644468307495117e-01 -1.160018563270568848e+00 -2.712525725364685059e-01 -3.838188946247100830e-01 -7.049627304077148438e-01 2.632035613059997559e-01 -2.251232266426086426e-01 2.281647205352783203e+00 1.660130858421325684e+00 -1.247441887855529785e+00 1.209710359573364258e+00 2.107108831405639648e+00 -6.699860095977783203e-01 -1.012129664421081543e+00 1.519564390182495117e+00 -1.241076350212097168e+00 8.298078775405883789e-01 8.642969653010368347e-03 -5.867115259170532227e-01 -7.490798085927963257e-02 1.883398294448852539e-01 4.400937259197235107e-01 1.279744505882263184e-01 -4.972144663333892822e-01 4.599736928939819336e-01 5.246977210044860840e-01 -1.334601759910583496e+00 2.610246181488037109e+00 -1.798716068267822266e+00 1.164969563484191895e+00 -4.663687944412231445e-01 2.766163647174835205e-01 -1.085322618484497070e+00 -8.878672122955322266e-02 9.174641370773315430e-01 -3.393453657627105713e-01 -1.523973822593688965e+00 -1.045733809471130371e+00 -5.743325948715209961e-01 2.084003835916519165e-01 -1.676270723342895508e+00 -1.279062509536743164e+00 -2.508458495140075684e-01 1.761815547943115234e+00 1.564402341842651367e+00 7.715496420860290527e-01 -4.889621436595916748e-01 3.597139567136764526e-02 6.553179621696472168e-01 3.657402396202087402e-01 4.979809373617172241e-02 7.935651578009128571e-03 4.045736417174339294e-02 4.220442473888397217e-02 -7.551589608192443848e-02 -8.473505973815917969e-01
-1.058171316981315613e-01 1.481585144996643066e+00 -3.339734103064984083e-04 -8.774457573890686035e-01 -3.401625454425811768e-01 8.453375697135925293e-01 9.766731262207031250e-01 3.310410380363464355e-01 -4.347601532936096191e-01 -8.917986415326595306e-03 -1.377160429954528809e+00 2.690416872501373291e-01 9.902153611183166504e-01 -2.654470503330230713e-01 -4.220294356346130371e-01 -1.359645366668701172e+00 3.981565237045288086e+00 2.244283705949783325e-01 -1.558448433876037598e+00 -2.853973507881164551e-01 9.314359426498413086e-01 -2.870270311832427979e-01 -2.472126036882400513e-01 -7.212018966674804688e-02 -6.964870095252990723e-01 -1.167884916067123413e-01 5.127671360969543457e-01 -4.587380588054656982e-01 7.700704038143157959e-02 -2.546283304691314697e-01 -1.304922550916671753e-01 -2.387193918228149414e+00 1.130335852503776550e-01 6.767181754112243652e-01 1.004078984260559082e+00 3.896059393882751465e-01 3.268506824970245361e-01 3.930988311767578125e-01 1.571370482444763184e+00 -3.353697061538696289e-01 2.470884561538696289e+00 2.689944744110107422e+00 -2.031868696212768555e-01 6.541088819503784180e-01 2.382291257381439209e-01 -5.766077637672424316e-01 5.860542654991149902e-01 -9.207155108451843262e-01 -8.606186509132385254e-01 1.083837628364562988e+00 -7.133351564407348633e-01 6.930528879165649414e-01 6.060549020767211914e-01 -6.193171739578247070e-01 2.858543694019317627e-01 -9.942485094070434570e-01 -2.413585036993026733e-01 -3.801704943180084229e-01 -4.026577174663543701e-01 2.157720774412155151e-01 8.328576385974884033e-02 -4.080476760864257812e-01 2.013018131256103516e+00 3.281543552875518799e-01 2.618633396923542023e-02 -1.839510798454284668e+00 3.056294023990631104e-01 -7.500979900360107422e-01 2.787010371685028076e-01 9.886287450790405273e-01 1.171025633811950684e+00 3.846459388732910156e-01 2.907375097274780273e-01 -6.243093013763427734e-01 -1.130753159523010254e+00 -7.854084372520446777e-01 -4.142996370792388916e-01 2.538723871111869812e-02 2.308846950531005859e+00 -1.347543120384216309e+00 6.296615600585937500e-01 7.042704820632934570e-01 -6.073006391525268555e-01 4.644005000591278076e-01 -1.338993906974792480e-01 7.713215053081512451e-02 -8.738741278648376465e-01 5.950040817260742188e-01 -4.646615684032440186e-01 -2.736441195011138916e-01 1.165029764175415039e+00 -1.338713020086288452e-01 -3.261173665523529053e-01 -8.931442499160766602e-01 -6.810704469680786133e-01 -4.472981989383697510e-01 1.761361479759216309e+00 -1.631098151206970215e+00 -3.346276879310607910e-01 -1.190088748931884766e+00 -1.779382973909378052e-01 3.466516137123107910e-01 -1.529624581336975098e+00 -1.111231923103332520e+00 4.183640182018280029e-01 -7.800872325897216797e-01 -2.381532043218612671e-01 9.314598888158798218e-02 1.637995958328247070e+00 6.203561425209045410e-01 -3.443126678466796875e-01 -8.563849329948425293e-01 4.337976127862930298e-02 -6.287707090377807617e-01 5.534505248069763184e-01 -9.092872142791748047e-01 -8.547984957695007324e-01 -8.011730909347534180e-01 -1.045094847679138184e+00 2.187935590744018555e+00 3.417163193225860596e-01 -8.204413652420043945e-01 3.164935111999511719e-01 -4.753576517105102539e-01 -3.949274122714996338e-02 2.704621553421020508e+00 -2.026920765638351440e-01 -1.043438076972961426e+00
-1.184713691473007202e-01 7.194857001304626465e-01 3.490403890609741211e-01 5.152431726455688477e-01 -1.167946085333824158e-01 1.652840524911880493e-01 -3.831871747970581055e-01 5.762701630592346191e-01 -1.400886625051498413e-01 1.058758329600095749e-02 -1.522654145956039429e-01 -6.056402921676635742e-01 1.350600570440292358e-01 -6.813931465148925781e-02 2.091845422983169556e-01 3.343124687671661377e-01 3.776392042636871338e-01 -2.388673722743988037e-01 -2.641980171203613281e+00 -1.143384948372840881e-01 1.688266992568969727e+00 -1.118632704019546509e-01 1.082695484161376953e+00 -5.646990537643432617e-01 -1.895124912261962891e-01 4.067582190036773682e-01 2.357300519943237305e-01 7.098405957221984863e-01 6.914284825325012207e-01 4.409945905208587646e-01 -1.918774485588073730e+00 -4.786768913269042969e+00 6.642152667045593262e-01 3.795444965362548828e-01 2.514199912548065186e-01 6.051752567291259766e-01 2.054008990526199341e-01 5.177400112152099609e-01 -7.003309726715087891e-01 6.595386862754821777e-01 2.699635624885559082e-01 4.883193969726562500e-01 -3.412986397743225098e-01 7.092490196228027344e-01 4.597577452659606934e-01 7.688680291175842285e-01 6.517270207405090332e-01 5.111445188522338867e-01 7.570532560348510742e-01 3.986983895301818848e-01 -7.716494612395763397e-03 -3.212613105773925781e+00 4.763157963752746582e-01 -3.575307726860046387e-01 2.039830237627029419e-01 -1.042715668678283691e+00 -2.644251286983489990e-01 -1.380658298730850220e-01 6.415514349937438965e-01 7.096828818321228027e-01 -3.196348845958709717e-01 2.435717731714248657e-01 -4.327295720577239990e-01 -1.213553845882415771e-01 -8.657878041267395020e-01 -1.183493256568908691e+00 2.736668586730957031e-01 3.762567415833473206e-03 4.313975572586059570e-01 1.027771979570388794e-01 -5.422481298446655273e-01 2.963123023509979248e-01 7.178010940551757812e-01 4.685537219047546387e-01 4.025456011295318604e-01 -1.992767751216888428e-01 1.625285446643829346e-01 -3.177960515022277832e-01 -3.690459132194519043e-01 -4.206058084964752197e-01 1.529226154088973999e-01 -3.610681891441345215e-01 2.869488298892974854e-01 1.684102267026901245e-01 3.365814387798309326e-01 2.927687764167785645e-01 2.373754829168319702e-01 4.609871804714202881e-01 7.385869026184082031e-01 -1.980133652687072754e-01 5.578928589820861816e-01 -4.200208187103271484e-02 7.555515170097351074e-01 4.423641860485076904e-01 3.069263696670532227e-01 -3.001016005873680115e-02 -6.391767859458923340e-01 -7.150872349739074707e-01 3.444692492485046387e-01 4.280155301094055176e-01 -4.062674343585968018e-01 1.489400770515203476e-02 1.567781567573547363e-01 4.975803494453430176e-01 6.010460853576660156e-01 8.862928152084350586e-01 7.102162241935729980e-01 4.092273116111755371e-01 -2.542525827884674072e-01 6.159369945526123047e-01 4.508231878280639648e-01 3.472125530242919922e-01 -5.229301750659942627e-02 3.446485698223114014e-01 1.949126839637756348e+00 4.909356832504272461e-01 -6.013664007186889648e-01 -9.056607633829116821e-02 1.747400015592575073e-01 5.656211972236633301e-01 1.091488972306251526e-01 -5.271646380424499512e-01 -5.230432376265525818e-02 -5.835139192640781403e-03 -5.426089763641357422e-01 3.084971606731414795e-01 8.797529935836791992e-01 1.333354711532592773e-01
2.728404283523559570e+00 1.813020467758178711e+00 2.208124876022338867e+00 -4.422366619110107422e-01 1.502081453800201416e-01 2.221779108047485352e+00 2.980979979038238525e-01 2.291812896728515625e+00 -2.630362510681152344e+00 -1.171696901321411133e+00 -8.798692822456359863e-01 1.966766834259033203e+00 9.712252616882324219e-01 6.886526346206665039e-01 2.017249822616577148e+00 1.394279241561889648e+00 9.352627396583557129e-01 -2.873842239379882812e+00 1.544453382492065430e+00 8.908193111419677734e-01 4.684839546680450439e-01 2.776525259017944336e+00 2.571964502334594727e+00 4.233997687697410583e-02 2.627732515335083008e+00 -2.394196987152099609e+00 2.014417350292205811e-01 1.658211946487426758e+00 -9.861797690391540527e-01 2.176240533590316772e-01 -1.473030567169189453e+00 2.325081586837768555e+00 3.391481161117553711e+00 4.325514793395996094e+00 5.893871188163757324e-01 2.431869029998779297e+00 1.297276914119720459e-01 8.178377747535705566e-01 -1.268634319305419922e+00 1.880315095186233521e-01 2.039539575576782227e+00 1.816405296325683594e+00 5.531535148620605469e-01 1.186233997344970703e+00 1.012099504470825195e+00 6.620150208473205566e-01 4.174074172973632812e+00 1.080826759338378906e+00 -3.261038541793823242e+00 -5.308817028999328613e-01 9.977884888648986816e-01 2.460234761238098145e-01 4.041166007518768311e-01 1.568951845169067383e+00 -2.753782272338867188e+00 -1.650321006774902344e+00 6.022922992706298828e-01 -4.680193364620208740e-01 1.100675106048583984e+00 8.380366563796997070e-01 -3.259527444839477539e+00 3.281127452850341797e+00 -6.767224073410034180e-01 -1.193690076470375061e-01 1.513545393943786621e+00 -1.212581038475036621e+00 -4.311531543731689453e+00 2.708425760269165039e+00 -1.437405467033386230e+00 1.982474684715270996e+00 -1.867787957191467285e+00 2.593452692031860352e+00 3.419838905334472656e+00 1.654120326042175293e+00 3.169494628906250000e+00 5.485354065895080566e-01 7.408013343811035156e-01 2.031720429658889771e-01 -2.088977575302124023e+00 -7.080858945846557617e-01 -1.271517872810363770e+00 -1.172372221946716309e+00 -1.284938812255859375e+00 2.492804050445556641e+00 3.627262115478515625e+00 7.740648388862609863e-01 -1.854253649711608887e+00 3.134663701057434082e-01 7.714588642120361328e-01 1.168576478958129883e+00 3.044259309768676758e+00 8.628394603729248047e-01 2.619582176208496094e+00 3.145244359970092773e+00 -1.985533386468887329e-01 -8.793902397155761719e-01 -4.136691987514495850e-01 1.266330599784851074e+00 2.111565589904785156e+00 2.940760612487792969e+00 1.144858226180076599e-01 -2.747408673167228699e-02 4.353922009468078613e-01 1.348850317299365997e-02 2.049401521682739258e+00 3.083605527877807617e+00 -1.196235179901123047e+00 1.659693479537963867e+00 -4.839797019958496094e-01 1.769554734230041504e+00 -4.814276993274688721e-01 -3.453591763973236084e-01 -5.502046585083007812e+00 -3.751589059829711914e+00 -7.108472585678100586e-01 1.556321382522583008e+00 7.431955933570861816e-01 2.071057319641113281e+00 6.806719303131103516e-01 2.080965995788574219e+00 2.122404098510742188e+00 2.274367094039916992e+00 1.889249324798583984e+00 1.942505598068237305e+00 1.758453249931335449e+00 1.272763371467590332e+00 5.160158157348632812e+00 -3.357953786849975586e+00
2.796377539634704590e-01 -7.893356084823608398e-01 -2.659351825714111328e-01 -1.256755590438842773e+00 -5.310117006301879883e-01 2.856205403804779053e-01 4.629823565483093262e-01 2.003200352191925049e-01 1.948180198669433594e+00 1.261456012725830078e+00 7.089047431945800781e-01 -7.632923126220703125e-01 -1.011453628540039062e+00 2.045068025588989258e+00 -2.301696836948394775e-01 1.203245520591735840e+00 -3.655999600887298584e-01 -2.743935286998748779e-01 -2.629801988601684570e+00 -3.666751682758331299e-01 4.643543660640716553e-01 -1.272171497344970703e+00 3.817699551582336426e-01 -4.569637179374694824e-01 1.202875137329101562e+00 4.752011969685554504e-02 -1.331569701433181763e-01 -2.957947254180908203e-01 -1.784057319164276123e-01 -1.117646574974060059e+00 -2.522106468677520752e-01 -2.459409475326538086e+00 -7.033262252807617188e-01 -4.044677317142486572e-01 -4.817225039005279541e-01 -6.101510524749755859e-01 4.789742231369018555e-01 1.133233234286308289e-01 1.006718993186950684e+00 -8.508542180061340332e-01 -8.554857969284057617e-01 -8.282285928726196289e-01 -1.115059852600097656e+00 -1.177039742469787598e-01 -9.024783968925476074e-01 -9.485116004943847656e-01 4.941508471965789795e-01 -7.010134458541870117e-01 4.201473891735076904e-01 -5.524540543556213379e-01 2.391485214233398438e+00 -1.108679056167602539e+00 -4.596867263317108154e-01 -1.545573353767395020e+00 -3.377179801464080811e-01 1.154178828001022339e-01 -3.201405405998229980e-01 -4.843682050704956055e-01 -7.858172059059143066e-03 -8.427278697490692139e-02 -4.235089421272277832e-01 2.918539345264434814e-01 2.917376756668090820e-01 -2.493507117033004761e-01 -6.321624517440795898e-01 1.535333752632141113e+00 2.514657080173492432e-01 -1.481446921825408936e-01 -3.905172273516654968e-02 6.491798758506774902e-01 6.723270416259765625e-01 -2.607714831829071045e-01 2.905582189559936523e-01 5.137827396392822266e-01 5.938158184289932251e-02 4.521095454692840576e-01 -1.782383322715759277e-01 -6.564120054244995117e-01 2.610031366348266602e+00 1.702353358268737793e-01 3.285953104496002197e-01 1.651482820510864258e+00 -2.951373755931854248e-01 -5.074418783187866211e-01 1.873241186141967773e+00 -2.247820496559143066e-01 1.051463838666677475e-02 2.013849496841430664e+00 3.709075972437858582e-02 -9.318678379058837891e-01 1.001692116260528564e-01 -3.240282833576202393e-01 -3.218338191509246826e-01 7.117091417312622070e-01 -1.098700389266014099e-01 3.130813315510749817e-02 3.053036630153656006e-01 2.753821134567260742e+00 -2.605778574943542480e-01 4.561108648777008057e-01 -7.626435160636901855e-01 -2.099130600690841675e-01 7.338033318519592285e-01 -5.603144168853759766e-01 3.712541759014129639e-01 5.326709747314453125e-01 -6.041332483291625977e-01 -5.492926239967346191e-01 -1.170562028884887695e+00 -6.318323612213134766e-01 -7.233819365501403809e-01 -8.668119907379150391e-01 2.354772761464118958e-02 1.402360439300537109e+00 9.913381934165954590e-01 7.617327570915222168e-02 6.682511419057846069e-02 1.568230390548706055e+00 -1.980218142271041870e-01 2.546150386333465576e-01 -4.839315712451934814e-01 -3.697926998138427734e-01 9.943605661392211914e-01 -1.278956979513168335e-01 3.197173476219177246e-01 -5.641911625862121582e-01 -4.534411430358886719e-01 -9.824457764625549316e-01
5.808106437325477600e-02 -1.116016507148742676e-01 -1.140870526432991028e-01 7.264601588249206543e-01 5.724770426750183105e-01 8.169271349906921387e-01 -1.479187250137329102e+00 6.577610373497009277e-01 -2.289443016052246094e+00 2.532913684844970703e-01 1.316914200782775879e+00 -5.298395827412605286e-02 -6.231486201286315918e-01 -3.644598424434661865e-01 -3.033162951469421387e-01 -1.986270189285278320e+00 -4.030237793922424316e-01 -3.745389878749847412e-01 1.094658732414245605e+00 -2.574093043804168701e-01 6.402868032455444336e-01 3.958503007888793945e-01 5.597812309861183167e-02 9.077285528182983398e-01 -5.869540572166442871e-01 4.707452058792114258e-01 -2.957647442817687988e-01 -1.228504925966262817e-01 -8.455029129981994629e-01 -9.560335278511047363e-01 1.723340272903442383e+00 1.495334029197692871e+00 2.730034589767456055e-01 4.680285751819610596e-01 1.157536864280700684e+00 3.702686727046966553e-01 -4.579861462116241455e-01 -7.844139337539672852e-01 1.559153944253921509e-01 1.635981798171997070e-01 -9.086733311414718628e-02 5.198575258255004883e-01 2.492608428001403809e-01 8.728007674217224121e-01 -1.161177754402160645e+00 1.799856573343276978e-01 1.139545321464538574e+00 -7.143205404281616211e-01 1.311457157135009766e-01 -1.303335875272750854e-01 1.311312913894653320e+00 2.347446918487548828e+00 3.043047189712524414e-01 2.166795015335083008e+00 -6.866018772125244141e-01 1.604650139808654785e+00 8.949928879737854004e-01 7.636380195617675781e-01 -4.816729128360748291e-01 1.691239833831787109e+00 -5.054516792297363281e-01 5.302393436431884766e-01 1.420932292938232422e+00 -1.661807745695114136e-01 -1.435640692710876465e+00 2.181202411651611328e+00 1.345103979110717773e-02 -3.143514096736907959e-01 -1.115071326494216919e-01 -9.063687324523925781e-01 2.183038234710693359e+00 -5.984468758106231689e-02 5.446338560432195663e-03 -6.718009710311889648e-01 3.643435955047607422e+00 4.868867099285125732e-01 3.665537834167480469e-01 1.113183856010437012e+00 1.135515347123146057e-01 7.366217970848083496e-01 -7.379734516143798828e-01 -1.265982866287231445e+00 -3.963283300399780273e-01 -1.466849446296691895e-02 1.747702211141586304e-01 5.501866936683654785e-01 -3.680357336997985840e-01 9.252377599477767944e-02 3.791174590587615967e-01 -8.750301599502563477e-01 -2.377401739358901978e-01 2.267642132937908173e-02 -2.540211677551269531e-01 -1.149045899510383606e-01 -4.283092319965362549e-01 -3.249753952026367188e+00 7.383722066879272461e-01 -6.051313281059265137e-01 -3.909503519535064697e-01 -5.011296868324279785e-01 -8.940631747245788574e-01 -3.468226492404937744e-01 8.976106643676757812e-01 6.110601127147674561e-02 -1.839415192604064941e+00 5.201044678688049316e-01 6.841069459915161133e-01 -6.016491651535034180e-01 1.021866440773010254e+00 -1.698540300130844116e-01 -1.136751323938369751e-01 -1.404855847358703613e+00 1.033859014511108398e+00 1.581039309501647949e+00 1.146866559982299805e+00 2.018513917922973633e+00 1.215152144432067871e+00 -1.817365884780883789e-01 -8.273627609014511108e-02 -2.604966759681701660e-01 -8.520071506500244141e-01 1.860317945480346680e+00 -1.156625986099243164e+00 -1.108226403594017029e-01 -8.452101945877075195e-01 -1.063153743743896484e+00 -3.625063896179199219e-01 3.030740320682525635e-01
1.224712878465652466e-01 -5.864482522010803223e-01 3.396185934543609619e-01 9.231675267219543457e-01 -2.992103993892669678e-01 7.820523977279663086e-01 1.830694913864135742e+00 7.601743340492248535e-01 2.582953870296478271e-01 5.443359613418579102e-01 -1.139889836311340332e+00 6.558965444564819336e-01 1.323683023452758789e+00 -1.476105332374572754e+00 -8.116984367370605469e-01 4.632099270820617676e-01 -3.235327005386352539e-01 -4.463774263858795166e-01 -2.328749001026153564e-01 1.970222219824790955e-03 -7.150736451148986816e-01 -5.325687527656555176e-01 -1.081359982490539551e+00 -1.177191615104675293e+00 -4.616633057594299316e-01 6.843522936105728149e-02 -3.537011146545410156e-01 6.957321166992187500e-01 3.489730358123779297e-01 3.906967341899871826e-01 -2.235450744628906250e+00 -1.338439822196960449e+00 -5.500503182411193848e-01 -6.047591939568519592e-02 -6.320678591728210449e-01 7.448592185974121094e-01 3.583343029022216797e-01 1.624652981758117676e+00 -2.339157611131668091e-01 -2.661831676959991455e-03 -7.178660631179809570e-01 -9.159005284309387207e-01 -9.315577745437622070e-01 -3.062317669391632080e-01 1.938048481941223145e+00 1.182775497436523438e+00 -8.298244327306747437e-02 4.820973575115203857e-01 -7.959239929914474487e-02 -5.206303000450134277e-01 -5.622506141662597656e-01 -1.047824621200561523e+00 8.598794043064117432e-02 -1.304227232933044434e+00 3.867872953414916992e-01 -1.792492508888244629e+00 -8.259673714637756348e-01 1.279596686363220215e-01 8.221176862716674805e-01 -2.036991834640502930e+00 -8.892363905906677246e-01 -8.299729824066162109e-01 -1.125018119812011719e+00 1.601893827319145203e-02 2.072238922119140625e+00 -3.303419113159179688e+00 -9.363017082214355469e-01 -1.143169403076171875e+00 -2.294060885906219482e-01 -7.449074387550354004e-01 -1.681653976440429688e+00 -3.880932331085205078e-01 -1.307075470685958862e-01 -1.878940612077713013e-01 -2.433952569961547852e+00 -3.670905232429504395e-01 -8.692207336425781250e-01 -1.866434574127197266e+00 -1.232694759964942932e-01 -5.927455425262451172e-01 4.625782072544097900e-01 1.199366450309753418e+00 -3.622790053486824036e-02 -9.358649253845214844e-01 -2.066773921251296997e-01 -2.527639269828796387e-02 1.834003329277038574e+00 4.021709561347961426e-01 1.107029080390930176e+00 2.393048763275146484e+00 -5.672293901443481445e-01 2.992291450500488281e-01 3.651432693004608154e-01 -2.234214991331100464e-01 2.112660408020019531e-01 2.533559083938598633e+00 -1.351723790168762207e+00 -8.212006688117980957e-01 -5.405020117759704590e-01 -3.671969771385192871e-01 6.534178256988525391e-01 -5.734141543507575989e-02 6.502878069877624512e-01 -6.915090084075927734e-01 1.933765649795532227e+00 -2.079123407602310181e-01 5.537799596786499023e-01 -6.127582490444183350e-02 -1.173304557800292969e+00 6.866330504417419434e-01 -6.321873068809509277e-01 1.080294251441955566e+00 -1.929107069969177246e+00 -1.905948519706726074e+00 -7.492407560348510742e-01 -9.977174401283264160e-01 -1.463805437088012695e+00 -4.985494315624237061e-01 -5.353736877441406250e-01 -1.140006035566329956e-01 1.146237492561340332e+00 -2.441734224557876587e-01 1.249867677688598633e+00 7.224141359329223633e-01 1.272234678268432617e+00 6.892046332359313965e-01 7.197687625885009766e-01 -1.066707596182823181e-01
-8.922910094261169434e-01 -2.079118788242340088e-01 -4.921392500400543213e-01 3.857094645500183105e-01 -8.649132847785949707e-01 -1.216738820075988770e+00 1.106305718421936035e+00 -5.038022994995117188e-01 -2.297904253005981445e+00 6.555796861648559570e-01 -6.196731328964233398e-01 -1.285644173622131348e+00 -4.151420593261718750e-01 -1.670664429664611816e+00 -1.033096089959144592e-01 -2.130919933319091797e+00 -1.217411637306213379e+00 -7.029972076416015625e-01 -5.086974501609802246e-01 -5.075560212135314941e-01 -2.875860929489135742e-01 3.821384310722351074e-01 7.967491745948791504e-01 -8.572977185249328613e-01 2.330669611692428589e-01 -5.763716101646423340e-01 -3.686057627201080322e-01 1.127590656280517578e+00 -2.649088203907012939e-01 4.808778166770935059e-01 -3.719741702079772949e-01 -7.052896022796630859e-01 -3.381456434726715088e-01 1.635549515485763550e-01 -3.244226276874542236e-01 -2.231073528528213501e-01 2.952144742012023926e-01 8.411541581153869629e-01 -7.347583770751953125e-01 -1.655112057924270630e-01 4.761122763156890869e-01 3.471726775169372559e-01 -1.402528524398803711e+00 1.075892567634582520e+00 -7.507486343383789062e-01 2.628112554550170898e+00 -3.328940644860267639e-02 -6.732453405857086182e-02 -2.685891687870025635e-01 2.846157550811767578e-01 -3.107756376266479492e-01 -1.271758079528808594e+00 -3.037610054016113281e-01 6.961581707000732422e-01 -1.370958447456359863e+00 -1.199601054191589355e+00 1.056240081787109375e+00 3.294640183448791504e-01 -3.576749265193939209e-01 -7.181170582771301270e-01 -7.415915131568908691e-01 -2.398620545864105225e-01 -2.265016138553619385e-01 8.382365340366959572e-04 -1.331188380718231201e-01 -7.699697613716125488e-01 -1.288467407226562500e+00 3.561975359916687012e-01 -1.144985556602478027e-01 3.214801102876663208e-02 -7.201203703880310059e-02 -6.707816123962402344e-01 1.319334208965301514e-01 -2.762073278427124023e-01 -5.056923031806945801e-01 -5.269942879676818848e-01 1.420427411794662476e-01 6.286590099334716797e-01 1.401780843734741211e+00 2.626813948154449463e-01 -7.127385139465332031e-01 -9.388735890388488770e-01 -6.268714368343353271e-02 -5.666933059692382812e-01 -4.938606917858123779e-01 4.047327041625976562e-01 -1.091693758964538574e+00 5.450179576873779297e-01 -1.542754888534545898e+00 -1.124958038330078125e+00 -1.004965066909790039e+00 -4.794675111770629883e-02 9.269822239875793457e-01 1.355100750923156738e+00 1.966232806444168091e-01 -5.564306974411010742e-01 1.407686248421669006e-02 -1.180638670921325684e+00 7.584137916564941406e-01 1.896815150976181030e-01 -4.340179860591888428e-01 -1.066146790981292725e-01 1.583166718482971191e+00 -5.892052054405212402e-01 -9.391710045747458935e-04 3.045112192630767822e-01 8.254712820053100586e-01 -4.029997289180755615e-01 1.729601621627807617e-01 -3.406395316123962402e-01 1.067766472697257996e-01 5.152194499969482422e-01 -1.961714476346969604e-01 -1.327358931303024292e-01 4.805062338709831238e-02 7.999519705772399902e-01 5.067248344421386719e-01 -8.036870360374450684e-01 -7.000951766967773438e-01 -1.182919740676879883e+00 5.833509564399719238e-01 -9.457743167877197266e-01 -5.078067779541015625e-01 -1.496646523475646973e+00 4.989084601402282715e-01 -1.927973151206970215e+00 6.365079879760742188e-01 3.590306937694549561e-01
4.272654652595520020e-01 -7.208798527717590332e-01 6.316838860511779785e-01 -6.160276532173156738e-01 -1.800975948572158813e-01 -5.880926847457885742e-01 4.248993098735809326e-01 -2.630407512187957764e-01 1.888589709997177124e-01 -1.180181860923767090e+00 -1.128822043538093567e-01 6.900349855422973633e-01 1.347525238990783691e+00 -2.276010811328887939e-01 -1.313078254461288452e-01 1.231800079345703125e+00 -2.431023716926574707e-01 1.139975070953369141e+00 -8.272001743316650391e-01 -9.560086131095886230e-01 5.992504581809043884e-02 -7.473242282867431641e-01 -1.959303975105285645e+00 -5.258652567863464355e-01 -8.252936005592346191e-01 -9.299236536026000977e-01 -1.609838962554931641e+00 -1.571727037429809570e+00 1.674237847328186035e-02 -2.808386087417602539e-01 -6.543302536010742188e-01 -2.292379379272460938e+00 -4.633734524250030518e-01 2.207070440053939819e-01 -9.095165729522705078e-01 5.566425323486328125e-01 -1.190140247344970703e-01 -2.705286741256713867e-01 -6.728358864784240723e-01 9.028311967849731445e-01 -2.188308387994766235e-01 -1.223560571670532227e+00 -7.161089181900024414e-01 1.013495564460754395e+00 8.975936174392700195e-01 -1.144391298294067383e+00 -2.194627076387405396e-01 4.902269691228866577e-02 2.286136001348495483e-01 5.539548769593238831e-02 -8.296754360198974609e-01 -7.741879224777221680e-01 2.616827785968780518e-01 5.331520438194274902e-01 -7.016929984092712402e-01 -2.779985666275024414e-01 -1.514358758926391602e+00 1.565797328948974609e-01 3.782522678375244141e-01 -2.718754410743713379e-01 6.921527981758117676e-01 -7.387221604585647583e-02 -1.290404677391052246e+00 6.847693026065826416e-02 -7.049641609191894531e-01 -3.701323568820953369e-01 5.704741477966308594e-01 -2.153753191232681274e-01 -5.892304778099060059e-01 -7.721788883209228516e-01 -1.650170236825942993e-01 -5.764384195208549500e-02 4.902580976486206055e-01 2.203819006681442261e-01 -3.651400208473205566e-01 -7.544935941696166992e-01 8.997404575347900391e-02 -3.806156814098358154e-01 3.680850565433502197e-01 -1.496973633766174316e+00 -8.431740850210189819e-02 -1.105420231819152832e+00 9.232602715492248535e-01 -8.553648591041564941e-01 -3.582966923713684082e-01 -9.147959351539611816e-01 -1.407208740711212158e-01 -2.797568440437316895e-01 -1.487768143415451050e-01 4.951031506061553955e-01 -1.123689413070678711e+00 -1.050154805183410645e+00 -3.663243353366851807e-01 -8.048195242881774902e-01 8.361807465553283691e-01 1.355988681316375732e-01 -1.506741166114807129e+00 -4.540601968765258789e-01 3.328406214714050293e-01 -1.196342825889587402e+00 -1.479732990264892578e-01 -9.817271232604980469e-01 -1.337801456451416016e+00 1.713335812091827393e-01 -9.582493305206298828e-01 4.558789134025573730e-01 7.733024954795837402e-01 5.929375067353248596e-02 3.793923854827880859e-01 -3.612896502017974854e-01 -4.544574618339538574e-01 -5.798485279083251953e-01 -1.729525029659271240e-01 -2.044507026672363281e+00 -3.006525337696075439e-01 -1.081972122192382812e+00 -6.329697370529174805e-01 -8.536250889301300049e-02 -3.219955861568450928e-01 4.906318485736846924e-01 -1.221101760864257812e+00 9.006351232528686523e-02 -9.563766717910766602e-01 5.549507141113281250e-01 -1.811924576759338379e-01 1.008722782135009766e+00 1.677082777023315430e-01 -2.008007764816284180e-01
-1.510978460311889648e+00 7.890077829360961914e-01 7.648369669914245605e-01 -1.988793492317199707e+00 -1.444625377655029297e+00 -7.864698171615600586e-01 3.788481652736663818e-01 1.619175672531127930e-01 1.591724157333374023e+00 -1.339173316955566406e+00 -1.695836305618286133e+00 -1.106001257896423340e+00 -9.177402257919311523e-01 2.506720088422298431e-02 7.987380027770996094e-01 9.965747594833374023e-01 2.657633125782012939e-01 -3.183729946613311768e-02 6.086683869361877441e-01 7.826353311538696289e-01 5.506677031517028809e-01 1.130548715591430664e+00 -1.356422781944274902e+00 -3.456440687179565430e+00 -1.064628124237060547e+00 -1.681530952453613281e+00 -1.713996767997741699e+00 -2.865229547023773193e-01 -1.382747054100036621e+00 -3.415555655956268311e-01 -1.176506161689758301e+00 -2.427213191986083984e+00 -1.230842232704162598e+00 -3.316861987113952637e-01 -1.884757876396179199e+00 1.061949729919433594e+00 -2.057980298995971680e-01 9.191389083862304688e-01 -1.829500079154968262e+00 -1.339964270591735840e+00 7.467948198318481445e-01 1.145699620246887207e+00 -1.602024793624877930e+00 9.868947863578796387e-01 4.235771298408508301e-01 -9.453728795051574707e-01 1.166414842009544373e-01 4.873831272125244141e-01 -1.032771110534667969e+00 9.088550209999084473e-01 -1.292411446571350098e+00 -2.111027240753173828e+00 5.066516399383544922e-01 7.335369586944580078e-01 -1.890344023704528809e+00 -2.109334230422973633e+00 -2.217423439025878906e+00 -6.437519788742065430e-01 -1.341969072818756104e-01 -1.226499915122985840e+00 -3.681900799274444580e-01 -3.129517138004302979e-01 -1.638297438621520996e+00 -5.734217762947082520e-01 -3.598813414573669434e-01 -2.662166595458984375e+00 -1.320938825607299805e+00 -3.607144579291343689e-02 1.600497215986251831e-01 -1.139194965362548828e+00 -8.240475058555603027e-01 2.834327816963195801e-01 2.646189332008361816e-01 3.564360141754150391e-01 -4.726947546005249023e-01 -9.097032546997070312e-01 7.028278708457946777e-01 2.712620258331298828e+00 9.784278273582458496e-01 -2.622669935226440430e+00 -2.404879093170166016e+00 -9.162895083427429199e-01 1.490010142326354980e+00 -9.694275259971618652e-01 4.471007287502288818e-01 -1.438551902770996094e+00 -7.618047595024108887e-01 -5.899386405944824219e-01 -1.340054154396057129e+00 2.964294195175170898e+00 -3.557773530483245850e-01 -1.212235689163208008e+00 -7.863199710845947266e-01 -1.052165150642395020e+00 7.695081830024719238e-01 -5.241689682006835938e-01 -1.972764730453491211e+00 -1.642955660820007324e+00 1.712733030319213867e+00 -1.101305603981018066e+00 2.152870178222656250e+00 -1.560040593147277832e+00 -1.175885200500488281e+00 -1.862928628921508789e+00 1.434685826301574707e+00 3.511789143085479736e-01 1.287685632705688477e+00 1.809303522109985352e+00 -8.830263465642929077e-02 -5.349977016448974609e-01 -1.673541903495788574e+00 -1.222922563552856445e+00 3.085254430770874023e-01 -1.983556509017944336e+00 -1.821776390075683594e+00 7.285611629486083984e-01 8.745035529136657715e-01 -1.344706177711486816e+00 7.008489966392517090e-01 -5.606572031974792480e-01 -1.188573837280273438e+00 -1.902085840702056885e-01 -1.024474024772644043e+00 -7.161039710044860840e-01 -2.823993563652038574e-01 1.356000781059265137e+00 -2.108317911624908447e-01 -1.350446641445159912e-01
4.714167118072509766e-01 -2.149073630571365356e-01 -4.430112540721893311e-01 7.798029780387878418e-01 -6.275637745857238770e-01 2.556829452514648438e-01 1.415861845016479492e+00 -2.786881923675537109e-01 -1.273996472358703613e+00 1.027544364333152771e-01 4.521460235118865967e-01 -1.524097800254821777e+00 -2.375581562519073486e-01 -2.516988217830657959e-01 -6.700644493103027344e-01 2.459624856710433960e-01 -1.470294356346130371e+00 3.664861246943473816e-02 -6.645659208297729492e-01 1.335295289754867554e-01 2.377623505890369415e-02 6.532785892486572266e-01 -1.536225318908691406e+00 -1.586340665817260742e+00 4.033378660678863525e-01 -9.646197557449340820e-01 -1.382116675376892090e+00 -1.265427768230438232e-01 4.463741779327392578e-01 6.686983704566955566e-01 -2.599108517169952393e-01 -2.566855669021606445e+00 -1.055002331733703613e+00 -4.154711961746215820e-02 -1.424362421035766602e+00 -7.198799252510070801e-01 2.085801959037780762e-02 6.068730950355529785e-01 -1.279296398162841797e+00 -8.038061857223510742e-01 1.067279577255249023e+00 2.924286425113677979e-01 -1.895901322364807129e+00 1.072241425514221191e+00 -3.137169778347015381e-01 -1.390261668711900711e-02 3.112035244703292847e-02 2.198471128940582275e-01 4.150228202342987061e-01 5.064642429351806641e-01 -8.173184394836425781e-01 -1.338276267051696777e+00 -9.264348149299621582e-01 7.758818268775939941e-01 -1.908900380134582520e+00 -3.641165494918823242e-01 1.699581384658813477e+00 8.735393732786178589e-02 -1.059126555919647217e-01 -1.313638925552368164e+00 2.039258182048797607e-01 -1.061308503150939941e+00 -1.414756774902343750e+00 -1.960181593894958496e-01 -6.230153441429138184e-01 -1.178534030914306641e+00 1.231992095708847046e-01 -1.761641353368759155e-01 1.049419522285461426e+00 -3.542224168777465820e-01 1.142331436276435852e-01 -6.516321897506713867e-01 4.782025218009948730e-01 1.438447833061218262e-01 -2.010522484779357910e-01 -5.352178215980529785e-01 8.395461365580558777e-03 4.627640247344970703e-01 9.473398327827453613e-01 -1.465171813964843750e+00 -1.526590824127197266e+00 -3.780941367149353027e-01 1.114038750529289246e-01 -2.682801187038421631e-01 -5.489795207977294922e-01 -1.285586476325988770e+00 -8.828734159469604492e-01 1.069928050041198730e+00 -8.570807576179504395e-01 -3.287293016910552979e-01 -1.245239734649658203e+00 -9.247556924819946289e-01 -1.183058395981788635e-01 8.931279927492141724e-02 1.032620906829833984e+00 -1.967985741794109344e-02 -1.295560836791992188e+00 -2.358087599277496338e-01 6.058339476585388184e-01 -1.222439646720886230e+00 1.329206228256225586e-01 -1.280056118965148926e+00 -2.479189783334732056e-01 -5.636205431073904037e-03 5.968812108039855957e-01 7.039250135421752930e-01 7.448793053627014160e-01 8.215526491403579712e-02 -3.390411660075187683e-02 2.113180607557296753e-01 -4.957171902060508728e-02 -1.323368191719055176e+00 -7.892511785030364990e-02 -8.376998305320739746e-01 -4.924025535583496094e-01 1.137880384922027588e-01 4.075697958469390869e-01 -9.597399830818176270e-01 -7.684226632118225098e-01 1.724714040756225586e+00 9.561530351638793945e-01 -3.577415943145751953e-01 -9.083122014999389648e-01 -1.256348371505737305e+00 -1.894462853670120239e-01 -5.679445862770080566e-01 3.012608885765075684e-01 3.000293970108032227e-01
-4.646216332912445068e-01 -8.107056021690368652e-01 -5.638480186462402344e-01 1.337149441242218018e-01 -9.915349632501602173e-02 3.794953525066375732e-01 1.003927469253540039e+00 -3.394171297550201416e-01 -2.020764589309692383e+00 -1.152369379997253418e+00 7.220973968505859375e-01 1.666871786117553711e+00 1.840344309806823730e+00 -2.386926651000976562e+00 -6.264944076538085938e-01 -1.653797507286071777e+00 -5.852194428443908691e-01 -2.380740940570831299e-01 -5.472736358642578125e-01 -8.606952428817749023e-01 -1.505238175392150879e+00 -4.186861217021942139e-01 -8.059760928153991699e-01 4.638021588325500488e-01 2.241859197616577148e+00 -4.435414969921112061e-01 1.304864048957824707e+00 -9.644129276275634766e-01 2.324491262435913086e+00 -3.944793939590454102e-01 7.076472043991088867e-01 1.029473900794982910e+00 1.291313886642456055e+00 5.883315950632095337e-02 1.192671298980712891e+00 -3.864426016807556152e-01 -8.524575829505920410e-02 3.778388798236846924e-01 -6.868875026702880859e-01 4.155734926462173462e-02 -1.018444001674652100e-01 -1.339747309684753418e+00 2.655672430992126465e-01 5.835112929344177246e-01 1.440524816513061523e+00 1.464169859886169434e+00 -4.704369008541107178e-01 2.608880996704101562e-01 -8.822458386421203613e-01 -1.158530190587043762e-01 1.551004290580749512e+00 8.612138032913208008e-01 -4.695137217640876770e-02 3.450786471366882324e-01 1.062629342079162598e+00 -4.342132434248924255e-02 -1.018065959215164185e-01 -1.798501372337341309e+00 2.783051133155822754e-01 -2.571707367897033691e-01 -8.519854396581649780e-02 1.704683601856231689e-01 -5.813299417495727539e-01 4.390875399112701416e-01 -5.493276715278625488e-01 4.837306737899780273e-01 -5.746386647224426270e-01 -3.029494881629943848e-01 -5.813368558883666992e-01 8.356449007987976074e-01 6.237797737121582031e-01 1.023626849055290222e-01 -2.966333180665969849e-02 -4.200306907296180725e-02 -9.259638190269470215e-01 1.619725674390792847e-01 -4.376824498176574707e-01 -2.268137216567993164e+00 5.419462323188781738e-01 5.746530294418334961e-01 1.027727723121643066e+00 -6.746592521667480469e-01 -6.411988139152526855e-01 -1.370672732591629028e-01 4.044071733951568604e-01 -3.142741024494171143e-01 2.336202859878540039e+00 1.046215176582336426e+00 2.958462536334991455e-01 -1.589904427528381348e+00 6.138942241668701172e-01 1.650599002838134766e+00 3.031822741031646729e-01 3.949981927871704102e-01 1.837108284235000610e-01 -3.878400027751922607e-01 1.132402420043945312e+00 -4.523680806159973145e-01 -6.238144636154174805e-01 -4.341806471347808838e-01 -1.723087787628173828e+00 7.792655229568481445e-01 4.955808073282241821e-02 2.027749300003051758e+00 -2.046504259109497070e+00 3.256412222981452942e-02 -2.852391004562377930e-01 -1.337721228599548340e+00 -1.111487448215484619e-01 -6.639667749404907227e-01 3.118658661842346191e-01 1.577075362205505371e+00 -3.764993697404861450e-02 1.549053668975830078e+00 1.037030577659606934e+00 -3.345216512680053711e-01 1.917444914579391479e-01 6.764848828315734863e-01 -8.062654137611389160e-01 -5.498161315917968750e-01 -1.583284378051757812e+00 8.800112605094909668e-01 -5.899006128311157227e-01 1.313371658325195312e+00 3.784188330173492432e-01 -2.075728654861450195e+00 -3.092058002948760986e-01 6.732668280601501465e-01
-9.639555811882019043e-01 -6.991440057754516602e-01 5.551146268844604492e-01 -1.642009377479553223e+00 -1.387903451919555664e+00 -6.396237611770629883e-01 1.276406764984130859e+00 -4.013800323009490967e-01 -1.501652151346206665e-01 -1.075206518173217773e+00 9.095530956983566284e-02 6.533405780792236328e-01 7.994109392166137695e-01 -1.351104736328125000e+00 -2.546820342540740967e-01 -3.979572355747222900e-01 -1.021198183298110962e-01 3.583665192127227783e-02 5.423879623413085938e-01 3.893902897834777832e-02 -4.877345860004425049e-01 -3.123146891593933105e-01 -9.463382363319396973e-01 -1.153828501701354980e+00 3.300502598285675049e-01 -8.299075961112976074e-01 7.848325967788696289e-01 -2.412964850664138794e-01 2.781165242195129395e-01 -5.851225852966308594e-01 -3.503146767616271973e-01 -4.848738312721252441e-01 -5.564004778861999512e-01 3.677143752574920654e-01 3.067827522754669189e-01 1.225615501403808594e+00 2.514394521713256836e-01 7.366833090782165527e-01 -1.448008775711059570e+00 -7.755407094955444336e-01 4.994648098945617676e-01 -9.943056851625442505e-02 -5.253110527992248535e-01 2.533761858940124512e-01 1.910559654235839844e+00 -2.826285064220428467e-01 3.567358106374740601e-02 5.718601346015930176e-01 -1.059618949890136719e+00 -3.551946282386779785e-01 -4.069533646106719971e-01 -9.646254181861877441e-01 2.346881926059722900e-01 -4.628893733024597168e-01 -1.490526646375656128e-02 -6.102067232131958008e-01 -4.010320007801055908e-01 -2.025767326354980469e+00 1.658825427293777466e-01 -1.216320514678955078e+00 -7.785118222236633301e-01 4.977066516876220703e-01 -9.177421927452087402e-01 1.365535557270050049e-01 -3.712776303291320801e-01 -1.281847238540649414e+00 -1.762238144874572754e+00 3.111868202686309814e-01 -6.674348115921020508e-01 7.626602649688720703e-01 -1.181786894798278809e+00 3.588174656033515930e-02 -2.207546830177307129e-01 3.172803521156311035e-01 -1.153905987739562988e+00 1.525130867958068848e-01 2.852228283882141113e-01 1.733075976371765137e-01 5.156311392784118652e-01 -6.833795905113220215e-01 -1.039660692214965820e+00 -5.918397307395935059e-01 8.383018374443054199e-01 -4.847510159015655518e-01 1.817749291658401489e-01 -3.359968364238739014e-01 1.390824317932128906e+00 -7.872676849365234375e-01 -4.966506063938140869e-01 3.426710367202758789e-01 1.760958790779113770e+00 1.130454897880554199e+00 -1.053749442100524902e+00 -4.433188140392303467e-01 5.255351662635803223e-01 -7.172900438308715820e-01 -2.321930527687072754e-01 -7.209647297859191895e-01 8.746416568756103516e-01 -1.157563686370849609e+00 7.062863707542419434e-01 -5.374348163604736328e-01 -6.288267374038696289e-01 5.576212406158447266e-01 -1.094945743680000305e-01 2.849099934101104736e-01 5.185900926589965820e-01 2.656495273113250732e-01 -2.933247685432434082e-01 -9.240010380744934082e-01 -9.017787575721740723e-01 6.246601343154907227e-01 -6.170097589492797852e-01 2.862345054745674133e-02 -3.615249395370483398e-01 -2.363582104444503784e-01 1.553254723548889160e-01 4.656477868556976318e-01 -1.675120443105697632e-01 -1.657402753829956055e+00 -1.744624137878417969e+00 1.629183441400527954e-02 -9.916865229606628418e-01 1.343785047531127930e+00 8.450042456388473511e-02 -1.020778417587280273e+00 -1.524365395307540894e-01 -9.418823570013046265e-02
