-2.599318921566009521e-01 1.498802453279495239e-01 -8.498936295509338379e-01 -7.127491831779479980e-01 3.398140072822570801e-01 -5.544229745864868164e-01 5.190904140472412109e-01 1.531255245208740234e-01 4.116297662258148193e-01 -1.111527800559997559e+00 1.037095427513122559e+00 -1.028883814811706543e+00 -3.322373330593109131e-01 1.580920934677124023e+00 -1.334084421396255493e-01 1.320098996162414551e+00 -4.578516259789466858e-02 -8.626367151737213135e-02 -1.637172341346740723e+00 -1.941500306129455566e-01 -2.872001826763153076e-01 4.631385803222656250e-01 5.642946958541870117e-01 1.016272783279418945e+00 -1.828194618225097656e+00 5.353453755378723145e-01 -6.879955530166625977e-01 2.647207975387573242e-01 4.050429761409759521e-01 1.527588665485382080e-01 2.242411226034164429e-01 1.149935007095336914e+00 9.856136143207550049e-02 -4.288845658302307129e-01 -6.166152358055114746e-01 -1.591277420520782471e-01 -8.387184143066406250e-01 -3.631168603897094727e-02 -9.980466216802597046e-02 -1.090064525604248047e+00 -1.185814976692199707e+00 1.535315871238708496e+00 5.493112206459045410e-01 4.431011974811553955e-01 6.876925826072692871e-01 -1.338824480772018433e-01 -7.136982083320617676e-01 -4.752188026905059814e-01 2.356293946504592896e-01 4.522247016429901123e-01 -1.426490768790245056e-02 1.126102566719055176e+00 3.313250839710235596e-01 2.496763467788696289e-01 -8.320217132568359375e-01 7.011701166629791260e-02 1.971194446086883545e-01 1.565624922513961792e-01 -5.448890328407287598e-01 -9.616739153861999512e-01 -8.858363628387451172e-01 -1.126506477594375610e-01 -1.314151883125305176e+00 -6.442947983741760254e-01 1.978912204504013062e-01 4.338599443435668945e-01 4.097577929496765137e-01 9.150388836860656738e-01 -9.635607600212097168e-01 -3.382210731506347656e-01 -8.134304881095886230e-01 8.135150671005249023e-01 -1.032116651535034180e+00 -5.896688699722290039e-01 9.860532283782958984e-01 2.557270526885986328e+00 7.757043093442916870e-02 -5.342477560043334961e-01 -1.121819496154785156e+00 -3.395285904407501221e-01 -6.596060395240783691e-01 -1.224239468574523926e+00 -1.607425063848495483e-01 8.089042454957962036e-02 4.870771467685699463e-01 1.831333488225936890e-01 -3.247308731079101562e-01 1.080988764762878418e+00 -5.808832645416259766e-01 -9.185129404067993164e-01 1.309362769126892090e+00 -1.941753387451171875e+00 -1.368308424949645996e+00 -1.738910228013992310e-01 -4.806181490421295166e-01 -2.537079453468322754e-01 3.612113595008850098e-01 1.923837661743164062e-01 -8.691043853759765625e-01 -6.698460876941680908e-02 1.899516135454177856e-01 1.238798260688781738e+00 -1.123724818229675293e+00 -4.716140031814575195e-01 -8.067677021026611328e-01 3.482625782489776611e-01 5.841329321265220642e-02 5.209267139434814453e-01 8.993790745735168457e-01 -9.597846269607543945e-01 -4.463684558868408203e-01 -3.863682150840759277e-01 7.285528630018234253e-02 -9.402422308921813965e-01 -2.515089213848114014e-01 6.440365314483642578e-02 -1.430567800998687744e-01 9.497109651565551758e-01 6.807382702827453613e-01 -4.012541472911834717e-01 4.506654739379882812e-01 -3.286913633346557617e-01 6.690193414688110352e-01 -7.584198117256164551e-01 2.266070544719696045e-01 2.795882225036621094e-01 -1.457600951194763184e+00 1.701715439558029175e-01
-3.401720821857452393e-01 1.247911155223846436e-02 -6.587486863136291504e-01 1.757687181234359741e-01 -2.795309722423553467e-01 1.484508812427520752e-01 1.758239418268203735e-01 -1.750153750181198120e-01 7.243006229400634766e-01 -1.484056115150451660e-01 3.849209845066070557e-02 -2.684519588947296143e-01 -1.431784033775329590e-01 -2.683642506599426270e-01 2.844727039337158203e-01 -1.293560862541198730e-01 -6.692193150520324707e-01 6.395938396453857422e-01 -5.169023275375366211e-01 -3.379795253276824951e-01 2.448833882808685303e-01 5.394242405891418457e-01 2.274259626865386963e-01 1.605316996574401855e-01 6.748161911964416504e-01 -1.043532609939575195e+00 6.653778254985809326e-02 -9.911896586418151855e-01 -4.340570271015167236e-01 -1.121943220496177673e-01 4.248014390468597412e-01 -6.837305426597595215e-01 -2.694615423679351807e-01 -3.820162117481231689e-01 -1.059695482254028320e+00 -6.141240596771240234e-01 -1.019905284047126770e-01 -1.010826751589775085e-01 -2.759997844696044922e-01 -8.788869380950927734e-01 -4.797755181789398193e-01 -4.075304865837097168e-01 5.809401869773864746e-01 8.637859672307968140e-02 -2.049202620983123779e-01 -1.072623133659362793e+00 1.755538731813430786e-01 8.289410918951034546e-02 -6.574324369430541992e-01 4.747365713119506836e-01 1.750309169292449951e-01 3.564714491367340088e-01 4.807744622230529785e-01 3.957069218158721924e-01 8.948263525962829590e-01 1.297860443592071533e-01 1.100602224469184875e-01 -5.034738183021545410e-01 2.132942080497741699e-01 -2.100905627012252808e-01 -1.337487697601318359e-01 1.993855088949203491e-01 -4.530380368232727051e-01 -1.654121875762939453e-01 -7.763081789016723633e-02 -6.499002575874328613e-01 -6.383472681045532227e-01 3.301470875740051270e-01 -7.944388985633850098e-01 -1.245829820632934570e+00 -3.358275592327117920e-01 3.756128251552581787e-01 -4.276885092258453369e-01 -1.322266608476638794e-01 2.683247029781341553e-01 -4.246925711631774902e-01 4.061107756569981575e-04 -3.766027390956878662e-01 -6.612648963928222656e-01 3.901194632053375244e-01 -2.136094272136688232e-01 -8.102876543998718262e-01 6.238561868667602539e-02 4.354832172393798828e-01 -9.346097707748413086e-02 6.614875793457031250e-01 1.089112311601638794e-01 -3.704883754253387451e-01 9.988582134246826172e-02 -6.233889460563659668e-01 -2.781732380390167236e-01 9.023284912109375000e-01 -8.052591085433959961e-01 2.225409261882305145e-03 -2.612909078598022461e-01 -4.845952689647674561e-01 5.846458673477172852e-01 9.214252233505249023e-02 -4.130699932575225830e-01 -5.655329301953315735e-02 2.056478261947631836e-01 1.873130798339843750e-01 8.219539523124694824e-01 -2.685312628746032715e-01 -8.322235941886901855e-02 3.251499831676483154e-01 9.002653956413269043e-01 1.183721646666526794e-01 6.616986393928527832e-01 -8.151867240667343140e-02 -2.653270773589611053e-02 2.047715932130813599e-01 -6.248413920402526855e-01 -7.139620184898376465e-01 -2.310575246810913086e-01 2.941444218158721924e-01 -4.168709516525268555e-01 8.188867568969726562e-01 3.246006369590759277e-01 5.145817399024963379e-01 -1.164791822433471680e+00 -1.116624847054481506e-01 -2.015449255704879761e-01 -5.182813405990600586e-01 -5.517255663871765137e-01 4.982821941375732422e-01 -2.206160426139831543e-01 -2.864748425781726837e-02
3.431058228015899658e-01 2.179394215345382690e-01 6.285493075847625732e-02 8.447944186627864838e-03 -3.838426470756530762e-01 -1.431046426296234131e-01 -4.738520085811614990e-01 2.524595260620117188e-01 -2.063467651605606079e-01 -5.306823849678039551e-01 5.173131227493286133e-01 -3.099925220012664795e-01 -1.870812326669692993e-01 7.706174850463867188e-01 -5.311685800552368164e-01 3.569517433643341064e-01 2.279213517904281616e-01 4.236333370208740234e-01 -5.772057175636291504e-01 2.050818800926208496e-01 1.652216613292694092e-01 -1.122331395745277405e-01 -2.903671860694885254e-01 5.907024145126342773e-01 -2.058312594890594482e-01 6.703203320503234863e-01 -9.381337761878967285e-01 9.409036636352539062e-01 1.316730212420225143e-02 1.061415225267410278e-01 -6.854525208473205566e-02 1.029450178146362305e+00 -4.225783944129943848e-01 7.487583160400390625e-02 3.028056323528289795e-01 4.275531768798828125e-01 5.483704805374145508e-01 2.048216760158538818e-01 -9.036520868539810181e-02 7.793303728103637695e-01 7.193872332572937012e-01 1.044243946671485901e-02 4.869399070739746094e-01 2.855257093906402588e-01 9.910751134157180786e-02 5.603210926055908203e-01 -4.457099735736846924e-02 6.390723586082458496e-01 1.460474282503128052e-01 -2.358141355216503143e-03 -1.266094684600830078e+00 -7.454187870025634766e-01 -6.124247312545776367e-01 -1.491136252880096436e-01 -4.663597047328948975e-02 -1.235034540295600891e-01 5.665781348943710327e-02 2.557786703109741211e-01 4.750585258007049561e-01 1.857874095439910889e-01 2.159102261066436768e-01 3.249546289443969727e-01 1.186483383178710938e+00 3.138008117675781250e-01 3.765321373939514160e-01 3.486137092113494873e-01 -3.365601897239685059e-01 -3.160252273082733154e-01 4.657765626907348633e-01 3.713188469409942627e-01 2.420375943183898926e-01 -5.693274140357971191e-01 1.183384880423545837e-01 4.031865596771240234e-01 1.120459511876106262e-01 2.338288277387619019e-01 -3.004180490970611572e-01 3.516000211238861084e-01 -1.146962419152259827e-01 -5.303665995597839355e-01 8.180043846368789673e-02 4.814162850379943848e-01 -3.905993700027465820e-01 -7.720741629600524902e-01 6.257894448935985565e-03 2.148604542016983032e-01 1.033505424857139587e-01 1.096503973007202148e+00 6.926923990249633789e-01 1.038112401962280273e+00 1.698126792907714844e-01 -9.772835969924926758e-01 9.347353577613830566e-01 3.280379772186279297e-01 3.708968758583068848e-01 -4.436614811420440674e-01 -9.505577087402343750e-01 4.582123160362243652e-01 7.447284460067749023e-01 5.230107903480529785e-01 -3.343594074249267578e-01 1.893060356378555298e-01 8.479900360107421875e-01 1.652017980813980103e-01 7.947660684585571289e-01 -3.481090366840362549e-01 -9.366577267646789551e-01 -9.648557901382446289e-01 -8.975468575954437256e-02 -9.476992487907409668e-02 -1.324067562818527222e-01 -9.425210952758789062e-01 2.454072386026382446e-01 -2.401625365018844604e-02 -1.793537139892578125e-01 -9.091853350400924683e-02 -3.004504740238189697e-01 -6.781408786773681641e-01 3.971241414546966553e-01 2.630350589752197266e-01 -1.498225033283233643e-01 1.865508705377578735e-01 -6.966100335121154785e-01 -1.352328211069107056e-01 2.297079749405384064e-02 3.065881133079528809e-01 -3.082363903522491455e-01 -4.141522943973541260e-01
-7.348057627677917480e-01 -2.825162708759307861e-01 5.487897619605064392e-02 -1.826562583446502686e-01 4.802809357643127441e-01 -2.449347525835037231e-01 -1.709756851196289062e-01 5.602362751960754395e-01 -9.598822146654129028e-02 -1.019950389862060547e+00 -3.411213159561157227e-01 -1.989658549427986145e-02 5.388029813766479492e-01 6.288409829139709473e-01 2.972512841224670410e-01 5.183815956115722656e-01 -9.158217906951904297e-01 -7.028550505638122559e-01 7.716372609138488770e-01 -6.383137702941894531e-01 3.842473030090332031e-01 -5.580505728721618652e-01 4.065883159637451172e-01 -4.761895239353179932e-01 3.490448296070098877e-01 -4.893639087677001953e-01 1.355741359293460846e-02 2.294800132513046265e-01 -9.220039248466491699e-01 -2.680140733718872070e-01 -7.445170283317565918e-01 -6.303184628486633301e-01 -1.001762971282005310e-01 -5.073271393775939941e-01 -8.311983942985534668e-01 -6.151199936866760254e-01 -3.283146023750305176e-02 -3.172019720077514648e-01 -2.877454757690429688e-01 3.141854405403137207e-01 3.233931958675384521e-01 -5.403554439544677734e-01 5.016742944717407227e-01 2.616547793149948120e-02 -6.973642706871032715e-01 -2.657280564308166504e-01 3.240254521369934082e-02 1.054702043533325195e+00 -4.450367689132690430e-01 -5.730002522468566895e-01 3.181330561637878418e-01 8.856557011604309082e-01 3.147503137588500977e-01 -3.027209639549255371e-01 3.940306976437568665e-02 3.352183401584625244e-01 -5.048972554504871368e-03 -6.828862428665161133e-01 9.502744078636169434e-01 -6.072058081626892090e-01 -7.910321950912475586e-01 -8.030040264129638672e-01 1.644278317689895630e-02 -1.347497463226318359e+00 -3.494512736797332764e-01 -1.592804044485092163e-01 -1.046999692916870117e+00 7.031762003898620605e-01 -7.312795519828796387e-01 -9.660539627075195312e-01 -4.571102261543273926e-01 -2.015251517295837402e-01 -2.122231526300311089e-03 6.447112560272216797e-01 7.341923117637634277e-01 1.636831611394882202e-01 -9.977750480175018311e-02 -7.025260925292968750e-01 -2.981827557086944580e-01 1.292701125144958496e+00 -5.566221475601196289e-01 -8.788313716650009155e-02 1.811758726835250854e-01 1.614426225423812866e-01 -3.156239092350006104e-01 -3.867889642715454102e-01 -1.751142442226409912e-01 5.169157385826110840e-01 -1.333311080932617188e+00 -5.785421729087829590e-01 1.357150916010141373e-02 1.268914341926574707e+00 9.355408549308776855e-01 -3.451840877532958984e-01 7.863909602165222168e-01 3.597566187381744385e-01 1.192445605993270874e-01 7.652058005332946777e-01 -6.182107925415039062e-01 -1.205018281936645508e+00 7.444448471069335938e-01 -4.608847200870513916e-01 9.689326584339141846e-02 1.432470828294754028e-01 4.612858295440673828e-01 -2.493191659450531006e-01 7.785534858703613281e-01 -4.288776963949203491e-02 8.128768801689147949e-01 -2.010218054056167603e-01 -5.644707679748535156e-01 -1.447000168263912201e-02 -8.056640028953552246e-01 -6.194545626640319824e-01 2.247547805309295654e-01 3.521914184093475342e-01 -2.092188596725463867e-01 -3.097292482852935791e-01 -8.890058398246765137e-01 -5.608949065208435059e-01 6.787523031234741211e-01 -1.095252990722656250e+00 1.242355704307556152e-01 4.167978763580322266e-01 1.378406733274459839e-01 -8.333092331886291504e-01 -3.243827223777770996e-01 -6.824952960014343262e-01
-1.538443118333816528e-01 -3.235507309436798096e-01 -2.094651609659194946e-01 -2.908233106136322021e-01 -7.001445628702640533e-03 -6.834619641304016113e-01 -1.950510405004024506e-02 -9.235401451587677002e-02 5.614559054374694824e-01 -7.637668848037719727e-01 -2.993370294570922852e-01 -2.331229448318481445e-01 1.699928492307662964e-01 3.773605227470397949e-01 2.138326168060302734e-01 1.645679622888565063e-01 4.589921534061431885e-01 -4.568643569946289062e-01 -3.842803537845611572e-01 5.955883860588073730e-01 -2.284035235643386841e-01 -5.891578197479248047e-01 5.085761472582817078e-02 -3.120323717594146729e-01 1.468816846609115601e-01 3.811319470405578613e-01 -5.955768227577209473e-01 8.791468143463134766e-01 1.692440360784530640e-01 5.348684191703796387e-01 -8.855341672897338867e-01 -2.154020220041275024e-01 -2.381093651056289673e-01 -5.225064158439636230e-01 2.701973676681518555e+00 3.511866927146911621e-01 -4.503080993890762329e-02 -1.193331360816955566e+00 -5.644852519035339355e-01 4.809911847114562988e-01 -2.662415206432342529e-01 1.993024945259094238e-01 -9.880540966987609863e-01 -4.945740848779678345e-02 -1.056955382227897644e-01 1.711129188537597656e+00 -5.059592127799987793e-01 1.686032116413116455e-02 -2.944035232067108154e-01 3.837477862834930420e-01 2.521820832043886185e-03 -2.254966944456100464e-01 -8.347020745277404785e-01 1.352154165506362915e-01 -1.050642598420381546e-02 -2.304539084434509277e-01 1.954983547329902649e-02 -2.041408419609069824e-01 -1.716318428516387939e-01 1.494053959846496582e+00 2.709313035011291504e-01 -1.281045079231262207e-01 1.144892722368240356e-01 7.808578014373779297e-02 -5.387691855430603027e-01 1.192265078425407410e-01 3.295612931251525879e-01 3.221706673502922058e-02 -9.992030262947082520e-02 -9.394708871841430664e-01 4.507819116115570068e-01 -1.162870675325393677e-01 4.817906320095062256e-01 -2.525121271610260010e-01 -1.458686441183090210e-01 -2.437143214046955109e-02 -1.120480298995971680e-01 1.053129911422729492e+00 1.058828309178352356e-01 -3.567351996898651123e-01 8.093963265419006348e-01 3.477236330509185791e-01 1.664421409368515015e-01 2.024790793657302856e-01 4.735580384731292725e-01 3.081483952701091766e-02 -5.627186894416809082e-01 -3.750306665897369385e-01 1.696501970291137695e-01 -1.285781413316726685e-01 -9.628576040267944336e-02 -1.189270853996276855e+00 6.007171869277954102e-01 -3.038671016693115234e-01 5.811934173107147217e-02 -4.904075562953948975e-01 -3.565837144851684570e-01 -6.785774976015090942e-02 8.550137281417846680e-01 -4.528084993362426758e-01 -4.473737441003322601e-03 -1.417367253452539444e-02 3.983242809772491455e-01 -3.201774880290031433e-02 -1.321195363998413086e-01 -2.367795258760452271e-02 -7.511834800243377686e-02 2.061216980218887329e-01 -3.727798163890838623e-01 -3.843939006328582764e-01 -8.585347095504403114e-04 3.649075031280517578e-01 3.578522503376007080e-01 -9.926500171422958374e-02 -5.858463048934936523e-01 2.023989409208297729e-01 2.420143038034439087e-01 -1.090463876724243164e+00 5.390223860740661621e-01 8.946890234947204590e-01 -3.274452984333038330e-01 -2.472938001155853271e-01 -1.048423796892166138e-01 3.232735022902488708e-02 6.511408686637878418e-01 -7.379966974258422852e-01 9.609650820493698120e-02 -2.456089407205581665e-01
-2.202875316143035889e-01 2.483168989419937134e-01 -3.197928071022033691e-01 5.260872840881347656e-01 2.184774577617645264e-01 3.685607910156250000e-01 1.780690401792526245e-01 2.734135985374450684e-01 6.672714948654174805e-01 4.965038001537322998e-01 -4.137690365314483643e-02 1.421601772308349609e-01 -6.092052459716796875e-01 -1.769141256809234619e-01 1.154889464378356934e-01 -2.593306601047515869e-01 6.906217336654663086e-01 4.126817882061004639e-01 -5.078286528587341309e-01 4.802179932594299316e-01 -1.771427839994430542e-01 -3.400616943836212158e-01 -5.470363497734069824e-01 4.447608590126037598e-01 3.590431511402130127e-01 -6.259325742721557617e-01 2.721572518348693848e-01 3.289981186389923096e-01 -2.259698659181594849e-01 1.023252844810485840e+00 -1.401078253984451294e-01 2.499491721391677856e-01 4.416152238845825195e-01 -4.976055324077606201e-01 2.483139485120773315e-01 5.887759923934936523e-01 -1.170540601015090942e-01 -9.732310175895690918e-01 -3.304132819175720215e-01 -3.956462144851684570e-01 1.946857720613479614e-01 2.115868404507637024e-02 8.083133697509765625e-01 4.359593391418457031e-01 4.235561937093734741e-02 -1.000066474080085754e-02 -2.343224287033081055e-01 -4.958134517073631287e-02 3.820684850215911865e-01 1.081220149993896484e+00 -1.180590242147445679e-01 -1.539703607559204102e-01 -1.612264066934585571e-01 -2.368422150611877441e-01 7.028397321701049805e-01 -1.477853506803512573e-01 5.058639049530029297e-01 2.642555907368659973e-02 -4.196807444095611572e-01 7.260793447494506836e-01 -6.316301226615905762e-02 7.899304628372192383e-01 -2.083829641342163086e-01 8.405097573995590210e-02 3.280327618122100830e-01 2.915372848510742188e-01 5.753877758979797363e-01 7.338006794452667236e-02 2.765590548515319824e-01 -7.365943491458892822e-02 5.274403691291809082e-01 1.129806414246559143e-01 -1.779855787754058838e-01 -1.358032692223787308e-02 -1.601530909538269043e-01 4.809677004814147949e-01 1.033818647265434265e-01 -7.505569607019424438e-02 -4.507104456424713135e-01 -4.503613710403442383e-01 2.789866738021373749e-02 -6.462219357490539551e-01 5.135390758514404297e-01 6.084323525428771973e-01 4.300398528575897217e-01 4.115237295627593994e-02 4.875156581401824951e-01 -2.356709688901901245e-01 7.100010514259338379e-01 1.040008217096328735e-01 9.207805246114730835e-02 -1.993450969457626343e-01 -1.016741633415222168e+00 1.233248114585876465e-01 -2.773346602916717529e-01 -3.213681280612945557e-01 -1.350565701723098755e-01 1.125560402870178223e+00 3.401922881603240967e-01 4.436854124069213867e-01 -5.481002330780029297e-01 4.379194974899291992e-01 4.856715202331542969e-01 1.726943850517272949e-01 -1.249150753021240234e+00 2.223890721797943115e-01 2.148060798645019531e-01 8.845664560794830322e-03 5.534297823905944824e-01 2.139996737241744995e-02 2.650328874588012695e-01 -5.099107325077056885e-02 4.892953485250473022e-02 5.687460303306579590e-02 -5.021526217460632324e-01 -3.843620419502258301e-01 -1.463408917188644409e-01 1.675109267234802246e-01 1.898780018091201782e-01 3.056476712226867676e-01 -1.028367131948471069e-01 4.568823277950286865e-01 3.883839845657348633e-01 1.107546761631965637e-01 3.739692270755767822e-01 -3.802178502082824707e-01 -4.136729836463928223e-01 -1.138685569167137146e-01
1.380080133676528931e-01 1.005079507827758789e+00 5.065611004829406738e-01 1.655506640672683716e-01 -8.263848721981048584e-02 -2.235082983970642090e-01 9.803917407989501953e-01 -5.723993182182312012e-01 2.387171834707260132e-01 -3.690394163131713867e-01 4.603914022445678711e-01 1.056253612041473389e-01 -6.458399295806884766e-01 7.689558863639831543e-01 -1.242000460624694824e-01 2.887107133865356445e-01 1.383581906557083130e-01 -8.677722513675689697e-02 -2.718127369880676270e-01 5.460580587387084961e-01 -6.918277591466903687e-02 -3.690381944179534912e-01 -3.461879193782806396e-01 5.729283094406127930e-01 2.662464082241058350e-01 2.902719676494598389e-01 1.096641737967729568e-02 -4.095707237720489502e-01 -2.509615421295166016e-01 1.283026933670043945e-01 7.125470042228698730e-01 7.270315289497375488e-01 -3.143452703952789307e-01 -4.001230895519256592e-01 1.002278178930282593e-01 5.949433445930480957e-01 4.181693792343139648e-01 -3.938895463943481445e-01 3.966749608516693115e-01 -8.671541213989257812e-01 4.086272716522216797e-01 1.259305477142333984e+00 5.957731604576110840e-01 2.913048863410949707e-01 4.434907734394073486e-01 -4.006501734256744385e-01 -7.776667475700378418e-01 2.718295454978942871e-01 6.843928694725036621e-01 1.147800683975219727e+00 -2.998729646205902100e-01 2.085856437683105469e+00 6.872149109840393066e-01 1.521925628185272217e-01 -2.912233173847198486e-01 8.596159219741821289e-01 -3.655695319175720215e-01 9.426859766244888306e-02 1.547421455383300781e+00 1.170398965477943420e-01 -1.077963352203369141e+00 4.639032185077667236e-01 -1.714782565832138062e-01 2.206455767154693604e-01 2.055840492248535156e-01 -1.333815753459930420e-01 9.746904671192169189e-02 -1.989421546459197998e-01 9.327618032693862915e-02 1.307400107383728027e+00 2.856118381023406982e-01 1.893127709627151489e-01 -3.011174499988555908e-02 2.643980979919433594e-01 -4.541582465171813965e-01 2.535810708999633789e+00 7.468114495277404785e-01 1.441004872322082520e-01 -1.891079396009445190e-01 3.247650563716888428e-01 1.435676515102386475e-01 -5.207346677780151367e-01 2.302351295948028564e-01 5.485534071922302246e-01 -3.342596888542175293e-01 1.701889157295227051e+00 9.722818136215209961e-01 -1.835121586918830872e-02 8.358479142189025879e-01 2.466433681547641754e-02 1.360457181930541992e+00 1.097317099571228027e+00 -1.406350255012512207e+00 3.094367086887359619e-01 -1.061573699116706848e-01 1.435148715972900391e+00 -2.520251870155334473e-01 5.582354590296745300e-02 1.144500747323036194e-01 1.351529657840728760e-01 -1.876698136329650879e-01 -1.739154309034347534e-01 5.073640942573547363e-01 -4.354305565357208252e-01 -1.862611889839172363e+00 -2.050823271274566650e-01 4.644223153591156006e-01 1.070006012916564941e+00 1.080039143562316895e+00 2.168671041727066040e-02 -1.433719396591186523e-01 -3.884186223149299622e-02 -3.179506957530975342e-01 -5.537075996398925781e-01 1.614389061927795410e+00 -8.209305256605148315e-02 -3.352630138397216797e-02 -3.637404441833496094e-01 3.408961594104766846e-01 3.849858939647674561e-01 1.043422818183898926e+00 1.755496114492416382e-01 9.167507290840148926e-01 -6.673461198806762695e-01 -6.460329294204711914e-01 -7.920469045639038086e-01 2.683692872524261475e-01 -9.846394509077072144e-02
2.398984432220458984e-01 -1.562555193901062012e+00 2.543928325176239014e-01 1.102452754974365234e+00 1.722575545310974121e+00 -5.514085888862609863e-01 2.336651802062988281e+00 1.040425181388854980e+00 2.227277040481567383e+00 2.085164785385131836e+00 2.758734226226806641e+00 1.273514509201049805e+00 1.622310638427734375e+00 2.969005107879638672e+00 1.227901354432106018e-01 2.088240861892700195e+00 1.443548917770385742e+00 9.120602607727050781e-01 1.077162981033325195e+00 2.194091320037841797e+00 1.218860670924186707e-01 1.050485134124755859e+00 6.560979485511779785e-01 3.802374839782714844e+00 1.870777964591979980e+00 3.268030166625976562e+00 4.056377112865447998e-01 2.968786001205444336e+00 -7.227499783039093018e-02 1.188668727874755859e+00 -1.439539551734924316e+00 1.430749416351318359e+00 2.150202244520187378e-01 -3.100151196122169495e-03 2.307696342468261719e+00 6.058897376060485840e-01 -1.913396477699279785e+00 5.795099139213562012e-01 -2.045405805110931396e-01 4.101257920265197754e-01 8.014475107192993164e-01 3.320338010787963867e+00 3.230781316757202148e+00 1.654593825340270996e+00 2.506964206695556641e+00 1.579111337661743164e+00 -1.540067315101623535e+00 1.928122162818908691e+00 1.013707756996154785e+00 1.589269280433654785e+00 1.894891023635864258e+00 -2.097033500671386719e+00 6.764215230941772461e-01 -1.036032080650329590e+00 1.015240907669067383e+00 1.597135901451110840e+00 2.255379408597946167e-01 2.748627662658691406e+00 7.368686199188232422e-01 1.573013663291931152e+00 1.392207026481628418e+00 1.904921531677246094e-01 1.507869482040405273e+00 7.976169586181640625e-01 1.289299488067626953e+00 3.098930120468139648e+00 2.614655733108520508e+00 6.621861457824707031e-01 5.993400216102600098e-01 -2.940703332424163818e-01 2.404007196426391602e+00 2.865309953689575195e+00 1.675827622413635254e+00 4.266847968101501465e-01 3.767870962619781494e-01 1.201368689537048340e+00 3.721064925193786621e-01 8.765577673912048340e-01 -7.450443692505359650e-03 2.569795027375221252e-02 9.508168697357177734e-01 -9.288344383239746094e-01 4.611748456954956055e-01 1.214502096176147461e+00 1.116465210914611816e+00 -1.000819325447082520e+00 1.408972620964050293e+00 -5.616686940193176270e-01 2.061930418014526367e+00 1.236037373542785645e+00 -3.645364046096801758e-01 6.076890230178833008e-01 2.253816127777099609e-01 3.422776460647583008e-01 -9.261304736137390137e-01 9.632449746131896973e-01 1.082596063613891602e+00 1.335168838500976562e+00 2.304417610168457031e+00 3.543604314327239990e-01 -1.639543920755386353e-01 6.402690708637237549e-02 1.976541519165039062e+00 3.730780482292175293e-01 8.956652879714965820e-01 -4.053283035755157471e-01 1.276755690574645996e+00 2.952839136123657227e+00 1.644165873527526855e+00 5.822585821151733398e-01 1.442464113235473633e+00 5.023882985115051270e-01 -9.079866856336593628e-02 2.260872125625610352e+00 1.352134943008422852e+00 2.835339903831481934e-01 8.751478791236877441e-02 4.869206249713897705e-01 1.680260896682739258e+00 2.098999977111816406e+00 2.215812653303146362e-01 1.375905275344848633e+00 8.436027914285659790e-03 -6.360495090484619141e-01 1.746183782815933228e-01 6.302036643028259277e-01 1.028991341590881348e+00 3.368762016296386719e+00
-3.798655271530151367e-01 -4.514032229781150818e-02 1.677947044372558594e-01 4.729331284761428833e-02 -3.892780840396881104e-01 -1.594685614109039307e-01 -1.358333826065063477e+00 -4.974481165409088135e-01 -1.188173413276672363e+00 5.592023134231567383e-01 -6.876307725906372070e-01 9.297206252813339233e-02 -1.290905356407165527e+00 -3.316842317581176758e-01 1.832902058959007263e-02 1.282212883234024048e-01 -1.688781529664993286e-01 1.371753513813018799e-01 6.259117126464843750e-01 -6.513416767120361328e-01 -5.994667112827301025e-02 -1.822937577962875366e-01 -8.783161640167236328e-03 2.593936026096343994e-01 -4.791194498538970947e-01 6.716029644012451172e-01 2.400384396314620972e-01 1.252238273620605469e+00 -1.069050192832946777e+00 -1.094637289643287659e-01 1.464418023824691772e-01 3.480288982391357422e-01 3.819936811923980713e-01 5.421791076660156250e-01 3.274024724960327148e-01 -1.102433919906616211e+00 2.376961894333362579e-02 -8.107828497886657715e-01 -4.326985031366348267e-02 -1.270829916000366211e+00 5.176169872283935547e-01 -2.185174822807312012e-01 -1.409830808639526367e+00 1.130395308136940002e-01 1.995972096920013428e-01 3.513096570968627930e-01 5.574907660484313965e-01 -4.718145728111267090e-01 -7.238783836364746094e-01 8.058538287878036499e-02 1.828429549932479858e-01 -7.788683474063873291e-02 -1.244663000106811523e+00 5.139693021774291992e-01 -3.987565934658050537e-01 5.673468112945556641e-01 -2.800782620906829834e-01 9.419944286346435547e-01 -1.497327208518981934e+00 -3.893498703837394714e-02 1.070766568183898926e+00 -3.667272925376892090e-01 7.377494573593139648e-01 4.975663721561431885e-01 -7.117003202438354492e-02 2.262318134307861328e-01 -8.492091298103332520e-01 5.973904132843017578e-01 -4.458858966827392578e-01 -1.566754132509231567e-01 -1.266114950180053711e+00 1.342877745628356934e-01 1.037884354591369629e+00 3.196012675762176514e-01 -4.653138816356658936e-01 -2.046454548835754395e-01 -3.090170025825500488e-01 4.993076324462890625e-01 -4.151408001780509949e-02 4.914893507957458496e-01 -1.471488028764724731e-01 -6.122885346412658691e-01 -1.013873815536499023e-01 3.136220276355743408e-01 -2.124455124139785767e-01 3.959789276123046875e-01 -2.659117877483367920e-01 3.520873486995697021e-01 -1.556069850921630859e-01 4.555961489677429199e-01 8.716875314712524414e-01 -1.688413858413696289e+00 9.601215124130249023e-01 -1.993142627179622650e-02 6.098031401634216309e-01 -1.858831346035003662e-01 -2.866657637059688568e-02 -5.871156454086303711e-01 1.246170476078987122e-01 2.175419330596923828e-01 7.050164937973022461e-01 5.216071382164955139e-02 -1.411537170410156250e+00 -2.801579236984252930e-01 7.477036714553833008e-01 -5.385641455650329590e-01 5.247107148170471191e-01 -5.892588756978511810e-03 -1.308273196220397949e+00 -2.947265282273292542e-02 5.794811248779296875e-01 3.363391384482383728e-02 -1.337676048278808594e-01 2.084935307502746582e-01 -1.916124671697616577e-01 6.635816693305969238e-01 3.417382538318634033e-01 1.823340803384780884e-01 -9.408619999885559082e-01 -9.495433568954467773e-01 3.607071042060852051e-01 -1.123392105102539062e+00 -5.151757001876831055e-01 -5.280109047889709473e-01 1.699722260236740112e-01 7.521751523017883301e-01 -2.718386352062225342e-01 -8.410115242004394531e-01
-1.154023483395576477e-01 -4.398810565471649170e-01 -3.985046744346618652e-01 1.172771304845809937e-02 5.518513321876525879e-01 5.149478316307067871e-01 9.558971971273422241e-02 -3.022702410817146301e-03 3.816709518432617188e-01 4.883174598217010498e-01 -2.968488037586212158e-01 -1.882397010922431946e-02 -7.011477649211883545e-02 -1.024709120392799377e-01 1.164893433451652527e-01 1.000149369239807129e+00 -2.090418189764022827e-01 -2.815616428852081299e-01 2.478134155273437500e+00 4.308184087276458740e-01 -1.831822842359542847e-01 2.647295951843261719e+00 4.910710453987121582e-01 -5.652781203389167786e-02 1.776527166366577148e-01 1.037237644195556641e-01 -1.621950417757034302e-03 -5.712571144104003906e-01 1.367932438850402832e+00 3.087949752807617188e-01 -5.597754120826721191e-01 3.788949176669120789e-02 1.187390685081481934e+00 -3.891436457633972168e-01 4.368316233158111572e-01 6.974455118179321289e-01 -1.260732412338256836e-01 -1.552639126777648926e+00 1.426507979631423950e-01 -4.800740778446197510e-01 -1.655625104904174805e-01 2.524309456348419189e-01 -4.669195413589477539e-01 4.485820829868316650e-01 -2.883693203330039978e-02 -3.662767708301544189e-01 -4.070990979671478271e-01 5.712446570396423340e-01 3.223712369799613953e-02 1.542171835899353027e-01 8.700271248817443848e-01 -5.858495458960533142e-02 -8.430495262145996094e-01 2.587470412254333496e-01 1.320804208517074585e-01 -9.811034798622131348e-02 -4.607597887516021729e-01 3.736839592456817627e-01 -1.857199519872665405e-02 -4.929987341165542603e-02 -5.117017775774002075e-02 -1.659182310104370117e-01 7.098219394683837891e-01 -1.701167970895767212e-01 1.835148036479949951e-01 3.146810829639434814e-01 4.779191911220550537e-01 8.818997740745544434e-01 1.157001703977584839e-01 -1.554320007562637329e-01 8.027435839176177979e-02 4.360073506832122803e-01 1.914210319519042969e+00 -5.325895734131336212e-03 -7.404272556304931641e-01 -5.010647773742675781e-01 -2.424720674753189087e-03 2.869443893432617188e-01 2.450727820396423340e-01 2.285367436707019806e-02 3.040310144424438477e-01 -3.688536584377288818e-01 4.749933481216430664e-01 7.380703091621398926e-01 1.014697328209877014e-01 4.579234123229980469e-02 -5.712461471557617188e-01 2.084704637527465820e-01 -2.029156684875488281e-01 -7.185112237930297852e-01 -2.555347979068756104e-01 1.319593548774719238e+00 1.623385846614837646e-01 -3.937480449676513672e-01 -1.419055648148059845e-02 -5.387158691883087158e-02 8.494766950607299805e-01 2.033282667398452759e-01 -8.028392493724822998e-02 -5.885313153266906738e-01 3.458060622215270996e-01 1.667551279067993164e+00 2.952158637344837189e-02 -2.156228721141815186e-01 -1.104826688766479492e+00 -2.868892252445220947e-01 1.388099640607833862e-01 2.243516206741333008e+00 3.687096536159515381e-01 -1.724228635430335999e-02 3.664105236530303955e-01 -9.803744554519653320e-01 2.986157238483428955e-01 3.907969594001770020e-01 2.066478431224822998e-01 1.053358674049377441e+00 9.191271662712097168e-02 -5.331903100013732910e-01 3.301516771316528320e-01 3.853188157081604004e-01 -3.247113823890686035e-01 -5.587434396147727966e-02 -1.050742268562316895e-01 6.238206624984741211e-01 2.842101752758026123e-01 -1.382285833358764648e+00 -9.666793346405029297e-01 8.177970051765441895e-01
1.419768184423446655e-01 2.096188366413116455e-01 6.702474355697631836e-01 4.594056010246276855e-01 -1.698336601257324219e-01 -1.518173456192016602e+00 -3.958797082304954529e-02 6.522717475891113281e-01 -4.466701745986938477e-01 -3.005369603633880615e-01 -4.272334873676300049e-01 1.462640047073364258e+00 4.792154431343078613e-01 -8.784423470497131348e-01 3.631421178579330444e-02 -2.412752211093902588e-01 2.935822010040283203e-01 3.586510717868804932e-01 3.171623945236206055e-01 4.958082139492034912e-01 1.809686422348022461e+00 4.245073497295379639e-01 4.465760290622711182e-01 -4.222521558403968811e-02 1.747353076934814453e-01 -3.272472620010375977e-01 -1.172626838088035583e-01 7.271939516067504883e-01 4.662908017635345459e-01 2.505302727222442627e-01 2.404762655496597290e-01 -5.658171772956848145e-01 3.846019878983497620e-02 3.635431289672851562e+00 -1.775802671909332275e-01 3.836544454097747803e-01 1.264604181051254272e-01 -9.750201702117919922e-01 -1.195292472839355469e-01 -1.821035295724868774e-01 -8.389989137649536133e-01 1.967425271868705750e-02 4.079849720001220703e-01 1.168291922658681870e-02 -8.946020901203155518e-02 -1.304717212915420532e-01 2.866035223007202148e+00 2.603639960289001465e-01 4.133264124393463135e-01 1.649793386459350586e-01 5.700721144676208496e-01 8.191282749176025391e-01 1.464425921440124512e+00 1.756695389747619629e+00 9.622371196746826172e-01 -3.277868032455444336e-02 1.300303190946578979e-01 1.940969005227088928e-02 -1.230891942977905273e-01 5.878172442317008972e-02 1.368498563766479492e+00 -2.593054771423339844e-01 -5.081527829170227051e-01 3.171733617782592773e-01 3.628167212009429932e-01 -1.741391867399215698e-01 1.858102232217788696e-01 2.607121467590332031e-01 5.007651448249816895e-02 2.347350269556045532e-01 4.580092430114746094e-01 -4.289298877120018005e-02 8.670160919427871704e-02 -2.274823039770126343e-01 -1.489141583442687988e-01 -2.837098538875579834e-01 4.601506590843200684e-01 6.758271455764770508e-01 -5.970121026039123535e-01 -6.791793704032897949e-01 1.144144460558891296e-01 1.240411996841430664e+00 5.644648671150207520e-01 3.612233102321624756e-01 6.460679173469543457e-01 7.856813073158264160e-02 -5.384443998336791992e-01 -4.086497426033020020e-01 1.693150550127029419e-01 -2.131283581256866455e-01 -2.972877323627471924e-01 -1.998794823884963989e-01 -1.047899007797241211e+00 1.193541407585144043e+00 -2.143522650003433228e-01 -3.165451288223266602e-01 -3.606064915657043457e-01 8.328795433044433594e-02 -1.754891127347946167e-01 1.390563547611236572e-01 1.531933527439832687e-02 -5.845142900943756104e-02 -3.196387588977813721e-01 -1.216432452201843262e-02 -1.368856430053710938e-01 -8.988648056983947754e-01 2.699267864227294922e-01 -2.184734493494033813e-01 2.239425331354141235e-01 3.498501777648925781e-01 2.884463667869567871e-01 3.802227377891540527e-01 3.902553319931030273e-01 8.005124330520629883e-01 -1.726645529270172119e-01 1.176492795348167419e-01 1.964063048362731934e-01 -1.240672826766967773e+00 -8.522440493106842041e-02 -3.248158693313598633e-01 9.753754734992980957e-02 -2.123814970254898071e-01 1.186712265014648438e+00 -2.754530906677246094e-01 -1.356261074542999268e-01 -1.626882672309875488e+00 -6.546407341957092285e-01 3.054376542568206787e-01
1.907493323087692261e-01 -2.983697056770324707e-01 -1.146280169486999512e-01 -1.761677563190460205e-01 2.432248890399932861e-01 3.522552847862243652e-01 9.856433868408203125e-01 -4.445903599262237549e-01 -2.382445037364959717e-01 1.073240041732788086e+00 2.731884829699993134e-02 -8.982821702957153320e-01 -4.374397099018096924e-01 -9.424597620964050293e-01 -5.296958088874816895e-01 -3.991609439253807068e-02 1.343001723289489746e-01 1.156224235892295837e-01 1.996601698920130730e-03 -8.240920901298522949e-01 -3.110087513923645020e-01 2.671986818313598633e-01 -9.106683731079101562e-01 3.790688514709472656e-01 -5.499680042266845703e-01 3.894469141960144043e-02 8.257471323013305664e-01 4.401259496808052063e-02 4.296348392963409424e-01 6.038051843643188477e-01 5.162324309349060059e-01 2.951432168483734131e-01 -1.536743044853210449e-01 3.231063187122344971e-01 -9.690968394279479980e-01 -5.765981078147888184e-01 -5.455172434449195862e-02 3.274985849857330322e-01 -7.520123720169067383e-01 2.320622801780700684e-01 5.765883326530456543e-01 5.014859139919281006e-02 8.158697932958602905e-02 -1.877685487270355225e-01 2.619446516036987305e-01 1.940230727195739746e-01 6.763468384742736816e-01 -9.111572802066802979e-02 -5.488881468772888184e-01 6.899740099906921387e-01 -3.285021707415580750e-02 -1.624389767646789551e+00 6.180173754692077637e-01 3.355929255485534668e-01 2.803568243980407715e-01 3.686855137348175049e-01 6.802852153778076172e-01 5.829269289970397949e-01 -3.809872567653656006e-01 2.095384746789932251e-01 -5.571214556694030762e-01 4.231724143028259277e-01 5.040242075920104980e-01 8.748749494552612305e-01 5.585176348686218262e-01 4.611233770847320557e-01 -1.992247849702835083e-01 2.921025156974792480e-01 7.719685435295104980e-01 3.631106615066528320e-01 1.354557275772094727e-01 1.614390611648559570e-01 -3.347712457180023193e-01 -6.837368011474609375e-01 1.146709561347961426e+00 9.903967976570129395e-01 -2.957237511873245239e-02 -4.063352644443511963e-01 -3.392778933048248291e-01 -1.912888735532760620e-01 7.376997917890548706e-02 3.995510637760162354e-01 -2.522129714488983154e-01 -8.304626941680908203e-01 2.604390084743499756e-01 -1.286355733871459961e+00 2.470274716615676880e-01 -1.687065601348876953e+00 1.065191388130187988e+00 2.193291112780570984e-02 -1.088283061981201172e+00 1.224859118461608887e+00 -3.653886318206787109e-01 6.538758873939514160e-01 5.581319332122802734e-01 -2.019191235303878784e-01 -5.677213668823242188e-01 5.951629877090454102e-01 3.078577481210231781e-02 7.257325053215026855e-01 5.557145341299474239e-04 8.173532038927078247e-02 5.347108840942382812e-01 3.354896903038024902e-01 4.940145649015903473e-03 3.665024042129516602e-01 -5.083318799734115601e-02 1.019685745239257812e+00 -1.952903866767883301e-01 1.088818907737731934e+00 -3.065300285816192627e-01 7.650858163833618164e-02 -2.442529052495956421e-01 6.471994519233703613e-01 1.907642781734466553e-01 1.961957067251205444e-01 -5.913448333740234375e-01 4.635138809680938721e-01 -5.314426422119140625e-01 1.647852510213851929e-01 4.425556957721710205e-01 8.779384195804595947e-02 6.182598471641540527e-01 -1.318113923072814941e+00 9.206252694129943848e-01 1.592917442321777344e-01 -3.725180327892303467e-01 8.964633569121360779e-03
-4.560993313789367676e-01 -4.123027995228767395e-02 -7.935882359743118286e-02 -1.188581138849258423e-01 1.233894899487495422e-01 -7.617188096046447754e-01 -8.593041300773620605e-01 -6.372276693582534790e-02 1.363147199153900146e-01 -7.826497405767440796e-02 -3.379705548286437988e-01 -1.391943544149398804e-01 -1.439907103776931763e-01 -8.869323879480361938e-02 -1.520843356847763062e-01 -1.795911490917205811e-01 6.482748687267303467e-02 5.528905242681503296e-02 2.712062597274780273e-01 7.867755740880966187e-02 -8.107144236564636230e-01 -3.125037252902984619e-01 -7.999673485755920410e-01 2.325361967086791992e-01 -1.923673413693904877e-02 2.031258121132850647e-02 3.476432561874389648e-01 1.324968814849853516e+00 -5.889593958854675293e-01 8.735772967338562012e-01 -3.641159534454345703e-01 1.221174120903015137e+00 -3.906659483909606934e-01 -2.394656389951705933e-01 2.750599086284637451e-01 1.605226248502731323e-01 5.767576694488525391e-01 -1.110527276992797852e+00 -3.736518919467926025e-01 3.472339808940887451e-01 1.225603103637695312e+00 8.744733780622482300e-02 1.617000550031661987e-01 -2.586916983127593994e-01 4.583558142185211182e-01 5.912302136421203613e-01 7.205368578433990479e-02 1.737373024225234985e-01 -1.928338706493377686e-01 8.949196934700012207e-01 -5.904567837715148926e-01 -8.723784089088439941e-01 1.487804353237152100e-01 -6.628100275993347168e-01 6.767508387565612793e-02 -3.521309792995452881e-01 4.387302100658416748e-01 6.079922914505004883e-01 1.884487420320510864e-01 -8.346837759017944336e-02 -5.314333438873291016e-01 4.485553801059722900e-01 1.073493242263793945e+00 -3.961940109729766846e-01 1.941730678081512451e-01 5.627433657646179199e-01 -1.317456811666488647e-01 3.779249191284179688e-01 9.365484863519668579e-02 9.523637294769287109e-01 9.876390695571899414e-01 1.739135943353176117e-02 4.239302277565002441e-01 3.247390985488891602e-01 -2.330318838357925415e-01 1.432808339595794678e-01 -2.057601213455200195e-01 -8.107253164052963257e-02 4.863105416297912598e-01 -6.109930872917175293e-01 -6.589166074991226196e-02 1.864510029554367065e-01 2.779290080070495605e-01 -1.044799312949180603e-01 3.056863248348236084e-01 -6.014205813407897949e-01 -4.493324160575866699e-01 6.442702561616897583e-02 5.805154442787170410e-01 6.079000830650329590e-01 7.633825540542602539e-01 9.769719839096069336e-02 5.399496555328369141e-01 1.983210146427154541e-01 2.359062433242797852e-01 -4.776826202869415283e-01 -6.018124520778656006e-02 8.770659565925598145e-01 2.351623587310314178e-02 -4.940229058265686035e-01 -1.337344944477081299e-01 -1.320240944623947144e-01 2.161981314420700073e-01 4.469412565231323242e-01 -6.526334583759307861e-02 -7.133414596319198608e-02 -4.562799334526062012e-01 -6.071684956550598145e-01 1.094350293278694153e-01 1.564598083496093750e-02 -4.679554104804992676e-01 -6.033731698989868164e-01 1.047625914216041565e-01 -3.757477402687072754e-01 -1.644556373357772827e-01 2.897846698760986328e-01 -3.904236257076263428e-01 -8.212927579879760742e-01 -8.160739392042160034e-02 6.807155013084411621e-01 -9.358059614896774292e-02 -1.722775399684906006e-01 3.461340814828872681e-02 -5.693762376904487610e-02 9.887250512838363647e-02 -4.592342376708984375e-01 -5.473729968070983887e-01 -4.854725599288940430e-01
-1.606413006782531738e+00 1.201597303152084351e-01 8.752361685037612915e-02 -9.606440067291259766e-01 -1.022315859794616699e+00 -9.725365042686462402e-01 -1.028362870216369629e+00 -2.329273074865341187e-01 -1.240594267845153809e+00 6.023897528648376465e-01 -2.470398321747779846e-02 -4.723950922489166260e-01 -2.649973034858703613e-01 -2.772701025009155273e+00 -9.005650281906127930e-01 -8.432941436767578125e-01 -4.335802514106035233e-03 -9.921811223030090332e-01 1.566548943519592285e+00 -3.386134207248687744e-01 -9.958312511444091797e-01 -8.009313344955444336e-01 -5.471696257591247559e-01 -1.383882403373718262e+00 -7.870066165924072266e-01 -3.318630158901214600e-01 1.902025103569030762e+00 -1.192940592765808105e+00 -1.152173995971679688e+00 4.701853394508361816e-01 -4.548072516918182373e-01 -9.177573025226593018e-02 -7.600532770156860352e-01 -8.522368669509887695e-01 -1.159625411033630371e+00 1.669095903635025024e-01 2.104097604751586914e+00 -3.664676547050476074e-01 -1.575462102890014648e+00 -3.389458954334259033e-01 3.159243166446685791e-01 -1.657945513725280762e+00 -2.147071838378906250e+00 -1.058597445487976074e+00 -1.519319415092468262e-01 -3.966483473777770996e-01 1.223282098770141602e+00 -5.312397480010986328e-01 -6.952112317085266113e-01 -3.151704370975494385e-02 -1.884995698928833008e+00 -1.816252470016479492e+00 -1.022791981697082520e+00 -6.690021138638257980e-03 -5.892706513404846191e-01 -4.964752197265625000e-01 -6.268078684806823730e-01 -1.282403230667114258e+00 -7.820722460746765137e-01 -1.123806715011596680e+00 -5.564536452293395996e-01 -3.986026346683502197e-01 1.376372814178466797e+00 -9.968799948692321777e-01 5.833603739738464355e-01 -5.833602547645568848e-01 -4.032461941242218018e-01 5.821197628974914551e-01 7.050496339797973633e-01 -1.294354796409606934e+00 -1.339160084724426270e+00 -1.478260755538940430e+00 -1.256090044975280762e+00 2.816738784313201904e-01 1.058719873428344727e+00 -1.818794846534729004e+00 -1.970239430665969849e-01 2.876322343945503235e-02 -1.767970472574234009e-01 5.035692453384399414e-01 -6.302084028720855713e-02 -4.229177534580230713e-01 -5.113984942436218262e-01 -2.154200971126556396e-01 -9.766675829887390137e-01 7.495144605636596680e-01 -4.920431077480316162e-01 -2.358779907226562500e+00 -1.060943126678466797e+00 5.829075574874877930e-01 -9.772149324417114258e-01 7.311637401580810547e-01 -3.744803369045257568e-01 -6.551781892776489258e-01 8.576161861419677734e-01 -1.179084300994873047e+00 -5.316351652145385742e-01 -4.961868822574615479e-01 2.441442161798477173e-01 1.105745673179626465e+00 5.330731347203254700e-02 -1.789618581533432007e-01 -5.003071427345275879e-01 -8.338499069213867188e-02 -1.788109242916107178e-01 -5.989257693290710449e-01 -1.413686037063598633e+00 -2.041594743728637695e+00 -1.817852497100830078e+00 -1.406890988349914551e+00 -3.658452033996582031e-01 -5.201497077941894531e-01 -1.270840466022491455e-01 -1.584793925285339355e-01 -1.934320092201232910e+00 7.774679064750671387e-01 -8.618404269218444824e-01 -5.470658540725708008e-01 -8.364675045013427734e-01 -1.405717611312866211e+00 -4.121775329113006592e-01 5.603950619697570801e-01 3.399653434753417969e-01 -1.347347855567932129e+00 -3.478344082832336426e-01 -1.034286141395568848e+00 1.453331828117370605e+00 -6.138004064559936523e-01
3.321976065635681152e-01 -3.042684197425842285e-01 -1.413053274154663086e-01 5.990958809852600098e-01 -1.311781257390975952e-01 -4.480501636862754822e-02 1.077490970492362976e-01 -2.370681762695312500e-01 -1.031778231263160706e-01 4.548016786575317383e-01 -5.812968611717224121e-01 -1.915615797042846680e-01 -7.290973067283630371e-01 -4.025620818138122559e-01 3.493281602859497070e-01 -3.702983856201171875e-01 -3.339820727705955505e-02 4.741078019142150879e-01 -9.801005125045776367e-01 1.325324475765228271e-01 4.373739361763000488e-01 9.708429127931594849e-02 -5.727061629295349121e-01 1.095085814595222473e-01 3.626061677932739258e-01 3.517939448356628418e-01 -4.510723054409027100e-01 -4.141293764114379883e-01 6.856768131256103516e-01 -1.304976940155029297e-01 -3.374833464622497559e-01 9.979475736618041992e-01 -2.824292182922363281e-01 -3.385078310966491699e-01 -6.034437417984008789e-01 3.104987144470214844e-01 4.798830300569534302e-02 -2.230678051710128784e-01 -2.696399986743927002e-01 -9.620724320411682129e-01 9.935730695724487305e-02 3.290023803710937500e-01 -5.839168429374694824e-01 -1.097461953759193420e-01 9.848521351814270020e-01 -8.939245939254760742e-01 -4.004728794097900391e-01 3.938333690166473389e-01 5.071879830211400986e-03 3.352870345115661621e-01 -1.218413189053535461e-01 -3.276583850383758545e-01 1.118839979171752930e-01 4.980413615703582764e-01 -3.540582358837127686e-01 3.200943171977996826e-01 2.553399503231048584e-01 5.000466704368591309e-01 -5.094225704669952393e-02 2.276829332113265991e-01 -9.764546528458595276e-03 1.179480314254760742e+00 4.524294137954711914e-01 1.346742153167724609e+00 -2.385854274034500122e-01 -2.072763592004776001e-01 1.122666001319885254e+00 5.161421298980712891e-01 1.327041029930114746e+00 1.182327508926391602e+00 -1.217772886157035828e-01 3.153384625911712646e-01 6.216236352920532227e-01 -6.987888216972351074e-01 3.834329545497894287e-01 6.509128808975219727e-01 1.842884123325347900e-01 -1.075277447700500488e+00 4.830611646175384521e-01 -4.514952301979064941e-01 7.172490358352661133e-01 -4.068412482738494873e-01 1.049906387925148010e-02 5.452081188559532166e-02 -3.505776226520538330e-01 -3.420592546463012695e-01 3.358396887779235840e-01 -8.840383887290954590e-01 1.672972202301025391e+00 -2.437074631452560425e-01 -8.508385419845581055e-01 -4.400628209114074707e-01 -8.470182418823242188e-01 -6.988393515348434448e-02 -7.260217666625976562e-01 -9.456877708435058594e-01 8.718907833099365234e-02 -5.128097534179687500e-01 7.154865264892578125e-01 9.101824760437011719e-01 -2.824561595916748047e-01 -2.517114579677581787e-01 6.021453738212585449e-01 -1.055705547332763672e-01 -6.499024629592895508e-01 -5.821704491972923279e-02 -4.414453208446502686e-01 2.798149548470973969e-02 -3.247669041156768799e-01 2.507161796092987061e-01 2.244108617305755615e-01 -4.658060893416404724e-02 6.210153102874755859e-01 9.566355943679809570e-01 2.541295439004898071e-02 1.122426271438598633e+00 -3.245657682418823242e-01 1.766083389520645142e-01 -1.373677700757980347e-01 1.111909627914428711e+00 -6.989408135414123535e-01 8.484833240509033203e-01 -3.337668180465698242e-01 -8.707379549741744995e-02 5.297003984451293945e-01 5.134065747261047363e-01 4.271960854530334473e-01 4.683336615562438965e-01
-2.638232111930847168e-01 8.240203857421875000e-01 6.007194519042968750e-01 5.941792130470275879e-01 -3.203255832195281982e-01 1.399028301239013672e-01 -1.297682523727416992e-01 9.807513952255249023e-01 4.205897450447082520e-01 1.815291047096252441e+00 -3.901555240154266357e-01 -1.161373257637023926e+00 -8.754322528839111328e-01 1.998448491096496582e+00 -4.513362944126129150e-01 2.747224569320678711e-01 3.919285833835601807e-01 2.270130664110183716e-01 -9.114070534706115723e-01 4.813188016414642334e-01 2.160838618874549866e-02 1.214606761932373047e-01 -6.253470182418823242e-01 3.121155798435211182e-01 6.401956081390380859e-01 8.342819809913635254e-01 -3.635680973529815674e-01 5.460228919982910156e-01 6.609044224023818970e-02 -3.673282861709594727e-01 8.392104506492614746e-01 2.528831362724304199e-01 -1.489560678601264954e-02 -5.638567805290222168e-01 -1.226680994033813477e+00 -7.744073867797851562e-02 7.363260984420776367e-01 -8.864240050315856934e-01 -6.047249436378479004e-01 -1.020098686218261719e+00 -6.349930763244628906e-01 -4.937178790569305420e-01 1.190482020378112793e+00 4.792635440826416016e-01 -3.338840231299400330e-02 2.157752364873886108e-01 1.715221107006072998e-01 -1.489612162113189697e-01 -6.229734420776367188e-01 -3.491807729005813599e-02 -8.639233112335205078e-01 -7.694364190101623535e-01 3.642462790012359619e-01 4.803430289030075073e-02 1.983594298362731934e-01 2.479648776352405548e-02 5.939718484878540039e-01 7.317696511745452881e-02 7.636784315109252930e-01 5.016766116023063660e-02 -7.644139528274536133e-01 7.967216372489929199e-01 2.272462844848632812e+00 7.339422702789306641e-01 -1.716236472129821777e-01 6.576887369155883789e-01 -3.300717771053314209e-01 -1.205719590187072754e+00 1.890138864517211914e+00 9.504562616348266602e-01 1.272998303174972534e-01 8.162142634391784668e-01 -8.857088536024093628e-02 7.431414723396301270e-01 1.783938258886337280e-01 -5.641254186630249023e-01 -4.728976190090179443e-01 7.481400370597839355e-01 5.051985383033752441e-01 2.723111957311630249e-02 -2.097668051719665527e-01 -6.441596150398254395e-01 6.372761130332946777e-01 5.546289086341857910e-01 -2.530200779438018799e-01 5.881073474884033203e-01 1.142090320587158203e+00 1.059859991073608398e+00 6.657950282096862793e-01 9.332577884197235107e-02 6.736281514167785645e-01 -1.180514693260192871e-02 4.599426090717315674e-01 -7.697706669569015503e-02 1.524612665176391602e+00 -2.679889798164367676e-01 -1.342729687690734863e+00 7.852191329002380371e-01 2.491463422775268555e+00 1.081016659736633301e+00 -5.923517346382141113e-01 -6.056351214647293091e-02 1.849262237548828125e+00 -5.179653763771057129e-01 1.341696500778198242e+00 5.690071359276771545e-02 2.409099414944648743e-02 -2.334713488817214966e-01 1.010044887661933899e-01 1.896772027015686035e+00 2.247070670127868652e-01 -3.477537035942077637e-01 1.041154146194458008e+00 5.912537500262260437e-02 6.990861892700195312e-01 1.301192045211791992e+00 -5.634835958480834961e-01 -9.147336483001708984e-01 -7.105101644992828369e-02 5.594420433044433594e-01 1.023157835006713867e+00 -6.820086836814880371e-01 2.568233013153076172e-01 -6.267859041690826416e-02 -8.638510107994079590e-01 -6.124129891395568848e-01 1.098941788077354431e-01 -3.171555399894714355e-01
5.364756584167480469e-01 1.443567872047424316e-01 -3.390576839447021484e-01 2.052343338727951050e-01 1.475673168897628784e-01 8.758781552314758301e-01 4.807719588279724121e-01 -1.186848059296607971e-01 2.692120075225830078e-01 1.426993131637573242e+00 -7.978321611881256104e-02 -1.084000468254089355e+00 3.456066846847534180e-01 6.214849352836608887e-01 -1.247132793068885803e-01 -9.063054621219635010e-02 -1.562957316637039185e-01 8.399126529693603516e-01 -7.583065629005432129e-01 1.670909225940704346e-01 -2.805140018463134766e-01 5.150839090347290039e-01 -2.490775883197784424e-01 6.317087411880493164e-01 2.513579726219177246e-01 8.188470602035522461e-01 1.555266976356506348e-01 -9.010352194309234619e-02 -4.331726431846618652e-01 -3.006415367126464844e-01 -5.832026004791259766e-01 8.714865446090698242e-01 -4.761201441287994385e-01 5.446130633354187012e-01 5.862172245979309082e-01 -1.453955918550491333e-01 -9.721425175666809082e-02 -9.881914854049682617e-01 1.757450222969055176e+00 -5.294560790061950684e-01 2.041058063507080078e+00 5.320791602134704590e-01 1.321502685546875000e+00 -4.059125781059265137e-01 9.763689339160919189e-02 3.176892101764678955e-01 1.323534548282623291e-01 2.573405951261520386e-02 -3.787798583507537842e-01 -9.299647808074951172e-01 -7.783068418502807617e-01 -7.763926386833190918e-01 5.700529217720031738e-01 1.604154109954833984e-01 1.491806805133819580e-01 -4.129784554243087769e-02 1.559376716613769531e+00 2.553974986076354980e-01 -1.376443803310394287e-01 -3.202711045742034912e-01 4.754697382450103760e-01 -3.218727409839630127e-01 -4.579055309295654297e-01 -1.399891525506973267e-01 -1.548462808132171631e-01 1.007101893424987793e+00 8.728368878364562988e-01 -1.084974765777587891e+00 2.253989279270172119e-01 -1.971011161804199219e-01 -1.115611568093299866e-01 -5.153777077794075012e-03 3.716804832220077515e-02 -4.707801938056945801e-01 -9.020808935165405273e-01 -5.194518566131591797e-01 -1.979125887155532837e-01 -6.824073195457458496e-02 6.963308900594711304e-02 -1.269500494003295898e+00 4.390764832496643066e-01 -3.696033060550689697e-01 3.865010663866996765e-02 1.523499190807342529e-01 3.153504133224487305e-01 -4.980377852916717529e-01 4.705979824066162109e-01 5.773625969886779785e-01 -5.660019442439079285e-02 9.281637072563171387e-01 -3.136300742626190186e-01 -9.530850499868392944e-02 -1.978769540786743164e+00 -4.996023774147033691e-01 -3.598183989524841309e-01 3.558067977428436279e-01 7.827687263488769531e-02 4.355961382389068604e-01 4.784647226333618164e-01 6.586369872093200684e-01 -1.013489961624145508e+00 -6.869547367095947266e-01 -9.919955134391784668e-01 5.837468504905700684e-01 -1.117459177970886230e+00 1.164620637893676758e+00 -3.806735947728157043e-02 -2.183984816074371338e-01 -3.131279945373535156e-01 1.426034927368164062e+00 -2.030182480812072754e-01 -8.958249688148498535e-01 1.830936074256896973e-01 1.768220514059066772e-01 6.187412142753601074e-01 -6.871250271797180176e-01 -1.333707123994827271e-01 8.337584137916564941e-02 2.446539849042892456e-01 2.204701453447341919e-01 1.029390454292297363e+00 4.298479557037353516e-01 -1.291474580764770508e+00 7.903787493705749512e-01 7.847747206687927246e-01 -9.848078340291976929e-02 -7.526912540197372437e-02 -4.260807633399963379e-01
5.021537542343139648e-01 5.594111979007720947e-02 -9.533842206001281738e-01 -1.023082137107849121e-01 -2.989524602890014648e-01 2.977449074387550354e-02 -7.533923983573913574e-01 2.873132526874542236e-01 -2.402959465980529785e-01 -1.423511654138565063e-01 2.751199603080749512e-01 1.693184375762939453e-01 1.013384103775024414e+00 -1.577653884887695312e+00 -1.206432342529296875e+00 -2.876157686114311218e-02 2.508397996425628662e-01 6.517782211303710938e-01 8.219365477561950684e-01 3.038784265518188477e-01 3.082377314567565918e-01 -6.675868295133113861e-03 -6.492919921875000000e-01 -1.770977228879928589e-01 1.113931462168693542e-02 -5.552567243576049805e-01 8.464712500572204590e-01 2.202583998441696167e-01 -7.341371178627014160e-01 -1.045470461249351501e-01 -5.405928939580917358e-02 8.414005041122436523e-01 -2.050920128822326660e-01 1.115882158279418945e+00 7.653063535690307617e-01 -6.565817594528198242e-01 -4.049400091171264648e-01 -1.070258021354675293e+00 1.304639726877212524e-01 -1.511287808418273926e+00 2.220612764358520508e+00 -2.398152500391006470e-01 9.892380833625793457e-01 -2.242635376751422882e-02 5.311150550842285156e-01 -5.633237361907958984e-01 -5.963302031159400940e-02 -1.366284210234880447e-02 7.556117326021194458e-02 -1.593147814273834229e-01 -1.369485616683959961e+00 -8.963916897773742676e-01 7.553856968879699707e-01 -5.318135619163513184e-01 6.526385247707366943e-02 -2.700062692165374756e-01 1.175110936164855957e+00 -3.406100273132324219e-01 -7.875404357910156250e-01 5.422017574310302734e-01 9.041918069124221802e-02 5.107152462005615234e-01 -1.051608800888061523e+00 2.792143821716308594e-01 -9.165583550930023193e-02 -4.122958779335021973e-01 -2.666311264038085938e-01 -6.233866214752197266e-01 -4.338631629943847656e-01 -2.935150861740112305e-01 5.022657513618469238e-01 -4.803779423236846924e-01 -4.574462473392486572e-01 -1.359629750251770020e+00 1.102589368820190430e+00 2.986387908458709717e-01 -2.822825908660888672e-01 -1.938026547431945801e-01 -3.853029012680053711e-01 1.053264975547790527e+00 -1.913671195507049561e-01 -5.511597394943237305e-01 -4.437380433082580566e-01 -1.118550729006528854e-02 -2.909843325614929199e-01 8.043887615203857422e-01 -8.929014801979064941e-01 -1.145392298698425293e+00 4.634262025356292725e-01 2.954458594322204590e-01 -4.487217068672180176e-01 9.458553791046142578e-01 -3.058700263500213623e-01 -7.405537366867065430e-01 6.051462888717651367e-01 -9.112284779548645020e-01 9.441175460815429688e-01 -3.706328272819519043e-01 -9.901957511901855469e-01 -9.351740479469299316e-01 1.184258222579956055e+00 -1.723387241363525391e-01 -8.494863510131835938e-01 1.700688362121582031e+00 2.034274190664291382e-01 1.204962611198425293e+00 -1.794571131467819214e-01 -9.506465792655944824e-01 7.030344605445861816e-01 -3.747362494468688965e-01 -2.601158618927001953e-01 5.014299154281616211e-01 -9.761140346527099609e-01 -1.292490065097808838e-01 1.352704644203186035e+00 8.199406862258911133e-01 -4.476498365402221680e-01 1.205958843231201172e+00 2.270192652940750122e-01 4.486718773841857910e-01 -5.498288869857788086e-01 3.967154324054718018e-01 -5.831514596939086914e-01 1.265680551528930664e+00 2.234898693859577179e-02 1.609367012977600098e+00 -2.863865196704864502e-01 -2.883554995059967041e-01
1.683727204799652100e-01 2.054821491241455078e+00 6.951031684875488281e-01 1.220760345458984375e-01 -4.994596913456916809e-02 7.941313982009887695e-01 1.455534458160400391e+00 2.393013238906860352e-01 -1.596612185239791870e-01 -1.681046187877655029e-01 -4.645940363407135010e-01 -1.206262946128845215e+00 5.787602066993713379e-01 1.497946262359619141e+00 1.557847499847412109e+00 -7.542027235031127930e-01 -3.008789420127868652e-01 1.235114503651857376e-02 -1.114272356033325195e+00 2.168253362178802490e-01 -6.723265647888183594e-01 -3.715170025825500488e-01 2.376381773501634598e-03 -1.429561078548431396e-01 6.175861880183219910e-02 5.091904476284980774e-02 -3.623214960098266602e-01 1.992308944463729858e-01 2.330640107393264771e-01 -4.620924964547157288e-02 6.800539493560791016e-01 -7.456503510475158691e-01 7.535851746797561646e-02 4.441065490245819092e-01 -2.479227930307388306e-01 -1.942966133356094360e-01 -2.055589854717254639e-01 6.647611260414123535e-01 4.916271865367889404e-01 1.113835811614990234e+00 3.483617603778839111e-01 -1.320405751466751099e-01 -2.962703816592693329e-02 -3.355821371078491211e-01 -2.598331272602081299e-01 -2.391265630722045898e-01 6.657879799604415894e-02 1.197346225380897522e-01 1.194465458393096924e-01 2.944667041301727295e-01 1.270683646202087402e+00 1.021749377250671387e+00 -1.168971776962280273e+00 -2.298294156789779663e-01 -1.108305435627698898e-02 -5.272212624549865723e-01 -9.017761349678039551e-01 5.174115300178527832e-01 -1.047198623418807983e-01 1.469641327857971191e-01 1.078196406364440918e+00 -1.178939919918775558e-02 5.258761048316955566e-01 2.554835081100463867e-01 -8.735977113246917725e-02 1.304117739200592041e-01 3.389732539653778076e-01 -5.426861047744750977e-01 -5.339803099632263184e-01 3.655938506126403809e-01 1.054613232612609863e+00 -1.286492962390184402e-02 4.288382828235626221e-02 1.853744745254516602e+00 5.632610917091369629e-01 -8.377650976181030273e-01 -1.417927145957946777e-01 8.196357488632202148e-01 2.705416083335876465e-01 -1.930919438600540161e-01 -2.478853613138198853e-01 -3.186819255352020264e-01 -3.035340905189514160e-01 -1.724620610475540161e-01 -2.353717014193534851e-02 -1.057007834315299988e-01 7.600424289703369141e-01 1.827912569046020508e+00 -8.677234649658203125e-01 8.161140680313110352e-01 -3.860769569873809814e-01 -6.084788441658020020e-01 -4.185658395290374756e-01 4.308805167675018311e-01 -4.220012128353118896e-01 3.134237051010131836e+00 -1.239014267921447754e+00 -2.052432894706726074e-01 1.004766300320625305e-01 -8.007272332906723022e-02 -1.189482569694519043e+00 -4.588406085968017578e-01 7.802807688713073730e-01 -6.840415596961975098e-01 -8.340904712677001953e-01 -1.349079459905624390e-01 3.952557146549224854e-01 6.243262290954589844e-01 -8.338069915771484375e-01 -1.388699710369110107e-01 -3.044141530990600586e-01 -8.728405237197875977e-01 -2.556662559509277344e-01 1.790028251707553864e-02 4.944950938224792480e-01 2.038650810718536377e-01 7.630231976509094238e-01 -9.996549487113952637e-01 -3.203908503055572510e-01 5.296843498945236206e-02 8.806968927383422852e-01 -3.570163846015930176e-01 -3.785041868686676025e-01 -1.214311003684997559e+00 -6.210550069808959961e-01 -1.137826800346374512e+00 4.039764776825904846e-02 2.097055613994598389e-01
1.004513204097747803e-01 3.003384470939636230e-01 -2.954727709293365479e-01 2.445258945226669312e-01 4.760759472846984863e-01 1.275286730378866196e-02 1.124888509511947632e-01 2.455844357609748840e-02 -7.608304917812347412e-02 1.595248281955718994e-01 -2.219421863555908203e-01 5.978737026453018188e-02 -3.470950722694396973e-01 -2.812449932098388672e-01 -2.134535275399684906e-02 4.555054008960723877e-01 3.787921071052551270e-01 5.470008850097656250e-01 -2.487785369157791138e-01 1.910310834646224976e-01 1.000417992472648621e-01 -5.415238812565803528e-02 2.522974461317062378e-02 1.431394070386886597e-01 -1.196720451116561890e-01 1.154959946870803833e-01 3.100072741508483887e-01 -3.769236505031585693e-01 1.475423723459243774e-01 1.660351753234863281e-01 -2.287167906761169434e-01 -1.123902499675750732e-01 3.173682093620300293e-01 -8.541265130043029785e-01 6.840624660253524780e-02 7.321326732635498047e-01 -1.952907741069793701e-01 -1.039983630180358887e+00 3.322681486606597900e-01 -3.984480202198028564e-01 2.069859206676483154e-01 2.102277055382728577e-02 -3.206138610839843750e-01 3.484896719455718994e-01 4.203192591667175293e-01 -4.441075623035430908e-01 -1.645357608795166016e-01 3.260157108306884766e-01 3.796099126338958740e-01 3.032111823558807373e-01 7.421360909938812256e-02 -1.846484541893005371e-01 -2.448697239160537720e-01 -1.234566047787666321e-01 1.841435581445693970e-01 -1.869317144155502319e-01 -1.289901286363601685e-01 5.465542078018188477e-01 4.081175848841667175e-02 1.044819355010986328e-01 -5.174358487129211426e-01 1.590676605701446533e-01 -3.949423730373382568e-01 -1.682125180959701538e-01 1.094027906656265259e-01 2.526468336582183838e-01 9.053667187690734863e-01 1.548887044191360474e-01 4.944304525852203369e-01 4.034422934055328369e-01 4.908349364995956421e-02 4.553071260452270508e-01 -1.117257401347160339e-01 -1.958480291068553925e-02 1.116379350423812866e-01 -1.895748972892761230e-01 3.062885105609893799e-01 -3.954142332077026367e-01 1.801155321300029755e-02 -3.253294527530670166e-01 2.549144029617309570e-01 -4.225666224956512451e-01 4.920542836189270020e-01 7.449781298637390137e-01 1.047062575817108154e-01 4.211580753326416016e-02 -4.819529652595520020e-01 -3.199186623096466064e-01 -3.468834161758422852e-01 -1.054586246609687805e-01 -3.601593375205993652e-01 -2.036291360855102539e-01 -1.272339940071105957e+00 -5.847526192665100098e-01 -2.085241824388504028e-01 -3.064939379692077637e-01 7.703340053558349609e-02 -1.001573875546455383e-01 -1.217056661844253540e-01 6.007571145892143250e-02 -3.902208209037780762e-01 -2.800531685352325439e-01 -5.265447497367858887e-01 -9.246109984815120697e-03 -1.388337492942810059e+00 -3.707918524742126465e-01 3.866896629333496094e-01 -3.241642713546752930e-01 1.794341653585433960e-01 8.612747490406036377e-02 3.321540951728820801e-01 -1.227415353059768677e-01 -8.792815357446670532e-02 9.710471332073211670e-02 -1.596146523952484131e-01 -1.582081615924835205e-01 -9.555560350418090820e-02 -3.944576680660247803e-01 1.109125465154647827e-01 1.134710758924484253e-02 -3.319260478019714355e-01 1.612204164266586304e-01 7.607943564653396606e-02 -4.045042395591735840e-02 3.477179408073425293e-01 -9.801732301712036133e-01 -3.255816102027893066e-01 -2.856186032295227051e-01
4.131481647491455078e-01 6.553831100463867188e-01 -4.398118019104003906e+00 2.166293859481811523e+00 5.740465521812438965e-01 2.091085016727447510e-01 1.212384462356567383e+00 9.791582822799682617e-01 8.844927549362182617e-01 1.707468152046203613e+00 8.829644322395324707e-01 8.282348513603210449e-01 2.118705809116363525e-01 -7.206450104713439941e-01 3.404026329517364502e-01 7.490093261003494263e-02 -1.469756841659545898e+00 2.282164335250854492e+00 3.663229644298553467e-01 3.087518811225891113e-01 1.380327224731445312e+00 1.725164055824279785e-01 -1.619267910718917847e-01 1.218945980072021484e+00 1.347551226615905762e+00 1.347782850265502930e+00 -1.380782201886177063e-02 6.060931682586669922e-01 1.088795512914657593e-01 1.599158942699432373e-01 -1.236843410879373550e-02 1.018503665924072266e+00 1.129053950309753418e+00 1.228870391845703125e+00 2.644284486770629883e+00 -1.492302775382995605e+00 1.279563069343566895e+00 1.106821656227111816e+00 9.833738803863525391e-01 9.915571808815002441e-01 2.069444894790649414e+00 2.498094886541366577e-01 6.638596057891845703e-01 -1.354265958070755005e-01 1.462263941764831543e+00 1.213246822357177734e+00 1.569952517747879028e-01 -3.582828938961029053e-01 1.638767242431640625e+00 2.989938020706176758e+00 -5.351006388664245605e-01 -8.076606392860412598e-01 5.283345580101013184e-01 6.607396006584167480e-01 1.915715217590332031e+00 -7.794458866119384766e-01 5.964008569717407227e-01 1.714855432510375977e+00 2.639185428619384766e+00 1.110812783241271973e+00 2.064266502857208252e-01 2.409687757492065430e+00 2.752417802810668945e+00 -1.479226350784301758e+00 2.084910631179809570e+00 2.082072257995605469e+00 1.435968756675720215e+00 -8.098829984664916992e-01 2.130836486816406250e+00 1.221344351768493652e+00 1.840650290250778198e-01 -5.344394221901893616e-02 1.717664599418640137e+00 6.892669796943664551e-01 6.166579201817512512e-02 5.566041469573974609e-01 1.124424695968627930e+00 1.423648893833160400e-01 2.810086727142333984e+00 -1.148855909705162048e-01 3.663890659809112549e-01 3.111112713813781738e-01 3.435288071632385254e-01 -1.609348654747009277e+00 9.344332218170166016e-01 -1.768830657005310059e+00 6.355776190757751465e-01 -2.050097286701202393e-01 1.083627343177795410e+00 9.793651103973388672e-01 -9.212622642517089844e-01 1.239965558052062988e+00 -1.065474271774291992e+00 1.423219442367553711e+00 -9.751611948013305664e-01 5.552895069122314453e-01 -3.710522353649139404e-01 4.884459078311920166e-01 2.574527263641357422e+00 6.522471904754638672e-01 -8.706723451614379883e-01 3.035180270671844482e-01 8.188853263854980469e-01 1.093463063240051270e+00 7.311217188835144043e-01 5.876687765121459961e-01 -9.760402441024780273e-01 1.026927709579467773e+00 7.046951055526733398e-01 1.698864698410034180e+00 -4.384629726409912109e-01 8.896570801734924316e-01 -4.408969283103942871e-01 2.120274305343627930e+00 1.065579771995544434e+00 3.214518427848815918e-01 5.730112642049789429e-02 8.411810398101806641e-01 1.297077059745788574e+00 2.139947652816772461e+00 -1.259634613990783691e+00 -1.435406357049942017e-01 9.773645997047424316e-01 1.061493039131164551e+00 6.711678504943847656e-01 4.532855004072189331e-02 -6.364768743515014648e-01 1.019376993179321289e+00
2.532774209976196289e-01 3.072004020214080811e-01 1.096870064735412598e+00 7.190098613500595093e-02 3.056674003601074219e-01 1.288371086120605469e+00 -2.293769121170043945e-01 -2.931454777717590332e-01 -1.011968612670898438e+00 -4.295194447040557861e-01 2.421693325042724609e+00 2.329319417476654053e-01 6.340709924697875977e-01 -7.614332437515258789e-01 -1.872429847717285156e-01 5.448158979415893555e-01 1.629001855850219727e+00 1.911685615777969360e-01 1.223211064934730530e-01 4.458160102367401123e-01 8.976475894451141357e-02 -7.847049236297607422e-01 -5.580992698669433594e-01 -2.687689065933227539e-01 -2.412644624710083008e-01 5.963302254676818848e-01 -2.325748652219772339e-02 1.285563260316848755e-01 -1.346830874681472778e-01 2.584018409252166748e-01 1.011637155897915363e-03 2.283399254083633423e-01 -1.724994629621505737e-01 -2.190343737602233887e-01 8.516138046979904175e-02 1.051535606384277344e+00 -2.779881060123443604e-01 -1.606618285179138184e+00 1.733522415161132812e-01 -9.109824299812316895e-01 -3.269276618957519531e-01 -4.271165728569030762e-01 -2.776962518692016602e-01 -2.698523998260498047e-01 4.199717640876770020e-01 7.985990047454833984e-01 -4.345970451831817627e-01 -1.665511429309844971e-01 1.109831631183624268e-01 4.754590094089508057e-01 -1.197766140103340149e-01 3.538273870944976807e-01 2.234224975109100342e-01 9.578747267369180918e-05 5.689312815666198730e-01 1.461908817291259766e+00 2.001263350248336792e-01 -2.829287759959697723e-02 -7.021333277225494385e-02 -1.064951419830322266e-01 -4.479212462902069092e-01 -1.088133081793785095e-01 1.642148852348327637e+00 -4.955221712589263916e-02 2.025422900915145874e-01 3.941195309162139893e-01 4.320320188999176025e-01 4.776603877544403076e-01 1.465424597263336182e-01 1.411338448524475098e-01 -6.361761596053838730e-03 -7.695560157299041748e-02 8.966939523816108704e-03 1.924324333667755127e-01 -3.233190774917602539e-01 -3.414016962051391602e-01 -1.434604674577713013e-01 -2.449338436126708984e-01 2.006001472473144531e+00 1.428126573562622070e+00 -4.584469795227050781e-01 -5.036514401435852051e-01 4.037113189697265625e-01 4.069630205631256104e-01 -2.707628607749938965e-01 5.403079390525817871e-01 -5.689790844917297363e-01 4.515444040298461914e-01 1.504195094108581543e+00 -5.665448307991027832e-01 -5.070468187332153320e-01 -2.868659496307373047e-01 4.297938644886016846e-01 1.014367103576660156e+00 6.749276518821716309e-01 9.316816926002502441e-02 9.310858249664306641e-01 -2.758740782737731934e-01 -5.008908454328775406e-03 -1.433670818805694580e-01 7.809603214263916016e-01 -2.221463024616241455e-01 5.332879424095153809e-01 1.183576345443725586e+00 -7.674270272254943848e-01 -1.084747388958930969e-01 2.233057618141174316e-01 -5.080218315124511719e-01 -4.022023379802703857e-01 1.556796133518218994e-01 3.743529319763183594e-01 2.507488012313842773e+00 -6.155948638916015625e-01 -1.283901035785675049e-01 2.067276388406753540e-01 -1.479694247245788574e-01 7.661785930395126343e-02 -6.034866571426391602e-01 1.712998896837234497e-01 -3.861406445503234863e-01 -7.525948286056518555e-01 -3.712837994098663330e-01 -6.995784044265747070e-01 5.868090689182281494e-02 -3.528254851698875427e-02 -2.093175351619720459e-01 1.536220312118530273e-01 -2.103600949048995972e-01
-1.962835639715194702e-01 1.017491102218627930e+00 4.161341190338134766e-01 3.672830462455749512e-01 4.954417645931243896e-01 -1.849356889724731445e-01 -3.389679491519927979e-01 5.054783821105957031e-01 -1.678515970706939697e-01 -1.834886223077774048e-01 -1.981742829084396362e-01 -9.494046568870544434e-01 1.562320161610841751e-02 3.553208708763122559e-01 4.687093496322631836e-01 -5.300774574279785156e-01 5.586805939674377441e-01 3.083431422710418701e-01 1.047545313835144043e+00 2.326044440269470215e-01 3.052282929420471191e-01 -1.433005571365356445e+00 -1.110081151127815247e-01 -2.433572858572006226e-01 4.424223601818084717e-01 9.077785015106201172e-01 3.565210700035095215e-01 1.458225548267364502e-01 -3.872946798801422119e-01 3.295643031597137451e-01 -7.557141184806823730e-01 5.519697070121765137e-02 8.618650436401367188e-01 1.123989820480346680e-01 3.875243365764617920e-01 2.661082893610000610e-02 -2.717132866382598877e-01 6.508094668388366699e-01 8.631812930107116699e-01 7.349467873573303223e-01 -1.195427179336547852e-01 1.183228611946105957e+00 -3.625171482563018799e-01 -1.912138611078262329e-01 -1.734432578086853027e-01 1.419989317655563354e-01 -3.214741945266723633e-01 4.297886490821838379e-01 3.361617326736450195e-01 5.568351149559020996e-01 6.387768983840942383e-01 3.892482221126556396e-01 6.691653132438659668e-01 5.480033755302429199e-01 6.995521485805511475e-02 -6.893244981765747070e-01 -3.236413747072219849e-02 9.790444374084472656e-02 7.005581259727478027e-01 1.101964637637138367e-01 3.501153886318206787e-01 3.775656819343566895e-01 8.732252120971679688e-01 4.442139863967895508e-01 -4.468327164649963379e-01 4.992900490760803223e-01 3.926045596599578857e-01 8.213617205619812012e-01 2.259302884340286255e-01 5.164819955825805664e-01 1.551405936479568481e-01 -3.575981259346008301e-01 -8.389155268669128418e-01 6.167226433753967285e-01 -2.585411667823791504e-01 6.930935382843017578e-02 3.471640050411224365e-01 -4.551590085029602051e-01 -1.376255005598068237e-01 4.125257432460784912e-01 5.183506757020950317e-02 2.041367739439010620e-01 -8.405078202486038208e-02 1.730522215366363525e-01 2.677392363548278809e-01 2.589404881000518799e-01 -3.143488764762878418e-01 9.220861196517944336e-01 -1.006370931863784790e-01 1.939795017242431641e-01 1.153567314147949219e+00 3.337092325091362000e-02 -1.031036898493766785e-01 3.779909610748291016e-01 -1.368175595998764038e-01 6.207491755485534668e-01 -4.459958374500274658e-01 4.812405407428741455e-01 2.679124176502227783e-01 7.211122512817382812e-01 -4.469881057739257812e-01 -2.416904643177986145e-02 2.359128892421722412e-01 -2.770752087235450745e-02 -5.399353057146072388e-02 1.874238103628158569e-01 2.613035738468170166e-01 -5.539497733116149902e-01 -1.824458241462707520e-01 8.382381796836853027e-01 -3.738454580307006836e-01 -6.113482117652893066e-01 1.403844542801380157e-02 2.632113695144653320e-01 2.975741922855377197e-01 -3.143776059150695801e-01 8.088182806968688965e-01 6.818979978561401367e-02 1.029069274663925171e-01 1.020447835326194763e-01 4.587331116199493408e-01 2.692185640335083008e-01 8.984472155570983887e-01 -4.017686545848846436e-01 -1.580845117568969727e-01 -2.443292737007141113e-01 -2.327841371297836304e-01 1.272258609533309937e-01
-4.356189966201782227e-01 -1.501827120780944824e+00 -6.147018671035766602e-01 -1.346192657947540283e-01 5.330321788787841797e-01 5.759923905134201050e-02 -9.706850647926330566e-01 3.265697159804403782e-04 -1.102159500122070312e+00 2.726612389087677002e-01 -1.830998212099075317e-01 -3.081357479095458984e-01 -3.929829001426696777e-01 -1.039800524711608887e+00 -5.241346955299377441e-01 -3.805712759494781494e-01 -4.770294427871704102e-01 9.246649593114852905e-02 -7.053390741348266602e-01 -9.619633108377456665e-02 1.286548674106597900e-01 5.935373306274414062e-01 -1.053521752357482910e+00 2.924770116806030273e-02 -4.107460081577301025e-01 -6.609230637550354004e-01 -8.434631824493408203e-01 -7.496405839920043945e-01 -1.204396009445190430e+00 6.571047753095626831e-02 1.112758755683898926e+00 -3.206311166286468506e-01 -3.889689445495605469e-01 -9.696690440177917480e-01 -3.208858668804168701e-01 -5.294106602668762207e-01 -6.175413727760314941e-01 -1.067051410675048828e+00 -5.089656710624694824e-01 -3.617807030677795410e-01 -2.016191333532333374e-01 -5.743016004562377930e-01 -7.692996859550476074e-01 -2.025992870330810547e-01 -8.958544582128524780e-02 -2.493942528963088989e-01 -6.526542454957962036e-02 -4.631015062332153320e-01 -3.381702601909637451e-01 -2.068000435829162598e-01 -3.729368150234222412e-01 -1.194188475608825684e+00 -2.102894634008407593e-01 -7.994660139083862305e-01 -3.666723668575286865e-01 -2.402401715517044067e-01 1.867717653512954712e-01 -4.596953094005584717e-01 -7.429973483085632324e-01 -2.764652669429779053e-01 -1.240669012069702148e+00 9.222748130559921265e-02 -9.060305953025817871e-01 -3.692416846752166748e-01 -7.867156863212585449e-01 -2.330725491046905518e-01 -3.160118460655212402e-01 -1.676440358161926270e+00 5.709610879421234131e-02 -2.108732461929321289e-01 1.220848038792610168e-01 3.978317081928253174e-01 -1.010485649108886719e+00 -3.820059895515441895e-01 9.116789698600769043e-01 -5.423848628997802734e-01 -1.242329835891723633e+00 -4.409659206867218018e-01 -1.693569123744964600e-01 -2.488052397966384888e-01 2.054940015077590942e-01 1.182387676090002060e-02 2.492046952247619629e-01 -2.456373721361160278e-01 -1.766166090965270996e-01 -5.958423763513565063e-02 -1.002400740981101990e-01 -6.690121889114379883e-01 -3.749433457851409912e-01 -1.024582982063293457e+00 -9.003517031669616699e-01 -2.341302931308746338e-01 2.042245566844940186e-01 -8.708534836769104004e-01 -3.831733018159866333e-02 -1.398378372192382812e+00 5.235947966575622559e-01 -1.227039620280265808e-01 -2.039132565259933472e-01 -1.084711194038391113e+00 6.925925016403198242e-01 -8.593709468841552734e-01 -1.308073043823242188e+00 7.567439973354339600e-02 -3.330106288194656372e-02 9.849216789007186890e-02 -3.813104033470153809e-01 -9.369680285453796387e-01 -6.594985257834196091e-03 -1.013729214668273926e+00 -3.727789819240570068e-01 5.163326859474182129e-01 -5.411559343338012695e-01 -5.078418925404548645e-02 -8.753814697265625000e-01 -5.645636096596717834e-02 -4.644837379455566406e-01 -2.149792462587356567e-01 -1.374801844358444214e-01 -5.931041836738586426e-01 -7.652831673622131348e-01 -4.659673273563385010e-01 -1.154265284538269043e+00 1.927614510059356689e-01 8.691326975822448730e-01 -2.090015411376953125e-01 -7.211633324623107910e-01 -1.585706770420074463e-01
-1.264945745468139648e+00 3.052148818969726562e-01 3.223926573991775513e-02 -1.162009835243225098e+00 7.192217111587524414e-01 7.701103389263153076e-02 9.998205304145812988e-02 -1.313573241233825684e+00 -9.849780201911926270e-01 -1.498184323310852051e+00 4.742677509784698486e-01 -7.772502899169921875e-01 -1.723063588142395020e-01 1.601538300514221191e+00 8.205536603927612305e-01 -9.967043399810791016e-01 -5.037934985011816025e-03 -3.280286677181720734e-03 -1.362897872924804688e+00 2.562175095081329346e-01 -2.273636013269424438e-01 5.592473149299621582e-01 -7.900157570838928223e-01 -1.646869033575057983e-01 -5.187264457345008850e-02 8.245556056499481201e-02 4.872470498085021973e-01 -1.917207598686218262e+00 7.576544284820556641e-01 -4.255612492561340332e-01 4.134330525994300842e-02 -9.274560213088989258e-01 -8.543388247489929199e-01 -5.791819095611572266e-01 -4.424080252647399902e-01 -5.169020295143127441e-01 3.221817910671234131e-01 2.330854535102844238e-01 -1.897504925727844238e-02 5.113385319709777832e-01 7.714499235153198242e-01 7.251873016357421875e-01 6.135005131363868713e-02 -1.071682453155517578e+00 -3.126049339771270752e-01 2.662311680614948273e-02 1.364633679389953613e+00 -4.831057786941528320e-01 3.873717784881591797e-02 -3.376606106758117676e-01 3.706238567829132080e-01 -1.382961869239807129e+00 -6.021201014518737793e-01 -3.043233156204223633e-01 1.402214318513870239e-01 -7.075772881507873535e-01 -5.351521372795104980e-01 2.336535006761550903e-01 -1.147629916667938232e-01 6.839354634284973145e-01 -8.122722506523132324e-01 -6.295759975910186768e-02 7.212150692939758301e-01 -7.581812739372253418e-01 1.198981925845146179e-01 1.063606292009353638e-01 -8.524284511804580688e-02 -5.999842286109924316e-01 4.048061370849609375e-01 -5.707927346229553223e-01 4.875150043517351151e-03 -5.513498783111572266e-01 3.160307407379150391e-01 5.015258789062500000e-01 -3.513285219669342041e-01 5.262129902839660645e-01 -9.213007986545562744e-02 -1.544520556926727295e-01 -2.187057018280029297e+00 -8.547174334526062012e-01 9.484387189149856567e-02 -1.744132675230503082e-02 -5.030848979949951172e-01 -5.836085677146911621e-01 -6.028866767883300781e-02 2.685167267918586731e-02 -5.780473724007606506e-02 -2.661832571029663086e-01 -1.230792284011840820e+00 -1.798249363899230957e+00 -4.715633094310760498e-01 1.096345782279968262e+00 2.451104111969470978e-02 -3.905101716518402100e-01 -7.419904470443725586e-01 -3.485056161880493164e-01 -1.656810164451599121e+00 -9.313328862190246582e-01 -7.697213888168334961e-01 -1.635713279247283936e-01 -1.042000651359558105e+00 7.491431385278701782e-02 1.093019366264343262e+00 -2.041440725326538086e+00 1.864361464977264404e-01 -7.445418834686279297e-01 -2.225502014160156250e+00 -2.454484403133392334e-01 2.784629166126251221e-01 1.079398691654205322e-01 -2.450894862413406372e-01 -3.377192020416259766e-01 1.884413808584213257e-01 -8.834146857261657715e-01 -3.188337087631225586e-01 -2.556217014789581299e-01 -2.164594411849975586e+00 1.016194596886634827e-01 6.747606396675109863e-01 -1.013727307319641113e+00 4.622801244258880615e-01 -2.674555778503417969e-01 1.080765247344970703e+00 -8.974868655204772949e-01 -4.633335173130035400e-01 -2.400036454200744629e-01 9.539514780044555664e-01 -1.516315490007400513e-01
1.941637396812438965e+00 -5.965887308120727539e-01 -1.425800204277038574e+00 7.325507402420043945e-01 -6.253110766410827637e-01 -1.109127521514892578e+00 -1.312970519065856934e-01 7.138676047325134277e-01 2.145141810178756714e-01 1.281211018562316895e+00 -1.920874863862991333e-01 4.581798315048217773e-01 1.501310616731643677e-01 -3.415423631668090820e+00 -3.121302425861358643e-01 6.335176229476928711e-01 2.095098346471786499e-01 -4.933445751667022705e-01 -3.241005539894104004e-02 1.355097591876983643e-01 4.393888637423515320e-02 -1.146940067410469055e-01 1.327422857284545898e+00 -1.742003560066223145e-01 -3.658231794834136963e-01 8.789202570915222168e-02 -1.214969396591186523e+00 1.012071594595909119e-01 -2.437083721160888672e+00 1.608345061540603638e-01 -8.438462018966674805e-01 4.948954284191131592e-01 -2.852102816104888916e-01 1.112010717391967773e+00 -6.015828251838684082e-01 -4.007491171360015869e-01 3.813344538211822510e-01 -3.759618997573852539e-01 1.148334816098213196e-01 2.639167308807373047e-01 -2.316751241683959961e+00 -6.277184486389160156e-01 -4.102580845355987549e-01 -2.087907344102859497e-01 5.394170880317687988e-01 -9.888569712638854980e-01 2.480608224868774414e-01 9.597498774528503418e-01 -6.300006508827209473e-01 4.933545589447021484e-01 -4.437993168830871582e-01 -4.771056175231933594e-01 -5.474800243973731995e-02 5.108091235160827637e-01 -4.520584940910339355e-01 -7.104243040084838867e-01 9.823195338249206543e-01 -3.827636241912841797e-01 -5.114089250564575195e-01 -4.872228577733039856e-02 8.071949481964111328e-01 -2.557314932346343994e-01 -1.494026064872741699e+00 5.602519959211349487e-02 -1.277639031410217285e+00 2.197329998016357422e-01 3.889315426349639893e-01 -1.292820870876312256e-01 1.042772643268108368e-02 4.288321137428283691e-01 -8.169631659984588623e-02 3.123825490474700928e-01 -7.582994699478149414e-01 -1.528118968009948730e+00 2.036124467849731445e-01 3.415940403938293457e-01 1.007705181837081909e-01 -3.941380381584167480e-01 -7.222730517387390137e-01 -1.040906906127929688e+00 2.454790621995925903e-01 2.482963651418685913e-01 3.522384464740753174e-01 5.494952797889709473e-01 2.939168810844421387e-01 9.468161500990390778e-03 -6.599827408790588379e-01 -8.295500278472900391e-02 -5.593197345733642578e-01 2.218752861022949219e+00 -5.200796723365783691e-01 -1.486145019531250000e+00 1.271664947271347046e-01 -1.748986840248107910e-01 -7.594139575958251953e-01 -4.961347579956054688e-01 1.267342418432235718e-01 -1.013906478881835938e+00 -3.892028331756591797e-01 3.642071783542633057e-01 -1.238697841763496399e-01 9.365468472242355347e-02 -2.441601037979125977e+00 -4.326257705688476562e-01 6.493303179740905762e-01 4.215149581432342529e-01 -4.333468079566955566e-01 -1.365356683731079102e+00 -1.652412295341491699e+00 1.570664197206497192e-01 1.134707778692245483e-02 -8.757793903350830078e-01 1.719699800014495850e-01 -1.109326243400573730e+00 -9.073007851839065552e-02 7.423885166645050049e-02 1.409489512443542480e+00 -8.305249363183975220e-02 -1.562523841857910156e-01 -7.095459699630737305e-01 -1.048317432403564453e+00 1.220978721976280212e-01 -1.687470674514770508e+00 1.648856043815612793e+00 3.100989460945129395e-01 3.476889431476593018e-01 -9.912003278732299805e-01 1.514046788215637207e-01
-6.495784521102905273e-01 1.485373377799987793e-01 -2.155181914567947388e-01 -8.298327326774597168e-01 -6.923766136169433594e-01 8.968132138252258301e-01 -1.653836965560913086e-01 -4.393536746501922607e-01 7.626775503158569336e-01 1.586871147155761719e+00 2.942818105220794678e-01 -4.514549672603607178e-01 4.332793131470680237e-02 -2.117860078811645508e+00 4.398048669099807739e-02 -1.252614736557006836e+00 7.994018495082855225e-02 -5.904195904731750488e-01 5.134529247879981995e-02 -4.415967762470245361e-01 -3.683103621006011963e-01 -1.634390830993652344e+00 -9.385528415441513062e-02 5.747287869453430176e-01 7.872388958930969238e-01 -5.506224930286407471e-02 -4.933970272541046143e-01 1.644547581672668457e+00 -1.801626682281494141e+00 1.809791475534439087e-01 -6.811828613281250000e-01 -6.370758414268493652e-01 6.406842917203903198e-02 5.785884857177734375e-01 -9.100806117057800293e-01 -4.258628487586975098e-01 1.581362783908843994e-01 -2.049923688173294067e-01 -2.160764038562774658e-01 1.172576189041137695e+00 -1.500173807144165039e+00 8.357384800910949707e-02 4.061803221702575684e-01 -1.598854064941406250e+00 1.138877630233764648e+00 7.445954680442810059e-01 -3.594022691249847412e-01 1.060825884342193604e-01 2.705401182174682617e-01 3.799827992916107178e-01 1.084486246109008789e+00 -1.478627204895019531e+00 -5.646165609359741211e-01 -3.309435248374938965e-01 -1.456493020057678223e+00 -1.957983136177062988e+00 2.246916145086288452e-01 -4.206659793853759766e-01 2.990461289882659912e-01 -2.492395043373107910e-01 6.770850419998168945e-01 -6.613330841064453125e-01 -8.778913617134094238e-01 -8.688362836837768555e-01 -6.335570216178894043e-01 7.059171795845031738e-01 1.220194101333618164e-01 5.090373158454895020e-01 -4.353927671909332275e-01 -2.259213477373123169e-01 -2.823633253574371338e-01 -1.355160921812057495e-01 -8.224869966506958008e-01 1.013543844223022461e+00 -2.922006547451019287e-01 7.438808679580688477e-01 2.179078571498394012e-02 -6.339056491851806641e-01 2.622585296630859375e+00 -1.955372214317321777e+00 -2.959685921669006348e-01 4.808266460895538330e-01 7.009159773588180542e-02 -7.917559891939163208e-02 1.052097380161285400e-01 -1.400595903396606445e-01 -3.640269935131072998e-01 -1.040823340415954590e+00 2.136068344116210938e+00 -5.714520812034606934e-01 1.838500618934631348e+00 -1.722255349159240723e+00 5.069233775138854980e-01 1.383564919233322144e-01 -6.712074279785156250e-01 -7.360545396804809570e-01 -1.207504391670227051e+00 -1.024780988693237305e+00 -3.843754827976226807e-01 -7.703806459903717041e-02 -1.181888699531555176e+00 -5.864524841308593750e-01 -1.835981607437133789e+00 -8.180519342422485352e-01 8.332816362380981445e-01 -4.921123385429382324e-01 -3.013078927993774414e+00 -9.059308767318725586e-01 -1.167320728302001953e+00 3.796708881855010986e-01 1.671118438243865967e-01 -1.739869952201843262e+00 8.558119833469390869e-02 1.691136509180068970e-01 -8.487841486930847168e-01 -2.989633083343505859e-01 -1.022127270698547363e+00 -1.174002051353454590e+00 -7.444979548454284668e-01 9.739421010017395020e-01 -3.665482103824615479e-01 -2.848430871963500977e-01 -1.335805296897888184e+00 3.523278236389160156e-02 1.596231162548065186e-01 -3.068881034851074219e-01 -4.419035017490386963e-01 2.469359487295150757e-01
6.330000758171081543e-01 5.346742272377014160e-01 5.656762123107910156e-01 -6.309320330619812012e-01 -1.330971837043762207e+00 -2.469922304153442383e-01 5.969006419181823730e-01 -1.048053979873657227e+00 -8.261654973030090332e-01 -9.949683547019958496e-01 1.407479494810104370e-01 -3.180361390113830566e-01 -1.831383407115936279e-01 4.665063917636871338e-01 2.217734754085540771e-01 -4.307673275470733643e-01 1.259201169013977051e-01 -4.533078670501708984e-01 -2.937467694282531738e-01 -1.030096709728240967e-01 -1.827071309089660645e-01 -9.924253225326538086e-01 1.525501906871795654e-01 5.098097324371337891e-01 -6.493722796440124512e-01 6.140467524528503418e-01 -8.184914588928222656e-01 -8.195101469755172729e-02 -1.914920806884765625e+00 -2.153210341930389404e-01 -5.049921274185180664e-01 -5.963429212570190430e-01 -4.884402751922607422e-01 3.218977153301239014e-01 -1.245244503021240234e+00 -8.385859131813049316e-01 1.384933888912200928e-01 -8.496218919754028320e-02 -1.037672638893127441e+00 1.027380347251892090e+00 3.614304065704345703e-01 4.558338224887847900e-01 -2.886402308940887451e-01 -2.037011861801147461e+00 -3.688878417015075684e-01 -5.651313439011573792e-02 1.003388091921806335e-01 2.908657193183898926e-01 5.281914025545120239e-02 4.386793673038482666e-01 6.940133571624755859e-01 -9.968729615211486816e-01 1.083816289901733398e+00 3.515589237213134766e-02 -1.598103642463684082e+00 -6.918811798095703125e-01 2.961860597133636475e-02 -1.379084736108779907e-01 -1.705288700759410858e-02 8.801148831844329834e-02 -5.436293482780456543e-01 -5.904099941253662109e-01 -1.094085648655891418e-01 -3.995147347450256348e-01 -2.115320563316345215e-01 6.440713405609130859e-01 2.676816880702972412e-01 -2.148446589708328247e-01 -2.478542327880859375e-01 1.345941871404647827e-01 1.165641695261001587e-01 -4.314750730991363525e-01 2.283655256032943726e-01 8.168715834617614746e-01 -8.575208783149719238e-01 6.139720082283020020e-01 -1.575463712215423584e-01 -5.905298590660095215e-01 -1.263200879096984863e+00 -1.906461596488952637e+00 -4.979303851723670959e-02 3.073967695236206055e-01 5.989999696612358093e-02 4.309723675251007080e-01 -6.944032013416290283e-02 2.903783135116100311e-02 -6.840429455041885376e-02 -7.131602764129638672e-01 2.180761992931365967e-01 -2.161032110452651978e-01 -9.118007495999336243e-03 1.292887687683105469e+00 -5.169672891497612000e-02 9.229639917612075806e-02 -5.069891810417175293e-01 4.657238721847534180e-01 -1.953817367553710938e+00 -5.813089609146118164e-01 -6.073851585388183594e-01 7.416023313999176025e-02 -1.143032073974609375e+00 -7.416280508041381836e-01 -1.136577844619750977e+00 -1.006420612335205078e+00 -3.970180638134479523e-03 -6.649422049522399902e-01 -1.567389130592346191e+00 -1.224145531654357910e+00 -6.372038125991821289e-01 9.970245510339736938e-02 1.706142276525497437e-01 -7.234983444213867188e-01 1.100782677531242371e-01 -1.935546696186065674e-01 -4.296227693557739258e-01 -7.721701264381408691e-01 2.116413414478302002e-01 -8.263359069824218750e-01 1.841306686401367188e-02 -2.334557622671127319e-01 1.844374537467956543e-01 -3.898345828056335449e-01 1.333864927291870117e-01 -5.595640540122985840e-01 -5.835296511650085449e-01 -3.117134869098663330e-01 6.926295757293701172e-01 2.225808799266815186e-01
-3.485914468765258789e-01 -8.217945694923400879e-02 -2.495778083801269531e+00 5.499694943428039551e-01 2.344222515821456909e-01 -7.751905918121337891e-01 -3.603754565119743347e-03 2.043534666299819946e-01 -9.955218434333801270e-01 -1.411390066146850586e+00 -5.026392340660095215e-01 1.339216381311416626e-01 1.528959423303604126e-01 -9.184861183166503906e-02 -6.684343516826629639e-02 1.208281889557838440e-01 7.292079180479049683e-02 2.478877604007720947e-01 -9.464099407196044922e-01 3.344767391681671143e-01 -4.559954106807708740e-01 2.496619224548339844e+00 -1.031644701957702637e+00 -5.205664038658142090e-01 -2.422867268323898315e-01 -2.333450689911842346e-02 -7.562917470932006836e-02 -2.270961284637451172e+00 1.635578751564025879e+00 -2.428145408630371094e-01 3.753650486469268799e-01 3.934901058673858643e-01 5.581577494740486145e-02 -1.111620545387268066e+00 1.915211826562881470e-01 -3.952426910400390625e-01 6.546012312173843384e-02 3.621180653572082520e-01 4.666018187999725342e-01 -5.832789540290832520e-01 1.688711524009704590e+00 -7.037191987037658691e-01 -5.646855235099792480e-01 1.713562369346618652e+00 -7.080940604209899902e-01 -7.052164077758789062e-01 1.749293059110641479e-01 5.810313671827316284e-02 -5.479658246040344238e-01 1.592562496662139893e-01 -1.185078263282775879e+00 4.100522100925445557e-01 -2.833942174911499023e-01 -1.293159425258636475e-01 1.738045930862426758e+00 3.199971020221710205e-01 1.878005266189575195e-01 -6.131412088871002197e-02 -7.642098665237426758e-01 5.276203155517578125e-01 4.244976937770843506e-01 3.975568115711212158e-01 -1.356878876686096191e+00 4.634597599506378174e-01 -1.409537345170974731e-01 -3.443565368652343750e-01 -3.073443472385406494e-01 -8.739420771598815918e-01 6.289976835250854492e-01 5.019475892186164856e-02 -5.105253458023071289e-01 -1.672755181789398193e-01 -6.174561008810997009e-02 -1.526683926582336426e+00 -1.068530082702636719e+00 -7.596093229949474335e-03 -2.720801532268524170e-01 -4.055488109588623047e-02 -2.168484449386596680e+00 2.221416383981704712e-01 4.095579683780670166e-01 5.663603916764259338e-02 -1.821773052215576172e-01 -3.128840923309326172e-01 6.172715425491333008e-01 -2.005806714296340942e-01 -1.027326211333274841e-01 2.357807904481887817e-01 -2.076287746429443359e+00 3.639353513717651367e-01 -1.455862522125244141e+00 1.269786000251770020e+00 -9.592410326004028320e-01 -9.572568535804748535e-02 -7.766166329383850098e-01 -5.074332356452941895e-01 4.862643182277679443e-01 -7.244617491960525513e-02 3.117376863956451416e-01 4.191819578409194946e-02 -1.209484785795211792e-01 8.061491250991821289e-01 2.115687429904937744e-01 -4.379433989524841309e-01 -7.193765044212341309e-01 1.028695330023765564e-02 3.335662841796875000e+00 -2.408643811941146851e-01 8.339343070983886719e-01 -8.664374053478240967e-02 -2.141340821981430054e-02 1.136178493499755859e+00 -2.442539632320404053e-01 -2.138131856918334961e+00 5.964882373809814453e-01 -2.355226278305053711e-01 1.252674937248229980e+00 1.228085517883300781e+00 6.202336549758911133e-01 -8.233648538589477539e-01 -4.036965966224670410e-01 3.356916084885597229e-02 6.804832220077514648e-01 3.931555151939392090e-01 -1.738523542881011963e-01 5.387083888053894043e-01 4.742674827575683594e-01 5.014198832213878632e-03
-1.467645764350891113e+00 -2.100653201341629028e-01 -2.791727542877197266e+00 -6.661741137504577637e-01 3.752731159329414368e-02 -1.001868993043899536e-01 -3.331536352634429932e-01 2.590167820453643799e-01 -1.315068840980529785e+00 1.310738086700439453e+00 6.915498524904251099e-04 -1.113449111580848694e-01 -4.346329569816589355e-01 -1.035677552223205566e+00 2.759796380996704102e-01 -1.161124348640441895e+00 -1.378900557756423950e-01 3.104749321937561035e-01 -1.049187660217285156e+00 -1.207956578582525253e-02 -5.336630344390869141e-01 7.247902750968933105e-01 -8.787577152252197266e-01 3.451265394687652588e-01 9.729843735694885254e-01 7.777643203735351562e-02 -1.943010985851287842e-01 -8.475359678268432617e-01 1.665161848068237305e+00 -6.774030923843383789e-01 2.575614117085933685e-02 -4.470423460006713867e-01 9.294620156288146973e-02 -9.750732779502868652e-01 5.228908658027648926e-01 -2.994283735752105713e-01 -3.664522990584373474e-02 1.025468930602073669e-01 -3.516179025173187256e-01 -1.060839090496301651e-02 8.854675292968750000e-01 -1.232162475585937500e+00 -7.243168354034423828e-01 5.022276639938354492e-01 1.210517406463623047e+00 -9.899539947509765625e-01 -6.642681956291198730e-01 -1.742731779813766479e-01 -3.007807433605194092e-01 4.557568430900573730e-01 -9.205813407897949219e-01 -7.390122860670089722e-02 -1.080135941505432129e+00 -1.457210183143615723e-01 2.605098485946655273e-02 -1.397018581628799438e-01 -8.820972442626953125e-01 -2.086821049451828003e-01 -5.190417170524597168e-01 -1.124741882085800171e-02 9.036220312118530273e-01 3.347561508417129517e-02 -1.946708440780639648e+00 -4.905343949794769287e-01 1.736339926719665527e-01 2.374672740697860718e-01 1.024169176816940308e-01 -5.488770827651023865e-02 6.762454509735107422e-01 -3.896786570549011230e-01 -2.464972436428070068e-01 3.147066831588745117e-01 -2.044681161642074585e-01 -1.186093211174011230e+00 -8.707768917083740234e-01 3.695451319217681885e-01 -1.617685258388519287e-01 -1.969268023967742920e-01 7.027637958526611328e-01 -1.225185036659240723e+00 7.391042113304138184e-01 2.008678317070007324e-01 -4.805782139301300049e-01 -5.611968636512756348e-01 5.183948874473571777e-01 -6.356540322303771973e-01 4.630929604172706604e-02 -3.315868675708770752e-01 -5.754877328872680664e-01 -4.968838095664978027e-01 2.370846271514892578e-01 -3.486148416996002197e-01 -3.604520857334136963e-01 -4.303826093673706055e-01 -6.540425419807434082e-01 -3.562720715999603271e-01 9.021227806806564331e-02 -9.345139265060424805e-01 -1.682686209678649902e-01 -1.962095052003860474e-01 -3.675837814807891846e-01 7.743086814880371094e-01 -4.856800436973571777e-01 -1.466977596282958984e+00 -7.976932078599929810e-02 -5.779272317886352539e-01 1.286338329315185547e+00 -1.897947490215301514e-01 8.756150603294372559e-01 -1.273550033569335938e+00 -3.411556184291839600e-01 -1.698867976665496826e-01 3.559454530477523804e-02 -1.906877756118774414e+00 5.927035212516784668e-01 -5.196281671524047852e-01 3.290350735187530518e-01 -6.943634897470474243e-02 3.957702592015266418e-02 -5.063706636428833008e-01 -1.573682546615600586e+00 -9.313235431909561157e-02 2.757867276668548584e-01 -3.246395289897918701e-01 -6.002026796340942383e-01 -3.043342828750610352e-01 -4.628925621509552002e-01 6.055873632431030273e-01
