-1.637676209211349487e-01
-1.665937602519989014e-01
-1.679965704679489136e-01
3.344608247280120850e-01
-4.896490368992090225e-03
-2.212612777948379517e-01
-1.069823056459426880e-01
-2.855176329612731934e-01
-3.185384571552276611e-01
-2.945896685123443604e-01
-1.801618337631225586e-01
3.705547749996185303e-02
-1.215846538543701172e-01
-1.660370975732803345e-01
-2.463100403547286987e-01
-3.499382436275482178e-01
-2.700439691543579102e-01
-2.439217567443847656e-01
-3.688600361347198486e-01
-2.539731264114379883e-01
-1.395578980445861816e-01
-4.577050507068634033e-01
-6.602185964584350586e-02
-1.498963534832000732e-01
-3.083732128143310547e-01
9.537277370691299438e-02
-7.736650109291076660e-02
-2.932818233966827393e-01
3.601787984371185303e-01
2.925142645835876465e-01
-5.466606467962265015e-02
-3.427423536777496338e-01
-5.027101561427116394e-02
-6.423569470643997192e-02
-2.853714227676391602e-01
-1.065669283270835876e-01
-9.955660253763198853e-02
-2.826986908912658691e-01
-1.166461706161499023e-01
-3.003867268562316895e-01
-1.291484832763671875e-01
-1.979321837425231934e-01
2.270385622978210449e-01
-2.882151603698730469e-01
-3.239189088344573975e-01
-4.059723913669586182e-01
-3.390645384788513184e-01
-4.136404395103454590e-01
-4.908246919512748718e-03
-7.751639932394027710e-02
-1.727377623319625854e-01
4.733708128333091736e-02
1.105015352368354797e-01
2.855254709720611572e-01
-4.316953718662261963e-01
1.724053919315338135e-01
-2.012912929058074951e-01
-3.959038853645324707e-01
-1.588587760925292969e-01
7.159619778394699097e-02
8.824463933706283569e-02
-3.059231340885162354e-01
-1.528470963239669800e-01
-5.699327960610389709e-02
8.651348203420639038e-02
1.003643125295639038e-01
1.337497234344482422e-01
-2.431097477674484253e-01
-3.388505578041076660e-01
-2.361607998609542847e-01
6.163707002997398376e-02
1.328859776258468628e-01
-1.604095250368118286e-01
7.764043658971786499e-02
-2.976550161838531494e-01
3.372164666652679443e-01
-2.891335189342498779e-01
5.018009617924690247e-02
1.221972182393074036e-01
7.965318113565444946e-02
-1.785028725862503052e-01
-1.224846839904785156e-01
-4.166820943355560303e-01
-3.677447438240051270e-01
-3.316966891288757324e-01
9.569942951202392578e-03
4.784248769283294678e-02
5.664116144180297852e-02
-4.164244830608367920e-01
1.488294452428817749e-01
-3.141854107379913330e-01
-3.114723786711692810e-02
2.974630296230316162e-01
-2.604376673698425293e-01
1.767232269048690796e-01
3.073506988584995270e-02
-4.812250658869743347e-02
-3.099638223648071289e-01
-2.637228965759277344e-01
-2.077415585517883301e-01
-3.459948599338531494e-01
-4.001413285732269287e-01
-2.572425007820129395e-01
2.522052079439163208e-02
-3.069801330566406250e-01
-2.144944854080677032e-02
-3.440001010894775391e-01
-1.277751326560974121e-01
-3.350584805011749268e-01
-3.853219151496887207e-01
1.363555043935775757e-01
-1.645967811346054077e-01
-2.337487936019897461e-01
9.924719482660293579e-02
-2.163698822259902954e-01
-2.507571280002593994e-01
-1.164654567837715149e-01
-2.995192110538482666e-01
-3.540636897087097168e-01
-1.549763828516006470e-01
-1.879237145185470581e-01
4.302766025066375732e-01
3.864148557186126709e-01
3.412358760833740234e-01
-2.138099521398544312e-01
2.823890447616577148e-01
-1.425980329513549805e-01
-3.850793838500976562e-01
