-1.378469765186309814e-01
8.504188060760498047e-02
7.582014799118041992e-02
-1.021634787321090698e-01
-1.136007755994796753e-01
-1.296656429767608643e-01
-8.798753470182418823e-02
6.416141241788864136e-02
-8.574443310499191284e-02
-1.135475784540176392e-01
-1.235338822007179260e-01
-1.139576137065887451e-01
7.654200494289398193e-02
1.583997532725334167e-02
-1.196670532226562500e-01
5.199217423796653748e-02
-1.192406564950942993e-01
-8.311556279659271240e-02
6.967340409755706787e-02
-8.432717621326446533e-02
-1.155406236648559570e-01
6.364414840936660767e-02
-1.021900847554206848e-01
-9.972560405731201172e-02
6.214570999145507812e-02
-9.811159968376159668e-02
-1.287537813186645508e-01
7.462148368358612061e-02
-1.041127741336822510e-01
-1.207563430070877075e-01
7.365810871124267578e-02
-1.349945962429046631e-01
7.107256352901458740e-02
6.545818597078323364e-02
7.416711002588272095e-02
7.075074315071105957e-02
-1.222964897751808167e-01
7.835277915000915527e-02
-8.651833981275558472e-02
8.515103906393051147e-02
6.960406899452209473e-02
4.867999628186225891e-02
6.661976128816604614e-02
7.732671499252319336e-02
7.842057198286056519e-02
-1.366745680570602417e-01
-1.137434542179107666e-01
7.233016937971115112e-02
7.074137777090072632e-02
-1.027444750070571899e-01
-7.678597420454025269e-02
7.696621119976043701e-02
-1.078372299671173096e-01
-9.484504163265228271e-02
-1.150785759091377258e-01
-8.688125759363174438e-02
7.317513972520828247e-02
6.622780114412307739e-02
-8.221814781427383423e-02
5.195368453860282898e-02
7.554772496223449707e-02
-1.272941529750823975e-01
-6.925848126411437988e-02
8.032009750604629517e-02
-9.799358248710632324e-02
7.055607438087463379e-02
-1.443719118833541870e-01
5.993992090225219727e-02
-1.232307031750679016e-01
5.226443707942962646e-02
-1.264353990554809570e-01
-1.225831136107444763e-01
6.906520575284957886e-02
-8.216094225645065308e-02
7.308328151702880859e-02
-1.130393892526626587e-01
-8.536807447671890259e-02
-6.987806409597396851e-02
-5.945179238915443420e-02
-1.047784984111785889e-01
6.587480008602142334e-02
7.651744037866592407e-02
-1.032964289188385010e-01
6.406570225954055786e-02
-1.244776323437690735e-01
6.447181850671768188e-02
7.831762731075286865e-02
-1.086900755763053894e-01
8.445940166711807251e-02
7.443223148584365845e-02
-8.812646567821502686e-02
7.145614176988601685e-02
-1.102436557412147522e-01
-8.918557316064834595e-02
-9.324536472558975220e-02
-1.385310739278793335e-01
8.383213728666305542e-02
7.503721863031387329e-02
6.550443917512893677e-02
6.663417071104049683e-02
7.681142538785934448e-02
7.869860529899597168e-02
-1.156650930643081665e-01
-8.441905677318572998e-02
8.163328468799591064e-02
-1.168585345149040222e-01
-1.126675307750701904e-01
-1.047405824065208435e-01
7.537746429443359375e-02
-7.656127959489822388e-02
-1.301566958427429199e-01
-1.123570576310157776e-01
-1.036954745650291443e-01
7.447123527526855469e-02
-1.021444424986839294e-01
-1.110597997903823853e-01
-1.078542768955230713e-01
-1.456324905157089233e-01
-8.231332898139953613e-02
7.597023248672485352e-02
7.870499044656753540e-02
7.133784145116806030e-02
-9.660725295543670654e-02
-1.088551133871078491e-01
-1.018385067582130432e-01
7.011661678552627563e-02
-9.663143754005432129e-02
-1.146874949336051941e-01
