7.533220201730728149e-02
-1.152045056223869324e-01
9.748616814613342285e-02
7.966850697994232178e-02
-9.436946362257003784e-02
7.808842509984970093e-02
1.569675467908382416e-02
-2.322148904204368591e-02
-7.413081079721450806e-02
-8.960849046707153320e-02
3.996903449296951294e-02
-9.104947000741958618e-02
-1.091155931353569031e-01
4.463239386677742004e-02
-8.312148600816726685e-02
-1.057327464222908020e-01
1.275398954749107361e-02
4.175486415624618530e-02
-1.248593442142009735e-02
6.018493697047233582e-02
7.549086213111877441e-02
-3.164263069629669189e-02
4.181986674666404724e-02
6.882464885711669922e-02
-1.502765063196420670e-02
3.596720844507217407e-02
-1.134093701839447021e-01
3.735001757740974426e-02
3.012238442897796631e-02
4.436908662319183350e-02
-4.749677330255508423e-02
-8.176639676094055176e-02
3.498653322458267212e-02
6.611660588532686234e-03
-1.480026394128799438e-01
4.708044230937957764e-03
3.545521572232246399e-02
-3.801211714744567871e-02
-6.759499758481979370e-02
3.055817075073719025e-02
-8.118470013141632080e-02
-3.811106085777282715e-02
-4.677767865359783173e-03
3.503252565860748291e-02
1.380017143674194813e-03
9.323370642960071564e-03
1.977572590112686157e-02
2.021291665732860565e-02
-1.201065257191658020e-01
-9.424566477537155151e-02
-1.187757328152656555e-01
-1.036527156829833984e-01
2.459682896733283997e-02
-7.015633583068847656e-02
3.370872512459754944e-02
-4.998565837740898132e-02
2.801441214978694916e-02
-1.295334696769714355e-01
6.096727773547172546e-02
-1.226115971803665161e-01
-1.629407256841659546e-01
-6.177580356597900391e-02
-6.829725950956344604e-02
-1.205859333276748657e-01
-3.561045601963996887e-02
2.417409233748912811e-02
3.230835869908332825e-02
6.387353688478469849e-02
-5.100110545754432678e-02
-1.242789998650550842e-01
-1.145094633102416992e-01
2.448578830808401108e-03
-1.709813624620437622e-02
-7.049956917762756348e-02
-6.885839253664016724e-02
-1.935424096882343292e-02
3.680996224284172058e-02
-5.536573007702827454e-02
-1.017275154590606689e-01
7.871138304471969604e-02
-8.799854665994644165e-02
-1.103813350200653076e-01
8.927571587264537811e-03
4.194844141602516174e-02
4.407085478305816650e-02
2.338219247758388519e-02
-1.069288700819015503e-01
-4.640745371580123901e-02
-1.302929818630218506e-01
-7.172939181327819824e-02
5.520607158541679382e-02
4.224620759487152100e-02
-1.430376321077346802e-01
-6.281408667564392090e-02
-3.078771568834781647e-02
-1.674461513757705688e-01
-4.672746732831001282e-02
4.240012913942337036e-02
-7.755944877862930298e-02
-1.003874372690916061e-02
-1.057552024722099304e-01
-5.891696363687515259e-02
-1.633357070386409760e-02
3.235700074583292007e-03
-9.831159561872482300e-02
-7.724168151617050171e-02
6.612651050090789795e-02
-2.378821000456809998e-02
-8.375165611505508423e-02
-7.901950180530548096e-02
-3.522181138396263123e-02
-1.152932643890380859e-01
-9.811837971210479736e-02
4.577049240469932556e-02
-9.749702364206314087e-02
6.418642401695251465e-02
6.896990537643432617e-02
5.206827819347381592e-02
4.752764850854873657e-02
3.323399648070335388e-02
-6.793193519115447998e-02
-1.116035878658294678e-01
9.257582947611808777e-03
1.522696390748023987e-02
4.529660940170288086e-02
-5.154685303568840027e-02
5.850782617926597595e-02
-1.013574749231338501e-01
