2.350773513317108154e-01
-6.108707562088966370e-02
-1.613374799489974976e-01
1.680838912725448608e-01
2.234884202480316162e-01
1.990946084260940552e-01
2.763456106185913086e-01
-2.394990473985671997e-01
1.841601729393005371e-01
1.102788820862770081e-01
2.648510932922363281e-01
2.000472992658615112e-01
-2.511368095874786377e-01
-4.001758527010679245e-03
1.826642304658889771e-01
-4.998600110411643982e-03
1.392295956611633301e-01
2.847155332565307617e-01
-1.425984799861907959e-01
3.072635531425476074e-01
1.375552266836166382e-01
-1.332858353853225708e-01
3.195959329605102539e-01
1.869329661130905151e-01
-3.878298029303550720e-02
3.047510683536529541e-01
1.215369477868080139e-01
-1.243482753634452820e-01
2.761611044406890869e-01
2.761194705963134766e-01
-1.001528650522232056e-01
1.507216691970825195e-01
-1.608648151159286499e-01
-1.546717137098312378e-01
-1.731968671083450317e-01
-9.881432354450225830e-02
1.512625515460968018e-01
-1.198140084743499756e-01
2.224377989768981934e-01
-1.997101455926895142e-01
-3.523743525147438049e-02
-5.425655748695135117e-03
-1.228891089558601379e-01
-8.830107003450393677e-02
-9.038015455007553101e-02
1.263494193553924561e-01
1.084752678871154785e-01
-9.819508343935012817e-02
-2.410038113594055176e-01
1.840713918209075928e-01
2.694619297981262207e-01
-1.164545789361000061e-01
1.161855831742286682e-01
1.555539220571517944e-01
2.098472565412521362e-01
3.153234422206878662e-01
-2.142509967088699341e-01
-9.369421005249023438e-02
3.321933448314666748e-01
-3.064491227269172668e-02
-1.672334820032119751e-01
1.222803220152854919e-01
3.306469917297363281e-01
-1.435021311044692993e-01
2.142007797956466675e-01
-1.492285579442977905e-01
1.062479838728904724e-01
-3.834659233689308167e-02
1.361839473247528076e-01
-1.377383247017860413e-02
8.799326419830322266e-02
1.042980328202247620e-01
-6.079457327723503113e-02
2.701574563980102539e-01
-1.346580386161804199e-01
1.367938518524169922e-01
3.090568482875823975e-01
2.927621304988861084e-01
3.120895922183990479e-01
2.559468448162078857e-01
-8.429347723722457886e-02
-1.427597552537918091e-01
2.327897101640701294e-01
-8.846141397953033447e-02
2.262659668922424316e-01
-1.869523972272872925e-01
-1.219710260629653931e-01
2.446172833442687988e-01
-6.342934817075729370e-02
-2.428055852651596069e-01
2.698763906955718994e-01
-8.689614385366439819e-02
2.614280581474304199e-01
1.462397575378417969e-01
2.594554126262664795e-01
1.147929802536964417e-01
-2.189561426639556885e-01
-1.000475659966468811e-01
-1.398756802082061768e-01
-1.149377003312110901e-01
-2.043358087539672852e-01
-1.182317286729812622e-01
1.914833039045333862e-01
2.342471331357955933e-01
-2.311090975999832153e-01
1.652716845273971558e-01
2.202684134244918823e-01
2.015642523765563965e-01
-2.061008363962173462e-01
3.183167576789855957e-01
1.457561850547790527e-01
1.539498716592788696e-01
9.377855807542800903e-02
-1.853236854076385498e-01
8.341615647077560425e-02
2.334064990282058716e-01
1.568295955657958984e-01
1.279532760381698608e-01
2.878240346908569336e-01
-1.720831841230392456e-01
-2.546044886112213135e-01
-1.616607308387756348e-01
3.025868833065032959e-01
2.330965995788574219e-01
2.614169120788574219e-01
-1.233285665512084961e-01
2.785586416721343994e-01
2.160830944776535034e-01
