4.272129386663436890e-02
1.720085041597485542e-03
5.710206925868988037e-02
-3.287620469927787781e-02
3.670693142339587212e-03
1.069494336843490601e-02
-1.442164927721023560e-02
-9.143410250544548035e-03
7.739522308111190796e-02
-1.185594126582145691e-01
6.013641133904457092e-02
-3.256932646036148071e-02
1.927449554204940796e-02
-1.151654422283172607e-01
4.130917042493820190e-02
4.297494143247604370e-02
-5.066768079996109009e-02
-1.005762889981269836e-01
2.170056849718093872e-02
4.441593959927558899e-02
2.738942205905914307e-02
-1.386361476033926010e-02
-9.142410755157470703e-02
2.549326233565807343e-02
1.444837171584367752e-02
8.541262149810791016e-02
-4.054676368832588196e-02
-1.083977404050529003e-03
8.457301557064056396e-02
3.457072749733924866e-02
2.195388451218605042e-02
2.541494183242321014e-02
6.509312987327575684e-02
1.509203109890222549e-02
-4.495483636856079102e-02
-6.487952917814254761e-02
6.486333161592483521e-02
-1.961793936789035797e-02
-1.338967471383512020e-03
7.199833542108535767e-02
2.691658958792686462e-02
1.869790023192763329e-03
-1.453626435250043869e-02
-7.194090634584426880e-03
7.736807316541671753e-02
-8.776023238897323608e-02
-1.113421916961669922e-01
2.584487199783325195e-02
-8.330070972442626953e-02
-2.913733199238777161e-02
4.538147151470184326e-02
3.902144730091094971e-02
2.841221168637275696e-02
5.422717332839965820e-02
3.295823186635971069e-02
-9.056988172233104706e-03
2.701224014163017273e-02
-8.214116096496582031e-02
-8.615003898739814758e-03
8.958894759416580200e-02
6.128275394439697266e-02
-1.106174513697624207e-01
-2.071844041347503662e-02
2.794785238802433014e-02
-1.325788646936416626e-01
1.614883169531822205e-02
-7.047074288129806519e-02
4.331354051828384399e-02
-3.298568353056907654e-02
-4.799176752567291260e-02
6.545387208461761475e-03
2.043022401630878448e-02
-6.175993010401725769e-02
1.367866061627864838e-02
-6.332024349831044674e-05
-4.843652993440628052e-02
1.031472086906433105e-01
7.461670786142349243e-02
-4.483847320079803467e-02
1.411977782845497131e-02
3.972518071532249451e-02
2.886304631829261780e-02
6.289063487201929092e-03
-6.280191242694854736e-02
-1.371651701629161835e-02
-2.604891173541545868e-02
3.301116451621055603e-02
1.020386591553688049e-01
9.767562150955200195e-02
1.276855170726776123e-02
-4.039252549409866333e-02
-2.457968890666961670e-02
3.892790898680686951e-02
9.301623329520225525e-03
-7.244402077049016953e-03
7.825020700693130493e-02
1.168312430381774902e-01
-8.013989776372909546e-02
8.818838000297546387e-02
1.670804223977029324e-03
5.768291652202606201e-02
-1.035374775528907776e-02
-1.143834739923477173e-02
4.567636176943778992e-03
6.756272166967391968e-02
-2.412109263241291046e-02
8.073909580707550049e-02
3.258272260427474976e-02
5.216533318161964417e-02
-1.176148504018783569e-01
2.625736780464649200e-02
-7.520555518567562103e-03
-4.788491502404212952e-02
1.118698790669441223e-01
-9.565643034875392914e-03
-2.385603729635477066e-03
2.007127739489078522e-02
2.939647622406482697e-02
-1.241479441523551941e-02
2.777306549251079559e-02
2.097649313509464264e-02
7.633978873491287231e-02
9.722243063151836395e-03
3.450461849570274353e-02
4.495094716548919678e-02
-2.091727964580059052e-02
-1.035055518150329590e-01
-3.407536447048187256e-02
