5.149137377738952637e-01
1.582863181829452515e-01
1.746632903814315796e-01
-2.989147305488586426e-01
2.091410942375659943e-02
5.574154481291770935e-02
2.093463949859142303e-02
8.308503776788711548e-02
2.693765051662921906e-02
-1.430946737527847290e-01
1.445917189121246338e-01
1.321645677089691162e-01
-1.773453690111637115e-02
6.259503215551376343e-02
2.346933074295520782e-02
-1.633551903069019318e-02
-1.299571275711059570e+00
-2.375255584716796875e+00
1.125325039029121399e-01
-4.119259864091873169e-02
5.485911965370178223e-01
-4.772799089550971985e-02
-6.213308572769165039e-01
1.467394828796386719e-01
4.021648317575454712e-02
-1.153603941202163696e-01
3.911949694156646729e-02
3.246745839715003967e-02
8.820185810327529907e-02
-1.347194612026214600e-01
7.589264959096908569e-02
6.524549797177314758e-03
-1.201998949050903320e+00
2.049091563094407320e-04
-1.748979687690734863e+00
-4.281393811106681824e-02
-3.678471222519874573e-02
7.510074973106384277e-02
1.465447545051574707e-01
-9.467770345509052277e-03
-3.677573055028915405e-02
-1.150339484214782715e+00
9.629464894533157349e-02
-5.329938530921936035e-01
7.191061228513717651e-02
-9.023431688547134399e-03
3.502179980278015137e-01
2.844198420643806458e-02
-5.388842821121215820e-01
-5.567714106291532516e-03
4.072561562061309814e-01
-5.331709608435630798e-02
-7.649299502372741699e-02
2.841511741280555725e-02
3.297014161944389343e-02
-1.448896169662475586e+00
3.636940568685531616e-02
2.957672439515590668e-02
-7.342351973056793213e-02
1.908251196146011353e-01
2.582362480461597443e-02
-1.420414745807647705e-01
6.282028625719249249e-04
7.308326195925474167e-03
6.847600638866424561e-02
2.113934978842735291e-02
-6.049263756722211838e-03
-1.409684773534536362e-02
1.366809457540512085e-01
1.935785412788391113e-01
-8.686801791191101074e-01
5.125178024172782898e-02
6.503125429153442383e-01
-3.184090135619044304e-03
-4.311896562576293945e-01
-1.919182762503623962e-02
2.054053917527198792e-02
5.104169715195894241e-03
-8.630801439285278320e-01
2.516218833625316620e-02
-1.611463189125061035e+00
-1.407251358032226562e+00
1.453161612153053284e-02
9.089550375938415527e-01
8.861935697495937347e-03
2.390853129327297211e-02
-3.139077126979827881e-02
5.145890265703201294e-02
1.437779422849416733e-02
-3.094394691288471222e-02
-1.881989389657974243e-01
1.053724959492683411e-01
-2.992785908281803131e-02
2.221842259168624878e-01
-4.843232631683349609e-01
6.299720704555511475e-02
4.747567232698202133e-03
8.279014229774475098e-01
4.233345389366149902e-02
7.217087596654891968e-02
4.455514624714851379e-02
-2.666193805634975433e-02
-7.221606373786926270e-01
-1.471022516489028931e-02
1.054949406534433365e-02
-7.143501937389373779e-02
-7.706230878829956055e-01
6.533161550760269165e-02
-2.127140313386917114e-01
-2.266649715602397919e-02
-3.548862785100936890e-02
2.714504301548004150e-01
2.319583445787429810e-01
-7.323709875345230103e-02
2.150942943990230560e-02
-3.959286957979202271e-03
-3.768648579716682434e-02
1.296566426753997803e-02
1.059647649526596069e-02
2.625972032546997070e-01
6.006206385791301727e-03
-1.170419692993164062e+00
-1.493843197822570801e+00
2.898049354553222656e-02
5.739110112190246582e-01
4.578454792499542236e-02
-3.555443510413169861e-02
2.440834045410156250e-02
