2.948881685733795166e-01
2.553600668907165527e-01
-2.318866550922393799e-03
-1.561828106641769409e-01
-1.112459972500801086e-02
2.512680888175964355e-01
3.620674600824713707e-03
2.959731519222259521e-01
3.034499585628509521e-01
4.775591194629669189e-02
2.165562957525253296e-01
-5.490984767675399780e-02
1.207845881581306458e-01
2.398554533720016479e-01
2.826600074768066406e-01
1.805133670568466187e-01
2.914460003376007080e-01
1.467931643128395081e-02
1.110856756567955017e-01
2.218237072229385376e-01
1.178858876228332520e-01
2.636441290378570557e-01
-6.850025057792663574e-02
1.224453095346689224e-02
3.225581347942352295e-01
-5.739543214440345764e-02
1.368655562400817871e-01
8.747368305921554565e-02
-1.616242676973342896e-01
-9.975393116474151611e-02
1.069749817252159119e-01
3.255363702774047852e-01
-1.776161976158618927e-02
1.816124469041824341e-01
2.364298552274703979e-01
7.215098943561315536e-03
-8.833691244944930077e-04
3.135854303836822510e-01
1.579687148332595825e-01
8.808232843875885010e-03
2.495763450860977173e-01
1.228117011487483978e-02
-4.441815242171287537e-02
2.323444783687591553e-01
1.700963941402733326e-03
1.898722946643829346e-01
2.071830481290817261e-01
-6.902240216732025146e-02
-3.415178041905164719e-03
3.304316699504852295e-01
2.542368136346340179e-03
-1.021161302924156189e-01
-4.243300482630729675e-02
-9.228951483964920044e-02
3.252235651016235352e-01
-1.263972371816635132e-01
1.703127771615982056e-01
3.018861711025238037e-01
1.397993881255388260e-02
-9.888178855180740356e-02
-1.052201688289642334e-01
2.468607127666473389e-01
2.736143171787261963e-01
-4.778685048222541809e-02
3.227488696575164795e-01
-8.351085335016250610e-02
-1.497659683227539062e-01
2.497717142105102539e-01
3.049702048301696777e-01
2.427437454462051392e-01
-1.384716480970382690e-01
-1.215476393699645996e-01
1.361432820558547974e-01
-1.207508295774459839e-01
-7.298683747649192810e-03
-7.033499330282211304e-02
3.191940188407897949e-01
-1.100459843873977661e-01
-1.260773390531539917e-01
-7.555876672267913818e-02
1.166342012584209442e-02
1.381971389055252075e-01
2.957200706005096436e-01
2.662180662155151367e-01
8.078777045011520386e-02
-1.242096126079559326e-01
-3.587608784437179565e-02
1.338290274143218994e-01
3.129395842552185059e-01
-2.621394582092761993e-02
3.424495756626129150e-01
1.409591495757922530e-04
-1.286422610282897949e-01
1.435782480984926224e-02
-4.527520760893821716e-02
-4.669526964426040649e-02
-1.955062150955200195e-03
1.705659627914428711e-01
1.676910072565078735e-01
2.419681698083877563e-01
2.125394791364669800e-01
2.044764012098312378e-01
3.453703522682189941e-01
-2.488739788532257080e-01
3.629031479358673096e-01
4.258012399077415466e-02
3.579359948635101318e-01
1.230911072343587875e-02
2.012752741575241089e-01
2.547397017478942871e-01
-5.813011899590492249e-02
8.193010464310646057e-03
2.139821946620941162e-01
-2.351481318473815918e-01
1.700900308787822723e-02
1.356345862150192261e-01
8.863806724548339844e-03
1.217330712825059891e-02
1.791822165250778198e-01
-7.780506741255521774e-03
2.906467318534851074e-01
-1.641636788845062256e-01
-1.552292406558990479e-01
-2.126506417989730835e-01
2.241560369729995728e-01
-1.671949177980422974e-01
6.545935291796922684e-03
2.139372229576110840e-01
