-2.845456898212432861e-01 8.012495934963226318e-02 -2.247982025146484375e-01 8.085337467491626740e-03 1.459918767213821411e-01 -2.143148034811019897e-01 2.675569616258144379e-02 -2.206817455589771271e-02 -8.310974389314651489e-02 -6.962797790765762329e-02 -2.811547517776489258e-01 8.579713106155395508e-02 -3.324646055698394775e-01 -1.699095070362091064e-01 -1.000650376081466675e-01 5.314082652330398560e-02 7.042223215103149414e-02 -2.938056886196136475e-01 2.511432766914367676e-01 -4.198680818080902100e-01 1.071323305368423462e-01 -4.586232900619506836e-01 -2.965397238731384277e-01 1.063451766967773438e-01 -8.216624706983566284e-02 -6.687258929014205933e-02 5.875733494758605957e-02 3.506549820303916931e-02 1.575194597244262695e-01 -5.259494185447692871e-01 1.014648750424385071e-01 -1.101515963673591614e-01 -2.564464509487152100e-01 -3.349951803684234619e-01 6.581671535968780518e-02 1.191942840814590454e-01 -1.656162738800048828e-01 -8.670803904533386230e-02 -1.154565438628196716e-01 9.297845512628555298e-02 2.658596821129322052e-02 -1.363723427057266235e-01 1.213281303644180298e-01 -1.172233521938323975e-01 -9.146782010793685913e-02 -5.049920827150344849e-02 -1.891945451498031616e-01 -1.949081569910049438e-01 -1.447819173336029053e-01 1.605964004993438721e-01 -9.530580788850784302e-02 -1.095708310604095459e-01 -1.949078589677810669e-02 -4.182032942771911621e-01 1.263071447610855103e-01 1.381203830242156982e-01 1.673350185155868530e-01 1.367512345314025879e-01 2.324403524398803711e-01 -2.608653903007507324e-01 -2.977801263332366943e-01 -2.037249058485031128e-01 -5.482088029384613037e-02 2.430910803377628326e-02 -6.192531064152717590e-02 -3.857357800006866455e-02 5.076139792799949646e-02 -1.314268708229064941e-01 8.280856907367706299e-02 1.306081712245941162e-01 1.111668199300765991e-01 -4.296971857547760010e-02 3.275437355041503906e-01 -2.854374051094055176e-01 2.905680052936077118e-02 -5.432379245758056641e-02 -6.585156917572021484e-02 -2.234166562557220459e-01 -6.647857278585433960e-02 -2.599093914031982422e-01 -3.362521827220916748e-01 7.837063819169998169e-02 -5.141816139221191406e-01 5.692059919238090515e-02 1.937238723039627075e-01 -5.222285389900207520e-01 -9.019480645656585693e-02 5.710555613040924072e-02 -3.315784335136413574e-01 -1.090167388319969177e-01 7.571110129356384277e-02 -2.233487069606781006e-01 3.375874757766723633e-01 -1.928187161684036255e-01 -2.818143740296363831e-02 -3.058580458164215088e-01 -5.748246982693672180e-02 -2.661536447703838348e-02 -2.238790690898895264e-01 1.625791750848293304e-02 1.304106414318084717e-01 -2.978293597698211670e-01 -1.423181295394897461e-01 -2.343832254409790039e-01 1.392641011625528336e-02 -3.948348760604858398e-01 -1.203979477286338806e-01 -5.665132403373718262e-01 -3.662780672311782837e-02 1.202874854207038879e-01 6.233816593885421753e-02 3.788566961884498596e-02 1.269764155149459839e-01 1.211567819118499756e-01 -7.975021749734878540e-02 3.493193164467811584e-02 -2.799170315265655518e-01 -8.024250715970993042e-02 -9.088283777236938477e-02 1.542802751064300537e-01 -2.709710896015167236e-01 -1.771135330200195312e-01 -3.118270337581634521e-01 -4.507404938340187073e-02 2.349679358303546906e-02 -2.149059474468231201e-01 -1.469420194625854492e-01 9.278929233551025391e-02
5.872576963156461716e-03 -4.826990514993667603e-02 -4.336457550525665283e-01 -9.627900272607803345e-02 -2.169734565541148186e-03 -2.217368334531784058e-01 -2.780524790287017822e-01 -8.279763907194137573e-02 2.060947716236114502e-01 1.418077796697616577e-01 3.712619245052337646e-01 1.124638468027114868e-01 2.790534496307373047e-01 -2.991609275341033936e-01 -2.009513974189758301e-01 -1.464099735021591187e-01 -1.006245762109756470e-01 2.535370886325836182e-01 -6.553010344505310059e-01 -1.200835183262825012e-01 -3.147295117378234863e-01 -2.350009083747863770e-01 -4.475978016853332520e-01 -1.209244038909673691e-02 -1.384330689907073975e-01 1.749915815889835358e-02 -2.611202895641326904e-01 3.796691298484802246e-01 -3.390326499938964844e-01 -3.733770251274108887e-01 2.338340878486633301e-01 2.395772039890289307e-01 1.773593425750732422e-01 2.411375641822814941e-01 8.670616149902343750e-02 -5.661602690815925598e-02 -2.451513661071658134e-03 3.758230432868003845e-02 1.894943863153457642e-01 4.783717170357704163e-02 -6.363543868064880371e-02 -3.659805357456207275e-01 -2.820211648941040039e-02 -1.710549890995025635e-01 -2.908177077770233154e-01 -1.177240312099456787e-01 2.145500667393207550e-02 1.731266640126705170e-02 6.360967457294464111e-02 -6.433242559432983398e-02 -1.092587411403656006e-01 6.565118581056594849e-02 1.029324829578399658e-01 -1.447244584560394287e-01 2.185312509536743164e-01 -8.858348429203033447e-02 -1.195415779948234558e-01 -2.317650914192199707e-01 -4.861494004726409912e-01 -3.736070822924375534e-03 1.149870902299880981e-01 1.560492962598800659e-01 5.696386843919754028e-02 1.717833429574966431e-01 2.095022052526473999e-01 -2.062571495771408081e-01 -1.609121263027191162e-01 2.941736392676830292e-02 8.609285950660705566e-02 8.191917091608047485e-02 1.641508042812347412e-01 -3.168069124221801758e-01 9.091597795486450195e-02 -4.267944693565368652e-01 1.641895808279514313e-02 2.099581509828567505e-01 1.855397522449493408e-01 5.537097454071044922e-01 -1.821652613580226898e-02 -2.756536602973937988e-01 6.955894827842712402e-02 9.950307756662368774e-02 -3.040308952331542969e-01 1.538682878017425537e-01 9.669881314039230347e-02 -1.999291218817234039e-02 -1.490046530961990356e-01 -7.061494141817092896e-02 -7.928607612848281860e-02 9.171713888645172119e-02 5.879783630371093750e-02 3.672249615192413330e-02 -2.377512753009796143e-01 -5.387032628059387207e-01 -2.081599682569503784e-01 -7.321372628211975098e-02 -4.013701975345611572e-01 1.159109082072973251e-02 3.185001909732818604e-01 -2.229219973087310791e-01 -1.521282941102981567e-01 9.025073796510696411e-02 -5.339619517326354980e-01 -1.643775254487991333e-01 1.347031891345977783e-01 3.730915114283561707e-02 -3.576885163784027100e-01 1.839474886655807495e-01 -1.895880326628684998e-02 -2.296734601259231567e-01 6.067632883787155151e-02 2.185599952936172485e-01 1.298574507236480713e-01 6.054412573575973511e-02 1.908244378864765167e-02 -3.527501225471496582e-01 1.099142581224441528e-01 -1.775054484605789185e-01 -1.587877869606018066e-01 -2.308508008718490601e-01 -1.683172434568405151e-01 -3.227496519684791565e-02 -2.936675846576690674e-01 6.617290526628494263e-02 1.158814281225204468e-01 1.777972429990768433e-01 7.659242302179336548e-02 -1.212446093559265137e-01
1.639737039804458618e-01 8.198810368776321411e-02 2.781327366828918457e-01 6.008863449096679688e-02 -1.958355456590652466e-01 -4.044104516506195068e-01 2.581758797168731689e-02 2.851680852472782135e-02 -3.267004787921905518e-01 3.289186358451843262e-01 -1.910385042428970337e-01 -4.027652740478515625e-02 8.188386261463165283e-02 -7.617979496717453003e-02 -7.916078716516494751e-02 3.561808168888092041e-02 2.892515659332275391e-01 -3.691675141453742981e-02 6.169665977358818054e-02 -2.401693025603890419e-03 5.213705357164144516e-03 1.208532378077507019e-01 -8.298211544752120972e-02 1.245454549789428711e-01 1.560278143733739853e-02 -2.330299168825149536e-01 -1.711418293416500092e-02 -6.489576399326324463e-02 -1.173126026988029480e-01 2.734570205211639404e-01 -4.807446897029876709e-01 -9.156166017055511475e-02 -3.947983682155609131e-02 -6.152068823575973511e-02 5.046613141894340515e-02 -3.615992963314056396e-01 2.235591709613800049e-01 -1.317507587373256683e-02 -1.258687768131494522e-02 -2.255422994494438171e-02 -2.432589679956436157e-01 -2.405100017786026001e-01 -2.491485625505447388e-01 1.061247847974300385e-02 4.411283507943153381e-02 -2.279490977525711060e-01 -3.530554771423339844e-01 1.629553884267807007e-01 -1.447430104017257690e-01 -1.526623126119375229e-02 3.408248722553253174e-02 -1.678434386849403381e-02 1.301160901784896851e-01 -5.688238423317670822e-03 2.470873761922121048e-03 -1.624225974082946777e-01 5.696846172213554382e-02 1.011479180306196213e-02 1.131210923194885254e-01 -1.518333703279495239e-01 -1.558985263109207153e-01 -1.028738990426063538e-01 1.693272888660430908e-01 -3.972649574279785156e-01 -6.178579851984977722e-02 -9.547893702983856201e-02 2.261665314435958862e-01 -3.032484054565429688e-01 1.237436980009078979e-01 -1.444200892001390457e-02 -2.824240922927856445e-01 -2.254723757505416870e-01 -2.313942164182662964e-01 2.174485474824905396e-02 -1.075941845774650574e-01 8.784601837396621704e-02 2.052012830972671509e-01 -7.404812425374984741e-02 1.233109533786773682e-01 1.132021173834800720e-01 -4.844583272933959961e-01 4.098642244935035706e-02 -2.490576803684234619e-01 -1.651462912559509277e-02 -7.069780491292476654e-03 2.519795596599578857e-01 -8.005182445049285889e-02 2.962455749511718750e-01 -1.314156129956245422e-02 5.789964925497770309e-03 -3.983500599861145020e-01 1.313927024602890015e-01 -1.570410840213298798e-02 -1.955165117979049683e-01 2.810217738151550293e-01 -6.956527382135391235e-02 -8.292311429977416992e-02 -7.006697356700897217e-02 -8.168233931064605713e-02 -5.624959617853164673e-02 -1.150245741009712219e-01 9.374280273914337158e-02 1.282512098550796509e-01 -1.367369592189788818e-01 -1.194535121321678162e-01 -1.295268419198691845e-03 -2.602438032627105713e-01 9.604084491729736328e-02 3.301690816879272461e-01 -1.206267997622489929e-02 8.958486467599868774e-02 -2.020012885332107544e-01 8.402832597494125366e-02 -2.277289181947708130e-01 1.402194499969482422e-01 -1.273041665554046631e-01 2.431640326976776123e-01 -1.425442993640899658e-01 -1.079180836677551270e-01 5.627742037177085876e-02 1.854437962174415588e-02 1.871146410703659058e-01 -1.591621339321136475e-01 -5.816322937607765198e-02 1.763543486595153809e-01 -2.859976887702941895e-02 7.713829725980758667e-02 -6.013847589492797852e-01
6.395353469997644424e-03 -2.975730970501899719e-02 3.036049008369445801e-01 -7.904872298240661621e-02 1.605093628168106079e-01 1.603693515062332153e-01 2.199181020259857178e-01 -2.529162764549255371e-01 1.065694466233253479e-01 -1.542599499225616455e-01 -3.490348532795906067e-02 2.565234303474426270e-01 1.115607023239135742e-01 2.325877360999584198e-02 2.858789265155792236e-01 -4.308763742446899414e-01 2.206930220127105713e-01 1.469147503376007080e-01 2.573272287845611572e-01 3.235401809215545654e-01 -1.194450110197067261e-01 -2.247349470853805542e-01 -1.836118549108505249e-01 -1.426841318607330322e-01 -3.326961398124694824e-01 2.595627009868621826e-01 1.200567707419395447e-01 4.345872700214385986e-01 1.930597424507141113e-02 -1.007536146789789200e-02 -5.991878733038902283e-02 -1.137482598423957825e-01 -2.528959810733795166e-01 6.705940235406160355e-03 2.502759099006652832e-01 -2.970381081104278564e-01 -1.995909214019775391e-01 -2.403405904769897461e-01 -3.041011691093444824e-01 -2.523889541625976562e-01 -2.087141573429107666e-01 -2.355764806270599365e-01 3.055091202259063721e-01 -5.105265229940414429e-02 -1.510460525751113892e-01 -4.908606708049774170e-01 -1.687431782484054565e-01 -3.316849470138549805e-01 -3.747805655002593994e-01 5.882383882999420166e-02 1.761623471975326538e-02 -1.704634167253971100e-02 2.367110848426818848e-01 -7.015292346477508545e-02 1.290897876024246216e-01 -2.287505120038986206e-01 8.336479961872100830e-02 -1.704119443893432617e-01 2.832962200045585632e-02 2.248428612947463989e-01 3.686862587928771973e-01 2.095710188150405884e-01 -3.782325610518455505e-02 2.517148852348327637e-02 1.379484832286834717e-01 -7.234634459018707275e-02 5.655560642480850220e-02 3.637611567974090576e-01 -3.782492130994796753e-02 -1.814080029726028442e-01 2.189545193687081337e-05 -2.328254580497741699e-01 -3.588036000728607178e-01 -1.776316612958908081e-01 4.688112437725067139e-02 -2.766600847244262695e-01 -7.384887896478176117e-03 3.067342564463615417e-02 -1.718130894005298615e-02 -3.625187575817108154e-01 -2.895069420337677002e-01 3.505606949329376221e-01 5.298601463437080383e-02 1.201325282454490662e-02 2.399439960718154907e-01 -6.250493973493576050e-02 1.721956282854080200e-01 2.352147698402404785e-01 6.647901237010955811e-02 4.341067001223564148e-02 -4.030219614505767822e-01 -6.522064208984375000e-01 -2.562514543533325195e-01 -2.648237049579620361e-01 3.516187071800231934e-01 -6.751667708158493042e-02 -6.117318943142890930e-02 -4.368043243885040283e-01 2.671529948711395264e-01 -2.324085831642150879e-01 -2.140267565846443176e-02 -1.049700006842613220e-01 -2.526603043079376221e-01 -4.513367116451263428e-01 -9.194068610668182373e-03 -3.158649504184722900e-01 -2.437214553356170654e-01 1.285445988178253174e-01 1.558174341917037964e-01 -2.039054483175277710e-01 -5.507675930857658386e-02 -9.110642969608306885e-02 6.828038487583398819e-03 7.280711829662322998e-02 1.987504400312900543e-02 -5.032601300626993179e-03 2.392003238201141357e-01 -2.914401590824127197e-01 -1.175559684634208679e-01 -1.911230534315109253e-01 -7.924996316432952881e-02 -3.302158415317535400e-02 -7.423978298902511597e-02 1.961585432291030884e-01 1.094842329621315002e-01 1.349296607077121735e-02 -4.241359829902648926e-01 -4.041289389133453369e-01
2.854718863964080811e-01 2.390531823039054871e-02 2.331454306840896606e-01 -1.547167003154754639e-01 3.736667633056640625e-01 -7.958908379077911377e-02 1.274183839559555054e-01 -1.469267457723617554e-01 -5.970664788037538528e-04 -2.084630876779556274e-01 1.607975065708160400e-01 3.963726386427879333e-02 5.906386971473693848e-01 4.598856568336486816e-01 -1.664558649063110352e-01 -1.019036769866943359e-01 1.432216316461563110e-01 4.275760352611541748e-01 2.498926781117916107e-02 -2.632404863834381104e-01 -1.530961948446929455e-03 -1.577275544404983521e-01 3.874766826629638672e-02 -2.076122760772705078e-01 -3.558470308780670166e-01 -2.173064090311527252e-02 -1.357407122850418091e-01 -9.034716337919235229e-02 -2.433517202734947205e-02 1.284067332744598389e-01 5.699402093887329102e-02 1.058258563280105591e-01 1.707722395658493042e-01 -4.916057884693145752e-01 2.037568241357803345e-01 -2.062712982296943665e-02 2.016756832599639893e-01 -1.804593950510025024e-01 -6.154974456876516342e-03 -2.567924931645393372e-02 -4.294623136520385742e-01 4.288259744644165039e-01 2.878214120864868164e-01 9.712090343236923218e-02 3.695721328258514404e-01 -1.580397635698318481e-01 9.442294947803020477e-03 2.137692570686340332e-01 -8.659683167934417725e-03 4.683157429099082947e-02 -3.553929924964904785e-01 -8.791398257017135620e-02 2.623052597045898438e-01 2.390641570091247559e-01 2.828849852085113525e-01 1.416035741567611694e-01 -3.302116878330707550e-03 -4.714149534702301025e-01 -1.039968058466911316e-01 2.468330785632133484e-02 2.783134877681732178e-01 1.037465482950210571e-01 3.863657712936401367e-01 1.550805717706680298e-01 -2.224704325199127197e-01 3.183741867542266846e-01 2.439439892768859863e-01 -1.301942113786935806e-02 -4.948274418711662292e-02 -2.367449849843978882e-01 4.547263979911804199e-01 3.523316681385040283e-01 -2.082353979349136353e-01 -2.274150550365447998e-01 4.349395632743835449e-01 1.119851917028427124e-01 -2.499712631106376648e-02 -2.830721624195575714e-02 4.225774407386779785e-01 -1.093116179108619690e-01 2.898726845160126686e-03 -9.558068960905075073e-02 1.235113367438316345e-01 -9.586074203252792358e-02 -2.345253676176071167e-01 4.510235041379928589e-03 6.179720163345336914e-02 -7.043004781007766724e-02 4.257526099681854248e-01 -7.057439535856246948e-02 -1.553558558225631714e-01 -1.053844019770622253e-01 6.094747036695480347e-02 1.896793991327285767e-01 9.886171668767929077e-02 -1.901139765977859497e-01 3.737992346286773682e-01 -1.521218568086624146e-01 1.844235360622406006e-01 -4.006443917751312256e-01 4.821914434432983398e-01 -3.575534522533416748e-01 -2.867992222309112549e-02 1.426322311162948608e-01 -8.327680081129074097e-02 -7.667119055986404419e-02 -6.722007878124713898e-03 2.434646785259246826e-01 -1.556939780712127686e-01 1.843688189983367920e-01 -4.523339271545410156e-01 -1.430638600140810013e-02 2.172997593879699707e-02 1.048510968685150146e-01 -3.042554855346679688e-01 2.737676203250885010e-01 3.136321604251861572e-01 3.557916730642318726e-02 -3.597359657287597656e-01 -2.627709209918975830e-01 -2.564664743840694427e-02 1.045215725898742676e-01 1.031220033764839172e-01 -2.911228537559509277e-01 1.011383458971977234e-01 8.694840222597122192e-02 -5.658494830131530762e-01 -7.934306561946868896e-02
-2.784458994865417480e-01 -9.010460227727890015e-02 -1.312799155712127686e-01 4.454557970166206360e-02 -1.259042136371135712e-02 -4.680139943957328796e-02 -6.150496751070022583e-02 2.339333295822143555e-01 -3.611611202359199524e-02 -3.803672641515731812e-02 -1.214397102594375610e-01 4.921526834368705750e-02 -1.411382704973220825e-01 1.834810227155685425e-01 -8.862990140914916992e-02 -1.110347211360931396e-01 -1.517978310585021973e-01 -1.440178602933883667e-01 5.292667075991630554e-02 1.610036641359329224e-01 -3.850276023149490356e-02 -1.034207791090011597e-01 4.858762398362159729e-02 -2.399479895830154419e-01 1.317819952964782715e-01 -9.329599142074584961e-02 -5.686845257878303528e-02 -4.105799198150634766e-01 1.605121344327926636e-01 -8.455792069435119629e-02 -2.120786532759666443e-02 1.141735762357711792e-01 -1.149973422288894653e-01 -1.300230324268341064e-01 -1.379867345094680786e-01 9.786766022443771362e-02 3.254595026373863220e-02 -2.757280506193637848e-02 2.262862920761108398e-01 -1.264331955462694168e-02 3.601720929145812988e-02 9.024802595376968384e-03 -1.893284171819686890e-01 2.750394046306610107e-01 -8.331261575222015381e-02 -1.148485541343688965e-01 4.814201593399047852e-02 -4.176105931401252747e-02 -2.609558701515197754e-01 -2.429723441600799561e-01 -1.941845118999481201e-01 -1.427388656884431839e-02 -5.369231849908828735e-02 -1.592120230197906494e-01 -1.181736066937446594e-01 -1.823247820138931274e-01 -7.067738473415374756e-02 -4.876427948474884033e-01 1.310169883072376251e-02 9.310590475797653198e-02 -1.823044419288635254e-01 -3.884816169738769531e-01 2.297930121421813965e-01 -1.595842987298965454e-01 1.736494302749633789e-01 -6.210627499967813492e-03 -1.818968169391155243e-02 -2.349404841661453247e-01 -3.935142606496810913e-02 -8.336670696735382080e-02 1.035278365015983582e-01 -4.920523464679718018e-01 -6.068861857056617737e-02 5.460634827613830566e-02 -2.174762487411499023e-01 -2.141681686043739319e-02 8.704197406768798828e-02 -1.346336901187896729e-01 2.861616201698780060e-02 3.495087102055549622e-02 1.661586463451385498e-01 1.662147231400012970e-02 -2.279659360647201538e-01 2.488743513822555542e-01 -1.957741379737854004e-01 -1.420085579156875610e-01 6.027384102344512939e-02 -3.379083871841430664e-01 1.647441834211349487e-02 -1.131149902939796448e-01 -8.131772279739379883e-03 6.419973075389862061e-02 4.666671156883239746e-02 -3.981204032897949219e-01 -2.185453474521636963e-01 1.237972155213356018e-01 -4.740571677684783936e-01 1.615331470966339111e-01 3.956922292709350586e-01 -8.899634331464767456e-02 -5.419853329658508301e-02 -2.553883492946624756e-01 -1.103219017386436462e-01 -1.244309321045875549e-01 2.921923436224460602e-02 -3.572781756520271301e-02 1.599879749119281769e-02 1.780284047126770020e-01 -4.592708647251129150e-01 -7.160721719264984131e-02 5.776340514421463013e-02 1.633619889616966248e-02 -3.475857079029083252e-01 -8.448677510023117065e-02 -5.915251374244689941e-02 -8.255103975534439087e-02 -1.852828115224838257e-01 -3.920967504382133484e-02 -3.252236843109130859e-01 2.961948215961456299e-01 -1.302502155303955078e-01 3.235603570938110352e-01 -4.161919355392456055e-01 -5.174573883414268494e-02 -3.559692122507840395e-04 3.171638846397399902e-01 1.977704614400863647e-01 -1.151664555072784424e-01
1.441750228404998779e-01 9.802940487861633301e-02 -8.178974688053131104e-02 1.442731022834777832e-01 2.922852337360382080e-01 2.881869673728942871e-01 6.648432463407516479e-03 2.547536790370941162e-01 3.066650032997131348e-01 1.970555335283279419e-01 -1.548085957765579224e-01 -2.709173858165740967e-01 -2.538061439990997314e-01 4.083038270473480225e-01 -6.333639621734619141e-01 9.369747340679168701e-02 1.890136301517486572e-01 5.108822137117385864e-02 1.907790452241897583e-01 2.751096189022064209e-01 -1.441406160593032837e-01 -2.710960805416107178e-01 1.024185940623283386e-01 -4.658544436097145081e-02 3.245614171028137207e-01 2.022157907485961914e-01 -1.884506940841674805e-01 -1.900812238454818726e-01 5.025158077478408813e-02 5.338206142187118530e-02 -2.789410352706909180e-01 -2.805108204483985901e-02 5.348673090338706970e-02 3.775783777236938477e-01 1.272429227828979492e-01 1.668848693370819092e-01 3.801097869873046875e-01 -1.127453595399856567e-01 3.798961043357849121e-01 -1.030665561556816101e-01 3.447503149509429932e-01 5.733057856559753418e-02 -2.390489280223846436e-01 1.558002978563308716e-01 -2.600442767143249512e-01 4.784253984689712524e-02 3.681452274322509766e-01 4.926715046167373657e-02 3.254181146621704102e-01 -4.037438631057739258e-01 2.021199762821197510e-01 5.358468294143676758e-01 -1.444190889596939087e-01 1.069798693060874939e-01 4.752066731452941895e-02 -1.010890305042266846e-02 5.118613690137863159e-02 1.196535304188728333e-01 6.559523195028305054e-02 1.072943657636642456e-01 -2.311318218708038330e-01 8.430149406194686890e-02 1.619332134723663330e-01 3.741435706615447998e-01 -4.460980892181396484e-01 5.404136180877685547e-01 -1.812342107295989990e-01 4.382930397987365723e-01 3.890551328659057617e-01 2.157469838857650757e-01 -2.988212406635284424e-01 -3.133234381675720215e-01 8.370287716388702393e-02 -2.794371685013175011e-03 4.407098889350891113e-02 -2.356842905282974243e-01 2.603728473186492920e-01 -1.346178352832794189e-01 -3.381999731063842773e-01 -1.215080693364143372e-01 2.979757189750671387e-01 1.145394816994667053e-01 5.902928486466407776e-02 2.077445089817047119e-01 9.949360787868499756e-02 -9.220375120639801025e-02 -3.012767732143402100e-01 1.295290142297744751e-01 -6.479539722204208374e-02 -3.372723609209060669e-02 -6.517042964696884155e-02 3.375576138496398926e-01 -6.176608055830001831e-02 2.835305333137512207e-01 -4.906041622161865234e-01 -4.294755458831787109e-01 5.221061110496520996e-01 1.013298034667968750e-01 -6.127836108207702637e-01 2.999125719070434570e-01 4.415351897478103638e-02 7.978466153144836426e-02 6.075029727071523666e-03 2.225650548934936523e-01 -2.782644927501678467e-01 2.946394681930541992e-01 -2.569482848048210144e-02 5.499809384346008301e-01 1.453123241662979126e-01 -6.515306234359741211e-02 7.971569150686264038e-02 -2.812803387641906738e-01 -1.169825717806816101e-02 1.454579979181289673e-01 1.495001316070556641e-01 -2.231716364622116089e-01 4.507298171520233154e-01 -1.278671920299530029e-01 4.849378764629364014e-01 2.134964466094970703e-01 3.888708949089050293e-01 -6.215705275535583496e-01 -7.903875783085823059e-03 -1.591779142618179321e-01 2.602439224720001221e-01 1.341013461351394653e-01 3.877446055412292480e-01 1.038614064455032349e-01
3.306016623973846436e-01 -2.291094809770584106e-01 -1.978427320718765259e-01 6.719424389302730560e-03 -1.383571922779083252e-01 -4.527339339256286621e-01 -3.860678672790527344e-01 -1.558105498552322388e-01 -4.259749650955200195e-01 -2.417206764221191406e-01 -7.227665185928344727e-02 -1.275391597300767899e-02 1.751694232225418091e-01 -3.965763449668884277e-01 3.615844249725341797e-01 -1.493775099515914917e-02 -1.404991298913955688e-01 3.354929685592651367e-01 8.892475813627243042e-02 2.838300913572311401e-02 2.776650488376617432e-01 4.325733780860900879e-01 8.434931933879852295e-02 -8.775984495878219604e-02 -2.655833065509796143e-01 -1.138150915503501892e-01 -5.943256616592407227e-02 -1.202560737729072571e-01 2.277050167322158813e-01 8.779739029705524445e-03 -3.917346000671386719e-01 -1.400721073150634766e-01 1.237397044897079468e-01 1.040500700473785400e-01 -2.635962665081024170e-01 -1.750200241804122925e-01 1.493328064680099487e-01 5.698206275701522827e-02 -3.245928883552551270e-01 9.809060394763946533e-02 -3.070081174373626709e-01 1.110952347517013550e-01 -6.587823480367660522e-02 1.121736615896224976e-01 -1.055930852890014648e-01 2.310034185647964478e-01 -1.541094779968261719e-01 2.454161942005157471e-01 -1.787645518779754639e-01 -3.243108093738555908e-01 6.546842306852340698e-02 4.570013284683227539e-02 -4.283761382102966309e-01 -9.375736117362976074e-02 -1.060621589422225952e-01 -5.331758260726928711e-01 2.228792458772659302e-01 7.982243597507476807e-02 -6.547400355339050293e-02 -2.716512680053710938e-01 -1.437727212905883789e-01 1.122700423002243042e-01 1.519453525543212891e-01 3.804178237915039062e-01 6.392847001552581787e-02 -5.598714947700500488e-01 -8.144204318523406982e-02 7.331049442291259766e-02 8.759675920009613037e-02 -2.124187797307968140e-01 3.318090457469224930e-03 2.902396321296691895e-01 -5.894349142909049988e-02 2.758287787437438965e-01 2.518801987171173096e-01 3.854056596755981445e-01 1.838877424597740173e-02 1.941723078489303589e-01 1.815460324287414551e-01 -5.853207781910896301e-02 -2.228957265615463257e-01 -1.346219927072525024e-01 -1.514738947153091431e-01 -6.958962976932525635e-02 1.573934704065322876e-01 -4.123865813016891479e-02 -1.702417433261871338e-01 -2.803869545459747314e-01 6.969568878412246704e-02 3.498667180538177490e-01 1.865768581628799438e-01 2.338254600763320923e-01 6.947260349988937378e-03 -2.238711267709732056e-01 1.818351000547409058e-01 -8.382031321525573730e-02 -7.241778969764709473e-01 9.197866171598434448e-02 -4.400212168693542480e-01 -3.760093748569488525e-01 -3.962465524673461914e-01 1.733112931251525879e-01 -3.661433160305023193e-01 -1.551390141248703003e-01 -2.002396285533905029e-01 1.439693123102188110e-01 -3.725855052471160889e-02 -9.800770319998264313e-03 -3.520331978797912598e-01 8.442065864801406860e-02 -7.154840975999832153e-02 -3.098837472498416901e-02 -5.078346654772758484e-02 -4.624767974019050598e-02 6.196757778525352478e-02 5.795066431164741516e-02 -9.218840301036834717e-02 5.971707403659820557e-02 1.162938997149467468e-01 -6.228567287325859070e-02 1.050759330391883850e-01 4.035023972392082214e-02 2.812207937240600586e-01 2.194801159203052521e-02 -2.323423475027084351e-01 7.027942687273025513e-02 2.478153705596923828e-01 -1.601732335984706879e-02
1.845203638076782227e-01 -2.191137820482254028e-01 8.167545497417449951e-02 -2.647328078746795654e-01 4.485152065753936768e-01 3.503319323062896729e-01 1.917639821767807007e-01 1.458542048931121826e-01 -4.741379525512456894e-03 2.501719594001770020e-01 -9.639699012041091919e-02 3.221229016780853271e-01 2.747163772583007812e-01 2.607111632823944092e-01 3.741013407707214355e-01 -1.214774847030639648e-01 -1.518865674734115601e-01 -2.691208422183990479e-01 -5.017716437578201294e-02 1.869046688079833984e-01 3.458975553512573242e-01 -5.512185022234916687e-02 1.039218604564666748e-01 -2.576400041580200195e-01 -2.836951315402984619e-01 1.410595923662185669e-01 -2.375524640083312988e-01 -1.657971143722534180e-01 -4.493424668908119202e-02 1.406664252281188965e-01 1.785321533679962158e-01 5.059524625539779663e-02 2.059522420167922974e-01 -1.412049829959869385e-01 2.349494695663452148e-01 3.232520818710327148e-01 -4.978149533271789551e-01 -3.717896640300750732e-01 -1.467766612768173218e-02 -1.801616847515106201e-01 2.386705130338668823e-01 3.045354783535003662e-02 3.451927602291107178e-01 3.417251408100128174e-01 1.564350128173828125e-01 1.371470689773559570e-01 -5.971964076161384583e-02 4.243682622909545898e-01 -1.634873300790786743e-01 -2.589681148529052734e-01 5.777836591005325317e-02 1.193823814392089844e-01 -2.172417491674423218e-01 2.660351991653442383e-01 -2.432489246129989624e-01 -5.948528647422790527e-03 3.341876342892646790e-02 1.364609450101852417e-01 -1.341232210397720337e-01 3.593976497650146484e-01 1.039183288812637329e-01 -2.393345348536968231e-03 -6.051437929272651672e-02 9.542419761419296265e-02 -2.511337026953697205e-02 -2.794701457023620605e-01 9.092459082603454590e-02 -7.820237427949905396e-02 1.650133281946182251e-01 -1.395545899868011475e-01 3.660842776298522949e-01 1.035498678684234619e-01 9.711527824401855469e-02 -5.989423394203186035e-02 1.759776026010513306e-01 2.120528668165206909e-01 -4.311615526676177979e-01 5.332460254430770874e-02 3.098863959312438965e-01 -8.835616707801818848e-02 5.571146309375762939e-02 8.349527418613433838e-02 1.960449665784835815e-01 -2.046293914318084717e-01 1.945044100284576416e-01 6.488863378763198853e-02 2.093089222908020020e-01 3.422988951206207275e-01 1.049988046288490295e-01 -9.335934370756149292e-02 -4.063301086425781250e-01 -3.896816447377204895e-02 2.457604110240936279e-01 3.892232105135917664e-02 2.281050831079483032e-01 -8.020700514316558838e-02 6.168196722865104675e-02 -2.405408471822738647e-01 -1.636089384555816650e-01 -1.480251103639602661e-01 -1.874068677425384521e-01 -2.975992262363433838e-01 -1.102632954716682434e-01 -2.762166559696197510e-01 -9.114582836627960205e-02 -2.882184982299804688e-01 4.245682656764984131e-01 3.659151792526245117e-01 -2.390169054269790649e-01 4.264805912971496582e-01 3.464202582836151123e-01 1.699174493551254272e-01 2.073914855718612671e-01 4.801771789789199829e-02 4.022491872310638428e-01 9.322596341371536255e-02 -8.645670115947723389e-02 1.996818482875823975e-01 3.410346508026123047e-01 1.007693782448768616e-01 3.704046905040740967e-01 -2.355081290006637573e-01 1.697829961776733398e-01 -2.956360876560211182e-01 3.233395982533693314e-03 -3.133127987384796143e-01 -2.683376371860504150e-01 6.506942212581634521e-02
-3.884999752044677734e-01 1.363779157400131226e-01 -5.395405739545822144e-02 4.511371850967407227e-01 3.580382764339447021e-01 1.090208962559700012e-01 6.981146335601806641e-02 1.250193454325199127e-03 -2.012970149517059326e-01 5.976898968219757080e-02 -8.345871232450008392e-03 -2.344347983598709106e-01 2.156090289354324341e-01 4.241081885993480682e-03 -3.162563741207122803e-01 -2.165620177984237671e-01 -3.254331275820732117e-02 -4.310018420219421387e-01 -1.091677099466323853e-01 -1.648280918598175049e-01 9.646435827016830444e-02 -8.513963222503662109e-02 -2.283976376056671143e-01 -6.598526984453201294e-02 -1.059076488018035889e-01 1.092186942696571350e-01 -9.729042649269104004e-02 5.085907876491546631e-02 -1.281003840267658234e-02 1.663167327642440796e-01 -2.536639571189880371e-02 -3.662961125373840332e-01 -1.797041296958923340e-01 -5.981412529945373535e-02 -1.680090129375457764e-01 2.635134384036064148e-02 -2.907853424549102783e-01 1.057621836662292480e-01 1.308144181966781616e-01 1.308686286211013794e-01 6.616453826427459717e-02 -2.680794000625610352e-01 -1.152043137699365616e-02 -8.360765129327774048e-02 8.920852839946746826e-02 1.883085221052169800e-01 -2.201705425977706909e-02 -2.385512925684452057e-02 8.101890981197357178e-02 -5.770337209105491638e-02 -1.751027703285217285e-01 -7.321428507566452026e-02 2.518263161182403564e-01 -1.111475378274917603e-02 5.520113930106163025e-02 1.167812123894691467e-01 -1.861388087272644043e-01 1.731116324663162231e-01 -1.035554260015487671e-01 4.539263248443603516e-02 1.165380552411079407e-01 1.824491620063781738e-01 -3.599211946129798889e-02 -3.295547664165496826e-01 -2.407899349927902222e-01 4.726480245590209961e-01 1.080749556422233582e-01 3.736165165901184082e-02 1.538938283920288086e-01 2.318701446056365967e-01 -2.799900472164154053e-01 2.503826916217803955e-01 4.705686494708061218e-02 2.533237040042877197e-01 4.574032127857208252e-02 -9.007412195205688477e-02 -9.643599390983581543e-03 -3.265104070305824280e-02 4.216326028108596802e-02 -3.212727606296539307e-01 -1.050400584936141968e-01 1.518336236476898193e-01 -7.724482566118240356e-02 -1.865918487310409546e-01 2.872566878795623779e-02 -3.640064597129821777e-01 1.686234027147293091e-01 -4.073854386806488037e-01 -8.312691003084182739e-03 1.210048347711563110e-01 -1.413138955831527710e-01 -8.241862058639526367e-02 -6.222770735621452332e-02 1.737455464899539948e-02 -6.642863899469375610e-02 -7.287483811378479004e-01 2.335273176431655884e-01 -1.849305033683776855e-01 -6.559072434902191162e-02 -8.492735214531421661e-03 7.696833461523056030e-02 -1.598686724901199341e-01 4.865488782525062561e-02 1.943906769156455994e-02 -2.214395552873611450e-01 -9.405972808599472046e-02 1.596233993768692017e-01 1.824948489665985107e-01 -2.060814201831817627e-01 -2.093223184347152710e-01 -4.293930530548095703e-01 -8.737911283969879150e-02 2.673022449016571045e-01 -5.208123847842216492e-02 -2.314493805170059204e-01 3.210237249732017517e-02 1.145477518439292908e-01 2.762787342071533203e-01 2.130118459463119507e-01 2.980262637138366699e-01 2.940155565738677979e-01 -3.176699876785278320e-01 -2.521098852157592773e-01 -3.537589609622955322e-01 -2.782579660415649414e-01 1.293339729309082031e-01 -1.815582811832427979e-01 3.545442828908562660e-03
-4.008843600749969482e-01 7.334834337234497070e-02 1.263582110404968262e-01 -3.822517022490501404e-02 -1.483937352895736694e-01 -1.550917625427246094e-01 -8.681847900152206421e-02 -2.195150405168533325e-01 1.479242295026779175e-01 6.103884056210517883e-02 -3.739736676216125488e-01 -4.052112102508544922e-01 -4.912040233612060547e-01 -2.519267611205577850e-02 -3.192137181758880615e-02 1.692866384983062744e-01 -2.192519605159759521e-01 1.536581218242645264e-01 -1.283197849988937378e-01 2.666258811950683594e-02 -1.796200424432754517e-01 2.346212714910507202e-01 -1.107584685087203979e-02 -1.019204035401344299e-01 5.038543045520782471e-02 -2.474622726440429688e-01 2.225625813007354736e-01 -5.024063587188720703e-02 -1.299459338188171387e-01 -4.682618379592895508e-02 2.067736536264419556e-01 1.473606079816818237e-01 -1.116767227649688721e-01 -1.442504376173019409e-01 1.729618906974792480e-01 8.915905654430389404e-02 9.055391699075698853e-02 -1.099637225270271301e-01 -2.677145004272460938e-01 2.015941292047500610e-01 -4.302491843700408936e-01 -4.096978604793548584e-01 7.666473835706710815e-02 1.730510890483856201e-01 -1.624722629785537720e-01 -4.733427893370389938e-03 6.450695544481277466e-02 -2.009998559951782227e-01 1.735307425260543823e-01 -2.311693504452705383e-03 -2.178633362054824829e-01 -4.025037288665771484e-01 -9.922911524772644043e-01 -3.760780692100524902e-01 -1.229702755808830261e-01 6.476821750402450562e-02 -1.610818803310394287e-01 -1.075461357831954956e-01 2.801069021224975586e-01 -3.083886802196502686e-01 -3.161986768245697021e-01 -1.898546814918518066e-01 -5.787786096334457397e-02 -4.671501815319061279e-01 -3.003338575363159180e-01 1.597930938005447388e-01 6.369511038064956665e-02 -1.068274974822998047e-01 -1.392198204994201660e-01 -3.327425569295883179e-02 3.059281110763549805e-01 -2.204955816268920898e-01 2.497941628098487854e-02 -1.220265850424766541e-01 2.617498338222503662e-01 4.489152878522872925e-02 -3.458161354064941406e-01 4.848410561680793762e-02 -1.236695051193237305e-01 -3.215891420841217041e-01 1.062009334564208984e-01 2.561229281127452850e-02 -2.475561387836933136e-02 1.272932738065719604e-01 1.389331668615341187e-01 -3.980839625000953674e-02 2.134397923946380615e-01 2.071994990110397339e-01 -4.548654854297637939e-01 2.813008800148963928e-02 -1.742941886186599731e-01 1.472370978444814682e-02 1.305881440639495850e-01 -1.856145411729812622e-01 -2.553713321685791016e-01 -3.455921709537506104e-01 7.236867398023605347e-02 7.885594666004180908e-02 -1.240421608090400696e-01 1.105492096394300461e-02 2.259083092212677002e-02 -2.838551104068756104e-01 1.581285595893859863e-01 -1.663817465305328369e-01 -5.117241740226745605e-01 8.230945467948913574e-02 1.051298752427101135e-01 -1.455902308225631714e-01 -2.105426937341690063e-01 -2.567799389362335205e-01 1.889278739690780640e-01 1.867598891258239746e-01 -4.270657002925872803e-01 1.791588515043258667e-01 1.325103342533111572e-01 -1.304267346858978271e-01 -1.089309528470039368e-02 -4.350495934486389160e-01 -1.315564811229705811e-01 1.229039952158927917e-02 -6.021957844495773315e-02 1.651970744132995605e-01 -4.008433520793914795e-01 2.587113082408905029e-01 1.004041582345962524e-01 -4.258727654814720154e-03 -8.661913871765136719e-02 3.799412027001380920e-02
-2.020201385021209717e-01 -4.932169243693351746e-02 4.443249851465225220e-02 -1.882358628790825605e-04 -2.859393954277038574e-01 -2.335477620363235474e-02 4.849313944578170776e-02 2.076452374458312988e-01 -2.135304659605026245e-01 1.389218308031558990e-02 2.954752147197723389e-01 -4.882353842258453369e-01 -9.633124619722366333e-02 6.418772041797637939e-02 -7.753639817237854004e-01 -2.152319401502609253e-01 -1.368673592805862427e-01 -3.119285404682159424e-01 1.918231397867202759e-01 -8.080615103244781494e-02 2.400612831115722656e-01 -6.066791713237762451e-02 -3.765656352043151855e-01 -1.828307658433914185e-01 1.724549941718578339e-02 -5.482720956206321716e-02 -1.614365279674530029e-01 1.689306832849979401e-02 -9.587423875927925110e-03 9.604322910308837891e-02 -3.547380268573760986e-01 -3.050659000873565674e-01 1.730841994285583496e-01 -1.383184790611267090e-01 3.781055286526679993e-02 1.429613679647445679e-01 8.391380310058593750e-02 -6.000126898288726807e-02 7.569096237421035767e-02 -5.414530262351036072e-02 9.364289790391921997e-02 1.075429096817970276e-01 -3.379159569740295410e-01 -6.768135726451873779e-02 -4.832252860069274902e-02 1.614865064620971680e-01 -9.878587909042835236e-03 -7.010346651077270508e-02 2.891825735569000244e-01 1.767491847276687622e-01 -6.667815893888473511e-02 -7.176840305328369141e-02 3.636987805366516113e-01 1.949329376220703125e-01 1.063835695385932922e-01 4.967603459954261780e-02 -2.804065356031060219e-03 6.562292575836181641e-02 1.122578531503677368e-01 8.041393011808395386e-02 -1.364861521869897842e-02 1.202184706926345825e-01 1.396587193012237549e-01 -3.671994507312774658e-01 1.505324542522430420e-01 -1.286580562591552734e-01 -6.481334567070007324e-02 -6.665281951427459717e-02 9.024792164564132690e-02 1.012195423245429993e-01 -2.539115212857723236e-02 -2.504624724388122559e-01 -7.031086832284927368e-02 -2.624820768833160400e-01 5.699579045176506042e-02 -3.082940578460693359e-01 9.924159198999404907e-02 9.009999036788940430e-02 -1.753741055727005005e-01 2.989873290061950684e-02 5.316665023565292358e-02 9.544435888528823853e-02 -1.712267100811004639e-01 1.016847789287567139e-01 -5.634635090827941895e-01 -1.083733439445495605e-01 -6.889794021844863892e-02 -3.807218670845031738e-01 -2.275478690862655640e-01 -8.643037825822830200e-02 1.309268325567245483e-01 8.268266916275024414e-02 -1.864488869905471802e-01 1.430843491107225418e-02 -9.976394474506378174e-02 6.695516407489776611e-02 -5.381686091423034668e-01 1.603746116161346436e-01 -3.445528075098991394e-02 -1.727133393287658691e-01 4.333192855119705200e-02 -1.902598291635513306e-01 -1.556297838687896729e-01 -1.789979487657546997e-01 -2.282514423131942749e-01 8.799988031387329102e-02 -3.376517891883850098e-01 -2.256816029548645020e-01 9.561815112829208374e-02 1.487720459699630737e-01 1.244361400604248047e-01 -4.268252551555633545e-01 1.163626611232757568e-01 -5.536336898803710938e-01 4.770896583795547485e-02 1.276641786098480225e-01 -3.486270308494567871e-01 2.564581483602523804e-02 1.989468932151794434e-01 -6.557551026344299316e-02 1.248549222946166992e-01 -2.237176448106765747e-01 -2.890345752239227295e-01 -9.822983294725418091e-02 -1.610781848430633545e-01 1.887719705700874329e-02 1.748126596212387085e-01 6.595634669065475464e-02
-2.978148162364959717e-01 1.532848328351974487e-01 -5.335012078285217285e-01 2.630808763206005096e-02 1.066443175077438354e-01 -8.248216658830642700e-02 -3.629137277603149414e-01 -9.031484276056289673e-02 -3.845436275005340576e-01 1.374436821788549423e-02 1.472868025302886963e-01 1.146171614527702332e-01 -5.390917062759399414e-01 -7.382750511169433594e-02 -2.516187727451324463e-02 -5.601805448532104492e-01 -2.064648568630218506e-01 -1.233668252825737000e-01 -6.992214173078536987e-02 4.454187676310539246e-02 -2.698340266942977905e-02 -2.891956567764282227e-01 -1.495379805564880371e-01 6.948368251323699951e-02 5.850112996995449066e-03 -1.703990548849105835e-01 9.151207283139228821e-03 -2.034383267164230347e-02 -8.791563659906387329e-02 -3.174687176942825317e-02 3.023170307278633118e-02 1.468662470579147339e-01 -2.045399509370326996e-02 2.107132971286773682e-01 -1.828019022941589355e-01 7.249492406845092773e-02 1.389760076999664307e-01 -3.486570715904235840e-01 7.765984535217285156e-02 2.043056637048721313e-01 -1.659532450139522552e-02 -1.662475466728210449e-01 2.157118469476699829e-01 8.798328228294849396e-03 -5.702045932412147522e-02 -6.901949644088745117e-02 -1.121126264333724976e-01 -1.092929020524024963e-01 3.904525190591812134e-02 1.070841625332832336e-01 1.697613149881362915e-01 -1.609262377023696899e-01 -1.514559388160705566e-01 -2.416769973933696747e-02 1.524803787469863892e-01 -1.101226061582565308e-01 -1.164825707674026489e-01 -3.746641799807548523e-03 9.535206854343414307e-02 -1.455183476209640503e-01 -5.140999797731637955e-03 -1.268039643764495850e-01 -1.575507782399654388e-02 -1.752373874187469482e-01 -7.722992449998855591e-02 -2.914057672023773193e-01 -2.048408687114715576e-01 -5.431571230292320251e-02 -1.823710091412067413e-02 1.210702862590551376e-02 -2.013705112040042877e-02 -1.834222227334976196e-01 3.869017586112022400e-02 2.120737731456756592e-01 1.585725396871566772e-01 -3.987579047679901123e-01 -1.103474125266075134e-01 -1.119721084833145142e-01 1.165936142206192017e-01 -3.919635713100433350e-02 -1.716896332800388336e-02 -7.468579709529876709e-02 -3.083198666572570801e-01 2.722361981868743896e-01 6.897940300405025482e-03 5.642952397465705872e-02 -4.362852871417999268e-02 -5.488218665122985840e-01 1.011226549744606018e-01 -2.713323011994361877e-02 1.212364062666893005e-01 5.085784196853637695e-02 2.653048038482666016e-01 -2.427165210247039795e-01 -4.488715827465057373e-01 -2.832748293876647949e-01 -4.462520480155944824e-01 1.161938980221748352e-01 -1.171233505010604858e-01 -6.296818703413009644e-02 -3.089710175991058350e-01 2.058882564306259155e-01 -2.031709998846054077e-01 -3.541553616523742676e-01 1.440877914428710938e-01 1.015893593430519104e-01 -2.305135130882263184e-03 -1.769984886050224304e-02 -1.378101110458374023e-01 -2.215905673801898956e-02 1.244572550058364868e-01 1.529510319232940674e-02 1.086597666144371033e-01 -4.040171504020690918e-01 8.791211061179637909e-03 9.139883518218994141e-02 9.227035194635391235e-02 2.699812054634094238e-01 -1.437368541955947876e-01 3.522409126162528992e-02 -9.108435362577438354e-03 -5.314974114298820496e-02 -1.794966459274291992e-01 -2.482494413852691650e-01 9.119511395692825317e-02 6.319021806120872498e-03 6.827319040894508362e-03 -3.147788718342781067e-02
-2.201243638992309570e-01 1.120877116918563843e-01 -1.320089995861053467e-01 2.599496543407440186e-01 1.387375444173812866e-01 -3.797153830528259277e-01 -4.175426661968231201e-01 2.867966294288635254e-01 -1.966833621263504028e-01 7.205540686845779419e-02 -3.052593469619750977e-01 -4.089842438697814941e-01 1.082257032394409180e-01 6.543102860450744629e-02 -6.062641739845275879e-02 -3.900028765201568604e-02 -1.029042005538940430e-01 -2.784492671489715576e-01 1.918643563985824585e-01 -2.247830331325531006e-01 -1.356369853019714355e-01 -2.120666652917861938e-01 -3.541178628802299500e-02 -1.025029048323631287e-01 7.067425549030303955e-02 -2.783848941326141357e-01 -3.658715486526489258e-01 4.620948806405067444e-02 2.814395353198051453e-02 -5.980287864804267883e-02 -3.277817741036415100e-02 -5.841315165162086487e-02 3.551869988441467285e-01 -1.110174208879470825e-01 -1.273651421070098877e-01 -3.329620510339736938e-02 8.112414740025997162e-03 1.476940349675714970e-03 -4.223783686757087708e-02 -2.106890827417373657e-02 -5.983692407608032227e-01 -6.527729332447052002e-02 8.857222646474838257e-02 -1.907138675451278687e-01 -3.006235361099243164e-01 -3.042121417820453644e-02 -1.314034163951873779e-01 3.390395268797874451e-02 7.172942161560058594e-02 -1.157527789473533630e-01 1.888993941247463226e-02 -6.878653913736343384e-02 -9.486889466643333435e-03 -1.903725713491439819e-01 3.304113075137138367e-02 -5.396699532866477966e-02 1.334097683429718018e-01 -2.859380543231964111e-01 2.141276001930236816e-02 6.229502707719802856e-02 -2.574311792850494385e-01 -2.447782009840011597e-01 5.979305505752563477e-02 -4.051466286182403564e-01 9.366740286350250244e-02 -5.326344966888427734e-01 -1.418355405330657959e-01 -4.341247677803039551e-01 -2.429299801588058472e-02 -4.838851094245910645e-02 -3.944339230656623840e-02 3.101712651550769806e-02 7.598819583654403687e-02 -1.565531641244888306e-02 -1.113338917493820190e-01 -1.020400971174240112e-01 4.331796243786811829e-02 -4.699879884719848633e-01 1.829079538583755493e-01 2.671727538108825684e-01 9.810005128383636475e-02 -7.272518426179885864e-02 -1.247492358088493347e-01 1.255922615528106689e-01 -2.168198376893997192e-01 -3.157823681831359863e-01 -1.385504286736249924e-02 -5.640470236539840698e-02 1.084356904029846191e-01 -1.255150288343429565e-01 7.922071032226085663e-03 -4.269284307956695557e-01 -3.327948451042175293e-01 -2.337720245122909546e-01 -1.329571381211280823e-02 -3.648146241903305054e-02 -4.649488627910614014e-01 -1.554440408945083618e-01 -6.720367074012756348e-02 -2.764359712600708008e-01 -6.350620985031127930e-01 1.701665371656417847e-01 3.393193334341049194e-02 -1.038363054394721985e-01 -6.662725657224655151e-02 -9.411662071943283081e-02 8.462847024202346802e-02 4.429059103131294250e-02 -3.484649062156677246e-01 -7.059007883071899414e-02 -2.405551820993423462e-02 1.562490761280059814e-01 1.971154473721981049e-02 -3.820836842060089111e-01 2.406906932592391968e-01 -3.032934963703155518e-01 -3.299265801906585693e-01 -2.752154469490051270e-01 -3.906723111867904663e-02 -2.188156694173812866e-01 2.272365987300872803e-02 -2.480146288871765137e-02 -3.067253828048706055e-01 7.341420743614435196e-03 8.875882253050804138e-03 -1.659757830202579498e-02 9.571717237122356892e-04 -1.964511871337890625e-01
4.200362786650657654e-02 1.473515927791595459e-01 7.385412603616714478e-02 -1.365161389112472534e-01 7.894533872604370117e-02 6.079404801130294800e-02 2.402806654572486877e-03 2.825635671615600586e-02 -4.624880254268646240e-01 3.792949393391609192e-02 6.552261859178543091e-02 -4.073882475495338440e-02 -2.258456945419311523e-01 -4.220118522644042969e-01 -1.565326154232025146e-01 -1.945901066064834595e-01 -1.812136471271514893e-01 -2.055711895227432251e-01 -3.355267643928527832e-02 -1.871799826622009277e-01 -2.636480033397674561e-01 3.507559746503829956e-02 6.243022531270980835e-02 -5.650795996189117432e-02 -7.465848326683044434e-02 -6.996178627014160156e-02 -2.315828800201416016e-01 -3.163874447345733643e-01 -8.784097433090209961e-02 -3.071720525622367859e-02 -1.285783201456069946e-01 6.312748044729232788e-02 -1.200101524591445923e-01 -5.195336341857910156e-01 -2.267870455980300903e-01 2.870932221412658691e-01 2.265918767079710960e-03 -6.960462033748626709e-02 -1.357053816318511963e-01 -5.766141414642333984e-02 -1.972252503037452698e-02 4.195820093154907227e-01 -4.268895089626312256e-01 -1.679219454526901245e-01 1.595892459154129028e-01 1.146771479398012161e-02 -4.679481312632560730e-02 1.035146564245223999e-01 -2.905589342117309570e-02 -1.042519975453615189e-02 1.706360280513763428e-01 -1.018932014703750610e-01 -3.041426539421081543e-01 2.394368201494216919e-01 1.485525723546743393e-02 2.395626716315746307e-02 3.645594045519828796e-02 1.887450218200683594e-01 -3.631704300642013550e-02 -1.193077340722084045e-01 8.112806081771850586e-02 -2.819917201995849609e-01 -6.554488837718963623e-02 -1.707342416048049927e-01 -2.476730048656463623e-01 1.088712085038423538e-02 -4.293070361018180847e-02 1.022220402956008911e-01 -1.707397401332855225e-01 -1.022653505206108093e-01 -1.698557585477828979e-01 -4.153013825416564941e-01 -9.842645376920700073e-03 2.103898115456104279e-02 4.485730454325675964e-02 -3.058893680572509766e-01 8.518473803997039795e-02 -1.045434474945068359e-01 -1.780868172645568848e-01 -2.043072730302810669e-01 7.694075256586074829e-02 -2.609761990606784821e-02 -9.905517799779772758e-04 3.662023693323135376e-02 -1.195959225296974182e-01 -1.464828401803970337e-01 -7.201697677373886108e-02 -1.448625326156616211e-01 -1.321559995412826538e-01 -2.306728810071945190e-01 -3.554957732558250427e-02 3.134565651416778564e-01 -1.384613215923309326e-01 -1.696097254753112793e-01 -6.961105763912200928e-02 6.299776583909988403e-02 1.664160490036010742e-01 1.243256554007530212e-01 -1.986319273710250854e-01 -8.352925628423690796e-02 -3.739206120371818542e-03 -6.497528403997421265e-02 -7.046698033809661865e-02 -6.059536710381507874e-02 -3.295700550079345703e-01 -5.810354277491569519e-02 1.053972467780113220e-01 -3.982110321521759033e-02 2.320083230733871460e-01 -2.867004275321960449e-01 4.998349770903587341e-02 1.130794510245323181e-01 1.448057889938354492e-01 -2.398529648780822754e-02 1.216021925210952759e-02 -1.849263720214366913e-02 -1.244921460747718811e-01 -1.128766238689422607e-01 7.865351438522338867e-02 -1.416707336902618408e-01 -6.836054474115371704e-02 -1.612219959497451782e-01 4.962184280157089233e-02 2.824553251266479492e-01 7.564886659383773804e-02 -1.652496866881847382e-02 5.095458403229713440e-02 -4.377727806568145752e-01
-1.340544074773788452e-01 -1.823323816061019897e-01 9.187584370374679565e-02 -2.027786672115325928e-01 -9.816131740808486938e-02 8.790764957666397095e-02 -1.814301908016204834e-01 1.963048242032527924e-02 -9.760060906410217285e-02 1.895376667380332947e-02 -1.904223859310150146e-01 -3.101686239242553711e-01 -2.511332929134368896e-01 1.047113165259361267e-01 -5.242590308189392090e-01 -2.594232857227325439e-01 1.299309730529785156e-01 -7.932987809181213379e-02 -5.086046829819679260e-02 -8.903755992650985718e-02 -2.747678756713867188e-01 1.214586421847343445e-01 1.132206767797470093e-01 8.366092294454574585e-02 2.412107139825820923e-01 1.240338087081909180e-01 1.298049557954072952e-02 -2.569436281919479370e-02 2.979543805122375488e-01 -1.428563445806503296e-01 -1.051741465926170349e-01 -3.209442794322967529e-01 -1.429402530193328857e-01 -3.925646245479583740e-01 -5.695011839270591736e-02 -1.219808533787727356e-01 1.266754269599914551e-01 2.993459254503250122e-02 -5.641322955489158630e-02 -2.559198141098022461e-01 -7.026201486587524414e-02 4.819798469543457031e-02 -3.352588117122650146e-01 2.089295238256454468e-01 1.569918543100357056e-01 9.202802181243896484e-02 1.574754416942596436e-01 -2.802607715129852295e-01 -3.116379491984844208e-02 -9.902109950780868530e-02 5.924851074814796448e-02 9.748990833759307861e-02 1.475554984062910080e-02 2.148827165365219116e-02 -2.241122163832187653e-02 9.489014744758605957e-02 1.187044903635978699e-01 5.643527954816818237e-02 2.658824920654296875e-01 6.445995718240737915e-02 -4.757248461246490479e-01 -3.597465455532073975e-01 -2.251011580228805542e-01 -1.788245737552642822e-01 -2.084077000617980957e-01 -4.702402651309967041e-02 -2.406129539012908936e-01 -8.944689482450485229e-02 2.404361367225646973e-01 -1.662252992391586304e-01 -9.935894608497619629e-02 -2.456076145172119141e-01 -2.521008849143981934e-01 -1.108706444501876831e-01 -2.732900083065032959e-01 -3.264893293380737305e-01 -1.254867315292358398e-01 5.138682946562767029e-02 -2.755019366741180420e-01 2.020333260297775269e-01 -1.052807345986366272e-01 -1.075753420591354370e-01 -4.496502876281738281e-02 7.109006494283676147e-02 -1.487867720425128937e-02 -2.758474051952362061e-01 -4.376053214073181152e-01 -4.094911515712738037e-01 -2.995655126869678497e-02 -1.718304678797721863e-02 -4.168375581502914429e-02 3.543734252452850342e-01 -1.696165949106216431e-01 -2.735217213630676270e-01 1.429409980773925781e-01 -2.474157065153121948e-01 -6.197330355644226074e-01 9.068656712770462036e-02 -3.212733194231987000e-02 -1.049395650625228882e-01 -5.229008793830871582e-01 5.115283280611038208e-02 -8.042945712804794312e-02 8.645056746900081635e-03 -5.759602412581443787e-02 1.104977801442146301e-01 -4.625499993562698364e-02 -2.595605552196502686e-01 2.417897246778011322e-02 -5.248303338885307312e-02 3.871161118149757385e-02 6.307931244373321533e-02 1.283071637153625488e-01 -6.070024147629737854e-02 -1.355880592018365860e-02 1.176692396402359009e-01 -1.180210858583450317e-01 -2.257139682769775391e-01 -1.270699501037597656e-01 8.048028685152530670e-03 -9.628425538539886475e-02 -7.413370907306671143e-02 -4.941927492618560791e-01 -4.905168712139129639e-02 -2.607327699661254883e-01 4.560422152280807495e-02 2.203238904476165771e-01 -1.201828271150588989e-01
-2.342549860477447510e-01 1.975111663341522217e-02 2.021567523479461670e-02 1.415485739707946777e-01 1.018349826335906982e-01 1.822116822004318237e-01 -8.528012782335281372e-02 3.680090606212615967e-02 9.411132335662841797e-02 5.813878029584884644e-02 4.642803221940994263e-02 -6.214243918657302856e-02 -3.075026907026767731e-02 -1.773231476545333862e-01 1.221953257918357849e-01 -1.106147170066833496e-01 7.655327022075653076e-02 -1.206784471869468689e-01 -1.675394475460052490e-01 3.209997117519378662e-01 -9.469401091337203979e-02 -6.544390320777893066e-02 1.210689265280961990e-02 -1.602684147655963898e-02 -7.210834324359893799e-02 -1.114244014024734497e-02 2.292322218418121338e-01 -4.914926365017890930e-02 -2.085119932889938354e-01 2.668545022606849670e-02 -3.058310132473707199e-03 -1.447323560714721680e-01 -1.530984342098236084e-01 -5.324721708893775940e-02 -5.588401481509208679e-02 -7.725789397954940796e-02 -1.540011260658502579e-02 -1.203407794237136841e-01 -1.710864156484603882e-02 8.704026788473129272e-02 1.566715771332383156e-03 2.151740193367004395e-01 -1.210200041532516479e-01 -5.783277750015258789e-02 -4.150041565299034119e-02 -4.502627253532409668e-02 4.106960073113441467e-02 3.036974668502807617e-01 -1.490401476621627808e-01 3.070380911231040955e-02 -1.734316796064376831e-01 -4.369904287159442902e-03 1.128036156296730042e-01 1.893321871757507324e-01 1.058061048388481140e-01 -1.410096734762191772e-01 -1.351263094693422318e-02 -2.193504385650157928e-02 -2.393043190240859985e-01 -1.726596057415008545e-02 4.246266931295394897e-02 -9.183844178915023804e-02 2.058401107788085938e-01 -4.503404796123504639e-01 -8.710086345672607422e-02 1.011239439249038696e-01 5.438299104571342468e-02 -5.753649398684501648e-02 -1.130323782563209534e-01 -1.658163517713546753e-01 -5.695169046521186829e-02 -2.318794131278991699e-01 1.906284838914871216e-01 1.727190464735031128e-01 -3.212158679962158203e-01 -6.560601592063903809e-01 3.284353911876678467e-01 1.154047846794128418e-01 1.411417424678802490e-01 -5.049107074737548828e-01 -2.240791767835617065e-01 -2.036243826150894165e-01 1.053002849221229553e-02 -2.253179103136062622e-01 -6.155594438314437866e-02 -6.731723994016647339e-02 5.518999323248863220e-02 2.170025706291198730e-01 -1.023127362132072449e-01 -3.647515922784805298e-02 3.769636154174804688e-01 1.870387606322765350e-02 -2.434945106506347656e-01 5.226475372910499573e-02 -1.969379372894763947e-02 -3.686420321464538574e-01 1.526097953319549561e-01 2.771510481834411621e-01 -3.919116854667663574e-01 1.462419778108596802e-01 8.801342919468879700e-03 5.485966103151440620e-04 -2.085816562175750732e-01 -5.465055815875530243e-03 -2.646726369857788086e-01 -1.590241640806198120e-01 6.979905068874359131e-02 1.894486397504806519e-01 1.301992684602737427e-01 -4.949712753295898438e-01 -7.365504652261734009e-02 5.122118163853883743e-03 1.352201849222183228e-01 9.240532666444778442e-02 -5.503007769584655762e-02 1.531833261251449585e-01 -1.766792684793472290e-01 2.084031850099563599e-01 -1.938628777861595154e-02 -3.598164319992065430e-01 -2.858016453683376312e-02 1.435653492808341980e-02 -2.191527038812637329e-01 -6.046706065535545349e-02 2.404704689979553223e-02 4.278332740068435669e-02 3.048458695411682129e-01 -6.837838292121887207e-01
1.830097287893295288e-01 1.900377273559570312e-01 -6.580323725938796997e-02 -1.719687581062316895e-01 1.368843317031860352e-01 3.699189051985740662e-02 2.116032131016254425e-02 1.008253321051597595e-01 -3.273882567882537842e-01 -2.584982514381408691e-01 -3.662416040897369385e-01 -3.036057949066162109e-01 1.055989507585763931e-02 -3.675787448883056641e-01 -1.940236389636993408e-01 -2.205292508006095886e-02 -1.470578312873840332e-01 1.091265752911567688e-01 -1.966439336538314819e-01 -3.852404281497001648e-02 -1.152024716138839722e-01 1.815774478018283844e-02 -4.911999776959419250e-02 2.222006320953369141e-01 9.549947828054428101e-02 -9.551969915628433228e-02 -2.554502710700035095e-02 8.070515096187591553e-02 -2.268596440553665161e-01 1.771611534059047699e-02 -2.893325500190258026e-02 -3.269677460193634033e-01 -5.137032270431518555e-02 -2.163106501102447510e-01 -2.293375879526138306e-02 1.418033093214035034e-01 -1.024066433310508728e-01 -4.555887728929519653e-02 2.469059228897094727e-01 -4.023576900362968445e-02 -1.551687419414520264e-01 -3.158577382564544678e-01 -7.152241468429565430e-02 -1.465981751680374146e-01 -1.469900757074356079e-01 1.774641722440719604e-01 1.072870716452598572e-01 5.116041377186775208e-02 3.401847481727600098e-01 -3.238281011581420898e-01 1.973466388881206512e-02 -7.013681810349225998e-03 -6.153092384338378906e-01 -6.691477894783020020e-01 -1.923483312129974365e-01 1.545464843511581421e-01 -9.718488901853561401e-02 -1.592645496129989624e-01 -4.801791310310363770e-01 -1.761935353279113770e-01 -1.020216345787048340e-01 1.370915472507476807e-01 2.306190505623817444e-02 -4.588392972946166992e-01 -5.062527656555175781e-01 8.177657611668109894e-03 -9.422888606786727905e-02 9.908133186399936676e-03 -1.164187043905258179e-01 -1.943168044090270996e-01 -1.161495521664619446e-01 -3.555708229541778564e-01 -4.612077027559280396e-02 -3.934515640139579773e-03 1.378936916589736938e-01 -2.525478005409240723e-01 1.361453086137771606e-01 -1.866479516029357910e-01 -1.079146564006805420e-01 7.425400614738464355e-02 -1.899373382329940796e-01 -2.104325145483016968e-01 5.154134705662727356e-02 6.106793507933616638e-02 -1.402841657400131226e-01 7.702133059501647949e-02 -4.668473079800605774e-02 -2.624751329421997070e-01 -1.273846924304962158e-01 9.200486540794372559e-02 9.541741013526916504e-02 -1.696269959211349487e-01 -1.509707272052764893e-01 -6.421598792076110840e-02 -4.527672659605741501e-03 -2.088161259889602661e-01 -1.594487279653549194e-01 -3.742129541933536530e-03 1.961843343451619148e-03 -2.462903782725334167e-02 -1.783988922834396362e-01 1.655551493167877197e-01 1.790644824504852295e-01 -2.260832116007804871e-02 -1.406778544187545776e-01 1.951663494110107422e-01 4.278602451086044312e-02 -1.677230596542358398e-01 -1.285208910703659058e-01 -3.446156680583953857e-01 4.550840333104133606e-02 6.445067375898361206e-02 2.678214907646179199e-01 -1.353065073490142822e-01 -2.839784622192382812e-01 1.002550944685935974e-01 -2.720454335212707520e-01 2.053950726985931396e-02 -1.418563127517700195e-01 1.391670703887939453e-01 6.439530849456787109e-02 -3.496270477771759033e-01 -1.784176975488662720e-01 1.052441745996475220e-01 5.865724384784698486e-02 3.396257162094116211e-01 1.741375029087066650e-01 -4.161804169416427612e-02
-2.494437433779239655e-02 -3.145943582057952881e-01 1.901140511035919189e-01 -6.769745796918869019e-02 4.226981848478317261e-02 -1.404886841773986816e-01 1.048685386776924133e-01 3.490554913878440857e-02 -1.879821717739105225e-01 -4.276239499449729919e-02 -1.642840169370174408e-02 2.555470727384090424e-02 2.780439518392086029e-02 2.885415554046630859e-01 -6.420647352933883667e-02 -7.891967892646789551e-01 -2.342190295457839966e-01 -1.663847565650939941e-01 -1.196785941720008850e-01 -3.277949243783950806e-02 -3.561991453170776367e-01 -7.989989966154098511e-02 -2.903678119182586670e-01 8.158452063798904419e-02 -1.670156419277191162e-01 -2.212867140769958496e-02 1.059424877166748047e-01 1.904992014169692993e-01 1.703657023608684540e-02 1.706395298242568970e-02 -5.596057698130607605e-02 1.302919350564479828e-02 6.322765350341796875e-02 1.094333007931709290e-01 -1.418546140193939209e-01 1.357898414134979248e-01 1.540215611457824707e-01 -1.782254278659820557e-01 -2.366752363741397858e-02 -1.541936248540878296e-01 -4.939626902341842651e-02 -2.687589637935161591e-02 1.300696581602096558e-01 -1.137528568506240845e-01 1.276214867830276489e-01 -5.184395909309387207e-01 -3.129062429070472717e-02 -4.047991335391998291e-01 -6.582353711128234863e-01 1.656952500343322754e-01 1.075037792325019836e-01 1.440822780132293701e-01 -8.327939361333847046e-02 1.043665036559104919e-02 -2.583030462265014648e-01 -1.040966361761093140e-01 -1.474278867244720459e-01 -1.417022049427032471e-01 8.648777753114700317e-02 1.062583699822425842e-01 4.295071959495544434e-02 1.472159028053283691e-01 -3.027002215385437012e-01 -1.911035031080245972e-01 4.811374843120574951e-02 1.007533743977546692e-01 -2.264437824487686157e-01 -1.615661233663558960e-01 -8.476640284061431885e-02 -1.640664786100387573e-01 -3.141253888607025146e-01 -2.352508455514907837e-01 -1.468249261379241943e-01 2.796030938625335693e-01 1.381129622459411621e-01 -2.710227370262145996e-01 -2.037192881107330322e-02 -8.480475842952728271e-02 -2.052586972713470459e-01 -2.500228583812713623e-01 1.189884915947914124e-01 -2.030837088823318481e-01 -7.619512081146240234e-02 7.844095677137374878e-02 1.913853883743286133e-01 -8.783797174692153931e-02 1.991004943847656250e-01 3.073342144489288330e-01 -9.393843263387680054e-02 1.152960881590843201e-01 -2.425124309957027435e-02 -1.982808709144592285e-01 -1.517483144998550415e-01 -6.825669109821319580e-02 4.149380326271057129e-02 5.941595137119293213e-02 6.396757066249847412e-02 -1.624277383089065552e-01 -1.322300136089324951e-01 -2.565302327275276184e-02 1.349325776100158691e-01 -2.725420705974102020e-02 -1.344489753246307373e-01 -2.034338861703872681e-01 -3.803173080086708069e-02 -3.425598889589309692e-02 -1.037932783365249634e-01 -8.683262020349502563e-02 -1.559492498636245728e-01 -3.254139721393585205e-01 -4.776909947395324707e-02 -2.220211476087570190e-01 -8.639583736658096313e-02 2.548296377062797546e-02 -2.014006823301315308e-01 1.517469733953475952e-01 2.744789719581604004e-01 2.702138721942901611e-01 -3.396874666213989258e-02 -2.568489611148834229e-01 -1.844678372144699097e-01 1.223196387290954590e-01 -1.673326268792152405e-02 -2.560633718967437744e-01 -6.750093400478363037e-02 -5.464497804641723633e-01 -1.725508272647857666e-02 -1.261095553636550903e-01
1.374627649784088135e-01 2.217074930667877197e-01 6.706897914409637451e-02 7.567402720451354980e-02 -1.882726252079010010e-01 2.984346821904182434e-02 6.305398792028427124e-02 1.895363181829452515e-01 -5.016003847122192383e-01 3.147671222686767578e-01 -1.932511031627655029e-01 -1.974580585956573486e-01 2.641895413398742676e-01 -2.150216996669769287e-01 -3.060473203659057617e-01 2.723505534231662750e-02 9.364350885152816772e-02 1.517325192689895630e-01 2.039809944108128548e-03 -1.738946139812469482e-01 -9.330075979232788086e-02 1.160809770226478577e-01 -1.639887988567352295e-01 2.634344436228275299e-02 -8.849807083606719971e-02 -1.212130784988403320e-01 2.720572054386138916e-01 1.826445758342742920e-01 -2.219709455966949463e-01 1.155840791761875153e-02 -2.921628057956695557e-01 -3.772809505462646484e-01 1.770087145268917084e-02 6.486235558986663818e-02 -2.566407918930053711e-01 2.529490366578102112e-02 2.419676184654235840e-01 2.300057858228683472e-01 1.862425953149795532e-01 9.494069963693618774e-02 -2.025959789752960205e-01 -1.383501291275024414e-01 -9.009009599685668945e-02 5.365892499685287476e-02 -1.947761923074722290e-01 2.499655932188034058e-01 2.020866274833679199e-01 -2.680390477180480957e-01 1.246387809514999390e-01 -1.184408664703369141e-01 -6.994993686676025391e-01 1.107841879129409790e-01 3.540372010320425034e-03 -1.855549514293670654e-01 7.750258594751358032e-02 -2.836031615734100342e-01 -5.304716527462005615e-02 1.342918127775192261e-01 1.475475821644067764e-02 -2.641288638114929199e-01 -6.761442869901657104e-02 -1.045228317379951477e-01 3.656488060951232910e-01 -3.159162402153015137e-01 -1.894192397594451904e-01 -1.370345503091812134e-01 -1.027082577347755432e-01 9.669244289398193359e-02 2.817270755767822266e-01 -2.122085094451904297e-01 -1.227035224437713623e-01 1.048313006758689880e-01 -4.577232301235198975e-01 -3.560690283775329590e-01 9.405992925167083740e-02 -1.495160460472106934e-01 6.881860643625259399e-02 2.246489189565181732e-02 3.557519316673278809e-01 4.355864971876144409e-02 -3.223759531974792480e-01 4.764681309461593628e-02 4.712158814072608948e-02 -5.112726986408233643e-02 -2.078788578510284424e-01 -2.692893445491790771e-01 -1.037481799721717834e-01 -2.837286889553070068e-01 -2.856958284974098206e-02 2.464449256658554077e-01 1.692906767129898071e-02 1.679687350988388062e-01 1.855752617120742798e-01 1.508580893278121948e-01 -5.711752548813819885e-02 -4.420814514160156250e-01 -7.590674608945846558e-02 -9.668637812137603760e-02 -2.682586908340454102e-01 -7.877199351787567139e-02 -4.879428073763847351e-02 -3.891315078362822533e-03 -2.603197097778320312e-01 -4.286707341670989990e-01 1.131162568926811218e-01 -8.427108079195022583e-02 -1.638375222682952881e-01 -3.987056016921997070e-02 1.575251668691635132e-01 1.011248156428337097e-01 -2.420093119144439697e-01 -1.580588221549987793e-01 9.974110126495361328e-02 -4.212779551744461060e-02 -1.077435091137886047e-01 -3.364034742116928101e-02 -1.411025226116180420e-01 -1.007558703422546387e-01 -2.964471094310283661e-02 1.438143402338027954e-01 2.277928590774536133e-01 2.160382866859436035e-01 -3.408895432949066162e-01 1.907094120979309082e-01 2.836885862052440643e-02 -3.736318275332450867e-02 8.985149860382080078e-02 2.526770532131195068e-01
-2.623598277568817139e-01 8.849988132715225220e-02 -1.005043387413024902e-01 2.422365695238113403e-01 4.627043753862380981e-02 -1.463281456381082535e-02 -3.682190477848052979e-01 -2.143848836421966553e-01 1.242712438106536865e-01 -2.428575605154037476e-02 -3.702429309487342834e-02 3.460858464241027832e-01 6.341471523046493530e-02 -1.072245314717292786e-01 5.728692188858985901e-02 -1.792282611131668091e-01 1.272794455289840698e-01 3.092720508575439453e-01 2.408858984708786011e-01 -1.240590214729309082e-01 -2.077960669994354248e-01 1.695985943078994751e-01 6.673976778984069824e-02 -5.242578387260437012e-01 -5.167492851614952087e-02 -3.256387710571289062e-01 -4.787422344088554382e-02 4.255986586213111877e-02 -4.700576886534690857e-02 -4.926612675189971924e-01 -2.885823547840118408e-01 1.517485827207565308e-01 1.125170290470123291e-01 -2.477279752492904663e-01 -1.787737011909484863e-01 1.044372990727424622e-01 -1.104386076331138611e-01 2.830823361873626709e-01 -3.511633723974227905e-02 -1.725354604423046112e-02 7.766433060169219971e-02 3.519664108753204346e-01 -7.071921974420547485e-02 -2.082046568393707275e-01 -1.567556113004684448e-01 -3.202762082219123840e-02 -5.292746797204017639e-02 -2.468425184488296509e-01 1.000648140907287598e-01 -2.065397985279560089e-02 1.291675865650177002e-01 -3.425012528896331787e-02 -6.244235634803771973e-01 -3.676143707707524300e-03 -3.079981915652751923e-02 2.596738636493682861e-01 4.399740695953369141e-02 -4.087768197059631348e-01 -1.121529713273048401e-01 -3.658255934715270996e-01 1.569394320249557495e-01 -2.477252483367919922e-02 -1.832116097211837769e-01 -5.600021407008171082e-02 9.008607268333435059e-02 -2.432804256677627563e-01 -3.150510191917419434e-01 -1.228016316890716553e-01 -7.338203955441713333e-03 -1.631753593683242798e-01 7.755158096551895142e-02 -6.140210106968879700e-02 -6.218384206295013428e-02 -1.563020199537277222e-01 4.221018776297569275e-02 -1.099251676350831985e-02 2.377940267324447632e-01 3.765029832720756531e-02 -3.557991608977317810e-02 -2.837430536746978760e-01 1.480363458395004272e-01 2.709547281265258789e-01 -4.721895605325698853e-02 -2.763330005109310150e-02 -2.812885940074920654e-01 -1.469829380512237549e-01 -3.097259700298309326e-01 -2.607865631580352783e-01 2.219223827123641968e-01 6.279047112911939621e-03 -1.436014175415039062e-01 1.079807803034782410e-01 -2.513278126716613770e-01 1.687419861555099487e-01 -2.529751658439636230e-01 1.333638578653335571e-01 -1.770598143339157104e-01 2.424008250236511230e-01 2.736518979072570801e-01 -7.269540429115295410e-01 -2.452535182237625122e-01 -2.310613989830017090e-01 -2.461144477128982544e-01 -4.418926686048507690e-02 9.000672399997711182e-02 -9.993374347686767578e-02 3.646714240312576294e-02 -1.009055674076080322e-01 1.565889120101928711e-01 -3.172339498996734619e-01 -4.660571739077568054e-02 2.559306621551513672e-01 9.526640921831130981e-02 1.661382615566253662e-01 7.814332097768783569e-02 -3.928342759609222412e-01 2.126888483762741089e-01 2.160913543775677681e-03 1.049373522400856018e-01 -2.332091564312577248e-03 -2.468951977789402008e-02 -9.715136839076876640e-04 1.753576397895812988e-01 -2.931286096572875977e-01 1.474061459302902222e-01 6.749024242162704468e-02 -1.374226808547973633e-01 -1.176998689770698547e-01
-1.371631026268005371e-01 3.477432429790496826e-01 1.139027848839759827e-01 -1.409944891929626465e-01 1.110813245177268982e-01 1.293802857398986816e-01 1.812773942947387695e-02 -1.622831225395202637e-01 -2.040172368288040161e-02 4.997456073760986328e-01 -1.307352911680936813e-02 7.857146859169006348e-02 -5.885462090373039246e-02 5.496727675199508667e-02 1.060398817062377930e-01 -1.161745041608810425e-01 -1.601938158273696899e-01 -3.124122321605682373e-01 -9.126052260398864746e-02 1.510255485773086548e-01 -3.734129667282104492e-01 -2.159807533025741577e-01 -1.267552673816680908e-01 -2.085231244564056396e-02 -3.733468353748321533e-01 1.216706819832324982e-03 -5.896060466766357422e-01 -3.531288206577301025e-01 -5.657901763916015625e-01 9.361497312784194946e-02 -3.867140505462884903e-03 4.173834621906280518e-02 1.228902116417884827e-01 4.015481472015380859e-01 1.067668870091438293e-01 1.110409870743751526e-01 -5.919587016105651855e-01 6.664086133241653442e-02 7.649090886116027832e-02 3.344748318195343018e-01 2.825759053230285645e-01 2.342959940433502197e-01 3.299561142921447754e-01 1.235787421464920044e-01 -1.514030843973159790e-01 1.514205336570739746e-01 4.087256789207458496e-01 -3.892241790890693665e-02 -9.208617359399795532e-02 1.184034198522567749e-01 -2.760794758796691895e-01 4.876098409295082092e-02 -1.820802688598632812e-02 -4.060083301737904549e-04 -1.650924831628799438e-01 5.370605587959289551e-01 -5.455775856971740723e-01 1.824064999818801880e-01 8.580319583415985107e-02 5.481845885515213013e-02 -1.885139197111129761e-02 -2.060368657112121582e-01 9.838360548019409180e-02 -2.745750844478607178e-01 -1.549321711063385010e-01 1.273846719413995743e-02 3.995137512683868408e-01 1.625852882862091064e-01 -5.578381419181823730e-01 5.161153525114059448e-02 -2.110208198428153992e-02 1.405448094010353088e-02 1.579474508762359619e-01 -4.465609788894653320e-01 -5.345023274421691895e-01 3.027167022228240967e-01 -4.203717410564422607e-01 -1.800844073295593262e-01 2.658765912055969238e-01 -2.404636889696121216e-01 -1.124190390110015869e-01 -2.906444072723388672e-01 8.803064376115798950e-02 -7.632097005844116211e-01 1.405401974916458130e-01 -3.129918277263641357e-01 2.907936461269855499e-02 -2.992478609085083008e-01 -1.301680952310562134e-01 3.524857014417648315e-02 -1.693544983863830566e-01 -4.339548647403717041e-01 1.563058644533157349e-01 1.336061060428619385e-01 1.275753378868103027e-01 -7.018124312162399292e-02 2.580938115715980530e-02 4.581752792000770569e-02 -2.367634326219558716e-01 8.097928762435913086e-02 2.504398524761199951e-01 -2.620124816894531250e-01 1.636519096791744232e-02 1.093234270811080933e-01 4.864726215600967407e-03 -6.050151586532592773e-01 -1.966763883829116821e-01 2.580835018306970596e-03 -1.901609599590301514e-01 -1.557964682579040527e-01 3.416809439659118652e-01 -1.939226835966110229e-01 -6.842401344329118729e-03 -1.527188867330551147e-01 -1.774765104055404663e-01 -2.276030778884887695e-01 -5.263516306877136230e-01 -1.412164866924285889e-01 3.294381499290466309e-01 -2.704819440841674805e-01 -2.509215772151947021e-01 1.895733922719955444e-01 -2.565370500087738037e-01 1.446939259767532349e-01 1.932338625192642212e-01 1.358983069658279419e-01 -7.800352573394775391e-01 -2.445910573005676270e-01
8.446478843688964844e-01 -1.423699855804443359e-01 2.950833737850189209e-01 3.697092831134796143e-01 4.221846535801887512e-02 -1.433107107877731323e-01 6.942244619131088257e-02 -1.745623201131820679e-01 -5.421228408813476562e-01 1.143202409148216248e-01 3.290478885173797607e-02 9.067716449499130249e-02 6.643772721290588379e-01 1.778053194284439087e-01 1.883835941553115845e-01 -4.732879251241683960e-02 5.086969733238220215e-01 7.774233818054199219e-02 5.703270807862281799e-02 3.386976122856140137e-01 1.706725507974624634e-01 2.951396703720092773e-01 -2.359537929296493530e-01 -2.789851725101470947e-01 1.100192442536354065e-01 -1.212599575519561768e-01 5.795508027076721191e-01 -9.653060883283615112e-02 -7.389893382787704468e-02 1.359402537345886230e-01 5.020087584853172302e-03 -1.304071694612503052e-01 -3.895269706845283508e-02 2.047461867332458496e-01 2.464465796947479248e-01 -2.083726674318313599e-01 7.191220670938491821e-02 7.601922005414962769e-02 -3.903503995388746262e-03 -1.156116500496864319e-01 2.211792021989822388e-01 -1.916838586330413818e-01 1.429643481969833374e-01 3.930210471153259277e-01 4.545175656676292419e-02 2.252626977860927582e-02 -7.303684204816818237e-02 3.453010916709899902e-01 -1.735279709100723267e-01 -1.107894182205200195e-01 1.013263165950775146e-01 4.921030700206756592e-01 1.539476588368415833e-02 1.072374209761619568e-01 1.061977148056030273e-01 4.287002086639404297e-01 4.213428869843482971e-02 1.679362058639526367e-01 4.050506949424743652e-01 6.130589544773101807e-02 -2.573005557060241699e-01 3.553380370140075684e-01 1.579768583178520203e-02 -2.088788151741027832e-01 -2.727296948432922363e-01 1.478997804224491119e-02 -2.659773230552673340e-01 -8.277972042560577393e-02 -1.389307901263237000e-02 -1.158980131149291992e-01 2.069093100726604462e-02 1.089016124606132507e-01 -1.379486471414566040e-01 -1.854531019926071167e-01 -2.486870996654033661e-02 -3.044262826442718506e-01 2.807809710502624512e-01 5.366289988160133362e-02 1.735670864582061768e-01 3.118422627449035645e-01 1.550859957933425903e-01 2.521661221981048584e-01 -1.729990392923355103e-01 -1.268941909074783325e-01 1.615089327096939087e-01 4.570691585540771484e-01 -3.992832005023956299e-01 1.896309107542037964e-01 3.232471644878387451e-01 -1.302725523710250854e-01 6.760398298501968384e-02 3.042123913764953613e-01 1.129804551601409912e-01 3.487714231014251709e-01 3.002205193042755127e-01 -2.465768903493881226e-02 2.129669636487960815e-01 -1.566143780946731567e-01 8.057542890310287476e-02 9.599048644304275513e-02 1.575272828340530396e-01 2.289874106645584106e-01 -1.620261818170547485e-01 -1.765684485435485840e-01 6.462818942964076996e-03 6.283687055110931396e-02 1.583910137414932251e-01 1.866344511508941650e-01 -9.636320918798446655e-02 4.145972058176994324e-02 3.149331212043762207e-01 -3.799298703670501709e-01 1.988298296928405762e-01 2.543138265609741211e-01 1.037527471780776978e-01 -5.979610979557037354e-02 7.451973855495452881e-02 2.696755230426788330e-01 -2.358617633581161499e-01 1.722543239593505859e-01 1.254291385412216187e-01 4.459688067436218262e-01 -2.443074733018875122e-01 2.840927802026271820e-02 3.319795131683349609e-01 -2.773790657520294189e-01 -2.862162590026855469e-01 5.975215882062911987e-02
-3.596160709857940674e-01 3.515460491180419922e-01 1.858920007944107056e-01 -3.233228623867034912e-01 -5.295643806457519531e-01 1.992799490690231323e-01 -1.119318604469299316e-01 -3.603812158107757568e-01 -1.227492243051528931e-01 1.339291930198669434e-01 4.925696179270744324e-02 -1.485242247581481934e-01 3.600889742374420166e-01 -3.157793283462524414e-01 -1.659747660160064697e-01 -1.147215738892555237e-01 1.455838382244110107e-01 -1.050459742546081543e-01 -5.974702909588813782e-02 2.372402399778366089e-01 5.918519198894500732e-02 -4.468111991882324219e-01 1.583131998777389526e-01 4.038957506418228149e-02 -1.483118534088134766e-01 5.956818535923957825e-02 2.830876410007476807e-01 -2.970301806926727295e-01 -7.134612649679183960e-02 1.071050092577934265e-01 -4.577524960041046143e-01 1.990013569593429565e-01 -2.455994933843612671e-01 -6.426792740821838379e-01 -3.086309731006622314e-01 -4.622921347618103027e-03 -3.203204274177551270e-02 5.126742124557495117e-01 -1.642894186079502106e-02 7.585540413856506348e-03 3.318713307380676270e-01 -2.013017088174819946e-01 2.978363633155822754e-01 2.530514001846313477e-01 -1.984513998031616211e-01 3.331141471862792969e-01 -5.585909485816955566e-01 -1.087666153907775879e-01 7.858613133430480957e-02 4.653213620185852051e-01 -6.165173053741455078e-01 -1.306601166725158691e-01 8.485835045576095581e-03 -2.366420477628707886e-01 6.699417531490325928e-02 2.793483436107635498e-01 2.162075489759445190e-01 -2.874860763549804688e-01 -4.314162135124206543e-01 1.927262246608734131e-01 -4.056111276149749756e-01 -1.222461983561515808e-01 -1.984081417322158813e-01 7.785849273204803467e-02 2.721282094717025757e-02 1.365712881088256836e-01 2.027750313282012939e-01 4.072873592376708984e-01 -1.429039835929870605e-01 3.545401990413665771e-01 -5.807923153042793274e-02 7.916321605443954468e-02 1.575712710618972778e-01 1.049489602446556091e-01 -7.637178897857666016e-01 2.735622823238372803e-01 -3.758484423160552979e-01 -3.663404881954193115e-01 1.953715980052947998e-01 5.737290382385253906e-01 1.018581092357635498e-01 -1.016891840845346451e-02 1.379532217979431152e-01 -1.543581634759902954e-01 -5.267166495323181152e-01 -1.216434240341186523e-01 -1.537420302629470825e-01 -7.483764886856079102e-01 -6.394807100296020508e-01 1.886814832687377930e-01 3.832440674304962158e-01 -4.528135061264038086e-01 -3.402986004948616028e-02 2.911726236343383789e-01 2.941957116127014160e-01 7.711729407310485840e-02 -1.220753490924835205e-01 1.340941786766052246e-01 -2.977630496025085449e-01 3.174595236778259277e-01 1.147536654025316238e-02 -6.388331651687622070e-01 -2.348750531673431396e-01 3.569229841232299805e-01 -1.583014130592346191e-01 -4.961704015731811523e-01 3.009892813861370087e-02 2.642050981521606445e-01 -9.664960950613021851e-02 -1.424182951450347900e-01 5.184598267078399658e-02 -6.789714097976684570e-02 2.265481203794479370e-01 5.285666137933731079e-02 -1.672131568193435669e-01 1.935172528028488159e-01 -2.549864649772644043e-01 2.261009365320205688e-01 6.486120633780956268e-03 2.627566754817962646e-01 -7.436877489089965820e-01 -4.732670634984970093e-02 2.074649371206760406e-02 3.820250928401947021e-01 -3.159997239708900452e-02 -1.282342970371246338e-01 -3.786631524562835693e-01 -2.025326341390609741e-01
-2.938932180404663086e-01 -5.850213393568992615e-02 -2.645103633403778076e-01 1.880707144737243652e-01 -1.931843720376491547e-02 -4.107861965894699097e-02 -3.436889052391052246e-01 -1.922173202037811279e-01 1.213416680693626404e-01 5.276874452829360962e-02 -2.660375833511352539e-01 1.533222347497940063e-01 -1.102557182312011719e-01 -5.277653783559799194e-02 -7.641649246215820312e-02 -3.060970902442932129e-01 4.330687969923019409e-02 1.526926457881927490e-01 6.124283000826835632e-02 -7.544228341430425644e-03 1.519960071891546249e-02 -2.296281754970550537e-01 -6.854633986949920654e-02 6.605357676744461060e-02 1.604158878326416016e-01 -1.728354543447494507e-01 1.281514484435319901e-02 4.744756966829299927e-02 7.219813764095306396e-02 -9.598691016435623169e-02 -9.798683971166610718e-02 -4.216402024030685425e-02 -1.450034081935882568e-01 -1.550780981779098511e-01 -5.845885872840881348e-01 2.639630995690822601e-02 -1.600289493799209595e-01 6.055033206939697266e-02 -1.385436952114105225e-01 -1.421286910772323608e-01 5.763140693306922913e-02 -1.029295176267623901e-01 1.146266385912895203e-01 -2.824604809284210205e-01 1.890134662389755249e-01 -2.247997522354125977e-01 3.527058660984039307e-02 1.091595962643623352e-01 -8.575626462697982788e-02 -1.556651890277862549e-01 1.506208330392837524e-01 2.876398526132106781e-02 2.961199730634689331e-02 -1.048817560076713562e-01 -8.749057352542877197e-02 -2.444421201944351196e-01 -6.315398216247558594e-02 2.931041121482849121e-01 1.534869670867919922e-01 2.279485389590263367e-02 2.360068261623382568e-02 1.355475634336471558e-01 -3.783986717462539673e-02 -1.535442192107439041e-03 -6.553417444229125977e-02 2.365853935480117798e-01 -2.464350685477256775e-02 3.238346278667449951e-01 1.037384122610092163e-01 2.742157690227031708e-02 8.178076893091201782e-02 -7.934711873531341553e-02 -2.388660609722137451e-02 1.671648174524307251e-01 -8.705402165651321411e-02 -4.137097597122192383e-01 -8.079765737056732178e-02 -7.459513098001480103e-02 -1.748836785554885864e-01 -3.791984021663665771e-01 2.027278393507003784e-01 2.803209722042083740e-01 9.002476930618286133e-02 4.878833144903182983e-02 -4.826070368289947510e-02 9.739428758621215820e-02 2.135595232248306274e-01 1.459841132164001465e-01 2.037162519991397858e-02 -1.115985885262489319e-01 -8.402318507432937622e-02 1.075802296400070190e-01 -1.945993602275848389e-01 -2.384993433952331543e-02 -2.452602684497833252e-01 -4.989188537001609802e-02 1.106586530804634094e-01 -1.962292492389678955e-01 -1.935799121856689453e-01 -4.772847518324851990e-02 -8.085717260837554932e-02 1.380111277103424072e-01 -2.618476748466491699e-01 -5.411542579531669617e-02 -3.851152211427688599e-02 -6.592213362455368042e-02 1.428238898515701294e-01 -6.176224723458290100e-02 1.767535209655761719e-01 -1.649597883224487305e-01 -1.241285353899002075e-02 3.039022386074066162e-01 1.668254286050796509e-01 2.059709876775741577e-01 3.659799695014953613e-01 -6.659891456365585327e-02 1.269733607769012451e-01 -1.297805607318878174e-01 3.642609715461730957e-01 -1.531946659088134766e-01 2.041849195957183838e-01 -2.399276793003082275e-01 2.738375365734100342e-01 -2.277548611164093018e-01 1.606098711490631104e-01 -5.317754298448562622e-02 -1.508133560419082642e-01 -2.864508032798767090e-01
2.850235104560852051e-01 -4.314310550689697266e-01 3.120634518563747406e-02 7.105381786823272705e-02 1.703759729862213135e-01 -1.029554307460784912e-01 -1.517836600542068481e-01 -1.845593601465225220e-01 -1.771452277898788452e-01 -4.581916704773902893e-02 1.334021836519241333e-01 2.609898447990417480e-01 3.196672797203063965e-01 7.983818650245666504e-02 4.029687047004699707e-01 -5.304656624794006348e-01 -1.321878284215927124e-01 -1.125955209136009216e-01 -3.482442498207092285e-01 2.501769065856933594e-01 2.923698425292968750e-01 -2.188074588775634766e-02 -1.842160709202289581e-02 -2.341991364955902100e-01 -7.677377760410308838e-02 -1.321338303387165070e-02 -1.164779216051101685e-01 -2.535715699195861816e-01 -2.373438179492950439e-01 -1.123211756348609924e-01 1.995200812816619873e-01 -3.046194836497306824e-02 2.197603881359100342e-01 -2.581512182950973511e-02 -1.488411799073219299e-02 -4.229562473483383656e-04 3.084076941013336182e-01 1.232988759875297546e-01 -1.448250710964202881e-01 1.071599274873733521e-01 -1.985620707273483276e-01 -3.584591746330261230e-01 3.502161800861358643e-02 3.522325158119201660e-01 -1.758008301258087158e-01 -1.504524946212768555e-01 -5.385277420282363892e-02 -5.489850416779518127e-02 -2.977546453475952148e-01 -3.208348751068115234e-01 1.301539540290832520e-01 1.131245270371437073e-01 -1.517606526613235474e-01 -8.210922777652740479e-02 -3.625104129314422607e-01 -3.777199983596801758e-01 -2.612211406230926514e-01 -3.881527855992317200e-02 -6.559856981039047241e-02 1.713542938232421875e-01 -4.192108754068613052e-03 2.202465571463108063e-02 -2.817747294902801514e-01 2.668084204196929932e-02 -1.122525483369827271e-01 -2.244008630514144897e-01 -2.600307166576385498e-01 -1.442618221044540405e-01 -2.062222212553024292e-01 -1.153784245252609253e-01 1.759013384580612183e-01 -2.597495913505554199e-01 -5.346931219100952148e-01 -1.324577443301677704e-02 -1.076561678200960159e-02 -5.074152946472167969e-01 5.823866277933120728e-02 -1.789679527282714844e-01 2.598777599632740021e-02 2.717086076736450195e-01 -2.144823819398880005e-01 1.855529695749282837e-01 -2.389940917491912842e-01 -3.539330661296844482e-01 3.875021338462829590e-01 -4.201455041766166687e-02 -4.381450712680816650e-01 -5.955338478088378906e-02 2.020902559161186218e-02 -1.638052612543106079e-01 4.136839136481285095e-02 -2.554850578308105469e-01 1.625506728887557983e-01 6.993414461612701416e-02 -7.219123840332031250e-02 -5.993726104497909546e-02 1.275384724140167236e-01 1.059781387448310852e-01 1.864811182022094727e-01 -2.332965284585952759e-02 -4.043446481227874756e-02 -7.139641791582107544e-02 -2.500285506248474121e-01 -4.312384128570556641e-01 1.489441245794296265e-01 6.153374165296554565e-02 1.702072024345397949e-01 2.111448794603347778e-01 -2.634937763214111328e-01 3.604357540607452393e-01 2.054790556430816650e-01 -6.425730884075164795e-02 -8.354225009679794312e-02 1.285408437252044678e-01 1.012171208858489990e-01 1.246220618486404419e-02 1.182142794132232666e-01 -2.159233987331390381e-01 -1.536078900098800659e-01 -2.053146660327911377e-01 -1.722262352705001831e-01 1.309805512428283691e-01 -1.358135044574737549e-01 1.084441468119621277e-01 2.544648349285125732e-01 1.460362374782562256e-01 -8.251845836639404297e-02 -2.520122826099395752e-01
-4.975555539131164551e-01 -1.155468374490737915e-01 -5.345368981361389160e-01 2.256421148777008057e-01 -6.542197614908218384e-02 2.114616334438323975e-01 2.275609821081161499e-01 -1.362483054399490356e-01 -9.268262237310409546e-02 9.135127067565917969e-02 -4.213362038135528564e-01 1.160741224884986877e-01 -2.984300553798675537e-01 -9.723295271396636963e-02 -3.597530126571655273e-01 3.994987905025482178e-01 -3.954450786113739014e-02 -1.764214187860488892e-01 2.252817153930664062e-01 -1.183724030852317810e-01 -8.097928762435913086e-02 1.148305386304855347e-01 3.939658701419830322e-01 1.656136959791183472e-01 -9.325386583805084229e-02 -5.375171899795532227e-01 6.414216011762619019e-02 -2.274297736585140228e-02 -3.007216751575469971e-02 6.555113941431045532e-02 -4.299128055572509766e-01 -2.766605913639068604e-01 1.895098537206649780e-01 7.847045361995697021e-02 -5.014409497380256653e-02 4.049531742930412292e-02 -3.976989090442657471e-01 -1.491568982601165771e-01 -1.630715131759643555e-01 1.221304163336753845e-01 -3.722757101058959961e-01 1.297978758811950684e-01 6.796644628047943115e-02 -2.859929203987121582e-01 -1.013718992471694946e-01 1.991117745637893677e-01 -3.215401768684387207e-01 2.809354662895202637e-01 -3.568117618560791016e-01 1.608315557241439819e-01 -6.366752982139587402e-01 -1.437370479106903076e-01 2.059945277869701385e-02 -8.137983269989490509e-03 2.668933272361755371e-01 1.584457606077194214e-01 -4.020101949572563171e-02 2.052461653947830200e-01 1.768067479133605957e-02 -9.871747344732284546e-03 -4.670605659484863281e-01 2.881805971264839172e-02 3.887242078781127930e-01 -3.240988850593566895e-01 -5.587966442108154297e-01 -1.408591568470001221e-01 2.495401054620742798e-01 1.057933196425437927e-01 1.447905004024505615e-01 3.492355346679687500e-02 -1.246352344751358032e-01 3.948576748371124268e-02 1.098316386342048645e-01 1.448486000299453735e-01 3.367545828223228455e-02 1.220370978116989136e-01 2.178703248500823975e-01 2.398934364318847656e-01 -1.071866378188133240e-01 -2.648702859878540039e-01 -3.295952081680297852e-01 2.844589948654174805e-01 -5.686891078948974609e-01 -2.529904842376708984e-01 -3.846099078655242920e-01 1.084196418523788452e-01 1.224994137883186340e-01 -1.731158941984176636e-01 -4.879564940929412842e-01 3.889715075492858887e-01 2.071598172187805176e-02 -3.069178760051727295e-02 3.023303151130676270e-01 3.648986667394638062e-02 1.245243474841117859e-01 -2.446134686470031738e-01 4.461231827735900879e-02 2.449333071708679199e-01 -6.037314534187316895e-01 1.185916289687156677e-01 4.244071617722511292e-02 1.337665878236293793e-02 -2.713238894939422607e-01 9.637042135000228882e-02 -2.414731681346893311e-02 -1.817596703767776489e-02 1.812041699886322021e-01 2.130767889320850372e-02 1.696783155202865601e-01 4.635548964142799377e-02 -1.876630336046218872e-01 -3.941193222999572754e-02 9.112998843193054199e-02 8.771451562643051147e-02 2.029311284422874451e-02 2.148288488388061523e-01 4.104494303464889526e-02 -1.868546903133392334e-01 2.299867570400238037e-01 1.763924211263656616e-01 2.408317327499389648e-01 -5.667144060134887695e-02 -1.964758783578872681e-01 -2.159294784069061279e-01 4.734043963253498077e-03 4.754801746457815170e-03 -1.383884102106094360e-01 -8.227568119764328003e-02
-1.257456392049789429e-01 -7.648681849241256714e-02 -2.051422894001007080e-01 -2.629633247852325439e-01 3.283865284174680710e-03 -5.783563852310180664e-02 -1.578358858823776245e-01 -1.375368088483810425e-01 -1.243457868695259094e-01 4.339255765080451965e-02 -2.314899712800979614e-01 -1.539077758789062500e-01 -1.528296768665313721e-01 -1.003518775105476379e-01 2.105846256017684937e-01 3.086987733840942383e-01 -1.014546155929565430e-01 -3.069472312927246094e-02 -4.347316920757293701e-02 -7.830583304166793823e-02 2.462873756885528564e-01 -1.446848511695861816e-01 8.085866272449493408e-02 -2.682215571403503418e-01 -3.823179379105567932e-02 -1.290180385112762451e-01 -4.676612615585327148e-01 -3.577868640422821045e-01 2.041940242052078247e-01 -5.661332607269287109e-01 6.803102046251296997e-02 1.031780466437339783e-01 4.684576764702796936e-02 -2.681639492511749268e-01 9.605070203542709351e-02 -1.683955267071723938e-02 -5.213580280542373657e-02 2.923942804336547852e-01 1.126214638352394104e-01 7.304362952709197998e-02 1.976865679025650024e-01 -1.055872216820716858e-01 -9.768217056989669800e-02 1.218611523509025574e-01 -4.195679351687431335e-02 3.672699630260467529e-02 -3.474618196487426758e-01 2.266552671790122986e-02 -3.608025610446929932e-01 -2.492658793926239014e-01 -1.298053711652755737e-01 1.535785794258117676e-01 -2.527368664741516113e-01 -2.599663846194744110e-02 2.839281558990478516e-01 3.152788877487182617e-01 8.933181315660476685e-02 -4.207742810249328613e-01 -4.370149672031402588e-01 -3.836922943592071533e-01 -2.984598278999328613e-01 1.913468241691589355e-01 1.081206947565078735e-01 1.996867917478084564e-02 -3.805964589118957520e-01 -3.360665440559387207e-01 -3.176425099372863770e-01 -3.506636619567871094e-01 1.148966252803802490e-01 -3.874131441116333008e-01 -1.754075735807418823e-01 -7.514566183090209961e-01 4.766336455941200256e-02 -1.855773292481899261e-02 5.499340593814849854e-02 -2.244637161493301392e-01 1.247306689620018005e-01 -6.472010165452957153e-02 -3.120122849941253662e-01 -2.882086932659149170e-01 -1.424868106842041016e-01 8.079843223094940186e-02 1.900191307067871094e-01 1.013563852757215500e-02 -3.099410794675350189e-02 -2.599171176552772522e-02 1.267507374286651611e-01 -1.605838835239410400e-01 -2.519172430038452148e-01 -9.282092750072479248e-02 -3.390147686004638672e-01 -3.343564644455909729e-02 1.254204064607620239e-01 -2.070999741554260254e-01 5.386195331811904907e-02 -3.015416115522384644e-02 2.112902551889419556e-01 2.057101279497146606e-01 -1.523450314998626709e-01 -4.266400635242462158e-01 -1.833302974700927734e-01 -2.358432114124298096e-01 -1.733295619487762451e-01 -1.231750324368476868e-01 -7.731284201145172119e-02 -2.124844640493392944e-01 1.215887442231178284e-02 2.030648142099380493e-01 -1.292808726429939270e-02 -5.725016072392463684e-02 2.068997733294963837e-02 1.299492120742797852e-01 -1.487542390823364258e-01 -1.051550582051277161e-01 6.529465317726135254e-02 -3.084125928580760956e-03 -4.785970225930213928e-02 6.562614440917968750e-02 7.912728935480117798e-02 3.638907149434089661e-02 -1.432702094316482544e-01 6.251939572393894196e-03 -1.635855585336685181e-01 -1.992575824260711670e-03 -7.124985009431838989e-02 -5.180804803967475891e-02 8.641281723976135254e-02 -1.239006221294403076e-01
-4.157493710517883301e-01 3.138806298375129700e-02 -3.184888660907745361e-01 1.000634627416729927e-03 1.153102591633796692e-01 -1.768888160586357117e-02 4.021012410521507263e-02 -3.924153372645378113e-02 -4.626949504017829895e-02 2.511313557624816895e-01 -1.352483779191970825e-01 6.524886935949325562e-03 -1.708626598119735718e-01 -1.558294445276260376e-01 -3.067535161972045898e-01 5.793809518218040466e-02 9.805982559919357300e-02 -1.672994196414947510e-01 2.018596231937408447e-01 1.787334382534027100e-01 -5.256721004843711853e-02 -3.153372704982757568e-01 -2.052897810935974121e-01 4.565370455384254456e-02 -1.755314022302627563e-01 -5.433529615402221680e-02 -4.151571542024612427e-02 -2.453214824199676514e-01 3.005082160234451294e-02 -1.071047633886337280e-01 -2.244951575994491577e-01 5.003469064831733704e-02 9.956938773393630981e-02 -1.003710106015205383e-01 7.912848144769668579e-02 1.882392615079879761e-01 -2.966330647468566895e-01 -2.202080786228179932e-01 -7.927255332469940186e-02 1.020243763923645020e-01 -1.090767011046409607e-01 -2.729165852069854736e-01 -2.550752134993672371e-03 -3.388781845569610596e-01 1.177934110164642334e-01 -6.897242367267608643e-02 -7.503492757678031921e-03 2.766830027103424072e-01 1.196402981877326965e-01 1.973469406366348267e-01 -4.550067186355590820e-01 -3.194182366132736206e-02 -9.671732038259506226e-02 -9.483003616333007812e-02 2.198767289519309998e-02 1.432284247130155563e-02 6.503121694549918175e-04 2.600919902324676514e-01 1.777575463056564331e-01 2.177775949239730835e-01 1.089152246713638306e-01 1.042638048529624939e-01 8.431863039731979370e-02 -1.789028644561767578e-01 -3.111013472080230713e-01 -4.294362962245941162e-01 1.152807846665382385e-01 -6.273409724235534668e-02 -2.228016704320907593e-01 6.887853145599365234e-02 1.668473519384860992e-02 -1.213756501674652100e-01 9.202449768781661987e-02 -1.434848308563232422e-01 7.864874601364135742e-02 -1.816446147859096527e-02 -2.824343144893646240e-01 -4.428432881832122803e-01 1.409185230731964111e-01 -7.543262839317321777e-02 -1.089506223797798157e-01 3.412169218063354492e-01 -1.521083563566207886e-01 -1.317569315433502197e-01 -4.510626792907714844e-01 -6.667621433734893799e-02 -1.547878794372081757e-02 -4.595003128051757812e-01 5.232111737132072449e-02 -3.019074536859989166e-02 -2.912315428256988525e-01 -2.125521153211593628e-01 9.817861020565032959e-02 -3.274176120758056641e-01 -3.237974643707275391e-02 -2.480081915855407715e-01 -1.360237002372741699e-01 7.382081449031829834e-02 -2.562360763549804688e-01 2.666175961494445801e-01 1.628583222627639771e-01 8.596093207597732544e-02 -4.058404564857482910e-01 -1.027745380997657776e-01 -3.041133582592010498e-01 8.289341628551483154e-02 1.125679090619087219e-01 5.681023374199867249e-02 1.155295073986053467e-01 9.184383600950241089e-02 1.131016686558723450e-01 4.169239103794097900e-02 -9.189208038151264191e-03 -2.831945717334747314e-01 -8.734842762351036072e-03 -9.720884263515472412e-02 -6.317992508411407471e-02 -3.227216303348541260e-01 -1.980492472648620605e-02 -3.581182658672332764e-01 5.056947469711303711e-02 1.191344410181045532e-01 -1.242424771189689636e-01 -6.722049415111541748e-02 2.587474286556243896e-01 -9.743557870388031006e-02 1.817047744989395142e-01 -2.482595890760421753e-01
-7.403259724378585815e-02 -1.107588037848472595e-02 1.228627860546112061e-01 -2.682124264538288116e-02 1.544677466154098511e-01 -2.534427866339683533e-02 1.054196208715438843e-01 7.823494076728820801e-02 5.717020947486162186e-03 -1.267120242118835449e-01 1.026179119944572449e-01 9.449760615825653076e-02 1.772284805774688721e-01 2.963388897478580475e-02 -1.339611411094665527e-01 -3.108010888099670410e-01 4.111794382333755493e-02 1.378855258226394653e-01 2.167326956987380981e-01 -2.733394503593444824e-01 1.090628579258918762e-01 2.297702878713607788e-01 -1.738609075546264648e-01 -3.669367134571075439e-01 -7.034114748239517212e-02 9.049232304096221924e-02 4.578021913766860962e-02 6.557746231555938721e-02 -5.131896585226058960e-02 -3.880698233842849731e-02 1.089063808321952820e-01 2.864961028099060059e-01 -1.730510145425796509e-01 -1.687383949756622314e-01 2.282133251428604126e-01 1.288685500621795654e-01 -6.475127488374710083e-02 2.354345321655273438e-01 1.307048201560974121e-01 5.085743963718414307e-02 -1.130176037549972534e-01 4.183755442500114441e-02 4.610155895352363586e-02 1.798330247402191162e-01 8.505941182374954224e-02 1.613201051950454712e-01 -8.864542841911315918e-02 2.560278773307800293e-01 -1.248490437865257263e-01 -1.651846766471862793e-01 4.915141686797142029e-02 2.167098671197891235e-01 2.925888895988464355e-01 -2.493321709334850311e-02 2.372321188449859619e-01 1.380780339241027832e-01 7.623997330665588379e-02 -6.723225861787796021e-02 -1.859339028596878052e-01 -2.795056104660034180e-01 -4.000295698642730713e-02 -1.053075715899467468e-01 3.344900608062744141e-01 -1.066486164927482605e-01 -5.674994364380836487e-02 -4.615113437175750732e-01 -1.151631176471710205e-01 1.902322918176651001e-01 9.436244517564773560e-02 -2.261060327291488647e-01 7.245154678821563721e-02 2.093780487775802612e-01 2.490923739969730377e-02 -2.170675247907638550e-01 1.151559427380561829e-01 -2.774106860160827637e-01 7.831597328186035156e-02 5.971572361886501312e-03 1.779276728630065918e-01 -9.755267947912216187e-02 -1.084397509694099426e-01 -1.505219005048274994e-02 -2.243228405714035034e-01 -2.017836570739746094e-01 -2.140024490654468536e-02 -4.332594871520996094e-01 -3.129149675369262695e-01 1.312279552221298218e-01 3.147382140159606934e-01 -1.937378644943237305e-01 -9.185496717691421509e-02 2.562169358134269714e-02 -3.996004164218902588e-02 -2.846527844667434692e-02 -2.684053778648376465e-01 -1.058264225721359253e-01 -1.446479111909866333e-01 -2.243474870920181274e-01 -1.547895520925521851e-01 -3.494430482387542725e-01 3.217625990509986877e-02 -2.133336514234542847e-01 -5.558473467826843262e-01 -1.543076336383819580e-01 -8.139138109982013702e-03 -3.017091155052185059e-01 -3.757775723934173584e-01 6.476940214633941650e-02 -1.999535709619522095e-01 2.085517644882202148e-01 -5.991842225193977356e-02 -3.738421201705932617e-01 -6.346247158944606781e-03 6.333987414836883545e-02 -2.083029299974441528e-01 -3.469533622264862061e-01 -1.598680913448333740e-01 1.220258325338363647e-01 -7.940350472927093506e-02 1.255644410848617554e-01 4.817990958690643311e-02 3.934353962540626526e-02 -2.983392179012298584e-01 -8.918737620115280151e-02 1.099695563316345215e-01 -3.127740919589996338e-01 2.826650738716125488e-01 2.593693137168884277e-01
