2.353410422801971436e-02
-9.808605164289474487e-02
5.701680481433868408e-02
6.895547360181808472e-02
1.202966570854187012e-01
3.702002810314297676e-03
-9.242905676364898682e-02
8.593552559614181519e-02
6.967229396104812622e-02
9.687180817127227783e-02
-1.252079103142023087e-02
4.731581360101699829e-02
-1.540907192975282669e-02
5.688391253352165222e-02
-2.068223245441913605e-02
-2.808972494676709175e-03
-2.418202348053455353e-02
-9.842466562986373901e-03
-2.314626798033714294e-02
-2.652354538440704346e-02
-4.492311179637908936e-02
3.399014472961425781e-02
-7.179433014243841171e-03
-8.500065654516220093e-03
5.741228535771369934e-02
4.161943867802619934e-02
-5.225131288170814514e-03
-9.367116689682006836e-01
-2.976637780666351318e-01
-4.288814030587673187e-03
-1.665945723652839661e-02
3.608244657516479492e-01
-6.425298750400543213e-02
-1.821056939661502838e-02
-1.287112478166818619e-02
-6.262190174311399460e-03
7.353967428207397461e-02
4.260458517819643021e-03
-1.076904162764549255e-01
-1.734545826911926270e-01
1.233386434614658356e-02
-2.962427027523517609e-02
7.145120948553085327e-02
-1.917807385325431824e-02
-6.940893083810806274e-02
-6.303049623966217041e-02
-1.429694332182407379e-02
1.331550180912017822e-01
3.267716616392135620e-02
1.900613158941268921e-01
-2.780794538557529449e-02
-6.812973320484161377e-02
-1.522924564778804779e-02
-5.736256763339042664e-02
-8.721921592950820923e-03
2.315056696534156799e-02
-3.515767864882946014e-03
-3.811106143984943628e-04
-2.783083021640777588e-01
-2.060641348361968994e-02
2.506041899323463440e-02
4.400438815355300903e-02
3.459243476390838623e-02
-2.955714464187622070e-01
6.830612570047378540e-02
8.779702335596084595e-02
-4.201068729162216187e-02
-1.951182633638381958e-02
-1.480225939303636551e-03
-3.767848610877990723e-01
7.029542326927185059e-02
6.547457724809646606e-02
-4.908757805824279785e-01
-1.595748402178287506e-02
1.823811419308185577e-02
-7.685403805226087570e-03
-1.022032368928194046e-02
2.428403310477733612e-02
-1.417324505746364594e-02
-3.479876220226287842e-01
-2.164658531546592712e-02
1.227075140923261642e-02
8.053755387663841248e-03
-3.490839386358857155e-03
7.723345607519149780e-02
1.958293095231056213e-02
1.047947183251380920e-01
2.313194423913955688e-02
1.820879988372325897e-02
1.067130044102668762e-01
-9.217990040779113770e-01
3.050614846870303154e-03
-7.220601290464401245e-02
-1.537543069571256638e-02
7.797988597303628922e-03
6.859964877367019653e-02
6.068988889455795288e-02
4.665758088231086731e-02
-1.606565527617931366e-02
8.786281198263168335e-02
2.098921127617359161e-02
-2.384277731180191040e-01
1.297822874039411545e-02
-4.514507204294204712e-02
4.587538912892341614e-02
2.025496773421764374e-02
1.775810271501541138e-01
-1.003287434577941895e+00
-6.858387589454650879e-02
-7.174745798110961914e-01
3.945954442024230957e-01
-2.494046278297901154e-02
-5.838588625192642212e-02
9.934560954570770264e-02
-8.031304925680160522e-02
2.049707770347595215e-01
4.317590594291687012e-02
1.500208675861358643e-01
-1.019423723220825195e+00
2.700293809175491333e-02
-1.007410511374473572e-01
2.547227311879396439e-03
-2.960183322429656982e-01
5.765519570559263229e-03
-2.268896996974945068e-01
-1.122948005795478821e-01
3.476960062980651855e-01
1.687441021203994751e-01
