2.931989133358001709e-01 3.441292047500610352e-01 5.586295127868652344e-01 9.712143987417221069e-02 1.623917579650878906e+00 3.017545938491821289e-01 1.083349347114562988e+00 1.229425668716430664e+00 9.261265397071838379e-01 4.535837769508361816e-01 2.290286719799041748e-01 1.030242919921875000e+00 1.563335657119750977e+00 7.634660005569458008e-01 4.364256381988525391e+00 1.420248627662658691e+00 9.063253402709960938e-01 1.888864859938621521e-02 2.726917743682861328e+00 1.754008293151855469e+00 -1.599130481481552124e-01 8.568168878555297852e-01 6.066506356000900269e-02 7.049066424369812012e-01 8.448353409767150879e-01 6.410903334617614746e-01 2.296288728713989258e+00 1.148245334625244141e+00 7.078362256288528442e-02 2.609098911285400391e+00 -3.527235686779022217e-01 9.705265164375305176e-01 1.845505237579345703e+00 4.081666767597198486e-01 7.614756226539611816e-01 8.020426034927368164e-01 4.872411787509918213e-01 1.105592370033264160e+00 8.530734777450561523e-01 6.010942459106445312e-01 8.016323447227478027e-01 9.930357336997985840e-01 1.122011065483093262e+00 2.287773847579956055e+00 -3.363925814628601074e-01 2.588755190372467041e-01 1.598015427589416504e+00 5.845021009445190430e-01 1.154501318931579590e+00 3.292034864425659180e+00 8.326046466827392578e-01 9.198293089866638184e-01 3.664756119251251221e-01 -3.739377483725547791e-02 1.108353972434997559e+00 2.295229196548461914e+00 1.125865817070007324e+00 -3.004786744713783264e-02 1.836696743965148926e+00 1.276324868202209473e+00 8.415630087256431580e-03 1.874708056449890137e+00 -1.463834494352340698e-01 1.263755261898040771e-01 4.558240473270416260e-01 2.690060853958129883e+00 -2.863518893718719482e-01 8.261578530073165894e-02 5.911399722099304199e-01 6.906763911247253418e-01 3.611435592174530029e-01 5.576080679893493652e-01 2.233267307281494141e+00 1.367385238409042358e-01 1.865451455116271973e+00 4.550615847110748291e-01 3.495846688747406006e-01 2.563143968582153320e-01 1.118399024009704590e+00 8.774697780609130859e-01 3.099769353866577148e-01 4.238075911998748779e-01 5.637343525886535645e-01 6.698762178421020508e-01 2.514714956283569336e+00 4.137698411941528320e-01 8.052027225494384766e-02 1.410650253295898438e+00 -8.692691922187805176e-01 1.906595826148986816e+00 6.942125558853149414e-01 9.019173979759216309e-01 2.608098983764648438e+00 -1.415195465087890625e-01 1.099367141723632812e-01 4.746277034282684326e-01 5.674116015434265137e-01 -2.889565527439117432e-01 1.423285722732543945e+00 4.354618787765502930e-01 2.498251758515834808e-02 1.297794938087463379e+00 -1.493946433067321777e+00 -9.017732739448547363e-01 2.214093923568725586e+00 1.574340701103210449e+00 -3.840668126940727234e-02 2.345538586378097534e-01 -7.233430147171020508e-01 6.813195347785949707e-01 1.834977030754089355e+00 -2.825743556022644043e-01 -2.155490517616271973e-01 3.536464571952819824e-01 2.923547029495239258e-01 7.124356925487518311e-03 9.252275228500366211e-01 5.513344407081604004e-01 4.469690918922424316e-01 1.611026287078857422e+00 3.216058969497680664e+00 4.033855199813842773e-01 1.692613363265991211e+00 2.325528711080551147e-01 3.766825795173645020e-01 7.531764507293701172e-01 1.357155799865722656e+00 3.994567692279815674e-01
-3.923222422599792480e-01 1.223544239997863770e+00 6.205791234970092773e-01 4.786513447761535645e-01 2.381187200546264648e+00 5.442944765090942383e-01 -3.735866770148277283e-02 4.493364393711090088e-01 4.363023936748504639e-01 -1.653494983911514282e-01 -1.600546687841415405e-01 1.493144512176513672e+00 1.267169237136840820e+00 6.448957324028015137e-01 5.597478747367858887e-01 1.306600421667098999e-01 3.365962207317352295e-01 5.406665205955505371e-01 5.716415047645568848e-01 1.574298858642578125e+00 1.127876162528991699e+00 8.124021291732788086e-01 -2.827243208885192871e-01 1.018655300140380859e-01 4.099299311637878418e-01 7.274850606918334961e-01 1.441575646400451660e+00 1.238113641738891602e+00 6.292435526847839355e-01 3.990142643451690674e-01 6.420766115188598633e-01 1.771312594413757324e+00 1.918338060379028320e+00 4.650879502296447754e-01 5.807171463966369629e-01 8.160870671272277832e-01 2.559267878532409668e-01 9.968144297599792480e-01 7.735736370086669922e-01 7.969042658805847168e-01 1.891265153884887695e+00 -1.717341244220733643e-01 6.200888752937316895e-01 3.226840198040008545e-01 6.707125902175903320e-02 6.626761555671691895e-01 1.658010959625244141e+00 1.159147173166275024e-01 -9.138579666614532471e-02 1.980347871780395508e+00 1.009445548057556152e+00 1.785722225904464722e-01 2.619242668151855469e-01 4.181021079421043396e-02 1.680402874946594238e+00 4.959475696086883545e-01 1.865137219429016113e+00 -4.786080494523048401e-02 1.150734782218933105e+00 1.066240310668945312e+00 -2.092340886592864990e-01 1.407722234725952148e+00 -2.074847072362899780e-01 9.565892815589904785e-02 4.736126959323883057e-01 1.613587886095046997e-01 6.877800822257995605e-02 -1.004960760474205017e-01 -3.522016406059265137e-01 5.250355005264282227e-01 3.948016166687011719e-01 4.835852980613708496e-01 2.620302677154541016e+00 2.005394697189331055e-01 6.433452665805816650e-02 9.121381640434265137e-01 5.400927066802978516e-01 1.111324429512023926e-01 9.673961997032165527e-01 1.948852837085723877e-01 -1.433878904208540916e-03 6.369751691818237305e-01 3.383491635322570801e-01 4.033775627613067627e-01 1.723261833190917969e+00 7.238258123397827148e-01 4.994984269142150879e-01 8.410952687263488770e-01 -1.690938770771026611e-01 1.279879689216613770e+00 1.027247667312622070e+00 3.645526766777038574e-01 1.997250318527221680e+00 -1.217575892806053162e-01 6.690008044242858887e-01 5.067681670188903809e-01 2.191004902124404907e-01 1.488423466682434082e+00 1.146081566810607910e+00 1.709918081760406494e-01 -2.137513011693954468e-01 5.076152682304382324e-01 -1.195845305919647217e-01 1.775741949677467346e-02 4.493312239646911621e-01 1.096339941024780273e+00 5.410636588931083679e-02 1.009986400604248047e-01 4.227951467037200928e-01 1.291977316141128540e-01 6.211841702461242676e-01 -4.245098233222961426e-01 2.205019295215606689e-01 -1.399444532580673695e-03 7.328002452850341797e-01 -2.886319458484649658e-01 1.041136384010314941e+00 2.727675139904022217e-01 -2.576610632240772247e-02 1.717899680137634277e+00 2.227456331253051758e+00 4.733679443597793579e-02 1.412339568138122559e+00 1.243429541587829590e+00 9.157998561859130859e-01 1.259414404630661011e-01 3.282077908515930176e-01 -2.867608070373535156e-01
2.162151634693145752e-01 4.431013166904449463e-01 3.114895224571228027e-01 4.069779217243194580e-01 7.889817357063293457e-01 7.116574048995971680e-01 -1.922763884067535400e-02 4.722948744893074036e-02 1.240950226783752441e+00 3.236185312271118164e-01 -1.435501277446746826e-01 1.163748145103454590e+00 3.705851137638092041e-01 5.102515220642089844e-01 1.720112204551696777e+00 7.603026032447814941e-01 1.714709043502807617e+00 8.942413330078125000e-02 1.307055819779634476e-02 -6.791715323925018311e-02 1.203365206718444824e+00 4.697633162140846252e-02 1.655185967683792114e-01 1.121016502380371094e+00 -1.490409076213836670e-01 6.815589666366577148e-01 1.740499377250671387e+00 5.068764090538024902e-01 -1.198049858212471008e-01 1.114277482032775879e+00 -3.298614323139190674e-01 1.345313787460327148e+00 1.141796231269836426e+00 6.383507251739501953e-01 4.276054725050926208e-02 8.805596232414245605e-01 1.253607422113418579e-01 -3.885087668895721436e-01 1.913024038076400757e-01 9.078442454338073730e-01 1.580841690301895142e-01 8.902107179164886475e-02 1.108020544052124023e+00 3.428453505039215088e-01 -6.060482859611511230e-01 9.281033277511596680e-01 1.762462705373764038e-01 5.342704653739929199e-01 -2.718090116977691650e-01 1.253689289093017578e+00 1.659073710441589355e+00 6.470292806625366211e-01 -2.709352672100067139e-01 6.555305719375610352e-01 7.589217424392700195e-01 -4.539494514465332031e-01 5.065962076187133789e-01 4.980445504188537598e-01 7.393867969512939453e-01 4.856438636779785156e-01 4.807696342468261719e-01 4.858305752277374268e-01 -2.770296931266784668e-01 -3.349274098873138428e-01 7.404386401176452637e-01 3.633675277233123779e-01 3.250956833362579346e-01 -1.995232403278350830e-01 2.543525993824005127e-01 8.468008041381835938e-01 5.577999949455261230e-01 3.747615516185760498e-01 1.562650203704833984e+00 1.071622014045715332e+00 2.955178022384643555e-01 1.997297883033752441e+00 1.999144554138183594e-01 1.427099257707595825e-01 -2.119392752647399902e-01 8.184914290904998779e-02 9.198585152626037598e-02 1.621216535568237305e-01 5.645055770874023438e-01 4.502885043621063232e-01 1.249373674392700195e+00 9.798817038536071777e-01 4.055493474006652832e-01 2.704780340194702148e+00 -6.077705025672912598e-01 1.664958715438842773e+00 1.810569316148757935e-01 7.357676625251770020e-01 -3.992901742458343506e-01 2.947940528392791748e-01 -1.517915632575750351e-03 3.541595041751861572e-01 2.924996614456176758e-01 -2.058521658182144165e-01 1.211260318756103516e+00 5.262717604637145996e-01 -3.673037886619567871e-01 4.963795244693756104e-01 -2.454236000776290894e-01 -2.954233884811401367e-01 4.410194754600524902e-01 2.318014383316040039e+00 -9.212484955787658691e-02 3.262378573417663574e-01 6.292320489883422852e-01 -1.301221102476119995e-01 1.440918207168579102e+00 -2.732918560504913330e-01 7.777233421802520752e-02 -3.095936179161071777e-01 5.837644338607788086e-01 -1.232319995760917664e-01 1.723778486251831055e+00 -1.842734366655349731e-01 -6.336972117424011230e-02 2.317449599504470825e-01 1.903380870819091797e+00 2.497102469205856323e-01 8.887019753456115723e-01 -6.323508024215698242e-01 -7.218227982521057129e-01 1.901521205902099609e+00 1.089756488800048828e+00 4.495543837547302246e-01
9.972890019416809082e-01 1.011306345462799072e-01 9.525281786918640137e-01 -4.238688573241233826e-02 2.143859624862670898e+00 3.564581573009490967e-01 8.581615686416625977e-01 3.429116308689117432e-01 4.993152916431427002e-01 1.217755079269409180e+00 1.249148249626159668e+00 1.669028520584106445e+00 1.459326744079589844e+00 1.786725521087646484e+00 1.986584424972534180e+00 2.537560939788818359e+00 1.579978704452514648e+00 2.786760032176971436e-01 3.121709823608398438e-01 -3.004014492034912109e-01 2.933180809020996094e+00 1.028315424919128418e+00 -1.860753595829010010e-01 1.253930330276489258e+00 2.109250426292419434e-01 1.657260656356811523e-01 2.212728261947631836e-01 9.129702448844909668e-01 4.309064745903015137e-01 8.971799612045288086e-01 6.097660660743713379e-01 1.191493153572082520e+00 1.730368614196777344e+00 9.319581389427185059e-01 8.401959538459777832e-01 1.450117468833923340e+00 2.864487767219543457e-01 6.525953412055969238e-01 6.171150207519531250e-01 -4.784495830535888672e-01 2.065536677837371826e-01 -1.211135506629943848e+00 -6.351233720779418945e-01 1.461173295974731445e-01 -5.043828487396240234e-01 -2.805040478706359863e-01 1.269102692604064941e+00 6.467003226280212402e-01 -1.220214962959289551e+00 1.697443008422851562e+00 8.883715420961380005e-02 1.667906403541564941e+00 1.176782250404357910e+00 -7.854856848716735840e-01 2.172108888626098633e+00 2.763351798057556152e-01 1.559555649757385254e+00 6.404196619987487793e-01 5.930745601654052734e-01 3.478273153305053711e-01 -8.994266390800476074e-02 1.209526419639587402e+00 -1.293582320213317871e-01 -1.950764805078506470e-01 6.283537298440933228e-02 1.461253464221954346e-01 8.845589756965637207e-01 -2.034168243408203125e-01 5.217731595039367676e-01 -8.498614281415939331e-02 5.644554495811462402e-01 6.478859186172485352e-01 2.664670705795288086e+00 5.243679508566856384e-02 4.168241977691650391e+00 3.466956317424774170e-01 3.350742757320404053e-01 5.741345286369323730e-01 2.261109590530395508e+00 3.360887765884399414e+00 3.071621954441070557e-01 4.261137247085571289e-01 2.001322060823440552e-01 8.417272567749023438e-01 1.954750418663024902e-01 5.229957699775695801e-01 1.466159224510192871e-01 2.379874289035797119e-01 4.293013811111450195e-01 1.046044349670410156e+00 2.875018596649169922e+00 1.049711704254150391e+00 4.558832943439483643e-01 2.549024820327758789e-01 1.955409795045852661e-01 2.282498121261596680e+00 4.908623397350311279e-01 1.256724119186401367e+00 4.657686129212379456e-02 6.977505981922149658e-02 5.290261656045913696e-02 3.847650289535522461e-01 -1.541859149932861328e+00 -6.287410855293273926e-01 4.166907370090484619e-01 7.859002947807312012e-01 5.116262435913085938e-01 -3.611461222171783447e-01 2.155261754989624023e+00 1.024772599339485168e-01 7.350470423698425293e-01 6.768257170915603638e-02 6.418808102607727051e-01 1.667399108409881592e-01 -5.748358368873596191e-01 2.457848042249679565e-01 1.395916819572448730e+00 1.518300622701644897e-01 7.509250044822692871e-01 1.735278964042663574e+00 2.440898120403289795e-01 6.357181072235107422e-01 4.511873722076416016e-01 8.077505230903625488e-01 1.209342181682586670e-01 4.128729104995727539e-01 5.237837433815002441e-01 -1.310426354408264160e+00
-1.455561667680740356e-01 1.112044453620910645e+00 -2.517618425190448761e-02 2.814505696296691895e-01 3.613063395023345947e-01 7.709649801254272461e-01 8.666052818298339844e-01 -1.654280275106430054e-01 9.838601946830749512e-01 7.104899287223815918e-01 -7.909420877695083618e-02 3.311181366443634033e-01 5.342055559158325195e-01 7.144497632980346680e-01 1.231158852577209473e+00 1.582341670989990234e+00 1.312975883483886719e+00 1.116540729999542236e-01 1.195394754409790039e+00 6.513807773590087891e-01 -8.637886643409729004e-01 1.008555173873901367e+00 -5.204635858535766602e-01 2.038457870483398438e+00 6.744805723428726196e-02 -2.571357190608978271e-01 3.493319749832153320e-01 7.173120975494384766e-01 4.317225217819213867e-01 1.771693468093872070e+00 2.615781128406524658e-01 1.306892991065979004e+00 2.120476484298706055e+00 4.911088049411773682e-01 1.224075928330421448e-01 4.323552548885345459e-01 7.024877071380615234e-01 1.380265474319458008e+00 -2.052103430032730103e-01 1.270910024642944336e+00 2.198287248611450195e+00 2.395724773406982422e+00 1.246964812278747559e+00 1.254891276359558105e+00 -3.400739431381225586e-01 7.207480669021606445e-01 1.040595293045043945e+00 2.919547259807586670e-01 1.846159815788269043e+00 1.390826702117919922e+00 1.197813391685485840e+00 2.218912601470947266e+00 1.767521649599075317e-01 -2.718069851398468018e-01 9.914402961730957031e-01 1.591348052024841309e+00 6.665056347846984863e-01 4.854124486446380615e-01 8.330843448638916016e-01 7.632294893264770508e-01 1.256814748048782349e-01 1.553226470947265625e+00 -1.914678514003753662e-02 -3.820347785949707031e-01 2.470199167728424072e-01 2.316734313964843750e+00 3.820604383945465088e-01 2.260676920413970947e-01 1.857769489288330078e+00 1.495681107044219971e-01 -8.946093171834945679e-02 3.573800921440124512e-01 1.259915709495544434e+00 1.058103322982788086e+00 1.419110655784606934e+00 2.164433002471923828e+00 6.831483840942382812e-01 -2.227690070867538452e-01 6.661155819892883301e-01 4.698028266429901123e-01 3.248737752437591553e-01 9.283475279808044434e-01 -3.100179508328437805e-02 2.562384903430938721e-01 1.986160159111022949e+00 -3.529312014579772949e-01 2.341234236955642700e-01 1.016586542129516602e+00 1.012974381446838379e-01 -2.999300658702850342e-01 9.781211018562316895e-01 4.899467527866363525e-01 2.732002019882202148e+00 3.968820869922637939e-01 -8.791784755885601044e-03 -7.512010335922241211e-01 1.376122385263442993e-01 -6.285858750343322754e-01 1.282198786735534668e+00 2.215964943170547485e-01 3.107449114322662354e-01 1.033193469047546387e+00 -4.052666425704956055e-01 -6.484147310256958008e-01 2.565598487854003906e+00 1.976487040519714355e+00 2.420160323381423950e-01 7.154863476753234863e-01 -1.168034911155700684e+00 2.227570861577987671e-01 8.908221721649169922e-01 -3.203609585762023926e-01 7.125277519226074219e-01 6.940327286720275879e-01 8.469097614288330078e-01 1.857334747910499573e-03 9.089836478233337402e-01 2.186363637447357178e-01 -1.918053627014160156e-02 1.054004430770874023e+00 -4.077532589435577393e-01 -1.982507854700088501e-01 1.968486666679382324e+00 -1.775210976600646973e+00 -5.528833270072937012e-01 9.249974489212036133e-01 1.506733655929565430e+00 4.741879180073738098e-02
6.560802459716796875e-01 4.550866317003965378e-03 -2.954323589801788330e-01 -1.969137042760848999e-01 -7.342511415481567383e-02 8.432626724243164062e-01 1.529315412044525146e-01 -1.073726788163185120e-01 5.736445784568786621e-01 6.187660098075866699e-01 -1.726163327693939209e-01 1.048763751983642578e+00 1.106256693601608276e-01 1.555072546005249023e+00 1.168040037155151367e+00 2.390053123235702515e-01 1.218300536274909973e-01 6.867725849151611328e-01 1.431708574295043945e+00 1.024967879056930542e-01 -7.050185799598693848e-01 1.959815472364425659e-01 4.672728776931762695e-01 8.590083122253417969e-01 2.954187989234924316e-01 -2.375759743154048920e-02 4.581585526466369629e-01 -1.248463153839111328e+00 -6.249616742134094238e-01 2.676669359207153320e-01 5.167940855026245117e-01 2.483449429273605347e-01 1.325117468833923340e+00 2.248088270425796509e-01 -2.511968910694122314e-01 -4.814965184777975082e-03 -3.539937436580657959e-01 1.241390630602836609e-01 6.081390380859375000e-01 -1.246392820030450821e-02 1.106955170631408691e+00 3.060295343399047852e+00 4.257612526416778564e-01 4.884791672229766846e-01 1.272810697555541992e-01 6.158251166343688965e-01 -9.110587090253829956e-02 6.628641486167907715e-02 1.919989228248596191e+00 4.985372126102447510e-01 1.539467334747314453e+00 1.218072295188903809e+00 2.437084913253784180e-01 6.117998361587524414e-01 9.528309702873229980e-01 1.567467689514160156e+00 9.098978713154792786e-03 -4.585692584514617920e-01 2.358076274394989014e-01 8.170682191848754883e-02 2.632317841053009033e-01 1.536997109651565552e-01 -2.857730090618133545e-01 3.452366590499877930e-01 6.665659546852111816e-01 2.209884643554687500e+00 5.308823585510253906e-01 4.102985858917236328e-01 1.064474701881408691e+00 7.010466456413269043e-01 5.636311173439025879e-01 6.352484226226806641e-01 1.032634139060974121e+00 7.810234427452087402e-01 1.637304544448852539e+00 1.719095706939697266e-01 2.601443529129028320e-01 3.296780884265899658e-01 -2.897099256515502930e-01 1.005275487899780273e+00 -7.751460373401641846e-02 -1.523557677865028381e-02 -2.935431003570556641e-01 5.446546077728271484e-01 8.992850184440612793e-01 -7.098662853240966797e-01 3.194708377122879028e-02 4.457891881465911865e-01 -1.493007093667984009e-01 -1.171804964542388916e-01 5.787847638130187988e-01 7.674152255058288574e-01 6.537702679634094238e-01 1.977047920227050781e-01 7.495419681072235107e-02 -6.891196221113204956e-02 5.057201981544494629e-01 -1.006320834159851074e+00 1.583127737045288086e+00 -3.632863238453865051e-02 2.957008965313434601e-02 1.424145221710205078e+00 -9.553779363632202148e-01 1.133913159370422363e+00 -3.610654175281524658e-01 2.583313703536987305e+00 4.913066923618316650e-01 6.714836508035659790e-02 -1.998994469642639160e+00 8.065247535705566406e-02 -5.960451364517211914e-01 -5.920525640249252319e-02 -1.381283551454544067e-01 -1.673542261123657227e-01 4.673357307910919189e-01 -4.119127392768859863e-01 1.243108272552490234e+00 1.481103301048278809e-01 7.319628596305847168e-01 6.992355585098266602e-01 6.077243685722351074e-01 -3.125568926334381104e-01 5.471916198730468750e-01 -1.287764072418212891e+00 -2.920261621475219727e-01 1.720695257186889648e+00 -1.831291913986206055e-01 8.649426698684692383e-01
-2.710422873497009277e-02 1.900370270013809204e-01 1.727548688650131226e-01 -3.065667748451232910e-01 7.212058305740356445e-01 -1.482138186693191528e-01 2.625924348831176758e-01 3.062120378017425537e-01 -1.790885329246520996e-01 6.955440640449523926e-01 4.407260194420814514e-02 -1.224914863705635071e-01 1.362924426794052124e-01 2.857981681823730469e+00 1.620960354804992676e+00 3.775933086872100830e-01 3.722751140594482422e-01 4.411371648311614990e-01 8.633272647857666016e-01 1.224348187446594238e+00 5.755215883255004883e-01 2.775595188140869141e-01 -1.425683498382568359e-01 -1.490804553031921387e-01 3.886615037918090820e-01 7.992774844169616699e-01 7.149497270584106445e-01 8.255449533462524414e-01 -2.395813763141632080e-01 1.260632872581481934e+00 1.531436324119567871e+00 5.474559068679809570e-01 4.015939533710479736e-01 -2.569090127944946289e-01 2.354722172021865845e-01 2.527801990509033203e-01 7.535016536712646484e-01 6.976543664932250977e-01 7.462236881256103516e-01 2.082654684782028198e-01 5.957311391830444336e-02 -6.123504638671875000e-01 -2.752948999404907227e-01 1.057236790657043457e+00 7.437840104103088379e-01 5.211071372032165527e-01 1.172243833541870117e+00 3.034700751304626465e-01 -3.411182165145874023e-01 -1.186002716422080994e-01 2.117199301719665527e-01 -3.895230293273925781e-01 9.798231720924377441e-02 3.062171041965484619e-01 1.076963186264038086e+00 3.890345990657806396e-01 -1.700119376182556152e-01 7.684679329395294189e-02 1.320971012115478516e+00 -2.533140778541564941e-01 6.353786587715148926e-01 1.257361888885498047e+00 4.095152392983436584e-02 -5.817563831806182861e-02 6.627487391233444214e-02 1.916337874718010426e-03 4.462010040879249573e-02 -1.322808712720870972e-01 4.400810599327087402e-01 5.700278878211975098e-01 7.187087535858154297e-01 5.519781261682510376e-02 2.172786474227905273e+00 -4.615316390991210938e-01 6.000756621360778809e-01 1.410070955753326416e-01 2.652860432863235474e-02 2.971728444099426270e-01 1.568419337272644043e+00 -6.854192912578582764e-02 2.008499354124069214e-01 1.335585713386535645e+00 7.322820425033569336e-01 1.811244040727615356e-01 1.439276218414306641e+00 1.363758891820907593e-01 -3.174330107867717743e-03 -1.819766163825988770e-01 1.011598587036132812e+00 5.495504736900329590e-01 9.733411073684692383e-01 3.391111195087432861e-01 1.910711169242858887e+00 -3.832566440105438232e-01 -5.666163563728332520e-01 6.893986463546752930e-01 1.978006362915039062e-01 5.271030664443969727e-01 2.027469128370285034e-01 2.911310493946075439e-01 -2.963535189628601074e-01 4.005360305309295654e-01 -1.434933543205261230e+00 -5.875135064125061035e-01 1.310098767280578613e+00 7.550139427185058594e-01 3.388935029506683350e-01 1.118326663970947266e+00 8.617191910743713379e-01 -2.802642285823822021e-01 6.784541010856628418e-01 -5.446190237998962402e-01 8.549142628908157349e-02 2.011911273002624512e-01 -5.399090051651000977e-01 -8.272494673728942871e-01 5.708391666412353516e-01 6.574474275112152100e-02 5.498045682907104492e-01 7.842947244644165039e-01 9.002063274383544922e-01 -1.026724502444267273e-01 1.752573370933532715e+00 3.329921364784240723e-01 -2.170017361640930176e-02 1.655807018280029297e+00 1.835730113089084625e-02 2.082498520612716675e-01
-2.515260875225067139e-02 3.698003888130187988e-01 2.258667051792144775e-01 5.302230119705200195e-01 -4.551967084407806396e-01 1.131278038024902344e+00 1.668913066387176514e-01 1.894109249114990234e-01 1.283251196146011353e-01 7.750054597854614258e-01 5.680227279663085938e-01 2.762131690979003906e-01 1.379620671272277832e+00 -1.919873654842376709e-01 8.388518691062927246e-01 6.479163169860839844e-01 3.640486001968383789e-01 3.261864483356475830e-01 2.083944343030452728e-02 2.848870158195495605e-01 9.588518738746643066e-01 -6.596349179744720459e-02 7.049015760421752930e-01 7.402496933937072754e-01 1.840313374996185303e-01 4.006549417972564697e-01 8.943129777908325195e-01 4.271992444992065430e-01 4.722084403038024902e-01 -2.214656174182891846e-01 -4.047408998012542725e-01 7.040174603462219238e-01 -9.452711939811706543e-01 -1.320828795433044434e-01 4.204212427139282227e-01 5.578920841217041016e-01 -9.237168729305267334e-02 2.040064036846160889e-01 1.596315354108810425e-01 4.840689599514007568e-01 -2.857909500598907471e-01 -1.403036117553710938e+00 6.702522039413452148e-01 7.436902821063995361e-02 -7.968921065330505371e-01 -1.145088449120521545e-01 7.816815376281738281e-02 5.918646454811096191e-01 -7.632931470870971680e-01 6.184417009353637695e-01 5.663334727287292480e-01 -4.331455826759338379e-01 9.735917448997497559e-01 -6.073911190032958984e-01 -6.825861334800720215e-01 -2.565297186374664307e-01 2.914833426475524902e-01 8.651757240295410156e-01 -2.202709168195724487e-01 -3.724131882190704346e-01 8.180018067359924316e-01 -3.812258541584014893e-01 1.786691099405288696e-01 -2.789594829082489014e-01 6.056919693946838379e-01 -1.710387468338012695e-01 4.794442057609558105e-01 8.053569197654724121e-01 2.466397136449813843e-01 5.654925704002380371e-01 2.057690173387527466e-01 6.294769048690795898e-01 -5.979242324829101562e-01 -2.675179839134216309e-01 -5.741520524024963379e-01 1.078721046447753906e+00 7.149942517280578613e-01 5.424780249595642090e-01 2.411429956555366516e-02 -5.488068237900733948e-02 3.691846132278442383e-01 1.356610953807830811e-01 3.731436729431152344e-01 1.058456078171730042e-01 -2.401255369186401367e-01 7.164987921714782715e-01 1.222522333264350891e-01 8.055335879325866699e-01 1.109557151794433594e+00 -1.642873883247375488e-01 6.970306485891342163e-02 2.699766755104064941e-01 3.372638225555419922e-01 4.972403049468994141e-01 3.938453197479248047e-01 7.047842741012573242e-01 6.038681268692016602e-01 2.314260005950927734e-01 -1.322952806949615479e-01 3.535492122173309326e-01 -4.111814871430397034e-02 -4.245024919509887695e-01 2.907298505306243896e-01 -2.600330114364624023e-01 2.889276146888732910e-01 -5.777146220207214355e-01 3.623945415019989014e-01 2.763484716415405273e-01 2.909384667873382568e-01 -2.510852813720703125e-01 4.331180155277252197e-01 2.121584862470626831e-01 7.870072126388549805e-01 5.751623511314392090e-01 -8.199434727430343628e-02 5.249107480049133301e-01 -3.027578294277191162e-01 8.822105526924133301e-01 6.319818645715713501e-02 -1.946991235017776489e-01 1.262457808479666710e-03 -1.723035871982574463e-01 5.745491981506347656e-01 1.329673409461975098e+00 2.933388352394104004e-01 9.762628376483917236e-02 2.696447819471359253e-02 -1.480192989110946655e-01
6.050338149070739746e-01 2.134332358837127686e-01 2.932735979557037354e-01 3.208858072757720947e-01 7.337954640388488770e-02 9.606797099113464355e-01 4.625427126884460449e-01 -1.336108595132827759e-01 1.256176590919494629e+00 5.735268592834472656e-01 7.678360939025878906e-01 1.143571376800537109e+00 4.400239884853363037e-01 2.398174762725830078e+00 4.414537847042083740e-01 1.081955194473266602e+00 1.187836408615112305e+00 4.125111401081085205e-01 6.958166360855102539e-01 6.605955958366394043e-01 1.989753916859626770e-03 8.560292124748229980e-01 -4.159232228994369507e-02 8.131968975067138672e-01 5.068004876375198364e-02 1.816387176513671875e-01 1.674475669860839844e+00 -3.774890601634979248e-01 -5.294300317764282227e-01 5.336730480194091797e-01 5.851310491561889648e-01 1.740280866622924805e+00 1.241264700889587402e+00 6.206722855567932129e-01 -1.635045856237411499e-01 1.078051805496215820e+00 4.818040430545806885e-01 1.322548627853393555e+00 -1.573319286108016968e-01 1.394998431205749512e-01 6.560852527618408203e-01 6.181982755661010742e-01 -7.711531221866607666e-02 1.056441307067871094e+00 -4.389388263225555420e-01 4.713935256004333496e-01 1.242924094200134277e+00 2.478735446929931641e-01 -4.677543342113494873e-01 1.426393270492553711e+00 7.790096998214721680e-01 1.585283875465393066e+00 5.175915732979774475e-02 -1.612849347293376923e-02 1.586123704910278320e+00 7.185609936714172363e-01 4.944093227386474609e-01 5.812494754791259766e-01 2.933774590492248535e-01 2.325318753719329834e-01 2.828632853925228119e-02 4.959713220596313477e-01 2.069029062986373901e-01 2.038397341966629028e-01 4.154303967952728271e-01 1.116807103157043457e+00 5.489987134933471680e-01 9.204896539449691772e-02 1.026791453361511230e+00 5.411557480692863464e-02 2.389666140079498291e-01 2.853555679321289062e-01 1.034229159355163574e+00 5.988516211509704590e-01 2.826163291931152344e+00 8.899988979101181030e-02 4.172396361827850342e-01 5.948880314826965332e-02 7.281332015991210938e-01 2.774428606033325195e+00 9.456768631935119629e-02 -2.333422601222991943e-01 3.863081932067871094e-01 7.582825422286987305e-01 1.261646270751953125e+00 7.065103650093078613e-01 5.795373916625976562e-01 1.461884975433349609e+00 6.121874451637268066e-01 1.075089871883392334e-01 2.425620317459106445e+00 6.856603026390075684e-01 1.375274300575256348e+00 6.201203539967536926e-02 2.426196783781051636e-01 1.297850847244262695e+00 9.074811339378356934e-01 -9.727432131767272949e-01 1.267267942428588867e+00 -2.651054263114929199e-01 -3.008067905902862549e-01 3.658118844032287598e-01 7.860110700130462646e-02 -5.927261710166931152e-01 1.010734081268310547e+00 3.127819776535034180e+00 3.433395922183990479e-01 3.106251060962677002e-01 -2.753225862979888916e-01 4.410293698310852051e-01 -5.511699914932250977e-01 -5.081651210784912109e-01 5.592108368873596191e-01 3.137196004390716553e-01 -1.975856274366378784e-01 2.011308446526527405e-02 2.331258773803710938e+00 1.238276343792676926e-02 4.933134019374847412e-01 1.244093775749206543e+00 1.626566052436828613e+00 7.034177333116531372e-02 1.287354230880737305e+00 1.540470570325851440e-01 -8.233976364135742188e-02 1.421198844909667969e+00 1.368543148040771484e+00 8.197728395462036133e-01
5.736533999443054199e-01 -3.211262822151184082e-02 5.196039080619812012e-01 5.359033942222595215e-01 5.016458034515380859e-01 3.365052863955497742e-02 7.265353202819824219e-02 1.164230108261108398e+00 4.103890955448150635e-01 1.112233042716979980e+00 -2.644726037979125977e-01 7.840376496315002441e-01 1.088305354118347168e+00 5.810626149177551270e-01 1.835232615470886230e+00 6.464150547981262207e-01 -2.165982127189636230e-01 5.527626872062683105e-01 -6.959607452154159546e-02 4.124394357204437256e-01 -7.520486712455749512e-01 1.309684991836547852e+00 8.022210001945495605e-01 1.223106741905212402e+00 1.007429718971252441e+00 2.797884643077850342e-01 2.212237119674682617e+00 8.352335095405578613e-01 6.092138960957527161e-02 1.884080171585083008e-01 -2.694182395935058594e-01 1.436247080564498901e-01 2.481988906860351562e+00 7.261003851890563965e-01 7.948489785194396973e-01 1.282632470130920410e+00 7.366769909858703613e-01 8.457713127136230469e-01 2.473200112581253052e-02 2.272531390190124512e-01 1.778157353401184082e+00 1.389962196350097656e+00 4.587408900260925293e-01 1.304659724235534668e+00 -5.180996060371398926e-01 1.014373540878295898e+00 1.066011309623718262e+00 5.334655642509460449e-01 1.313095688819885254e+00 2.390762805938720703e+00 1.771467685699462891e+00 2.612524032592773438e+00 6.434922814369201660e-01 -7.195065915584564209e-02 2.924134731292724609e-01 1.687401056289672852e+00 1.592914938926696777e+00 5.580809116363525391e-01 1.242045402526855469e+00 6.481848955154418945e-01 1.974404789507389069e-03 5.207777023315429688e-01 -7.742765545845031738e-02 -1.322218626737594604e-01 3.539989888668060303e-01 2.187869071960449219e+00 3.897252678871154785e-01 3.434915840625762939e-01 1.096086144447326660e+00 3.335474133491516113e-01 6.185593605041503906e-01 3.034578859806060791e-01 1.818726658821105957e+00 7.654278874397277832e-01 2.147315025329589844e+00 1.049646615982055664e+00 4.361001551151275635e-01 4.093950688838958740e-01 4.841426312923431396e-01 1.255970120429992676e+00 3.120230436325073242e-01 7.005029320716857910e-01 4.365119338035583496e-01 5.909806489944458008e-01 2.155221939086914062e+00 7.252283692359924316e-01 1.730103194713592529e-01 1.110436916351318359e+00 -3.696306347846984863e-01 1.872150778770446777e+00 -8.233558535575866699e-01 1.081284880638122559e+00 7.085457444190979004e-01 1.064422726631164551e+00 5.831464529037475586e-01 -8.075625896453857422e-01 6.733344197273254395e-01 5.332141518592834473e-01 -6.518493294715881348e-01 5.365793704986572266e-01 2.337502092123031616e-01 6.982004046440124512e-01 -6.492981314659118652e-01 8.256460726261138916e-02 5.114255547523498535e-01 2.007530927658081055e+00 4.722711741924285889e-01 4.963335692882537842e-01 4.505532681941986084e-01 7.341748476028442383e-01 1.385986089706420898e+00 2.509577572345733643e-01 2.061598449945449829e-01 3.552635908126831055e-01 4.671179950237274170e-01 1.881816610693931580e-02 -5.427738428115844727e-01 6.941632926464080811e-02 6.727211475372314453e-01 1.281383752822875977e+00 2.000064134597778320e+00 5.819391012191772461e-01 1.991689324378967285e+00 -1.400644332170486450e-01 3.961762487888336182e-01 6.194639801979064941e-01 1.000839710235595703e+00 9.779114723205566406e-01
7.974085956811904907e-02 5.256711840629577637e-01 5.958453416824340820e-01 3.326865732669830322e-01 9.633581042289733887e-01 1.221622228622436523e+00 6.963069438934326172e-01 8.711863756179809570e-01 5.708404183387756348e-01 1.425892472267150879e+00 -1.160629987716674805e-01 1.031519651412963867e+00 6.346229314804077148e-01 3.860309123992919922e-01 1.087989211082458496e+00 4.547575712203979492e-01 1.524147689342498779e-01 8.592489361763000488e-02 1.096267342567443848e+00 1.356564164161682129e+00 -8.721404075622558594e-01 9.759837388992309570e-01 2.834839522838592529e-01 1.675846695899963379e+00 5.849391222000122070e-01 -8.894582837820053101e-02 8.268511295318603516e-01 4.647511243820190430e-01 4.216900467872619629e-01 1.295626401901245117e+00 4.703409969806671143e-01 8.093497753143310547e-01 3.034088611602783203e+00 8.112865686416625977e-01 7.734799981117248535e-01 1.502396106719970703e+00 -3.554806709289550781e-01 1.290679693222045898e+00 3.494442673400044441e-03 1.510354995727539062e+00 2.032076120376586914e+00 2.588642120361328125e+00 1.644606351852416992e+00 5.552199482917785645e-01 2.763510942459106445e-01 1.492245912551879883e+00 1.060414314270019531e+00 -1.137557346373796463e-02 2.547424316406250000e+00 1.422671914100646973e+00 1.171075582504272461e+00 1.517010211944580078e+00 4.197778105735778809e-01 7.764242291450500488e-01 9.053459167480468750e-01 7.308138012886047363e-01 2.609125852584838867e+00 1.462310075759887695e+00 8.388751745223999023e-01 2.983665466308593750e-01 -2.149669229984283447e-01 2.424604415893554688e+00 -1.353303194046020508e-01 -2.694430053234100342e-01 1.528744995594024658e-01 2.328892707824707031e+00 8.317897319793701172e-01 6.370327472686767578e-01 4.460720717906951904e-01 1.260141491889953613e+00 3.791094720363616943e-01 2.295161783695220947e-01 3.713983535766601562e+00 1.213225960731506348e+00 1.236448049545288086e+00 2.780638933181762695e+00 5.981592833995819092e-02 1.993159502744674683e-01 1.927421808242797852e+00 1.160166025161743164e+00 3.845820724964141846e-01 9.006103277206420898e-01 -9.435879439115524292e-02 6.843264102935791016e-01 2.612481594085693359e+00 1.513173460960388184e+00 7.596470713615417480e-01 1.282507538795471191e+00 5.672112703323364258e-01 1.391451716423034668e+00 1.645081162452697754e+00 8.114981651306152344e-01 2.649502515792846680e+00 7.438349127769470215e-01 -7.609333097934722900e-02 2.295982360839843750e+00 3.591029345989227295e-01 3.750819265842437744e-01 1.017819523811340332e+00 3.790027797222137451e-01 5.575137138366699219e-01 7.074041366577148438e-01 -7.497518658638000488e-01 -4.935334920883178711e-01 8.686243891716003418e-01 2.640274047851562500e+00 7.247080802917480469e-01 1.956879347562789917e-01 -1.161555290222167969e+00 4.282600805163383484e-02 1.010207295417785645e+00 3.300683572888374329e-02 5.691504478454589844e-01 1.704631596803665161e-01 1.029473423957824707e+00 6.711315363645553589e-03 6.940972805023193359e-01 1.918275505304336548e-01 4.050984978675842285e-01 1.317833900451660156e+00 4.824569821357727051e-01 6.022720932960510254e-01 2.394551277160644531e+00 7.286435961723327637e-01 1.900991648435592651e-01 -1.018407866358757019e-01 1.346737980842590332e+00 1.500228404998779297e+00
-5.379540920257568359e-01 1.030303955078125000e+00 3.281294405460357666e-01 8.413575887680053711e-01 1.336318373680114746e+00 2.833147943019866943e-01 6.650912761688232422e-01 6.901903748512268066e-01 1.763085246086120605e+00 1.790735840797424316e+00 5.789983868598937988e-01 2.481034755706787109e+00 8.453699350357055664e-01 3.823194801807403564e-01 9.864216446876525879e-01 1.493247032165527344e+00 2.166279554367065430e+00 2.409497350454330444e-01 1.971837878227233887e-01 7.338988184928894043e-01 1.781162768602371216e-01 6.620785593986511230e-01 -1.227117031812667847e-01 1.538190245628356934e+00 -2.176210582256317139e-01 7.191235423088073730e-01 1.750250816345214844e+00 5.965453386306762695e-01 7.126386463642120361e-02 4.234585464000701904e-01 1.442350894212722778e-01 1.033440470695495605e+00 1.189738154411315918e+00 4.142197221517562866e-02 6.967610716819763184e-01 4.224216043949127197e-01 1.941334456205368042e-01 1.067801713943481445e+00 -2.490371279418468475e-02 6.352180242538452148e-01 6.507905721664428711e-01 -2.730168700218200684e-01 1.545192956924438477e+00 1.086359381675720215e+00 2.461961954832077026e-01 1.226091384887695312e+00 1.436238408088684082e+00 2.464101612567901611e-01 -3.033991530537605286e-02 7.238531112670898438e-01 1.367605566978454590e+00 2.157852888107299805e+00 -1.176472101360559464e-02 7.412098050117492676e-01 1.016699671745300293e+00 3.027527332305908203e-01 2.272004365921020508e+00 7.251487374305725098e-01 8.077618479728698730e-01 1.109048604965209961e+00 -1.296190619468688965e-01 2.449522912502288818e-01 3.982204198837280273e-01 6.260105967521667480e-02 3.538012132048606873e-02 1.327854394912719727e+00 -3.424264118075370789e-02 3.155918717384338379e-01 1.874460220336914062e+00 9.368997812271118164e-01 2.487369179725646973e-01 -2.324986904859542847e-01 -2.456936985254287720e-01 5.931475162506103516e-01 5.844557285308837891e-01 1.470476627349853516e+00 2.777132689952850342e-01 -1.194796860218048096e-01 1.244549751281738281e+00 1.022446513175964355e+00 -6.338846404105424881e-03 2.897133529186248779e-01 -8.144861459732055664e-02 -8.312828838825225830e-02 4.704086482524871826e-01 9.855525493621826172e-01 5.262955091893672943e-03 1.444523215293884277e+00 1.363911032676696777e-01 5.146477222442626953e-01 2.015277385711669922e+00 4.982076883316040039e-01 1.803722262382507324e+00 3.875434100627899170e-01 9.047077596187591553e-02 6.351131796836853027e-01 4.313786923885345459e-01 7.361244559288024902e-01 -7.643145918846130371e-01 1.982103288173675537e-01 1.076656341552734375e+00 -2.224053442478179932e-01 -2.946152389049530029e-01 8.306489586830139160e-01 4.254166483879089355e-01 2.301586866378784180e+00 -2.612778358161449432e-02 1.948870778083801270e+00 3.032735586166381836e-01 2.607044577598571777e-01 2.234157323837280273e+00 6.217086315155029297e-01 3.821531310677528381e-02 6.321008205413818359e-01 9.218836426734924316e-01 1.822641193866729736e-01 8.734124153852462769e-02 -6.968192756175994873e-02 4.704679548740386963e-01 7.125822901725769043e-01 2.486128211021423340e-01 4.272238910198211670e-01 8.555555343627929688e-01 4.680162966251373291e-01 7.275113463401794434e-01 1.001116156578063965e+00 1.536144971847534180e+00 3.754435181617736816e-01
-1.533380448818206787e-01 -3.572443127632141113e-01 5.869956687092781067e-02 3.503490611910820007e-02 1.094071939587593079e-01 4.861626029014587402e-01 -6.380776166915893555e-01 2.180159986019134521e-01 7.309613749384880066e-03 1.679370105266571045e-01 4.290420711040496826e-01 1.906957328319549561e-01 1.581451855599880219e-02 3.636828064918518066e-01 9.242734909057617188e-01 1.711126804351806641e+00 4.148079752922058105e-01 2.597523666918277740e-02 5.413376092910766602e-01 1.891779899597167969e+00 1.198831796646118164e+00 -3.790630400180816650e-01 9.005882591009140015e-02 3.579828739166259766e-01 8.989150524139404297e-01 5.299968719482421875e-01 4.509537667036056519e-02 -1.732507497072219849e-01 1.489853858947753906e-02 7.712530493736267090e-01 -9.639119505882263184e-01 1.928968727588653564e-01 4.070039689540863037e-01 8.126070722937583923e-03 3.623447418212890625e-01 2.530439794063568115e-01 4.219213426113128662e-01 8.424280285835266113e-01 -5.586170554161071777e-01 6.589651703834533691e-01 4.718283414840698242e-01 2.213702499866485596e-01 3.896452665328979492e+00 1.130156040191650391e+00 8.144919872283935547e-01 -1.798878312110900879e-01 2.527699470520019531e-01 5.506599545478820801e-01 -7.158832252025604248e-02 6.197535395622253418e-01 1.518797278404235840e+00 4.432822465896606445e-01 1.410497166216373444e-02 1.241463303565979004e+00 2.263486862182617188e+00 5.803807973861694336e-01 -5.059906840324401855e-01 -6.478179991245269775e-02 1.238200306892395020e+00 7.463328838348388672e-01 2.643239200115203857e-01 -2.736969590187072754e-01 -4.385738074779510498e-01 2.412503510713577271e-01 6.290652155876159668e-01 5.332450866699218750e-01 1.493968963623046875e-01 3.065553605556488037e-01 3.011136353015899658e-01 1.141448378562927246e+00 1.264359802007675171e-01 1.870517432689666748e-01 1.447850465774536133e+00 5.518898963928222656e-01 1.031352400779724121e+00 1.071982264518737793e+00 4.681351184844970703e-01 5.890021324157714844e-01 -6.999538540840148926e-01 1.776659116148948669e-02 -5.904346704483032227e-02 7.197993397712707520e-01 2.369237989187240601e-01 6.223771572113037109e-01 6.229509115219116211e-01 -1.052287459373474121e+00 3.092526793479919434e-01 1.645379900932312012e+00 8.193312287330627441e-01 -2.420044541358947754e-01 1.753729432821273804e-01 5.157039165496826172e-01 -7.261100411415100098e-01 5.536059737205505371e-01 1.878751367330551147e-01 1.139799356460571289e+00 1.602219492197036743e-01 -4.167942795902490616e-03 -1.143364906311035156e-01 3.869258984923362732e-02 1.013746738433837891e+00 5.562190413475036621e-01 -7.379132509231567383e-01 -1.333688497543334961e+00 1.768929719924926758e+00 3.737932920455932617e+00 9.179817885160446167e-02 -4.529429078102111816e-01 -1.724944114685058594e-01 1.971872150897979736e-01 2.592169642448425293e-01 4.619380459189414978e-02 4.548366665840148926e-01 5.550388693809509277e-01 2.478501319885253906e+00 1.340736150741577148e-01 1.253830432891845703e+00 -2.119468003511428833e-01 -6.392077356576919556e-02 7.835419774055480957e-01 9.023008942604064941e-01 5.822595953941345215e-01 6.656464338302612305e-01 -2.114040106534957886e-01 -6.303735971450805664e-01 1.046084761619567871e+00 2.734440088272094727e+00 2.620080709457397461e+00
9.040831923484802246e-01 5.500028729438781738e-01 8.046588301658630371e-01 7.161278128623962402e-01 4.460409581661224365e-01 9.871792197227478027e-01 1.199779272079467773e+00 1.337746858596801758e+00 1.966978311538696289e+00 -7.892408967018127441e-01 2.764490544795989990e-01 2.362302541732788086e+00 -1.774278841912746429e-02 1.514477372169494629e+00 5.140907764434814453e-01 2.001772165298461914e+00 9.319020509719848633e-01 5.414867997169494629e-01 1.441773176193237305e+00 2.808384597301483154e-01 -3.774802982807159424e-01 1.163000702857971191e+00 -2.146402187645435333e-02 8.728449344635009766e-01 7.024052739143371582e-01 5.168718099594116211e-01 2.068903207778930664e+00 1.651551723480224609e+00 3.458199203014373779e-01 2.980019330978393555e+00 1.122186541557312012e+00 4.713391363620758057e-01 3.100377559661865234e+00 6.520417332649230957e-01 4.511958658695220947e-01 9.622130393981933594e-01 5.662276744842529297e-01 1.288036227226257324e+00 2.401823848485946655e-01 6.597473025321960449e-01 2.228998184204101562e+00 1.234745979309082031e+00 1.086687564849853516e+00 1.474819630384445190e-01 1.928850263357162476e-02 3.730337381362915039e+00 1.216971397399902344e+00 4.324385821819305420e-01 1.376675486564636230e+00 1.240580320358276367e+00 9.689528346061706543e-01 1.884394526481628418e+00 -2.169921994209289551e-01 9.049765765666961670e-02 9.262359738349914551e-01 2.440384149551391602e+00 1.153656482696533203e+00 1.555823534727096558e-01 -2.846780419349670410e-01 6.436658501625061035e-01 5.465832352638244629e-01 1.773839354515075684e+00 1.205268949270248413e-01 2.184443622827529907e-01 1.639835238456726074e-01 3.270586013793945312e+00 2.445776574313640594e-02 -3.016547560691833496e-01 1.272532939910888672e+00 9.471760392189025879e-01 4.180652201175689697e-01 1.030835270881652832e+00 3.059711456298828125e+00 1.254154801368713379e+00 5.412088632583618164e-01 6.183740496635437012e-01 2.374726086854934692e-01 6.458891034126281738e-01 1.239066600799560547e+00 2.027015924453735352e+00 2.223378866910934448e-01 4.957929551601409912e-01 2.991467416286468506e-01 1.964000761508941650e-01 1.971362233161926270e+00 8.610844612121582031e-01 6.439020037651062012e-01 -9.401492774486541748e-02 1.154234528541564941e+00 8.255370259284973145e-01 1.582220673561096191e+00 4.768414795398712158e-01 2.946771681308746338e-01 7.872583866119384766e-01 -7.580190151929855347e-02 2.188562393188476562e+00 4.277790486812591553e-01 -2.133944630622863770e-01 6.035112738609313965e-01 8.913648128509521484e-01 5.412179231643676758e-01 1.704903483390808105e+00 2.196475267410278320e-01 -8.093501329421997070e-01 6.148938536643981934e-01 2.205457448959350586e+00 5.647803544998168945e-01 9.278011322021484375e-01 -3.799654841423034668e-01 6.754589080810546875e-01 9.845562577247619629e-01 -1.267416715621948242e+00 5.763494968414306641e-01 2.317195385694503784e-01 1.124458551406860352e+00 -6.578810811042785645e-01 1.583205342292785645e+00 5.752523541450500488e-01 6.522728800773620605e-01 3.376948595046997070e+00 4.327335059642791748e-01 5.450934916734695435e-02 1.595546960830688477e+00 -8.361482620239257812e-01 -6.658027172088623047e-01 1.212865710258483887e+00 1.371668219566345215e+00 1.033447742462158203e+00
1.259331345558166504e+00 7.474898099899291992e-01 4.334462583065032959e-01 1.317958831787109375e+00 1.392406105995178223e+00 6.397796869277954102e-01 1.311730027198791504e+00 3.819299340248107910e-01 2.433263301849365234e+00 2.601041793823242188e-01 -3.575517535209655762e-01 1.169868946075439453e+00 -2.639050483703613281e-01 2.258419275283813477e+00 9.263257384300231934e-01 1.749279856681823730e+00 2.362564086914062500e+00 2.037527114152908325e-01 3.683001399040222168e-01 7.455238699913024902e-02 -8.715740442276000977e-01 2.050175666809082031e+00 4.152411818504333496e-01 1.102029323577880859e+00 1.099820211529731750e-01 8.177579641342163086e-01 2.473818540573120117e+00 5.720890164375305176e-01 1.135870337486267090e+00 1.566529870033264160e+00 4.587666094303131104e-01 1.635518908500671387e+00 1.605723977088928223e+00 5.544888973236083984e-01 -4.550633206963539124e-02 2.588600873947143555e+00 4.395761787891387939e-01 2.563200235366821289e+00 2.061650902032852173e-01 1.168060421943664551e+00 1.748892903327941895e+00 8.099661469459533691e-01 2.605911970138549805e+00 2.414952516555786133e+00 1.689311265945434570e-01 1.898389577865600586e+00 1.380106925964355469e+00 6.498432159423828125e-01 1.096202611923217773e+00 2.202858686447143555e+00 1.772199273109436035e+00 2.333579778671264648e+00 3.005135059356689453e-01 6.111661195755004883e-01 7.521609067916870117e-01 2.320065498352050781e+00 2.414572954177856445e+00 8.590967655181884766e-01 2.248331308364868164e+00 7.263738512992858887e-01 4.902886748313903809e-01 1.608871698379516602e+00 -9.476066380739212036e-02 -4.249388873577117920e-01 2.970240712165832520e-01 1.297223210334777832e+00 -1.020198315382003784e-02 1.046288013458251953e+00 2.389704704284667969e+00 1.255547642707824707e+00 9.832871556282043457e-01 -1.212942749261856079e-01 1.331496596336364746e+00 9.919749498367309570e-01 1.659477472305297852e+00 3.129482746124267578e+00 6.525007635354995728e-02 9.141867756843566895e-01 1.701639175415039062e+00 8.364405632019042969e-01 2.044237591326236725e-02 1.659307003021240234e+00 4.129277765750885010e-01 1.952729523181915283e-01 3.521358013153076172e+00 1.166293978691101074e+00 5.299907550215721130e-02 2.713381767272949219e+00 -3.282850682735443115e-01 9.687212705612182617e-01 1.103043317794799805e+00 5.370723605155944824e-01 1.925681591033935547e+00 6.435547471046447754e-01 2.947234809398651123e-01 1.586765885353088379e+00 2.663592994213104248e-01 -4.680517911911010742e-01 2.927767038345336914e+00 3.962085247039794922e-01 1.389300346374511719e+00 1.067818880081176758e+00 1.462353467941284180e-01 -6.459051966667175293e-01 7.021982073783874512e-01 3.507050275802612305e-01 1.156179785728454590e+00 2.632760047912597656e+00 -1.754418253898620605e+00 6.158322095870971680e-01 2.020983934402465820e+00 -4.253683388233184814e-01 4.423609375953674316e-01 2.287737876176834106e-01 1.491749405860900879e+00 -3.274987637996673584e-01 1.124914169311523438e+00 5.743183493614196777e-01 8.429259061813354492e-01 7.630870342254638672e-01 1.237121105194091797e+00 -2.167681753635406494e-01 1.013790726661682129e+00 -8.606019616127014160e-02 1.088367626070976257e-01 1.445216417312622070e+00 2.752333402633666992e+00 7.013589143753051758e-01
1.236124187707901001e-01 1.164399385452270508e+00 4.716513156890869141e-01 8.166493475437164307e-02 1.309585452079772949e+00 2.027880400419235229e-01 8.231129050254821777e-01 7.514058053493499756e-02 8.175230622291564941e-01 3.991208076477050781e-01 -1.383105516433715820e-01 6.377535462379455566e-01 2.842079699039459229e-01 8.184800148010253906e-01 3.976524829864501953e+00 1.296477437019348145e+00 2.583211421966552734e+00 6.575229167938232422e-01 1.866043925285339355e+00 4.958303570747375488e-01 5.114471912384033203e-01 7.649334669113159180e-01 -1.462851166725158691e-01 1.306778430938720703e+00 6.357393860816955566e-01 2.462651878595352173e-01 9.545944333076477051e-01 5.083402991294860840e-01 5.836396813392639160e-01 1.218297362327575684e+00 4.304098784923553467e-01 1.334179639816284180e+00 2.161290645599365234e+00 9.078459739685058594e-01 9.071079492568969727e-01 6.238645315170288086e-01 2.819537818431854248e-01 8.982359170913696289e-01 2.006853185594081879e-02 7.612700462341308594e-01 1.804158985614776611e-01 -3.064747750759124756e-01 9.096282720565795898e-01 2.197835922241210938e+00 -8.553628921508789062e-01 1.441631674766540527e+00 8.217896223068237305e-01 1.733336895704269409e-01 -4.774120077490806580e-02 1.545080184936523438e+00 1.099875688552856445e+00 3.700022585690021515e-03 9.072463512420654297e-01 8.209022879600524902e-01 1.059057950973510742e+00 2.842638492584228516e-01 2.270259380340576172e+00 4.682020246982574463e-01 1.403481006622314453e+00 -2.970387972891330719e-02 4.082458913326263428e-01 2.330927848815917969e+00 1.968692988157272339e-02 2.166659682989120483e-01 1.434938907623291016e-01 1.325742125511169434e+00 6.225109696388244629e-01 1.058109924197196960e-01 5.981376171112060547e-01 9.750730395317077637e-01 7.253886461257934570e-01 3.907716870307922363e-01 2.540760040283203125e+00 1.099663019180297852e+00 6.942462921142578125e-01 1.794093132019042969e+00 8.968002796173095703e-01 1.061750277876853943e-01 2.009593009948730469e+00 2.202838659286499023e+00 -5.074376240372657776e-02 1.031825661659240723e+00 2.855193987488746643e-02 -6.518463790416717529e-02 2.017147064208984375e+00 2.289822548627853394e-01 2.607144117355346680e-01 1.552074432373046875e+00 -8.064659237861633301e-01 8.927881121635437012e-01 8.126562237739562988e-01 1.270316481590270996e+00 2.343526840209960938e+00 1.517804265022277832e-01 4.626885354518890381e-01 4.570621252059936523e-01 5.897891521453857422e-01 3.137893676757812500e-01 1.840913414955139160e+00 5.737467408180236816e-01 -1.634265631437301636e-01 7.260504364967346191e-01 1.049082726240158081e-01 6.370586156845092773e-01 2.630751609802246094e+00 6.082637310028076172e-01 3.680544346570968628e-02 1.115892529487609863e+00 3.486808538436889648e-01 2.074139714241027832e-01 7.382420301437377930e-01 -7.804669439792633057e-02 4.766179025173187256e-01 1.349288523197174072e-01 1.217208743095397949e+00 -7.106851786375045776e-02 1.013208270072937012e+00 1.921978592872619629e-01 3.453612029552459717e-01 1.313668727874755859e+00 1.537715911865234375e+00 5.435265302658081055e-01 2.131240129470825195e+00 3.462346792221069336e-01 6.708656996488571167e-02 8.991811275482177734e-01 1.690881967544555664e+00 -7.515234500169754028e-02
-1.168462559580802917e-01 1.916950792074203491e-01 2.978302538394927979e-01 -3.440446257591247559e-01 -1.650494337081909180e+00 4.683443903923034668e-01 -2.750619351863861084e-01 2.733098864555358887e-01 4.480083286762237549e-01 -6.225414872169494629e-01 3.575307130813598633e-01 6.053649187088012695e-01 4.324425458908081055e-01 -1.119729876518249512e+00 -1.273916810750961304e-01 1.122056961059570312e+00 5.051672458648681641e-01 3.095118999481201172e-01 3.137069344520568848e-01 -3.840774595737457275e-01 4.267670512199401855e-01 -1.286384742707014084e-02 4.248379170894622803e-01 6.018872857093811035e-01 4.407251477241516113e-01 -4.500951245427131653e-02 -9.745484590530395508e-01 2.789053022861480713e-01 8.740397542715072632e-02 2.257064580917358398e-01 1.041947007179260254e+00 5.182132497429847717e-02 -1.566405415534973145e+00 3.162261247634887695e-01 4.999252557754516602e-01 1.411162614822387695e-01 2.366941869258880615e-01 -1.315716654062271118e-02 -2.453339546918869019e-01 9.206688404083251953e-02 -1.224135637283325195e+00 -1.705694437026977539e+00 1.483999937772750854e-01 -8.935711979866027832e-01 -3.413081169128417969e-01 6.668958067893981934e-01 -7.038191556930541992e-01 4.265778064727783203e-01 -1.475081324577331543e+00 -7.613760232925415039e-01 -1.918939501047134399e-01 3.027766346931457520e-01 -2.156605478376150131e-03 3.647415041923522949e-01 -7.685770988464355469e-01 -1.238503932952880859e+00 -2.487770915031433105e-01 4.552253782749176025e-01 -5.248235464096069336e-01 -5.005263686180114746e-01 7.069810628890991211e-01 -1.335789322853088379e+00 4.309963881969451904e-01 1.882874071598052979e-01 3.354983031749725342e-01 -1.461799591779708862e-01 4.660507440567016602e-01 1.026739403605461121e-01 8.364667892456054688e-01 3.497105240821838379e-01 -2.747908048331737518e-02 -3.263989090919494629e-02 -2.301632881164550781e+00 -2.800689078867435455e-02 -1.132346838712692261e-01 4.887937903404235840e-01 -2.793734706938266754e-02 3.682368993759155273e-01 -1.097968697547912598e+00 -4.598223865032196045e-01 2.119447439908981323e-01 -5.595655441284179688e-01 8.802635669708251953e-01 2.401818931102752686e-01 -6.700686216354370117e-01 -6.803591847419738770e-01 -3.260227143764495850e-01 1.718822717666625977e-01 -3.113550841808319092e-01 -3.346585035324096680e-01 1.099563166499137878e-01 4.521619975566864014e-01 -8.740612268447875977e-01 -4.956792294979095459e-02 2.286013066768646240e-01 1.059304475784301758e+00 3.410321474075317383e-01 4.503977298736572266e-01 9.099507927894592285e-01 -1.301444023847579956e-01 2.058825194835662842e-01 -2.011107094585895538e-02 3.801067173480987549e-01 -2.310975939035415649e-01 -1.779091954231262207e-01 -1.469799280166625977e+00 3.997657448053359985e-02 7.040036916732788086e-01 -2.802551686763763428e-01 6.568245887756347656e-01 -1.990294605493545532e-01 -5.075794458389282227e-01 1.323753893375396729e-01 2.556711733341217041e-01 1.952286511659622192e-01 -7.213475108146667480e-01 -3.125799447298049927e-02 3.544878661632537842e-01 1.961262375116348267e-01 -8.401985168457031250e-01 -1.489029884338378906e+00 3.134931027889251709e-01 -1.429429948329925537e-01 -2.058848589658737183e-01 -3.474250137805938721e-01 5.267613530158996582e-01 -3.208234310150146484e-01 -2.287428826093673706e-01
5.244923233985900879e-01 1.428299993276596069e-01 3.374621570110321045e-01 1.736304461956024170e-01 2.044747829437255859e+00 6.408725380897521973e-01 8.054876923561096191e-01 -3.131753504276275635e-01 5.408057570457458496e-01 1.109023451805114746e+00 1.097893938422203064e-01 1.374055743217468262e+00 1.119711995124816895e+00 3.721020936965942383e+00 1.582703113555908203e+00 1.806259512901306152e+00 1.701676249504089355e+00 7.387063652276992798e-02 1.430984735488891602e+00 6.168033555150032043e-02 1.284339427947998047e+00 1.983251981437206268e-02 1.382091641426086426e-01 1.872650384902954102e-01 3.111465573310852051e-01 3.047285676002502441e-01 1.499280333518981934e+00 6.315330266952514648e-01 -2.601865306496620178e-02 1.522299945354461670e-01 -9.038486331701278687e-02 9.761163592338562012e-01 1.753963112831115723e+00 3.469448685646057129e-01 6.250758171081542969e-01 -6.344828754663467407e-02 -1.192401200532913208e-01 1.796355843544006348e-01 1.754852980375289917e-01 3.290189206600189209e-01 -2.263315916061401367e-01 -3.153263628482818604e-01 1.650770425796508789e+00 9.857613444328308105e-01 1.277408152818679810e-01 1.352023720741271973e+00 7.260883450508117676e-01 4.746729135513305664e-01 -4.651569426059722900e-01 1.003347411751747131e-01 1.305417776107788086e+00 1.750837445259094238e+00 3.009865880012512207e-01 1.807296752929687500e+00 2.174144506454467773e+00 1.643122196197509766e+00 2.562025070190429688e+00 1.967547386884689331e-01 1.002446413040161133e+00 3.249917030334472656e-01 4.271977245807647705e-01 1.771622300148010254e+00 2.760106027126312256e-01 -1.914081275463104248e-01 3.911485970020294189e-01 2.210661649703979492e+00 3.864137232303619385e-01 -6.602300405502319336e-01 4.234626293182373047e-01 6.048438549041748047e-01 6.598626077175140381e-02 3.173463642597198486e-01 2.797366619110107422e+00 7.719178795814514160e-01 6.925390958786010742e-01 1.927733659744262695e+00 4.559977948665618896e-01 -2.977277040481567383e-01 1.993705272674560547e+00 1.339004039764404297e+00 1.941032558679580688e-01 1.653777122497558594e+00 7.470902800559997559e-01 -1.761458367109298706e-01 9.196766614913940430e-01 7.267197966575622559e-01 9.290217161178588867e-01 1.073588013648986816e+00 5.753327012062072754e-01 1.867415785789489746e+00 1.178679466247558594e+00 4.711458384990692139e-01 2.163659095764160156e+00 1.986802220344543457e-01 3.397012054920196533e-01 7.143536210060119629e-01 7.640447616577148438e-01 3.988611996173858643e-01 1.244308114051818848e+00 7.136684060096740723e-01 6.124010682106018066e-01 1.433259129524230957e+00 -5.929477214813232422e-01 -2.951889336109161377e-01 9.975495934486389160e-01 2.252586364746093750e+00 7.396743297576904297e-01 2.966594696044921875e+00 4.586330056190490723e-01 -8.059594780206680298e-02 3.497314453125000000e-02 -1.454232186079025269e-01 3.189052939414978027e-01 2.813960798084735870e-02 3.277581930160522461e-01 -1.922304034233093262e-01 1.916294813156127930e+00 3.155774772167205811e-01 2.340674847364425659e-01 1.938761830329895020e+00 2.508902788162231445e+00 3.859452009201049805e-01 -2.000338882207870483e-01 1.800673842430114746e+00 1.463368296623229980e+00 1.275153756141662598e+00 8.155128359794616699e-01 1.287874817848205566e+00
1.135224342346191406e+00 5.868514180183410645e-01 4.965173900127410889e-01 9.536653161048889160e-01 1.423937082290649414e-01 1.482967585325241089e-01 9.715376496315002441e-01 5.640892982482910156e-01 9.686467647552490234e-01 9.848764538764953613e-01 9.570727348327636719e-01 1.089115142822265625e+00 2.352918386459350586e+00 -3.399566933512687683e-02 7.583810687065124512e-01 1.045345306396484375e+00 1.675059437751770020e+00 5.887506008148193359e-01 4.942702054977416992e-01 -9.863135814666748047e-01 3.857637047767639160e-01 6.723282933235168457e-01 2.363553047180175781e-01 2.557067394256591797e+00 -1.831163465976715088e-01 6.459882855415344238e-01 1.532689571380615234e+00 5.832512974739074707e-01 6.153969168663024902e-01 1.252735614776611328e+00 -1.618340462446212769e-01 7.740284204483032227e-01 2.055060148239135742e+00 3.888528048992156982e-01 3.905347585678100586e-01 1.468856930732727051e+00 3.505445718765258789e-01 7.521179914474487305e-01 2.595444917678833008e-01 2.541616559028625488e-01 1.063943147659301758e+00 -3.213514685630798340e-01 9.677438139915466309e-01 1.936578005552291870e-01 1.270213246345520020e+00 2.573530435562133789e+00 5.639312863349914551e-01 8.557987809181213379e-01 -6.487956047058105469e-01 2.375647544860839844e+00 1.125412583351135254e+00 2.679933071136474609e+00 3.664732575416564941e-01 5.532929897308349609e-01 -3.400733470916748047e-01 1.862640857696533203e+00 3.010510683059692383e+00 1.288017332553863525e-01 1.922710061073303223e+00 6.205725669860839844e-01 6.308153271675109863e-01 1.922839134931564331e-01 -5.684009194374084473e-01 2.360862940549850464e-01 8.113235831260681152e-01 2.109676122665405273e+00 1.604851037263870239e-01 4.745969176292419434e-02 1.952326893806457520e+00 1.566217064857482910e+00 7.748319506645202637e-01 7.488970160484313965e-01 9.898169040679931641e-01 6.845558881759643555e-01 9.779086709022521973e-01 2.776871204376220703e+00 4.228059053421020508e-01 2.081445157527923584e-01 8.118855357170104980e-01 3.242589831352233887e-01 -3.437352776527404785e-01 9.361681938171386719e-01 1.775382906198501587e-01 5.927293896675109863e-01 1.315352201461791992e+00 -8.567653596401214600e-03 1.800217926502227783e-01 1.859279751777648926e+00 -1.779189109802246094e-01 2.605319023132324219e+00 -6.641157865524291992e-01 5.959519743919372559e-01 1.657765984535217285e+00 1.195094287395477295e-01 -3.208974003791809082e-02 1.421481609344482422e+00 3.956371843814849854e-01 1.368048936128616333e-01 -7.970693111419677734e-01 2.509980797767639160e-01 2.266875952482223511e-01 7.701085805892944336e-01 -1.261390447616577148e-01 -1.150684714317321777e+00 6.973304152488708496e-01 2.249041795730590820e+00 9.633474946022033691e-01 6.689138412475585938e-01 6.932220458984375000e-01 1.873115152120590210e-01 7.795742154121398926e-01 1.033027052879333496e+00 4.718872308731079102e-01 5.215197205543518066e-01 6.034668684005737305e-01 2.462224364280700684e-01 -6.014698147773742676e-01 2.591905295848846436e-01 5.211566686630249023e-01 5.886628031730651855e-01 1.180828139185905457e-01 6.891998052597045898e-01 1.355638384819030762e+00 9.051838517189025879e-01 4.863457381725311279e-01 1.791701316833496094e+00 1.043965220451354980e+00 -3.923968672752380371e-01
-5.789858847856521606e-02 2.695432603359222412e-01 1.155524328351020813e-01 -4.005360305309295654e-01 -1.040259480476379395e+00 3.683444559574127197e-01 -4.451663196086883545e-01 6.458829641342163086e-01 3.471229970455169678e-01 -8.586030602455139160e-01 -9.623852558434009552e-03 1.772610396146774292e-01 2.099450230598449707e-01 -3.818955719470977783e-01 2.028746008872985840e-01 3.574928939342498779e-01 -2.639821767807006836e-01 1.951473355293273926e-01 -4.498237073421478271e-01 -7.783314585685729980e-01 -1.727987267076969147e-02 -2.877560071647167206e-02 2.304269373416900635e-01 3.996300101280212402e-01 1.878767758607864380e-01 -5.843587517738342285e-01 -5.779057145118713379e-01 4.902043044567108154e-01 9.774982184171676636e-02 1.503506749868392944e-01 -4.147478193044662476e-02 -1.662676483392715454e-01 -1.714600086212158203e+00 -2.398767918348312378e-01 -3.912528157234191895e-01 -2.790514826774597168e-01 6.735649704933166504e-02 9.590131044387817383e-02 4.536830186843872070e-01 2.650401182472705841e-02 -1.104109287261962891e+00 -1.185965299606323242e+00 -6.105352640151977539e-01 -1.173753380775451660e+00 -4.923780262470245361e-01 4.769180119037628174e-01 -1.541429281234741211e+00 -6.883066147565841675e-02 -1.601423978805541992e+00 -6.844234466552734375e-01 -1.474966853857040405e-01 -1.115299344062805176e+00 -1.567122638225555420e-01 3.234211802482604980e-01 -5.622642636299133301e-01 -7.968800663948059082e-01 -8.680477738380432129e-03 2.331538051366806030e-01 -7.597067356109619141e-01 -2.050977945327758789e-01 5.562147498130798340e-01 -6.125664710998535156e-01 2.278731614351272583e-01 -4.943338781595230103e-02 2.870617210865020752e-01 -1.162130013108253479e-01 -3.921066597104072571e-02 4.105240702629089355e-01 -6.623183190822601318e-02 -3.133574724197387695e-01 3.997282087802886963e-01 -1.060866117477416992e-01 -1.796382188796997070e+00 -1.750005781650543213e-01 -2.969198524951934814e-01 2.196483910083770752e-01 -2.796376645565032959e-01 4.399628937244415283e-01 2.875100970268249512e-01 -1.775110326707363129e-02 -4.637658298015594482e-01 -3.032131195068359375e-01 6.771535873413085938e-01 1.042664200067520142e-01 1.598358005285263062e-01 -1.661366224288940430e-01 -5.978229045867919922e-01 -1.584924161434173584e-01 2.929940260946750641e-02 -2.699207663536071777e-01 -2.661971151828765869e-01 2.081582844257354736e-01 -3.087815046310424805e-01 -2.771488763391971588e-02 3.065352737903594971e-01 4.471481740474700928e-01 -2.404801547527313232e-01 8.593326807022094727e-01 9.515452980995178223e-01 -3.241084218025207520e-01 -2.856205105781555176e-01 4.623770341277122498e-02 1.099693536758422852e+00 -1.975725740194320679e-01 -4.796303510665893555e-01 -2.053328037261962891e+00 -2.375590205192565918e-01 9.551612138748168945e-01 -3.586784899234771729e-01 2.706636488437652588e-01 -1.880762279033660889e-01 -1.711587905883789062e-01 5.705951526761054993e-02 3.590394258499145508e-01 6.341886520385742188e-01 -4.817193150520324707e-01 1.980274617671966553e-01 1.116824299097061157e-01 -7.544684410095214844e-02 -1.220112681388854980e+00 -1.129018306732177734e+00 3.723573386669158936e-01 -1.971344053745269775e-01 -2.998183071613311768e-01 4.167594313621520996e-01 -5.809239298105239868e-02 -4.886840581893920898e-01 -1.885772049427032471e-01
-2.088416516780853271e-01 9.856121540069580078e-01 6.500554680824279785e-01 3.643164634704589844e-01 1.654581427574157715e+00 9.118694067001342773e-01 -4.678143262863159180e-01 1.026496529579162598e+00 8.367029428482055664e-01 1.085439085960388184e+00 3.975765407085418701e-02 8.788371682167053223e-01 4.803311526775360107e-01 3.598928689956665039e+00 9.429104924201965332e-01 9.183840751647949219e-01 1.244856595993041992e+00 8.892165869474411011e-02 3.918674290180206299e-01 8.932688832283020020e-01 6.389669179916381836e-01 2.385820001363754272e-01 4.465302824974060059e-01 9.810501337051391602e-01 -3.859993070363998413e-02 2.084806710481643677e-01 1.120170235633850098e+00 8.454077243804931641e-01 3.964459896087646484e-01 3.053300380706787109e-01 5.298609733581542969e-01 1.281383872032165527e+00 1.247445583343505859e+00 4.608845412731170654e-01 3.740236461162567139e-01 9.506371803581714630e-03 3.864836990833282471e-01 -8.177562616765499115e-03 -3.753744065761566162e-01 1.108454108238220215e+00 -3.401737213134765625e-01 -7.496834397315979004e-01 1.523008346557617188e+00 1.872437477111816406e+00 1.066443204879760742e+00 5.002933740615844727e-02 7.180721312761306763e-02 5.956660509109497070e-01 -7.821924090385437012e-01 1.989503502845764160e+00 2.800415039062500000e+00 1.191851735115051270e+00 3.728307187557220459e-01 2.727135419845581055e-01 1.385813832283020020e+00 1.365168809890747070e+00 4.619917273521423340e-01 -4.214088246226310730e-02 1.419258117675781250e+00 2.465227246284484863e-01 -2.293825522065162659e-02 1.170034289360046387e+00 -2.421327233314514160e-01 -1.209327578544616699e-01 -3.824608922004699707e-01 -2.679294943809509277e-01 1.264019589871168137e-02 8.360352367162704468e-02 2.768258452415466309e-01 6.230410933494567871e-01 -2.843109369277954102e-01 2.270089089870452881e-01 1.631284475326538086e+00 1.069888591766357422e+00 3.074008524417877197e-01 1.268341779708862305e+00 2.576996684074401855e-01 7.751311659812927246e-01 9.471591711044311523e-01 1.346216082572937012e+00 -3.085766434669494629e-01 1.093904256820678711e+00 -2.625365741550922394e-03 -5.785917490720748901e-02 2.880348920822143555e+00 -6.557118892669677734e-02 2.859026789665222168e-01 1.325585007667541504e+00 1.956381350755691528e-01 6.070181131362915039e-01 4.342775344848632812e-01 5.352041125297546387e-01 1.345436334609985352e+00 3.134682178497314453e-01 4.000015854835510254e-01 6.625190377235412598e-02 5.702406540513038635e-02 1.970461010932922363e-01 -7.412186861038208008e-01 -2.666067481040954590e-01 1.251810908317565918e+00 7.224236726760864258e-01 -1.928602010011672974e-01 4.830613732337951660e-01 3.706380426883697510e-01 1.228808283805847168e+00 5.722396969795227051e-01 2.452253252267837524e-01 1.130554199218750000e+00 2.894620597362518311e-01 7.953099012374877930e-01 -3.313023149967193604e-01 -3.402502089738845825e-02 7.637808918952941895e-01 9.410433173179626465e-01 -5.248317122459411621e-01 4.415061771869659424e-01 4.113930165767669678e-01 4.384925663471221924e-01 7.382787466049194336e-01 9.795668721199035645e-01 5.496870279312133789e-01 1.781368255615234375e-01 5.286573767662048340e-01 6.328651309013366699e-01 7.511835694313049316e-01 1.713793516159057617e+00 9.505289196968078613e-01
1.067028522491455078e+00 4.662941098213195801e-01 4.952351450920104980e-01 3.653679788112640381e-02 1.505206942558288574e+00 3.006866276264190674e-01 1.656530380249023438e+00 -2.439712407067418098e-03 3.554846048355102539e-01 2.363733768463134766e+00 3.311602175235748291e-01 6.320120692253112793e-01 7.164312005043029785e-01 7.222133278846740723e-01 -1.171068474650382996e-01 7.677037119865417480e-01 3.109182834625244141e+00 -5.405099391937255859e-01 1.375085592269897461e+00 1.195017814636230469e+00 9.144254922866821289e-01 9.596876055002212524e-02 3.435615897178649902e-01 2.088330239057540894e-01 4.181630313396453857e-01 2.260866165161132812e-01 9.095995426177978516e-01 3.495648503303527832e-01 1.037423133850097656e+00 9.447778761386871338e-02 4.891667962074279785e-01 1.604088664054870605e+00 7.686459422111511230e-01 -2.222032248973846436e-01 1.726785004138946533e-01 7.548801302909851074e-01 -2.519262731075286865e-01 9.666680097579956055e-01 -2.866794764995574951e-01 5.399237275123596191e-01 3.407512307167053223e-01 -5.574285984039306641e-01 3.975579977035522461e+00 1.599528670310974121e+00 -3.100904524326324463e-01 1.017784953117370605e+00 8.213033676147460938e-01 3.308078646659851074e-02 -1.020272970199584961e-01 6.449342370033264160e-01 1.000994801521301270e+00 4.992802739143371582e-01 1.025743409991264343e-01 1.253108263015747070e+00 1.331398487091064453e+00 -2.862043976783752441e-01 2.851855516433715820e+00 -2.917786538600921631e-01 2.903533458709716797e+00 3.657048940658569336e-01 3.870001435279846191e-01 1.298713445663452148e+00 1.281848102807998657e-01 7.594120502471923828e-02 -5.921671632677316666e-03 -3.771248161792755127e-01 -5.833851173520088196e-02 -1.437707990407943726e-01 1.069331884384155273e+00 6.751671433448791504e-01 4.843993186950683594e-01 -1.577809080481529236e-02 4.446888566017150879e-01 -1.173645406961441040e-01 -6.302765607833862305e-01 1.863622903823852539e+00 5.942029505968093872e-02 1.376921087503433228e-01 1.689876675605773926e+00 -1.409869045019149780e-01 3.071074783802032471e-01 1.585483312606811523e+00 -8.861570060253143311e-02 -2.140062153339385986e-01 4.914947152137756348e-01 7.914653420448303223e-01 -2.575811147689819336e-01 7.896862626075744629e-01 1.420541256666183472e-01 1.170122146606445312e+00 7.810653448104858398e-01 -3.373457491397857666e-02 3.286194562911987305e+00 -1.336965858936309814e-01 3.979033529758453369e-01 5.312857627868652344e-01 2.719367742538452148e-01 4.932026267051696777e-01 2.326354384422302246e-01 -1.522434204816818237e-01 -1.506795287132263184e-01 3.954865634441375732e-01 -1.981314420700073242e-01 -5.198382735252380371e-01 1.977392882108688354e-01 2.018817901611328125e+00 3.468091189861297607e-01 2.390609741210937500e+00 -2.828394174575805664e-01 7.980539202690124512e-01 5.245386958122253418e-01 1.074900478124618530e-01 -4.564071297645568848e-01 4.385695457458496094e-01 8.767673969268798828e-01 4.911096096038818359e-01 1.060873985290527344e+00 2.063901424407958984e-01 5.437390208244323730e-01 6.072304397821426392e-02 -3.984083533287048340e-01 3.433720171451568604e-01 1.810123085975646973e+00 1.609457135200500488e+00 9.590858817100524902e-01 2.898256480693817139e-01 1.968127489089965820e+00 -5.405026078224182129e-01
-3.303227946162223816e-02 6.626906991004943848e-01 1.059935316443443298e-01 -1.023518070578575134e-01 1.097560644149780273e+00 3.111699521541595459e-01 4.392121434211730957e-01 -1.917119324207305908e-01 -3.469806611537933350e-01 1.083852291107177734e+00 -2.722575515508651733e-02 5.847885608673095703e-01 2.366728782653808594e+00 3.512831926345825195e-01 1.288953781127929688e+00 1.070773839950561523e+00 2.117273807525634766e+00 6.743512749671936035e-01 1.553343653678894043e+00 8.526048064231872559e-01 4.117468595504760742e-01 5.714995861053466797e-01 3.076259493827819824e-01 1.491506934165954590e+00 4.613516032695770264e-01 1.810562014579772949e-01 1.408067345619201660e-01 1.217945337295532227e+00 5.092712640762329102e-01 1.027723699808120728e-01 1.813497781753540039e+00 5.943708419799804688e-01 1.058718204498291016e+00 5.992872714996337891e-01 6.357204318046569824e-01 2.274216711521148682e-01 4.482091069221496582e-01 1.296164631843566895e+00 1.162897273898124695e-01 1.272149205207824707e+00 9.912513494491577148e-01 -6.123357415199279785e-01 1.556775331497192383e+00 8.157042264938354492e-01 3.506060838699340820e-01 4.674490690231323242e-01 1.261011242866516113e+00 3.179675666615366936e-03 1.653464436531066895e-01 6.205012798309326172e-01 2.905676364898681641e-01 2.158555984497070312e+00 7.019000053405761719e-01 2.157195657491683960e-01 1.583652138710021973e+00 -1.943836547434329987e-02 1.016267657279968262e+00 1.254675030708312988e+00 5.564724802970886230e-01 2.217720597982406616e-01 2.392147183418273926e-01 1.555026292800903320e+00 6.363292932510375977e-01 -6.760065257549285889e-02 -3.903364837169647217e-01 3.454373359680175781e+00 1.126012086868286133e+00 2.453295290470123291e-01 9.232487082481384277e-01 1.367492079734802246e-01 1.967694014310836792e-01 5.140699744224548340e-01 9.568435549736022949e-01 -7.032910585403442383e-01 2.190795898437500000e+00 8.246772885322570801e-01 4.640927612781524658e-01 4.983534216880798340e-01 3.359679579734802246e-01 2.928408086299896240e-01 -3.918983042240142822e-01 1.495713710784912109e+00 1.929215341806411743e-01 1.042523458600044250e-01 -3.640567064285278320e-01 1.069370508193969727e+00 1.440070271492004395e-01 2.884884476661682129e-01 -1.461335420608520508e-01 5.275440216064453125e-01 5.783202648162841797e-01 -1.956426650285720825e-01 1.582035660743713379e+00 2.440477460622787476e-01 -6.866590678691864014e-02 -2.500974237918853760e-01 2.370977252721786499e-01 5.418729782104492188e-02 1.122202396392822266e+00 4.801996052265167236e-01 1.023421406745910645e+00 2.070051193237304688e+00 1.739991605281829834e-01 -9.732695817947387695e-01 3.268269300460815430e+00 1.417830228805541992e+00 5.222716927528381348e-01 4.943321645259857178e-01 6.605414152145385742e-01 -4.155996739864349365e-01 2.429267764091491699e-01 -3.965334594249725342e-01 4.752110540866851807e-01 4.097540676593780518e-01 2.470282316207885742e-01 -5.764838457107543945e-01 1.209476351737976074e+00 2.705553472042083740e-01 7.887692004442214966e-02 4.516704082489013672e-01 -7.434098124504089355e-01 2.437901645898818970e-01 1.463624238967895508e+00 1.497582316398620605e+00 7.854047417640686035e-01 1.322878599166870117e+00 1.051893711090087891e+00 3.253898024559020996e-01
-1.190266162157058716e-01 -6.419194340705871582e-01 -2.759601473808288574e-01 -3.596646189689636230e-01 9.329831004142761230e-01 -6.715404242277145386e-02 3.010960817337036133e-01 -4.384598731994628906e-01 1.646694093942642212e-01 2.407789230346679688e-01 2.926066815853118896e-01 4.936196208000183105e-01 3.535973727703094482e-01 6.369055509567260742e-01 -1.125165447592735291e-01 2.070771455764770508e-01 9.186714291572570801e-01 -4.247289001941680908e-01 -2.154383435845375061e-02 1.170150995254516602e+00 4.916702210903167725e-01 3.895483613014221191e-01 -3.016250729560852051e-01 1.038309335708618164e+00 -1.496352255344390869e-01 6.635592877864837646e-02 3.931944966316223145e-01 -7.237392067909240723e-01 -3.049715161323547363e-01 4.668819010257720947e-01 -5.574536919593811035e-01 1.483430266380310059e-01 1.695413440465927124e-01 3.162046074867248535e-01 1.655641943216323853e-01 -3.521622419357299805e-01 9.695178270339965820e-02 1.395126730203628540e-01 3.055016994476318359e-01 -2.464300990104675293e-01 3.536773324012756348e-01 8.429712653160095215e-01 9.863329529762268066e-01 1.542262792587280273e+00 2.557349801063537598e-01 3.869533240795135498e-01 -4.449607729911804199e-01 1.852395944297313690e-02 4.711013287305831909e-03 2.908599376678466797e-01 1.353102773427963257e-01 8.600596189498901367e-01 -3.403965234756469727e-01 4.575698971748352051e-01 8.110239505767822266e-01 9.133498668670654297e-01 -9.364552795886993408e-02 -6.412168741226196289e-01 1.122454047203063965e+00 7.273108959197998047e-01 -3.544071018695831299e-01 1.105798855423927307e-01 1.067119091749191284e-01 3.002246916294097900e-01 -3.872129023075103760e-01 8.430855721235275269e-02 -4.639527797698974609e-01 -1.315927505493164062e-01 4.084563553333282471e-01 3.705028295516967773e-01 1.376853436231613159e-01 4.727862030267715454e-02 -1.838568150997161865e-01 -1.440161764621734619e-01 1.043751358985900879e+00 9.979912042617797852e-01 1.552248001098632812e-01 -4.496330395340919495e-02 -4.851061403751373291e-01 -4.706280678510665894e-02 -2.207334190607070923e-01 7.830453515052795410e-01 -5.452890321612358093e-02 -2.691410779953002930e-01 7.002944350242614746e-01 -1.821083307266235352e+00 -6.493472959846258163e-03 1.008456707000732422e+00 -1.081619132310152054e-02 4.135655984282493591e-02 -6.745677590370178223e-01 2.151280492544174194e-01 7.474558353424072266e-01 3.822111189365386963e-01 -9.905572980642318726e-02 8.125200271606445312e-01 6.170320324599742889e-03 6.292045712471008301e-01 7.769235968589782715e-01 -1.905332505702972412e-01 -3.339217603206634521e-01 -3.083730861544609070e-02 -1.104681015014648438e+00 1.324442476034164429e-01 8.584665656089782715e-01 2.593277931213378906e+00 -1.292077302932739258e-01 2.258976101875305176e-01 2.173276096582412720e-01 2.023039013147354126e-01 -4.296921193599700928e-01 -7.256062626838684082e-01 -8.098492771387100220e-02 2.693321369588375092e-02 9.541138410568237305e-01 -5.444903969764709473e-01 8.828895688056945801e-01 4.128411710262298584e-01 3.714681416749954224e-02 -5.188845992088317871e-01 4.506655335426330566e-01 4.019691348075866699e-01 6.747297048568725586e-01 -2.319292426109313965e-01 -2.483995854854583740e-01 3.863256871700286865e-01 1.368354201316833496e+00 6.525415778160095215e-01
7.627210021018981934e-01 -2.689686790108680725e-02 3.921968042850494385e-01 -5.828655958175659180e-01 1.390852928161621094e+00 3.552499413490295410e-01 -3.221642076969146729e-01 1.205258250236511230e+00 6.380729079246520996e-01 -1.293828338384628296e-01 -3.555043935775756836e-01 7.193405628204345703e-01 1.052217006683349609e+00 3.192377388477325439e-01 2.419197320938110352e+00 -1.351547539234161377e-01 -3.481128811836242676e-01 6.532266139984130859e-01 1.816228181123733521e-01 -9.840129017829895020e-01 1.429207623004913330e-01 1.889795303344726562e+00 5.287778973579406738e-01 6.683984398841857910e-01 5.781142711639404297e-01 -6.027584522962570190e-02 2.481287240982055664e+00 8.417354822158813477e-01 -1.236515268683433533e-01 3.275166451930999756e-01 1.395801901817321777e+00 9.735558629035949707e-01 2.934499979019165039e+00 4.451165795326232910e-01 1.269219517707824707e-01 8.310104608535766602e-01 -1.025219783186912537e-01 -4.286019802093505859e-01 -5.559058785438537598e-01 2.960101366043090820e-01 2.219254732131958008e+00 2.781527757644653320e+00 6.171379089355468750e-01 -6.975845694541931152e-01 3.904481828212738037e-01 2.580002784729003906e+00 2.354309260845184326e-01 1.778802573680877686e-01 1.370611548423767090e+00 3.499318122863769531e+00 1.882871627807617188e+00 4.436874389648437500e-01 -4.440445452928543091e-02 4.883541911840438843e-02 1.141292214393615723e+00 2.948054552078247070e+00 2.630487203598022461e+00 2.391458749771118164e-01 -4.743681848049163818e-01 6.017051935195922852e-01 4.191154837608337402e-01 1.052074432373046875e+00 -1.004690602421760559e-01 -2.462612390518188477e-01 5.474560260772705078e-01 1.287446260452270508e+00 4.372186362743377686e-01 -5.443021655082702637e-01 -3.797279894351959229e-01 6.907699704170227051e-01 3.946910500526428223e-01 4.770161509513854980e-01 3.118887424468994141e+00 7.356120944023132324e-01 1.190220355987548828e+00 1.131684541702270508e+00 3.331585228443145752e-01 -1.089606955647468567e-01 2.335798740386962891e+00 9.828652739524841309e-01 2.060279399156570435e-01 1.889083236455917358e-01 -2.261317670345306396e-01 4.410358369350433350e-01 2.382622480392456055e+00 9.964458346366882324e-01 6.982185244560241699e-01 2.797586202621459961e+00 -3.115993142127990723e-01 1.628395557403564453e+00 1.300775885581970215e+00 5.039322972297668457e-01 2.734537720680236816e-01 1.304487977176904678e-02 1.110703200101852417e-01 1.362440437078475952e-01 5.398752093315124512e-01 -1.546862274408340454e-01 1.387032389640808105e+00 3.101404309272766113e-01 -2.948450110852718353e-02 1.222089886665344238e+00 -2.004322767257690430e+00 -2.293512105941772461e+00 -3.228551149368286133e-01 3.293515920639038086e+00 9.984923601150512695e-01 3.499976098537445068e-01 -9.684146046638488770e-01 1.026322603225708008e+00 8.627093434333801270e-01 -2.776655256748199463e-01 7.663948535919189453e-01 3.111669719219207764e-01 1.241764307022094727e+00 -5.221315026283264160e-01 1.579781174659729004e+00 1.058227196335792542e-01 5.251026749610900879e-01 1.273862004280090332e+00 2.461324453353881836e+00 5.475725978612899780e-02 5.937859416007995605e-01 5.677306652069091797e-01 7.282154560089111328e-01 -3.918544352054595947e-01 1.126598864793777466e-01 6.546354889869689941e-01
1.169248700141906738e+00 3.437452614307403564e-01 9.094001054763793945e-01 7.705950140953063965e-01 2.096239328384399414e+00 5.475141406059265137e-01 4.455909729003906250e-01 4.706248044967651367e-01 1.289657711982727051e+00 8.827514052391052246e-01 4.595762789249420166e-01 2.650871515274047852e+00 8.263587355613708496e-01 2.425290197134017944e-01 1.556592702865600586e+00 8.595856428146362305e-01 2.306065797805786133e+00 4.859301149845123291e-01 8.564373850822448730e-01 2.165931224822998047e+00 8.619160056114196777e-01 9.083633422851562500e-01 1.361640542745590210e-01 1.284451842308044434e+00 5.497031211853027344e-01 3.257921040058135986e-01 7.750539779663085938e-01 9.837371706962585449e-01 6.260898709297180176e-01 2.185444831848144531e+00 -2.632807195186614990e-01 1.385626316070556641e+00 1.853928089141845703e+00 2.756381928920745850e-01 5.845694541931152344e-01 1.128463029861450195e+00 6.199483871459960938e-01 1.712807416915893555e+00 7.001833915710449219e-01 4.728206694126129150e-01 1.301389336585998535e+00 -2.580715417861938477e-01 1.399377703666687012e+00 9.273929595947265625e-01 -2.348578274250030518e-01 3.045366764068603516e+00 6.503530144691467285e-01 6.030172109603881836e-01 -6.674150228500366211e-01 1.146160244941711426e+00 9.906200170516967773e-01 1.003532290458679199e+00 -1.667786240577697754e-01 1.069062829017639160e+00 2.454738616943359375e+00 8.487606644630432129e-01 3.000901699066162109e+00 1.974308937788009644e-01 5.340711474418640137e-01 1.230648234486579895e-01 5.848629027605056763e-02 2.009246349334716797e+00 3.724928200244903564e-01 6.712318062782287598e-01 6.300605535507202148e-01 1.109096050262451172e+00 4.133454263210296631e-01 4.465772509574890137e-01 9.783601164817810059e-01 9.079847335815429688e-01 9.282113909721374512e-01 7.128394842147827148e-01 2.697531223297119141e+00 -2.852398753166198730e-01 8.287800550460815430e-01 1.504567503929138184e+00 3.153535127639770508e-01 8.760827183723449707e-01 2.985600471496582031e+00 2.619973659515380859e+00 4.657958745956420898e-01 9.201478958129882812e-01 1.152296084910631180e-02 1.249834895133972168e-01 6.498907804489135742e-01 9.005271196365356445e-01 9.596257209777832031e-01 8.660776019096374512e-01 4.898504167795181274e-02 1.405137658119201660e+00 2.758287668228149414e+00 2.394176572561264038e-01 2.012202978134155273e+00 1.793971359729766846e-01 3.662197887897491455e-01 7.920990586280822754e-01 6.723253726959228516e-01 -8.460327237844467163e-02 1.028836131095886230e+00 7.267665863037109375e-01 8.180508017539978027e-01 7.604632973670959473e-01 -7.073315382003784180e-01 1.034069776535034180e+00 9.075378179550170898e-01 1.982677578926086426e+00 4.548005163669586182e-01 1.942584395408630371e+00 -4.618589878082275391e-01 7.629145383834838867e-01 7.798268795013427734e-01 -2.599771022796630859e-01 3.442056775093078613e-01 -3.208332955837249756e-01 2.501911222934722900e-01 2.116148620843887329e-01 2.023300647735595703e+00 8.214019536972045898e-01 5.512400269508361816e-01 1.610561013221740723e+00 3.468886315822601318e-01 6.464352011680603027e-01 1.240429997444152832e+00 5.888013839721679688e-01 4.256162643432617188e-01 1.757861018180847168e+00 1.879960060119628906e+00 9.119779467582702637e-01
-6.705799102783203125e-01 -6.776606440544128418e-01 -3.811594545841217041e-01 -5.030633211135864258e-01 -9.660623669624328613e-01 -2.914869487285614014e-01 3.202413022518157959e-02 -5.610889792442321777e-01 -4.075281322002410889e-01 -1.977210491895675659e-01 -1.720349192619323730e-01 -6.411020159721374512e-01 -3.376865088939666748e-01 -9.650728106498718262e-01 -1.111882925033569336e+00 -9.477635622024536133e-01 -6.765746474266052246e-01 -4.757288396358489990e-01 -5.996773242950439453e-01 2.567610889673233032e-02 -8.953177928924560547e-02 -5.705274939537048340e-01 -5.559826493263244629e-01 -1.071914196014404297e+00 -2.896013259887695312e-01 -3.166489005088806152e-01 -7.165831327438354492e-01 -4.781868755817413330e-01 -3.891385793685913086e-01 -6.138759851455688477e-01 -8.857359886169433594e-01 -4.379262924194335938e-01 -6.602699309587478638e-02 -5.645881295204162598e-01 -9.870535731315612793e-01 -3.770231306552886963e-01 -2.937811315059661865e-01 -8.597326874732971191e-01 -4.505244195461273193e-01 -8.362328410148620605e-01 -6.370308399200439453e-01 2.121822685003280640e-01 -4.179315567016601562e-01 -9.390233755111694336e-01 -1.506598740816116333e-01 -5.616495385766029358e-02 -4.384560883045196533e-01 -2.610337138175964355e-01 3.290094137191772461e-01 -3.634008765220642090e-01 -5.500172972679138184e-01 -8.186976313591003418e-01 -3.351748585700988770e-01 -5.538349747657775879e-01 -3.852604627609252930e-01 -6.707295775413513184e-01 -4.550949037075042725e-01 -1.062363386154174805e+00 -6.829352378845214844e-01 -7.427635788917541504e-01 -4.295172989368438721e-01 -6.432426571846008301e-01 -4.114970862865447998e-01 -3.983311057090759277e-01 -3.863722383975982666e-01 -1.147239327430725098e+00 -1.009879589080810547e+00 9.254765510559082031e-02 -7.328895926475524902e-01 -9.605742692947387695e-01 -6.697343587875366211e-01 -1.413629502058029175e-01 -1.363603472709655762e-01 -7.402346730232238770e-01 -8.466473221778869629e-01 -1.201899766921997070e+00 -3.980968296527862549e-01 -1.164492607116699219e+00 -2.545971572399139404e-01 -7.006647586822509766e-01 -3.229005336761474609e-01 -9.953700900077819824e-01 -5.097169280052185059e-01 -4.437969326972961426e-01 -5.127702951431274414e-01 1.750517785549163818e-01 -6.823875308036804199e-01 -8.006257414817810059e-01 -6.122538074851036072e-02 -7.449432015419006348e-01 -6.435517668724060059e-01 -3.925988078117370605e-01 -8.331400156021118164e-01 -5.023447275161743164e-01 -6.591537594795227051e-01 -8.166261315345764160e-01 -2.399167716503143311e-01 -2.949236333370208740e-01 -4.943906143307685852e-02 -6.908401846885681152e-01 -9.728717803955078125e-01 -1.152283668518066406e+00 -1.084496527910232544e-01 -2.504014968872070312e-01 -5.784625411033630371e-01 7.018689513206481934e-01 -7.517841458320617676e-01 -6.375920772552490234e-01 3.918343186378479004e-01 -2.338986843824386597e-01 -6.212331652641296387e-01 -2.660368680953979492e-01 -8.584455847740173340e-01 -1.605962365865707397e-01 -3.002972602844238281e-01 -3.526023626327514648e-01 3.256939351558685303e-01 -3.762045502662658691e-01 -5.540966987609863281e-01 -6.380532979965209961e-01 -5.245305895805358887e-01 -3.950488567352294922e-01 -6.340143680572509766e-01 -5.527846217155456543e-01 -1.316226739436388016e-02 -8.991512656211853027e-01 -6.499406099319458008e-01 -1.725982278585433960e-01
6.426036953926086426e-01 -6.836888194084167480e-01 -2.518884241580963135e-01 -2.456979304552078247e-01 6.182687282562255859e-01 -1.063165813684463501e-01 -5.188781619071960449e-01 2.468532770872116089e-01 -1.683452129364013672e-01 2.056194692850112915e-01 1.229790970683097839e-02 9.323238581418991089e-02 6.560037136077880859e-01 7.980660200119018555e-01 1.240439057350158691e+00 -1.169525608420372009e-01 2.378435879945755005e-01 -6.184409260749816895e-01 9.243379831314086914e-01 2.385806292295455933e-01 2.729125022888183594e-01 -7.349255681037902832e-01 -4.189293682575225830e-01 2.269642055034637451e-01 1.950221359729766846e-01 6.038411706686019897e-02 -3.147593438625335693e-01 6.065087318420410156e-01 -6.097565889358520508e-01 2.813514173030853271e-01 -4.107381105422973633e-01 4.309327304363250732e-01 1.126703023910522461e+00 -7.003874331712722778e-02 -1.601774692535400391e-01 5.900782942771911621e-01 9.077645093202590942e-02 -6.008707284927368164e-01 4.627999365329742432e-01 -4.763329625129699707e-01 -5.870407819747924805e-01 1.293716669082641602e+00 -1.599034667015075684e+00 -1.972535103559494019e-01 5.724602192640304565e-02 6.792772412300109863e-01 -4.700306355953216553e-01 5.778216943144798279e-02 -2.673804461956024170e-01 -2.383937239646911621e-01 -7.055870890617370605e-01 6.810273528099060059e-01 4.502519667148590088e-01 -1.980096250772476196e-01 8.522216081619262695e-01 7.533256411552429199e-01 4.880377650260925293e-01 1.454167300835251808e-03 2.648251056671142578e-01 -3.125470578670501709e-01 -1.574238985776901245e-01 1.109902933239936829e-01 -4.806710779666900635e-01 4.707484971731901169e-03 -1.786801517009735107e-01 4.569447338581085205e-01 -2.614465355873107910e-01 -1.280949711799621582e-01 -1.756715923547744751e-01 -4.120883345603942871e-01 -2.594832181930541992e-01 1.979219615459442139e-01 1.015039920806884766e+00 -4.427860379219055176e-01 7.190460562705993652e-01 -2.583134174346923828e-01 1.775080524384975433e-02 -3.312748074531555176e-01 1.985940784215927124e-01 1.906144171953201294e-01 -6.925305724143981934e-01 -8.476931452751159668e-01 9.421394765377044678e-02 3.019617795944213867e-01 -5.090864002704620361e-02 2.892459034919738770e-01 1.992228627204895020e-01 -4.015031754970550537e-01 -2.610040009021759033e-01 8.372930288314819336e-01 7.108681797981262207e-01 -7.110206037759780884e-02 -5.652828216552734375e-01 6.464020162820816040e-02 -1.071277141571044922e+00 9.759064912796020508e-01 7.536257505416870117e-01 2.565745711326599121e-01 2.933379113674163818e-01 -1.572649627923965454e-01 -7.916692495346069336e-01 2.467228174209594727e-01 -1.135696172714233398e-01 6.263743042945861816e-01 3.346278667449951172e-01 2.522324323654174805e+00 -8.286984562873840332e-01 -5.903517007827758789e-01 -1.292932510375976562e+00 2.379492223262786865e-01 -2.651030719280242920e-01 -1.537564992904663086e-01 2.329004853963851929e-01 3.822287917137145996e-02 -2.476212501525878906e+00 -5.375837683677673340e-01 1.030133485794067383e+00 -1.760746240615844727e-01 -5.029663443565368652e-01 2.532016634941101074e-01 1.232223391532897949e+00 1.949476301670074463e-01 -5.078995823860168457e-01 -2.984006702899932861e-01 -2.955809235572814941e-01 4.574560523033142090e-01 2.582798600196838379e-01 -6.285443305969238281e-01
-4.779874384403228760e-01 7.405896782875061035e-01 7.511143684387207031e-01 1.368309855461120605e-01 1.244676470756530762e+00 2.888645827770233154e-01 -6.573525667190551758e-01 5.273550748825073242e-01 1.360332131385803223e+00 5.439724922180175781e-01 3.793908953666687012e-01 1.329760313034057617e+00 1.051847815513610840e+00 5.996013283729553223e-01 1.150906324386596680e+00 6.069208383560180664e-01 1.620352983474731445e+00 5.605174899101257324e-01 8.015617728233337402e-01 5.224374532699584961e-01 7.416219115257263184e-01 1.450706481933593750e+00 3.179008364677429199e-01 9.013568758964538574e-01 1.490993201732635498e-01 8.400684595108032227e-02 1.701155185699462891e+00 1.880008459091186523e+00 1.936518400907516479e-01 1.142846584320068359e+00 -2.466978877782821655e-01 7.002978324890136719e-01 1.791216611862182617e+00 6.286700963973999023e-01 5.306074619293212891e-01 5.601729154586791992e-01 -5.120128858834505081e-03 2.562884092330932617e+00 5.113382339477539062e-01 1.577667355537414551e+00 1.029643177986145020e+00 3.819453418254852295e-01 9.487593770027160645e-01 1.533545613288879395e+00 6.842249631881713867e-01 1.635557413101196289e+00 1.809881329536437988e+00 -3.562818840146064758e-02 2.126788198947906494e-01 1.209528088569641113e+00 7.666982412338256836e-01 2.085042715072631836e+00 1.081774458289146423e-01 1.254985094070434570e+00 1.007679104804992676e+00 -5.971284210681915283e-02 5.841989517211914062e-01 1.059828996658325195e+00 7.053031325340270996e-01 4.446493983268737793e-01 1.022082805633544922e+00 2.104062318801879883e+00 9.445840120315551758e-02 1.744092092849314213e-03 -1.288982182741165161e-01 4.020689964294433594e+00 5.164268016815185547e-01 1.502507831901311874e-02 1.833136081695556641e+00 2.280302792787551880e-01 3.075146675109863281e-02 6.411321163177490234e-01 1.774881124496459961e+00 9.993175268173217773e-01 1.681705236434936523e+00 5.430434346199035645e-01 -1.673472486436367035e-02 1.083311200141906738e+00 6.690573692321777344e-02 2.169662475585937500e+00 5.532672405242919922e-01 1.115486145019531250e+00 -4.708946496248245239e-02 5.259033441543579102e-01 6.046019196510314941e-01 5.155491828918457031e-01 4.866632521152496338e-01 3.527640998363494873e-01 3.320315778255462646e-01 1.475192070007324219e+00 9.649990200996398926e-01 9.628593325614929199e-01 1.210557103157043457e+00 5.185868740081787109e-01 3.066903650760650635e-01 9.996650815010070801e-01 5.306669473648071289e-01 4.271105229854583740e-01 5.787439942359924316e-01 8.186124563217163086e-01 1.197174906730651855e+00 1.420309066772460938e+00 1.216059446334838867e+00 8.542808294296264648e-01 2.112427949905395508e+00 1.478264451026916504e+00 4.225905835628509521e-01 6.610134243965148926e-01 -1.874841600656509399e-01 3.646672368049621582e-01 1.638877153396606445e+00 4.337939918041229248e-01 4.690414667129516602e-01 4.236412048339843750e-01 6.270498037338256836e-01 -3.320139348506927490e-01 1.993951797485351562e+00 6.394114494323730469e-01 7.977296710014343262e-01 1.791268587112426758e+00 1.661706924438476562e+00 2.942374348640441895e-01 9.917942285537719727e-01 4.338666498661041260e-01 3.985811769962310791e-01 1.959660053253173828e+00 1.879633307456970215e+00 1.879590392112731934e+00
-7.035360485315322876e-02 -7.599978446960449219e-01 -2.358490079641342163e-01 -2.395242154598236084e-01 1.054909452795982361e-01 -5.744213461875915527e-01 -9.820665717124938965e-01 -5.796834230422973633e-01 -7.413366436958312988e-01 1.266456693410873413e-01 -2.546207904815673828e-01 -7.022793889045715332e-01 -2.845476865768432617e-01 -1.426091194152832031e-01 -1.827065348625183105e-01 -6.522532105445861816e-01 -1.325462102890014648e+00 -1.046044901013374329e-01 -1.541130803525447845e-02 1.909373849630355835e-01 -2.725907862186431885e-01 -7.747145891189575195e-01 -3.933659195899963379e-01 -6.250727772712707520e-01 -6.214570999145507812e-02 -4.339584112167358398e-01 -6.372278928756713867e-01 -4.060069322586059570e-01 -5.069336891174316406e-01 -3.520617485046386719e-01 -8.506903052330017090e-01 -1.255798816680908203e+00 -3.158245682716369629e-01 -2.468671202659606934e-01 -4.336865246295928955e-01 -1.731562018394470215e-01 1.745004393160343170e-02 -1.348101854324340820e+00 -2.984597086906433105e-01 -4.024265706539154053e-01 -6.735417246818542480e-01 1.853883117437362671e-01 4.063941836357116699e-01 -5.378798842430114746e-01 -3.586681485176086426e-01 -7.349284887313842773e-01 -9.877542257308959961e-01 -3.407655656337738037e-01 1.118122711777687073e-01 -7.732830941677093506e-02 -2.179401963949203491e-01 -9.368560314178466797e-01 -2.545728683471679688e-01 5.740376114845275879e-01 -9.518097341060638428e-02 2.641464173793792725e-01 -1.272243022918701172e+00 -4.776940941810607910e-01 -3.030467033386230469e-01 -4.211196601390838623e-01 -5.583248138427734375e-01 -1.015833377838134766e+00 -1.164214611053466797e-01 -5.867776647210121155e-02 2.610279805958271027e-02 -1.417677998542785645e+00 -2.787827253341674805e-01 -3.796787261962890625e-01 -1.195052027702331543e+00 -5.335835814476013184e-01 -1.112072244286537170e-01 -4.158965647220611572e-01 -2.354351729154586792e-01 -4.436429217457771301e-02 -3.985317051410675049e-01 -8.747947812080383301e-01 -2.329370379447937012e-02 -7.474583983421325684e-01 -6.451133489608764648e-01 -6.199710965156555176e-01 -5.003146529197692871e-01 -5.090700984001159668e-01 -2.569564878940582275e-01 -4.795760512351989746e-01 -2.492309212684631348e-01 -3.821691274642944336e-01 -3.999973833560943604e-01 -5.988689064979553223e-01 -2.149176448583602905e-01 -6.021671369671821594e-02 -1.006048917770385742e+00 -4.949583411216735840e-01 -1.195381045341491699e+00 -4.352169036865234375e-01 -3.936969637870788574e-01 -2.454136610031127930e-01 -3.982517123222351074e-01 -1.426336616277694702e-01 -4.625025764107704163e-02 -7.421205192804336548e-02 -9.988316148519515991e-02 -1.239056587219238281e+00 -3.634584695100784302e-02 1.614709496498107910e-01 -9.016916155815124512e-01 1.158929824829101562e+00 -8.466932773590087891e-01 -4.581907093524932861e-01 1.360838860273361206e-01 -5.807698369026184082e-01 -4.894985854625701904e-01 -2.470079809427261353e-01 2.919934503734111786e-02 -3.982973396778106689e-01 9.242076426744461060e-02 -2.941768765449523926e-01 5.265734791755676270e-01 -6.153204441070556641e-01 -1.595487445592880249e-01 -1.170241832733154297e-01 -1.041349098086357117e-01 -5.746353268623352051e-01 -1.030806779861450195e+00 -9.625111520290374756e-02 9.779837727546691895e-02 -1.202722191810607910e+00 -6.130431294441223145e-01 5.005216598510742188e-01
