-2.412596018984913826e-03
3.008599877357482910e-01
-8.720799349248409271e-03
2.310571027919650078e-03
-2.618815004825592041e-02
9.247667156159877777e-03
-1.697982400655746460e-01
-2.914693951606750488e-01
7.439966797828674316e-01
-2.321754582226276398e-03
-2.572919428348541260e-01
-7.778224945068359375e-01
9.071159362792968750e-02
4.978772997856140137e-02
1.357904635369777679e-02
-1.504229754209518433e-01
6.765965372323989868e-02
3.932534530758857727e-02
3.561879321932792664e-02
-6.670664250850677490e-02
-1.787972450256347656e-02
-1.603729277849197388e-01
4.627239704132080078e-02
-3.251704946160316467e-02
8.599821329116821289e-01
9.115552902221679688e-02
3.263839185237884521e-01
1.654984802007675171e-02
-8.678136765956878662e-02
2.721688337624073029e-02
6.365401204675436020e-03
3.268790990114212036e-02
1.109805628657341003e-01
-4.343616310507059097e-03
-5.345513671636581421e-02
1.712802425026893616e-02
-5.753520727157592773e-01
-2.372602373361587524e-02
-5.521675199270248413e-02
1.666650772094726562e-01
-2.092339098453521729e-02
-2.753619663417339325e-02
-5.499061942100524902e-02
-1.977107301354408264e-02
-7.154645770788192749e-02
1.534284114837646484e+00
-2.943108975887298584e-02
-4.667781665921211243e-02
-5.007233098149299622e-02
-1.298908051103353500e-02
3.432653546333312988e-01
-8.597543835639953613e-02
5.677367560565471649e-03
3.701267838478088379e-01
-1.883111745119094849e-01
-3.224551379680633545e-01
1.546777486801147461e-01
-1.464421115815639496e-02
-1.059812754392623901e-01
-6.275191903114318848e-02
-8.804320693016052246e-01
-2.145428396761417389e-02
-2.077690791338682175e-03
-3.113469667732715607e-02
5.898503959178924561e-02
-1.398083101958036423e-02
1.356105227023363113e-02
-2.281220108270645142e-01
5.659202858805656433e-02
6.135209277272224426e-02
-5.154276490211486816e-01
5.198012664914131165e-02
-2.233554981648921967e-02
6.325249373912811279e-02
4.283380880951881409e-02
6.535056047141551971e-03
3.472070209681987762e-03
6.283485889434814453e-01
-4.228338226675987244e-02
-5.855585634708404541e-02
2.067818865180015564e-02
1.490907464176416397e-02
-1.029207138344645500e-03
-1.213192567229270935e-01
-2.106879651546478271e-01
-7.549329102039337158e-02
2.277372479438781738e-01
7.513169944286346436e-02
4.277957230806350708e-02
-5.967269092798233032e-02
3.599236160516738892e-02
1.969773918390274048e-01
1.510172784328460693e-01
-4.042391665279865265e-03
1.598154008388519287e-02
5.267846584320068359e-02
3.968016058206558228e-02
-8.043387532234191895e-02
1.505154836922883987e-02
5.657510161399841309e-01
1.810156106948852539e-01
-1.402386128902435303e-01
1.302262187004089355e+00
-2.548386901617050171e-02
-6.440922617912292480e-01
2.542561888694763184e-01
4.836761951446533203e-01
-4.749400615692138672e-01
4.389003384858369827e-03
-9.265584349632263184e-01
-1.270632259547710419e-03
2.420351468026638031e-02
1.625838130712509155e-02
-4.292569123208522797e-03
1.837233752012252808e-01
-4.569165036082267761e-02
4.078831672668457031e-01
-5.358019471168518066e-02
-2.988293208181858063e-02
-1.942950487136840820e-02
-8.447023481130599976e-02
-1.646528951823711395e-02
-1.777205057442188263e-02
5.838310122489929199e-01
9.488849900662899017e-03
-4.867789521813392639e-02
3.035839833319187164e-02
9.218644350767135620e-02
