6.256232857704162598e-01 5.669208765029907227e-01 5.034359544515609741e-02 5.906840562820434570e-01 -1.212620973587036133e+00 -5.123655200004577637e-01 -2.964220941066741943e-01 -2.911722064018249512e-01 -2.783805131912231445e-01 7.792910337448120117e-01 -8.052156567573547363e-01 7.045038342475891113e-01 1.444978639483451843e-02 1.565169841051101685e-01 1.590885668992996216e-01 -4.419682919979095459e-01 1.569442451000213623e-01 -3.918505907058715820e-01 -6.082049608230590820e-01 -1.005151644349098206e-01 -8.122486472129821777e-01 -3.655857220292091370e-02 -8.048225641250610352e-01 -2.135506868362426758e-01 -1.201908349990844727e+00 2.754809856414794922e-01 -4.197777509689331055e-01 -5.430809222161769867e-03 -8.731497526168823242e-01 1.355184078216552734e+00 -5.587068796157836914e-01 -5.049327015876770020e-01 4.399677813053131104e-01 5.241929888725280762e-01 -1.386922001838684082e+00 -1.022664308547973633e-01 -6.625125408172607422e-01 -2.415205836296081543e-01 5.472444891929626465e-01 8.139171600341796875e-01 4.189652502536773682e-01 1.686465382575988770e+00 -4.519575536251068115e-01 -8.565225005149841309e-01 -1.250786632299423218e-01 4.013694822788238525e-01 -4.946498572826385498e-01 3.445163667201995850e-01 -9.545110464096069336e-01 1.730902343988418579e-01 -6.389765739440917969e-01 2.731690704822540283e-01 -5.921871662139892578e-01 -7.956666946411132812e-01 1.100702762603759766e+00 8.955121636390686035e-01 1.137735962867736816e+00 -7.434962391853332520e-01 -5.216166377067565918e-03 2.863018773496150970e-02 -5.006724596023559570e-01 -1.999664008617401123e-01 -2.119370922446250916e-02 5.067806243896484375e-01 -1.648045063018798828e+00 3.697562217712402344e-01 6.071420311927795410e-01 -9.087575674057006836e-01 1.409620881080627441e+00 -2.710369527339935303e-01 -1.143878698348999023e+00 -4.997670352458953857e-01 7.863750457763671875e-01 -5.925477147102355957e-01 3.303539454936981201e-01 -8.300434350967407227e-01 -1.091861605644226074e+00 -5.736039280891418457e-01 -8.897037506103515625e-01 -1.111598610877990723e+00 -5.251129865646362305e-01 -1.231435239315032959e-01 8.146395534276962280e-02 -9.083583205938339233e-02 -4.403787553310394287e-01 6.330860257148742676e-01 -1.948283426463603973e-02 -7.605311870574951172e-01 3.013481497764587402e-01 -3.050301671028137207e-01 -2.757188677787780762e-01 2.314116954803466797e-01 8.597168326377868652e-02 -5.616629123687744141e-01 -1.130365490913391113e+00 4.359346330165863037e-01 -2.244497649371623993e-02 -3.011605739593505859e-01 1.112396866083145142e-01 -7.939049601554870605e-01 8.417364358901977539e-01 -2.460826784372329712e-01 -4.400758445262908936e-01 -7.951449155807495117e-01 1.033645391464233398e+00 1.128627434372901917e-01 6.198604702949523926e-01 -8.263378143310546875e-01 5.354442596435546875e-01 -7.208534479141235352e-01 -8.445267081260681152e-01 2.020401656627655029e-01 2.020018845796585083e-01 5.464227199554443359e-01 -5.481024384498596191e-01 -2.575947344303131104e-01 -5.125485658645629883e-01 -1.328539848327636719e-01 4.730876684188842773e-01 5.147008299827575684e-01 -2.129115015268325806e-01 3.850262165069580078e-01 -5.854608416557312012e-01 5.515382289886474609e-01 1.238315820693969727e+00 -4.632046520709991455e-01 -9.956319332122802734e-01 -3.183051198720932007e-02
2.909038066864013672e-01 3.245670497417449951e-01 2.197626978158950806e-01 5.044490694999694824e-01 1.072200015187263489e-01 -8.272282034158706665e-02 -2.009817808866500854e-01 6.434164643287658691e-01 8.937753736972808838e-02 -1.759696900844573975e-01 -9.688473492860794067e-02 1.313587725162506104e-01 8.691616058349609375e-01 7.352501153945922852e-01 4.681219458580017090e-01 -5.703339576721191406e-01 -1.901530325412750244e-01 5.796750783920288086e-01 -3.277505338191986084e-01 -1.268013715744018555e-01 -2.540628192946314812e-03 5.454311370849609375e-01 -4.589039683341979980e-01 3.078368902206420898e-01 -6.890515685081481934e-01 -1.704689413309097290e-01 6.290964484214782715e-01 -1.269258618354797363e+00 -9.547179192304611206e-02 -2.061474695801734924e-02 9.634556770324707031e-01 -4.876488447189331055e-01 1.633592247962951660e-01 -1.587266921997070312e-01 -3.179185092449188232e-01 5.019078254699707031e-01 -8.215824961662292480e-01 3.087253868579864502e-01 -1.005284905433654785e+00 -1.773727387189865112e-01 2.402535676956176758e-01 1.522156298160552979e-01 -6.939309835433959961e-01 -7.714831829071044922e-01 6.746978312730789185e-02 3.264763057231903076e-01 -3.181501924991607666e-01 6.611002609133720398e-03 -5.006572604179382324e-01 -8.075630664825439453e-01 3.373203277587890625e-01 -8.049680590629577637e-01 -7.158203721046447754e-01 7.070529460906982422e-01 1.307210475206375122e-01 -1.502388864755630493e-01 4.627917110919952393e-01 -6.300243735313415527e-01 1.264211386442184448e-01 -8.431611955165863037e-02 1.901308596134185791e-01 -6.552452594041824341e-02 -9.302351623773574829e-02 -7.944738119840621948e-02 8.560831546783447266e-01 1.042418330907821655e-01 -4.891552627086639404e-01 -5.234851837158203125e-01 2.204242795705795288e-01 2.554760277271270752e-01 6.061160936951637268e-02 -5.546272993087768555e-01 7.692163437604904175e-02 -5.843998491764068604e-02 1.465815454721450806e-01 4.674397408962249756e-01 -1.189522147178649902e-01 -3.588252365589141846e-01 1.087551787495613098e-01 -1.572426557540893555e-01 -4.239016175270080566e-01 -8.867638111114501953e-01 -4.291824698448181152e-01 -2.693092226982116699e-01 1.926656961441040039e-01 -4.766519963741302490e-01 7.901298403739929199e-01 -5.387836098670959473e-01 7.618807554244995117e-01 -2.053889185190200806e-01 2.245005518198013306e-01 -7.654442191123962402e-01 6.096128225326538086e-01 -5.300503373146057129e-01 -3.228416144847869873e-01 1.382950246334075928e-01 -2.272286713123321533e-01 5.615664273500442505e-02 -6.497659683227539062e-01 -2.760741710662841797e-01 3.519785702228546143e-01 -5.520799756050109863e-01 2.708588838577270508e-01 -7.787966132164001465e-01 4.592341184616088867e-02 -6.523821353912353516e-01 4.190604686737060547e-01 4.937081038951873779e-01 -3.258696794509887695e-01 -4.342080354690551758e-01 9.729943275451660156e-01 5.636233687400817871e-01 -5.818302035331726074e-01 2.382492870092391968e-01 -4.374810755252838135e-01 -3.671794533729553223e-01 -3.121460676193237305e-01 5.321011692285537720e-02 2.382635176181793213e-01 2.348230779170989990e-01 3.295959830284118652e-01 -1.549343466758728027e-01 -1.825621537864208221e-02 5.593763589859008789e-01 -3.999474048614501953e-01 1.426264047622680664e-01 4.557334780693054199e-01 4.371780157089233398e-01
2.700602412223815918e-01 -8.899115771055221558e-02 -6.551564335823059082e-01 2.822748422622680664e-01 -1.748684644699096680e-01 1.790044009685516357e-01 1.979257613420486450e-01 1.504415571689605713e-01 -6.922761797904968262e-01 -5.533870309591293335e-02 3.729143738746643066e-01 3.811953961849212646e-01 -1.995259663090109825e-03 3.125586211681365967e-01 -2.326927483081817627e-01 4.116444885730743408e-01 1.896179094910621643e-02 2.300128936767578125e-01 7.431080341339111328e-01 6.730401515960693359e-01 3.023428618907928467e-01 -3.447610735893249512e-01 1.184899918735027313e-02 -1.372370719909667969e-01 7.671068310737609863e-01 7.781407237052917480e-01 -2.013491392135620117e-01 3.415740728378295898e-01 -1.832614541053771973e-01 -5.236630439758300781e-01 5.306513980031013489e-02 1.911124587059020996e-01 -1.955220550298690796e-01 -3.214810490608215332e-01 4.879240095615386963e-01 1.314557194709777832e-01 1.676692813634872437e-01 1.197388246655464172e-01 -1.509194523096084595e-01 6.907674670219421387e-01 -5.835416913032531738e-01 -2.283466905355453491e-01 3.892205655574798584e-01 -6.179256439208984375e-01 -2.826278805732727051e-01 -1.329361349344253540e-01 2.843663990497589111e-01 2.307046353816986084e-01 3.171635568141937256e-01 2.751623988151550293e-01 4.613930583000183105e-01 5.454990267753601074e-01 -3.058013506233692169e-02 -6.010811403393745422e-02 -4.979438334703445435e-02 3.420621529221534729e-02 3.457537889480590820e-01 4.005420207977294922e-01 -2.057932168245315552e-01 -8.921174705028533936e-02 -1.571094393730163574e-01 1.941003948450088501e-01 5.603887438774108887e-01 -5.492998957633972168e-01 -3.209164440631866455e-01 -7.278425246477127075e-02 -1.338261528871953487e-03 5.199537873268127441e-01 -3.571694493293762207e-01 -4.976681172847747803e-01 -6.608300209045410156e-01 -5.166157484054565430e-01 -3.032643496990203857e-01 3.225226402282714844e-01 -3.022249937057495117e-01 -9.662657231092453003e-02 -1.018436625599861145e-01 -6.568636298179626465e-01 -1.835779100656509399e-01 8.527840971946716309e-01 -9.481383860111236572e-02 6.433345079421997070e-01 1.090407669544219971e-01 3.028239011764526367e-01 -1.843978911638259888e-01 1.349514573812484741e-01 1.014086380600929260e-01 8.174200057983398438e-01 3.112392723560333252e-01 -8.144991844892501831e-02 -3.116915235295891762e-03 -3.212581796105951071e-04 5.261411145329475403e-02 -1.430314481258392334e-01 3.525653183460235596e-01 3.565754592418670654e-01 -2.832844555377960205e-01 2.617211341857910156e-01 -5.941807851195335388e-02 -1.780086904764175415e-01 3.659878671169281006e-02 3.945045173168182373e-01 3.303171098232269287e-01 -2.904562652111053467e-01 1.574394702911376953e-01 5.448229908943176270e-01 2.953802645206451416e-01 -6.989824771881103516e-02 -3.730977475643157959e-01 3.172630369663238525e-01 4.074642658233642578e-01 -4.759745597839355469e-01 -1.122332960367202759e-01 1.557606179267168045e-02 3.304190039634704590e-01 8.732899427413940430e-01 1.622725278139114380e-01 -3.473640084266662598e-01 -2.414606064558029175e-01 -3.561481237411499023e-01 2.208045683801174164e-02 3.827595412731170654e-01 -1.605279445648193359e-01 -1.124427556991577148e+00 2.914709448814392090e-01 3.695204555988311768e-01 -5.729481577873229980e-02 1.365337967872619629e-01
2.221404463052749634e-01 -9.793719649314880371e-02 2.977430224418640137e-01 -4.974074363708496094e-01 -1.181718776933848858e-03 -4.784449636936187744e-01 -8.419158458709716797e-01 -5.742554068565368652e-01 1.672638021409511566e-02 6.068218871951103210e-02 -4.035033583641052246e-01 -3.007237911224365234e-01 4.985872209072113037e-01 1.614332199096679688e-01 2.777758836746215820e-01 -6.195186972618103027e-01 -5.259802937507629395e-01 7.741546630859375000e-01 2.350553125143051147e-01 -4.362552464008331299e-01 9.539861977100372314e-02 2.248308621346950531e-02 9.289531111717224121e-01 -2.641871869564056396e-01 -2.607337236404418945e-01 1.003414869308471680e+00 4.970124363899230957e-01 4.594505727291107178e-01 -7.406921386718750000e-01 5.877639055252075195e-01 7.558962106704711914e-01 -4.514509737491607666e-01 3.967549800872802734e-01 1.479550898075103760e-01 5.390473008155822754e-01 2.378558069467544556e-01 -4.437078535556793213e-01 -3.137367367744445801e-01 -6.339211463928222656e-01 -9.195526838302612305e-01 1.532301008701324463e-01 -7.667303085327148438e-01 -3.552819192409515381e-01 8.820821046829223633e-01 -1.608254760503768921e-01 -3.052185773849487305e-01 -3.677800893783569336e-01 -1.290570050477981567e-01 -3.657376468181610107e-01 -2.089988254010677338e-02 -3.186611533164978027e-01 3.201432228088378906e-01 3.262487947940826416e-01 4.768911898136138916e-01 -1.212214455008506775e-01 -3.037544488906860352e-01 3.804019391536712646e-01 3.194214701652526855e-01 1.027122497558593750e+00 -2.477607280015945435e-01 -5.126284360885620117e-01 -2.413482666015625000e-01 -6.763726472854614258e-01 -7.489530444145202637e-01 2.689066529273986816e-01 1.648297309875488281e-01 -8.284975886344909668e-01 -1.720970571041107178e-01 4.569155275821685791e-01 -7.556218653917312622e-02 3.772666156291961670e-01 3.012821972370147705e-01 4.446390271186828613e-02 1.132822483777999878e-01 -7.816572487354278564e-02 -1.135980561375617981e-01 6.344413161277770996e-01 -4.357552528381347656e-01 4.968727752566337585e-02 -2.516387263312935829e-03 -2.687771320343017578e-01 7.333885431289672852e-01 -2.052778452634811401e-01 -4.008263945579528809e-01 5.758907794952392578e-01 8.944924473762512207e-01 3.326125442981719971e-02 -1.816585808992385864e-01 -1.216282099485397339e-01 4.264131486415863037e-01 1.095238998532295227e-01 -3.563378155231475830e-01 -1.047398447990417480e+00 1.970030665397644043e-01 -5.667202472686767578e-01 -9.534403681755065918e-01 -5.104621052742004395e-01 -2.768873870372772217e-01 -8.772749304771423340e-01 -3.084215521812438965e-01 -3.733698129653930664e-01 -8.236451148986816406e-01 8.140823245048522949e-01 3.175258040428161621e-01 9.136001020669937134e-02 -1.140737056732177734e+00 2.812723517417907715e-01 -2.577842473983764648e-01 5.672641992568969727e-01 5.134639143943786621e-01 4.430245757102966309e-01 3.527893722057342529e-01 2.412367314100265503e-01 2.527144253253936768e-01 -2.947261631488800049e-01 3.193645775318145752e-01 4.484645128250122070e-01 2.277890443801879883e-01 4.219680726528167725e-01 -2.343963086605072021e-01 5.546157956123352051e-01 -7.209614515304565430e-01 3.256843984127044678e-01 6.422731094062328339e-03 -1.942236572504043579e-01 2.225349694490432739e-01 2.087025158107280731e-02 1.207845568656921387e+00
-2.253212407231330872e-02 -1.923554837703704834e-01 3.418107926845550537e-01 4.575516581535339355e-01 2.526347041130065918e-01 1.088742971420288086e+00 8.647490739822387695e-01 -9.646551311016082764e-02 5.038252845406532288e-02 1.802300959825515747e-01 2.242887318134307861e-01 -3.446251451969146729e-01 3.274826100096106529e-03 -4.406080245971679688e-01 1.791451275348663330e-01 -4.090070724487304688e-01 -3.462129533290863037e-01 3.277737796306610107e-01 2.764739692211151123e-01 2.630697488784790039e-01 7.017636299133300781e-02 -3.042296767234802246e-01 -3.005098402500152588e-01 -4.275102615356445312e-01 2.028270483016967773e+00 -3.565577045083045959e-02 2.612952888011932373e-01 1.540490239858627319e-01 -1.308119595050811768e-01 -5.243225023150444031e-02 -2.887197732925415039e-01 -1.196656748652458191e-01 -2.280418425798416138e-01 -3.612478673458099365e-01 -2.682122290134429932e-01 1.934490352869033813e-01 -9.699087142944335938e-01 1.618494242429733276e-01 -1.018824338912963867e+00 5.496860742568969727e-01 -1.340975612401962280e-01 -4.581510722637176514e-01 7.809866070747375488e-01 -6.121118068695068359e-01 -2.413784265518188477e-01 7.756071537733078003e-02 -5.665334463119506836e-01 -8.925011157989501953e-01 -4.094004631042480469e-01 -4.178349673748016357e-01 2.725464105606079102e-01 4.132580757141113281e-01 -5.274493098258972168e-01 -2.229316085577011108e-01 3.744764328002929688e-01 1.348346844315528870e-02 -9.807012975215911865e-02 -5.559631064534187317e-02 3.656739890575408936e-01 9.051986932754516602e-01 4.496758580207824707e-01 -6.715936958789825439e-02 5.718741938471794128e-02 2.576755881309509277e-01 -8.030688017606735229e-02 -1.531660705804824829e-01 -6.851112842559814453e-01 2.283463627099990845e-01 -1.032865419983863831e-01 2.026775777339935303e-01 -7.672528177499771118e-02 -4.238191843032836914e-01 2.270096838474273682e-01 -2.326656579971313477e-01 -2.403625100851058960e-01 -2.579785287380218506e-01 -3.715227544307708740e-02 -1.221994757652282715e-01 -2.075902186334133148e-02 8.380559682846069336e-01 9.668352007865905762e-01 -1.972502321004867554e-01 -2.152439355850219727e-01 2.982534170150756836e-01 5.507131218910217285e-01 4.253864884376525879e-01 -6.217380762100219727e-01 -8.199156075716018677e-02 -1.339484333992004395e+00 5.721015334129333496e-01 1.063261032104492188e-01 -2.504660785198211670e-01 -5.554041862487792969e-01 -3.077206313610076904e-01 -2.056512355804443359e+00 -1.021087884902954102e+00 -6.001574993133544922e-01 -2.679809033870697021e-01 4.474218189716339111e-01 6.370871663093566895e-01 -5.381312221288681030e-02 8.975866436958312988e-01 -4.278425276279449463e-01 -3.964237570762634277e-01 -1.259654164314270020e-01 1.831142604351043701e-01 -7.472819834947586060e-02 -2.824871242046356201e-01 -8.292398452758789062e-01 -8.262231349945068359e-01 1.916912347078323364e-01 2.426251024007797241e-02 6.061773002147674561e-02 -1.605722606182098389e-01 2.277201414108276367e-01 -1.340200658887624741e-02 -4.984673261642456055e-01 4.729389250278472900e-01 1.778578460216522217e-01 -4.359444975852966309e-02 -1.779618561267852783e-01 6.195825934410095215e-01 -3.148204684257507324e-01 -2.098677754402160645e-01 1.071273908019065857e-01 2.702737152576446533e-01 -3.245380818843841553e-01 -1.086733937263488770e+00
2.893750555813312531e-02 -8.505453914403915405e-02 -9.257821440696716309e-01 7.133492231369018555e-01 -2.423111796379089355e-01 1.123677715659141541e-01 5.310294628143310547e-01 1.752163469791412354e-01 -7.699178240727633238e-05 2.386156916618347168e-01 8.583573251962661743e-02 -1.319978684186935425e-01 7.156207412481307983e-02 2.137585729360580444e-01 2.132560312747955322e-01 3.714524209499359131e-02 5.098634399473667145e-03 -1.457270421087741852e-02 2.659822106361389160e-01 -1.605872362852096558e-01 -2.311428785324096680e-01 -4.260306954383850098e-01 -4.249665737152099609e-01 5.120832324028015137e-01 3.118251860141754150e-01 9.392540156841278076e-02 2.899951636791229248e-01 -4.293523430824279785e-01 -1.536761410534381866e-02 -1.866180002689361572e-01 5.235267877578735352e-01 5.263061523437500000e-01 2.341670244932174683e-01 4.322018474340438843e-02 -1.381644368171691895e+00 4.392271339893341064e-01 2.907211482524871826e-01 -7.218744605779647827e-03 1.640498451888561249e-02 1.575416177511215210e-01 3.870546519756317139e-01 8.875735402107238770e-01 2.978470176458358765e-02 -2.487582862377166748e-01 2.089516818523406982e-01 -5.687408447265625000e-01 -2.237225323915481567e-02 1.922239363193511963e-01 1.217055618762969971e-01 -1.305462479591369629e+00 5.833918601274490356e-02 -1.789444684982299805e-01 1.249629780650138855e-01 8.919402211904525757e-02 -2.656563818454742432e-01 -4.922203719615936279e-01 -2.936355173587799072e-01 -9.137605875730514526e-02 1.461029201745986938e-01 9.517740607261657715e-01 9.891323745250701904e-02 2.545639872550964355e-01 4.227892160415649414e-01 2.868680357933044434e-01 2.426623255014419556e-01 4.949348866939544678e-01 1.901016831398010254e-01 7.245112955570220947e-02 3.849114179611206055e-01 -5.486680194735527039e-02 -6.676785945892333984e-01 2.955337762832641602e-01 -5.885567665100097656e-01 1.348062232136726379e-02 2.000824809074401855e-01 4.554743170738220215e-01 -2.659676596522331238e-02 1.173680350184440613e-01 5.317874550819396973e-01 -1.360622048377990723e-01 4.911244846880435944e-03 6.645493954420089722e-02 1.989687830209732056e-01 -9.595971554517745972e-02 -2.624452710151672363e-01 -1.232387591153383255e-02 6.035152077674865723e-01 -4.248142838478088379e-01 -6.814811229705810547e-01 8.989800512790679932e-02 2.637369334697723389e-01 1.529992520809173584e-01 -2.569173872470855713e-01 -5.608939528465270996e-01 -2.659872531890869141e+00 3.780367374420166016e-01 -3.630867600440979004e-01 -4.487971588969230652e-02 4.917898476123809814e-01 6.086320802569389343e-02 3.698868751525878906e-01 -2.752402611076831818e-02 5.364056229591369629e-01 -3.746233284473419189e-01 2.463200390338897705e-01 5.410741567611694336e-01 9.964557290077209473e-01 1.254530102014541626e-01 -6.350220739841461182e-02 1.792104542255401611e-02 1.368318051099777222e-01 5.063861608505249023e-01 5.208662152290344238e-02 1.252685666084289551e+00 -1.725655794143676758e-02 1.233724281191825867e-01 2.717142105102539062e-01 -7.947374135255813599e-02 2.731789946556091309e-01 5.298451185226440430e-01 3.650664910674095154e-02 2.727793157100677490e-01 -1.632038801908493042e-01 5.033631324768066406e-01 1.928586363792419434e-01 -7.053265813738107681e-03 -4.151034653186798096e-01 -8.403418064117431641e-01
4.224316179752349854e-01 -2.043250948190689087e-01 -5.237940549850463867e-01 -4.045491516590118408e-01 -3.502135574817657471e-01 -5.811458826065063477e-01 -2.074022293090820312e-01 2.271602451801300049e-01 -4.223934412002563477e-01 -1.000339508056640625e+00 -7.822488546371459961e-01 5.867318063974380493e-02 8.613834381103515625e-01 3.520700037479400635e-01 6.886861287057399750e-03 -1.824564784765243530e-01 4.247609972953796387e-01 8.051587939262390137e-01 8.281426131725311279e-02 7.254823110997676849e-03 -1.103700622916221619e-01 -7.553296089172363281e-01 1.728494614362716675e-01 6.621282100677490234e-01 2.684056460857391357e-01 -9.124278277158737183e-02 7.179177552461624146e-02 5.755603685975074768e-02 -6.177747249603271484e-01 9.787293672561645508e-01 -8.751971721649169922e-01 2.946300432085990906e-02 -6.058469414710998535e-01 -4.779946804046630859e-01 -4.106260836124420166e-01 -2.555590271949768066e-01 4.380988776683807373e-01 7.610443830490112305e-01 1.144201159477233887e+00 1.522949989885091782e-02 6.704783439636230469e-01 6.149147748947143555e-01 -1.541274935007095337e-01 5.554378032684326172e-01 4.789209067821502686e-01 3.995580598711967468e-02 -3.597380518913269043e-01 1.174290850758552551e-01 -9.797087907791137695e-01 -4.403134286403656006e-01 1.250919461250305176e+00 1.646894961595535278e-01 5.235400199890136719e-01 7.623585462570190430e-01 -5.175544023513793945e-01 1.092017367482185364e-01 9.225154519081115723e-01 7.725630998611450195e-01 2.449715137481689453e-01 1.242180094122886658e-01 -9.413456320762634277e-01 4.831681847572326660e-01 -1.276927590370178223e-01 5.207284688949584961e-01 -6.088665723800659180e-01 -3.078812500461935997e-03 6.276850104331970215e-01 4.810476899147033691e-01 1.825665235519409180e+00 2.647349983453750610e-02 -5.334669351577758789e-01 5.091480612754821777e-01 3.480132222175598145e-01 3.083711266517639160e-01 6.631371974945068359e-01 -4.373886585235595703e-01 -3.135915100574493408e-01 2.488351762294769287e-01 1.046595335006713867e+00 3.955678939819335938e-01 -1.791763156652450562e-01 9.341082535684108734e-03 3.875567018985748291e-01 1.037266135215759277e+00 7.618579268455505371e-01 -4.196556508541107178e-01 -7.857626676559448242e-02 -1.605975925922393799e-01 -6.112678050994873047e-01 -1.298424452543258667e-01 1.624199897050857544e-01 5.786563754081726074e-01 2.134478688240051270e-01 -1.083921715617179871e-01 -2.227837324142456055e+00 -2.163178920745849609e-01 2.536512911319732666e-01 4.522615671157836914e-01 -1.848293095827102661e-01 -2.913446128368377686e-01 3.414682447910308838e-01 -1.196086034178733826e-01 4.074236154556274414e-01 -6.013380885124206543e-01 9.964311122894287109e-02 -1.983919590711593628e-01 -1.155473515391349792e-01 1.883494318462908268e-03 2.292975634336471558e-01 1.811144128441810608e-02 4.991799294948577881e-01 7.952075600624084473e-01 -4.040382206439971924e-01 1.379676699638366699e+00 -1.142715662717819214e-01 4.544562399387359619e-01 -2.484801411628723145e-01 6.612907648086547852e-01 1.922307610511779785e-01 -5.721171200275421143e-02 5.998276472091674805e-01 -7.250967025756835938e-01 1.156470999121665955e-01 5.667014122009277344e-01 4.306418597698211670e-01 -1.246846616268157959e-01 -1.977682113647460938e-01 5.763028264045715332e-01
-2.809693515300750732e-01 1.524942874908447266e+00 8.636492490768432617e-01 1.795389175415039062e+00 1.326861739158630371e+00 5.106055736541748047e-01 -6.240654587745666504e-01 8.327019959688186646e-02 4.754523038864135742e-01 1.867966055870056152e+00 1.703713387250900269e-01 5.268684625625610352e-01 1.592054724693298340e+00 -1.937613785266876221e-01 -2.603384733200073242e+00 8.724994659423828125e-01 2.484386444091796875e+00 1.542175173759460449e+00 -5.441454648971557617e-01 -2.452773451805114746e-01 6.466273665428161621e-01 -7.771935462951660156e-01 3.218461036682128906e+00 7.885927557945251465e-01 3.071015179157257080e-01 6.141397953033447266e-01 1.412797093391418457e+00 7.861365079879760742e-01 1.956771969795227051e+00 3.679625093936920166e-01 7.148114442825317383e-01 5.435060858726501465e-01 -2.374619543552398682e-01 -1.180580556392669678e-01 8.466470241546630859e-02 2.573785543441772461e+00 3.265357613563537598e-01 -3.452448248863220215e-01 6.254896521568298340e-01 7.215574979782104492e-01 9.560892581939697266e-01 1.111353278160095215e+00 1.129189252853393555e+00 -5.139316916465759277e-01 5.859562754631042480e-01 -1.235620021820068359e+00 -7.133101820945739746e-01 8.226465433835983276e-02 5.308818817138671875e-01 9.439017772674560547e-01 -2.368801645934581757e-02 -1.258718848228454590e+00 -6.442939639091491699e-01 -1.623423576354980469e+00 -3.967579901218414307e-01 -3.919529542326927185e-02 -2.558746337890625000e-01 9.582723379135131836e-01 -5.870572328567504883e-01 -1.067669391632080078e+00 9.322627186775207520e-01 -5.164878368377685547e-01 -1.343379139900207520e+00 1.121257990598678589e-02 8.551871776580810547e-01 5.260167717933654785e-01 1.467153787612915039e+00 6.776356697082519531e-01 1.115688800811767578e+00 9.139782190322875977e-01 1.098277807235717773e+00 -9.133808016777038574e-01 1.562855005264282227e+00 6.978631615638732910e-01 -5.293161869049072266e-01 4.872718453407287598e-01 2.291719466447830200e-01 -1.189601898193359375e+00 -3.829626441001892090e-01 1.007190108299255371e+00 1.478361964225769043e+00 8.991837501525878906e-02 -3.306905329227447510e-01 -2.367992103099822998e-01 -6.105319261550903320e-01 -2.655689837411046028e-03 1.072378277778625488e+00 -1.265705823898315430e-01 -1.027013137936592102e-01 1.778390407562255859e+00 -1.062135934829711914e+00 -5.288654565811157227e-01 4.570926129817962646e-01 -7.158228754997253418e-01 -5.591971874237060547e-01 8.106519579887390137e-01 2.814366102218627930e+00 2.423381060361862183e-01 3.747834563255310059e-01 8.990046977996826172e-01 2.197545051574707031e+00 1.166906237602233887e+00 1.220162749290466309e+00 2.407794445753097534e-01 4.832827746868133545e-01 2.058180332183837891e+00 1.924541831016540527e+00 3.983415961265563965e-01 1.925256013870239258e+00 1.303775012493133545e-01 1.335321068763732910e+00 7.912981510162353516e-01 2.019611120223999023e+00 1.491063714027404785e+00 1.678766250610351562e+00 -7.056089639663696289e-01 8.724572658538818359e-01 1.044714570045471191e+00 7.285912036895751953e-01 4.271935462951660156e+00 1.603786706924438477e+00 1.359487295150756836e+00 -8.219717144966125488e-01 2.175534725189208984e+00 4.952820762991905212e-02 5.591166019439697266e-01 3.404394686222076416e-01 1.841353029012680054e-01
-3.215265274047851562e-01 -1.377929091453552246e+00 -1.041149273514747620e-01 -3.081533908843994141e-01 -5.257637500762939453e-01 3.879826068878173828e-01 -6.880275607109069824e-01 8.520541191101074219e-01 3.492985069751739502e-01 5.959701165556907654e-02 2.462141811847686768e-01 -3.251887261867523193e-01 -1.726882696151733398e+00 -2.972256839275360107e-01 3.661837875843048096e-01 6.890511512756347656e-01 1.070171356201171875e+00 -1.609504699707031250e+00 3.773367404937744141e-01 -5.050635337829589844e-02 6.277492642402648926e-01 7.095093373209238052e-03 -2.106670439243316650e-01 -7.165148854255676270e-01 6.659296154975891113e-01 -4.532332122325897217e-01 -7.651522010564804077e-02 4.466146528720855713e-01 -7.162726521492004395e-01 1.212585996836423874e-02 -9.965487718582153320e-01 6.191706657409667969e-01 1.388292014598846436e-01 -7.660040259361267090e-01 1.731042563915252686e-01 -4.591021537780761719e-01 -3.035880029201507568e-01 8.848530054092407227e-01 1.552523374557495117e-01 1.944060027599334717e-01 -3.363851606845855713e-01 1.653749644756317139e-01 6.644146442413330078e-01 9.361093640327453613e-01 -5.459996461868286133e-01 -6.099165678024291992e-01 -7.854291200637817383e-01 -8.883637785911560059e-01 3.886017203330993652e-01 6.854255199432373047e-01 8.890095353126525879e-01 7.847685217857360840e-01 2.223089635372161865e-01 3.347319662570953369e-01 4.533233642578125000e-01 3.511732220649719238e-01 -1.224587559700012207e-01 7.618308067321777344e-01 3.589991033077239990e-01 -9.495661407709121704e-02 3.476425111293792725e-01 -7.983174920082092285e-01 3.247577250003814697e-01 -4.387698173522949219e-01 -3.463147580623626709e-01 3.541210591793060303e-01 1.150888279080390930e-01 1.960496902465820312e-01 -2.604559659957885742e-01 5.721119791269302368e-02 4.677460193634033203e-01 3.835368752479553223e-01 1.674395501613616943e-01 -3.811546266078948975e-01 8.020435571670532227e-01 -5.261973142623901367e-01 1.648711264133453369e-01 2.332161739468574524e-02 -4.142668843269348145e-01 4.924687147140502930e-01 3.754145503044128418e-01 -2.193130105733871460e-01 7.353985905647277832e-01 -5.613023638725280762e-01 7.163952589035034180e-01 3.766450285911560059e-01 -6.684575676918029785e-01 5.469974279403686523e-01 1.415868163108825684e+00 -7.690353691577911377e-02 -6.691526621580123901e-02 7.877088338136672974e-02 3.196326196193695068e-01 4.724945425987243652e-01 -2.347120791673660278e-01 -6.521503329277038574e-01 -6.529502272605895996e-01 -6.465048789978027344e-01 -3.917849063873291016e-01 -6.222935393452644348e-02 -1.844752132892608643e-01 1.955971866846084595e-02 -1.140097022056579590e+00 -3.750924021005630493e-02 -4.566661119461059570e-01 1.192657947540283203e+00 5.635461807250976562e-01 -5.801564082503318787e-02 4.111395180225372314e-01 6.414949893951416016e-01 -1.298404216766357422e+00 -1.310675144195556641e+00 -2.966238558292388916e-01 3.596793115139007568e-01 9.983827918767929077e-02 3.152123093605041504e-01 3.309276103973388672e-01 -5.215293765068054199e-01 8.189581632614135742e-01 -3.868670463562011719e-01 5.117650628089904785e-01 8.178855180740356445e-01 -1.354926973581314087e-01 -4.850426018238067627e-01 4.222097396850585938e-01 -7.124087214469909668e-01 -7.262595891952514648e-01 8.375274538993835449e-01
-1.079655662178993225e-01 -8.401032537221908569e-02 6.023545861244201660e-01 -2.264126539230346680e-01 1.124146938323974609e+00 2.440771088004112244e-02 1.140499472618103027e+00 1.143125295639038086e-01 -3.595142662525177002e-01 -2.837764918804168701e-01 6.128153577446937561e-02 -4.627027213573455811e-01 -6.182591319084167480e-01 -3.051131665706634521e-01 1.571267008781433105e+00 -3.134884536266326904e-01 -2.762947380542755127e-01 1.987628340721130371e-01 -7.464141845703125000e-01 -6.745070964097976685e-02 2.613806426525115967e-01 5.377612113952636719e-01 2.592666447162628174e-01 1.237632557749748230e-01 -2.087651044130325317e-01 -5.544440150260925293e-01 1.129018440842628479e-01 -5.725555121898651123e-02 1.545327156782150269e-01 1.031399965286254883e-01 -3.458429574966430664e-01 6.362478733062744141e-01 -1.509483903646469116e-01 -2.237827330827713013e-01 -1.742714457213878632e-02 -1.880561709403991699e-01 -1.485879272222518921e-01 3.581302985548973083e-02 -2.062991857528686523e-01 -8.170700073242187500e-02 2.500976026058197021e-01 -2.194183319807052612e-02 1.377502977848052979e-01 2.476996183395385742e+00 1.730614155530929565e-01 7.720982283353805542e-02 -2.102089375257492065e-01 -5.048524141311645508e-01 -3.851769566535949707e-01 -1.071370989084243774e-01 4.597166478633880615e-01 4.036652445793151855e-01 1.503138542175292969e+00 -5.187593698501586914e-01 1.488294154405593872e-01 1.343222111463546753e-01 -7.631431818008422852e-01 -1.421132385730743408e-01 4.384924769401550293e-01 7.048254609107971191e-01 1.074951589107513428e-01 6.911706924438476562e-02 -8.739207983016967773e-01 6.860918998718261719e-01 6.589570641517639160e-02 -3.110266029834747314e-01 -3.584448695182800293e-01 -1.921189129352569580e-01 8.308465033769607544e-02 2.539421319961547852e-01 1.506943583488464355e+00 -1.350196719169616699e+00 5.104032754898071289e-01 -1.081268489360809326e-01 8.843746781349182129e-01 1.148594021797180176e-01 7.352693080902099609e-01 1.845201360993087292e-03 -6.505017876625061035e-01 -3.976961672306060791e-01 4.218606054782867432e-01 3.518733084201812744e-01 3.686881959438323975e-01 -9.304913282394409180e-01 6.192359924316406250e-01 6.015647649765014648e-01 1.448145657777786255e-01 2.249590903520584106e-01 -1.459497928619384766e+00 1.705866903066635132e-01 -8.753792941570281982e-02 1.627586036920547485e-01 2.243711799383163452e-01 -8.685050010681152344e-01 -1.366614103317260742e+00 -7.337267398834228516e-01 -4.297319054603576660e-01 -4.381551742553710938e-01 5.256976485252380371e-01 6.920656561851501465e-01 -1.815336346626281738e-01 -1.065637245774269104e-01 -2.637004256248474121e-01 -5.382026359438896179e-02 -2.842749953269958496e-01 2.409202046692371368e-02 8.833318948745727539e-02 5.123091936111450195e-01 2.122886627912521362e-01 9.502171725034713745e-02 1.263610273599624634e-01 1.331915706396102905e-01 9.969909787178039551e-01 -2.124109566211700439e-01 1.072015166282653809e-01 2.203043550252914429e-01 -6.465688943862915039e-01 -4.765093699097633362e-02 -8.551932871341705322e-02 8.941931128501892090e-01 -3.275643885135650635e-01 4.289873838424682617e-01 -1.778908222913742065e-01 -3.786130845546722412e-01 1.068072277121245861e-03 -1.287646442651748657e-01 4.448451995849609375e-01 -1.105958104133605957e+00
5.101411342620849609e-01 6.583022326231002808e-02 -6.641539186239242554e-02 5.842454433441162109e-01 -4.431360661983489990e-01 3.463577330112457275e-01 -1.308262050151824951e-01 3.638567030429840088e-01 3.530515134334564209e-01 2.070784091949462891e+00 -1.279148161411285400e-01 2.002043485641479492e+00 3.254908621311187744e-01 -2.624746263027191162e-01 -7.467003911733627319e-02 5.197337865829467773e-01 5.762860551476478577e-02 -2.007775306701660156e-01 9.831706881523132324e-01 -2.520225346088409424e-01 5.581201910972595215e-01 4.453584849834442139e-01 -4.102754294872283936e-01 -2.670615911483764648e-01 5.352273583412170410e-02 5.562967658042907715e-01 5.430372059345245361e-02 1.654759794473648071e-01 -8.523928932845592499e-03 7.295393943786621094e-02 -6.734764575958251953e-02 -7.261912226676940918e-01 3.947804868221282959e-01 4.524469375610351562e-02 -1.971024990081787109e+00 -1.117323637008666992e-01 3.097637891769409180e-01 1.447350829839706421e-01 -6.940305698662996292e-03 1.138135418295860291e-01 -3.529693782329559326e-01 -6.051091849803924561e-02 2.382856011390686035e-01 -2.861391901969909668e-01 -6.860279440879821777e-01 1.221872866153717041e-02 7.750535011291503906e-01 -1.261602193117141724e-01 4.491111636161804199e-01 -1.690332889556884766e-01 3.050156496465206146e-02 1.888687908649444580e-02 1.783469468355178833e-01 6.738720536231994629e-01 4.832980632781982422e-01 4.505312144756317139e-01 1.033325791358947754e+00 4.643542170524597168e-01 -5.671360492706298828e-01 -5.699559673666954041e-02 1.142492055892944336e+00 1.690856367349624634e-01 -9.058441966772079468e-02 3.199351727962493896e-01 -1.220719367265701294e-01 6.404881179332733154e-02 1.275883197784423828e+00 1.713764816522598267e-01 -1.468736529350280762e-01 -8.080037683248519897e-02 -3.099619448184967041e-01 1.013804793357849121e+00 1.639335006475448608e-01 3.462483882904052734e-01 -2.071045637130737305e-01 3.237606287002563477e-01 6.396746635437011719e-01 4.251820147037506104e-01 -2.737751007080078125e-01 -1.200806125998497009e-01 -4.063868895173072815e-02 1.753947585821151733e-01 2.156001701951026917e-02 -9.798532128334045410e-01 -4.819203317165374756e-01 -6.370556354522705078e-02 -1.861631423234939575e-01 -2.220186740159988403e-01 -3.086667060852050781e-01 -3.973284959793090820e-01 1.733829230070114136e-01 2.653384208679199219e-01 -8.696604967117309570e-01 9.738018512725830078e-01 -2.814936161041259766e+00 1.996395230293273926e+00 8.646050840616226196e-02 -4.129345417022705078e-01 2.300572693347930908e-01 -2.687329351902008057e-01 3.885937631130218506e-01 8.141835033893585205e-02 -1.000189259648323059e-01 3.315378129482269287e-01 1.206306338310241699e+00 6.550248265266418457e-01 5.200592875480651855e-01 1.145584285259246826e-01 8.925668895244598389e-02 9.861657023429870605e-01 -4.513369500637054443e-01 -2.463020533323287964e-01 -4.991577565670013428e-02 4.482403397560119629e-02 4.171650111675262451e-01 -1.117069125175476074e-01 1.287336498498916626e-01 1.787362247705459595e-01 1.302401572465896606e-01 -3.263136446475982666e-01 -1.938727647066116333e-01 -1.001655817031860352e+00 1.748404502868652344e-01 2.704458236694335938e-01 4.322256445884704590e-01 2.210816293954849243e-01 2.006139516830444336e+00 -2.587263584136962891e-01
3.204343020915985107e-01 5.648721456527709961e-01 5.820801854133605957e-01 2.718044221401214600e-01 -1.998860836029052734e-01 -3.428410887718200684e-01 6.738108396530151367e-02 -2.095653414726257324e-01 -4.094509407877922058e-02 -2.616870999336242676e-01 4.608543813228607178e-01 5.007254481315612793e-01 -7.233986258506774902e-01 6.842677295207977295e-02 1.391620516777038574e+00 5.152449607849121094e-01 4.030242860317230225e-01 -1.211610436439514160e-01 3.867240846157073975e-01 -1.766370087862014771e-01 -6.153656840324401855e-01 4.597024917602539062e-01 -4.361222088336944580e-01 5.227612853050231934e-01 -9.712116718292236328e-01 -1.681140810251235962e-01 -1.197531938552856445e+00 -9.689165353775024414e-01 1.550456643104553223e+00 4.101958870887756348e-01 3.067295253276824951e-01 -4.032967686653137207e-01 1.113095656037330627e-01 4.890620112419128418e-01 2.776224911212921143e-01 1.174279808998107910e+00 8.254129886627197266e-01 -1.143946409225463867e+00 1.061920300126075745e-01 -2.646220922470092773e-01 6.041882038116455078e-01 2.899061143398284912e-01 5.208076834678649902e-01 1.391759365797042847e-01 4.718127846717834473e-02 -2.636186182498931885e-01 1.046706080436706543e+00 -6.190804243087768555e-01 -2.328755147755146027e-02 3.410246968269348145e-01 -7.509358525276184082e-01 3.069021105766296387e-01 -3.341441974043846130e-02 -9.604491591453552246e-01 1.679507829248905182e-02 -7.190226316452026367e-01 5.948759913444519043e-01 -3.679300844669342041e-01 -5.817887187004089355e-01 -3.708538711071014404e-01 -3.208085298538208008e-01 -9.757595658302307129e-01 4.049218893051147461e-01 8.291090726852416992e-01 5.627529621124267578e-01 -5.933180451393127441e-01 3.158634305000305176e-01 4.383314847946166992e-01 1.007818102836608887e+00 -8.934747576713562012e-01 -5.625385642051696777e-01 -1.761503815650939941e-01 -3.176437318325042725e-01 3.993034958839416504e-01 -5.150659084320068359e-01 9.261407852172851562e-01 8.085543662309646606e-02 -5.100513696670532227e-01 -1.866033971309661865e-01 -2.421629130840301514e-01 2.083484269678592682e-02 -6.975319385528564453e-01 3.886159658432006836e-01 -3.214528858661651611e-01 -7.037544250488281250e-01 -6.344915032386779785e-01 1.189108341932296753e-01 -4.896888136863708496e-01 -1.826113909482955933e-01 -1.117770314216613770e+00 2.333259880542755127e-01 -1.120620250701904297e+00 5.561802983283996582e-01 -5.201750993728637695e-01 5.654132962226867676e-01 2.747541368007659912e-01 5.460712909698486328e-01 1.150309443473815918e+00 -1.002034544944763184e+00 -7.286484469659626484e-04 5.299313068389892578e-01 -3.616276979446411133e-01 7.934013009071350098e-01 5.621577501296997070e-01 7.413893342018127441e-01 -1.717519760131835938e-01 9.772461652755737305e-01 3.733428716659545898e-01 -9.503068327903747559e-01 -5.657827854156494141e-01 5.990564227104187012e-01 1.973586231470108032e-01 4.437273740768432617e-01 4.029384851455688477e-01 1.009863257408142090e+00 -9.746956229209899902e-01 5.678304433822631836e-01 3.260967731475830078e-01 -8.283421993255615234e-01 8.888975381851196289e-01 4.236094355583190918e-01 -3.506729602813720703e-01 -1.949231773614883423e-01 2.166087031364440918e-01 8.044252395629882812e-01 -1.421666145324707031e-02 1.372046321630477905e-01 6.690334528684616089e-02
7.636295557022094727e-01 2.052166461944580078e-01 -4.691907763481140137e-01 -3.666887581348419189e-01 -1.542367637157440186e-01 2.447995096445083618e-01 1.400092840194702148e+00 3.427482545375823975e-01 -4.975841939449310303e-01 -3.367364034056663513e-02 -2.779059708118438721e-01 -1.441734582185745239e-01 -2.709109783172607422e-01 4.120743572711944580e-01 -2.557403445243835449e-01 -1.661615222692489624e-01 -3.329197168350219727e-01 6.987448036670684814e-02 4.731320142745971680e-01 3.829574882984161377e-01 4.815230071544647217e-01 3.285325467586517334e-01 -4.536296054720878601e-02 2.652675509452819824e-01 4.195353984832763672e-01 6.020240858197212219e-02 -7.734152954071760178e-03 -4.659263491630554199e-01 4.866189323365688324e-03 -1.869953870773315430e-01 4.007075726985931396e-01 4.479341953992843628e-02 -9.363390505313873291e-02 3.823211193084716797e-01 -4.124425053596496582e-01 6.616002321243286133e-01 1.068227291107177734e+00 -2.876832187175750732e-01 -9.362256526947021484e-02 3.970815241336822510e-01 -3.918213248252868652e-01 -1.016663983464241028e-01 7.013728618621826172e-01 -3.267529904842376709e-01 -1.227580904960632324e-01 -1.349111646413803101e-01 4.895230531692504883e-01 3.308361172676086426e-01 -9.019595384597778320e-02 8.875640630722045898e-01 -7.062862515449523926e-01 9.086320996284484863e-01 -2.810912430286407471e-01 -5.169966220855712891e-01 -5.480126142501831055e-01 -2.683840990066528320e-01 4.497270658612251282e-02 2.094462960958480835e-01 -4.600107967853546143e-01 -2.922277525067329407e-02 -1.381560564041137695e-01 -2.230421751737594604e-01 6.387845277786254883e-01 -2.169055789709091187e-01 2.902048826217651367e-01 -3.683676421642303467e-01 -5.615770220756530762e-01 6.752511262893676758e-01 -4.063051342964172363e-01 -6.610812246799468994e-02 -3.644336163997650146e-01 5.568262189626693726e-02 -5.878447890281677246e-01 -3.670463263988494873e-01 8.900635838508605957e-01 3.508318364620208740e-01 -2.176239639520645142e-01 -4.894015192985534668e-02 -2.026525288820266724e-01 -5.223753452301025391e-01 -7.892686724662780762e-01 2.619686070829629898e-03 7.988544702529907227e-01 -4.346399381756782532e-02 -2.044204771518707275e-01 4.668075144290924072e-01 1.735542416572570801e-01 -1.747379638254642487e-02 -5.533376932144165039e-01 -6.216861605644226074e-01 1.825778037309646606e-01 -1.562176048755645752e-01 -3.681276142597198486e-01 -5.482808947563171387e-01 -1.247514009475708008e+00 2.864243686199188232e-01 -2.755746543407440186e-01 6.561515331268310547e-01 -5.748980045318603516e-01 -6.023359298706054688e-01 6.577607244253158569e-02 -3.550127148628234863e-01 7.438696920871734619e-02 -2.487653046846389771e-01 7.012698054313659668e-01 -6.458868980407714844e-01 5.600571632385253906e-01 -2.638121545314788818e-01 -6.150761246681213379e-01 3.966231644153594971e-02 -2.512483596801757812e-01 1.970819830894470215e-01 7.286825031042098999e-02 6.295583844184875488e-01 5.059960484504699707e-01 -4.487663209438323975e-01 -9.152261912822723389e-02 -6.231983006000518799e-02 -2.390320971608161926e-02 -3.098737895488739014e-01 2.276809513568878174e-02 -1.306251138448715210e-01 -1.051741838455200195e-01 9.337732940912246704e-02 7.106372714042663574e-01 -2.927774488925933838e-01 -4.006711542606353760e-01 -1.683919690549373627e-02
-9.579586982727050781e-01 -4.698548614978790283e-01 -6.416447460651397705e-02 -9.668055772781372070e-01 -5.959355831146240234e-01 -2.948564887046813965e-01 3.963626027107238770e-01 -9.679713249206542969e-01 -5.825408101081848145e-01 -7.006185650825500488e-01 2.177120894193649292e-01 -1.102037549018859863e+00 -8.767178058624267578e-01 -1.294362545013427734e+00 -9.769594669342041016e-01 -6.489078402519226074e-01 3.291591405868530273e-01 -8.634701967239379883e-01 7.741129398345947266e-01 -8.050643801689147949e-01 -8.149933218955993652e-01 3.312288522720336914e-01 -7.858982086181640625e-01 -9.842456579208374023e-01 -2.978730201721191406e-01 -1.070031166076660156e+00 -8.951293230056762695e-01 -5.512301921844482422e-01 1.958852171897888184e+00 -7.328044772148132324e-01 -5.273158848285675049e-02 -1.318891286849975586e+00 -5.081633925437927246e-01 -1.189897283911705017e-01 2.519217729568481445e-01 4.204704761505126953e+00 1.881822794675827026e-01 2.306077629327774048e-01 -8.873205184936523438e-01 -1.266161561012268066e+00 -1.956463336944580078e+00 -8.301335573196411133e-01 5.401187539100646973e-01 -1.036559700965881348e+00 -6.966175436973571777e-01 -1.329911828041076660e+00 2.746212780475616455e-01 -1.543498754501342773e+00 9.076939821243286133e-01 -4.849409684538841248e-02 1.431836366653442383e+00 -1.884064197540283203e+00 4.967769235372543335e-02 -1.326155304908752441e+00 -1.013645648956298828e+00 -1.188820838928222656e+00 -3.861074149608612061e-01 -1.157569885253906250e+00 -3.837676048278808594e-01 -6.220117211341857910e-01 -4.476110339164733887e-01 6.196983903646469116e-02 8.571112751960754395e-01 -9.410697817802429199e-01 1.219475269317626953e+00 2.060651928186416626e-01 -1.052678748965263367e-01 1.092297911643981934e+00 -1.861599564552307129e+00 -1.469576239585876465e+00 -4.739396274089813232e-01 -4.187750518321990967e-01 -4.188179373741149902e-01 -6.720689535140991211e-01 -1.692942827939987183e-01 1.103712558746337891e+00 7.417994737625122070e-01 -1.300110578536987305e+00 -9.072700738906860352e-01 -5.128908157348632812e-01 -3.755896091461181641e-01 -1.749145984649658203e+00 -6.252528429031372070e-01 -8.512271642684936523e-01 -3.842010498046875000e-01 -9.621080160140991211e-01 8.613750338554382324e-01 -6.055901646614074707e-01 -2.258479446172714233e-01 -8.445731401443481445e-01 8.917627334594726562e-01 -8.536142706871032715e-01 8.293454647064208984e-01 -2.687778472900390625e-01 -6.694111227989196777e-01 -7.220416665077209473e-01 -1.194719552993774414e+00 2.465482234954833984e+00 -2.258311063051223755e-01 1.452919375151395798e-02 -1.186594724655151367e+00 -1.329700112342834473e+00 1.583456844091415405e-01 -2.177572995424270630e-01 -5.843263268470764160e-01 -3.177122175693511963e-01 -1.385816216468811035e+00 -5.214548110961914062e-01 -3.045328557491302490e-01 -4.478275179862976074e-01 7.776975631713867188e-01 2.906715571880340576e-01 -9.506769180297851562e-01 -1.096437096595764160e+00 -9.035951644182205200e-02 -1.830426692962646484e+00 -1.763355103321373463e-03 -5.502545237541198730e-01 1.417408585548400879e-01 -1.495140910148620605e+00 -4.222865402698516846e-01 -1.043271422386169434e+00 -9.465256333351135254e-01 1.159943118691444397e-01 -1.188092589378356934e+00 3.030768632888793945e-01 -6.085163354873657227e-01 -4.633708894252777100e-01
-8.394462466239929199e-01 -1.452931314706802368e-01 -4.925176501274108887e-01 6.822858452796936035e-01 6.302662491798400879e-01 4.401578903198242188e-01 -2.034157216548919678e-01 5.871918797492980957e-01 6.325674057006835938e-01 -1.275531649589538574e-01 -1.238185539841651917e-01 2.220299541950225830e-01 2.763242721557617188e-01 5.613486841320991516e-02 2.207537442445755005e-01 5.994490981101989746e-01 7.135996818542480469e-01 -2.859966829419136047e-03 -3.828724920749664307e-01 3.964827656745910645e-01 1.469326168298721313e-01 -2.439020574092864990e-01 -4.093646407127380371e-01 4.335446357727050781e-01 -4.856681525707244873e-01 -7.594495415687561035e-01 -2.209953069686889648e-01 -3.686543107032775879e-01 8.952079415321350098e-01 -5.296088457107543945e-01 -3.636736869812011719e-01 4.680775701999664307e-01 2.700068652629852295e-01 -1.287376135587692261e-01 -6.793048977851867676e-01 2.146887481212615967e-01 1.134162425994873047e+00 -2.681649029254913330e-01 6.037651300430297852e-01 2.014057636260986328e-01 5.564568564295768738e-02 2.075764983892440796e-01 -1.649469286203384399e-01 -1.864095777273178101e-01 -1.580131649971008301e-01 -7.672028988599777222e-02 1.613861024379730225e-01 1.111395731568336487e-01 -5.792684555053710938e-01 2.962285280227661133e-01 -2.497645914554595947e-01 -2.229278981685638428e-01 -2.353897392749786377e-01 -2.161849290132522583e-01 -5.593695491552352905e-02 -1.515710819512605667e-02 -3.179731070995330811e-01 -1.256639659404754639e-01 3.017265498638153076e-01 1.051118299365043640e-01 2.255286127328872681e-01 -2.317785918712615967e-01 -1.930290460586547852e-02 -4.501731097698211670e-01 -6.994120776653289795e-02 -6.142159700393676758e-01 4.547830224037170410e-01 6.877171993255615234e-01 -6.146756410598754883e-01 -1.521600633859634399e-01 -3.375752866268157959e-01 1.728057265281677246e-01 8.567877113819122314e-02 9.518887400627136230e-01 -6.287375092506408691e-01 -2.761134803295135498e-01 -8.099694550037384033e-02 2.594713866710662842e-01 7.129188179969787598e-01 -5.213406682014465332e-01 4.743577241897583008e-01 -5.151894092559814453e-01 6.440322995185852051e-01 -3.200551867485046387e-01 -8.393027186393737793e-01 -2.981003522872924805e-01 -2.620732188224792480e-01 -4.316665530204772949e-01 -4.041664898395538330e-01 -3.097891211509704590e-01 -4.050145447254180908e-01 -5.411642044782638550e-02 5.325977802276611328e-01 1.252839416265487671e-01 -1.571564435958862305e+00 8.338286727666854858e-02 8.157956600189208984e-01 -1.394734680652618408e-01 -5.277463793754577637e-02 -3.941663801670074463e-01 2.357603460550308228e-01 1.714908182621002197e-01 8.071816563606262207e-01 -1.703168079257011414e-02 -1.373067796230316162e-01 8.390048146247863770e-01 5.922884345054626465e-01 2.860586047172546387e-01 -3.560735583305358887e-01 2.491877377033233643e-01 5.695588141679763794e-02 -3.142123520374298096e-01 -1.036202535033226013e-01 5.899620242416858673e-03 8.640252798795700073e-02 -1.052351236343383789e+00 3.110633194446563721e-01 5.472125411033630371e-01 -2.442425340414047241e-01 -4.013650715351104736e-01 9.563956260681152344e-01 2.838338911533355713e-01 -1.268707215785980225e-01 6.888203024864196777e-01 1.351928472518920898e+00 -2.105270326137542725e-01 -4.438156262040138245e-02 -8.034992814064025879e-01
1.315830111503601074e+00 6.252441406250000000e-01 -5.998641848564147949e-01 3.584364950656890869e-01 -5.616349577903747559e-01 -1.112310141324996948e-01 2.316899895668029785e-01 2.349055372178554535e-02 -2.077096551656723022e-01 -5.057098865509033203e-01 4.622864127159118652e-01 -6.267887949943542480e-01 -4.983707368373870850e-01 -3.071948140859603882e-02 -2.328487336635589600e-01 1.512580156326293945e+00 -3.570514544844627380e-02 6.844021081924438477e-01 1.535441637039184570e+00 -3.355568945407867432e-01 -1.532596796751022339e-01 -7.464045882225036621e-01 1.134517192840576172e-01 9.309079051017761230e-01 4.612032175064086914e-01 1.381044745445251465e+00 2.825930416584014893e-01 -6.666417121887207031e-01 5.322868824005126953e-01 -3.102838397026062012e-01 -1.598707139492034912e-01 3.385154008865356445e-01 -7.558341026306152344e-01 -6.343915462493896484e-01 5.208948850631713867e-01 2.128796130418777466e-01 1.429231286048889160e+00 5.079035758972167969e-01 2.406236529350280762e-01 -1.037125736474990845e-01 2.701252400875091553e-01 -4.843620061874389648e-01 2.687402367591857910e-01 -3.042059242725372314e-01 -4.150322973728179932e-01 4.251895546913146973e-01 -4.312613513320684433e-03 4.011260867118835449e-01 -5.563105642795562744e-02 1.296732127666473389e-01 5.141654014587402344e-01 7.046040892601013184e-01 5.558168888092041016e-02 -4.343978464603424072e-01 2.379654049873352051e-01 1.679386943578720093e-01 6.662035584449768066e-01 3.439190089702606201e-01 6.627924442291259766e-01 8.776641450822353363e-03 -2.375589907169342041e-01 -6.342042237520217896e-02 9.796662926673889160e-01 -2.615813314914703369e-01 -3.893375992774963379e-01 -1.197546362876892090e+00 4.720028340816497803e-01 1.987920880317687988e+00 1.366856545209884644e-01 3.053281009197235107e-01 -5.388175249099731445e-01 -4.993621706962585449e-01 -2.694551348686218262e-01 1.386287689208984375e+00 -2.897879779338836670e-01 4.671878516674041748e-01 -7.922921180725097656e-01 2.096906602382659912e-01 -7.752690929919481277e-03 2.390579581260681152e-01 2.328579425811767578e-01 6.640932708978652954e-02 2.931093573570251465e-01 1.135003417730331421e-01 1.337205767631530762e-01 8.418732285499572754e-01 6.558974981307983398e-01 -7.232186794281005859e-01 8.033683896064758301e-02 -7.335008978843688965e-01 -2.723869383335113525e-01 3.219583928585052490e-01 8.794463425874710083e-02 -1.612596400082111359e-02 -2.558700084686279297e+00 -6.879869848489761353e-02 7.701718807220458984e-01 6.429397463798522949e-01 -1.604220718145370483e-01 -6.620748043060302734e-01 5.374981164932250977e-01 -1.843364536762237549e-01 8.993157148361206055e-01 1.124738693237304688e+00 -5.269439220428466797e-01 1.956205517053604126e-01 4.219212234020233154e-01 -1.336776316165924072e-01 -4.773568212985992432e-01 -4.690297842025756836e-01 8.452107310295104980e-01 9.135653972625732422e-01 -1.777420341968536377e-01 -1.760351210832595825e-01 -3.030546009540557861e-01 1.284204602241516113e+00 1.292540192604064941e+00 7.061607837677001953e-01 -8.431375026702880859e-01 -7.590415477752685547e-01 -1.380740758031606674e-02 5.006092786788940430e-01 4.656637609004974365e-01 -6.349524855613708496e-01 -2.709305286407470703e-01 4.712384343147277832e-01 1.299066841602325439e-01 4.907532632350921631e-01
9.105042219161987305e-01 1.047356367111206055e+00 -5.695463418960571289e-01 8.714972436428070068e-02 -6.717717647552490234e-01 1.717638075351715088e-01 -1.706092059612274170e-01 4.983993768692016602e-01 1.025504827499389648e+00 -3.499212563037872314e-01 1.161365509033203125e+00 -5.228047445416450500e-02 1.157425269484519958e-01 9.407916069030761719e-01 -5.006709322333335876e-02 1.071403503417968750e+00 -1.349557787179946899e-01 9.767924994230270386e-02 -1.151927113533020020e-01 1.386828184127807617e+00 -9.028334915637969971e-02 4.718025624752044678e-01 5.902000665664672852e-01 7.159677147865295410e-01 4.013923928141593933e-02 2.790615260601043701e-01 8.824139088392257690e-02 2.058973535895347595e-02 2.173119634389877319e-01 2.759091258049011230e-01 1.700172871351242065e-01 4.304646253585815430e-01 7.210214734077453613e-01 9.681963324546813965e-01 -1.864147424697875977e+00 -6.291931122541427612e-02 -3.666316270828247070e-01 7.421924173831939697e-02 5.926988720893859863e-01 2.957389354705810547e-01 7.502143830060958862e-02 -1.665211617946624756e-01 -3.288574218750000000e-01 -1.672495901584625244e-01 -3.265459835529327393e-01 8.720308542251586914e-01 -3.299560546875000000e-01 1.598798036575317383e+00 4.710916280746459961e-01 1.466709733009338379e+00 4.654533267021179199e-01 -4.412746056914329529e-02 5.412275195121765137e-01 -2.101156115531921387e-01 6.231658533215522766e-02 -1.595734953880310059e-01 -2.894601225852966309e-01 -2.378257513046264648e-01 1.026812642812728882e-01 7.442181706428527832e-01 -2.197732329368591309e-01 -2.040804475545883179e-01 1.163477301597595215e+00 -3.110702335834503174e-01 8.418285846710205078e-01 9.862094521522521973e-01 5.149228572845458984e-01 2.050400525331497192e-01 -4.690746665000915527e-01 -4.350028336048126221e-01 -5.799326300621032715e-01 -1.629745066165924072e-01 1.682914793491363525e-01 1.615070849657058716e-01 -6.913554668426513672e-01 2.009975463151931763e-01 -6.723176240921020508e-01 -4.558740928769111633e-02 -4.907890558242797852e-01 -4.097692072391510010e-01 2.280705720186233521e-01 -6.445291638374328613e-02 1.587988495826721191e+00 3.504465818405151367e-01 -7.630285620689392090e-01 -9.168373346328735352e-01 1.239330053329467773e+00 -7.236488461494445801e-01 -6.118493080139160156e-01 9.942240267992019653e-02 -3.222511410713195801e-01 -8.677797317504882812e-01 9.238280653953552246e-01 -2.066894471645355225e-01 -2.028657913208007812e+00 5.844777226448059082e-01 3.888514637947082520e-01 6.440963149070739746e-01 4.818605780601501465e-01 1.717815995216369629e-01 -5.180657655000686646e-02 1.321659564971923828e+00 1.981392502784729004e-01 1.115111231803894043e+00 5.063234567642211914e-01 1.798233538866043091e-01 1.424735062755644321e-03 -2.380330413579940796e-01 1.865705102682113647e-01 4.538239240646362305e-01 -2.137096077203750610e-01 -1.099866271018981934e+00 1.453231424093246460e-01 -1.874375194311141968e-01 2.633984088897705078e-01 4.010056555271148682e-01 -3.934701681137084961e-01 -1.147685274481773376e-01 -1.253686845302581787e-01 1.230273842811584473e-01 4.856414198875427246e-01 -1.370524317026138306e-01 6.772446036338806152e-01 -3.409776091575622559e-01 6.609539985656738281e-01 8.798424005508422852e-01 4.989285394549369812e-02 -1.730748891830444336e+00
2.906794548034667969e-01 1.366074532270431519e-01 8.941518068313598633e-01 3.171869516372680664e-01 5.257301330566406250e-01 3.984462916851043701e-01 -1.101673603057861328e+00 8.430315256118774414e-01 -4.987735450267791748e-01 -4.401708021759986877e-02 -8.129507303237915039e-02 8.977415561676025391e-01 1.603685319423675537e-02 8.308404684066772461e-01 -2.113878130912780762e-01 -1.471535116434097290e-01 3.634637892246246338e-01 1.062380149960517883e-01 -6.616678833961486816e-01 8.219341039657592773e-01 4.164751768112182617e-01 -2.759050428867340088e-01 1.284906864166259766e+00 3.599059879779815674e-01 -1.027792811393737793e+00 9.646912664175033569e-02 -1.170949190855026245e-01 6.687642931938171387e-01 -2.959954440593719482e-01 -8.826706558465957642e-03 5.347964167594909668e-01 4.141398072242736816e-01 1.237889528274536133e+00 -8.770498037338256836e-01 -1.152186512947082520e+00 6.968328263610601425e-03 7.983917742967605591e-02 1.655603051185607910e-01 -4.778452813625335693e-01 -3.889809548854827881e-02 -5.128663964569568634e-03 -4.502741992473602295e-01 -6.366678476333618164e-01 4.513040482997894287e-01 2.538653910160064697e-01 2.971884906291961670e-01 -6.198948621749877930e-01 5.842942595481872559e-01 -2.813716828823089600e-01 2.417340874671936035e-01 -2.485809028148651123e-01 -5.209429264068603516e-01 -6.709707379341125488e-01 -1.683186143636703491e-01 -4.841986000537872314e-01 -9.005663394927978516e-01 -1.921403259038925171e-01 -3.930373489856719971e-01 9.072611927986145020e-01 1.662261188030242920e-01 -1.463601142168045044e-01 -1.021349668502807617e+00 7.226657867431640625e-01 -6.616501212120056152e-01 7.899254560470581055e-01 1.751401424407958984e+00 -2.979913949966430664e-01 -8.585558533668518066e-01 6.640086770057678223e-01 -4.664828628301620483e-02 -3.416496813297271729e-01 5.730785727500915527e-01 -5.259696245193481445e-01 -1.032681986689567566e-01 -4.405381083488464355e-01 8.028320223093032837e-02 7.875121831893920898e-01 -5.324427485466003418e-01 7.625670433044433594e-01 -1.229157209396362305e+00 -4.267367422580718994e-01 5.998777970671653748e-02 1.360094696283340454e-01 -1.749191433191299438e-01 -3.049267232418060303e-01 -1.355407118797302246e+00 2.199963927268981934e-01 3.177563250064849854e-01 1.389909625053405762e+00 1.126940488815307617e+00 1.752405762672424316e-01 -1.493657469749450684e+00 -1.250189393758773804e-01 -9.654014706611633301e-01 -6.803032755851745605e-01 6.423674225807189941e-01 -3.769321739673614502e-01 2.873283624649047852e-01 -1.913393437862396240e-01 -5.921108722686767578e-01 3.896825611591339111e-01 -7.399646937847137451e-02 2.797065377235412598e-01 -1.997288130223751068e-02 4.060327410697937012e-01 2.049077153205871582e-01 6.478118896484375000e-01 2.876590788364410400e-01 1.051524803042411804e-01 4.933006167411804199e-01 -5.994722843170166016e-01 -2.210328727960586548e-01 4.550023376941680908e-02 -6.517331302165985107e-02 6.538609266281127930e-01 -1.298585653305053711e+00 3.303882479667663574e-01 -5.493369102478027344e-01 3.119185566902160645e-01 -3.568992912769317627e-01 -4.553445875644683838e-01 -2.882770895957946777e-01 1.743582189083099365e-01 -7.760339975357055664e-01 -4.846052229404449463e-01 -7.252466678619384766e-01 2.886929512023925781e-01 4.073373079299926758e-01
-3.187071681022644043e-01 -2.944645881652832031e-01 -9.703637915663421154e-04 -1.044574737548828125e+00 3.773828968405723572e-02 2.501600980758666992e-01 -1.649649590253829956e-01 -5.611475706100463867e-01 -5.434558391571044922e-01 -4.786427319049835205e-01 3.409807756543159485e-02 -1.003359675407409668e+00 -1.674048416316509247e-02 -6.209035515785217285e-01 2.975933253765106201e-01 -6.382843852043151855e-01 -5.021266341209411621e-01 -4.989914596080780029e-01 6.259882450103759766e-01 -7.118009775876998901e-02 6.068865954875946045e-02 1.133930921554565430e+00 2.667881846427917480e-01 -6.862562894821166992e-01 -8.717237040400505066e-03 7.869274616241455078e-01 3.151128813624382019e-02 3.713311553001403809e-01 -4.252188280224800110e-02 8.830541372299194336e-02 6.165583133697509766e-01 -5.344552397727966309e-01 -8.258097767829895020e-01 -3.581630587577819824e-01 5.686085224151611328e-01 1.671869903802871704e-01 -1.151903942227363586e-01 -2.907140254974365234e-01 4.280369579792022705e-01 -3.027531504631042480e-01 -1.255720704793930054e-01 -1.935910731554031372e-01 -4.632129371166229248e-01 -7.502471208572387695e-01 -3.045824766159057617e-01 -3.035378754138946533e-01 1.783944666385650635e-01 -4.352483451366424561e-01 1.923868656158447266e+00 1.067220885306596756e-02 1.245527938008308411e-01 6.171234846115112305e-01 1.781732290983200073e-01 3.951303362846374512e-01 7.204492390155792236e-02 8.897491097450256348e-01 -4.516867399215698242e-01 4.751758277416229248e-01 1.233765721321105957e+00 -1.946697384119033813e-01 -6.513415575027465820e-01 -9.797992110252380371e-01 3.700498044490814209e-01 1.072110891342163086e+00 6.955301165580749512e-01 6.533828377723693848e-01 -5.890542268753051758e-01 -5.050218896940350533e-04 3.085249066352844238e-01 6.602692008018493652e-01 -4.996452629566192627e-01 3.309577405452728271e-01 6.334602236747741699e-01 3.752144277095794678e-01 -8.440617322921752930e-01 -3.060880899429321289e-01 -7.308176755905151367e-01 3.815748393535614014e-01 -1.359526276588439941e+00 1.237353205680847168e+00 -1.866883486509323120e-01 5.795485377311706543e-01 2.864282019436359406e-02 3.703078627586364746e-01 1.449381113052368164e+00 -2.544663473963737488e-02 1.347736567258834839e-01 -3.066590130329132080e-01 -1.370191335678100586e+00 -1.539861708879470825e-01 2.139281928539276123e-01 1.548663973808288574e+00 -7.343089580535888672e-02 4.581654965877532959e-01 -1.894458174705505371e+00 -7.422771453857421875e-01 -4.409779310226440430e-01 2.288436591625213623e-01 7.822476029396057129e-01 8.231688141822814941e-01 -6.232624650001525879e-01 1.698195636272430420e-01 -2.176619768142700195e-01 4.243553578853607178e-01 -2.998642623424530029e-01 -2.142569571733474731e-01 -2.629157006740570068e-01 -1.856635063886642456e-01 -3.278466314077377319e-02 -2.408046647906303406e-02 2.146500349044799805e-02 -7.207883596420288086e-01 -7.538703083992004395e-01 -4.224465489387512207e-01 -1.092167571187019348e-01 2.037544965744018555e+00 -2.607419788837432861e-01 6.594962477684020996e-01 -4.507678095251321793e-03 -5.142217874526977539e-01 3.714058101177215576e-01 -1.950099617242813110e-01 -5.016374960541725159e-02 2.664184272289276123e-01 4.042963385581970215e-01 -4.249778985977172852e-01 -2.446305751800537109e-01 -6.900067329406738281e-01
-2.037558704614639282e-01 8.658834546804428101e-02 3.269857168197631836e-01 6.325094029307365417e-03 1.016253232955932617e-02 7.346817851066589355e-02 3.135384321212768555e-01 4.749379158020019531e-01 4.556212127208709717e-01 2.238719463348388672e-01 2.469229102134704590e-01 -5.990514159202575684e-01 -7.705918699502944946e-02 8.873176574707031250e-02 2.030089795589447021e-01 4.114162921905517578e-01 5.108318477869033813e-02 3.105618357658386230e-01 -1.045355945825576782e-01 3.473719358444213867e-01 3.249746859073638916e-01 8.309350907802581787e-02 6.819360703229904175e-02 1.954895257949829102e-01 -1.354877799749374390e-01 -5.499458312988281250e-02 4.400896131992340088e-01 2.002913206815719604e-01 1.815955191850662231e-01 3.148970007896423340e-01 2.470223158597946167e-01 3.632672727108001709e-01 -2.230125367641448975e-01 6.149536371231079102e-02 -1.744711279869079590e+00 4.454405903816223145e-01 -6.167069822549819946e-02 2.981593310832977295e-01 5.376144647598266602e-01 6.012759208679199219e-01 2.034844905138015747e-01 4.490988552570343018e-01 -8.560938388109207153e-02 -4.659195616841316223e-02 -3.427353128790855408e-02 4.579635560512542725e-01 2.069657295942306519e-02 3.061043024063110352e-01 2.336393296718597412e-01 -1.773464083671569824e-01 1.491517387330532074e-02 3.978922367095947266e-01 2.683476209640502930e-01 -8.750902861356735229e-02 3.804295659065246582e-01 4.363169968128204346e-01 -5.518470406532287598e-01 3.389930725097656250e-01 9.183342754840850830e-02 6.022753715515136719e-01 -5.165607109665870667e-02 4.221688807010650635e-01 -1.285472214221954346e-01 4.039022624492645264e-01 -9.609623998403549194e-02 -7.630100846290588379e-02 1.184498146176338196e-02 2.500560879707336426e-01 1.794301420450210571e-01 5.370367690920829773e-02 -2.406527549028396606e-01 1.051091775298118591e-02 4.052010178565979004e-01 4.152900874614715576e-01 -3.387158736586570740e-02 2.564417123794555664e-01 3.483806252479553223e-01 5.925662517547607422e-01 -8.482282608747482300e-02 -1.076935604214668274e-01 -8.451174199581146240e-02 2.963868379592895508e-01 4.274864792823791504e-01 -1.853444240987300873e-02 1.978894323110580444e-01 -6.804068107157945633e-03 3.158378303050994873e-01 2.793478369712829590e-01 -1.156564831733703613e+00 3.470307588577270508e-01 1.847494095563888550e-01 5.124794840812683105e-01 -1.490792036056518555e-01 -1.449852883815765381e-01 -3.014436960220336914e+00 -5.852160975337028503e-03 -8.267349563539028168e-03 -2.543738186359405518e-01 5.272571444511413574e-01 8.610336109995841980e-03 2.662593722343444824e-01 6.269384920597076416e-02 1.053799241781234741e-01 -4.462343454360961914e-02 3.595880270004272461e-01 3.193677067756652832e-01 2.370066344738006592e-01 5.066097378730773926e-01 1.648923605680465698e-01 6.180155277252197266e-01 2.898292243480682373e-01 1.784977875649929047e-02 2.184944897890090942e-01 1.858936846256256104e-01 2.808712236583232880e-02 -6.561822444200515747e-02 -3.066979348659515381e-01 3.085762560367584229e-01 1.280184984207153320e-01 1.845441162586212158e-01 -7.130950689315795898e-02 9.564352221786975861e-03 2.598329186439514160e-01 5.791990160942077637e-01 2.679932713508605957e-01 2.076431512832641602e-01 2.405520230531692505e-01 -9.957727789878845215e-01
8.238158226013183594e-01 1.527592658996582031e+00 5.883855000138282776e-02 6.484009623527526855e-01 -4.691729843616485596e-01 4.928618669509887695e-02 -8.216580748558044434e-01 -6.410604715347290039e-01 -1.654512643814086914e+00 4.282095730304718018e-01 5.129246711730957031e-01 3.639358878135681152e-01 3.773943781852722168e-01 9.750370383262634277e-01 1.336895227432250977e+00 8.552796244621276855e-01 6.297078132629394531e-01 1.039344668388366699e+00 -6.185818314552307129e-01 1.023934245109558105e+00 -1.381614059209823608e-01 9.686921238899230957e-01 -1.722752302885055542e-01 9.351692795753479004e-01 5.232867002487182617e-01 -5.025360584259033203e-01 -3.086846351623535156e+00 1.217318415641784668e+00 1.745273828506469727e+00 6.523222327232360840e-01 6.646779179573059082e-01 5.674608945846557617e-01 -1.128818020224571228e-01 7.973480820655822754e-01 -1.360621601343154907e-01 1.600928425788879395e+00 8.668062090873718262e-01 2.371145635843276978e-01 1.328399300575256348e+00 6.820262074470520020e-01 1.132643699645996094e+00 7.796542644500732422e-01 -9.617529511451721191e-01 9.112460613250732422e-01 1.313174724578857422e+00 -6.595455110073089600e-02 -9.909867644309997559e-01 9.890580177307128906e-01 2.956984043121337891e-01 5.160747766494750977e-01 5.955126285552978516e-01 -4.037415087223052979e-01 1.150992870330810547e+00 -1.042838394641876221e-01 3.872081870213150978e-03 -1.495886564254760742e+00 1.639372110366821289e-01 2.495776176452636719e+00 3.932879269123077393e-01 -5.802130103111267090e-01 1.284290194511413574e+00 6.163343787193298340e-01 -3.922682404518127441e-01 1.247108817100524902e+00 -5.197962373495101929e-02 -1.167877912521362305e-01 5.458502769470214844e-01 1.370661854743957520e+00 6.047562956809997559e-01 4.412551224231719971e-01 -4.839164018630981445e-01 1.489664316177368164e+00 2.603093385696411133e-01 1.334969878196716309e+00 2.227232232689857483e-02 2.031750202178955078e+00 1.382638096809387207e+00 1.479104280471801758e+00 -6.114404201507568359e-01 5.497284978628158569e-02 6.107561588287353516e-01 2.254271954298019409e-01 9.239956736564636230e-01 -3.953324630856513977e-02 5.408849716186523438e-01 -4.936326742172241211e-01 -6.665962934494018555e-01 1.192786931991577148e+00 -5.092766284942626953e-01 1.903551220893859863e+00 7.894817590713500977e-01 1.002627611160278320e+00 6.292523145675659180e-01 -8.853324055671691895e-01 6.576644182205200195e-01 1.986191272735595703e-01 6.682178974151611328e-01 1.702627182006835938e+00 -1.650850623846054077e-01 4.914897978305816650e-01 9.380781650543212891e-01 1.877745389938354492e+00 1.254685282707214355e+00 1.488946199417114258e+00 6.168045997619628906e-01 8.502577543258666992e-01 7.809339761734008789e-01 7.963557243347167969e-01 -3.215659856796264648e+00 2.586712539196014404e-01 2.162145614624023438e+00 7.371864914894104004e-01 -6.352804899215698242e-01 5.266976356506347656e-01 3.240707516670227051e-01 1.653394252061843872e-01 -5.960773229598999023e-01 1.475539207458496094e+00 -2.755465805530548096e-01 6.745544075965881348e-01 1.065476417541503906e+00 -1.033123254776000977e+00 -7.049149870872497559e-01 -7.870200276374816895e-02 6.603374481201171875e-01 1.004427790641784668e+00 1.412727117538452148e+00 -6.680380105972290039e-01
-1.793247759342193604e-01 7.749465703964233398e-01 9.078794121742248535e-01 -6.819912046194076538e-02 -5.503416657447814941e-01 -1.198460698127746582e+00 7.412520647048950195e-01 -1.552241146564483643e-01 7.372057437896728516e-02 -5.662415027618408203e-01 -2.078392207622528076e-01 -2.263834625482559204e-01 1.052962914109230042e-01 2.917734682559967041e-01 -1.541227102279663086e-01 -1.633383929729461670e-01 4.423753321170806885e-01 5.896946191787719727e-01 8.092311024665832520e-02 -6.965531706809997559e-01 4.688616096973419189e-01 -5.034567117691040039e-01 5.333087444305419922e-01 -6.999136209487915039e-01 2.396092265844345093e-01 1.345035433769226074e-01 2.171604931354522705e-01 -3.730585277080535889e-01 -2.127136290073394775e-01 6.082291007041931152e-01 8.673053234815597534e-02 3.605879247188568115e-01 1.800719380378723145e+00 -2.506077885627746582e-01 1.050948575139045715e-01 -2.698401212692260742e-01 2.080502808094024658e-01 -2.453190973028540611e-03 -1.286712437868118286e-01 -2.681609392166137695e-01 -3.201831281185150146e-01 -2.613517343997955322e-01 1.109637260437011719e+00 -4.947242438793182373e-01 7.007988691329956055e-01 -9.326025098562240601e-02 3.207755982875823975e-01 2.757732570171356201e-01 -3.828945010900497437e-02 1.562719941139221191e+00 1.044706702232360840e+00 -1.894133687019348145e-01 -1.142431139945983887e+00 4.703193008899688721e-01 -3.103069961071014404e-01 -6.133840084075927734e-01 -6.153989117592573166e-03 1.356107592582702637e+00 -1.098057150840759277e+00 8.065218329429626465e-01 3.757933378219604492e-01 5.904381871223449707e-01 -1.039573401212692261e-01 -5.641940236091613770e-01 -2.443497776985168457e-01 -8.610152453184127808e-02 5.120498128235340118e-03 -5.922602862119674683e-02 -1.512150019407272339e-01 -2.833008170127868652e-01 1.753729343414306641e+00 -2.225517630577087402e-01 -7.848637700080871582e-01 -5.992712378501892090e-01 5.079395771026611328e-01 1.786565780639648438e-01 -3.767004981637001038e-02 7.518623024225234985e-02 4.032661318778991699e-01 -2.457634210586547852e-01 -5.571059584617614746e-01 -3.974774479866027832e-01 -4.500216841697692871e-01 -5.361204743385314941e-01 -2.665498852729797363e-01 -9.082877635955810547e-02 -9.546760916709899902e-01 -3.337107598781585693e-01 -3.830385804176330566e-01 4.469364285469055176e-01 4.505946859717369080e-02 -5.238927602767944336e-01 2.560023963451385498e-01 1.166033387184143066e+00 -1.379649639129638672e+00 -9.288174659013748169e-02 7.340636104345321655e-02 2.229464203119277954e-01 -1.257648319005966187e-01 -6.399348378181457520e-01 -7.481282204389572144e-02 1.352660357952117920e-01 4.920544326305389404e-01 1.148238897323608398e+00 -6.517983227968215942e-02 -1.577137708663940430e-01 5.096062421798706055e-01 -4.467115402221679688e-01 2.884016633033752441e-01 -6.049361824989318848e-01 5.803496390581130981e-02 -1.857165545225143433e-01 4.711457192897796631e-01 -4.713667929172515869e-01 9.430366009473800659e-02 -1.660157144069671631e-01 -5.215409994125366211e-01 -1.228810697793960571e-01 3.784939274191856384e-02 1.247788786888122559e+00 4.178700149059295654e-01 4.981870055198669434e-01 4.201398193836212158e-01 1.520381271839141846e-01 6.061087921261787415e-02 -5.092839598655700684e-01 -7.100698351860046387e-01 3.554694056510925293e-01
-2.992410361766815186e-01 7.635593414306640625e-02 -1.412737816572189331e-01 -4.504630267620086670e-01 -4.557402133941650391e-01 -3.684153407812118530e-02 -1.112168803811073303e-01 -7.536519765853881836e-01 -2.861655354499816895e-01 -1.482066661119461060e-01 5.159995555877685547e-01 2.277540713548660278e-01 -8.143965899944305420e-02 -7.838354259729385376e-02 -3.266496658325195312e-01 -1.184497680515050888e-02 -3.041501045227050781e-01 -2.205827236175537109e-01 3.978262841701507568e-01 -3.257557749748229980e-01 -1.171142514795064926e-02 -2.351495176553726196e-01 -2.585287988185882568e-01 9.548813849687576294e-02 1.513883378356695175e-02 1.624670997262001038e-02 7.368580996990203857e-02 -8.271117508411407471e-02 -1.199334859848022461e-01 -3.308811038732528687e-02 -5.806048214435577393e-02 -5.830016732215881348e-01 -1.098028868436813354e-01 -1.251820027828216553e-01 -1.104676872491836548e-01 -2.651266567409038544e-02 6.038968265056610107e-02 -4.077380597591400146e-01 3.150760829448699951e-01 -1.930701583623886108e-01 1.006186604499816895e-01 7.428541183471679688e-01 4.592517018318176270e-01 1.948232203722000122e-01 -5.704279541969299316e-01 4.513475000858306885e-01 -1.691811904311180115e-02 2.208350151777267456e-01 -1.683773547410964966e-01 1.353379189968109131e-01 -2.026116549968719482e-01 -1.919185929000377655e-02 5.233949422836303711e-01 3.383486568927764893e-01 -4.646779000759124756e-01 2.909019291400909424e-01 -1.833391785621643066e-01 -5.817867070436477661e-02 -5.599103569984436035e-01 -1.696563124656677246e+00 7.979914546012878418e-02 -3.610327541828155518e-01 -1.090101227164268494e-01 1.035019606351852417e-01 -2.935409545898437500e-01 -1.736773401498794556e-01 5.403020977973937988e-01 8.032245635986328125e-01 4.826219379901885986e-01 -3.178041875362396240e-01 2.084842175245285034e-01 1.219917926937341690e-02 -1.687473058700561523e-01 3.767527937889099121e-01 5.011982321739196777e-01 9.388553351163864136e-02 -4.541749954223632812e-01 -1.764607876539230347e-01 1.377931088209152222e-01 2.478531897068023682e-01 5.246145129203796387e-01 -6.022726893424987793e-01 -8.124581575393676758e-01 9.487447887659072876e-02 -2.084833383560180664e-01 3.339337408542633057e-01 1.101172808557748795e-02 -2.517982125282287598e-01 -5.129107832908630371e-01 -7.749417424201965332e-01 1.874048560857772827e-01 2.721598148345947266e-01 4.306190013885498047e-01 2.367418110370635986e-01 6.994608044624328613e-02 -2.889694869518280029e-01 -4.445695877075195312e-02 1.127511039376258850e-01 -2.480986714363098145e-01 -6.595372557640075684e-01 -4.658968001604080200e-02 -1.356452554464340210e-01 6.765465736389160156e-01 -2.643355727195739746e-01 -5.046958923339843750e-01 -4.390939772129058838e-01 -1.991831511259078979e-01 2.757347822189331055e-01 -3.884961009025573730e-01 -1.547367274761199951e-01 4.444883167743682861e-01 -5.762230604887008667e-02 -5.948651209473609924e-02 4.971611201763153076e-01 3.747732341289520264e-01 -1.189612224698066711e-01 5.849838256835937500e-01 1.893313787877559662e-02 -5.253527164459228516e-01 3.329079449176788330e-01 1.500317305326461792e-01 -7.408341765403747559e-01 5.556536465883255005e-02 2.776029706001281738e-01 8.032113313674926758e-02 1.242891605943441391e-02 4.749395251274108887e-01 7.854599356651306152e-01
-1.252601742744445801e-01 -1.937099397182464600e-01 -2.316716611385345459e-01 6.067031025886535645e-01 -3.744929134845733643e-01 3.956036865711212158e-01 5.019967555999755859e-01 4.580432474613189697e-01 1.460537910461425781e-01 5.004598498344421387e-01 2.344363927841186523e-02 -2.089432775974273682e-01 -1.458906829357147217e-01 -3.918274864554405212e-02 -6.043210029602050781e-01 -2.156359888613224030e-02 -9.517884254455566406e-02 1.238346993923187256e-01 -5.178582668304443359e-01 8.326667547225952148e-01 -3.885487318038940430e-01 -2.503137886524200439e-01 -1.616197675466537476e-01 2.765197306871414185e-02 -6.929512321949005127e-02 -5.356322042644023895e-03 4.380904436111450195e-01 1.796985417604446411e-01 -3.254796564579010010e-01 5.792117677628993988e-03 -4.194695353507995605e-01 4.763013124465942383e-01 3.577955067157745361e-01 -1.049863547086715698e-01 -1.260128974914550781e+00 5.422304943203926086e-02 1.457543820142745972e-01 -1.013288870453834534e-01 -1.342824846506118774e-02 1.002018824219703674e-01 -3.158737123012542725e-01 -1.251771301031112671e-01 -7.017285227775573730e-01 -2.349975854158401489e-01 -2.673897743225097656e-01 -5.705409869551658630e-02 -1.396630555391311646e-01 -3.331055045127868652e-01 -4.785807132720947266e-01 -6.919392198324203491e-02 4.715231060981750488e-02 1.609987318515777588e-01 1.751651018857955933e-01 -5.397585630416870117e-01 -6.601359844207763672e-01 7.702114060521125793e-03 1.367998570203781128e-01 -7.085224390029907227e-01 1.136290311813354492e+00 3.099445700645446777e-01 1.600434780120849609e-01 -5.558744072914123535e-01 -3.689965605735778809e-01 -2.600100338459014893e-01 -2.045893669128417969e-01 4.675665497779846191e-01 -2.979435324668884277e-01 -3.711354434490203857e-01 -3.762365281581878662e-01 -3.352392911911010742e-01 -4.628989994525909424e-01 -1.455980092287063599e-01 -6.081691980361938477e-01 -3.249698877334594727e-01 9.854451566934585571e-02 1.191826388239860535e-01 9.032008051872253418e-02 1.656638383865356445e-01 -3.570527434349060059e-01 -8.528045415878295898e-01 -4.752666354179382324e-01 -1.319297403097152710e-01 5.776154994964599609e-01 -2.670741267502307892e-02 -5.269843935966491699e-01 1.676250249147415161e-01 -2.144096046686172485e-01 -8.052846789360046387e-01 1.088215231895446777e+00 9.097226262092590332e-01 -1.001028269529342651e-01 2.695127427577972412e-01 7.522898912429809570e-02 6.043313443660736084e-02 -1.120642185211181641e+00 5.527595430612564087e-02 6.375834345817565918e-02 -2.049402445554733276e-01 -2.063984870910644531e-01 -4.252440631389617920e-01 6.151196956634521484e-01 -2.385966852307319641e-02 -3.541201353073120117e-01 -2.502207159996032715e-01 -2.824895270168781281e-02 5.769354701042175293e-01 1.877723634243011475e-01 -7.837764918804168701e-02 -2.975556552410125732e-01 -3.686750233173370361e-01 -1.045740693807601929e-01 -2.651770710945129395e-01 3.541767895221710205e-01 -2.614535391330718994e-01 -3.919228613376617432e-01 -2.868629992008209229e-01 -8.353891372680664062e-01 -9.470042586326599121e-02 5.629674196243286133e-01 -1.231533885002136230e-01 3.907407820224761963e-02 2.672675848007202148e-01 -3.305161297321319580e-01 -3.684717416763305664e-02 5.282586812973022461e-02 1.438242346048355103e-01 6.775462627410888672e-02 -5.981010794639587402e-01
-2.317635864019393921e-01 6.174933537840843201e-02 -1.475069046020507812e+00 -5.725817680358886719e-01 7.616212964057922363e-01 2.244549095630645752e-01 2.512977086007595062e-02 -4.193456470966339111e-01 9.835182130336761475e-02 2.736467719078063965e-01 8.222376704216003418e-01 -1.865755617618560791e-01 -5.578933358192443848e-01 1.066794022917747498e-01 -7.251487374305725098e-01 1.827240586280822754e-01 2.636014521121978760e-01 1.880475431680679321e-01 1.323470026254653931e-01 -1.183868050575256348e-01 1.846416354179382324e+00 1.282559931278228760e-01 -3.462617695331573486e-01 2.759074233472347260e-02 -5.443710684776306152e-01 -1.038296937942504883e+00 -3.466878831386566162e-01 8.325908184051513672e-01 -8.154082298278808594e-01 -9.183033704757690430e-01 4.551031887531280518e-01 7.618660926818847656e-01 -5.432541966438293457e-01 4.088442325592041016e-01 4.391940683126449585e-02 2.551150918006896973e-01 -4.419740736484527588e-01 -2.234954982995986938e-01 2.548573315143585205e-01 4.098981618881225586e-01 -3.129441440105438232e-01 9.534352272748947144e-02 2.033576816320419312e-01 1.651739031076431274e-01 -4.183230400085449219e-01 -1.836199760437011719e-01 -2.732549980282783508e-02 5.426781773567199707e-01 5.349569916725158691e-01 -3.037662506103515625e-01 -4.115128517150878906e-02 -5.279098749160766602e-01 6.392550468444824219e-01 4.203256964683532715e-01 -1.870385408401489258e-01 3.930347263813018799e-01 -5.757517814636230469e-01 4.983677268028259277e-01 -4.723109602928161621e-01 5.703621357679367065e-02 -7.509866356849670410e-02 2.440852820873260498e-01 -5.345709323883056641e-01 -2.052201032638549805e-01 7.194837927818298340e-01 -7.294225692749023438e-01 -4.002215862274169922e-01 1.425240337848663330e-01 -1.580979228019714355e+00 4.812070429325103760e-01 -4.151335954666137695e-01 6.104522347450256348e-01 1.321419477462768555e+00 -7.466081529855728149e-02 -7.981182336807250977e-01 1.141848191618919373e-01 1.576454639434814453e+00 -4.805589094758033752e-02 1.575931310653686523e-01 -2.218822389841079712e-01 2.340143322944641113e-01 -9.737907052040100098e-01 -4.167777895927429199e-01 -7.775894403457641602e-01 -6.090029478073120117e-01 -1.220879673957824707e+00 6.853096485137939453e-01 -4.951717853546142578e-01 -5.533638000488281250e-01 -2.287461012601852417e-01 -6.742022633552551270e-01 5.860416293144226074e-01 -3.146676421165466309e-01 -2.529828548431396484e-01 -1.978427022695541382e-01 -5.045343637466430664e-01 -2.565926611423492432e-01 1.562747210264205933e-01 -3.281369209289550781e-01 5.885109305381774902e-01 -9.842010736465454102e-01 1.106349378824234009e-01 -6.177462935447692871e-01 4.508388340473175049e-01 -8.369620144367218018e-02 -1.575287938117980957e+00 -8.911719918251037598e-01 -1.075054854154586792e-01 6.418228745460510254e-01 -1.146765828132629395e+00 1.823560595512390137e-01 -1.642382889986038208e-01 1.015103086829185486e-01 5.988084524869918823e-02 1.889036446809768677e-01 -3.875762820243835449e-01 -5.305248498916625977e-01 6.031806394457817078e-02 -2.665171027183532715e-01 2.126179486513137817e-01 6.463543772697448730e-01 1.088368058204650879e+00 5.069637894630432129e-01 -1.143264055252075195e+00 2.537527680397033691e-01 5.136646330356597900e-02 8.098605275154113770e-01 -9.064747691154479980e-01
-3.594813346862792969e-01 -7.846221327781677246e-01 1.045434236526489258e+00 -2.349213957786560059e-01 1.982740014791488647e-01 -3.835296928882598877e-01 6.227683424949645996e-01 4.691363126039505005e-02 -1.212532967329025269e-01 -7.999973297119140625e-01 -4.294428229331970215e-01 -4.591886997222900391e-01 -5.696210265159606934e-01 -2.065297588706016541e-02 -1.418878138065338135e-01 9.179599583148956299e-02 -1.266235113143920898e-01 1.256929486989974976e-01 3.024055361747741699e-01 -5.921620726585388184e-01 -1.898405551910400391e+00 -8.390507698059082031e-01 5.029731988906860352e-01 2.787474095821380615e-01 -2.000871300697326660e-01 -2.331623882055282593e-01 -2.966836392879486084e-01 -4.335917830467224121e-01 3.656789958477020264e-01 1.439899355173110962e-01 3.823702931404113770e-01 -9.034494757652282715e-01 4.573776423931121826e-01 -6.603927612304687500e-01 3.360791830345988274e-03 -2.144679725170135498e-01 -2.109348922967910767e-01 -2.567590773105621338e-01 -4.728186503052711487e-02 -8.769361376762390137e-01 -2.776220142841339111e-01 -4.157470762729644775e-01 1.459268182516098022e-01 1.791656613349914551e-01 5.805317163467407227e-01 -4.648526012897491455e-01 5.636364221572875977e-01 2.003012746572494507e-01 -6.605777740478515625e-01 3.589002788066864014e-01 -1.352171152830123901e-01 2.484404295682907104e-01 7.530111819505691528e-02 -4.369428455829620361e-01 -2.861846983432769775e-01 -2.299354076385498047e-01 8.042220026254653931e-02 3.064477145671844482e-01 -7.594052553176879883e-01 -8.053759485483169556e-02 -2.252541631460189819e-01 -6.574232578277587891e-01 4.432000219821929932e-01 -7.365601062774658203e-01 3.539691269397735596e-01 -3.848111629486083984e-01 -1.888558119535446167e-01 1.024767607450485229e-01 -1.611636728048324585e-01 -1.516682267189025879e+00 -5.389760732650756836e-01 -4.183363914489746094e-01 -8.560995459556579590e-01 -5.267350375652313232e-02 4.943874776363372803e-01 -3.398396670818328857e-01 -1.057264804840087891e+00 -4.414398372173309326e-01 8.728304505348205566e-01 7.426617145538330078e-01 -1.769802765920758247e-03 -6.364403367042541504e-01 6.736441850662231445e-01 7.961761951446533203e-01 -4.264048337936401367e-01 -1.121391355991363525e-01 -8.423348665237426758e-01 1.845231354236602783e-01 -8.133447915315628052e-02 3.454663455486297607e-01 1.315535426139831543e+00 -3.382534980773925781e-01 -9.754624217748641968e-02 -6.058976650238037109e-01 3.068917691707611084e-01 9.291219711303710938e-02 -5.826383829116821289e-01 -1.145018935203552246e+00 -9.585908651351928711e-01 -1.741266548633575439e-01 -7.890770435333251953e-01 -1.318429857492446899e-01 -4.488744437694549561e-01 4.519825875759124756e-01 -4.003758132457733154e-01 5.634652376174926758e-01 -2.526761591434478760e-01 -3.464141190052032471e-01 4.849022924900054932e-01 -4.065320640802383423e-02 -4.339758753776550293e-01 -8.577240109443664551e-01 3.650698438286781311e-02 1.726956218481063843e-01 1.840617805719375610e-01 -8.483095765113830566e-01 -2.968383133411407471e-01 4.961811006069183350e-01 -7.315731644630432129e-01 2.308673113584518433e-01 -9.224889278411865234e-01 -2.141844272613525391e+00 -3.238928318023681641e-01 3.292201459407806396e-01 4.668659269809722900e-01 -1.613078117370605469e-01 -2.781543731689453125e-01 3.390896618366241455e-01
-2.645647525787353516e-01 -4.086973071098327637e-01 -1.851585060358047485e-01 1.572219967842102051e+00 6.234862208366394043e-01 6.011049151420593262e-01 2.553852200508117676e-01 -6.764512062072753906e-01 1.801208779215812683e-02 4.035865962505340576e-01 2.407632954418659210e-02 -5.808279514312744141e-01 -8.746445924043655396e-02 -2.385678738355636597e-01 1.060337871313095093e-01 -4.040881991386413574e-01 1.183626204729080200e-01 -2.658360004425048828e-01 7.683594822883605957e-01 -2.608102560043334961e-01 -1.964772462844848633e+00 -9.791255593299865723e-01 -9.675092101097106934e-01 2.290790155529975891e-02 4.615665078163146973e-01 -3.238700330257415771e-01 -1.659495234489440918e+00 -1.172962486743927002e-01 3.542748689651489258e-01 -9.512351751327514648e-01 -7.004356980323791504e-01 -9.798716902732849121e-01 -6.611304879188537598e-01 -3.168828189373016357e-01 4.484750330448150635e-01 -1.896912753582000732e-01 -3.598052309826016426e-03 2.580014467239379883e-01 5.274771898984909058e-02 -5.683116912841796875e-01 8.656400442123413086e-01 -6.168042421340942383e-01 7.168216705322265625e-01 -5.869734287261962891e-01 1.603260517120361328e+00 2.034891247749328613e-01 5.710520744323730469e-01 5.278353691101074219e-01 -7.321464270353317261e-02 4.352207779884338379e-01 3.056865930557250977e-02 -1.401280313730239868e-01 1.696875244379043579e-01 -8.752975463867187500e-01 -9.453704953193664551e-01 2.074068784713745117e-01 -5.584290623664855957e-01 6.063522100448608398e-01 -8.594594597816467285e-01 -1.445107720792293549e-02 -3.233191072940826416e-01 -2.935222387313842773e-01 5.999074578285217285e-01 -2.417713999748229980e-01 1.372680664062500000e+00 -9.603124260902404785e-01 -4.084575474262237549e-01 -3.480702936649322510e-01 -7.322811484336853027e-01 -1.930784702301025391e+00 1.043551489710807800e-01 6.921966075897216797e-01 -1.325732097029685974e-02 -5.412355661392211914e-01 4.923803806304931641e-01 1.565560847520828247e-01 -1.283030033111572266e+00 5.957840681076049805e-01 2.573032081127166748e-01 7.845566868782043457e-01 5.446223914623260498e-02 -7.697027325630187988e-01 4.029991030693054199e-01 2.051250934600830078e+00 -4.121893346309661865e-01 -7.361221909523010254e-01 -1.541713356971740723e+00 -5.165809392929077148e-01 -9.520706534385681152e-01 -3.109053969383239746e-01 -6.847454905509948730e-01 -7.006045579910278320e-01 -1.365437060594558716e-01 -1.091876506805419922e+00 -1.222002580761909485e-01 -2.748423814773559570e-01 -4.488640427589416504e-01 -8.345698118209838867e-01 -3.813022673130035400e-01 7.521866559982299805e-01 -1.196050763130187988e+00 1.199077144265174866e-01 -1.061758920550346375e-01 5.148304700851440430e-01 -4.476398825645446777e-01 -7.564327120780944824e-01 -1.160757899284362793e+00 -1.575701951980590820e+00 1.441350102424621582e+00 -4.802525639533996582e-01 -4.806435108184814453e-02 3.842819035053253174e-01 -4.045076668262481689e-01 -1.085102677345275879e+00 3.315343260765075684e-01 -1.930904835462570190e-01 4.803756475448608398e-01 3.699009120464324951e-02 -1.643954157829284668e+00 -8.304032683372497559e-02 -4.103782400488853455e-02 -7.298387885093688965e-01 9.328108280897140503e-02 3.607306778430938721e-01 6.214546561241149902e-01 2.000072747468948364e-01 -1.946838200092315674e-01 -6.390044093132019043e-01
6.184449791908264160e-01 1.323330402374267578e-01 -2.766563594341278076e-01 1.942067742347717285e-01 1.029115915298461914e+00 -9.767885506153106689e-02 3.627717196941375732e-01 -3.221069872379302979e-01 2.440615743398666382e-01 5.380629897117614746e-01 8.186452984809875488e-01 -9.657149910926818848e-01 1.407486498355865479e-01 8.114324808120727539e-01 -9.170781373977661133e-01 -3.676855266094207764e-01 1.026190593838691711e-01 3.813667595386505127e-02 5.023170113563537598e-01 -6.918781399726867676e-01 -1.054319143295288086e+00 -5.114030838012695312e-01 -2.283196896314620972e-01 3.715708255767822266e-01 -7.427423596382141113e-01 -5.834887027740478516e-01 -5.503743290901184082e-01 7.082977294921875000e-01 1.576887369155883789e-01 -9.065474867820739746e-01 -1.061491221189498901e-01 -7.975059151649475098e-01 -3.822715580463409424e-01 2.749109566211700439e-01 2.135155349969863892e-02 2.106874138116836548e-01 -5.791512727737426758e-01 -8.504795283079147339e-02 4.178492352366447449e-02 -5.134175419807434082e-01 1.217705458402633667e-01 2.102982439100742340e-02 1.945375204086303711e-01 -7.740980386734008789e-01 4.532884657382965088e-01 -1.812064200639724731e-01 5.802516341209411621e-01 1.056560158729553223e+00 7.952737808227539062e-02 2.485069446265697479e-02 8.444718271493911743e-02 -7.924075722694396973e-01 7.788652181625366211e-01 9.334146380424499512e-01 -1.433837532997131348e+00 -1.488694548606872559e-01 4.834600090980529785e-01 4.645383059978485107e-01 -4.226999580860137939e-01 -3.670389652252197266e-01 2.650640904903411865e-01 -2.254203706979751587e-01 8.281428813934326172e-01 -1.101386785507202148e+00 1.161280155181884766e+00 -3.043303787708282471e-01 -7.369627356529235840e-01 -2.229788601398468018e-01 -6.496267914772033691e-01 -1.121458709239959717e-01 -3.588896989822387695e-01 6.047343611717224121e-01 1.137326717376708984e+00 -2.078580111265182495e-01 -1.313936948776245117e+00 4.055761694908142090e-01 2.520328462123870850e-01 -4.176917672157287598e-01 9.065876007080078125e-01 4.448024332523345947e-01 -4.624101892113685608e-02 -2.261365205049514771e-01 4.482994973659515381e-01 9.885089099407196045e-02 -9.069814682006835938e-01 -9.406705945730209351e-02 2.402110546827316284e-01 -5.701594352722167969e-01 -3.929367065429687500e-01 -2.182110399007797241e-01 -9.724364876747131348e-01 -1.811873912811279297e-01 -2.430645227432250977e-01 3.049330115318298340e-01 -3.933784067630767822e-01 1.733867228031158447e-01 3.350362777709960938e-01 -2.554277516901493073e-02 -2.142553478479385376e-01 3.213267624378204346e-01 -3.895302414894104004e-01 3.740487396717071533e-01 -3.860001862049102783e-01 3.196710050106048584e-01 1.913079023361206055e-01 2.841495871543884277e-01 -4.938475191593170166e-01 -6.782732009887695312e-01 9.284694790840148926e-01 6.737408638000488281e-01 -1.661688238382339478e-01 -4.987306594848632812e-01 1.394065171480178833e-01 -1.511482000350952148e-01 5.458536744117736816e-01 -6.355527043342590332e-01 9.381530880928039551e-01 -1.688113668933510780e-03 -7.622512578964233398e-01 -3.459637463092803955e-01 -3.152746260166168213e-01 2.108772397041320801e-01 7.786803841590881348e-01 -4.664259403944015503e-02 1.028625294566154480e-01 4.208049476146697998e-01 1.542808115482330322e-01 -7.229456901550292969e-01
4.903513491153717041e-01 -3.836140334606170654e-01 -6.876870393753051758e-01 -1.272327423095703125e+00 -5.235455036163330078e-01 -4.160891473293304443e-01 1.230941563844680786e-01 4.505639970302581787e-01 -8.771989345550537109e-01 -2.659904956817626953e-01 -1.160406917333602905e-01 7.557706832885742188e-01 -1.595377624034881592e-01 -6.181550025939941406e-01 -1.085876254364848137e-03 5.404579639434814453e-01 -1.756538748741149902e-01 1.551129519939422607e-01 -2.229687944054603577e-02 -1.046101450920104980e-01 1.254121303558349609e+00 4.481929838657379150e-01 1.791560888290405273e+00 -6.181702762842178345e-02 1.620154231786727905e-01 -7.866950035095214844e-01 5.145750641822814941e-01 4.308262169361114502e-01 2.236486822366714478e-01 4.437569081783294678e-01 4.581852853298187256e-01 -5.815157890319824219e-01 8.702078461647033691e-01 -2.422243803739547729e-01 -6.240090727806091309e-01 6.376062035560607910e-01 -3.547618091106414795e-01 -5.151348561048507690e-02 3.537559807300567627e-01 1.055086031556129456e-02 -6.027565598487854004e-01 9.954886436462402344e-01 -3.211955726146697998e-01 1.146006941795349121e+00 -9.668935537338256836e-01 -1.490825712680816650e-01 -2.158063836395740509e-02 8.853243291378021240e-02 -2.033350914716720581e-01 1.011321470141410828e-01 5.855097174644470215e-01 -7.810700684785842896e-02 3.886639475822448730e-01 3.213109970092773438e-01 1.697366118431091309e+00 -6.147190183401107788e-02 9.369210898876190186e-02 2.208326756954193115e-02 -2.094347774982452393e-01 1.710905730724334717e-01 -2.173793166875839233e-01 1.582721024751663208e-01 -4.548910260200500488e-01 -4.970352649688720703e-01 -5.835700035095214844e-01 -6.689776480197906494e-02 4.324965178966522217e-02 4.528090357780456543e-01 -3.394509553909301758e-01 8.045980334281921387e-01 -9.917096495628356934e-01 1.009505838155746460e-01 -1.684204041957855225e-01 -5.240507125854492188e-01 -1.212554052472114563e-01 2.508459985256195068e-01 9.050536155700683594e-01 -9.570637941360473633e-01 7.559028863906860352e-01 -2.537588477134704590e-01 -1.075592413544654846e-01 -4.544991254806518555e-02 -1.980174779891967773e-01 -1.399613022804260254e+00 -2.872913479804992676e-01 -5.702843070030212402e-01 1.914999246597290039e+00 3.190279006958007812e-01 7.556143403053283691e-01 -2.524047717452049255e-02 5.174756646156311035e-01 1.063643693923950195e+00 7.647351622581481934e-01 -4.679758250713348389e-01 1.131265982985496521e-02 2.885173261165618896e-01 -2.616519033908843994e-01 -7.113252282142639160e-01 -3.011242747306823730e-01 -5.363754630088806152e-01 2.806339859962463379e-01 3.903646767139434814e-01 -1.228553503751754761e-01 -2.376470267772674561e-01 -2.524949312210083008e-01 2.584144175052642822e-01 7.614866495132446289e-01 2.203888744115829468e-01 -5.085972547531127930e-01 2.920645773410797119e-01 5.726448893547058105e-01 -1.400876283645629883e+00 -3.796572089195251465e-01 1.759914755821228027e+00 -2.564581669867038727e-02 -5.346823334693908691e-01 -3.523319661617279053e-01 1.564227491617202759e-01 8.267939686775207520e-01 1.997336894273757935e-01 1.514260917901992798e-01 -6.887757778167724609e-01 -2.227297127246856689e-01 -1.285270214080810547e+00 -2.426010183990001678e-02 -7.240000367164611816e-02 1.271006107330322266e+00 8.817729353904724121e-02
-2.503746747970581055e-01 -3.812452852725982666e-01 -3.068650066852569580e-01 -4.126618206501007080e-01 -3.839721977710723877e-01 3.258492425084114075e-02 1.079887077212333679e-01 -4.934992268681526184e-02 -3.070348799228668213e-01 7.027259469032287598e-02 -4.204071760177612305e-01 7.077228426933288574e-01 1.706036329269409180e-01 7.091029733419418335e-02 -5.440557003021240234e-01 2.810493707656860352e-01 -4.683466255664825439e-01 3.415337800979614258e-01 3.932757079601287842e-01 9.332119673490524292e-02 -1.033938050270080566e+00 -5.142485499382019043e-01 9.307304620742797852e-01 -5.509549379348754883e-01 1.194467544555664062e+00 -6.830641031265258789e-01 -8.270892500877380371e-01 3.275989890098571777e-01 -3.755770921707153320e-01 -1.508423686027526855e-01 2.065131068229675293e-01 -1.049854159355163574e+00 -5.173876136541366577e-02 -4.562250971794128418e-01 -1.335680484771728516e-01 6.037050485610961914e-01 -3.415032327175140381e-01 -6.654184311628341675e-02 4.476237595081329346e-01 -5.230782032012939453e-01 1.630828366614878178e-03 7.653115987777709961e-01 2.859821319580078125e-01 3.990273475646972656e-01 4.657699167728424072e-01 -3.221674263477325439e-01 1.708448827266693115e-01 -1.703896820545196533e-01 -6.434750556945800781e-01 4.175032302737236023e-02 -2.530678212642669678e-01 1.566590964794158936e-01 -8.851123601198196411e-02 3.350130096077919006e-02 1.200311422348022461e+00 6.307113766670227051e-01 1.985313594341278076e-01 -1.292561087757349014e-02 -8.236427307128906250e-01 3.142259120941162109e-01 -2.632256150245666504e-01 -8.868634700775146484e-02 -1.414254773408174515e-02 -7.058104276657104492e-01 2.480301111936569214e-01 -1.119952425360679626e-01 5.257920026779174805e-01 -1.292487680912017822e-01 -3.171875774860382080e-01 -4.056060612201690674e-01 -1.274228692054748535e+00 4.601619541645050049e-01 -6.602573394775390625e-01 -3.004325926303863525e-01 1.932842731475830078e-01 3.816450834274291992e-01 -1.390824466943740845e-01 -1.253217309713363647e-01 6.921369433403015137e-01 -1.989123821258544922e-01 -1.155086383223533630e-01 -5.182288885116577148e-01 -2.738323509693145752e-01 3.870567083358764648e-01 -4.738027155399322510e-01 -5.363737940788269043e-01 4.574589431285858154e-02 -8.046048879623413086e-02 1.230899989604949951e-01 1.466088443994522095e-01 -1.705075502395629883e-01 2.447289228439331055e-01 7.769414186477661133e-01 -3.940782248973846436e-01 1.499423980712890625e-01 1.978539973497390747e-01 -6.762377619743347168e-01 -1.529986500740051270e+00 -5.979711413383483887e-01 -7.395583987236022949e-01 -6.148008108139038086e-01 2.947597205638885498e-01 -1.440314352512359619e-01 -2.693774700164794922e-01 2.525644302368164062e-01 1.960120648145675659e-01 -1.488994061946868896e-01 -1.175832748413085938e+00 8.041822910308837891e-01 -5.985742807388305664e-01 1.895128786563873291e-01 -2.911626100540161133e-01 -9.861773848533630371e-01 3.888869881629943848e-01 1.718915551900863647e-01 -9.478728175163269043e-01 -8.177311718463897705e-02 2.139218747615814209e-01 -4.938217103481292725e-01 8.205262422561645508e-01 -2.387726753950119019e-01 -1.490510106086730957e+00 -7.439272999763488770e-01 -1.731857657432556152e-01 4.185398221015930176e-01 -4.616904258728027344e-01 1.016752362251281738e+00 4.088337123394012451e-01
