4.250555336475372314e-01 2.977381944656372070e-01 2.227974086999893188e-01 3.394053578376770020e-01 5.975645184516906738e-01 2.822756767272949219e-01 6.197020411491394043e-01 8.614269644021987915e-02 1.966080814599990845e-01 -3.337813913822174072e-01 -1.382374763488769531e-01 5.286933388561010361e-03 4.759520292282104492e-02 -3.302466273307800293e-01 2.799446880817413330e-01 -3.328097760677337646e-01 2.760246396064758301e-01 4.449410736560821533e-01 5.194104313850402832e-01 3.839555084705352783e-01 -8.152467608451843262e-01 -5.024877842515707016e-03 6.082235574722290039e-01 -2.072236128151416779e-02 -2.163383960723876953e-01 3.090993762016296387e-01 1.078915074467658997e-01 7.629972100257873535e-01 3.490422964096069336e-01 2.315148264169692993e-01 -1.534752082079648972e-02 1.434086356312036514e-02 1.820142567157745361e-01 3.215215504169464111e-01 5.423094630241394043e-01 -7.848473638296127319e-02 -5.931906402111053467e-02 -9.078485369682312012e-01 9.174149036407470703e-01 5.594975352287292480e-01 1.864191740751266479e-01 2.198272794485092163e-01 -5.851905941963195801e-01 1.382192224264144897e-01 -3.398860991001129150e-01 4.510566890239715576e-01 -1.111173868179321289e+00 5.977180004119873047e-01 2.369205504655838013e-01 3.710264861583709717e-01 3.590041995048522949e-01 4.199856221675872803e-01 2.122941613197326660e-01 9.195050001144409180e-01 -1.745204329490661621e-01 2.964407801628112793e-01 9.556708931922912598e-01 -7.781705260276794434e-02 3.256410360336303711e-01 9.964400529861450195e-01 2.231516987085342407e-01 4.179279878735542297e-02 -2.421806007623672485e-01 2.553449571132659912e-01 -6.592125296592712402e-01 1.053291112184524536e-01 1.292908042669296265e-01 -2.357733547687530518e-01 -1.297322660684585571e-01 2.467442899942398071e-01 2.338386029005050659e-01 -9.670844674110412598e-01 -2.437216937541961670e-01 4.269644245505332947e-02 1.233902797102928162e-01 4.404939115047454834e-01 -5.270230397582054138e-02 1.296817958354949951e-01 1.604039967060089111e-01 -1.762869358062744141e-01 -1.599855571985244751e-01 1.964746788144111633e-02 1.837504357099533081e-01 -3.384466515854001045e-03 -1.634393483400344849e-01 -1.286219060420989990e-01 -1.805274747312068939e-02 -6.437327265739440918e-01 2.919242978096008301e-01 2.080803960561752319e-01 3.450791537761688232e-01 1.664466261863708496e-01 2.425067424774169922e-01 1.193907186388969421e-01 4.863096177577972412e-01 2.367255836725234985e-01 4.575238227844238281e-01 1.824776679277420044e-01 3.051525354385375977e-01 -4.542275667190551758e-01 2.173645645380020142e-01 -2.476017773151397705e-01 3.962409198284149170e-01 5.222755670547485352e-01 1.150747895240783691e+00 3.552369773387908936e-01 -2.071271687746047974e-01 7.412606477737426758e-02 1.440993100404739380e-01 1.057242322713136673e-02 1.254009902477264404e-01 6.495594382286071777e-01 7.592213153839111328e-01 -3.278261050581932068e-02 2.062588036060333252e-01 -1.977843493223190308e-01 4.577195346355438232e-01 3.326866924762725830e-01 -1.242565438151359558e-01 2.463677823543548584e-01 -2.998272776603698730e-01 3.594865202903747559e-01 5.451685786247253418e-01 1.475448012351989746e-01 -1.932114064693450928e-01 5.510629620403051376e-03 -4.827146604657173157e-02 2.285833209753036499e-01
-5.774421989917755127e-02 6.528126448392868042e-02 1.554292738437652588e-01 -1.581399440765380859e-01 9.806291013956069946e-02 6.530606746673583984e-02 -3.030002489686012268e-02 1.619799435138702393e-01 1.638015359640121460e-01 -8.721795678138732910e-01 -1.947201043367385864e-02 -2.651993036270141602e-01 1.749868392944335938e-01 1.592567376792430878e-02 -2.383799254894256592e-01 1.825784593820571899e-01 -2.018840909004211426e-01 2.309400141239166260e-01 2.540001273155212402e-01 1.343536823987960815e-01 -7.187047600746154785e-02 -2.344575896859169006e-02 6.127042323350906372e-02 1.487247198820114136e-01 -3.576581180095672607e-01 -1.627267748117446899e-01 -1.647499054670333862e-01 1.382198482751846313e-01 -3.421458899974822998e-01 9.957715868949890137e-01 -4.079494476318359375e-01 -2.261260896921157837e-01 -2.598827481269836426e-01 6.008782610297203064e-02 -3.075079619884490967e-01 6.993125379085540771e-02 -5.306167006492614746e-01 -7.475036978721618652e-01 8.538542985916137695e-01 1.882471591234207153e-01 -7.347903400659561157e-02 2.439561486244201660e-02 4.336570203304290771e-01 -1.192365959286689758e-02 -1.166106015443801880e-01 -5.997230485081672668e-02 2.879963517189025879e-01 2.146982997655868530e-01 -8.337507396936416626e-02 4.308483004570007324e-01 -1.718024611473083496e-01 -3.299734592437744141e-01 1.754488050937652588e-01 1.659249812364578247e-01 -3.051050603389739990e-01 -1.854882687330245972e-01 2.488725781440734863e-01 1.183283329010009766e-01 4.592707455158233643e-01 -7.177064567804336548e-02 -7.517550885677337646e-02 -3.172258138656616211e-01 2.542246282100677490e-01 -3.582188189029693604e-01 -3.622383475303649902e-01 3.601590916514396667e-02 -1.707532703876495361e-01 -2.620423138141632080e-01 -1.585893332958221436e-01 -3.473199903964996338e-01 5.915582776069641113e-01 -7.451156973838806152e-01 1.800581812858581543e-01 5.074568390846252441e-01 8.706595003604888916e-02 4.442590177059173584e-01 5.139093101024627686e-02 5.572168827056884766e-01 1.694595962762832642e-01 2.005045861005783081e-01 -1.541812866926193237e-01 -1.744951009750366211e-01 3.934976756572723389e-01 5.690838694572448730e-01 -1.658523641526699066e-02 -1.990021951496601105e-02 3.125504553318023682e-01 -3.326301574707031250e-01 1.006459832191467285e+00 5.837367475032806396e-02 -1.619411073625087738e-02 -2.136963158845901489e-01 1.228872314095497131e-01 -4.691041409969329834e-01 -8.071769773960113525e-02 3.532836735248565674e-01 7.453129440546035767e-02 2.097434699535369873e-01 -3.509526699781417847e-02 -1.328034549951553345e-01 -8.998332172632217407e-02 -5.717348456382751465e-01 1.744166761636734009e-01 3.155342936515808105e-01 4.986038208007812500e-01 4.288883805274963379e-01 1.928849369287490845e-01 2.108345925807952881e-01 4.068839177489280701e-02 2.525180764496326447e-02 -3.003178834915161133e-01 -6.891883164644241333e-02 -3.253996670246124268e-01 -2.002143561840057373e-01 -1.970791965723037720e-01 2.064639180898666382e-01 1.602505892515182495e-01 -5.617084447294473648e-03 1.546615213155746460e-01 -7.057930529117584229e-02 -1.535378098487854004e-01 -1.085676848888397217e-01 2.078804075717926025e-01 1.007494777441024780e-01 -6.600573658943176270e-02 -1.425113528966903687e-01 5.531179532408714294e-02 4.970030114054679871e-02
2.753532826900482178e-01 2.578368876129388809e-04 2.408340722322463989e-01 -1.075280643999576569e-02 9.527059644460678101e-02 4.704253673553466797e-01 7.006815075874328613e-02 5.241920426487922668e-02 1.087696179747581482e-01 -6.163983345031738281e-01 -2.054324187338352203e-02 -5.998417735099792480e-01 1.417532563209533691e-01 4.353154003620147705e-01 1.644669622182846069e-01 -1.450847648084163666e-02 3.638581335544586182e-01 1.731553971767425537e-01 3.908958658576011658e-02 9.877537935972213745e-02 -3.744817972183227539e-01 -1.898055225610733032e-01 2.618958055973052979e-01 4.243327677249908447e-01 -2.330841869115829468e-01 3.118021190166473389e-01 -5.777513235807418823e-02 1.180168390274047852e-01 3.909988701343536377e-01 -5.397803187370300293e-01 2.671607434749603271e-01 -2.202571481466293335e-01 1.436602324247360229e-01 1.909784525632858276e-01 7.879093289375305176e-01 -3.244543671607971191e-01 8.126486092805862427e-02 2.093745768070220947e-01 1.083409070968627930e+00 2.898007929325103760e-01 1.306781411170959473e+00 6.667035073041915894e-02 1.406408995389938354e-01 -2.133482880890369415e-02 -2.683754861354827881e-01 2.607300281524658203e-01 6.459931284189224243e-02 -1.024948582053184509e-01 5.637694150209426880e-02 2.651098966598510742e-01 9.200667589902877808e-02 5.801872909069061279e-02 7.426040172576904297e-01 -7.193288207054138184e-02 4.667967259883880615e-01 3.031854927539825439e-01 4.176795482635498047e-01 3.096860349178314209e-01 3.016915917396545410e-01 -4.857152700424194336e-01 1.504820287227630615e-01 -1.895352602005004883e-01 -5.410760641098022461e-02 3.808013200759887695e-01 3.010479509830474854e-01 -2.784358859062194824e-01 9.410145878791809082e-02 1.960365325212478638e-01 -2.107820212841033936e-01 -4.341709613800048828e-02 3.980093598365783691e-01 4.526688456535339355e-01 1.104192901402711868e-02 1.662874221801757812e-01 -3.003431111574172974e-02 -4.594074189662933350e-02 -1.963670700788497925e-01 -4.851122498512268066e-01 1.045054867863655090e-01 1.314544081687927246e-01 3.749506771564483643e-01 4.340243935585021973e-01 2.118486762046813965e-01 5.247353110462427139e-03 4.806920886039733887e-02 3.462597131729125977e-01 -7.811213843524456024e-03 8.946086280047893524e-03 5.208073258399963379e-01 -2.790346182882785797e-02 4.680826663970947266e-01 8.027679473161697388e-02 3.425441682338714600e-02 3.491415679454803467e-01 3.628990426659584045e-02 -6.947076320648193359e-02 3.584924936294555664e-01 -6.054121628403663635e-02 -1.037916317582130432e-01 -1.619250476360321045e-01 -1.555881947278976440e-01 6.554349064826965332e-01 -8.590810745954513550e-02 -1.976013183593750000e-01 -1.196397423744201660e+00 -6.917256861925125122e-03 -5.527358055114746094e-01 3.645896017551422119e-01 1.000146269798278809e-01 3.156499862670898438e-01 -7.928261160850524902e-02 9.993071854114532471e-02 -1.550095062702894211e-02 2.252963185310363770e-01 2.894031405448913574e-01 -7.927455902099609375e-01 2.832644581794738770e-01 -5.213280022144317627e-02 -1.324067562818527222e-01 -1.752347052097320557e-01 3.433085381984710693e-01 1.952680498361587524e-01 2.471620142459869385e-01 2.775364816188812256e-01 -4.496455937623977661e-02 9.524106234312057495e-02 -1.200306192040443420e-01 2.508544325828552246e-01
4.003203660249710083e-02 1.076453551650047302e-01 1.982465088367462158e-01 -2.924287319183349609e-01 -3.638374507427215576e-01 -3.476818501949310303e-01 -2.756712734699249268e-01 -3.378098607063293457e-01 -4.372175782918930054e-02 -2.358819991350173950e-01 -1.059528663754463196e-01 -7.133182138204574585e-02 -8.238815665245056152e-01 -1.263023018836975098e-01 -8.648396730422973633e-01 -2.126556485891342163e-01 6.036397442221641541e-02 -4.353996515274047852e-01 -3.270132467150688171e-02 3.015339672565460205e-01 -7.706016898155212402e-01 8.812733739614486694e-02 2.677500247955322266e-01 8.527687937021255493e-02 1.064328998327255249e-01 1.064937189221382141e-01 -1.526136100292205811e-01 -4.988757371902465820e-01 -4.276410117745399475e-02 1.308111567050218582e-02 -2.772485315799713135e-01 -1.937803328037261963e-01 -1.138560399413108826e-01 1.260177940130233765e-01 1.702303998172283173e-02 -1.867813020944595337e-01 -3.364105820655822754e-01 -2.194395810365676880e-01 -2.493543922901153564e-01 -1.164594665169715881e-01 1.002164483070373535e-01 -7.988834381103515625e-02 -1.983280777931213379e-01 -2.151340544223785400e-01 -2.646061182022094727e-01 -1.408409178256988525e-01 -7.247824221849441528e-02 -8.859026432037353516e-02 4.032553732395172119e-02 3.869773745536804199e-01 -6.710636615753173828e-01 -1.785097271203994751e-01 2.552315890789031982e-01 -1.815272271633148193e-01 -3.368682563304901123e-01 -1.211934462189674377e-01 -1.382281482219696045e-01 -2.072611898183822632e-01 -1.531986743211746216e-01 -4.297650754451751709e-01 -2.343282699584960938e-01 -3.301004171371459961e-01 3.169854637235403061e-03 1.231269389390945435e-01 1.607018709182739258e-02 8.813451230525970459e-02 -5.731403231620788574e-01 -3.747692108154296875e-01 1.203126013278961182e-01 5.873938649892807007e-02 4.924285411834716797e-02 -6.936779618263244629e-01 3.241787254810333252e-01 -2.580267786979675293e-01 -6.274106353521347046e-02 -1.714457124471664429e-01 -6.443827878683805466e-03 -2.732070349156856537e-02 -5.718183889985084534e-02 3.932423591613769531e-01 -3.077169358730316162e-01 1.042570471763610840e-01 -1.918190903961658478e-02 -2.406642436981201172e-01 -6.506737470626831055e-01 -1.444273144006729126e-01 -6.132466197013854980e-01 -5.102409049868583679e-02 5.352768301963806152e-01 -5.413739085197448730e-01 -4.462424516677856445e-01 -1.251738667488098145e-01 -1.065080836415290833e-01 -2.158219665288925171e-01 3.678281605243682861e-01 -1.900289440527558327e-03 -1.034484282135963440e-01 -3.216064870357513428e-01 -3.643091917037963867e-01 1.526204198598861694e-01 -6.031337380409240723e-01 1.481829732656478882e-01 -4.775579273700714111e-01 -7.427372932434082031e-01 -1.306181102991104126e-01 -1.407835446298122406e-02 -1.192645058035850525e-01 1.137294694781303406e-01 3.960469365119934082e-01 9.752257913351058960e-02 -3.445129990577697754e-01 -3.138398826122283936e-01 7.078055143356323242e-01 -4.401514232158660889e-01 5.583047866821289062e-02 -9.125357866287231445e-02 -3.716313838958740234e-02 -3.302548527717590332e-01 -2.510032355785369873e-01 -1.918610371649265289e-02 -9.452226758003234863e-01 -2.455387264490127563e-01 -2.879754872992634773e-03 -2.751093916594982147e-02 -1.217947527766227722e-01 -4.276783764362335205e-01 -3.257910609245300293e-01 -2.320879846811294556e-01
1.123567693866789341e-03 2.543361485004425049e-01 -1.201032400131225586e-01 -7.881781458854675293e-01 -3.874899586662650108e-03 -2.957842350006103516e-01 -9.659699350595474243e-02 -1.931402087211608887e-02 1.332863122224807739e-01 8.289212584495544434e-01 -2.585878074169158936e-01 3.269223868846893311e-01 -1.084142625331878662e-01 -2.898959219455718994e-01 2.640739381313323975e-01 -8.580730110406875610e-02 -3.359560668468475342e-01 -7.725973725318908691e-01 -2.007568031549453735e-01 -6.584525853395462036e-02 -1.063090749084949493e-02 6.433762907981872559e-01 1.751008778810501099e-01 -8.882103860378265381e-02 2.264108210802078247e-01 -2.164649963378906250e-01 -5.959659814834594727e-02 -6.021511554718017578e-01 -9.094190597534179688e-02 1.295813024044036865e-01 5.895832926034927368e-02 1.441921666264533997e-02 -2.284239232540130615e-01 -1.251932382583618164e-01 -6.877255439758300781e-02 -3.041662573814392090e-01 5.282172560691833496e-01 -3.825317919254302979e-01 4.097397923469543457e-01 -1.624159812927246094e-01 -4.785885214805603027e-01 -2.211544066667556763e-01 -3.214126452803611755e-02 -1.209439188241958618e-01 6.701781600713729858e-02 -1.302825957536697388e-01 -9.640179276466369629e-01 -3.257810771465301514e-01 -2.926075458526611328e-01 -3.210976123809814453e-01 7.839428633451461792e-02 1.532741487026214600e-01 -1.426057964563369751e-01 -6.795357465744018555e-01 -1.595936119556427002e-01 -1.520486623048782349e-01 -3.252877295017242432e-01 8.873106539249420166e-02 -2.720149457454681396e-01 -6.866054534912109375e-01 2.757066488265991211e-01 -3.677080944180488586e-02 4.117610156536102295e-01 5.326375365257263184e-01 7.399942278861999512e-01 -9.823770821094512939e-02 8.410515263676643372e-03 3.839511275291442871e-01 -4.545747488737106323e-02 -3.180845975875854492e-01 -1.094255745410919189e-01 5.124004483222961426e-01 -1.957309246063232422e-01 -1.088798344135284424e-01 -4.817726016044616699e-01 -7.560660690069198608e-02 7.795246690511703491e-02 2.213425189256668091e-02 1.301506068557500839e-02 2.478041201829910278e-01 -1.791617870330810547e-01 1.712761819362640381e-01 -4.707264155149459839e-02 -5.622522830963134766e-01 -4.119721055030822754e-01 4.815077781677246094e-02 -2.076127529144287109e-01 4.759304523468017578e-01 -5.851971507072448730e-01 -5.878307819366455078e-01 -2.121659815311431885e-01 -3.804248571395874023e-01 8.709318190813064575e-02 1.020110964775085449e+00 6.269151717424392700e-02 -1.964136064052581787e-01 -3.251285851001739502e-01 -6.748800873756408691e-01 2.798383533954620361e-01 1.670298576354980469e-01 3.695679455995559692e-02 3.603513240814208984e-01 -2.159019857645034790e-01 -3.055830299854278564e-01 8.576470613479614258e-02 -2.000129371881484985e-01 1.729753315448760986e-01 -2.676129639148712158e-01 -2.798943221569061279e-01 -1.134060844779014587e-01 -5.857437476515769958e-02 -1.124061942100524902e-01 -1.435743868350982666e-01 2.378577888011932373e-01 -2.740712463855743408e-01 2.271524518728256226e-01 -3.137255609035491943e-01 -2.910634577274322510e-01 1.133855283260345459e-01 -1.164305806159973145e-01 -2.683773040771484375e-01 -3.619471788406372070e-01 -1.319060623645782471e-01 -2.522072792053222656e-01 5.919491872191429138e-02 -3.679840266704559326e-01 -7.310733944177627563e-02 -3.514735698699951172e-01
8.165897727012634277e-01 -1.484148502349853516e-01 6.392425894737243652e-01 2.028336226940155029e-01 6.893761157989501953e-01 -1.372339874505996704e-01 5.507181286811828613e-01 9.887126088142395020e-01 6.703377366065979004e-01 -3.375943601131439209e-01 4.943606555461883545e-01 -2.828606665134429932e-01 -9.640936553478240967e-02 6.851083636283874512e-01 -1.982875913381576538e-01 6.815371569246053696e-03 1.548544168472290039e-01 3.264842331409454346e-01 8.764111995697021484e-01 6.860182285308837891e-01 4.039067327976226807e-01 1.092867851257324219e-01 4.666477143764495850e-01 4.478294551372528076e-01 -8.742614835500717163e-02 4.785191416740417480e-01 5.969631075859069824e-01 -2.310586571693420410e-01 7.984951138496398926e-01 2.392648458480834961e-01 1.009963825345039368e-01 2.587098181247711182e-01 3.017914593219757080e-01 7.762490510940551758e-01 -1.442337967455387115e-02 4.733023941516876221e-01 -8.142061531543731689e-02 -1.812797039747238159e-01 -6.733313798904418945e-01 5.905388668179512024e-02 5.572638511657714844e-01 7.157540917396545410e-01 1.144441589713096619e-01 5.190855860710144043e-01 7.537646591663360596e-02 6.080080866813659668e-01 -3.685853779315948486e-01 1.673031598329544067e-01 4.658512175083160400e-01 2.525088787078857422e-01 -1.316663771867752075e-01 1.708561182022094727e-01 2.215282618999481201e-01 6.463873386383056641e-02 8.100233674049377441e-01 8.343549370765686035e-01 3.375418484210968018e-01 1.137749627232551575e-01 7.809092402458190918e-01 3.517666459083557129e-02 6.983674764633178711e-01 2.690831422805786133e-01 3.946114778518676758e-01 6.936870217323303223e-01 3.099531680345535278e-02 4.123384952545166016e-01 -8.122123032808303833e-02 2.587729394435882568e-01 3.813883960247039795e-01 5.390467122197151184e-02 1.521510034799575806e-01 -2.955568730831146240e-01 3.124131560325622559e-01 -3.135604858398437500e-01 6.872264146804809570e-01 5.652712583541870117e-01 2.076328992843627930e-01 2.398024052381515503e-01 1.019481420516967773e+00 5.143004059791564941e-01 -1.484435498714447021e-01 4.407190382480621338e-01 1.422013640403747559e-01 -2.415661364793777466e-01 1.008863374590873718e-01 5.997851490974426270e-01 5.564432144165039062e-01 3.630182147026062012e-01 4.941841661930084229e-01 -2.141778171062469482e-01 4.500809609889984131e-01 4.875844717025756836e-01 7.844345271587371826e-02 1.818662285804748535e-01 9.913868904113769531e-01 2.380132526159286499e-01 4.196018278598785400e-01 6.030832529067993164e-01 2.358117401599884033e-01 6.016438603401184082e-01 4.038892984390258789e-01 1.985034346580505371e-01 9.855677932500839233e-02 -2.348958998918533325e-01 2.457528263330459595e-01 4.618450999259948730e-01 -2.715554833412170410e-01 8.762633800506591797e-01 2.198884040117263794e-01 7.487647533416748047e-01 2.842049300670623779e-01 7.459916472434997559e-01 8.476932644844055176e-01 4.942529797554016113e-01 1.196687340736389160e+00 6.256440281867980957e-02 3.813557624816894531e-01 1.574188768863677979e-01 -1.128036752343177795e-01 4.393744170665740967e-01 8.916094303131103516e-01 6.047789454460144043e-01 -1.969522237777709961e-01 8.582137227058410645e-01 8.018567562103271484e-01 7.277793884277343750e-01 4.022843539714813232e-01 4.131051599979400635e-01
-2.826798558235168457e-01 -9.193103015422821045e-02 1.666033416986465454e-01 4.057525098323822021e-01 -7.812932133674621582e-02 -7.480335831642150879e-01 -4.560914933681488037e-01 1.476291287690401077e-02 -1.489242911338806152e-01 -7.836388945579528809e-01 -9.967084974050521851e-02 -7.087914347648620605e-01 -3.510591387748718262e-01 1.520075052976608276e-01 -1.455305695533752441e+00 -2.927407324314117432e-01 7.648012638092041016e-01 -4.621848464012145996e-02 2.897163033485412598e-01 -1.736238747835159302e-01 1.045239493250846863e-01 5.107892751693725586e-01 1.029316425323486328e+00 -5.334174036979675293e-01 -4.562301635742187500e-01 -1.756398230791091919e-01 -1.023753881454467773e-01 4.045965671539306641e-01 4.821253716945648193e-01 3.355352878570556641e-01 -4.077577292919158936e-01 -8.160757273435592651e-02 -3.099733293056488037e-01 -2.641111314296722412e-01 -3.584861159324645996e-01 1.056774184107780457e-01 -7.784544229507446289e-01 -2.873090505599975586e-01 -4.566242098808288574e-01 -1.515810005366802216e-02 1.933676719665527344e+00 -2.420472800731658936e-01 -1.502144783735275269e-01 1.086323708295822144e-01 -2.087023705244064331e-01 -2.051520347595214844e-02 -5.000016093254089355e-01 -3.456701338291168213e-01 1.987714320421218872e-01 2.840398848056793213e-01 -2.888074815273284912e-01 -7.225012183189392090e-01 4.475800693035125732e-01 -2.207629010081291199e-02 3.515694662928581238e-02 -4.033895432949066162e-01 1.167212247848510742e+00 -2.166959941387176514e-01 -1.684183478355407715e-01 2.955110371112823486e-01 -6.781299710273742676e-01 -1.557436883449554443e-01 -3.947190567851066589e-02 5.511013269424438477e-01 3.437542021274566650e-01 -6.989608407020568848e-01 -2.649010717868804932e-01 -8.006258606910705566e-01 -1.747198104858398438e-01 -2.259342223405838013e-01 3.482706844806671143e-01 -1.393140792846679688e+00 -5.831942558288574219e-01 -1.288648694753646851e-01 -4.300231337547302246e-01 -2.504623532295227051e-01 -1.270244643092155457e-02 -2.117330133914947510e-01 6.346688866615295410e-01 3.549664914608001709e-01 3.946666717529296875e-01 -1.402355879545211792e-01 -3.934783935546875000e-01 -1.480976343154907227e-01 -7.140330225229263306e-02 -8.363479971885681152e-01 1.403407007455825806e-01 -1.414865627884864807e-02 2.713716030120849609e-01 2.992060184478759766e-01 2.152324654161930084e-02 2.307734042406082153e-01 2.940414249897003174e-01 -1.061437249183654785e+00 -3.764638304710388184e-01 3.359580636024475098e-01 -3.477942049503326416e-01 -1.815765053033828735e-01 -7.690396904945373535e-01 -1.866737455129623413e-01 -4.504555761814117432e-01 -1.477351337671279907e-01 6.178961694240570068e-02 6.785296201705932617e-01 7.623085975646972656e-01 7.089592814445495605e-01 -2.036405950784683228e-01 -3.887560367584228516e-01 1.269574314355850220e-01 -1.833060979843139648e-01 -3.955860435962677002e-01 -3.284949064254760742e-02 1.858900338411331177e-01 -8.606678247451782227e-01 -6.079794839024543762e-02 -1.830457746982574463e-01 -2.647369801998138428e-01 -9.663814306259155273e-01 -2.807802259922027588e-01 -6.713655591011047363e-02 2.272250875830650330e-02 -3.147821873426437378e-03 6.133250594139099121e-01 -2.065276503562927246e-01 -2.807459235191345215e-01 -4.385077655315399170e-01 6.159775853157043457e-01 2.205386459827423096e-01
3.466781228780746460e-02 9.264497458934783936e-02 1.894795745611190796e-01 1.702182888984680176e-01 3.572900593280792236e-01 1.264792531728744507e-01 1.751709133386611938e-01 -2.280063629150390625e-01 -7.989753037691116333e-02 -1.155399560928344727e+00 4.823663458228111267e-02 -1.195317059755325317e-01 -1.317983269691467285e-01 -2.461366802453994751e-01 2.326481789350509644e-02 -1.336418986320495605e-01 -1.404174864292144775e-01 6.588372588157653809e-02 3.128187656402587891e-01 2.691794335842132568e-01 -5.633441805839538574e-01 3.079453408718109131e-01 1.081568300724029541e-01 3.357722163200378418e-01 -3.574474453926086426e-01 2.018179148435592651e-01 3.713567256927490234e-01 -1.194277778267860413e-02 4.508097767829895020e-01 4.543147087097167969e-01 -3.460803925991058350e-01 5.092775225639343262e-01 -3.078410923480987549e-01 3.970787823200225830e-01 9.910970926284790039e-02 -1.480106171220541000e-02 -6.552973389625549316e-01 3.793342113494873047e-01 -1.667108945548534393e-02 2.705141603946685791e-01 2.830679714679718018e-01 3.431722894310951233e-02 6.247051525861024857e-03 -4.642996005713939667e-03 -1.418362706899642944e-01 2.265716940164566040e-01 -1.630835682153701782e-01 -1.127024590969085693e-01 4.727343916893005371e-01 -3.711397051811218262e-01 7.301503419876098633e-02 -3.985660672187805176e-01 1.089231595396995544e-01 1.772395968437194824e-01 2.096279859542846680e-01 -2.069781348109245300e-02 1.648965030908584595e-01 4.588464498519897461e-01 1.525866240262985229e-01 -4.592010751366615295e-02 3.753342665731906891e-03 -3.325692117214202881e-01 1.741838008165359497e-01 -2.054621130228042603e-01 4.396975636482238770e-01 1.733058094978332520e-01 2.558977603912353516e-01 -6.730494648218154907e-02 3.472054302692413330e-01 -2.168572545051574707e-01 3.610356450080871582e-01 1.432737559080123901e-01 1.572328209877014160e-01 -7.115370780229568481e-02 8.824868202209472656e-01 -1.363872140645980835e-01 -3.290011882781982422e-01 -2.413622140884399414e-01 4.624189138412475586e-01 1.915243566036224365e-01 8.888185620307922363e-01 1.871830105781555176e+00 2.108880132436752319e-01 1.199640557169914246e-01 -1.332255452871322632e-01 -1.567700207233428955e-01 -9.497982263565063477e-02 2.670304849743843079e-02 8.333008885383605957e-01 3.543304502964019775e-01 -9.028420597314834595e-02 2.009255886077880859e-01 2.035143375396728516e-01 -5.713827610015869141e-01 5.937240719795227051e-01 5.191133916378021240e-02 2.214089632034301758e-01 -1.270154416561126709e-01 4.386173933744430542e-02 1.128193065524101257e-01 -1.353301852941513062e-02 -2.512636594474315643e-02 4.619396105408668518e-02 1.291242688894271851e-01 8.336855769157409668e-01 1.656424701213836670e-01 1.581355631351470947e-01 7.809824943542480469e-01 3.110505640506744385e-01 1.023430656641721725e-02 -2.923743426799774170e-01 3.966850042343139648e-01 1.156867623329162598e+00 -2.059900946915149689e-02 2.179878354072570801e-01 -4.285979270935058594e-01 3.061704337596893311e-01 3.222785294055938721e-01 2.089579850435256958e-01 -2.831205129623413086e-01 -1.775426864624023438e-01 8.124787807464599609e-01 -2.176255360245704651e-02 4.164078831672668457e-02 5.615612491965293884e-02 5.576475858688354492e-01 7.985679805278778076e-02 3.127660751342773438e-01
-2.815133333206176758e-01 2.324266731739044189e-01 2.632937431335449219e-01 -1.572011411190032959e-01 -1.389227658510208130e-01 -5.037064477801322937e-02 8.680699020624160767e-02 1.332963854074478149e-01 1.671265959739685059e-01 -7.971399426460266113e-01 1.747776865959167480e-01 -6.278225779533386230e-01 -1.298880726099014282e-01 -3.001699149608612061e-01 6.186414510011672974e-02 2.380801886320114136e-01 2.129891961812973022e-01 -1.531582772731781006e-01 5.473143458366394043e-01 2.404082864522933960e-01 2.268271297216415405e-01 5.196937918663024902e-01 2.606227993965148926e-01 -1.150613948702812195e-01 -2.071374654769897461e-01 5.152997374534606934e-01 -3.353698551654815674e-02 1.405832320451736450e-01 -1.047001406550407410e-01 2.726360261440277100e-01 -7.834083586931228638e-02 7.623174041509628296e-02 4.042656719684600830e-01 -8.828604966402053833e-02 5.723972916603088379e-01 6.620123982429504395e-02 -6.682638525962829590e-01 1.214548945426940918e-01 -3.523609787225723267e-02 9.231252595782279968e-03 1.062896251678466797e+00 2.093091607093811035e-01 2.929345965385437012e-01 3.365697339177131653e-02 -1.025378704071044922e-01 8.703332394361495972e-02 -4.615861773490905762e-01 -3.671424835920333862e-02 -3.886028528213500977e-01 -1.972426027059555054e-01 4.888057010248303413e-04 -1.122463941574096680e-01 3.648828268051147461e-01 5.014047622680664062e-01 -3.888560831546783447e-01 9.927721321582794189e-02 2.737664580345153809e-01 -1.523758023977279663e-01 -3.531217575073242188e-01 -5.213861167430877686e-02 -5.872784256935119629e-01 -1.205133348703384399e-01 2.718714810907840729e-02 1.825719922780990601e-01 -1.151798367500305176e-01 2.330520004034042358e-01 2.824048697948455811e-02 -3.368016183376312256e-01 -9.515365213155746460e-02 -4.636366665363311768e-02 1.280576229095458984e+00 2.283300757408142090e-01 -4.928386807441711426e-01 6.710451841354370117e-01 9.406057000160217285e-02 -2.884145379066467285e-01 -2.562774419784545898e-01 2.658138424158096313e-02 -6.397617049515247345e-03 6.822609901428222656e-02 -3.070754557847976685e-02 2.379190474748611450e-01 -3.851992264389991760e-02 -5.216860175132751465e-01 5.498431157320737839e-03 -1.635482907295227051e-01 7.210898995399475098e-01 -2.001969963312149048e-01 3.623293638229370117e-01 -4.259998202323913574e-01 1.961154118180274963e-02 1.761717647314071655e-01 -2.180136591196060181e-01 -8.188143372535705566e-03 1.463885158300399780e-01 7.467337250709533691e-01 -1.532702520489692688e-02 1.604264676570892334e-01 3.047372996807098389e-01 -2.716289162635803223e-01 -1.075375676155090332e-01 -6.712151318788528442e-02 -2.153826206922531128e-01 5.843859314918518066e-01 3.437820672988891602e-01 -1.438550949096679688e-01 -1.906304508447647095e-01 4.958966076374053955e-01 1.263218522071838379e-01 4.482460021972656250e-01 -1.975030153989791870e-01 1.119042113423347473e-01 -1.217210590839385986e-01 -7.445543259382247925e-02 -2.291674017906188965e-01 1.825645267963409424e-01 -2.937221154570579529e-02 1.188358068466186523e-01 -9.258801490068435669e-02 5.806846618652343750e-01 5.833834409713745117e-01 1.932476758956909180e-01 4.068527221679687500e-01 -8.509521931409835815e-02 1.477437168359756470e-01 5.628158152103424072e-02 -1.847964227199554443e-01 4.010138213634490967e-01
-1.952112466096878052e-01 -1.653014421463012695e-01 -4.859722685068845749e-03 -3.821102678775787354e-01 -2.010012865066528320e-01 -5.164471268653869629e-01 -3.764233291149139404e-01 -2.270132154226303101e-01 2.562998607754707336e-02 2.636758051812648773e-02 -2.553454637527465820e-01 -1.678963154554367065e-01 -2.059227526187896729e-01 6.383425742387771606e-02 -6.260476112365722656e-01 -1.919297873973846436e-01 -3.379539400339126587e-02 3.347124755382537842e-01 5.206231400370597839e-02 -2.259331345558166504e-01 1.518541723489761353e-01 7.831076383590698242e-01 1.390579193830490112e-01 -1.273907274007797241e-01 -2.555641829967498779e-01 -6.011484935879707336e-02 -4.320525228977203369e-01 -8.097385168075561523e-01 1.469221264123916626e-01 9.201261401176452637e-02 7.527650892734527588e-02 9.060508757829666138e-02 1.649182289838790894e-01 -2.309410572052001953e-01 -1.018920391798019409e-01 -7.329453229904174805e-01 -2.691225409507751465e-01 3.079528212547302246e-01 4.545793533325195312e-01 -1.739019155502319336e-01 -3.703176081180572510e-01 -5.572462920099496841e-03 2.118943482637405396e-01 2.975464984774589539e-02 6.896746158599853516e-02 1.405250653624534607e-02 -1.826531529426574707e+00 -6.535913944244384766e-01 -1.947185210883617401e-02 -1.847683824598789215e-02 -3.836829364299774170e-01 -4.273136146366596222e-04 -6.215414404869079590e-01 3.655048608779907227e-01 1.078402251005172729e-01 1.481844186782836914e-01 4.113120734691619873e-01 6.060611084103584290e-02 -1.865610629320144653e-01 -2.699559926986694336e-01 -1.510218530893325806e-01 1.226588711142539978e-01 -2.112307101488113403e-01 3.529789745807647705e-01 -4.749754667282104492e-01 -1.222815141081809998e-01 1.592802256345748901e-01 -2.316239923238754272e-01 -3.603205978870391846e-01 1.339928954839706421e-01 -1.160582080483436584e-01 6.495922803878784180e-01 1.659289561212062836e-02 -1.472817361354827881e-01 3.473917841911315918e-01 -2.043415307998657227e-01 -4.211343824863433838e-01 3.478286862373352051e-01 -2.893276810646057129e-01 -5.684943795204162598e-01 -1.139894127845764160e-01 -3.626499474048614502e-01 -3.196859732270240784e-02 6.597923040390014648e-01 -3.579220771789550781e-01 -6.996482610702514648e-01 1.374256908893585205e-01 5.258526206016540527e-01 8.937947750091552734e-01 -2.474646568298339844e-01 1.100131869316101074e-01 1.705706566572189331e-01 1.698588132858276367e-01 -3.467445820569992065e-02 -3.041371703147888184e-01 -1.271129697561264038e-01 -1.197787374258041382e-01 -3.290570676326751709e-01 -4.455098211765289307e-01 2.864981591701507568e-01 1.130513325333595276e-01 -1.152131408452987671e-01 -4.812548756599426270e-01 -1.437417268753051758e-01 1.152429103851318359e+00 5.089602433145046234e-03 -2.351527810096740723e-01 1.645888090133666992e-01 -3.195062875747680664e-01 -7.725637555122375488e-01 1.882788836956024170e-01 -1.464010179042816162e-01 -1.700244992971420288e-01 9.137273430824279785e-01 1.288191676139831543e-01 1.883882284164428711e-01 -2.704016566276550293e-01 -2.868576049804687500e-01 2.243349999189376831e-01 -6.938398815691471100e-03 9.504626393318176270e-01 -3.561943769454956055e-01 -3.094156086444854736e-01 -8.613121509552001953e-02 -2.719502747058868408e-01 -2.370718568563461304e-01 1.617414206266403198e-01 -1.141560301184654236e-01
-2.937189862132072449e-02 2.164822965860366821e-01 1.746025532484054565e-01 7.067964076995849609e-01 4.740534350275993347e-02 -6.773120909929275513e-02 4.984621107578277588e-01 2.283512055873870850e-01 2.675375640392303467e-01 1.443133037537336349e-02 3.415162861347198486e-01 -3.167081624269485474e-02 2.606596648693084717e-01 -4.332107305526733398e-01 -5.416716933250427246e-01 3.962615132331848145e-01 3.402734696865081787e-01 3.330699205398559570e-01 3.001474738121032715e-01 5.070952773094177246e-01 2.134477198123931885e-01 8.768635988235473633e-01 -2.983192354440689087e-02 3.828973174095153809e-01 1.282525807619094849e-01 4.190544411540031433e-02 2.440561801195144653e-01 3.488141000270843506e-01 7.491500973701477051e-01 -1.288980990648269653e-01 1.079785525798797607e-01 -1.104047372937202454e-01 3.091648519039154053e-01 3.561945855617523193e-01 1.000712394714355469e+00 4.493081197142601013e-02 -2.980892360210418701e-01 1.275368928909301758e-01 3.066417872905731201e-01 1.349380761384963989e-01 -3.613613247871398926e-01 3.321219682693481445e-01 5.140703916549682617e-01 -1.177744939923286438e-01 -3.655478656291961670e-01 4.961710274219512939e-01 -3.704200983047485352e-01 -5.639728903770446777e-02 1.414525061845779419e-01 -1.779144555330276489e-01 -2.578056752681732178e-01 3.056168854236602783e-01 2.293522804975509644e-01 3.579293936491012573e-02 2.961484193801879883e-01 6.031303405761718750e-01 -2.623333632946014404e-01 1.330728679895401001e-01 5.305734276771545410e-01 4.556889832019805908e-02 3.096400797367095947e-01 2.091042995452880859e-01 1.483870446681976318e-01 -2.116862386465072632e-01 4.472613707184791565e-02 -3.579183518886566162e-01 -2.575534582138061523e-01 1.165805757045745850e-01 3.487137258052825928e-01 5.065175890922546387e-02 6.874421238899230957e-02 2.309142649173736572e-01 -3.001829981803894043e-01 3.027964532375335693e-01 -7.072850465774536133e-01 -6.241681575775146484e-01 -2.265010029077529907e-01 -7.213195562362670898e-01 1.410857886075973511e-01 1.861653774976730347e-01 -4.815916121006011963e-01 6.771392226219177246e-01 1.570130586624145508e-01 8.520185947418212891e-02 2.995395064353942871e-01 -2.609500586986541748e-01 -5.595805495977401733e-02 1.382875293493270874e-01 -5.941582098603248596e-02 3.462180262431502342e-03 -8.667463064193725586e-02 5.902713537216186523e-01 1.511663347482681274e-01 5.282668396830558777e-03 6.565816998481750488e-01 5.628020167350769043e-01 2.557247877120971680e-01 4.427087903022766113e-01 3.366132378578186035e-01 -4.972976148128509521e-01 2.060469985008239746e-01 2.458146512508392334e-01 -7.191314697265625000e-01 -4.730039834976196289e-01 -2.502518177032470703e+00 -4.541784152388572693e-02 -2.164800912141799927e-01 9.250737726688385010e-02 -1.476511955261230469e-01 4.993830919265747070e-01 2.795446850359439850e-02 4.751149415969848633e-01 7.610549777746200562e-02 -3.565442264080047607e-01 6.819791793823242188e-01 -4.260842129588127136e-02 -3.139695227146148682e-01 -2.636859118938446045e-01 -9.155419468879699707e-02 -8.942531049251556396e-02 -6.226100772619247437e-02 3.627625852823257446e-02 7.178495526313781738e-01 6.602987647056579590e-02 2.656745910644531250e-01 -1.666520833969116211e-01 -2.406772971153259277e-01 -1.419688854366540909e-02
1.565810143947601318e-01 6.950609385967254639e-02 1.947567313909530640e-01 1.381125450134277344e-01 1.675320416688919067e-02 9.612570703029632568e-02 1.922250837087631226e-01 8.415708541870117188e-01 3.936494588851928711e-01 3.100681602954864502e-01 1.249683462083339691e-02 1.737090200185775757e-01 5.848762392997741699e-01 4.518484473228454590e-01 -2.556409239768981934e-01 2.430477142333984375e-01 7.825816869735717773e-01 3.602132499217987061e-01 5.923976302146911621e-01 1.471360027790069580e-01 1.104176566004753113e-01 -1.512455493211746216e-01 7.575659155845642090e-01 4.638210684061050415e-02 -1.338853985071182251e-01 5.211257934570312500e-01 -3.198203444480895996e-01 4.930132627487182617e-01 7.570845633745193481e-02 1.020258903503417969e+00 -1.359422970563173294e-02 -2.356544435024261475e-01 -5.296198725700378418e-01 3.130055218935012817e-02 4.819360077381134033e-01 4.455021917819976807e-01 1.758908033370971680e-01 1.004821583628654480e-01 2.602157294750213623e-01 4.041058719158172607e-01 8.038417696952819824e-01 3.644117414951324463e-01 5.464767217636108398e-01 1.707396358251571655e-01 1.801163405179977417e-01 2.371286153793334961e-01 8.705593645572662354e-03 2.433417886495590210e-01 -2.393972277641296387e-01 8.843554258346557617e-01 3.979475498199462891e-01 1.311269849538803101e-01 3.566104769706726074e-01 5.906600952148437500e-01 4.835895597934722900e-01 -1.385415941476821899e-01 9.513938426971435547e-01 3.493742346763610840e-01 2.694937288761138916e-01 6.228492259979248047e-01 -2.069492489099502563e-01 4.966139495372772217e-01 -1.914504729211330414e-02 9.200993180274963379e-01 9.854421615600585938e-01 -2.125748433172702789e-02 1.339108794927597046e-01 8.076486736536026001e-02 3.102706372737884521e-01 3.681547939777374268e-01 1.393247842788696289e-01 -8.674205094575881958e-02 2.457063086330890656e-02 3.147870898246765137e-01 -1.227035224437713623e-01 7.560423016548156738e-01 4.025691449642181396e-01 2.770371735095977783e-02 4.475684165954589844e-01 -3.626600503921508789e-01 5.275810882449150085e-02 7.062120437622070312e-01 -1.522110104560852051e-01 3.676038086414337158e-01 4.490304887294769287e-01 4.590186178684234619e-01 1.010478213429450989e-01 4.987394809722900391e-02 2.421815097332000732e-01 1.637250036001205444e-01 5.314319133758544922e-01 1.158859282732009888e-01 -4.952930286526679993e-02 3.502671718597412109e-01 5.081863999366760254e-01 6.251922249794006348e-01 2.137174010276794434e-01 2.348309755325317383e-01 1.376947611570358276e-01 9.142577648162841797e-01 -1.602817177772521973e-01 2.806349694728851318e-01 4.255263507366180420e-01 5.358519405126571655e-02 7.223787903785705566e-01 3.017169833183288574e-01 3.056433796882629395e-01 -1.961362659931182861e-01 3.114633560180664062e-01 5.264127999544143677e-02 -5.216011032462120056e-02 3.427219390869140625e-01 4.150995016098022461e-01 1.142306402325630188e-01 2.850410640239715576e-01 -5.144759416580200195e-01 -1.752417720854282379e-02 4.384793341159820557e-01 -1.670581251382827759e-01 1.594789266586303711e+00 -4.463007152080535889e-01 3.053677678108215332e-01 2.161153107881546021e-01 -1.021052300930023193e-01 4.763827621936798096e-01 -1.999292820692062378e-01 3.617357909679412842e-01 7.470116615295410156e-01
2.661241292953491211e-01 1.757265180349349976e-01 2.782191634178161621e-01 4.317789375782012939e-01 9.866693615913391113e-01 -4.486878812313079834e-01 4.398384392261505127e-01 2.043300569057464600e-01 2.816331088542938232e-01 1.382503151893615723e+00 2.443670481443405151e-01 1.665274500846862793e-01 5.314351320266723633e-01 1.384501606225967407e-01 1.301251947879791260e-01 -2.603493630886077881e-02 2.739979922771453857e-01 -4.045836627483367920e-01 3.215968310832977295e-01 5.594751611351966858e-02 5.371884107589721680e-01 3.744807839393615723e-01 4.621564745903015137e-01 -3.315700218081474304e-02 2.865569293498992920e-01 2.554869651794433594e-01 1.128837019205093384e-01 1.041759729385375977e+00 2.942004501819610596e-01 2.492036819458007812e-01 1.610051840543746948e-01 -2.821041457355022430e-02 1.460487861186265945e-02 1.965854018926620483e-01 -1.274019330739974976e-01 8.558519184589385986e-02 7.043687701225280762e-01 3.409638255834579468e-02 3.075575456023216248e-02 1.790827065706253052e-01 -2.614282965660095215e-01 2.792673185467720032e-02 -2.005030959844589233e-01 2.464629411697387695e-01 -1.004390865564346313e-01 2.147452831268310547e-01 1.470570862293243408e-01 4.815900325775146484e-01 9.967057406902313232e-02 3.060804605484008789e-01 -3.713667690753936768e-01 1.459175944328308105e-01 1.912043988704681396e-01 3.408215045928955078e-01 3.478285074234008789e-01 2.014084756374359131e-01 -9.989938139915466309e-02 5.663934350013732910e-01 6.105679869651794434e-01 1.092832565307617188e+00 3.304914534091949463e-01 4.270361959934234619e-01 7.487068325281143188e-02 2.970487475395202637e-01 4.936874508857727051e-01 4.918739795684814453e-01 1.147999987006187439e-01 2.385383844375610352e-01 4.109335243701934814e-01 1.852936446666717529e-01 5.302096009254455566e-01 3.344875276088714600e-01 5.546714663505554199e-01 4.840000569820404053e-01 8.938715457916259766e-01 3.558838963508605957e-01 -2.121731042861938477e-01 7.602565884590148926e-01 1.031867504119873047e+00 6.776284575462341309e-01 2.491061240434646606e-01 3.412016034126281738e-01 3.321274518966674805e-01 2.311962097883224487e-01 3.168954551219940186e-01 9.188240766525268555e-02 2.380753681063652039e-02 -4.206739962100982666e-01 -1.839127950370311737e-02 4.988240599632263184e-01 4.470155537128448486e-01 3.375148773193359375e-01 -1.556244865059852600e-02 1.047762393951416016e+00 1.631106436252593994e-01 9.302929043769836426e-01 2.133425883948802948e-02 6.780275702476501465e-02 6.498961895704269409e-02 1.761086732149124146e-01 4.246403574943542480e-01 1.338857859373092651e-01 1.724559664726257324e-01 5.237336158752441406e-01 9.376407861709594727e-01 4.541043043136596680e-01 8.001188039779663086e-01 4.762681126594543457e-01 3.684158921241760254e-01 4.703728258609771729e-01 3.396126329898834229e-01 3.944564163684844971e-01 7.244930416345596313e-02 -3.312112689018249512e-01 8.185653686523437500e-01 -2.183780074119567871e-01 4.864797592163085938e-01 3.664117455482482910e-01 3.492157757282257080e-01 -7.434911131858825684e-01 2.732571065425872803e-01 4.617777168750762939e-01 -2.961836196482181549e-02 -3.464155644178390503e-02 -2.827898859977722168e-01 3.499709665775299072e-01 9.067069739103317261e-02 3.653452396392822266e-01
2.804962098598480225e-01 2.656984031200408936e-01 5.291295051574707031e-01 -1.262763142585754395e-01 3.306804895401000977e-01 1.521186381578445435e-01 2.203273326158523560e-01 1.671698242425918579e-01 4.580100625753402710e-02 1.370383054018020630e-02 -4.875110089778900146e-02 1.275395303964614868e-01 -2.138735055923461914e-01 3.041587471961975098e-01 2.805555462837219238e-01 1.800204217433929443e-01 1.634854264557361603e-02 2.020712196826934814e-02 -2.009961754083633423e-02 9.282178431749343872e-02 2.444362491369247437e-01 3.799726963043212891e-01 4.358088076114654541e-01 2.359030842781066895e-01 -3.682416081428527832e-01 9.212573766708374023e-01 5.075065493583679199e-01 1.742496527731418610e-02 1.989698857069015503e-01 4.025501608848571777e-01 1.784466207027435303e-01 -3.268678188323974609e-01 3.589885830879211426e-01 -4.210839048027992249e-02 3.631821274757385254e-02 3.080714643001556396e-01 4.302835464477539062e-01 -4.222725033760070801e-01 2.703541517257690430e-02 -3.057854017242789268e-03 6.636486649513244629e-01 8.053331077098846436e-02 1.160333454608917236e-01 3.854662179946899414e-01 -5.971303954720497131e-02 4.570563733577728271e-01 3.037504851818084717e-01 5.282389745116233826e-02 -4.564085602760314941e-01 6.809403896331787109e-01 4.549407958984375000e-02 2.571350336074829102e-01 6.519186496734619141e-01 -2.802205830812454224e-02 2.444369047880172729e-01 1.040072962641716003e-01 3.859296441078186035e-01 3.314782381057739258e-01 4.274460077285766602e-01 4.599639177322387695e-01 -2.231504619121551514e-01 4.944557547569274902e-01 -1.305529326200485229e-01 6.759852170944213867e-01 1.366993784904479980e+00 -1.532277166843414307e-01 1.351178735494613647e-01 5.534225702285766602e-01 3.459065556526184082e-01 1.908116191625595093e-01 3.808723688125610352e-01 -2.248070091009140015e-01 -8.640506118535995483e-02 2.930308878421783447e-01 5.183675885200500488e-01 1.063261032104492188e-01 -2.328459769487380981e-01 2.337878942489624023e-01 -1.788328960537910461e-02 5.587856769561767578e-01 1.308559626340866089e-01 5.842210054397583008e-01 2.969764173030853271e-01 -4.106547683477401733e-02 3.723382055759429932e-01 -1.399350762367248535e-01 -4.319264888763427734e-01 -6.123860925436019897e-02 1.123507022857666016e+00 3.319189548492431641e-01 2.556270956993103027e-01 -1.814680248498916626e-01 1.268460154533386230e-01 6.485551595687866211e-01 9.267832636833190918e-01 4.934153556823730469e-01 3.913953602313995361e-01 9.085293114185333252e-02 3.011643886566162109e-01 6.370632052421569824e-01 2.524972558021545410e-01 7.735171914100646973e-02 -1.239490061998367310e-01 2.226283401250839233e-01 1.618707537651062012e+00 -4.934096336364746094e-02 -9.312690235674381256e-03 4.128277599811553955e-01 -1.987094804644584656e-02 2.833434641361236572e-01 -4.417610913515090942e-02 4.922403097152709961e-01 1.956150680780410767e-01 1.206752881407737732e-01 -2.262732684612274170e-01 6.258469820022583008e-01 3.457853794097900391e-01 3.242713510990142822e-01 -2.639521956443786621e-01 -1.500762403011322021e-01 6.510228514671325684e-01 2.596285939216613770e-01 2.432508915662765503e-01 -7.384976744651794434e-02 2.142193764448165894e-01 4.546817541122436523e-01 2.100775986909866333e-01 1.975541114807128906e-01
1.484896391630172729e-01 4.251900017261505127e-01 -1.566704064607620239e-01 2.085589170455932617e-01 -1.385152060538530350e-02 7.830263674259185791e-02 -9.681010246276855469e-02 9.007660299539566040e-02 2.253564745187759399e-01 6.693009138107299805e-01 6.859567016363143921e-02 1.501534432172775269e-01 -1.210315059870481491e-02 -1.955324560403823853e-01 1.603296101093292236e-01 7.626999616622924805e-01 7.462821155786514282e-02 -2.349064797163009644e-01 4.458734989166259766e-01 7.858293503522872925e-02 1.689380705356597900e-01 -2.032419741153717041e-01 1.241379529237747192e-01 -2.557223737239837646e-01 2.568151354789733887e-01 2.500695586204528809e-01 -2.822209708392620087e-02 -1.575201600790023804e-01 -1.296820491552352905e-02 1.264896392822265625e-01 3.288066089153289795e-01 7.325295209884643555e-01 2.417349815368652344e-01 -1.610025465488433838e-01 2.474009394645690918e-01 5.580573156476020813e-02 7.195571660995483398e-01 -2.003754228353500366e-01 3.250150084495544434e-01 -8.325956016778945923e-02 -2.546142041683197021e-01 -2.573994360864162445e-02 -1.313132792711257935e-01 -2.882489236071705818e-03 2.556562125682830811e-01 -9.642145596444606781e-03 -5.617370009422302246e-01 3.466367125511169434e-01 1.887401938438415527e-01 1.129540652036666870e-01 -2.358531113713979721e-03 2.070785164833068848e-01 5.021572709083557129e-01 -9.700465202331542969e-02 3.588875532150268555e-01 -4.930306971073150635e-02 -5.755834281444549561e-03 1.176525354385375977e-01 1.465339362621307373e-01 1.243878826498985291e-01 -1.969458013772964478e-01 1.853287518024444580e-01 -4.906771481037139893e-01 4.547095000743865967e-01 8.263064026832580566e-01 -6.560877710580825806e-02 7.168124616146087646e-02 4.921756684780120850e-01 -3.159306645393371582e-01 5.113378763198852539e-01 1.013110518455505371e+00 1.033991500735282898e-01 2.454721033573150635e-01 4.756871163845062256e-01 3.337148725986480713e-01 2.734388411045074463e-01 1.871394813060760498e-01 -2.537999674677848816e-02 -3.020673990249633789e-01 -2.457355149090290070e-02 2.223981618881225586e-01 5.507591366767883301e-01 -6.885284185409545898e-01 3.131480216979980469e-01 -3.033933602273464203e-02 2.397353351116180420e-01 5.801028609275817871e-01 3.675785958766937256e-01 8.076175451278686523e-01 8.673319220542907715e-01 1.419059038162231445e-01 1.276105344295501709e-01 3.655003905296325684e-01 9.259070158004760742e-01 1.872059851884841919e-01 -3.623206019401550293e-01 -4.681829828768968582e-03 -1.877100765705108643e-01 3.437896072864532471e-01 7.751160264015197754e-01 2.591341733932495117e-01 1.548479646444320679e-01 4.704842269420623779e-01 5.309903025627136230e-01 1.311340451240539551e+00 1.162594556808471680e-01 -3.099943324923515320e-02 4.047420024871826172e-01 3.100037276744842529e-01 -3.849061205983161926e-02 9.094320982694625854e-02 -6.590910255908966064e-02 4.064989984035491943e-01 1.488454788923263550e-01 -7.806268334388732910e-02 9.313259720802307129e-01 -5.107336044311523438e-01 -1.212275102734565735e-01 3.361210823059082031e-01 3.990137577056884766e-01 4.914049431681632996e-02 -1.051180213689804077e-01 4.053931534290313721e-01 5.841944366693496704e-02 -7.115437835454940796e-02 -5.724618211388587952e-02 2.973520159721374512e-01 -8.123010396957397461e-02
4.729925394058227539e-01 1.062565222382545471e-01 -1.875460296869277954e-01 5.536680221557617188e-01 1.497852355241775513e-01 1.667406782507896423e-02 8.273482322692871094e-02 1.960280686616897583e-01 -1.706303656101226807e-01 1.124180316925048828e+00 3.845110535621643066e-01 -9.764243662357330322e-02 -1.003574132919311523e-01 -2.670508325099945068e-01 5.137477535754442215e-03 3.928980827331542969e-01 3.406919538974761963e-01 3.803893923759460449e-01 -3.748194873332977295e-01 -2.523474954068660736e-02 2.590885460376739502e-01 2.340660691261291504e-01 -1.093261688947677612e-01 1.058912649750709534e-01 3.323466181755065918e-01 -3.929565846920013428e-01 7.914009504020214081e-03 3.884421288967132568e-01 4.167274236679077148e-01 5.302041769027709961e-01 2.283117324113845825e-01 4.633324742317199707e-01 2.577760023996233940e-03 -1.428319960832595825e-01 -1.396739929914474487e-01 3.272736072540283203e-01 6.435601711273193359e-01 2.209039926528930664e-01 1.351140886545181274e-01 2.728428542613983154e-01 -2.472952306270599365e-01 2.540009319782257080e-01 5.707646533846855164e-02 -2.940953522920608521e-02 1.930019110441207886e-01 -1.725181750953197479e-02 -2.627922296524047852e-01 -1.276073046028614044e-02 -3.860358297824859619e-01 3.630495667457580566e-01 8.026557415723800659e-02 3.705067560076713562e-02 1.363502889871597290e-01 3.760652244091033936e-01 1.498118191957473755e-01 -6.756674498319625854e-02 1.358125805854797363e-01 3.763060867786407471e-01 -1.318500493653118610e-03 2.946438789367675781e-01 -3.382554044947028160e-03 1.969374120235443115e-01 -8.915539085865020752e-02 3.136377334594726562e-01 -1.021991390734910965e-02 -3.525273129343986511e-02 -1.289243996143341064e-01 3.076884150505065918e-01 -3.217036277055740356e-02 3.085754811763763428e-01 1.380040943622589111e-01 2.451137900352478027e-01 2.559741735458374023e-01 6.290421485900878906e-01 5.457947254180908203e-01 -3.265200853347778320e-01 2.601981908082962036e-02 4.403847157955169678e-01 4.267034530639648438e-01 1.907402649521827698e-02 9.718362241983413696e-02 5.528832077980041504e-01 -8.298883587121963501e-02 2.148357778787612915e-01 3.272967040538787842e-01 2.110343575477600098e-01 8.145175874233245850e-02 2.986706793308258057e-01 4.899107515811920166e-01 5.333546400070190430e-01 2.893532216548919678e-01 2.028087340295314789e-02 5.499676465988159180e-01 7.386512160301208496e-01 -4.499054551124572754e-01 7.321468591690063477e-01 -1.141131389886140823e-02 -7.453484088182449341e-02 4.209875166416168213e-01 1.278972327709197998e-01 -2.336526960134506226e-01 7.069715857505798340e-01 -2.519121170043945312e-01 2.577865719795227051e-01 9.560123085975646973e-01 -1.619216948747634888e-01 1.047775983810424805e+00 3.109403550624847412e-01 2.352320998907089233e-01 3.922192156314849854e-01 5.587314441800117493e-02 1.603595763444900513e-01 -1.461396664381027222e-01 2.089056521654129028e-01 9.838878363370895386e-02 -7.060905545949935913e-02 -1.367549747228622437e-01 4.056404531002044678e-01 6.096513271331787109e-01 2.448532283306121826e-01 -4.780292809009552002e-01 -1.202354282140731812e-01 9.559249132871627808e-02 -3.011046946048736572e-01 4.327476620674133301e-01 4.508506357669830322e-01 1.960857771337032318e-03 -2.627927958965301514e-01
-7.594742625951766968e-02 2.120598107576370239e-01 9.707432240247726440e-02 -2.151238173246383667e-01 4.570111632347106934e-01 -1.616067141294479370e-01 1.497187316417694092e-01 -1.465346571058034897e-02 2.235977500677108765e-01 2.144168317317962646e-01 4.896250367164611816e-02 3.851516544818878174e-01 5.554286390542984009e-02 2.515781857073307037e-02 2.727900743484497070e-01 3.232270479202270508e-01 -4.466706141829490662e-02 1.786232292652130127e-01 1.103682368993759155e-01 6.306870281696319580e-02 4.119695425033569336e-01 1.540931761264801025e-01 5.978307723999023438e-01 -2.556444518268108368e-02 8.563151210546493530e-02 2.241277508437633514e-02 4.064149409532546997e-02 3.891224265098571777e-01 -2.508833706378936768e-01 1.636729091405868530e-01 2.240934036672115326e-02 5.295753106474876404e-02 3.500745072960853577e-02 -9.212119132280349731e-02 9.866144061088562012e-01 -3.957060277462005615e-01 3.914888203144073486e-01 2.144507020711898804e-01 8.269764184951782227e-01 3.425522446632385254e-01 7.837474346160888672e-01 2.045667320489883423e-01 1.532967239618301392e-01 -2.094647437334060669e-01 3.145650625228881836e-01 -1.313259601593017578e-01 -3.909077644348144531e-01 -2.596268057823181152e-01 2.761141359806060791e-01 -1.195031031966209412e-01 6.510222703218460083e-02 1.248065158724784851e-01 3.173738718032836914e-01 1.014173403382301331e-01 2.623289525508880615e-01 -5.894845724105834961e-02 1.370590090751647949e+00 4.738515615463256836e-02 -1.610490232706069946e-01 3.390864431858062744e-01 -4.456047415733337402e-01 -1.884613186120986938e-01 -1.839116215705871582e-02 6.189283728599548340e-01 3.293458819389343262e-01 1.094615310430526733e-01 -1.452793031930923462e-01 6.572665274143218994e-02 -1.340319067239761353e-01 1.328456848859786987e-01 4.300892949104309082e-01 -8.122592419385910034e-02 3.045112788677215576e-01 7.670459747314453125e-01 7.393853068351745605e-01 1.836805194616317749e-01 1.596072763204574585e-01 -3.977984189987182617e-02 2.641190588474273682e-02 1.639820337295532227e-01 -8.663306385278701782e-02 -2.125203460454940796e-01 -1.929257810115814209e-01 5.339886546134948730e-01 4.875686019659042358e-02 -3.885618597269058228e-02 -6.714382022619247437e-02 3.982729911804199219e-01 5.259367227554321289e-01 -4.670029506087303162e-02 4.459870606660842896e-02 2.560451030731201172e-01 3.520453348755836487e-02 3.073960840702056885e-01 -1.890322118997573853e-01 6.640317440032958984e-01 -2.162388414144515991e-01 1.775288581848144531e-01 -3.037667647004127502e-02 4.918210804462432861e-01 -2.719551026821136475e-01 -1.952682584524154663e-01 2.375435829162597656e-02 8.098735213279724121e-01 1.241218686103820801e+00 4.158494472503662109e-01 -2.173430621623992920e-01 7.540090382099151611e-02 5.415380001068115234e-01 9.190580248832702637e-02 -6.620682030916213989e-02 8.422719687223434448e-02 -2.601730525493621826e-01 -7.823409140110015869e-02 -9.563360363245010376e-02 2.803323864936828613e-01 -1.095774993300437927e-01 5.194776654243469238e-01 4.845804274082183838e-01 3.044210374355316162e-01 -4.010680019855499268e-01 1.690611941739916801e-03 6.875323504209518433e-02 -3.088724017143249512e-01 1.706011444330215454e-01 1.357561945915222168e-01 -7.148848474025726318e-02 1.562141329050064087e-01
3.165360093116760254e-01 3.725852444767951965e-02 3.439317345619201660e-01 4.667128622531890869e-01 1.160974740982055664e+00 2.239466160535812378e-01 4.818882346153259277e-01 5.441944599151611328e-01 3.845867812633514404e-01 -5.731213092803955078e-01 5.116397738456726074e-01 3.821924626827239990e-01 4.111847877502441406e-01 2.399471998214721680e-01 -1.989245712757110596e-01 -3.163471817970275879e-01 6.400269865989685059e-01 5.517628192901611328e-01 5.211295485496520996e-01 5.023103356361389160e-01 -2.241957634687423706e-01 8.641225099563598633e-01 5.876535177230834961e-01 3.178325295448303223e-01 9.973075240850448608e-02 1.605288833379745483e-01 3.571788370609283447e-01 4.485331475734710693e-01 5.496882200241088867e-01 3.168512284755706787e-01 1.967403590679168701e-01 8.144528269767761230e-01 6.650041937828063965e-01 1.273416131734848022e-01 8.489505648612976074e-01 1.963275223970413208e-01 -6.547369412146508694e-04 8.814968913793563843e-02 2.756578624248504639e-01 4.688406884670257568e-01 1.471813768148422241e-01 3.056743741035461426e-01 8.575132489204406738e-02 3.880406171083450317e-02 -4.385792016983032227e-01 6.277107000350952148e-01 -3.936836421489715576e-01 7.688329219818115234e-01 1.036393567919731140e-01 4.172024726867675781e-01 4.087542891502380371e-01 4.241423904895782471e-01 -1.338445488363504410e-02 5.236659049987792969e-01 5.141788125038146973e-01 5.122485011816024780e-02 1.199119210243225098e+00 2.399622350931167603e-01 5.887626409530639648e-01 5.302549004554748535e-01 4.679950773715972900e-01 1.959303468465805054e-01 4.310175478458404541e-01 -6.928144097328186035e-01 3.222400844097137451e-01 5.338909626007080078e-01 1.466947197914123535e-01 2.161542773246765137e-01 3.881228268146514893e-01 -2.253987081348896027e-02 -2.769556939601898193e-01 5.523379147052764893e-02 -4.630348980426788330e-01 -4.521483182907104492e-01 9.075402617454528809e-01 2.383285462856292725e-01 9.879887700080871582e-01 2.497879266738891602e-01 3.025162220001220703e-01 2.823652625083923340e-01 5.658173188567161560e-02 5.699228048324584961e-01 2.149036377668380737e-01 1.399400830268859863e+00 1.239014714956283569e-01 4.147602617740631104e-01 9.055713564157485962e-02 5.157061852514743805e-03 3.271863460540771484e-01 1.270745694637298584e-01 7.150491476058959961e-01 2.431952953338623047e-01 -2.490474432706832886e-01 -3.327503800392150879e-01 8.050579428672790527e-01 6.180680990219116211e-01 3.120303750038146973e-01 -8.941901475191116333e-02 1.888407021760940552e-01 -6.485286355018615723e-02 4.676715731620788574e-01 5.036374926567077637e-01 6.708420515060424805e-01 1.091377377510070801e+00 2.729225456714630127e-01 4.918506145477294922e-01 -5.698263645172119141e-02 1.746006906032562256e-01 1.981378644704818726e-01 2.692547142505645752e-01 6.106265783309936523e-01 2.695602476596832275e-01 7.503368854522705078e-01 2.335539162158966064e-01 7.428937554359436035e-01 1.790300458669662476e-01 5.440058112144470215e-01 2.155746519565582275e-01 1.229995116591453552e-01 4.411180317401885986e-02 -9.631276130676269531e-01 8.702983856201171875e-01 8.227539062500000000e-01 1.374196410179138184e+00 3.355075046420097351e-02 4.397142827510833740e-01 -9.335622191429138184e-02 2.692415118217468262e-01
3.008304834365844727e-01 7.359689474105834961e-02 3.309813439846038818e-01 -4.673110246658325195e-01 6.695692986249923706e-02 3.743583858013153076e-01 4.062989652156829834e-01 -1.219201534986495972e-01 2.227209061384201050e-01 -8.286743760108947754e-01 -3.428124263882637024e-02 2.072826027870178223e-02 -5.942695736885070801e-01 -8.175405859947204590e-01 -4.861609637737274170e-01 9.069802612066268921e-02 5.794005990028381348e-01 -3.057082742452621460e-02 5.211288332939147949e-01 1.758588850498199463e-01 -4.318277537822723389e-01 3.903761804103851318e-01 4.962758421897888184e-01 -8.684932440519332886e-02 -2.369069159030914307e-01 2.354713678359985352e-01 -1.682769805192947388e-01 1.147593706846237183e-01 -4.492279589176177979e-01 2.591090202331542969e-01 -9.055174887180328369e-02 4.058234766125679016e-02 -2.343805879354476929e-01 4.071451127529144287e-01 -4.101743102073669434e-01 -8.420041948556900024e-02 7.557863742113113403e-02 1.736128777265548706e-01 1.323429588228464127e-02 -7.164402306079864502e-02 3.564649447798728943e-02 2.840399742126464844e-01 3.566112369298934937e-02 2.828432917594909668e-01 9.433171898126602173e-02 8.101683855056762695e-02 -4.760064184665679932e-01 -6.692869961261749268e-02 7.438697665929794312e-02 6.581153869628906250e-01 4.286169707775115967e-01 -6.679180264472961426e-01 -2.113328874111175537e-01 -9.056157618761062622e-02 -1.361958980560302734e-01 3.628101050853729248e-01 -2.868696749210357666e-01 3.110716640949249268e-01 6.983002275228500366e-02 -1.538258939981460571e-01 -4.941477477550506592e-01 -3.546919822692871094e-01 -2.899634838104248047e-01 -2.903725504875183105e-01 -7.317695617675781250e-01 -5.237710848450660706e-02 2.963412106037139893e-01 -3.102409541606903076e-01 -1.158729568123817444e-01 1.954572647809982300e-01 6.059181094169616699e-01 -6.216104626655578613e-01 -1.639107614755630493e-01 -2.713672816753387451e-01 8.097478747367858887e-01 -1.918412744998931885e-01 -1.488684117794036865e-01 5.487253665924072266e-01 -2.968939952552318573e-02 1.340819448232650757e-01 -6.430110335350036621e-02 1.376263499259948730e+00 -1.248657852411270142e-01 3.014621436595916748e-01 2.050947099924087524e-01 -4.301776587963104248e-01 2.519932389259338379e-02 -3.646368086338043213e-01 7.588354945182800293e-01 3.817650377750396729e-01 -1.876996457576751709e-02 -1.798934638500213623e-01 -8.548380434513092041e-02 -2.697166204452514648e-01 3.352595269680023193e-01 4.930053949356079102e-01 2.347355484962463379e-01 -1.583283692598342896e-01 -1.556099355220794678e-01 7.274522185325622559e-01 -1.741212308406829834e-01 -2.664577066898345947e-01 -4.626289606094360352e-01 4.726949930191040039e-01 9.119336605072021484e-01 -3.931363523006439209e-01 -1.064025517553091049e-02 -7.886870950460433960e-02 -1.845301128923892975e-02 -2.619598507881164551e-01 -3.728029504418373108e-02 -9.026764333248138428e-02 6.096163392066955566e-01 -5.243195295333862305e-01 2.463501691818237305e-01 2.533538043498992920e-01 1.960877180099487305e-01 -4.695090949535369873e-01 3.028500378131866455e-01 3.297237753868103027e-01 3.121653795242309570e-01 8.126115798950195312e-02 2.088615149259567261e-01 2.824267148971557617e-01 -1.458340436220169067e-01 -2.053231000900268555e-01 3.283634781837463379e-01 1.775965690612792969e-01
-6.525084376335144043e-02 -1.821232289075851440e-01 5.031561106443405151e-02 4.493474960327148438e-02 -4.848570525646209717e-01 -6.853331923484802246e-01 7.769899070262908936e-02 -5.160283446311950684e-01 3.686246871948242188e-01 -4.702537953853607178e-01 -1.677745878696441650e-01 -3.582895034924149513e-03 -2.495800256729125977e-01 1.843163669109344482e-01 -8.640591502189636230e-01 -3.297328054904937744e-01 -2.195059880614280701e-02 1.668674349784851074e-01 -1.005153637379407883e-02 -2.012396603822708130e-01 -1.927052736282348633e-01 2.749693989753723145e-01 -2.790822386741638184e-01 -4.292909801006317139e-01 8.122014254331588745e-02 -6.676273047924041748e-02 -1.963796913623809814e-01 2.009091824293136597e-01 -2.090959399938583374e-01 -2.155868411064147949e-01 -5.065662264823913574e-01 2.211870104074478149e-01 -5.039948225021362305e-01 -2.755077779293060303e-01 1.000021323561668396e-01 -4.193381071090698242e-01 -4.528532028198242188e-01 4.569443166255950928e-01 1.129436194896697998e-01 1.905322521924972534e-01 -3.757502734661102295e-01 2.688612788915634155e-02 -4.495190978050231934e-01 -3.807694613933563232e-01 -2.117139548063278198e-01 -3.598423302173614502e-01 -1.170915842056274414e+00 2.936043143272399902e-01 -3.931164145469665527e-01 -1.189831048250198364e-01 -4.147058725357055664e-01 -1.633344888687133789e-01 -3.496101796627044678e-01 2.964477837085723877e-01 2.041442692279815674e-01 1.392809003591537476e-01 5.491559505462646484e-01 8.387338370084762573e-02 8.393780887126922607e-02 2.641302943229675293e-01 -1.355574429035186768e-01 -9.241957217454910278e-02 4.251189529895782471e-01 -1.134238690137863159e-01 -6.450965255498886108e-02 -3.982835114002227783e-01 -1.246292050927877426e-02 -6.436429023742675781e-01 9.507910162210464478e-02 -6.236077547073364258e-01 3.767951130867004395e-01 1.124052181839942932e-01 -1.109653152525424957e-03 -6.131926178932189941e-02 2.632852494716644287e-01 -5.007483810186386108e-02 -1.889602690935134888e-01 4.274268448352813721e-02 5.383312702178955078e-01 1.808258891105651855e-01 7.657247781753540039e-02 1.105563759803771973e+00 1.051263511180877686e-01 6.843658685684204102e-01 -2.618726193904876709e-01 -3.126394450664520264e-01 -5.893025547266006470e-02 -2.054206132888793945e-01 8.420177102088928223e-01 2.113163769245147705e-01 -3.460081815719604492e-01 -2.434989660978317261e-01 1.740823150612413883e-03 -6.780046820640563965e-01 9.920178353786468506e-02 -1.434640139341354370e-01 -9.254037588834762573e-02 -4.000336229801177979e-01 -5.466554164886474609e-01 3.329133391380310059e-01 -1.372781395912170410e-01 -5.834811180830001831e-02 -8.144745826721191406e-01 1.348582506179809570e-01 1.046187996864318848e+00 1.920825242996215820e-01 -5.479914695024490356e-02 -1.663972996175289154e-02 -5.386015772819519043e-01 -2.620605826377868652e-01 -2.688795030117034912e-01 -2.192509770393371582e-01 -3.254060447216033936e-01 -1.047770455479621887e-01 -2.822463959455490112e-02 -1.301259920001029968e-02 -1.018732562661170959e-01 6.120133027434349060e-02 -8.251857757568359375e-02 -5.674421787261962891e-02 5.120247006416320801e-01 -8.379252254962921143e-02 1.967195421457290649e-01 5.031241104006767273e-02 -1.824503988027572632e-01 -2.214309722185134888e-01 -3.416635096073150635e-01 1.226880624890327454e-01
1.325853615999221802e-01 -3.548294305801391602e-01 6.848804652690887451e-02 1.467109560966491699e+00 3.635358810424804688e-01 -1.090334534645080566e+00 5.345133543014526367e-01 3.036409020423889160e-01 1.174672096967697144e-01 7.578991651535034180e-01 2.713530659675598145e-01 4.132206141948699951e-01 1.513305399566888809e-02 2.892792522907257080e-01 -8.452569246292114258e-01 -6.340114474296569824e-01 5.955387949943542480e-01 -2.774229645729064941e-01 1.078650653362274170e-01 3.282341733574867249e-02 -4.522371888160705566e-01 7.256491780281066895e-01 6.084176898002624512e-01 -7.165965437889099121e-02 -6.079526543617248535e-01 -8.725765347480773926e-02 5.364071726799011230e-01 4.409469068050384521e-01 -3.012101948261260986e-01 3.804368078708648682e-01 -1.306927055120468140e-01 9.438719153404235840e-01 7.888695597648620605e-02 -2.353545427322387695e-01 -1.588895320892333984e-01 -5.217612981796264648e-01 5.927633643150329590e-01 7.839624881744384766e-01 -2.019031941890716553e-01 1.851570904254913330e-01 4.927570521831512451e-01 8.156279474496841431e-02 3.978165239095687866e-02 1.576379686594009399e-01 7.264985144138336182e-02 1.884363591670989990e-01 1.171528935432434082e+00 3.515082001686096191e-01 3.820712268352508545e-01 -2.956054173409938812e-02 1.561021506786346436e-01 3.680213093757629395e-01 -1.158574074506759644e-01 4.849096387624740601e-02 2.931740283966064453e-01 3.916663229465484619e-01 6.207346320152282715e-01 2.288692295551300049e-01 3.648595809936523438e-01 4.984461069107055664e-01 4.684533774852752686e-01 3.768399953842163086e-01 6.871259808540344238e-01 7.873596549034118652e-01 -2.280170619487762451e-01 9.510939568281173706e-02 1.032579243183135986e-01 3.421084284782409668e-01 2.540979683399200439e-01 -2.483164817094802856e-01 -4.005306959152221680e-02 4.667915403842926025e-01 1.399868577718734741e-01 5.318995714187622070e-01 4.218901097774505615e-01 6.568518877029418945e-01 -1.902530528604984283e-02 4.799391925334930420e-01 4.834299087524414062e-01 3.741005063056945801e-01 1.290469616651535034e-01 4.279600977897644043e-01 -3.647689148783683777e-02 9.728327989578247070e-01 -1.733634807169437408e-02 5.041194148361682892e-03 -7.347359508275985718e-02 1.780710369348526001e-02 6.393777132034301758e-01 2.525895535945892334e-01 5.618082880973815918e-01 8.831462860107421875e-01 6.514070630073547363e-01 1.044106721878051758e+00 1.377981752157211304e-01 5.659298896789550781e-01 1.999607086181640625e-01 5.524925142526626587e-02 -1.359503269195556641e-01 -2.562037110328674316e-01 8.418708294630050659e-02 2.610185444355010986e-01 -1.497311592102050781e-01 2.999560832977294922e-01 -1.191613316535949707e+00 1.644669473171234131e-01 9.723206609487533569e-02 2.737959325313568115e-01 7.960851788520812988e-01 -1.482275575399398804e-01 -2.488917857408523560e-01 4.629370868206024170e-01 3.187611699104309082e-01 -6.194122433662414551e-01 2.350505143404006958e-01 1.183559656143188477e+00 3.200714886188507080e-01 -4.323051124811172485e-02 -7.146655023097991943e-02 -7.278577685356140137e-01 -2.155511528253555298e-01 3.483584225177764893e-01 -8.447877168655395508e-01 -3.089610934257507324e-01 -5.400578975677490234e-01 -2.104200571775436401e-01 -3.899742662906646729e-01 6.833335161209106445e-01
-4.015194773674011230e-01 -7.038608938455581665e-02 2.393662780523300171e-01 2.999065220355987549e-01 4.221058189868927002e-01 1.491298973560333252e-01 -2.823858559131622314e-01 1.813844591379165649e-01 -4.132820367813110352e-01 -9.754952788352966309e-01 -3.226799070835113525e-01 -1.142022162675857544e-01 2.053784579038619995e-01 4.169639945030212402e-01 -2.429042309522628784e-01 -2.627676725387573242e-01 2.596348524093627930e-01 1.913706511259078979e-01 4.433009773492813110e-02 -5.670145899057388306e-02 -4.363676309585571289e-01 1.845909208059310913e-01 5.384485721588134766e-01 -2.037977874279022217e-01 -7.025389671325683594e-01 2.908354103565216064e-01 1.553124040365219116e-01 3.189291059970855713e-01 -2.627865644171833992e-03 -7.187837958335876465e-01 -5.672512054443359375e-01 4.003029465675354004e-01 -2.048442512750625610e-01 -4.014614224433898926e-02 -4.584460332989692688e-02 -1.964142769575119019e-01 -8.584048151969909668e-01 -9.832870215177536011e-02 5.754121541976928711e-01 -3.940632566809654236e-02 1.629748344421386719e-01 1.299415975809097290e-01 3.241434693336486816e-01 2.095883339643478394e-01 -1.410028785467147827e-01 -1.142507568001747131e-01 -2.790506780147552490e-01 -4.621407389640808105e-02 -2.476961016654968262e-01 6.351697444915771484e-02 5.370244383811950684e-01 -6.792387366294860840e-01 -1.913346350193023682e-01 -2.449599802494049072e-01 1.510684043169021606e-01 -6.373808979988098145e-01 5.668349862098693848e-01 -2.350469678640365601e-01 -1.570712774991989136e-01 3.622256219387054443e-01 -9.191137738525867462e-03 -9.093280136585235596e-02 -4.194175004959106445e-01 -3.736808300018310547e-01 2.459665983915328979e-01 3.235458582639694214e-02 -1.673635989427566528e-01 -9.764441847801208496e-01 2.799159884452819824e-01 -1.500133872032165527e-01 2.602526247501373291e-01 5.545949563384056091e-02 9.161513298749923706e-02 3.620983958244323730e-01 -7.759308815002441406e-02 2.530803978443145752e-01 4.934517443180084229e-01 1.705820262432098389e-01 2.300781458616256714e-01 -6.329265236854553223e-01 8.568726778030395508e-01 1.145600080490112305e+00 3.130695819854736328e-01 9.248078465461730957e-01 -3.872679546475410461e-02 -2.893398702144622803e-01 3.217872679233551025e-01 3.624999523162841797e-01 6.133074164390563965e-01 7.033340930938720703e-01 -6.856062263250350952e-02 2.639407813549041748e-01 6.481912732124328613e-02 -7.251771688461303711e-01 5.021592974662780762e-01 5.809314846992492676e-01 -1.790599226951599121e-01 -7.853096723556518555e-02 -4.107872843742370605e-01 -4.136057496070861816e-01 1.788779348134994507e-01 -7.750922441482543945e-02 2.230962961912155151e-01 1.843863353133201599e-02 1.111178278923034668e+00 -5.085781812667846680e-01 -4.052276164293289185e-02 2.771395444869995117e-01 6.502778083086013794e-02 -2.871866524219512939e-01 -5.053348541259765625e-01 -1.129259467124938965e-01 9.984956383705139160e-01 -8.232124447822570801e-01 2.584679424762725830e-01 1.750803887844085693e-01 -2.941340804100036621e-01 -5.261794924736022949e-01 6.734272092580795288e-02 2.886041998863220215e-01 8.123127222061157227e-01 4.222531914710998535e-01 -9.380223602056503296e-02 5.075455904006958008e-01 -3.714437782764434814e-01 -4.345526397228240967e-01 -7.638212293386459351e-02 -4.696317911148071289e-01
1.570369154214859009e-01 3.343915343284606934e-01 3.352044441271573305e-04 2.372586578130722046e-01 6.398688554763793945e-01 3.431742638349533081e-02 4.554460942745208740e-01 2.685660421848297119e-01 2.429483085870742798e-01 -6.172747015953063965e-01 3.031273186206817627e-02 -9.562331438064575195e-02 5.960894823074340820e-01 -9.338267892599105835e-02 8.561704307794570923e-02 -2.459568530321121216e-01 3.948062956333160400e-01 8.584377914667129517e-02 5.644862055778503418e-01 2.364386469125747681e-01 1.359599828720092773e-01 5.918794274330139160e-01 4.477494359016418457e-01 1.351419985294342041e-01 -3.924770355224609375e-01 1.781828701496124268e-01 4.926319792866706848e-02 2.532803118228912354e-01 3.910349011421203613e-01 2.176145911216735840e-01 2.679397761821746826e-01 2.596990764141082764e-01 7.832642644643783569e-02 2.292328923940658569e-01 2.953320145606994629e-01 1.193372812122106552e-02 -3.361476212739944458e-02 2.948019504547119141e-01 8.381336927413940430e-02 4.516783654689788818e-01 2.435955107212066650e-01 2.255880981683731079e-01 1.830793023109436035e-01 2.732472717761993408e-01 -3.711780011653900146e-01 5.895866751670837402e-01 -4.671196341514587402e-01 3.761679828166961670e-01 4.821995198726654053e-01 3.646741211414337158e-01 3.083716630935668945e-01 5.241260528564453125e-01 1.291146427392959595e-01 4.397870302200317383e-01 7.539722323417663574e-02 5.835185050964355469e-01 5.069701075553894043e-01 1.953923851251602173e-01 2.298721373081207275e-01 1.499550342559814453e-01 1.405978109687566757e-02 4.122113883495330811e-01 7.391301542520523071e-02 -2.475434541702270508e-01 5.465618968009948730e-01 6.412095427513122559e-01 1.334937959909439087e-01 2.321808785200119019e-01 2.333311885595321655e-01 1.745829880237579346e-01 1.500954180955886841e-01 -6.171675864607095718e-03 1.708141863346099854e-01 2.729622423648834229e-01 1.049131304025650024e-01 3.154863119125366211e-01 5.531385540962219238e-01 3.091952204704284668e-01 5.111331939697265625e-01 8.449075222015380859e-01 5.111359357833862305e-01 4.699185788631439209e-01 2.910883426666259766e-01 3.805911540985107422e-01 4.421856701374053955e-01 2.016047388315200806e-01 4.081737101078033447e-01 -4.304659962654113770e-01 3.845502734184265137e-01 -1.564719080924987793e-01 3.120487630367279053e-01 -9.482742100954055786e-02 3.045946657657623291e-01 -1.502958387136459351e-01 6.719796061515808105e-01 1.141807734966278076e-01 5.012141466140747070e-01 1.288171112537384033e-01 1.497714072465896606e-01 1.864072866737842560e-02 3.493709862232208252e-02 2.991632185876369476e-02 5.423357486724853516e-01 2.480189353227615356e-01 8.774265646934509277e-02 2.240277081727981567e-01 2.271180786192417145e-02 3.915284872055053711e-01 4.005550444126129150e-01 1.181487515568733215e-01 6.585751175880432129e-01 4.715795814990997314e-01 1.040904879570007324e+00 -1.419956889003515244e-02 4.230112433433532715e-01 -8.180209994316101074e-02 5.227606296539306641e-01 3.798751533031463623e-01 4.849734902381896973e-01 -2.645471394062042236e-01 4.776509404182434082e-01 4.903964400291442871e-01 -2.257374115288257599e-02 5.136444568634033203e-01 4.652774035930633545e-01 4.493599534034729004e-01 3.970167636871337891e-01 6.553082466125488281e-01
3.704088553786277771e-02 3.082783818244934082e-01 5.951017141342163086e-01 6.610357016324996948e-02 3.799318075180053711e-01 4.029060900211334229e-01 -6.997697055339813232e-03 1.346243023872375488e-01 3.756302893161773682e-01 -6.866196393966674805e-01 2.329354435205459595e-01 -3.773761689662933350e-01 4.432181417942047119e-01 7.313588261604309082e-02 8.371689170598983765e-02 -5.925369635224342346e-02 1.720349341630935669e-01 2.742352187633514404e-01 3.758415114134550095e-03 3.266682028770446777e-01 3.131923452019691467e-02 1.589563935995101929e-01 6.110124588012695312e-01 1.852681338787078857e-01 -1.661074310541152954e-01 4.218621850013732910e-01 2.857710123062133789e-01 2.936857342720031738e-01 3.776845335960388184e-01 3.630302473902702332e-02 -1.220812797546386719e-01 2.424950599670410156e-01 8.779931813478469849e-02 8.001861721277236938e-02 -1.257116049528121948e-01 6.080062389373779297e-01 -2.676522731781005859e-01 1.748314686119556427e-02 -1.956255733966827393e-01 -2.758093737065792084e-02 7.184075117111206055e-01 3.279628977179527283e-02 6.771391630172729492e-01 6.750245392322540283e-02 -1.461834181100130081e-02 3.074455261230468750e-01 -6.804364919662475586e-02 3.582956194877624512e-01 6.745833158493041992e-02 6.279404163360595703e-01 3.880318719893693924e-03 3.384113013744354248e-01 3.919496238231658936e-01 6.266944408416748047e-01 -2.459823191165924072e-01 1.119673252105712891e-01 8.769837021827697754e-01 -5.872242897748947144e-02 2.097678631544113159e-01 3.527695238590240479e-01 -3.790507838129997253e-02 -1.017016395926475525e-01 6.186790019273757935e-02 4.436759054660797119e-01 2.932786345481872559e-01 2.557924091815948486e-01 2.052349504083395004e-03 -2.393552064895629883e-01 4.024147093296051025e-01 -2.113073319196701050e-01 2.080328166484832764e-01 -1.890847235918045044e-01 3.404587805271148682e-01 -9.905343502759933472e-02 1.109466075897216797e+00 8.133968710899353027e-02 3.318420052528381348e-02 3.678381443023681641e-01 6.649725884199142456e-02 -3.228814527392387390e-02 5.319213867187500000e-01 3.079033195972442627e-01 4.654388427734375000e-01 -1.468334347009658813e-01 2.220131643116474152e-02 6.059688702225685120e-02 -2.204860299825668335e-01 -5.207360163331031799e-02 1.143786072731018066e+00 2.412521243095397949e-01 8.306628465652465820e-02 -1.672589927911758423e-01 5.222012102603912354e-02 5.025871992111206055e-01 -5.916168093681335449e-01 4.325383901596069336e-01 5.994423031806945801e-01 4.686084091663360596e-01 -1.276478618383407593e-01 1.251767426729202271e-01 1.358034610748291016e-01 -4.036361277103424072e-01 -4.932954534888267517e-02 7.235087156295776367e-01 8.407941460609436035e-01 1.005902051925659180e+00 -9.104084223508834839e-02 7.819113135337829590e-01 1.693592965602874756e-01 7.831969112157821655e-02 -3.018054366111755371e-01 5.256617069244384766e-01 2.845393717288970947e-01 -1.236098557710647583e-01 4.425977766513824463e-01 -1.915706098079681396e-01 3.023445792496204376e-02 -1.594036221504211426e-01 -1.323470324277877808e-01 2.748888134956359863e-01 1.267444133758544922e+00 -4.190978035330772400e-02 2.119690924882888794e-01 1.864163279533386230e-01 2.094950377941131592e-01 2.413209974765777588e-01 2.534908056259155273e-01 2.915092706680297852e-01
5.159279704093933105e-01 -4.155417531728744507e-02 6.548069715499877930e-01 4.277704060077667236e-01 7.534682154655456543e-01 2.168368101119995117e-01 8.298755884170532227e-01 3.782064914703369141e-01 3.114504218101501465e-01 -4.643985927104949951e-01 4.723667204380035400e-01 -1.142954528331756592e-01 8.249741792678833008e-02 3.749253749847412109e-01 -4.928520321846008301e-01 -1.809217780828475952e-01 3.482945859432220459e-01 3.457543551921844482e-01 5.568673014640808105e-01 6.025949716567993164e-01 1.877583563327789307e-01 4.297730922698974609e-01 8.527112603187561035e-01 3.109357357025146484e-01 1.045539081096649170e-01 6.040135622024536133e-01 1.746286153793334961e-01 1.905335783958435059e-01 2.805515825748443604e-01 3.297336995601654053e-01 3.839900195598602295e-01 5.976588726043701172e-01 1.894272118806838989e-01 3.820303976535797119e-01 3.503379523754119873e-01 6.825825572013854980e-02 -1.580958515405654907e-01 2.970322370529174805e-01 -7.387645542621612549e-02 2.827909588813781738e-01 4.613132476806640625e-01 3.126596808433532715e-01 -4.351203143596649170e-01 1.834977269172668457e-01 1.746182441711425781e-01 1.002237915992736816e+00 -9.370402693748474121e-01 4.161940813064575195e-01 4.056216180324554443e-01 1.084974765777587891e+00 9.893681854009628296e-02 4.598215520381927490e-01 1.289886832237243652e-01 1.713645011186599731e-01 3.155968785285949707e-01 6.439169645309448242e-01 6.067741513252258301e-01 6.913838386535644531e-01 4.849938452243804932e-01 -6.871985644102096558e-02 2.354955226182937622e-01 4.768538773059844971e-01 -2.400865778326988220e-02 2.759656012058258057e-01 2.791692316532135010e-01 2.216069549322128296e-01 -1.572231203317642212e-02 -1.306828707456588745e-01 -1.189274042844772339e-01 -4.016440212726593018e-01 4.283963739871978760e-01 -1.006981283426284790e-01 3.769974410533905029e-01 -4.914155229926109314e-02 5.552817881107330322e-02 5.906704068183898926e-01 -3.129614591598510742e-01 6.946858167648315430e-01 4.517637193202972412e-01 1.723557561635971069e-01 8.020345866680145264e-02 8.176617622375488281e-01 4.793938696384429932e-01 3.905579149723052979e-01 -3.849133476614952087e-02 9.148145467042922974e-02 2.410316020250320435e-01 5.204560160636901855e-01 3.330794870853424072e-01 4.513719305396080017e-02 9.102454781532287598e-01 5.704759955406188965e-01 2.571702003479003906e-01 1.208274438977241516e-01 2.377639263868331909e-01 2.857537567615509033e-01 4.661043584346771240e-01 -2.509941458702087402e-01 3.206580579280853271e-01 6.349301338195800781e-02 5.144814848899841309e-01 -2.506673932075500488e-01 4.499252140522003174e-01 3.857103884220123291e-01 -6.492800116539001465e-01 2.565732002258300781e-01 -3.880218267440795898e-01 4.800032377243041992e-01 8.746647834777832031e-02 -2.801681458950042725e-01 8.885528892278671265e-02 9.127469062805175781e-01 1.128284573554992676e+00 2.246790081262588501e-01 5.804492160677909851e-02 2.630296051502227783e-01 5.343944430351257324e-01 4.415451884269714355e-01 1.204238533973693848e-01 6.075571179389953613e-01 -2.636126875877380371e-01 5.262035727500915527e-01 1.486343145370483398e-01 1.189586758613586426e+00 2.967287003993988037e-01 4.534691870212554932e-01 3.340043127536773682e-01 1.078220307826995850e-01
2.331378459930419922e-01 -4.277575612068176270e-01 4.823009669780731201e-01 -8.935566544532775879e-01 -2.165303826332092285e-01 -4.495162144303321838e-02 3.466630280017852783e-01 7.757392525672912598e-01 2.302341461181640625e-01 -4.009949266910552979e-01 4.143973588943481445e-01 3.183162808418273926e-01 -3.689687848091125488e-01 2.734056413173675537e-01 9.448761492967605591e-02 2.675785422325134277e-01 7.202990055084228516e-01 2.329981476068496704e-01 2.205695360898971558e-01 5.058830976486206055e-01 2.192601263523101807e-01 1.066416382789611816e+00 7.646672129631042480e-01 3.321510553359985352e-01 -3.942547366023063660e-02 8.118502497673034668e-01 4.489242136478424072e-01 2.452811449766159058e-01 3.864302039146423340e-01 4.803224280476570129e-02 3.615190684795379639e-01 -1.502268016338348389e-01 3.100882470607757568e-01 1.998980939388275146e-01 6.244429945945739746e-01 4.963940382003784180e-01 3.710379824042320251e-02 -4.343563020229339600e-01 5.107790231704711914e-01 4.353097379207611084e-01 8.779121637344360352e-01 2.167875617742538452e-01 5.354617256671190262e-03 4.555828571319580078e-01 -4.342108666896820068e-01 1.161478832364082336e-01 -5.729366466403007507e-02 5.582742691040039062e-01 2.296086102724075317e-01 6.215536594390869141e-01 2.689968347549438477e-01 1.808820366859436035e-01 -1.951249869307503104e-04 3.212043941020965576e-01 6.638073176145553589e-02 3.018234968185424805e-01 4.959373176097869873e-01 -3.495302200317382812e-01 -1.067592278122901917e-01 6.109147667884826660e-01 5.293112397193908691e-01 7.702761888504028320e-01 2.512848973274230957e-01 5.637377500534057617e-02 1.111340299248695374e-01 2.138266861438751221e-01 5.400197952985763550e-02 -2.115451842546463013e-01 8.829520642757415771e-02 8.541221022605895996e-01 -1.227285861968994141e-01 -6.679039001464843750e-01 1.527898013591766357e-01 3.175928592681884766e-01 2.444232255220413208e-01 2.886006236076354980e-01 -4.208239316940307617e-01 7.288391590118408203e-01 -1.615699529647827148e-01 5.414754152297973633e-01 -5.660969614982604980e-01 2.075898349285125732e-01 9.316642582416534424e-02 5.730396509170532227e-01 2.471574954688549042e-02 3.032495677471160889e-01 3.601425588130950928e-01 1.221548691391944885e-01 8.497116565704345703e-01 5.363271012902259827e-02 4.447562694549560547e-01 5.305386185646057129e-01 5.085117220878601074e-01 -1.442991495132446289e-01 7.897031307220458984e-01 2.784589231014251709e-01 2.284182757139205933e-01 -2.303344756364822388e-01 3.262505233287811279e-01 1.609623283147811890e-01 -4.986828565597534180e-02 3.311219215393066406e-01 2.164844572544097900e-01 -1.064973846077919006e-01 -3.959099948406219482e-02 -1.600691117346286774e-02 -4.042073488235473633e-01 4.070854187011718750e-01 3.209649026393890381e-01 3.778612613677978516e-01 -1.309987995773553848e-02 4.158129990100860596e-01 6.413056850433349609e-01 2.864330410957336426e-01 3.304471671581268311e-01 -5.221685767173767090e-01 2.383743077516555786e-01 1.956116706132888794e-01 -9.456750750541687012e-02 4.435650408267974854e-01 7.741580009460449219e-01 6.632764339447021484e-01 5.730348825454711914e-01 2.594284415245056152e-01 3.523232340812683105e-01 4.989123046398162842e-01 2.600061297416687012e-01 4.932938516139984131e-01
9.731779247522354126e-02 -3.713871240615844727e-01 2.446852996945381165e-02 -4.340362250804901123e-01 4.012713432312011719e-01 -4.180203080177307129e-01 -1.124142296612262726e-02 5.098277330398559570e-01 -9.574459493160247803e-02 5.057253316044807434e-02 5.489353537559509277e-01 -1.168050616979598999e-02 6.060652062296867371e-02 1.033905986696481705e-02 -1.829639375209808350e-01 -5.254560336470603943e-02 1.781888604164123535e-01 1.059757471084594727e-01 -7.146884500980377197e-02 1.171093061566352844e-01 2.028996050357818604e-01 9.072186350822448730e-01 5.322586297988891602e-01 1.267998516559600830e-01 -3.909882009029388428e-01 7.247646450996398926e-01 6.506903171539306641e-01 -1.025872305035591125e-01 2.007342278957366943e-01 7.454736232757568359e-01 -5.468235611915588379e-01 5.058999657630920410e-01 2.786023914813995361e-01 5.452502891421318054e-02 4.853438138961791992e-01 2.648714482784271240e-01 -4.203479290008544922e-01 -8.441799879074096680e-02 -3.652202188968658447e-01 1.579120755195617676e-01 6.166474819183349609e-01 1.483702380210161209e-02 -5.218589901924133301e-01 2.038436681032180786e-01 -7.744016498327255249e-02 1.849135756492614746e-01 6.557746976613998413e-02 -3.405287489295005798e-02 5.581981539726257324e-01 1.502259969711303711e-01 8.136394619941711426e-02 6.828983128070831299e-02 -3.412820100784301758e-01 2.991068661212921143e-01 1.363043487071990967e-01 5.344314575195312500e-01 3.197267651557922363e-01 3.606239259243011475e-01 7.729906439781188965e-01 -2.551782131195068359e-01 -3.151564002037048340e-01 4.188509285449981689e-02 6.414309144020080566e-02 5.983201265335083008e-01 5.337823033332824707e-01 1.931847333908081055e-01 7.929619401693344116e-02 -2.805090248584747314e-01 2.105667740106582642e-01 -2.856632173061370850e-01 5.767505168914794922e-01 -1.632205545902252197e-01 -3.271167576313018799e-01 8.190504312515258789e-01 -2.187006026506423950e-01 4.122435152530670166e-01 -2.056565880775451660e-01 -1.194258481264114380e-01 3.519438505172729492e-01 7.058517932891845703e-01 6.460867524147033691e-01 1.906727313995361328e+00 4.250600337982177734e-01 5.821023583412170410e-01 -1.467682272195816040e-01 -4.104723334312438965e-01 2.453518658876419067e-01 4.003469645977020264e-01 7.419084906578063965e-01 9.272804111242294312e-02 4.880759418010711670e-01 -5.950069054961204529e-02 8.440615236759185791e-02 -3.702043788507580757e-03 3.417873978614807129e-01 2.072021365165710449e-01 3.554788827896118164e-01 4.614866971969604492e-01 -2.047668993473052979e-01 6.205973625183105469e-01 2.572751939296722412e-01 4.119019508361816406e-01 -7.369727641344070435e-02 -5.503868460655212402e-01 1.063711047172546387e+00 1.676697134971618652e-01 -4.249896109104156494e-01 -1.358533836901187897e-02 -2.548844814300537109e-01 2.844334766268730164e-02 -2.041873335838317871e-01 4.450462460517883301e-01 7.630176544189453125e-01 -1.309377849102020264e-01 4.320141375064849854e-01 -3.513046205043792725e-01 9.962389618158340454e-02 4.458780959248542786e-02 4.816798269748687744e-01 2.054535597562789917e-01 -6.605860590934753418e-01 6.838440895080566406e-01 4.845952391624450684e-01 8.399138450622558594e-01 5.109102725982666016e-01 4.926448687911033630e-03 2.055592462420463562e-02 -5.589726194739341736e-02
-2.707819044589996338e-01 1.004544924944639206e-02 -2.630115449428558350e-01 -1.825092196464538574e+00 3.270554244518280029e-01 -7.775998860597610474e-02 -3.341738283634185791e-01 1.875225603580474854e-01 6.938549340702593327e-04 -2.297084480524063110e-01 -1.352936625480651855e-01 2.950254380702972412e-01 3.842707574367523193e-01 9.675499051809310913e-02 -1.126800775527954102e-01 -3.865724503993988037e-01 1.127565801143646240e-01 -3.884209096431732178e-01 -2.200267612934112549e-01 -1.839774996042251587e-01 -1.414985279552638531e-03 6.715093851089477539e-01 4.918445348739624023e-01 -3.982427120208740234e-01 -3.384406864643096924e-01 2.153988368809223175e-02 -1.350765377283096313e-01 -4.506671726703643799e-01 2.343223690986633301e-01 -8.424666523933410645e-02 -2.882701456546783447e-01 3.010403811931610107e-01 -1.563386768102645874e-01 1.410384476184844971e-01 1.015287935733795166e-01 -3.723021149635314941e-01 -2.299870550632476807e-01 -3.726532459259033203e-01 -5.631535500288009644e-02 -1.125508174300193787e-01 9.913277626037597656e-02 -6.255393475294113159e-02 7.992462813854217529e-02 5.353633686900138855e-02 -4.817705452442169189e-01 -4.021545127034187317e-02 -5.869154334068298340e-01 -2.003052979707717896e-01 7.204220443964004517e-02 -4.653238952159881592e-01 -4.589924961328506470e-02 -3.650724887847900391e-01 2.987855114042758942e-03 -3.075691163539886475e-01 -3.314988613128662109e-01 -7.402112334966659546e-02 -2.614017128944396973e-01 1.294772773981094360e-01 -1.250903867185115814e-02 -7.042893767356872559e-02 -7.473914623260498047e-01 -3.359796702861785889e-01 -5.186181887984275818e-02 4.062823653221130371e-01 -9.139572381973266602e-01 4.065200313925743103e-02 -6.594000756740570068e-02 -2.894251346588134766e-01 -1.112249717116355896e-01 -4.102272540330886841e-02 5.957862138748168945e-01 1.747918277978897095e-01 6.068447232246398926e-02 4.039979875087738037e-01 -6.201950311660766602e-01 -3.583194315433502197e-01 -2.769612371921539307e-01 6.177510023117065430e-01 -1.753523573279380798e-02 3.600644171237945557e-01 7.286440730094909668e-01 9.659206867218017578e-01 1.594108343124389648e-01 7.480424046516418457e-01 -2.776260077953338623e-01 -2.272279113531112671e-01 1.471815854310989380e-01 -3.206237256526947021e-01 9.480302035808563232e-02 2.624013721942901611e-01 -2.437783926725387573e-01 -2.291537076234817505e-01 -2.878862321376800537e-01 -8.992148935794830322e-02 5.872967839241027832e-01 -1.886865049600601196e-01 2.088355273008346558e-01 -3.245268762111663818e-01 -3.247102200984954834e-01 9.583653509616851807e-02 -1.347596477717161179e-02 -3.882059454917907715e-01 -2.876019477844238281e-01 -3.425186872482299805e-01 -2.068754471838474274e-02 6.251040101051330566e-01 -7.958885431289672852e-01 -2.334244698286056519e-01 -5.305849313735961914e-01 1.906113624572753906e-01 -7.200587540864944458e-02 2.677863240242004395e-01 3.222724199295043945e-01 -1.774965822696685791e-01 3.290233910083770752e-01 -5.241973400115966797e-01 1.733236610889434814e-01 -2.342859953641891479e-01 -3.807294368743896484e-01 -1.462489180266857147e-02 -7.891647517681121826e-02 7.555539160966873169e-02 -4.631451070308685303e-01 4.376603662967681885e-02 -1.334823369979858398e-01 -3.874287009239196777e-02 -1.176842823624610901e-01 -3.476983904838562012e-01
-5.835074186325073242e-02 -4.969617128372192383e-01 -1.174334958195686340e-01 -1.103988170623779297e+00 -1.639411598443984985e-01 -4.710580706596374512e-01 -2.305890917778015137e-01 -2.275187522172927856e-01 -1.144395098090171814e-01 -8.793522715568542480e-01 1.142573356628417969e-01 -2.963784039020538330e-01 1.092797666788101196e-01 5.918727815151214600e-02 -8.493053317070007324e-01 2.592905461788177490e-01 -2.947673946619033813e-02 2.065955288708209991e-02 1.964953541755676270e-01 -1.871838271617889404e-01 -1.247376129031181335e-01 5.386701822280883789e-01 1.653820276260375977e-01 -1.942631155252456665e-01 -1.027668237686157227e+00 -4.048520922660827637e-01 -3.368135690689086914e-01 -2.946257293224334717e-01 -2.634863136336207390e-03 5.927965417504310608e-02 -3.333102166652679443e-01 1.188026666641235352e-01 -1.808499991893768311e-01 -6.192781329154968262e-01 1.568633913993835449e-01 -3.861902058124542236e-01 -4.641869366168975830e-01 1.704552769660949707e-01 6.739827990531921387e-01 -3.764369711279869080e-02 1.297871828079223633e+00 -1.502316296100616455e-01 1.658554226160049438e-01 -2.877102792263031006e-01 5.181138589978218079e-02 -1.124491244554519653e-01 -2.395500242710113525e-01 4.927743691951036453e-03 2.343993932008743286e-01 -1.094925478100776672e-01 -9.808906354010105133e-03 -8.110219836235046387e-01 8.253921568393707275e-02 1.014347095042467117e-02 -2.927560508251190186e-01 7.325881719589233398e-02 3.267471492290496826e-01 3.976675122976303101e-02 3.481041789054870605e-01 -2.189948260784149170e-01 -1.778147816658020020e-01 -3.458142876625061035e-01 -9.356219321489334106e-02 -1.475011706352233887e-01 -3.267028033733367920e-01 -4.098078012466430664e-01 1.769599169492721558e-01 -4.185687303543090820e-01 -5.039561167359352112e-02 2.317316681146621704e-01 -3.586116731166839600e-01 -5.562596321105957031e-01 -2.926789224147796631e-01 1.624222099781036377e-01 -1.084044799208641052e-01 3.742869198322296143e-01 -1.713187396526336670e-01 -2.000002115964889526e-01 1.091428473591804504e-01 8.311871439218521118e-03 9.000855498015880585e-03 -1.951081678271293640e-02 4.326881766319274902e-01 8.485022783279418945e-01 -3.647558093070983887e-01 -5.051869153976440430e-01 8.537704497575759888e-02 -3.049522340297698975e-01 6.348910927772521973e-01 -2.085765004158020020e-01 -2.415089607238769531e-01 -5.376736521720886230e-01 2.498239092528820038e-02 -4.589279294013977051e-01 -2.592785060405731201e-01 6.956703662872314453e-01 -3.394381403923034668e-01 -5.026829242706298828e-01 -2.531647309660911560e-02 -5.352325439453125000e-01 -3.966717422008514404e-01 -1.605427414178848267e-01 -3.399038016796112061e-01 1.563020646572113037e-01 -1.191257908940315247e-01 1.869444847106933594e-01 -4.772162139415740967e-01 -1.847736239433288574e-01 -6.877286434173583984e-01 -3.734073638916015625e-01 6.940975040197372437e-02 -1.840636879205703735e-02 5.900053381919860840e-01 -6.144872903823852539e-01 4.892482608556747437e-02 -5.694466233253479004e-01 -3.486196100711822510e-01 -6.078818440437316895e-01 2.673100829124450684e-01 -1.720350682735443115e-01 -3.165985047817230225e-01 -1.610074937343597412e-01 3.458858430385589600e-01 4.216993749141693115e-01 -1.160985827445983887e+00 -5.040920376777648926e-01 4.030306041240692139e-01 -4.235088825225830078e-02
6.021524071693420410e-01 5.573877692222595215e-01 7.040378451347351074e-01 -1.107678651809692383e+00 8.187310099601745605e-01 2.687314748764038086e-01 4.048848748207092285e-01 2.520948648452758789e-01 3.989813923835754395e-01 -4.925450980663299561e-01 3.229796513915061951e-02 -1.389703899621963501e-01 2.068894505500793457e-01 3.797292709350585938e-01 2.867352366447448730e-01 7.754873037338256836e-01 1.254483610391616821e-01 -1.106353849172592163e-01 5.424966812133789062e-01 3.070478439331054688e-01 8.837003707885742188e-01 3.158622384071350098e-01 8.412499427795410156e-01 7.283266186714172363e-01 1.536030024290084839e-01 6.729597449302673340e-01 6.454942226409912109e-01 -5.421206951141357422e-01 6.597144007682800293e-01 6.269161701202392578e-01 2.760336995124816895e-01 1.650033593177795410e-01 2.231484055519104004e-01 3.083356618881225586e-01 6.572043895721435547e-01 2.257902920246124268e-01 -4.572804868221282959e-01 1.308529824018478394e-01 -5.164354294538497925e-02 3.274196982383728027e-01 6.767255663871765137e-01 6.694324016571044922e-01 7.533856034278869629e-01 1.767571568489074707e-01 -5.284247547388076782e-02 6.939314603805541992e-01 1.009910255670547485e-01 -1.685090363025665283e-01 -1.655964106321334839e-01 5.303120613098144531e-01 4.889988899230957031e-02 7.031786441802978516e-01 7.877205014228820801e-01 1.660679280757904053e-01 2.450136691331863403e-01 3.937011659145355225e-01 2.792276740074157715e-01 2.494157403707504272e-01 -2.391468174755573273e-02 -7.611810415983200073e-02 2.134599834680557251e-01 9.237572550773620605e-02 -1.628163754940032959e-01 1.336744576692581177e-01 4.909417033195495605e-01 -5.814000964164733887e-02 3.354012072086334229e-01 2.086689472198486328e-01 3.300288021564483643e-01 2.335089743137359619e-01 1.093070432543754578e-01 -8.939014375209808350e-02 2.779830992221832275e-01 4.847623705863952637e-01 8.364623188972473145e-01 2.282259166240692139e-01 1.740567386150360107e-02 4.503512084484100342e-01 2.119663804769515991e-01 6.094917654991149902e-01 -1.134665086865425110e-01 1.129218339920043945e+00 3.020155727863311768e-01 -5.768630653619766235e-02 -9.863410890102386475e-02 -8.163004368543624878e-02 -2.921164333820343018e-01 -1.867865324020385742e-01 5.248520970344543457e-01 3.469548821449279785e-01 6.523955464363098145e-01 2.154867500066757202e-01 -1.692731231451034546e-01 -2.674545943737030029e-01 7.680177688598632812e-01 -3.624500632286071777e-01 5.655608177185058594e-01 1.689210534095764160e-01 -3.033547401428222656e-01 3.136534392833709717e-01 3.108565509319305420e-02 -1.947195231914520264e-01 1.304011493921279907e-01 -1.845519393682479858e-01 1.018899321556091309e+00 3.577300310134887695e-01 -1.898549348115921021e-01 -4.984869658946990967e-01 3.725342452526092529e-01 2.287606298923492432e-01 -1.395375281572341919e-01 1.581453830003738403e-01 1.083413481712341309e+00 -5.214995741844177246e-01 6.259855031967163086e-01 -1.393725350499153137e-02 3.626273572444915771e-01 -4.147149920463562012e-01 -1.308780312538146973e-01 3.890538215637207031e-01 1.444690376520156860e-01 7.589020729064941406e-01 1.027240380644798279e-01 5.877212285995483398e-01 3.267269432544708252e-01 5.607445836067199707e-01 2.021620571613311768e-01 1.929870992898941040e-01
