1.396404504776000977e-01
-5.071791410446166992e-01
2.641094475984573364e-02
-3.698235377669334412e-03
7.146220654249191284e-03
-1.429377794265747070e+00
-1.490619685500860214e-02
2.016071602702140808e-02
4.630721732974052429e-02
4.267597571015357971e-02
-4.679028689861297607e-02
1.523511707782745361e-01
1.354598160833120346e-02
3.468891605734825134e-02
-8.832504153251647949e-01
6.283481419086456299e-02
1.026294827461242676e-01
-3.843224793672561646e-02
-8.381769992411136627e-03
-2.980843884870409966e-03
-6.579933166503906250e-01
1.124548763036727905e-01
7.376312464475631714e-02
1.107194796204566956e-01
-6.832900457084178925e-03
3.783624991774559021e-02
2.847527898848056793e-02
1.508359517902135849e-02
-6.699689198285341263e-03
1.116779968142509460e-01
-1.751494477503001690e-03
2.906326353549957275e-01
1.478433012962341309e-01
-3.978292271494865417e-02
-2.519656345248222351e-02
5.180010199546813965e-02
-5.140781775116920471e-02
-3.289624303579330444e-02
-1.386332273483276367e+00
2.706206776201725006e-02
-2.667489349842071533e-01
3.756403028964996338e-01
3.062836825847625732e-02
-2.559882588684558868e-02
1.098956838250160217e-01
3.056683018803596497e-02
-7.220384478569030762e-01
1.817509829998016357e-01
-1.453395001590251923e-02
6.862789392471313477e-02
3.392632305622100830e-02
-4.668313078582286835e-03
-1.825765706598758698e-02
6.251158565282821655e-02
1.554051507264375687e-02
2.592343464493751526e-02
2.379327714443206787e-01
4.146811664104461670e-01
-1.043163463473320007e-01
-9.496429935097694397e-03
1.611958071589469910e-02
3.066602945327758789e-01
1.500699222087860107e-01
5.773816630244255066e-02
-2.476855367422103882e-02
8.667056262493133545e-02
2.924864925444126129e-02
-4.542261362075805664e-03
5.596617981791496277e-02
1.001755893230438232e-01
3.032243847846984863e-01
-1.048739068210124969e-02
1.476435828953981400e-02
5.508996546268463135e-02
1.011565094813704491e-03
-6.390156596899032593e-02
5.013126507401466370e-02
9.028636664152145386e-02
1.443577110767364502e-01
2.347976987948641181e-04
-2.219766855239868164e+00
1.153376698493957520e-02
-4.273938536643981934e-01
1.176411285996437073e-02
-8.964254260063171387e-01
4.125143215060234070e-02
-2.421679720282554626e-02
1.302621886134147644e-02
5.911404266953468323e-02
-2.309867925941944122e-02
-8.926576934754848480e-03
2.890765666961669922e-02
2.211341857910156250e-01
-8.105533197522163391e-03
2.343565598130226135e-02
8.640070259571075439e-02
-1.009497512131929398e-02
1.379013061523437500e-01
-2.915201485157012939e-01
1.577355340123176575e-02
3.108620643615722656e-02
8.445154130458831787e-02
2.011785842478275299e-02
-1.485416293144226074e+00
2.218832820653915405e-02
8.932995796203613281e-02
-1.888284459710121155e-04
-5.720078945159912109e-01
-2.734543383121490479e-01
1.389310415834188461e-02
1.215904485434293747e-02
-3.673516958951950073e-02
7.382631767541170120e-03
-2.565006315708160400e-01
3.704741969704627991e-02
-7.955275475978851318e-02
6.604291498661041260e-02
1.604021899402141571e-02
8.330498635768890381e-02
1.825927495956420898e-01
5.339311063289642334e-02
-1.255141478031873703e-02
1.392645239830017090e-01
-2.736993074417114258e+00
-4.703326523303985596e-02
3.186763823032379150e-01
1.420483887195587158e-01
1.839052736759185791e-01
