2.762046270072460175e-02 8.467949181795120239e-02 -8.647185564041137695e-02 -1.398905813694000244e-01 -6.538406014442443848e-02 -2.147318124771118164e-01 -1.023767888545989990e-01 2.542223632335662842e-01 2.542522847652435303e-01 2.470101714134216309e-01 -6.758085638284683228e-02 -1.460155006498098373e-02 1.795979887247085571e-01 8.252686262130737305e-02 -1.679366976022720337e-01 1.854773014783859253e-01 2.309924215078353882e-01 1.080964058637619019e-01 9.243467450141906738e-02 2.651976980268955231e-02 8.121395856142044067e-02 -3.226812183856964111e-02 -2.464653551578521729e-01 1.475390344858169556e-01 1.101686060428619385e-01 5.915375798940658569e-02 1.224076151847839355e-01 -1.546574532985687256e-01 6.348017603158950806e-02 -3.125272691249847412e-02 -6.382471323013305664e-02 2.038303017616271973e-01 9.991305321455001831e-02 2.362945079803466797e-01 7.154072076082229614e-02 -1.208959496580064297e-03 1.664144545793533325e-01 -1.428845226764678955e-01 -1.494439244270324707e-01 2.600579559803009033e-01 2.736796252429485321e-02 -1.041105315089225769e-01 2.283637523651123047e-01 8.396838605403900146e-02 -1.114196255803108215e-01 5.285603925585746765e-02 -1.740804612636566162e-01 -2.268749773502349854e-01 1.418991386890411377e-01 -1.326446831226348877e-01 1.324102729558944702e-01 1.217552125453948975e-01 -1.157812252640724182e-01 1.723782569169998169e-01 2.274008542299270630e-01 7.086752355098724365e-02 6.403084099292755127e-02 -2.146085053682327271e-01 1.696965843439102173e-01 -1.545664370059967041e-01 2.488599717617034912e-01 -6.222162023186683655e-02 -1.393868178129196167e-01 5.094535276293754578e-02 1.535110175609588623e-01 1.540391296148300171e-01 -1.859791725873947144e-01 2.759750783443450928e-01 -3.357618302106857300e-02 4.640799388289451599e-02 3.836390748620033264e-02 1.318970471620559692e-01 1.717755198478698730e-02 -1.742721945047378540e-01 -2.487910091876983643e-01 5.638569220900535583e-02 2.935596406459808350e-01 2.069283574819564819e-01 -8.568444848060607910e-02 1.707327365875244141e-01 1.818880140781402588e-01 1.638409644365310669e-01 9.882010519504547119e-02 -3.436087965965270996e-01 1.337370872497558594e-01 1.971454471349716187e-01 1.500545889139175415e-01 2.651392817497253418e-01 1.307726502418518066e-01 7.394772768020629883e-02 7.191279530525207520e-02 7.862124592065811157e-02 5.343597009778022766e-02 -1.368957161903381348e-01 -8.822094649076461792e-02 1.878076642751693726e-01 -1.901625394821166992e-01 6.827855855226516724e-02 -9.510952234268188477e-02 1.182460039854049683e-01 -8.718494325876235962e-02 -7.494601607322692871e-02 -1.144590601325035095e-01 -1.245681121945381165e-01 2.009197771549224854e-01 -2.740480899810791016e-01 -6.596130784600973129e-03 2.070908099412918091e-01 1.228497698903083801e-01 -1.214522868394851685e-01 3.115317821502685547e-01 1.267026215791702271e-01 4.673926159739494324e-02 -9.295949712395668030e-03 1.007373556494712830e-01 -8.355801925063133240e-03 2.653935253620147705e-01 1.737923622131347656e-01 6.266888231039047241e-02 -1.000187173485755920e-01 7.974173873662948608e-02 1.569074094295501709e-01 2.519994080066680908e-01 2.449888288974761963e-01 -4.705424886196851730e-03 -1.681939065456390381e-01 9.302149713039398193e-02 3.762502223253250122e-02
1.950801163911819458e-01 4.291351884603500366e-02 -2.188386470079421997e-01 -3.715828061103820801e-03 1.539186090230941772e-01 -1.966292411088943481e-01 6.858517229557037354e-02 1.269176006317138672e-01 4.082372877746820450e-03 -1.920516341924667358e-01 -4.495975747704505920e-02 -2.117190882563591003e-02 -2.688366472721099854e-01 -2.820193953812122345e-02 -5.859526619315147400e-02 -1.169549748301506042e-01 9.908843040466308594e-02 -1.701802164316177368e-01 -1.356862187385559082e-01 -1.023900043219327927e-02 -4.345709085464477539e-02 1.949937194585800171e-01 1.812380999326705933e-01 5.659797415137290955e-02 -1.720401346683502197e-01 1.399141401052474976e-01 -3.326544165611267090e-01 -2.140525728464126587e-01 -4.828896000981330872e-02 6.998763233423233032e-02 3.016724251210689545e-02 -1.531679332256317139e-01 1.501395851373672485e-01 -3.694930300116539001e-02 8.955816924571990967e-02 -1.347804367542266846e-01 1.527656614780426025e-01 -2.848860919475555420e-01 -1.530343294143676758e-01 -3.136525750160217285e-01 -1.687213033437728882e-01 -2.130401730537414551e-01 -2.331039607524871826e-01 1.956343278288841248e-02 -3.003563284873962402e-01 -2.112390995025634766e-01 -1.529953442513942719e-03 2.322089858353137970e-02 -1.660201251506805420e-01 -2.759905755519866943e-01 -2.492679357528686523e-01 8.066545426845550537e-02 -1.657746583223342896e-01 -2.663112878799438477e-01 -1.284713894128799438e-01 -1.643479913473129272e-01 -2.640114724636077881e-01 1.856457293033599854e-01 1.194042190909385681e-01 2.292559295892715454e-02 -1.621139049530029297e-01 2.502764165401458740e-01 -5.253585986793041229e-03 3.862829506397247314e-02 -6.604580581188201904e-02 -9.375914931297302246e-02 1.713309884071350098e-01 -1.275251209735870361e-01 -1.060782000422477722e-01 -1.506596654653549194e-01 9.638029336929321289e-02 -1.796516403555870056e-02 -1.690774410963058472e-02 -1.778712868690490723e-01 -9.969002008438110352e-02 8.393304795026779175e-02 -1.198491454124450684e-01 -1.543112099170684814e-03 1.563926637172698975e-01 5.502007156610488892e-02 -1.238362938165664673e-01 -2.323340475559234619e-01 -4.434074461460113525e-02 1.574744433164596558e-01 1.551313400268554688e-01 1.505012810230255127e-01 -5.387122929096221924e-02 -1.879489272832870483e-01 -1.210932806134223938e-01 8.024152368307113647e-02 -1.609976887702941895e-01 1.744387745857238770e-01 -2.383068203926086426e-01 6.730740517377853394e-02 5.411320179700851440e-02 -1.594965159893035889e-01 -1.663838773965835571e-01 -1.188352033495903015e-01 -1.837590485811233521e-01 -1.089423373341560364e-01 -1.393565535545349121e-01 -2.733052074909210205e-01 3.103893995285034180e-02 2.165388762950897217e-01 6.621261127293109894e-03 -4.925731196999549866e-02 4.432096332311630249e-02 6.472208350896835327e-02 1.233481094241142273e-01 2.160066664218902588e-01 -3.675736859440803528e-02 1.242424547672271729e-01 -2.958813607692718506e-01 9.292427450418472290e-02 4.461210966110229492e-02 -6.808464974164962769e-02 1.290014535188674927e-01 -1.209543272852897644e-01 -9.610598534345626831e-02 -3.463044166564941406e-01 -9.641199558973312378e-02 -1.604059636592864990e-01 2.248525619506835938e-01 2.246322929859161377e-01 -2.126047611236572266e-01 -1.134365722537040710e-01 2.588960528373718262e-01 1.002586167305707932e-02
5.654163658618927002e-02 9.467879310250282288e-03 -2.487917989492416382e-02 -1.768650263547897339e-01 -3.901327494531869888e-03 6.553269177675247192e-02 -5.524282902479171753e-02 1.555583775043487549e-01 -1.597438938915729523e-02 1.908374428749084473e-01 -1.761801838874816895e-01 1.140875071287155151e-01 -1.689001470804214478e-01 4.811741411685943604e-02 1.702352911233901978e-01 1.223441362380981445e-01 -2.397070266306400299e-02 -5.640618875622749329e-02 -1.252728253602981567e-01 4.389339592307806015e-03 -1.048720534890890121e-02 -3.128569424152374268e-01 1.777391731739044189e-01 -1.170942261815071106e-01 1.249052286148071289e-01 1.317064613103866577e-01 -6.030311435461044312e-02 -1.118316650390625000e-01 2.386386692523956299e-01 2.343776226043701172e-01 2.644946873188018799e-01 -1.312387436628341675e-01 -1.608976908028125763e-02 5.895033106207847595e-02 -4.598325490951538086e-02 -9.235364198684692383e-02 -1.081040203571319580e-01 -2.081996947526931763e-01 -2.932316064834594727e-02 -1.830057241022586823e-02 -1.094959303736686707e-01 -1.861939579248428345e-01 -1.132256239652633667e-01 4.607734829187393188e-02 1.641659140586853027e-01 2.505248486995697021e-01 1.991116851568222046e-01 -2.050690911710262299e-02 5.293784290552139282e-02 6.197081133723258972e-02 6.004152074456214905e-02 1.727172285318374634e-01 1.026688590645790100e-01 6.504204869270324707e-02 -1.659398823976516724e-01 1.237249467521905899e-02 -7.028169929981231689e-02 -2.939286231994628906e-01 1.429692506790161133e-01 -6.761761009693145752e-02 -8.879765868186950684e-02 -1.233112365007400513e-01 3.419193252921104431e-02 2.065311223268508911e-01 1.695401370525360107e-01 -4.375050961971282959e-02 -2.839240133762359619e-01 1.270115226507186890e-01 1.446375399827957153e-01 -3.384008770808577538e-03 9.010998904705047607e-02 3.358810395002365112e-02 -1.101420819759368896e-01 -4.169650748372077942e-02 -4.676329437643289566e-03 -1.279941350221633911e-01 -8.968656510114669800e-02 2.407410144805908203e-01 1.502333115786314011e-02 2.124416641891002655e-02 8.032833784818649292e-02 4.015143960714340210e-02 -1.584212332963943481e-01 6.231069937348365784e-02 -1.410220861434936523e-01 -2.336747944355010986e-01 1.375967264175415039e-01 -1.107588596642017365e-02 1.401663124561309814e-01 -1.446414589881896973e-01 -1.418635398149490356e-01 -2.168671488761901855e-01 -2.457166835665702820e-02 -2.186702750623226166e-02 8.605667203664779663e-02 -4.192138463258743286e-02 -2.612656652927398682e-01 4.729995876550674438e-02 2.188273221254348755e-01 6.742946803569793701e-02 2.266495674848556519e-01 6.367123872041702271e-02 -2.872267961502075195e-01 6.518974900245666504e-02 2.197618037462234497e-02 -3.497237339615821838e-02 1.174928247928619385e-01 4.526766482740640640e-03 1.148731857538223267e-01 1.143672838807106018e-01 9.725821763277053833e-02 8.428372442722320557e-02 3.234245479106903076e-01 2.077572196722030640e-01 -1.819333583116531372e-01 2.834053337574005127e-02 1.441746950149536133e-01 1.481079757213592529e-01 2.857060916721820831e-02 -3.758393973112106323e-02 -1.551552563905715942e-01 -4.761323705315589905e-02 -7.740924507379531860e-02 -1.286348998546600342e-01 -1.623946726322174072e-01 -7.465877570211887360e-03 -6.930434703826904297e-02 -2.045810371637344360e-01
-1.488109491765499115e-02 1.321633905172348022e-01 2.171104699373245239e-01 -6.092461943626403809e-02 -2.340047992765903473e-02 -1.379847973585128784e-01 2.443841695785522461e-01 -1.494831889867782593e-01 -8.430057764053344727e-02 -1.362166404724121094e-01 1.633114367723464966e-01 -2.050144225358963013e-01 1.778714731335639954e-02 -5.525672063231468201e-02 3.122596442699432373e-01 -1.603428125381469727e-01 2.110527455806732178e-01 -3.268918991088867188e-01 4.880271106958389282e-02 -1.300084441900253296e-01 2.032161504030227661e-01 -2.941229343414306641e-01 -1.819674074649810791e-01 2.204655110836029053e-01 8.174949139356613159e-02 2.835091650485992432e-01 1.951060742139816284e-01 1.593305915594100952e-01 7.178531587123870850e-02 9.209164232015609741e-02 3.189891874790191650e-01 -2.306332588195800781e-01 -7.614605873823165894e-02 -7.221470028162002563e-02 -1.243311837315559387e-01 -1.869860887527465820e-01 -2.069516628980636597e-01 1.343544758856296539e-02 2.668038308620452881e-01 1.045106202363967896e-01 -1.071892529726028442e-01 7.563645485788583755e-03 -2.523285523056983948e-02 -1.837922632694244385e-01 -1.982796341180801392e-01 1.309581398963928223e-01 2.728658318519592285e-01 -2.909557223320007324e-01 -2.716794013977050781e-01 -2.321740984916687012e-01 1.957971155643463135e-01 -2.397290468215942383e-01 -2.422345131635665894e-01 -3.761466965079307556e-02 2.221362739801406860e-01 2.236943691968917847e-01 2.179635018110275269e-01 -1.691071391105651855e-01 5.980167165398597717e-02 -2.369806021451950073e-01 1.606087684631347656e-01 -2.302379608154296875e-01 -2.136736065149307251e-01 -8.174405992031097412e-02 -1.789831668138504028e-01 2.520436048507690430e-01 -1.141065880656242371e-01 -1.731743216514587402e-01 -1.803083866834640503e-01 -1.745510101318359375e-01 2.529309988021850586e-01 8.841001987457275391e-02 2.937342971563339233e-02 -2.457710802555084229e-01 2.746986225247383118e-02 4.597732797265052795e-02 -3.621157258749008179e-02 6.458760052919387817e-02 8.125938475131988525e-02 -2.053615599870681763e-01 5.174149200320243835e-02 2.590445578098297119e-01 -1.214320957660675049e-02 2.417329102754592896e-01 -1.233643740415573120e-01 -1.522303521633148193e-01 -3.629734218120574951e-01 8.460020273923873901e-02 1.146199703216552734e-01 1.838731765747070312e-01 2.374112457036972046e-01 -1.931020319461822510e-01 -6.730071455240249634e-02 2.637360095977783203e-01 -8.257123082876205444e-02 1.295938789844512939e-01 -1.655867248773574829e-01 -2.473145425319671631e-01 1.834043562412261963e-01 2.758245468139648438e-01 4.915348254144191742e-03 -1.039565503597259521e-01 -1.446775048971176147e-01 1.917667239904403687e-01 -5.008156225085258484e-02 1.265538334846496582e-01 -8.910126984119415283e-03 -8.270734548568725586e-02 1.240534409880638123e-01 -2.315895110368728638e-01 -1.616344004869461060e-01 1.877546608448028564e-01 7.035942375659942627e-02 1.574789285659790039e-01 8.382748067378997803e-02 1.398419886827468872e-01 -7.452682405710220337e-02 -2.270613163709640503e-01 -1.040531694889068604e-01 -2.629157304763793945e-01 2.465374395251274109e-02 -1.308345198631286621e-01 -1.264801770448684692e-01 7.706905156373977661e-02 2.325397543609142303e-02 -9.977778047323226929e-02 -1.242426559329032898e-01 -2.528475821018218994e-01
5.746629554778337479e-03 3.782865405082702637e-01 1.358071416616439819e-01 1.890110038220882416e-02 -2.608931064605712891e-01 2.080268263816833496e-01 -1.637553870677947998e-01 -2.324179559946060181e-01 1.921112090349197388e-01 3.573266863822937012e-01 -2.251658588647842407e-01 -2.554837763309478760e-01 -1.265641301870346069e-01 -2.039587795734405518e-01 -1.020800471305847168e-01 -3.879707306623458862e-02 -1.902271211147308350e-01 4.061848223209381104e-01 -4.891518875956535339e-02 -1.710070669651031494e-01 2.550935745239257812e-01 -2.468889355659484863e-01 2.792732119560241699e-01 1.390138119459152222e-01 4.337199628353118896e-01 1.756773144006729126e-01 -5.907796695828437805e-02 2.138878703117370605e-01 9.500292688608169556e-02 1.088962778449058533e-01 -1.676167100667953491e-01 -3.028034269809722900e-01 -3.039177656173706055e-01 -3.170944750308990479e-02 -1.405892670154571533e-01 -4.802669957280158997e-02 -2.688186764717102051e-01 1.906032264232635498e-01 1.007076539099216461e-02 1.697519123554229736e-01 2.898742556571960449e-01 1.342648565769195557e-01 3.264603670686483383e-03 -2.431580126285552979e-01 1.908351182937622070e-01 4.444803595542907715e-01 4.106025770306587219e-02 -1.155480444431304932e-01 1.177312657237052917e-01 -9.815070033073425293e-02 2.009609490633010864e-01 6.893856823444366455e-02 9.924607723951339722e-02 1.235415041446685791e-01 6.283196061849594116e-02 2.810150682926177979e-01 -2.160433679819107056e-02 -2.953772544860839844e-01 8.998880162835121155e-03 -2.307461053133010864e-01 -2.095701247453689575e-01 1.175852417945861816e-01 1.839334219694137573e-01 1.973549127578735352e-01 9.165218472480773926e-02 9.469627588987350464e-02 2.507920004427433014e-02 3.014983795583248138e-02 2.833349406719207764e-01 -2.234515175223350525e-02 -2.355932593345642090e-01 -1.114520505070686340e-01 1.106884628534317017e-01 2.745998501777648926e-01 -2.407363615930080414e-02 -9.370882809162139893e-02 -1.986524760723114014e-01 -4.788854718208312988e-02 2.361795455217361450e-01 -1.217232197523117065e-01 -2.559741400182247162e-02 -2.211194112896919250e-02 -3.277209773659706116e-02 2.012399882078170776e-01 -3.432091176509857178e-01 3.873465582728385925e-02 -8.886392414569854736e-02 2.542386651039123535e-01 2.177773863077163696e-01 1.281312257051467896e-01 -2.267489880323410034e-01 -1.040954887866973877e-01 1.068664193153381348e-01 1.003538295626640320e-01 2.953234687447547913e-02 1.592015773057937622e-01 -3.802346438169479370e-02 2.148817181587219238e-01 -7.724875118583440781e-03 7.103911787271499634e-02 7.349111884832382202e-02 5.399826169013977051e-02 1.133441403508186340e-01 -1.354105472564697266e-01 1.876564025878906250e-01 -2.500744163990020752e-01 -2.938854098320007324e-01 -1.314276903867721558e-01 8.882231079041957855e-03 -5.282127112150192261e-02 -1.927855312824249268e-01 5.494059249758720398e-02 1.586795002222061157e-01 1.294178366661071777e-01 -8.311607688665390015e-02 -4.249791800975799561e-02 -3.126171827316284180e-01 -2.449867278337478638e-01 1.595000028610229492e-01 2.698354050517082214e-02 5.243196710944175720e-02 1.141813620924949646e-01 1.910834312438964844e-01 4.730512574315071106e-02 1.518409550189971924e-01 2.385386973619461060e-01 9.383806586265563965e-02 1.550194472074508667e-01
-6.964827328920364380e-02 -2.245033979415893555e-01 8.247321099042892456e-02 2.015538662672042847e-01 -3.399195522069931030e-02 2.150802314281463623e-01 5.039489269256591797e-02 -3.260840103030204773e-02 -7.145107537508010864e-02 9.450601041316986084e-02 1.362950950860977173e-01 9.620638564229011536e-03 1.552637517452239990e-01 1.769537776708602905e-01 -2.428679913282394409e-02 1.692259311676025391e-01 5.500615015625953674e-02 1.107406988739967346e-02 -5.496216565370559692e-02 6.251654028892517090e-02 -1.487643867731094360e-01 2.285357378423213959e-02 6.953034549951553345e-02 -1.843155324459075928e-01 -1.440092641860246658e-02 1.600174456834793091e-01 -1.291011720895767212e-01 1.296996176242828369e-01 1.103895306587219238e-01 -1.603965759277343750e-01 4.480904340744018555e-02 -1.461841911077499390e-01 8.212704956531524658e-02 2.583512067794799805e-01 -4.251013323664665222e-02 -2.706191316246986389e-02 7.063741236925125122e-02 -1.233956068754196167e-01 1.455381959676742554e-01 2.403282560408115387e-02 -1.752009689807891846e-01 1.455260813236236572e-01 7.870426028966903687e-02 -8.016319572925567627e-02 1.051794290542602539e-01 -3.399953618645668030e-02 1.916848719120025635e-01 -6.021605059504508972e-02 2.260595858097076416e-01 -2.494569309055805206e-02 -1.039061397314071655e-01 2.543202042579650879e-01 -6.667754054069519043e-02 -2.376997917890548706e-01 1.552542299032211304e-01 1.095570251345634460e-01 -9.173687547445297241e-02 2.625979948788881302e-03 6.782848387956619263e-02 -1.728222519159317017e-01 -1.109202057123184204e-01 9.755314886569976807e-02 -8.552566287107765675e-04 -1.743912249803543091e-01 2.262317836284637451e-01 -1.130740046501159668e-01 1.722888499498367310e-01 -1.999118924140930176e-01 -1.478976160287857056e-01 2.183625251054763794e-01 4.435873031616210938e-02 1.519647240638732910e-01 -1.236336082220077515e-01 3.591135889291763306e-02 1.198313981294631958e-01 1.526499241590499878e-01 -1.184044927358627319e-01 9.790820628404617310e-02 -1.319181267172098160e-02 -1.286291629076004028e-01 1.680222302675247192e-01 -2.126207202672958374e-01 2.560147345066070557e-01 1.381895854137837887e-03 1.028575524687767029e-01 -1.335070282220840454e-01 1.235724017024040222e-01 -1.112861856818199158e-01 1.049581766128540039e-01 -1.587924733757972717e-02 -1.004287749528884888e-01 6.436096876859664917e-02 -3.052402473986148834e-02 7.847236096858978271e-02 -1.639874838292598724e-02 9.242823347449302673e-03 8.538953959941864014e-02 9.566383808851242065e-02 1.381194740533828735e-01 -4.289254918694496155e-02 -4.772270843386650085e-02 -7.502749562263488770e-02 -3.232415998354554176e-03 -1.306426227092742920e-01 1.154222190380096436e-01 -5.917104706168174744e-02 -5.649503320455551147e-02 2.604793012142181396e-01 -9.518186002969741821e-02 1.994005441665649414e-01 -1.232316717505455017e-01 1.848247796297073364e-01 2.095453739166259766e-01 4.561277106404304504e-02 -1.128537058830261230e-01 2.981865778565406799e-02 8.678527176380157471e-02 1.700593344867229462e-02 -5.091503635048866272e-02 2.099910229444503784e-01 8.156567066907882690e-02 1.124157682061195374e-01 2.028898149728775024e-01 1.558392643928527832e-01 -6.441792845726013184e-02 1.458964049816131592e-01 4.157396778464317322e-02 -1.152096986770629883e-01
-8.035542815923690796e-02 1.709107011556625366e-01 2.406015396118164062e-01 3.459657356142997742e-02 -3.754441440105438232e-02 -3.849435597658157349e-02 4.292158782482147217e-01 -8.120214566588401794e-03 -9.550174325704574585e-02 2.396931201219558716e-01 2.420564144849777222e-01 -1.684458740055561066e-02 -2.419259250164031982e-01 -8.144796639680862427e-02 1.324396301060914993e-02 1.218114346265792847e-01 2.420726567506790161e-01 2.398865818977355957e-01 1.054700911045074463e-01 -1.569755971431732178e-01 -1.017831265926361084e-01 -2.814281880855560303e-01 1.105303317308425903e-01 -3.041823208332061768e-01 -6.092254444956779480e-02 -1.685429364442825317e-01 -5.242140218615531921e-02 2.459565550088882446e-02 -4.691529273986816406e-02 6.140619143843650818e-02 2.880595326423645020e-01 -2.247367054224014282e-01 -2.535154521465301514e-01 1.103710830211639404e-01 -1.416253447532653809e-01 4.122736752033233643e-01 1.653816550970077515e-01 -3.999445587396621704e-02 -1.283274143934249878e-01 1.233929768204689026e-02 -1.635826677083969116e-01 1.870162226259708405e-02 -5.979195982217788696e-02 -2.123685330152511597e-01 -9.214679896831512451e-02 -1.541277915239334106e-01 -1.784390658140182495e-01 -2.236697673797607422e-01 -7.585881650447845459e-02 -8.591444790363311768e-02 3.336107125505805016e-03 1.901357471942901611e-01 -1.546376198530197144e-01 1.385312527418136597e-02 -2.456305921077728271e-01 -1.927137076854705811e-01 -1.286866664886474609e-01 -1.225402764976024628e-02 -6.665208190679550171e-02 -4.306736961007118225e-02 3.056386709213256836e-01 1.309662461280822754e-01 -1.935476511716842651e-01 -1.762466728687286377e-01 1.888766586780548096e-01 -1.239010021090507507e-01 -6.097832811065018177e-04 1.146635711193084717e-01 -6.513465940952301025e-02 1.028995402157306671e-02 1.439569890499114990e-01 1.832870692014694214e-01 1.076065674424171448e-01 1.257593482732772827e-01 1.066878661513328552e-01 2.122783511877059937e-01 2.298914492130279541e-01 -1.403963863849639893e-01 -8.897619321942329407e-03 1.071817874908447266e-01 -1.618848145008087158e-01 -1.551181226968765259e-01 1.284869611263275146e-01 4.941438883543014526e-02 -7.831220515072345734e-03 1.511313468217849731e-01 5.432542413473129272e-02 -2.702715098857879639e-01 2.644698321819305420e-01 -9.427615255117416382e-02 -1.910500824451446533e-01 8.261179178953170776e-02 2.067334353923797607e-01 -9.381595999002456665e-02 1.705639511346817017e-01 -2.423025965690612793e-01 1.816609650850296021e-01 2.621228098869323730e-01 -1.672786027193069458e-01 1.632432192564010620e-01 2.621590793132781982e-01 -1.698998808860778809e-01 1.990033127367496490e-02 1.990639567375183105e-01 2.584755122661590576e-01 3.058160282671451569e-02 1.509310454130172729e-01 1.772427260875701904e-01 3.860228359699249268e-01 -2.256016880273818970e-01 -9.746449440717697144e-02 6.044883280992507935e-02 1.225126907229423523e-01 1.199945062398910522e-01 2.909705042839050293e-01 1.631347835063934326e-01 2.794959209859371185e-02 -1.020495593547821045e-01 -1.153086349368095398e-01 -4.607807844877243042e-02 -8.627412468194961548e-02 -6.787297874689102173e-02 2.148256748914718628e-01 1.293693482875823975e-01 2.424040138721466064e-01 1.505924165248870850e-01 6.385700404644012451e-02 1.248601302504539490e-01
1.211970746517181396e-01 -3.030188083648681641e-01 -4.802108108997344971e-01 -2.809452414512634277e-01 2.938772551715373993e-02 8.859796822071075439e-02 5.702601373195648193e-02 -3.514868617057800293e-01 2.063886523246765137e-01 4.204472061246633530e-03 1.392420083284378052e-01 3.070349991321563721e-01 -2.388100177049636841e-01 -1.739273965358734131e-02 -1.534521430730819702e-01 1.199734658002853394e-01 2.423263490200042725e-01 -1.829324811697006226e-01 2.097710967063903809e-02 -1.552444249391555786e-01 4.192759841680526733e-02 2.238663733005523682e-01 -4.890607893466949463e-01 -1.446535438299179077e-01 -2.339084744453430176e-01 9.419444948434829712e-02 9.276034310460090637e-03 1.583577394485473633e-01 -1.879263371229171753e-01 -2.335763722658157349e-01 2.760371565818786621e-01 -3.319842740893363953e-02 -1.482376009225845337e-01 9.373094141483306885e-02 1.148877516388893127e-01 3.356799781322479248e-01 3.092781305313110352e-01 -6.306941062211990356e-02 -3.946961462497711182e-02 -4.665474966168403625e-02 -2.268507778644561768e-01 2.002316713333129883e-01 -3.666771948337554932e-01 2.359578460454940796e-01 -4.117474853992462158e-01 -5.539591610431671143e-02 8.439738303422927856e-02 2.409479022026062012e-01 8.742278814315795898e-02 -2.920160889625549316e-01 -1.239648610353469849e-01 3.860512673854827881e-01 -8.758420124650001526e-03 -2.484266459941864014e-01 5.261443555355072021e-02 -2.173318564891815186e-01 -1.484116464853286743e-01 2.667640447616577148e-01 -2.093067169189453125e-01 8.007518947124481201e-02 2.164044827222824097e-01 4.118084907531738281e-01 -1.928187757730484009e-01 -2.988638281822204590e-01 2.227213792502880096e-02 -3.285521864891052246e-01 -2.863509356975555420e-01 -1.180483773350715637e-01 3.200780600309371948e-02 1.942129433155059814e-01 -3.430404514074325562e-02 2.190286517143249512e-01 -1.002486124634742737e-01 -4.251004382967948914e-02 -3.258196115493774414e-01 7.232305407524108887e-02 5.974791571497917175e-02 -1.141863465309143066e-01 -5.522045865654945374e-02 5.174622312188148499e-02 2.827027440071105957e-01 -4.308116734027862549e-01 1.652460694313049316e-01 1.164442077279090881e-01 2.991716563701629639e-01 -1.953578740358352661e-01 2.491676956415176392e-01 6.763342767953872681e-02 4.408334940671920776e-02 -1.685336977243423462e-01 -2.026745527982711792e-01 -9.699663519859313965e-02 -3.708106875419616699e-01 -2.314915806055068970e-01 1.818539202213287354e-01 1.128138154745101929e-01 -2.830714583396911621e-01 8.208905346691608429e-03 -5.129386112093925476e-02 -1.705451756715774536e-01 -2.317982353270053864e-02 -1.357152014970779419e-01 -3.514331206679344177e-02 -2.096630819141864777e-02 -1.217044889926910400e-02 2.787344753742218018e-01 1.807654798030853271e-01 3.318105041980743408e-01 8.494354784488677979e-02 -1.722227931022644043e-01 1.134238466620445251e-01 -1.919958367943763733e-02 1.664872616529464722e-01 -1.296896338462829590e-01 -1.117717549204826355e-01 2.054900974035263062e-01 1.667614281177520752e-01 1.092260777950286865e-01 3.631136715412139893e-01 -3.260244429111480713e-02 -6.447220593690872192e-02 1.436526477336883545e-01 4.352878034114837646e-02 -8.337774872779846191e-02 -1.416148841381072998e-01 -7.338505238294601440e-02 2.868934571743011475e-01 -1.638203412294387817e-01
-1.866726279258728027e-01 -1.448021978139877319e-01 1.298765540122985840e-01 -1.094586327672004700e-01 3.079636488109827042e-03 -5.799189582467079163e-02 -2.673273980617523193e-01 -8.545324951410293579e-02 2.371934652328491211e-01 -1.097659990191459656e-01 -6.383465230464935303e-02 1.221985965967178345e-01 -3.291945531964302063e-02 -4.024991765618324280e-02 2.180984020233154297e-01 -2.804557420313358307e-02 -1.229861751198768616e-01 8.671789616346359253e-02 1.483971476554870605e-01 -2.887412346899509430e-02 7.511032372713088989e-02 1.523667126893997192e-01 -6.815569847822189331e-02 1.114966273307800293e-01 2.853552699089050293e-01 -2.988828122615814209e-01 7.823560386896133423e-02 2.529470622539520264e-01 -1.172592118382453918e-01 -1.362902224063873291e-01 -3.586955666542053223e-01 1.826484054327011108e-01 -2.305148541927337646e-02 7.481613755226135254e-02 8.483617007732391357e-02 6.377112865447998047e-02 -3.362939655780792236e-01 1.972796469926834106e-01 1.452803015708923340e-01 1.133186891674995422e-01 3.422502875328063965e-01 1.628597676753997803e-01 -2.706883251667022705e-01 -9.711865335702896118e-02 2.451579570770263672e-01 1.608859002590179443e-01 -3.322653472423553467e-02 1.537488400936126709e-01 1.888750642538070679e-01 -2.214994430541992188e-01 -2.576545812189579010e-02 1.208163499832153320e-01 -1.919188797473907471e-01 -1.133736521005630493e-01 2.148152142763137817e-02 3.356201648712158203e-01 2.717850506305694580e-01 1.550304144620895386e-01 4.663232713937759399e-02 2.808676064014434814e-01 -2.242070287466049194e-01 -6.245777942240238190e-03 5.702910572290420532e-02 1.172722689807415009e-02 1.577042937278747559e-01 1.195665150880813599e-01 -6.437351927161216736e-03 1.178596839308738708e-01 -1.443321108818054199e-01 -6.275718659162521362e-02 -3.084037005901336670e-01 -2.040064632892608643e-01 9.157288819551467896e-02 2.724933922290802002e-01 2.370247095823287964e-01 -1.432564854621887207e-01 -5.155864357948303223e-02 4.337002523243427277e-03 -2.728969156742095947e-01 4.689608234912157059e-03 -1.955433338880538940e-01 -1.822716444730758667e-01 -1.532485634088516235e-01 1.347200274467468262e-01 -1.482205986976623535e-01 -9.773317724466323853e-03 1.423506140708923340e-01 -9.009519964456558228e-02 -4.328500013798475266e-03 -2.469839751720428467e-01 8.127207309007644653e-02 -6.812094151973724365e-02 1.182098537683486938e-01 4.794734716415405273e-02 -1.583090126514434814e-01 -1.875260770320892334e-01 3.123289160430431366e-02 1.485497802495956421e-01 -3.406618908047676086e-02 5.502349697053432465e-03 -1.468643695116043091e-01 3.694151639938354492e-01 6.281522661447525024e-02 -8.159928023815155029e-02 1.554435789585113525e-01 -2.473828196525573730e-01 1.365998014807701111e-02 4.498764127492904663e-02 -3.277036249637603760e-01 -3.276455402374267578e-01 9.532636962831020355e-03 -1.995415836572647095e-01 1.779132932424545288e-01 5.280421301722526550e-02 -3.957797586917877197e-02 -1.239811256527900696e-01 -2.136805206537246704e-01 2.000187486410140991e-01 -7.233701180666685104e-04 -2.394436001777648926e-01 -2.229191064834594727e-01 1.491107493638992310e-01 3.465080857276916504e-01 -7.431557029485702515e-02 -8.386890590190887451e-02 3.197038769721984863e-01 6.844012439250946045e-02 -4.800803959369659424e-02
1.350334882736206055e-01 -2.270603179931640625e-01 -4.375839233398437500e-02 8.600031584501266479e-02 -2.462428249418735504e-02 2.686258852481842041e-01 8.854258805513381958e-02 -5.242150276899337769e-02 1.369724720716476440e-01 3.949160277843475342e-01 -1.075802966952323914e-01 -1.279342323541641235e-01 -1.188597455620765686e-01 1.564438343048095703e-01 -1.654833927750587463e-02 6.089967116713523865e-02 7.590790092945098877e-02 2.660692930221557617e-01 1.315028816461563110e-01 2.816215623170137405e-03 1.967522948980331421e-01 -1.227208971977233887e-01 7.064126431941986084e-02 9.635327011346817017e-02 -8.198229223489761353e-02 -1.050726324319839478e-01 -8.104392886161804199e-02 1.937791556119918823e-01 3.541606292128562927e-02 -3.176539018750190735e-02 -2.208517119288444519e-02 5.422870069742202759e-02 -1.258834451436996460e-01 2.427947372198104858e-01 -9.168858081102371216e-02 -1.250965297222137451e-01 4.983857646584510803e-02 -7.395421713590621948e-02 1.276923865079879761e-01 -1.224201023578643799e-01 1.268814690411090851e-02 2.634145319461822510e-01 -1.847151070833206177e-01 -1.651913076639175415e-01 -8.767811954021453857e-02 2.954439818859100342e-01 3.252522647380828857e-01 -1.045442596077919006e-01 -3.889039531350135803e-02 3.266230821609497070e-01 1.563592851161956787e-01 -1.537989079952239990e-01 8.404174447059631348e-02 5.002177134156227112e-02 -7.850130647420883179e-02 -2.880609221756458282e-02 3.384528309106826782e-02 1.755258142948150635e-01 1.635922193527221680e-01 6.751650571823120117e-02 4.181721247732639313e-03 1.895248591899871826e-01 3.291653692722320557e-01 -8.087246119976043701e-02 5.864443629980087280e-02 4.775708913803100586e-02 3.822173550724983215e-02 1.700333654880523682e-01 -2.277027815580368042e-02 4.635121440514922142e-04 -1.392053067684173584e-01 -7.382863014936447144e-02 1.514551937580108643e-01 9.857995063066482544e-02 -1.821122616529464722e-01 4.095978289842605591e-02 -1.395741701126098633e-01 1.404650956392288208e-01 -1.189742013812065125e-01 1.529758423566818237e-01 -3.200612962245941162e-01 -9.224280714988708496e-02 -2.217135429382324219e-01 -6.746561080217361450e-02 1.860715448856353760e-01 -5.612613633275032043e-02 1.068902909755706787e-01 7.485980540513992310e-02 -1.853016391396522522e-02 -1.041542142629623413e-01 -6.798204779624938965e-02 -5.449605360627174377e-02 1.536627858877182007e-01 2.462275922298431396e-01 -1.968591660261154175e-01 -2.730607092380523682e-01 -1.165850982069969177e-01 2.197079807519912720e-01 1.600949615240097046e-01 1.697276085615158081e-01 1.608945429325103760e-01 -6.988589465618133545e-02 -1.886420249938964844e-01 -1.679302155971527100e-01 1.154614426195621490e-02 -2.009106427431106567e-01 6.583376973867416382e-02 -1.885147392749786377e-01 1.971949040889739990e-01 3.232702240347862244e-02 2.888211235404014587e-02 -1.713593900203704834e-01 3.153289556503295898e-01 -1.466055512428283691e-01 -2.570078708231449127e-02 -7.775166630744934082e-02 1.989082396030426025e-01 -1.698631346225738525e-01 1.883006244897842407e-01 9.910783916711807251e-02 -1.826543211936950684e-01 -8.075582981109619141e-02 1.152897030115127563e-01 2.580567821860313416e-02 -9.884511679410934448e-02 3.647896051406860352e-01 1.892304569482803345e-01 1.944873668253421783e-02
-2.199983894824981689e-01 6.359571963548660278e-02 -8.454922586679458618e-02 -1.329188793897628784e-01 2.015660256147384644e-01 9.016004204750061035e-02 -1.125877574086189270e-01 1.911581903696060181e-01 -9.413468651473522186e-03 -6.110193207859992981e-02 -1.439008414745330811e-01 -5.218114703893661499e-02 1.506062299013137817e-01 -1.784995645284652710e-01 -1.623809188604354858e-01 -1.609657891094684601e-02 1.715192347764968872e-01 -1.987910270690917969e-02 -9.063870459794998169e-02 2.566937208175659180e-01 1.870416477322578430e-02 3.267184495925903320e-01 9.856461733579635620e-02 1.843442022800445557e-01 -1.876271516084671021e-01 1.056288629770278931e-01 2.996813356876373291e-01 1.148292794823646545e-01 1.433493103832006454e-02 4.689891356974840164e-03 -9.760984778404235840e-02 1.032854095101356506e-01 1.868423521518707275e-01 -2.134851515293121338e-01 1.212866529822349548e-01 9.137752652168273926e-02 1.676016151905059814e-01 -8.166192471981048584e-02 -2.527835667133331299e-01 -5.832139030098915100e-02 -1.249987110495567322e-01 -3.101580142974853516e-01 4.479534327983856201e-01 -6.676727533340454102e-02 1.756489723920822144e-01 -1.901589483022689819e-01 2.772561311721801758e-01 -6.367304921150207520e-02 -1.280617266893386841e-01 2.270725369453430176e-01 1.456760913133621216e-01 -7.398126274347305298e-02 -1.283625885844230652e-02 3.463780581951141357e-01 -9.048039093613624573e-03 -2.009556144475936890e-01 1.776169389486312866e-01 -1.483978480100631714e-01 -9.709972888231277466e-02 -1.656503826379776001e-01 -2.221117354929447174e-02 2.049859799444675446e-02 6.787004321813583374e-02 1.223798319697380066e-01 1.638208329677581787e-01 1.484220102429389954e-02 -1.052473708987236023e-01 -7.441721856594085693e-02 9.332520514726638794e-02 -1.470098048448562622e-01 8.353162556886672974e-02 2.410117164254188538e-02 3.150646686553955078e-01 -1.798023581504821777e-01 -1.666582077741622925e-01 -5.823503807187080383e-02 1.781766861677169800e-01 1.813315670005977154e-03 5.664833262562751770e-02 -9.410182945430278778e-03 1.480121612548828125e-01 4.893399029970169067e-02 -3.065741062164306641e-02 1.698188036680221558e-01 3.024591319262981415e-02 -1.995491087436676025e-01 -1.185467317700386047e-01 3.069508969783782959e-01 -1.307778060436248779e-01 1.013904288411140442e-01 9.636536985635757446e-02 -1.146567910909652710e-01 -8.320241421461105347e-02 -2.067199051380157471e-01 -1.236833781003952026e-01 3.315133452415466309e-01 2.023893743753433228e-01 1.802746504545211792e-01 -1.225556880235671997e-01 -8.301298320293426514e-02 3.068370930850505829e-02 -4.634466487914323807e-03 -4.321899637579917908e-02 -2.175076119601726532e-02 -1.098897755146026611e-01 4.431109130382537842e-02 1.294369101524353027e-01 -5.569512397050857544e-02 -1.101560816168785095e-01 3.139565587043762207e-01 2.926617562770843506e-01 -1.502669006586074829e-01 1.883648037910461426e-01 -1.907089650630950928e-01 2.812409102916717529e-01 -1.839796453714370728e-01 1.808731257915496826e-01 -7.030421495437622070e-02 1.445656120777130127e-01 6.789880245923995972e-02 1.940777748823165894e-01 -8.908961713314056396e-02 2.062231302261352539e-01 1.376847773790359497e-01 3.561685234308242798e-02 1.020868718624114990e-01 1.150241196155548096e-01 6.055772304534912109e-03
-1.867183297872543335e-02 2.482505291700363159e-01 1.758096814155578613e-01 -4.568747803568840027e-02 -2.129716426134109497e-01 1.482191681861877441e-01 9.844202548265457153e-03 -7.319343090057373047e-02 -1.307037621736526489e-01 3.038661777973175049e-01 -1.453810371458530426e-02 2.167387753725051880e-01 2.323248796164989471e-02 2.090610414743423462e-01 -2.732680737972259521e-01 6.467696279287338257e-02 2.113269455730915070e-02 1.724583655595779419e-01 2.326301485300064087e-01 2.410886436700820923e-01 -1.319617927074432373e-01 -2.132721990346908569e-01 -1.537806242704391479e-01 3.678657114505767822e-02 -8.546694368124008179e-02 7.683750987052917480e-02 -7.138035446405410767e-02 -5.618792027235031128e-02 7.775054872035980225e-02 2.497023046016693115e-01 3.613107278943061829e-02 -3.126861155033111572e-02 -2.120617330074310303e-01 1.592690944671630859e-01 -1.637628823518753052e-01 1.198946386575698853e-01 6.736437231302261353e-02 1.056396067142486572e-01 5.957579612731933594e-02 -2.011093683540821075e-02 1.878975927829742432e-01 -1.080336421728134155e-01 3.362268954515457153e-02 2.006136626005172729e-02 -6.977644562721252441e-02 1.101686730980873108e-01 -4.023934528231620789e-02 -3.420426324009895325e-02 1.566874682903289795e-01 2.456994727253913879e-02 -3.014898113906383514e-02 5.282204225659370422e-02 2.012161910533905029e-01 -1.421150658279657364e-02 7.104494422674179077e-02 -1.196723654866218567e-01 -2.090097591280937195e-02 8.923797309398651123e-02 -2.820648252964019775e-01 9.779456257820129395e-02 -1.113056391477584839e-01 2.233680337667465210e-01 -1.749060750007629395e-01 -1.254275906831026077e-02 1.750412397086620331e-02 1.361788362264633179e-01 -2.204681038856506348e-01 -3.139195740222930908e-01 7.897065579891204834e-02 6.118514575064182281e-03 -2.533930838108062744e-01 -6.832708138972520828e-03 3.021663427352905273e-01 1.229168251156806946e-01 -8.174279332160949707e-02 -8.384690433740615845e-02 1.668043136596679688e-01 -7.706669718027114868e-02 1.600146293640136719e-02 -2.221499085426330566e-01 1.056054756045341492e-01 1.233826950192451477e-01 4.759010672569274902e-01 8.578933775424957275e-02 1.851475238800048828e-01 -2.530286274850368500e-02 3.003188222646713257e-02 -1.954491436481475830e-01 -1.316210776567459106e-01 -2.089913934469223022e-01 -1.010595336556434631e-01 9.823860228061676025e-02 -2.231398373842239380e-01 1.186837069690227509e-02 5.790758877992630005e-02 -1.021154224872589111e-02 -1.496728509664535522e-01 -6.850596517324447632e-02 -2.023544013500213623e-01 -2.894300036132335663e-02 -1.491307467222213745e-01 -1.072515621781349182e-01 -1.664497852325439453e-01 8.539078384637832642e-02 6.452301889657974243e-02 2.393275126814842224e-02 2.025775164365768433e-01 6.504144519567489624e-02 -1.343547105789184570e-01 -1.994859278202056885e-01 3.021433763206005096e-02 1.961416602134704590e-01 2.710776403546333313e-02 -3.483511209487915039e-01 3.883842825889587402e-01 2.525515109300613403e-02 -3.048518896102905273e-01 -4.998279269784688950e-03 -1.913267374038696289e-01 6.004880648106336594e-03 -1.811540722846984863e-01 -5.951392278075218201e-02 1.812995821237564087e-01 1.961837112903594971e-01 -1.662554889917373657e-01 -1.746907830238342285e-01 2.879746854305267334e-01 3.711938112974166870e-02
-9.049876779317855835e-02 1.033802926540374756e-01 -8.615401387214660645e-02 -7.355252653360366821e-02 1.262906640768051147e-01 1.044796556234359741e-01 -3.389810025691986084e-02 2.318675369024276733e-01 1.835969984531402588e-01 -1.127477139234542847e-01 1.696596741676330566e-01 -7.004891522228717804e-03 -1.020568311214447021e-01 2.559245824813842773e-01 2.233829908072948456e-02 2.228752672672271729e-01 -6.713328510522842407e-02 -2.449258416891098022e-01 -2.324996283277869225e-03 -3.598000109195709229e-02 -1.074706465005874634e-01 1.300658844411373138e-02 -1.495956778526306152e-01 5.361350998282432556e-02 5.918734706938266754e-03 1.348879784345626831e-01 -1.297196149826049805e-01 -6.111102551221847534e-02 -1.802521944046020508e-01 -1.749189049005508423e-01 3.755608201026916504e-02 -1.114802155643701553e-02 1.500139385461807251e-01 1.376145184040069580e-01 6.378826498985290527e-02 -3.001554310321807861e-01 -2.174066156148910522e-01 3.703959984704852104e-03 2.834671549499034882e-02 1.819266825914382935e-01 1.055183485150337219e-01 1.264329403638839722e-01 2.448764890432357788e-01 1.150860264897346497e-01 -1.128061562776565552e-01 -3.284839987754821777e-01 -1.311148405075073242e-01 -1.376385428011417389e-02 2.877978086471557617e-01 -1.559373587369918823e-01 1.276274323463439941e-01 -2.770511619746685028e-02 9.964945167303085327e-02 -2.665773332118988037e-01 -8.817590028047561646e-02 5.483509227633476257e-02 1.010548472404479980e-01 1.710807830095291138e-01 -3.522378951311111450e-02 1.498213261365890503e-01 -1.615034937858581543e-01 1.409938335418701172e-01 1.621482223272323608e-01 -2.372263669967651367e-01 6.562404334545135498e-02 1.396008729934692383e-01 1.477010548114776611e-02 1.723556965589523315e-01 -4.140069335699081421e-02 5.821206606924533844e-03 -1.923187971115112305e-01 -3.660674393177032471e-02 -3.968350589275360107e-02 -5.780833307653665543e-03 -1.604650765657424927e-01 -1.326894760131835938e-01 5.298091843724250793e-02 2.414413690567016602e-01 -2.732550352811813354e-02 -1.173615753650665283e-01 -1.090417131781578064e-01 -2.887976765632629395e-01 -6.930878758430480957e-02 -1.608912646770477295e-01 1.019102782011032104e-01 1.235159486532211304e-01 1.069308221340179443e-01 2.227246761322021484e-01 1.374717652797698975e-01 6.623286008834838867e-02 2.203077450394630432e-02 1.594563722610473633e-01 3.780472278594970703e-02 -3.433911874890327454e-02 -4.564028605818748474e-02 1.779491454362869263e-01 -1.660818755626678467e-01 -9.256898192688822746e-04 2.519335150718688965e-01 -5.920865386724472046e-02 -5.230619758367538452e-02 1.093956679105758667e-01 1.610940545797348022e-01 -3.619703650474548340e-02 1.133477315306663513e-01 2.668652832508087158e-01 1.140415668487548828e-01 2.133612483739852905e-01 -2.607113122940063477e-02 4.427649453282356262e-02 -1.881178617477416992e-01 -6.739862263202667236e-03 -1.363287121057510376e-01 7.341118901968002319e-02 -1.294982731342315674e-01 -9.321522712707519531e-02 -9.434195607900619507e-02 9.380940347909927368e-03 -3.794666007161140442e-02 1.665100157260894775e-01 -2.118877619504928589e-01 2.683590352535247803e-02 2.355663031339645386e-01 1.500850170850753784e-01 1.411480754613876343e-01 -3.242946565151214600e-01 1.806623637676239014e-01 6.206312403082847595e-02
1.945377439260482788e-01 -2.556436508893966675e-02 -4.837575182318687439e-02 -2.891929447650909424e-01 3.318529725074768066e-01 -1.874828636646270752e-01 -7.366403937339782715e-02 -2.459681034088134766e-01 2.806823328137397766e-02 -2.209399342536926270e-01 -1.123923510313034058e-01 -1.005550473928451538e-01 -1.478561311960220337e-01 -3.430126234889030457e-02 3.239283561706542969e-01 2.994713187217712402e-01 -1.398469358682632446e-01 1.432086378335952759e-01 9.669525176286697388e-02 2.888746857643127441e-01 -2.323547750711441040e-01 -2.585731744766235352e-01 5.920416712760925293e-01 4.229276999831199646e-02 -2.045311331748962402e-01 -1.016177088022232056e-01 -5.582462251186370850e-02 7.025515194982290268e-03 -8.506203442811965942e-02 1.204490065574645996e-01 1.206739470362663269e-01 4.371904581785202026e-02 2.528222203254699707e-01 -1.546942740678787231e-01 -2.148664444684982300e-01 -8.283509314060211182e-02 4.124487340450286865e-01 -1.395224779844284058e-01 2.660475671291351318e-01 -2.131346166133880615e-01 -8.131632953882217407e-02 3.198449611663818359e-01 2.428448051214218140e-01 -1.705650389194488525e-01 8.762803673744201660e-02 3.104708790779113770e-01 6.767438352108001709e-02 1.642213761806488037e-01 -1.870893836021423340e-01 -5.549888312816619873e-02 -7.841528207063674927e-02 -9.011508524417877197e-02 1.469509750604629517e-01 1.221073195338249207e-01 -1.283255815505981445e-01 2.576035559177398682e-01 2.962629199028015137e-01 -2.270803451538085938e-01 4.986754059791564941e-02 -1.959678828716278076e-01 3.247207105159759521e-01 -2.767740190029144287e-01 1.245212480425834656e-01 8.676455914974212646e-02 -3.551046550273895264e-02 7.729987055063247681e-02 3.254002332687377930e-01 -7.387396693229675293e-02 -1.490906178951263428e-01 -7.559134811162948608e-02 2.401025891304016113e-01 -3.581167664378881454e-03 9.396717697381973267e-02 -2.709374725818634033e-01 -1.182454302906990051e-01 -1.126995906233787537e-01 1.228616163134574890e-01 1.581031978130340576e-01 -1.114586442708969116e-01 1.861183345317840576e-01 8.520176261663436890e-02 8.913834393024444580e-02 1.441232580691576004e-02 7.756961137056350708e-02 -7.148703187704086304e-02 -8.450751751661300659e-02 5.510634928941726685e-02 -2.324023395776748657e-01 -3.057286441326141357e-01 -1.735463291406631470e-01 3.398391306400299072e-01 -2.495905011892318726e-01 3.362016975879669189e-01 -2.045021206140518188e-01 -6.013151258230209351e-02 1.655629090964794159e-02 3.831465542316436768e-01 2.437741868197917938e-02 1.884062737226486206e-01 2.548595368862152100e-01 3.403334319591522217e-02 1.015528291463851929e-01 -5.004267394542694092e-02 2.134315222501754761e-01 3.313735872507095337e-02 -6.639196723699569702e-02 -1.848933845758438110e-01 -4.835874214768409729e-02 4.143340587615966797e-01 3.492137417197227478e-02 7.069239020347595215e-02 1.134522929787635803e-01 -3.482848405838012695e-02 2.188871353864669800e-01 4.405766129493713379e-01 1.618238836526870728e-01 3.854437172412872314e-01 -3.541696816682815552e-02 2.851908802986145020e-01 1.011546775698661804e-01 1.290179491043090820e-01 2.183938622474670410e-01 -3.679269552230834961e-01 -1.923208832740783691e-01 3.529690802097320557e-01 1.788451895117759705e-02 -1.763786934316158295e-02 -9.935688972473144531e-02
-8.340142667293548584e-02 -1.427360922098159790e-01 -1.712480634450912476e-01 -1.633081287145614624e-01 5.609996989369392395e-02 -8.067248761653900146e-02 -2.584917470812797546e-02 -1.743670254945755005e-01 -2.076567411422729492e-01 1.258325427770614624e-01 1.838522106409072876e-01 -8.015920221805572510e-02 -9.718407690525054932e-02 1.465054601430892944e-01 1.062778159976005554e-01 -1.352733075618743896e-01 -6.563891470432281494e-02 2.320006489753723145e-01 1.376564204692840576e-01 -1.089848205447196960e-01 2.349765598773956299e-01 1.229118704795837402e-01 1.771018058061599731e-01 2.277508378028869629e-01 1.152081321924924850e-02 7.205001078546047211e-03 1.215514242649078369e-01 -1.718661785125732422e-01 -1.631377190351486206e-01 1.312479227781295776e-01 -1.505303084850311279e-01 -2.971916832029819489e-02 2.994471490383148193e-01 9.437290579080581665e-02 -1.497984528541564941e-01 7.640340924263000488e-02 -5.984882265329360962e-02 -1.311438232660293579e-01 2.157656848430633545e-02 -1.951160877943038940e-01 -1.864776015281677246e-01 -1.513688266277313232e-01 -2.052713781595230103e-01 2.368065565824508667e-01 -2.817580103874206543e-01 3.933764994144439697e-01 1.877554953098297119e-01 8.201130479574203491e-02 1.261873841285705566e-01 3.144767880439758301e-01 7.595760375261306763e-02 -4.770261421799659729e-02 9.617290645837783813e-02 4.679654911160469055e-02 2.415753602981567383e-01 -5.128620658069849014e-03 -1.148030087351799011e-01 9.003010392189025879e-02 -6.985801458358764648e-02 -2.050828561186790466e-02 1.397145539522171021e-01 1.322622448205947876e-01 1.105349734425544739e-01 -1.433200389146804810e-01 2.692923843860626221e-01 1.130718067288398743e-01 7.506092637777328491e-02 -4.506013169884681702e-02 1.763370931148529053e-01 1.482656002044677734e-01 1.412784755229949951e-01 -1.623003631830215454e-01 2.777738571166992188e-01 1.428261399269104004e-01 1.409664154052734375e-01 -1.464619040489196777e-01 1.511731883510947227e-03 -4.111605137586593628e-02 -2.085249572992324829e-01 -3.127950429916381836e-02 1.764487358741462231e-03 1.890642195940017700e-01 2.148943841457366943e-01 1.360059231519699097e-01 2.125542908906936646e-01 4.252141714096069336e-02 2.117874100804328918e-02 9.983940050005912781e-03 -4.536377638578414917e-02 1.688272953033447266e-01 -4.770710691809654236e-02 3.265028446912765503e-02 -1.536645889282226562e-01 -6.669545837212353945e-05 2.122597396373748779e-01 4.703832790255546570e-02 -1.296912878751754761e-01 2.123198658227920532e-01 4.897364601492881775e-02 -7.263945043087005615e-02 -1.016223877668380737e-01 -1.249888911843299866e-01 9.530059248208999634e-02 1.781094223260879517e-01 -7.126319408416748047e-02 1.404606252908706665e-01 -1.978141069412231445e-02 8.637300133705139160e-02 -2.028392553329467773e-01 2.706586420536041260e-01 3.237720951437950134e-02 1.701085716485977173e-01 2.370420545339584351e-01 6.813056021928787231e-02 1.494628190994262695e-01 2.461912669241428375e-02 1.199692562222480774e-01 1.131481211632490158e-02 1.644038558006286621e-01 -1.431594789028167725e-01 1.807234883308410645e-01 -4.413028806447982788e-02 -2.275165915489196777e-01 9.385277330875396729e-02 -1.635634750127792358e-01 2.886463999748229980e-01 -1.181215122342109680e-01 -7.889465987682342529e-02
-1.161815673112869263e-01 7.922848314046859741e-02 1.845876574516296387e-01 2.654791772365570068e-01 3.321269527077674866e-02 4.308805763721466064e-01 -2.404130995273590088e-01 -1.549333482980728149e-01 3.228051960468292236e-02 2.479615658521652222e-01 9.803713113069534302e-02 7.567846029996871948e-02 5.152017623186111450e-02 -4.079195857048034668e-01 -4.131702184677124023e-01 1.112335398793220520e-01 3.682622015476226807e-01 2.087325900793075562e-01 -3.297449788078665733e-03 1.850008517503738403e-01 8.632275462150573730e-02 -3.535362184047698975e-01 3.821471631526947021e-01 -2.399689108133316040e-01 1.271988451480865479e-01 -2.695654928684234619e-01 -9.018424153327941895e-02 -2.801161110401153564e-01 -2.981944754719734192e-02 9.418297559022903442e-02 -2.480742037296295166e-01 1.921965777873992920e-01 1.467858850955963135e-01 1.911980807781219482e-01 -2.192808538675308228e-01 3.083849251270294189e-01 -1.270752102136611938e-01 -1.100097447633743286e-01 -1.955065876245498657e-01 3.772851228713989258e-01 6.536118686199188232e-02 -2.653277814388275146e-01 1.956729888916015625e-01 5.666384473443031311e-02 -2.543560862541198730e-01 1.831958889961242676e-01 -1.543106436729431152e-01 -1.761831045150756836e-01 -5.840782821178436279e-02 -5.216354131698608398e-02 1.645044535398483276e-01 -4.682730510830879211e-02 1.056487783789634705e-01 -2.380582541227340698e-01 -1.207574233412742615e-01 -2.797215282917022705e-01 -2.371597886085510254e-01 2.129683271050453186e-02 -1.351111382246017456e-01 -8.032852411270141602e-02 6.732553243637084961e-02 -3.489441275596618652e-01 -2.565976083278656006e-01 -8.101707696914672852e-02 3.773843497037887573e-02 3.286626636981964111e-01 1.017519459128379822e-01 -2.218876183032989502e-01 1.303973942995071411e-01 -1.751616150140762329e-01 2.112710848450660706e-02 -1.121460553258657455e-02 2.684184610843658447e-01 -5.541092902421951294e-02 -3.362123621627688408e-03 1.502247750759124756e-01 1.264796108007431030e-01 3.455375134944915771e-01 8.494444191455841064e-02 -9.527510404586791992e-02 1.391202360391616821e-01 -2.750057168304920197e-02 2.640640139579772949e-01 -1.255222558975219727e-01 4.404098689556121826e-01 -2.009472623467445374e-02 -1.551427543163299561e-01 7.471220940351486206e-02 3.027893416583538055e-02 1.687289029359817505e-01 5.297769978642463684e-02 -2.999838590621948242e-01 -2.122001498937606812e-01 3.179829716682434082e-01 1.527067273855209351e-02 -4.742682725191116333e-02 1.905654668807983398e-01 3.502709418535232544e-02 9.293795377016067505e-02 5.948654562234878540e-02 1.358575224876403809e-01 4.082611296325922012e-03 -4.274516552686691284e-02 2.560578584671020508e-01 -1.135355681180953979e-01 -3.590296506881713867e-01 2.574765682220458984e-01 2.262858003377914429e-01 -1.479949951171875000e-01 -4.030485153198242188e-01 3.078173659741878510e-02 2.277570068836212158e-01 -8.010388165712356567e-02 -2.877360880374908447e-01 -4.941777512431144714e-02 1.006753444671630859e-01 -2.692544162273406982e-01 -2.605087356641888618e-03 1.638129353523254395e-01 -1.392205208539962769e-01 -2.108093649148941040e-01 -1.721491068601608276e-01 -2.555972337722778320e-01 -1.601950973272323608e-01 -1.586038172245025635e-01 1.363685727119445801e-01 -1.691201925277709961e-01 -1.119127422571182251e-01
-3.038138337433338165e-02 -2.111133635044097900e-01 -1.643868684768676758e-01 -1.648308187723159790e-01 -2.575323218479752541e-03 -4.296452179551124573e-02 -7.360737770795822144e-02 1.515475511550903320e-01 -2.365286499261856079e-01 2.280303686857223511e-01 -3.603355959057807922e-02 2.711632847785949707e-01 2.937992811203002930e-01 -1.175734251737594604e-01 -1.757470369338989258e-01 -9.351719915866851807e-02 1.138550862669944763e-01 4.187808632850646973e-01 -8.873507380485534668e-03 1.470011025667190552e-01 -8.986806869506835938e-02 -1.362850815057754517e-01 1.916874498128890991e-01 -1.406509131193161011e-01 1.540487539023160934e-02 -8.245970308780670166e-02 -1.024887803941965103e-02 -9.595118463039398193e-02 -1.639499217271804810e-01 -1.989878118038177490e-01 -3.977423906326293945e-02 -1.045956388115882874e-01 -9.796778112649917603e-02 -1.338663548231124878e-01 2.301984429359436035e-01 3.987290859222412109e-01 -1.094465330243110657e-01 -1.582625955343246460e-01 4.441799595952033997e-02 7.094697654247283936e-02 -2.727567590773105621e-02 -1.063358709216117859e-01 1.415531337261199951e-01 3.066928386688232422e-01 -8.011611551046371460e-02 7.073146104812622070e-02 1.847530901432037354e-01 -1.183205470442771912e-01 3.081860542297363281e-01 3.051548004150390625e-01 -1.803782731294631958e-01 -3.851203620433807373e-02 1.482288986444473267e-01 -2.903915301430970430e-04 2.036903947591781616e-01 3.329139947891235352e-02 -2.268487662076950073e-01 -5.166835337877273560e-02 -4.264661297202110291e-02 -1.049145832657814026e-01 -1.152213066816329956e-01 9.627166390419006348e-02 1.593464054167270660e-02 9.081370383501052856e-02 2.705391943454742432e-01 1.508171111345291138e-01 -8.940825611352920532e-02 -2.184403389692306519e-01 4.942775890231132507e-02 2.627874910831451416e-01 -8.742811530828475952e-02 -1.341745257377624512e-01 -9.288332611322402954e-02 -2.939730510115623474e-02 6.230591237545013428e-02 -2.020241692662239075e-02 -2.689968943595886230e-01 1.533682942390441895e-01 2.393346577882766724e-01 -2.054896205663681030e-03 -2.650420740246772766e-02 -1.248535215854644775e-01 1.116929799318313599e-01 5.013903602957725525e-02 9.226071834564208984e-02 -6.023039668798446655e-02 -5.176476668566465378e-03 2.051061987876892090e-01 1.388352215290069580e-01 -1.718636006116867065e-01 1.272014081478118896e-01 -1.334032863378524780e-01 9.612201899290084839e-02 1.336129754781723022e-01 -1.252427548170089722e-01 1.841459870338439941e-01 -1.640783250331878662e-01 2.079202830791473389e-01 1.731826215982437134e-01 -2.222778052091598511e-01 9.093046188354492188e-02 1.890238970518112183e-01 -2.764768600463867188e-01 -1.612345129251480103e-02 -1.471201777458190918e-01 2.306526452302932739e-01 3.742241300642490387e-03 1.563982367515563965e-01 -4.935974627733230591e-02 1.126286312937736511e-01 -3.191275522112846375e-02 1.283663809299468994e-01 3.061758577823638916e-01 -6.124624982476234436e-02 1.288227885961532593e-01 -1.345511525869369507e-01 -1.484534591436386108e-01 2.548582665622234344e-02 -1.418895423412322998e-01 3.106124103069305420e-01 -1.121337413787841797e-01 -1.305804997682571411e-01 -1.746146194636821747e-02 1.780025486368685961e-04 -2.133589535951614380e-01 3.407672792673110962e-02 2.243818640708923340e-01 -1.363625377416610718e-01
1.594908833503723145e-01 2.848746627569198608e-02 -2.904910445213317871e-01 -1.220347955822944641e-01 -2.260107100009918213e-01 -2.474986463785171509e-01 5.836832150816917419e-02 4.691554699093103409e-03 -1.358270943164825439e-01 3.016665810719132423e-03 -2.202842682600021362e-01 4.989520832896232605e-02 -9.082326292991638184e-02 1.578312069177627563e-01 2.129769325256347656e-02 -7.655096054077148438e-02 8.644983172416687012e-02 6.170296669006347656e-02 -1.231554895639419556e-01 -2.189110964536666870e-01 -1.739598363637924194e-01 -3.002996444702148438e-01 1.102208197116851807e-01 -3.665893971920013428e-01 5.907331034541130066e-02 2.702963948249816895e-01 -2.536696195602416992e-01 -1.465240865945816040e-01 -2.060335874557495117e-01 -1.456444412469863892e-01 1.601007133722305298e-01 2.973717451095581055e-02 -7.830728590488433838e-02 -2.791248261928558350e-01 -2.469463348388671875e-01 3.704139888286590576e-01 5.366202816367149353e-02 1.055439561605453491e-01 2.468649595975875854e-01 -5.425868183374404907e-02 -1.243090778589248657e-01 1.478778421878814697e-01 3.164356946945190430e-01 2.969427704811096191e-01 1.359926909208297729e-01 1.478639096021652222e-01 -9.843728691339492798e-02 1.002785786986351013e-01 -6.044596806168556213e-02 1.449970304965972900e-01 -5.748385190963745117e-02 -5.662937834858894348e-02 -4.027359187602996826e-02 -6.395243108272552490e-02 -2.867131028324365616e-03 1.924952715635299683e-01 1.469351798295974731e-01 1.746088713407516479e-01 -3.371550142765045166e-02 1.198241487145423889e-01 -7.083057612180709839e-02 3.046398758888244629e-01 -1.529205739498138428e-01 -2.310502082109451294e-01 -9.684808173915371299e-05 -4.397658109664916992e-01 -9.859508275985717773e-02 -7.117237150669097900e-02 1.967332363128662109e-01 -2.096294164657592773e-01 -2.737978994846343994e-01 -7.304389029741287231e-02 2.214291244745254517e-01 -1.275376826524734497e-01 -1.519994735717773438e-01 -2.581774294376373291e-01 -9.923035651445388794e-02 -2.256551086902618408e-01 -2.687363922595977783e-01 1.915478557348251343e-01 2.534366846084594727e-01 -4.675744567066431046e-04 -9.021357446908950806e-02 1.913799196481704712e-01 -1.962705552577972412e-01 3.515313193202018738e-02 5.412236228585243225e-02 1.417820155620574951e-01 3.611362725496292114e-02 -2.172749191522598267e-01 -8.025172352790832520e-02 -1.300065219402313232e-01 -9.585247933864593506e-02 -2.144132554531097412e-01 1.153854727745056152e-01 1.389626562595367432e-01 -1.767465025186538696e-01 7.128709554672241211e-02 3.423430025577545166e-02 -2.173726260662078857e-01 -1.343788504600524902e-01 -9.153703576885163784e-04 7.226467132568359375e-02 -5.320917442440986633e-02 -2.131118327379226685e-01 4.831870552152395248e-03 1.770929694175720215e-01 -1.762446463108062744e-01 1.859089173376560211e-02 -4.165478646755218506e-01 -3.023870103061199188e-02 -1.897326558828353882e-01 2.179065346717834473e-02 4.228700418025255203e-03 1.952079832553863525e-01 -7.191427517682313919e-03 1.651491820812225342e-01 -5.160354194231331348e-04 1.064147278666496277e-01 7.972415536642074585e-02 -1.794438958168029785e-01 3.080405108630657196e-02 -7.073801010847091675e-02 -3.419687226414680481e-02 8.241908997297286987e-02 1.671264530159533024e-03 2.915857732295989990e-01 -1.942092925310134888e-01
-9.035379439592361450e-02 1.149976328015327454e-01 1.703108996152877808e-01 6.013083457946777344e-02 9.761555492877960205e-02 1.141090393066406250e-01 9.021079540252685547e-02 -1.306419670581817627e-01 1.103702336549758911e-01 1.200042292475700378e-01 8.409425616264343262e-02 -4.261244088411331177e-02 -9.438216686248779297e-02 -4.839385300874710083e-02 2.342993319034576416e-01 5.451853573322296143e-02 7.460226118564605713e-02 -1.333060562610626221e-01 2.340915240347385406e-02 -3.192061558365821838e-02 -1.918718814849853516e-01 2.344317287206649780e-01 5.711453408002853394e-02 2.365316152572631836e-01 -1.233246400952339172e-01 3.604195117950439453e-01 -4.020589590072631836e-02 -1.810881197452545166e-01 9.774971008300781250e-02 -2.854724042117595673e-02 1.965183466672897339e-01 2.755464017391204834e-01 -1.079460978507995605e-01 2.354245446622371674e-02 2.091904580593109131e-01 -4.722441732883453369e-02 1.603554785251617432e-01 -8.180147409439086914e-02 -1.595652401447296143e-01 1.155921593308448792e-01 6.679885834455490112e-02 1.278126537799835205e-01 -1.340669244527816772e-01 -2.062576264142990112e-01 3.023067116737365723e-01 8.570808172225952148e-02 8.632666617631912231e-02 1.807559430599212646e-01 2.368343994021415710e-02 2.104216963052749634e-01 4.981918726116418839e-03 -1.389759127050638199e-02 -7.762698829174041748e-02 2.612280249595642090e-01 -3.672168403863906860e-02 -2.071948349475860596e-01 -3.288144171237945557e-01 -1.391634792089462280e-01 -1.030164435505867004e-01 3.867976069450378418e-01 1.773607730865478516e-01 -1.837439984083175659e-01 -3.048375993967056274e-02 5.504969879984855652e-02 1.683088988065719604e-01 -1.163775683380663395e-03 2.074470221996307373e-01 1.988678872585296631e-01 -2.392356470227241516e-02 -8.820661902427673340e-02 1.205909475684165955e-01 3.699788451194763184e-02 -3.929338157176971436e-01 2.218213081359863281e-01 2.389363944530487061e-01 -1.545994281768798828e-01 -7.569567859172821045e-02 -1.799967437982559204e-01 3.057819306850433350e-01 3.418295681476593018e-01 2.353707998991012573e-01 -1.385657191276550293e-01 -2.493662238121032715e-01 -9.032933413982391357e-02 -2.543001770973205566e-01 2.116420716047286987e-01 1.102581322193145752e-01 -3.652434051036834717e-02 -1.357053667306900024e-01 -1.439360678195953369e-01 -1.458771061152219772e-02 -2.722752094268798828e-01 3.457198143005371094e-01 -9.548937529325485229e-02 1.155130341649055481e-01 1.818170771002769470e-02 -2.150913923978805542e-01 1.390096247196197510e-01 1.383077055215835571e-01 -1.996112316846847534e-01 4.172286987304687500e-01 1.685725748538970947e-01 -7.032444328069686890e-02 2.278091907501220703e-01 1.764141470193862915e-01 2.531449198722839355e-01 -2.022021263837814331e-01 -2.022468596696853638e-01 2.812696993350982666e-01 3.373566269874572754e-01 -1.414097696542739868e-01 -1.772743463516235352e-01 1.107224449515342712e-01 2.755621969699859619e-01 -5.024983361363410950e-02 9.193961322307586670e-02 5.441263690590858459e-02 1.985745131969451904e-01 1.299364268779754639e-01 -1.377955228090286255e-01 -4.388355836272239685e-02 -3.536917269229888916e-02 -7.481810450553894043e-02 -2.279708236455917358e-01 1.553034484386444092e-01 1.621429622173309326e-01 -1.359822601079940796e-01 -7.241097092628479004e-02
6.534682959318161011e-02 1.244018226861953735e-02 -2.421708032488822937e-02 6.311723589897155762e-02 -1.453454494476318359e-01 1.362908445298671722e-02 -2.247065864503383636e-02 -4.682265967130661011e-02 1.409329567104578018e-02 2.231430448591709137e-02 -1.141033992171287537e-01 7.909736037254333496e-02 1.236610040068626404e-01 1.356053352355957031e-01 1.786082386970520020e-01 -1.002082042396068573e-02 2.100276388227939606e-02 5.167269706726074219e-02 -3.316970169544219971e-02 1.158950179815292358e-01 -1.657538414001464844e-01 2.558178007602691650e-01 1.280105262994766235e-01 9.624505788087844849e-02 -4.562647547572851181e-03 -1.041942238807678223e-01 -7.554609328508377075e-02 -3.550298511981964111e-02 6.467518955469131470e-02 -9.835480898618698120e-02 9.169331938028335571e-02 2.594724483788013458e-02 -1.486847400665283203e-01 1.958061307668685913e-01 7.712791115045547485e-02 8.527577854692935944e-03 -1.951261013746261597e-01 1.435445547103881836e-01 1.696227639913558960e-01 -1.052129194140434265e-01 1.243404597043991089e-01 -9.537848085165023804e-02 2.349585853517055511e-02 -8.485813438892364502e-02 9.269113838672637939e-02 5.526984855532646179e-02 1.212164759635925293e-01 2.053160667419433594e-01 5.643445253372192383e-02 -4.007239267230033875e-02 -1.275531202554702759e-01 -9.504932910203933716e-02 -1.450216621160507202e-01 -7.479052990674972534e-02 -1.341639906167984009e-01 1.771761476993560791e-01 -2.250945754349231720e-02 -1.052197348326444626e-02 -5.614615976810455322e-02 8.787911385297775269e-02 1.659937761723995209e-02 6.204955279827117920e-02 -1.127315834164619446e-01 4.634925350546836853e-02 1.475259214639663696e-01 5.101071670651435852e-02 -9.476651996374130249e-02 5.376204103231430054e-02 2.664142847061157227e-02 -2.676942944526672363e-02 -1.671601831912994385e-02 -1.207455322146415710e-01 1.267787963151931763e-01 2.051805257797241211e-01 -9.931824356317520142e-02 1.007246077060699463e-01 1.289318799972534180e-01 6.228339299559593201e-02 3.151593031361699104e-03 -1.385926008224487305e-01 1.132527831941843033e-02 1.607551276683807373e-01 8.247534185647964478e-02 1.541009098291397095e-01 -2.268226817250251770e-02 1.086246818304061890e-01 -1.626794487237930298e-01 1.309660729020833969e-02 -2.333272621035575867e-02 9.587036073207855225e-02 9.887858480215072632e-02 2.191357761621475220e-01 -1.932394504547119141e-01 -6.551727186888456345e-03 -1.187785640358924866e-01 -6.737405061721801758e-02 7.081641256809234619e-02 7.594268769025802612e-02 3.418925032019615173e-02 -8.217455446720123291e-02 -1.315757781267166138e-01 -1.098243594169616699e-01 9.782029688358306885e-02 -8.989325910806655884e-02 -1.899734139442443848e-01 6.965863704681396484e-02 -5.151684954762458801e-02 -1.237674430012702942e-01 -2.506074905395507812e-01 1.304968893527984619e-01 1.386367976665496826e-01 -9.655528515577316284e-02 -1.024420484900474548e-01 -3.495080769062042236e-02 2.242503501474857330e-02 9.345746785402297974e-02 2.885106019675731659e-02 -1.000145748257637024e-01 4.844128340482711792e-02 2.128368616104125977e-01 -3.040884621441364288e-02 -1.000635251402854919e-01 -1.195416674017906189e-01 1.875386573374271393e-02 -1.583449989557266235e-01 -2.396808266639709473e-01 1.534410119056701660e-01 -5.189427360892295837e-02
1.739761382341384888e-01 -7.353227585554122925e-02 -8.430836349725723267e-02 -1.744230687618255615e-01 8.321383595466613770e-02 -3.016636371612548828e-01 1.696988493204116821e-01 -2.391616404056549072e-01 3.965914994478225708e-02 -2.222102433443069458e-01 1.838362962007522583e-01 -9.649167209863662720e-02 -1.677482426166534424e-01 -3.788132667541503906e-01 3.909977674484252930e-01 1.558775156736373901e-01 1.830271184444427490e-01 1.774627566337585449e-01 -1.345924586057662964e-01 2.997525632381439209e-01 -1.366660892963409424e-01 6.307857483625411987e-02 -1.780152767896652222e-01 4.014269262552261353e-02 -2.311478853225708008e-01 2.932825386524200439e-01 1.940649561583995819e-02 -1.627277731895446777e-01 1.579921841621398926e-01 -8.027937263250350952e-02 -1.995430290699005127e-01 -1.320912986993789673e-01 2.062090858817100525e-02 2.395683377981185913e-01 -1.500338166952133179e-01 1.286737918853759766e-01 -1.214154958724975586e-01 -1.214711293578147888e-01 -7.440041005611419678e-02 -2.334501445293426514e-01 -1.635844558477401733e-01 -2.957011461257934570e-01 -2.264308631420135498e-01 -2.529616951942443848e-01 2.474451959133148193e-01 -4.587618634104728699e-02 -1.166151687502861023e-01 3.013709783554077148e-01 -8.278635144233703613e-02 4.862534627318382263e-02 -1.600607782602310181e-01 2.227468490600585938e-01 -2.993817627429962158e-01 -9.382597054354846478e-04 -1.680720895528793335e-01 -3.568609058856964111e-02 -8.144229650497436523e-04 9.912884235382080078e-02 -8.728221803903579712e-02 7.544571161270141602e-02 3.183423727750778198e-02 -2.485821992158889771e-01 -1.279681771993637085e-01 2.184409499168395996e-01 6.946533918380737305e-02 -1.124672815203666687e-01 -1.786406338214874268e-01 2.356989979743957520e-01 1.677509695291519165e-01 9.258943796157836914e-02 -1.950121521949768066e-01 2.320205420255661011e-01 -3.176914453506469727e-01 6.550241261720657349e-02 -3.092972338199615479e-01 -5.778198316693305969e-02 1.119683459401130676e-01 -3.560404479503631592e-01 -6.556057184934616089e-02 1.398756951093673706e-01 -8.760836720466613770e-02 -1.678308248519897461e-01 3.566038981080055237e-02 7.997233420610427856e-02 1.282714605331420898e-01 -2.184000164270401001e-01 1.604457199573516846e-02 -2.187914401292800903e-01 2.617650106549263000e-02 2.180036902427673340e-01 2.017563953995704651e-02 -2.495287507772445679e-01 1.213085725903511047e-01 -6.707891076803207397e-02 1.745612621307373047e-01 -1.251269280910491943e-01 3.363320231437683105e-01 1.481158100068569183e-02 3.816879093647003174e-01 -3.903121501207351685e-02 4.018342196941375732e-01 2.447613477706909180e-01 1.476904097944498062e-02 -2.327694445848464966e-01 1.536637991666793823e-01 8.596045523881912231e-02 1.873890310525894165e-01 -1.980905234813690186e-01 -1.124398037791252136e-02 -3.724736869335174561e-01 -1.816160790622234344e-02 2.086914926767349243e-01 4.008844122290611267e-02 2.659398131072521210e-03 9.636938571929931641e-02 -8.920684456825256348e-02 -8.526814728975296021e-02 -8.594974130392074585e-02 1.111442297697067261e-01 5.001288652420043945e-02 -7.038640975952148438e-02 -1.092637628316879272e-01 -6.189257279038429260e-02 -1.776487678289413452e-01 3.325583785772323608e-02 -2.056572772562503815e-02 -2.039514183998107910e-01 2.080554664134979248e-01
1.146325096487998962e-01 1.075629815459251404e-01 1.534831076860427856e-01 -9.444916993379592896e-02 -2.065314352512359619e-01 1.693190187215805054e-01 -2.388784289360046387e-01 2.354827374219894409e-01 2.123969793319702148e-01 2.149897664785385132e-01 1.109015271067619324e-01 -5.877773091197013855e-02 -1.633562892675399780e-01 -2.303366176784038544e-02 4.658945798873901367e-01 -6.538936495780944824e-02 -2.365276813507080078e-01 3.513498008251190186e-01 9.172743558883666992e-02 -1.746796816587448120e-01 2.716637253761291504e-01 1.993413716554641724e-01 -1.810436993837356567e-01 -1.040658131241798401e-01 9.035358577966690063e-02 5.220053344964981079e-02 -4.604354500770568848e-02 -6.517257541418075562e-02 1.379143819212913513e-02 2.061413228511810303e-01 -1.039731502532958984e-02 -4.251841828227043152e-02 7.593677937984466553e-02 -2.126433402299880981e-01 -1.274189911782741547e-02 -1.880782991647720337e-01 2.505791187286376953e-01 1.338413953781127930e-01 -1.597813367843627930e-01 2.717381417751312256e-01 2.369714379310607910e-01 -1.327016949653625488e-01 2.831472828984260559e-02 3.239819705486297607e-01 2.435882240533828735e-01 3.217015042901039124e-02 4.381840527057647705e-01 -1.830130368471145630e-01 4.644744843244552612e-02 -2.079439312219619751e-01 -1.279280930757522583e-01 -1.301805078983306885e-01 1.412256360054016113e-01 -1.472294032573699951e-01 -1.369967460632324219e-01 -5.117594450712203979e-02 2.654420435428619385e-01 -2.912832498550415039e-01 1.718005239963531494e-01 2.049773782491683960e-01 -9.863035380840301514e-02 3.823723271489143372e-02 -9.984849393367767334e-02 1.180471852421760559e-01 1.271979361772537231e-01 -1.976074427366256714e-01 -1.874554902315139771e-01 -5.602329596877098083e-02 -1.386537253856658936e-01 -1.984337717294692993e-01 -1.271070986986160278e-01 1.241256892681121826e-01 -2.296465449035167694e-03 -6.853331625461578369e-02 -2.899169921875000000e-01 -1.287674158811569214e-01 3.333873152732849121e-01 -1.083882078528404236e-01 1.771208196878433228e-01 4.070258140563964844e-02 3.019965887069702148e-01 2.257331609725952148e-01 8.484342694282531738e-02 -1.331811249256134033e-01 3.297409415245056152e-01 -5.654124543070793152e-02 -2.540169060230255127e-01 -6.505428999662399292e-02 -2.057370543479919434e-01 2.002140879631042480e-01 -2.032756507396697998e-01 2.785171754658222198e-02 -4.788425937294960022e-02 -1.213531345129013062e-01 -2.122589796781539917e-01 1.658366918563842773e-01 -2.364322394132614136e-01 2.428801506757736206e-01 -2.025023996829986572e-01 1.305938046425580978e-02 -1.265252232551574707e-01 1.511798799037933350e-01 -2.353847175836563110e-01 2.701887302100658417e-02 2.754224836826324463e-01 -1.858952194452285767e-01 -9.999295324087142944e-02 7.342597842216491699e-02 3.353792428970336914e-01 2.459214031696319580e-01 1.630812585353851318e-01 -5.258608236908912659e-02 4.650870859622955322e-01 3.819684386253356934e-01 1.448770165443420410e-01 -2.632722556591033936e-01 3.006365522742271423e-02 3.165113925933837891e-01 1.290344893932342529e-01 -1.477880775928497314e-01 -1.204412952065467834e-01 2.197478711605072021e-01 1.831017583608627319e-01 -2.576486170291900635e-01 -2.421019822359085083e-01 3.185580372810363770e-01 -1.342481821775436401e-01 -1.090373471379280090e-01
-1.576819717884063721e-01 -1.185943856835365295e-01 2.578405141830444336e-01 2.059185206890106201e-01 1.359964311122894287e-01 2.165120840072631836e-01 -1.764094978570938110e-01 -3.996267616748809814e-01 -1.358827650547027588e-01 -1.352885067462921143e-01 1.855996847152709961e-01 7.845339924097061157e-02 2.151007503271102905e-01 -5.366258695721626282e-02 1.724554300308227539e-01 -1.313385814428329468e-01 -1.872490197420120239e-01 -1.319561004638671875e-01 1.558259874582290649e-01 1.208534389734268188e-01 3.410352021455764771e-02 -2.262085676193237305e-01 -7.423622906208038330e-02 -1.724600493907928467e-01 -1.315645575523376465e-01 1.667820364236831665e-01 -1.931186169385910034e-01 -1.557794064283370972e-01 3.132435381412506104e-01 -1.219011768698692322e-01 2.788013219833374023e-01 1.555789709091186523e-01 -5.256456788629293442e-03 2.954835593700408936e-01 -8.836830407381057739e-02 -5.386051908135414124e-02 2.935377061367034912e-01 -6.788907200098037720e-02 1.932995170354843140e-01 -1.069863587617874146e-01 1.862735003232955933e-01 -1.507760137319564819e-01 -9.151572734117507935e-02 1.336480081081390381e-01 1.631502956151962280e-01 -6.619793362915515900e-03 1.187821179628372192e-01 1.563452780246734619e-01 2.044118940830230713e-02 -6.711355876177549362e-03 -1.124533265829086304e-01 -6.886649876832962036e-02 1.013873070478439331e-01 -1.403067111968994141e-01 2.224803119897842407e-01 -1.213598623871803284e-01 5.158592388033866882e-02 1.522992849349975586e-01 4.082940518856048584e-01 -2.283218502998352051e-02 1.208325028419494629e-01 1.402832102030515671e-02 -1.098967567086219788e-01 2.964145541191101074e-01 -1.196399703621864319e-01 2.598814666271209717e-01 -1.335808485746383667e-01 -1.488100141286849976e-01 -6.212361901998519897e-02 -1.965952515602111816e-01 1.720726788043975830e-01 1.840511262416839600e-01 -1.439843177795410156e-01 -1.902494579553604126e-01 1.546100676059722900e-01 -2.808080054819583893e-02 -4.593252018094062805e-02 1.279577463865280151e-01 1.363514959812164307e-01 -3.855662792921066284e-02 -5.005048960447311401e-02 -1.281996816396713257e-01 -1.677056699991226196e-01 2.807895094156265259e-02 3.127842843532562256e-01 1.789005249738693237e-01 -1.191369593143463135e-01 9.672705084085464478e-02 3.033269643783569336e-01 1.066891252994537354e-01 2.755282819271087646e-02 -2.533463239669799805e-01 -2.288031205534934998e-02 5.051531642675399780e-02 -2.721346318721771240e-01 -2.703208103775978088e-02 1.753015816211700439e-01 1.057322844862937927e-01 1.230231076478958130e-01 2.732282280921936035e-01 -1.110592111945152283e-01 -1.617546193301677704e-03 2.477382272481918335e-01 -8.742231875658035278e-02 1.086629629135131836e-01 6.288877874612808228e-02 2.197900228202342987e-02 1.204211562871932983e-01 -2.365409582853317261e-01 1.526844948530197144e-01 2.506173029541969299e-02 -1.289149522781372070e-01 1.451675444841384888e-01 9.681742638349533081e-02 -8.399379253387451172e-02 1.133233159780502319e-01 2.204404175281524658e-01 -4.908192437142133713e-03 -1.587066799402236938e-01 7.845979183912277222e-02 4.265512526035308838e-01 2.685980200767517090e-01 -2.386312484741210938e-01 6.306553632020950317e-02 1.421908587217330933e-01 1.129545718431472778e-01 2.521007694303989410e-02 2.707667052745819092e-01
1.748754978179931641e-01 -3.148801624774932861e-01 -2.416897118091583252e-01 -1.981524676084518433e-01 -1.975814998149871826e-01 -3.398249149322509766e-01 1.633796691894531250e-01 -3.757412433624267578e-01 1.759197115898132324e-01 3.277479484677314758e-02 1.152502745389938354e-01 -2.806814312934875488e-01 -1.864608526229858398e-01 -1.927411854267120361e-01 -7.779064774513244629e-02 -1.954096406698226929e-01 1.473201513290405273e-01 6.968066841363906860e-02 -1.543624103069305420e-01 1.058475463651120663e-04 -1.732796430587768555e-02 -8.257520943880081177e-02 4.257509484887123108e-02 -9.127995371818542480e-02 1.548883020877838135e-01 2.738366127014160156e-01 2.662407457828521729e-01 1.451643556356430054e-01 -2.783970534801483154e-01 -4.940205812454223633e-02 -9.583342820405960083e-02 -6.951255351305007935e-02 -1.202592626214027405e-01 -1.697378754615783691e-01 1.727716997265815735e-02 1.789378225803375244e-01 -6.533131748437881470e-02 -1.879611909389495850e-01 1.754867732524871826e-01 1.027983650565147400e-01 -1.393551230430603027e-01 2.133619338274002075e-01 -1.596169322729110718e-01 -2.962648570537567139e-01 1.368413418531417847e-01 8.579205721616744995e-02 -9.521273523569107056e-02 -9.317471086978912354e-02 -2.206154167652130127e-01 7.673405110836029053e-02 -1.986095756292343140e-01 -1.069487887434661388e-03 -1.784047633409500122e-01 -2.293164581060409546e-01 7.191623002290725708e-02 3.112116158008575439e-01 4.982357099652290344e-02 -3.147785365581512451e-01 -4.115177094936370850e-01 -8.405093103647232056e-02 2.431833148002624512e-01 -7.273171097040176392e-02 -3.594753891229629517e-02 -7.082654163241386414e-03 5.549815297126770020e-02 3.777517974376678467e-01 -5.466413497924804688e-02 1.322195529937744141e-01 -6.157045066356658936e-02 7.076177000999450684e-02 -2.839357256889343262e-01 -2.260683029890060425e-01 -8.937502279877662659e-03 -1.304620802402496338e-01 1.669915169477462769e-01 4.096123874187469482e-01 -4.426411092281341553e-01 -9.662315249443054199e-02 -2.062643878161907196e-02 6.428904086351394653e-02 3.596100956201553345e-02 1.861910223960876465e-01 5.979091301560401917e-02 -2.527766162529587746e-03 -2.979137897491455078e-01 -2.547013759613037109e-01 2.798033356666564941e-01 -5.316765606403350830e-02 -2.457291185855865479e-01 -5.217648670077323914e-02 3.341238573193550110e-02 -2.401026487350463867e-01 1.412350088357925415e-01 -1.408584117889404297e-01 2.446125596761703491e-01 4.704560339450836182e-02 2.864648699760437012e-01 -2.237329632043838501e-01 1.506555676460266113e-01 -3.807755112648010254e-01 8.178620040416717529e-02 -1.976517587900161743e-01 -1.834578663110733032e-01 -1.766038686037063599e-01 -3.340847790241241455e-01 -4.273148626089096069e-02 -7.772901654243469238e-02 -1.999387294054031372e-01 -1.891623064875602722e-02 -2.721844315528869629e-01 -3.860735893249511719e-01 -1.906294003129005432e-02 -2.231508493423461914e-01 -3.360579311847686768e-01 -4.821250587701797485e-02 1.679371744394302368e-01 -3.761702775955200195e-01 1.197287663817405701e-01 -3.523945212364196777e-01 -2.174279391765594482e-01 -3.660998642444610596e-01 -1.381461322307586670e-01 -1.791679263114929199e-01 1.785147935152053833e-01 3.057253062725067139e-01 2.642613090574741364e-02 2.210792452096939087e-01 -1.083193048834800720e-01
1.997683346271514893e-01 3.278200030326843262e-01 5.501100793480873108e-02 3.066785037517547607e-01 -2.281640172004699707e-01 -2.478439658880233765e-01 1.702554821968078613e-01 5.313442274928092957e-02 1.309102773666381836e-01 -1.440864950418472290e-01 -1.709811538457870483e-01 9.732062369585037231e-02 -8.218234777450561523e-02 4.209283590316772461e-01 1.623510569334030151e-01 -3.842416107654571533e-01 5.982694774866104126e-02 -3.648707270622253418e-01 2.238949527963995934e-03 -2.057819366455078125e-01 -1.069717761129140854e-02 2.066258937120437622e-01 -1.625469923019409180e-01 2.660386562347412109e-01 -2.266964614391326904e-01 2.110915780067443848e-01 -2.336562722921371460e-01 -1.850636899471282959e-01 -3.346433397382497787e-03 -4.171620607376098633e-01 1.726231537759304047e-02 3.051161766052246094e-01 1.336556300520896912e-02 -2.063611298799514771e-01 -1.151270717382431030e-01 3.174178898334503174e-01 6.442347913980484009e-02 3.359692394733428955e-01 4.293002933263778687e-02 -1.271940171718597412e-01 -2.639832496643066406e-01 1.598385125398635864e-01 -2.153702080249786377e-02 3.136622905731201172e-01 5.293278694152832031e-01 5.972263216972351074e-02 -2.479000985622406006e-01 1.807346194982528687e-01 6.541892141103744507e-02 3.795232474803924561e-01 -2.606124281883239746e-01 -1.295091807842254639e-01 4.050952792167663574e-01 -2.867170870304107666e-01 -2.025899887084960938e-01 -9.789001941680908203e-02 1.078351661562919617e-01 2.874693870544433594e-01 2.684608846902847290e-02 3.354369699954986572e-01 2.332254545763134956e-03 -2.791576087474822998e-01 1.554230898618698120e-01 -9.084418416023254395e-02 -1.360146552324295044e-01 9.594598412513732910e-02 4.797487258911132812e-01 -2.580759674310684204e-02 1.422360539436340332e-01 2.559209764003753662e-01 1.008327379822731018e-01 -8.908005058765411377e-02 -4.917615652084350586e-01 -1.856731325387954712e-01 3.427861332893371582e-01 1.267654597759246826e-01 8.071872591972351074e-02 -2.594031095504760742e-01 -2.030284255743026733e-01 3.570869266986846924e-01 3.232820928096771240e-01 3.212867677211761475e-02 -2.235769927501678467e-01 3.276171684265136719e-01 -1.609550118446350098e-01 -1.615016311407089233e-01 -1.015130579471588135e-01 1.265885829925537109e-01 3.137934580445289612e-02 7.968160510063171387e-02 -8.212807029485702515e-02 1.122227236628532410e-01 -8.209470659494400024e-02 4.336312785744667053e-02 -5.214975029230117798e-02 1.750006824731826782e-01 -2.518198639154434204e-02 -6.055186316370964050e-02 -1.043839082121849060e-01 1.457526534795761108e-01 -2.983092665672302246e-01 -1.152923852205276489e-01 1.590007692575454712e-01 -2.934319376945495605e-01 2.100643143057823181e-02 -6.783176958560943604e-02 -3.842234313488006592e-01 -2.305705696344375610e-01 2.409237623214721680e-01 3.249623179435729980e-01 1.400529593229293823e-01 1.220895424485206604e-01 -3.742887079715728760e-01 -2.766538560390472412e-01 3.489528596401214600e-01 -1.743898093700408936e-01 -2.062397599220275879e-01 -5.920058488845825195e-02 4.785945639014244080e-02 1.386980563402175903e-01 -1.779772341251373291e-02 6.991255283355712891e-02 5.297755822539329529e-02 -8.801216259598731995e-03 -4.293946549296379089e-02 -4.372002184391021729e-01 -4.738057497888803482e-03 -1.772937737405300140e-02
1.500381976366043091e-01 -1.308057755231857300e-01 -5.326137319207191467e-02 2.559265196323394775e-01 3.347586393356323242e-01 -1.159257441759109497e-01 1.250834614038467407e-01 1.308959424495697021e-01 -1.683637052774429321e-01 2.029378898441791534e-03 -5.810221284627914429e-02 -1.558141112327575684e-01 2.948802523314952850e-02 6.509491056203842163e-02 -1.575348433107137680e-04 -1.092597022652626038e-01 2.757162414491176605e-02 -2.981426417827606201e-01 -8.340688794851303101e-02 -2.189502269029617310e-01 -2.410869486629962921e-02 1.188518553972244263e-01 6.805093586444854736e-02 3.522326797246932983e-02 2.394256144762039185e-01 -2.097903378307819366e-02 1.758166253566741943e-01 1.130496710538864136e-01 1.820566803216934204e-01 -2.428998649120330811e-01 -1.353863030672073364e-01 -2.102873921394348145e-01 5.374163016676902771e-02 -1.049603894352912903e-01 -1.808781176805496216e-02 8.562795072793960571e-02 -3.044625520706176758e-01 1.801766902208328247e-01 2.484823912382125854e-01 -8.350131660699844360e-02 -7.695747166872024536e-02 -7.834921777248382568e-02 2.006337642669677734e-01 4.166263043880462646e-01 -4.545249640941619873e-01 -2.915846183896064758e-02 -2.658343613147735596e-01 2.032742798328399658e-01 -2.516599893569946289e-01 -4.453789442777633667e-02 -2.004737704992294312e-01 -2.149188667535781860e-01 2.231380939483642578e-01 -1.327388435602188110e-01 9.217389672994613647e-02 4.934498295187950134e-02 -7.159193605184555054e-02 1.030317991971969604e-01 1.751693487167358398e-01 -1.081672459840774536e-01 -6.037579849362373352e-02 -2.340923696756362915e-01 1.378831714391708374e-01 -2.891276776790618896e-02 -2.213517576456069946e-02 3.579460680484771729e-01 1.438990682363510132e-01 -1.043442338705062866e-01 3.109533153474330902e-02 -1.447700560092926025e-01 -7.608267664909362793e-02 9.109026938676834106e-02 -3.377662003040313721e-01 2.802614569664001465e-01 -3.201971948146820068e-02 1.310387849807739258e-01 -1.473744511604309082e-01 5.417585372924804688e-02 -2.510461807250976562e-01 1.403699070215225220e-01 -1.657229959964752197e-01 6.714460253715515137e-02 -2.010760605335235596e-01 2.470502257347106934e-02 -1.034141331911087036e-01 2.399872615933418274e-02 -5.081408470869064331e-02 7.142478134483098984e-04 -8.779741823673248291e-02 8.007778227329254150e-02 -6.357037276029586792e-02 -2.652229964733123779e-01 -1.852747350931167603e-01 -3.729800134897232056e-02 -2.442565709352493286e-01 -9.506329149007797241e-02 3.995520249009132385e-02 1.615917682647705078e-01 9.676165133714675903e-02 1.095121055841445923e-01 1.476120799779891968e-01 1.284152716398239136e-01 2.689456343650817871e-01 -2.814771533012390137e-01 -7.766679674386978149e-02 1.246245950460433960e-01 -1.737194657325744629e-01 -6.262499839067459106e-02 2.956775724887847900e-01 -2.415878176689147949e-01 1.460167020559310913e-01 1.467988640069961548e-01 -3.087893128395080566e-01 -4.380154907703399658e-01 1.501167118549346924e-01 -1.752230823040008545e-01 -1.346625089645385742e-01 3.971038386225700378e-02 1.708085685968399048e-01 2.116739153861999512e-01 8.906176686286926270e-02 -1.877305805683135986e-01 -7.411377131938934326e-02 -8.360349386930465698e-02 4.230469092726707458e-02 -1.152195706963539124e-01 -6.139930337667465210e-02 1.216629669070243835e-01
-1.847827434539794922e-01 -1.327374130487442017e-01 -1.468818169087171555e-02 1.277606785297393799e-01 -9.822320193052291870e-02 6.652041524648666382e-02 1.111263483762741089e-01 1.645232178270816803e-02 -1.190425902605056763e-01 2.351448833942413330e-01 -4.028967395424842834e-02 1.779581308364868164e-01 -1.188757866621017456e-01 1.666754782199859619e-01 1.530096679925918579e-01 1.136758252978324890e-01 -7.344944775104522705e-02 -2.219697088003158569e-01 6.496892776340246201e-03 9.569016098976135254e-02 1.928458511829376221e-01 3.604144752025604248e-01 -1.443840265274047852e-01 8.148639649152755737e-02 1.635479629039764404e-01 1.322174537926912308e-02 -1.636238396167755127e-02 -1.188495941460132599e-02 -3.809319734573364258e-01 2.692047059535980225e-01 -2.003100365400314331e-01 -1.452983468770980835e-01 5.115616321563720703e-02 1.315609067678451538e-01 2.536557018756866455e-01 -2.109759300947189331e-01 6.983835250139236450e-03 1.623586416244506836e-01 1.178310960531234741e-01 2.822143957018852234e-03 1.061004921793937683e-01 6.305801868438720703e-02 -1.502805203199386597e-01 2.259438335895538330e-01 -2.281080484390258789e-01 1.436321586370468140e-01 -1.560770422220230103e-01 1.123889014124870300e-01 4.057568311691284180e-02 2.387582361698150635e-01 -1.042859628796577454e-02 1.947844773530960083e-01 -1.581659615039825439e-01 1.686653196811676025e-01 1.206555366516113281e-01 2.004318684339523315e-01 -2.546924538910388947e-02 2.232975959777832031e-01 1.494276076555252075e-01 -8.300495892763137817e-02 -5.713605508208274841e-02 1.395417004823684692e-01 -2.665902376174926758e-01 -2.185512147843837738e-02 -2.359640747308731079e-01 -1.322546005249023438e-01 1.444914042949676514e-01 -1.463865190744400024e-01 -9.468246251344680786e-02 -1.450877487659454346e-01 -2.523103058338165283e-01 1.175570264458656311e-01 2.071224004030227661e-01 -2.129174172878265381e-01 -1.960890889167785645e-01 2.150155603885650635e-01 -1.152487397193908691e-01 1.523368954658508301e-01 -1.274519860744476318e-01 -1.408996731042861938e-01 -8.294288069009780884e-02 -3.838480263948440552e-02 2.354953885078430176e-01 2.521938681602478027e-01 7.694388274103403091e-03 -7.752098143100738525e-02 -1.402851641178131104e-01 -1.926282942295074463e-01 -1.258508414030075073e-01 -1.971631348133087158e-01 1.632883995771408081e-01 2.229904979467391968e-01 1.361597096547484398e-03 5.582555755972862244e-02 -7.834264636039733887e-02 -1.548206359148025513e-01 2.081219106912612915e-01 1.165341138839721680e-01 1.220628544688224792e-01 -1.016134321689605713e-01 5.912539735436439514e-02 -1.030092909932136536e-01 1.032318100333213806e-01 1.129120215773582458e-01 -8.398666977882385254e-02 -3.286584047600626945e-03 1.276383250951766968e-01 -1.324362307786941528e-01 -1.887673139572143555e-01 4.937681555747985840e-02 -3.799951402470469475e-03 1.179749220609664917e-01 -3.053723573684692383e-01 2.947779595851898193e-01 -1.647380292415618896e-01 5.361480638384819031e-02 -1.066659912467002869e-01 3.140541315078735352e-01 -2.088933587074279785e-01 -1.307173073291778564e-01 1.702281087636947632e-01 -2.501663938164710999e-02 8.440125966444611549e-04 9.507297724485397339e-02 6.743716448545455933e-02 -2.991232275962829590e-01 3.107114732265472412e-01 -1.123995631933212280e-01
7.480841130018234253e-02 1.758714020252227783e-01 4.976426810026168823e-02 -2.282768338918685913e-01 1.243459656834602356e-01 -2.598313987255096436e-01 2.341613173484802246e-01 -2.673804201185703278e-02 1.612751185894012451e-01 1.231307387351989746e-01 2.081969827413558960e-01 3.176628947257995605e-01 -7.488235831260681152e-02 5.947672128677368164e-01 -7.596094906330108643e-02 -3.611588478088378906e-02 1.223372370004653931e-01 -8.743947744369506836e-02 -1.437321156263351440e-01 4.965473711490631104e-02 -1.331970989704132080e-01 -8.110398799180984497e-02 5.335396528244018555e-01 -2.115073949098587036e-01 -1.897505819797515869e-01 -4.031644016504287720e-02 6.833474338054656982e-02 -2.317897528409957886e-01 -1.153167039155960083e-01 3.183363080024719238e-01 4.186211619526147842e-03 7.601445540785789490e-03 1.643615216016769409e-01 2.387467473745346069e-01 -2.032738476991653442e-01 -2.091291695833206177e-01 1.247692108154296875e-01 -1.404985934495925903e-01 1.314988732337951660e-01 2.044535428285598755e-01 1.470712423324584961e-01 2.442694641649723053e-02 -1.197336465120315552e-01 1.394649893045425415e-01 4.857942089438438416e-02 1.665472984313964844e-01 -9.491915255784988403e-02 1.313703209161758423e-01 -1.339064985513687134e-01 4.218300282955169678e-01 8.856118470430374146e-02 -1.014688890427350998e-02 -3.371488153934478760e-01 -2.236563898622989655e-02 2.216428965330123901e-01 1.586302369832992554e-01 9.915307909250259399e-02 2.602433562278747559e-01 9.447880834341049194e-02 6.178837269544601440e-02 1.614173650741577148e-01 2.536812983453273773e-02 -3.947419822216033936e-01 3.048290014266967773e-01 4.536713659763336182e-02 -2.124277641996741295e-03 -5.897229909896850586e-02 -4.933429881930351257e-02 -7.423548400402069092e-02 -2.377396672964096069e-01 -1.152738258242607117e-01 5.983473733067512512e-02 6.904766708612442017e-02 6.459460407495498657e-02 4.425127059221267700e-02 -6.652727723121643066e-03 3.138032257556915283e-01 -8.045754581689834595e-02 -1.387731432914733887e-01 6.569864600896835327e-02 1.931352615356445312e-01 4.775618016719818115e-02 6.910014152526855469e-02 3.239409625530242920e-01 8.279393613338470459e-02 2.067518532276153564e-01 -8.818906731903553009e-03 -1.742098033428192139e-01 1.930307894945144653e-01 -4.265206307172775269e-02 -1.857621781527996063e-02 1.915806382894515991e-01 2.034267485141754150e-01 1.373223066329956055e-01 1.101544350385665894e-01 -2.068710625171661377e-01 1.342987865209579468e-01 -1.947000920772552490e-01 -1.829830557107925415e-01 -2.557088993489742279e-02 6.178818270564079285e-02 3.535858094692230225e-01 -4.432794451713562012e-02 2.227796465158462524e-01 -3.278753161430358887e-02 -7.930785417556762695e-02 -9.513380378484725952e-02 1.423294097185134888e-01 -2.373212724924087524e-01 3.228274285793304443e-01 2.574240565299987793e-01 1.301443278789520264e-01 -2.059404850006103516e-01 2.144229263067245483e-01 -8.695254474878311157e-02 -1.996086090803146362e-01 1.051160991191864014e-01 2.448697537183761597e-01 -1.127506271004676819e-01 -4.374451637268066406e-01 -9.447102434933185577e-03 -3.734682872891426086e-02 -1.344224363565444946e-01 9.804363548755645752e-02 6.607120484113693237e-02 -3.039250075817108154e-01 2.282779216766357422e-01 -1.861860305070877075e-01
1.518922150135040283e-01 -4.182066619396209717e-01 -1.635808348655700684e-01 -1.733867675065994263e-01 1.605639457702636719e-01 1.646652072668075562e-01 -1.925802975893020630e-01 1.483124797232449055e-04 -8.184536360204219818e-03 -2.691109776496887207e-01 -1.912012398242950439e-01 2.378109097480773926e-02 1.470697820186614990e-01 -2.107908576726913452e-01 2.700600028038024902e-01 -1.593285202980041504e-01 -2.558773159980773926e-01 1.757145114243030548e-02 -1.218750607222318649e-03 -1.197185888886451721e-01 -6.627110391855239868e-02 7.122411578893661499e-02 1.559535115957260132e-01 2.025406062602996826e-01 7.209890335798263550e-02 1.537656635046005249e-01 2.111581712961196899e-02 -1.085040792822837830e-01 2.743940949440002441e-01 -1.132408976554870605e-01 1.580674648284912109e-01 -3.068187832832336426e-01 3.194788992404937744e-01 -1.837015450000762939e-01 8.682125061750411987e-02 -2.303628250956535339e-02 -1.458261907100677490e-01 -1.565194576978683472e-01 -1.584970355033874512e-01 4.333196207880973816e-02 -3.118682093918323517e-02 1.028428599238395691e-02 -2.369695721426978707e-04 -1.343403905630111694e-01 1.324738264083862305e-01 -3.025184571743011475e-01 4.973576590418815613e-02 1.803766191005706787e-01 1.311662346124649048e-01 6.525810807943344116e-02 1.909076422452926636e-02 -2.281975597143173218e-01 4.297738969326019287e-01 -1.527606844902038574e-01 -9.505970031023025513e-02 -2.501055411994457245e-02 1.336249895393848419e-02 -1.650934517383575439e-01 1.007715240120887756e-01 3.244493305683135986e-01 -9.412869811058044434e-02 -1.950007081031799316e-01 2.936158478260040283e-01 -1.411961615085601807e-01 3.952877223491668701e-02 1.058331578969955444e-01 1.437974423170089722e-01 -4.837718605995178223e-02 1.158315762877464294e-01 7.460505515336990356e-02 -8.528298139572143555e-02 -6.799422204494476318e-02 2.516695670783519745e-02 5.509528145194053650e-02 -1.879725456237792969e-01 -1.711655557155609131e-01 -1.648249179124832153e-01 2.042416632175445557e-01 -1.177902426570653915e-02 1.633469611406326294e-01 1.632176786661148071e-01 -1.129784360527992249e-01 5.342283844947814941e-02 4.441494587808847427e-03 7.094513159245252609e-03 -1.408455222845077515e-01 -2.312782108783721924e-01 9.960017353296279907e-02 1.223141625523567200e-01 -2.136800251901149750e-02 -2.903280556201934814e-01 -4.197982698678970337e-02 -1.941303014755249023e-01 9.244734421372413635e-03 -2.896936610341072083e-02 6.016325205564498901e-02 -4.234840571880340576e-01 2.004377730190753937e-02 1.299022734165191650e-01 1.314358860254287720e-01 -2.137989401817321777e-01 -1.753969490528106689e-01 -2.205913215875625610e-01 -1.592956185340881348e-01 1.120978668332099915e-01 2.288352102041244507e-01 -1.082893759012222290e-01 -1.764404773712158203e-01 7.494961842894554138e-03 -4.991246163845062256e-01 -1.891175508499145508e-01 -9.174241870641708374e-02 -4.223261028528213501e-02 -2.397785782814025879e-01 -1.199577525258064270e-01 -3.556538000702857971e-02 -9.083941578865051270e-02 -4.858995974063873291e-02 1.231317296624183655e-01 2.564526796340942383e-01 -8.462086319923400879e-02 2.444902956485748291e-01 1.673180013895034790e-01 -5.001081526279449463e-02 -3.754007816314697266e-02 2.343731187283992767e-02 -1.192326694726943970e-01 1.261028796434402466e-01
2.004072219133377075e-01 -4.221770167350769043e-01 -3.772163987159729004e-01 2.342074960470199585e-01 -2.081454545259475708e-01 1.661238968372344971e-01 -2.615342438220977783e-01 2.789313793182373047e-01 -4.680443927645683289e-02 7.419430464506149292e-02 -1.185277849435806274e-02 -1.249283626675605774e-01 -1.388496905565261841e-01 -1.121513918042182922e-01 2.215517759323120117e-01 3.182274997234344482e-01 3.417076170444488525e-02 -3.373402953147888184e-01 -1.523069590330123901e-01 -1.728424280881881714e-01 8.942847698926925659e-02 8.588860929012298584e-02 1.384638398885726929e-01 6.079128012061119080e-02 -1.029304414987564087e-01 1.168887987732887268e-01 3.254977345932275057e-04 -2.343427985906600952e-01 3.459647893905639648e-01 -4.749920591711997986e-02 1.933954954147338867e-01 1.519482731819152832e-01 1.008900701999664307e-01 -9.381607174873352051e-02 -3.597295284271240234e-01 6.047481298446655273e-02 7.766124326735734940e-03 3.671051263809204102e-01 1.325823068618774414e-01 -3.457755222916603088e-02 -2.024883925914764404e-01 7.609135657548904419e-02 6.315031647682189941e-02 3.312807381153106689e-01 -3.652712702751159668e-01 -2.155894227325916290e-02 3.519131541252136230e-01 3.988427519798278809e-01 -8.621674031019210815e-03 1.811348348855972290e-01 4.249773174524307251e-02 -2.297175526618957520e-01 8.409556746482849121e-02 5.453092604875564575e-02 2.364964187145233154e-01 7.464535534381866455e-02 6.107308343052864075e-02 2.167076021432876587e-01 1.467236876487731934e-01 -1.844606399536132812e-01 6.832551211118698120e-02 -1.957224756479263306e-01 2.885000705718994141e-01 -3.222583830356597900e-01 -2.173477709293365479e-01 2.295967489480972290e-01 3.138047158718109131e-01 -7.962540537118911743e-02 -1.751226484775543213e-01 -1.130199208855628967e-01 -1.408312022686004639e-01 2.549434900283813477e-01 2.363128215074539185e-01 1.686600297689437866e-01 2.215311527252197266e-01 4.531188905239105225e-01 -3.132264614105224609e-01 2.514829933643341064e-01 -3.237577378749847412e-01 -2.247123420238494873e-01 -2.706169188022613525e-01 1.149563118815422058e-03 1.772280186414718628e-01 -3.200586140155792236e-01 2.958470582962036133e-01 -4.493937268853187561e-02 2.607078552246093750e-01 1.900019310414791107e-02 3.699123263359069824e-01 6.136443838477134705e-02 -4.728872701525688171e-02 3.230446279048919678e-01 2.663931846618652344e-01 -9.755681455135345459e-02 -1.265192627906799316e-01 3.018801510334014893e-01 -1.421996057033538818e-01 -6.676000077277421951e-03 -1.009374484419822693e-02 1.265602409839630127e-01 -6.146675720810890198e-02 -1.067723706364631653e-01 2.697636187076568604e-01 1.997380107641220093e-01 2.219077646732330322e-01 6.949850916862487793e-02 9.763166308403015137e-03 2.490792125463485718e-01 -1.310763359069824219e-01 -1.697429418563842773e-01 -1.883992850780487061e-01 -1.400049179792404175e-01 5.339202284812927246e-02 -4.511315524578094482e-01 -8.002912998199462891e-02 1.360432952642440796e-01 -3.309948369860649109e-02 1.774031482636928558e-02 -1.562113314867019653e-01 2.771250009536743164e-01 -7.754857186228036880e-03 2.036988139152526855e-01 3.609980642795562744e-01 1.592618376016616821e-01 1.289088875055313110e-01 -9.194220602512359619e-02 -1.210656762123107910e-01 -1.743919565342366695e-03
