-2.554650008678436279e-01 -1.169639348983764648e+00 -1.449833363294601440e-01 -1.435604244470596313e-01 -6.981822848320007324e-01 7.051675319671630859e-01 2.517583370208740234e-01 8.731581568717956543e-01 -9.522748179733753204e-03 7.653526067733764648e-01 7.798190116882324219e-01 -3.676203787326812744e-01 -6.325525045394897461e-01 -4.935168102383613586e-02 2.823806405067443848e-01 1.357836246490478516e+00 -2.592085897922515869e-01 -1.767972230911254883e+00 -2.934003472328186035e-01 1.130521968007087708e-01 -1.464703977108001709e-01 -7.814441807568073273e-03 8.590929955244064331e-02 -8.480373024940490723e-01 1.152998089790344238e+00 -3.767738044261932373e-01 1.546064019203186035e-01 2.184681296348571777e-01 -1.160302236676216125e-01 -2.126818001270294189e-01 -3.496372103691101074e-01 -3.726267442107200623e-02 -5.112661123275756836e-01 -5.487045049667358398e-01 5.894674658775329590e-01 8.133387193083763123e-03 -6.064832806587219238e-01 1.347363948822021484e+00 -1.151350587606430054e-01 6.950394511222839355e-01 4.955479204654693604e-01 3.548655807971954346e-01 4.822440445423126221e-01 1.594730913639068604e-01 -8.472228050231933594e-01 -1.133621111512184143e-01 9.745178222656250000e-01 -7.101683020591735840e-01 1.094410195946693420e-01 -2.164602130651473999e-01 3.375338390469551086e-02 -6.870844364166259766e-01 3.923189043998718262e-01 4.295433759689331055e-01 -1.969616264104843140e-01 -1.003931522369384766e+00 -3.227575719356536865e-01 -1.826250106096267700e-01 -7.534653544425964355e-01 -8.887668251991271973e-01 -4.917705059051513672e-02 -7.046144604682922363e-01 1.361712098121643066e+00 6.526499241590499878e-02 -3.929739594459533691e-01 2.833596765995025635e-01 4.863264560699462891e-01 -1.021489262580871582e+00 -1.284491270780563354e-01 -1.035973653197288513e-01 2.828479930758476257e-02 -1.726822704076766968e-01 -2.020240545272827148e+00 -2.559478580951690674e-01 -3.190483748912811279e-01 2.208537459373474121e-01 -3.652003705501556396e-01 1.345812797546386719e+00 -3.139477968215942383e-01 -3.598634302616119385e-01 -8.360169529914855957e-01 8.181682229042053223e-01 -1.909333616495132446e-01 -2.121540457010269165e-01 -1.033773347735404968e-01 5.388771295547485352e-01 1.059237122535705566e+00 -3.018644452095031738e-01 -6.655638813972473145e-01 2.711268067359924316e-01 -3.240531086921691895e-01 -3.724985718727111816e-01 7.619317173957824707e-01 -3.176840543746948242e-01 1.839687347412109375e+00 2.687338590621948242e-01 4.837841391563415527e-01 -6.181093454360961914e-01 -5.735610723495483398e-01 -6.543003916740417480e-01 -3.814147710800170898e-01 -2.130289524793624878e-01 6.855654120445251465e-01 -1.761428117752075195e-01 2.265100777149200439e-01 -9.831360578536987305e-01 1.421979069709777832e-01 -1.515594720840454102e-01 -3.183756470680236816e-01 -1.399526119232177734e+00 3.114251494407653809e-01 6.082274913787841797e-01 -5.661967992782592773e-01 -9.236456751823425293e-01 1.664364039897918701e-01 -6.678556799888610840e-01 1.389986276626586914e-01 9.971253573894500732e-02 1.209910884499549866e-01 -4.623158872127532959e-01 -3.709077537059783936e-01 2.393679916858673096e-01 -9.791234135627746582e-01 5.435003340244293213e-02 -2.535541951656341553e-01 -6.028214097023010254e-01 -2.580067813396453857e-01 -7.537049055099487305e-02
5.439932942390441895e-01 8.289028704166412354e-02 -3.181455135345458984e-01 6.130877137184143066e-01 -7.399523854255676270e-01 -1.316327750682830811e-01 4.312547855079174042e-03 2.352719306945800781e-01 2.748982012271881104e-01 -1.739554405212402344e-01 -2.699121236801147461e-01 3.411294221878051758e-01 -6.940692067146301270e-01 3.758316636085510254e-01 6.505611538887023926e-01 -9.230457991361618042e-02 2.479678094387054443e-01 3.946917131543159485e-02 -8.484951406717300415e-02 1.050957590341567993e-01 -2.902054190635681152e-01 5.302450060844421387e-01 -8.629868626594543457e-01 9.868266433477401733e-02 2.852253150194883347e-03 -5.734154582023620605e-01 5.008400678634643555e-01 -2.364849746227264404e-01 -1.152865648269653320e+00 -2.105080336332321167e-01 6.251364350318908691e-01 -4.045657813549041748e-01 3.340893983840942383e-01 -1.688560843467712402e+00 -5.307585597038269043e-01 -9.529711306095123291e-02 -5.297150611877441406e-01 -4.115471616387367249e-02 1.476103514432907104e-01 6.043805480003356934e-01 5.553725957870483398e-01 6.997268795967102051e-01 -2.950375676155090332e-01 4.790385365486145020e-01 -3.270206749439239502e-01 6.096503511071205139e-02 5.547968149185180664e-01 -2.559296190738677979e-01 -9.590692520141601562e-01 4.007511585950851440e-02 -6.038699150085449219e-01 -7.227096557617187500e-01 -1.708293110132217407e-01 4.495245218276977539e-01 -5.552246794104576111e-02 -5.844835042953491211e-01 -3.278846666216850281e-02 4.735816717147827148e-01 5.579156875610351562e-01 -4.305362701416015625e-01 -4.803539514541625977e-01 -1.232362315058708191e-01 -4.793724715709686279e-01 -9.878695011138916016e-02 -2.670041322708129883e-01 -2.100401520729064941e-01 -2.842503786087036133e-01 -6.794439554214477539e-01 -6.202611923217773438e-01 1.337507665157318115e-01 5.625304579734802246e-01 -5.145013332366943359e-01 -1.903950721025466919e-01 -9.759174287319183350e-02 -7.405767440795898438e-01 1.200187444686889648e+00 1.618690043687820435e-01 4.455007314682006836e-01 -5.014237482100725174e-03 -3.674765527248382568e-01 -1.966638267040252686e-01 8.105893433094024658e-02 4.584986269474029541e-01 1.714340150356292725e-01 4.946893751621246338e-01 4.975619316101074219e-01 3.881138935685157776e-02 8.730363100767135620e-02 -1.331638991832733154e-01 5.365949869155883789e-01 -3.014372587203979492e-01 3.043469786643981934e-01 -1.287136673927307129e-01 -3.213440775871276855e-01 7.198655009269714355e-01 -1.844899356365203857e-01 -1.966237127780914307e-01 7.798182368278503418e-01 1.626608371734619141e-01 5.162605047225952148e-01 6.357724070549011230e-01 -3.747348785400390625e-01 -3.422903120517730713e-01 2.926378548145294189e-01 5.386974215507507324e-01 -1.440043300390243530e-01 3.301091194152832031e-01 -5.463756322860717773e-01 -4.528798758983612061e-01 1.734495609998703003e-01 -3.854052722454071045e-02 8.263065814971923828e-01 3.149927258491516113e-01 -7.129143476486206055e-01 3.063035011291503906e-01 -5.408922433853149414e-01 -3.125670254230499268e-01 -1.262038201093673706e-01 2.069464027881622314e-01 -2.538596093654632568e-01 1.039076223969459534e-01 -1.132961921393871307e-02 5.270919799804687500e-01 5.658400654792785645e-01 -6.091555580496788025e-02 -1.278552889823913574e+00 -2.300169169902801514e-01 5.086628198623657227e-01
1.538960933685302734e-01 7.326202392578125000e-01 -2.678256928920745850e-01 4.991263896226882935e-02 -6.049341559410095215e-01 -7.751351594924926758e-01 -6.094576120376586914e-01 -4.000284373760223389e-01 1.314533054828643799e-01 -8.577756285667419434e-01 6.440234929323196411e-02 7.977627515792846680e-01 1.108429908752441406e+00 -3.752558529376983643e-01 -2.943429052829742432e-01 -1.206650361418724060e-01 -4.770562350749969482e-01 1.064506649971008301e+00 -2.023083716630935669e-01 -1.163442730903625488e-01 2.744380235671997070e-01 -6.176233887672424316e-01 9.722425937652587891e-01 2.323506474494934082e-01 -6.305312514305114746e-01 3.448908030986785889e-01 -1.537537127733230591e-01 -1.597917526960372925e-01 -5.032357573509216309e-01 8.406983315944671631e-02 2.508597671985626221e-01 1.578637063503265381e-01 3.638720512390136719e-01 1.781741976737976074e-01 -7.170094549655914307e-02 6.840287148952484131e-02 5.963821411132812500e-01 -6.850946545600891113e-01 3.603025376796722412e-01 6.859549134969711304e-02 -4.786056280136108398e-01 -9.478598088026046753e-02 -1.874127686023712158e-01 -2.407291531562805176e-01 2.814149260520935059e-01 -2.742240428924560547e-01 -2.369492799043655396e-01 5.809556841850280762e-01 2.398403584957122803e-01 -3.198816180229187012e-01 1.926392018795013428e-01 3.885576426982879639e-01 -1.780364364385604858e-01 -2.600477635860443115e-01 3.186194226145744324e-02 4.942646324634552002e-01 2.946132421493530273e-01 2.275973409414291382e-01 1.982028037309646606e-01 -4.158219695091247559e-02 1.207551881670951843e-01 -4.285359680652618408e-01 5.338653922080993652e-02 -1.221648007631301880e-01 2.137254476547241211e-01 1.507396996021270752e-01 -7.689619064331054688e-02 4.542527794837951660e-01 4.297786653041839600e-01 4.198416769504547119e-01 -5.850009620189666748e-02 2.564830472692847252e-03 -1.730465739965438843e-01 -1.657145172357559204e-01 5.544512271881103516e-01 -2.618957757949829102e-01 -4.076681435108184814e-01 -1.217017620801925659e-01 1.098004132509231567e-01 -1.959006041288375854e-01 8.270617127418518066e-01 -4.553128182888031006e-01 -1.118506416678428650e-01 5.589503049850463867e-01 -1.003527790307998657e-01 2.369362115859985352e-01 4.008598327636718750e-01 1.656366884708404541e-01 3.489513099193572998e-01 3.180762231349945068e-01 -6.929858773946762085e-02 1.947370171546936035e-01 -2.543909549713134766e-01 2.357764989137649536e-01 -2.067227810621261597e-01 -3.824505805969238281e-01 -5.003821253776550293e-01 6.828472763299942017e-02 -1.417370140552520752e-01 -1.583969444036483765e-01 4.540850222110748291e-01 -1.165464222431182861e-01 1.096393615007400513e-01 -1.593622863292694092e-01 -4.485194385051727295e-01 -7.402024269104003906e-01 -3.024004995822906494e-01 -5.488793253898620605e-01 -2.232964634895324707e-01 -3.238617777824401855e-01 -5.466639995574951172e-01 -1.339484751224517822e-01 -1.303029358386993408e-01 -6.688436027616262436e-03 -1.732596457004547119e-01 1.083545312285423279e-01 5.384490489959716797e-01 -5.161486193537712097e-02 7.225579023361206055e-02 6.974034309387207031e-01 3.287241458892822266e-01 2.600156068801879883e-01 2.784474566578865051e-02 -2.294706553220748901e-01 2.253667861223220825e-01 3.954182565212249756e-01 -8.378364890813827515e-02 2.311361432075500488e-01
-4.268133640289306641e-01 6.443987041711807251e-02 4.853064715862274170e-01 -5.676248073577880859e-01 8.089784383773803711e-01 1.820905953645706177e-01 5.996790528297424316e-01 5.512658953666687012e-01 -5.366251803934574127e-03 -4.669008851051330566e-01 3.694583177566528320e-01 5.490174293518066406e-01 -3.353111743927001953e-01 -6.095730662345886230e-01 -2.551612444221973419e-02 -1.081333681941032410e-01 7.986459136009216309e-02 1.350672006607055664e+00 6.262437999248504639e-02 -2.688798010349273682e-01 2.197410762310028076e-01 1.629261225461959839e-01 -8.130187988281250000e-01 -1.577398926019668579e-01 7.394146919250488281e-01 -6.562647819519042969e-01 -2.085498571395874023e-01 -5.655581504106521606e-02 -8.306850790977478027e-01 -4.455121755599975586e-01 -9.126244485378265381e-02 -3.647361993789672852e-01 -5.278682708740234375e-01 -1.006726980209350586e+00 -6.828466653823852539e-01 -4.477397799491882324e-01 -6.257043480873107910e-01 -8.198671787977218628e-02 5.162050724029541016e-01 -4.514306783676147461e-02 -8.516765832901000977e-01 -6.329797208309173584e-02 -2.263470143079757690e-01 4.387130141258239746e-01 9.879984855651855469e-01 -1.986879259347915649e-01 -2.653348743915557861e-01 -1.901145428419113159e-01 -3.797214925289154053e-01 1.181402802467346191e-01 -3.689175844192504883e-02 6.413684487342834473e-01 -4.509699940681457520e-01 7.906536012887954712e-02 -4.760760068893432617e-01 -1.827841550111770630e-01 1.033748760819435120e-01 5.781993865966796875e-01 8.216278553009033203e-01 -2.156577557325363159e-01 7.498400211334228516e-01 2.101979404687881470e-02 -2.248319387435913086e-01 -1.122419461607933044e-01 -1.926544904708862305e-01 -1.044352650642395020e-01 3.525978624820709229e-01 2.055235356092453003e-01 -9.032706618309020996e-01 4.272115826606750488e-01 8.496472239494323730e-01 -7.874634861946105957e-01 1.972334086894989014e-02 8.228644728660583496e-01 3.787405788898468018e-01 3.936349451541900635e-01 8.842567354440689087e-02 5.868677794933319092e-02 -2.224764972925186157e-01 7.902533411979675293e-01 -4.128188490867614746e-01 -1.544806510210037231e-01 2.895977795124053955e-01 -4.898125827312469482e-01 6.657789945602416992e-01 -4.998359978199005127e-01 3.083082288503646851e-02 5.221736431121826172e-01 -6.313940882682800293e-01 -4.766908586025238037e-01 -1.173549219965934753e-01 6.320861577987670898e-01 -1.031221389770507812e+00 2.473437227308750153e-02 3.058453556150197983e-03 -1.059112325310707092e-01 5.205322504043579102e-01 4.294709861278533936e-01 -4.230067133903503418e-01 8.435140848159790039e-01 -9.404868632555007935e-02 1.336829215288162231e-01 -3.049657344818115234e-01 -1.355997771024703979e-01 5.102007463574409485e-02 -4.611717462539672852e-01 3.143480792641639709e-02 3.221530318260192871e-01 -2.248831987380981445e-01 9.033813476562500000e-01 3.936174809932708740e-01 -5.471518635749816895e-01 -1.901235878467559814e-01 -4.335533678531646729e-01 -1.148410886526107788e-01 7.068510651588439941e-01 6.149987131357192993e-02 -4.071981646120548248e-03 4.406060278415679932e-01 -6.987331509590148926e-01 6.370212137699127197e-02 4.991317987442016602e-01 4.480473399162292480e-01 2.535029351711273193e-01 -6.401521563529968262e-01 2.562266290187835693e-01 -3.335575461387634277e-01 -2.476754188537597656e-01
-1.013717651367187500e-01 -4.374154508113861084e-01 -2.165980339050292969e-01 -1.790270507335662842e-01 2.209444046020507812e-01 1.743790507316589355e-01 3.541890680789947510e-01 -9.307383298873901367e-01 2.403139770030975342e-01 8.690296113491058350e-02 1.587527990341186523e-02 -3.303436636924743652e-01 1.085552334785461426e+00 -3.104086220264434814e-01 -4.284384250640869141e-01 1.386061757802963257e-01 6.150196865200996399e-02 -2.359338998794555664e+00 -3.706429600715637207e-01 5.320169404149055481e-02 4.661558866500854492e-01 -1.383418142795562744e-01 2.738620340824127197e-01 1.973652094602584839e-01 -7.757156342267990112e-02 6.434424966573715210e-02 -2.514980435371398926e-01 -3.729151487350463867e-01 4.005419015884399414e-01 8.786295354366302490e-02 -6.327382922172546387e-01 -6.749721765518188477e-01 3.242902457714080811e-01 9.602801203727722168e-01 -3.400886952877044678e-01 8.251612782478332520e-01 -4.403730630874633789e-01 2.446645498275756836e-01 2.346341609954833984e-01 -2.301736921072006226e-02 -4.623315632343292236e-01 -3.565495610237121582e-01 2.949058115482330322e-01 -2.489585727453231812e-01 -1.641681194305419922e-01 -7.873812913894653320e-01 -7.715518474578857422e-01 3.713927865028381348e-01 5.702579393982887268e-02 1.967907547950744629e-01 1.146346181631088257e-01 -4.677963256835937500e-02 5.481048226356506348e-01 1.432298421859741211e-01 7.515686005353927612e-02 3.044142201542854309e-02 -6.232311576604843140e-02 7.603854537010192871e-01 -5.197014808654785156e-01 -8.990191668272018433e-02 -2.620242238044738770e-01 3.319168984889984131e-01 1.430319845676422119e-01 -9.598553180694580078e-02 -2.622177898883819580e-01 6.864874362945556641e-01 5.834569334983825684e-01 1.915342360734939575e-01 -1.782637387514114380e-01 3.690573871135711670e-01 -3.850119709968566895e-01 1.391137242317199707e-01 -4.713642597198486328e-01 -2.870440483093261719e-01 2.814026176929473877e-01 -5.651536863297224045e-03 -2.887690253555774689e-02 -4.594237506389617920e-01 -4.117388427257537842e-01 -3.283041417598724365e-01 -4.621322751045227051e-01 1.066895434632897377e-03 -3.535110354423522949e-01 -1.622022867202758789e+00 -2.079273313283920288e-01 -4.170044958591461182e-01 -3.990627825260162354e-01 -3.451452851295471191e-01 -2.963471412658691406e-01 -1.101904630661010742e+00 -5.175767838954925537e-02 3.039051294326782227e-01 -9.917877316474914551e-01 -3.751909732818603516e-01 -1.077800840139389038e-01 6.635963916778564453e-01 3.041583113372325897e-02 -5.203564167022705078e-01 -2.680381834506988525e-01 -5.254047513008117676e-01 -2.941858470439910889e-01 2.769053541123867035e-02 3.273494839668273926e-01 4.355754554271697998e-01 2.555482685565948486e-01 -6.142915040254592896e-02 -1.031457036733627319e-01 5.790067911148071289e-01 -2.295497804880142212e-01 -5.163237452507019043e-02 3.989253342151641846e-01 -8.518163561820983887e-01 -6.027775406837463379e-01 1.764608740806579590e+00 -1.837005168199539185e-01 1.250580072402954102e+00 4.828514456748962402e-01 -3.493202626705169678e-01 5.875812768936157227e-01 1.105043649673461914e+00 1.647680252790451050e-01 -1.114134266972541809e-01 1.311561614274978638e-01 1.180890854448080063e-02 -2.261753231287002563e-01 1.026068687438964844e+00 1.910623162984848022e-01 2.312381118535995483e-01
2.027830630540847778e-01 -7.528114318847656250e-01 1.654039382934570312e+00 2.323209494352340698e-01 -5.202408432960510254e-01 2.019778937101364136e-01 -6.227515935897827148e-01 -3.352718353271484375e-01 6.260717660188674927e-02 -4.446178674697875977e-02 -2.195531688630580902e-02 1.102172017097473145e+00 2.052157819271087646e-01 1.498650014400482178e-01 3.246051669120788574e-01 1.628015488386154175e-01 5.896158814430236816e-01 -2.599564075469970703e+00 2.888297140598297119e-01 -2.242817878723144531e-01 -2.019205316901206970e-02 3.329415023326873779e-01 4.655231833457946777e-01 -3.733362853527069092e-01 6.282122433185577393e-02 -1.266045868396759033e-01 -2.034986913204193115e-01 -1.582493931055068970e-01 3.045409023761749268e-01 -6.335502266883850098e-01 2.015209347009658813e-01 -1.106872931122779846e-01 6.277551054954528809e-01 1.675769388675689697e-01 -6.948413252830505371e-01 2.379762828350067139e-01 1.028936635702848434e-02 -6.898574531078338623e-02 -5.254283547401428223e-01 -1.321687828749418259e-02 1.119609922170639038e-01 -5.197828412055969238e-01 1.340042501688003540e-01 1.205663084983825684e-01 -5.361323952674865723e-01 -8.915665745735168457e-02 -2.927318513393402100e-01 4.106583893299102783e-01 -2.374107949435710907e-02 6.231229901313781738e-01 -3.870702683925628662e-01 6.081688031554222107e-02 3.558661341667175293e-01 -8.597745746374130249e-02 1.209586784243583679e-01 -1.118030309677124023e+00 5.208199145272374153e-04 -4.756117463111877441e-01 3.625573217868804932e-01 -9.574022889137268066e-02 -7.120314836502075195e-01 -1.940725743770599365e-02 1.478064894676208496e+00 2.624442242085933685e-02 -5.905232951045036316e-02 -3.055145740509033203e-01 3.837940096855163574e-01 -1.229218617081642151e-01 1.815505921840667725e-01 -1.795312464237213135e-01 5.399197936058044434e-01 1.937492340803146362e-01 -1.319235116243362427e-01 1.849642992019653320e-01 -5.588185191154479980e-01 5.497267246246337891e-01 -1.370424926280975342e-01 6.527821421623229980e-01 -1.737484037876129150e-01 -3.740382939577102661e-02 1.817891746759414673e-01 1.198159307241439819e-01 4.680628180503845215e-01 -7.450827956199645996e-01 3.431025147438049316e-01 1.713711470365524292e-01 6.088520884513854980e-01 -5.602777004241943359e-01 6.021330356597900391e-01 -1.275850892066955566e+00 -3.378080725669860840e-01 -3.874454498291015625e-01 1.544265300035476685e-01 -5.941479206085205078e-01 8.211399316787719727e-01 2.744811177253723145e-01 -3.178458511829376221e-01 4.820002019405364990e-01 3.621705770492553711e-01 5.735930204391479492e-01 4.977922737598419189e-01 1.275557428598403931e-01 3.298435509204864502e-01 -1.109854970127344131e-02 1.049313768744468689e-01 -4.697426781058311462e-02 -1.070787310600280762e-01 -2.508763074874877930e-01 -4.660037159919738770e-02 8.076710999011993408e-02 -1.241970434784889221e-01 2.687399983406066895e-01 -1.442574560642242432e-01 3.410370275378227234e-02 9.193088859319686890e-02 -4.416714981198310852e-02 1.581719964742660522e-01 3.054885864257812500e-01 2.596265077590942383e-01 5.080136656761169434e-01 -1.685688197612762451e-01 -1.088447570800781250e-01 5.238857269287109375e-01 -1.086834892630577087e-01 2.510115802288055420e-01 -2.250586897134780884e-01 4.816294610500335693e-01 1.537749320268630981e-01
2.173867523670196533e-01 -1.178409457206726074e+00 -2.284981608390808105e-01 2.264790982007980347e-01 -6.842026114463806152e-01 -1.258979290723800659e-01 2.660053968429565430e-01 -9.784677028656005859e-01 7.006736993789672852e-01 7.211847603321075439e-02 1.986657500267028809e+00 -7.462145686149597168e-01 5.266522988677024841e-02 -5.034564733505249023e-01 3.631469309329986572e-01 8.185384273529052734e-01 -2.852897346019744873e-01 -2.870225667953491211e+00 1.621714234352111816e+00 3.821808099746704102e-01 -6.530247926712036133e-01 4.837679564952850342e-01 -3.858802616596221924e-01 1.077081039547920227e-01 1.934790253639221191e+00 -3.272341489791870117e-01 2.876651585102081299e-01 -6.684572696685791016e-01 -1.225724667310714722e-01 2.087039351463317871e-01 -1.427551824599504471e-02 1.246683150529861450e-01 4.224464595317840576e-01 7.847074866294860840e-01 -8.885667324066162109e-01 3.666929304599761963e-01 2.078424394130706787e-02 -3.412574827671051025e-01 1.239951997995376587e-01 3.532559275627136230e-01 -2.191765308380126953e-01 -4.355516731739044189e-01 -4.990798830986022949e-01 -1.182427182793617249e-01 3.133969008922576904e-02 -3.830392956733703613e-01 -9.865405037999153137e-03 8.602516027167439461e-04 4.216533601284027100e-01 -3.932648003101348877e-01 -6.369639635086059570e-01 -5.019398927688598633e-01 -7.007583230733871460e-02 -2.346459627151489258e-01 -4.954206198453903198e-02 -2.360244095325469971e-01 -1.359327137470245361e-01 1.252467483282089233e-01 -1.404015421867370605e-01 1.157898068428039551e+00 4.921253323554992676e-01 4.517220258712768555e-01 -5.655085444450378418e-01 7.172357439994812012e-01 -9.738555550575256348e-02 3.418473899364471436e-01 8.956705331802368164e-01 1.053934574127197266e+00 1.543819457292556763e-01 1.927507966756820679e-01 -9.526105597615242004e-03 6.921123266220092773e-01 -3.427370488643646240e-01 -5.770912766456604004e-01 -6.690469384193420410e-02 7.488159537315368652e-01 1.539214104413986206e-01 4.812012612819671631e-01 6.355788209475576878e-04 -8.082947731018066406e-01 1.922016441822052002e-01 -8.607503771781921387e-02 8.964718580245971680e-01 -1.116139814257621765e-01 4.070675373077392578e-01 -3.418543562293052673e-02 3.022012412548065186e-01 -8.724766373634338379e-01 -8.103792369365692139e-02 -6.756349653005599976e-02 2.092015445232391357e-01 1.134145632386207581e-02 1.150471493601799011e-01 -6.286748051643371582e-01 8.712786436080932617e-01 3.855190873146057129e-01 7.778050899505615234e-01 8.940786123275756836e-01 4.254073798656463623e-01 -1.621026992797851562e-01 1.032692313194274902e+00 1.858636438846588135e-01 2.246757000684738159e-01 6.604638099670410156e-01 7.049111723899841309e-01 1.008116602897644043e-01 1.358549475669860840e+00 -3.253966867923736572e-01 2.976945340633392334e-01 1.396315693855285645e-01 -4.287686645984649658e-01 3.424635529518127441e-01 -3.345598280429840088e-01 4.909056723117828369e-01 5.904882550239562988e-01 -2.303659468889236450e-01 7.404368519783020020e-01 1.133810803294181824e-01 -1.080347448587417603e-01 -4.298870265483856201e-01 7.352347373962402344e-01 2.311429083347320557e-01 -4.450087994337081909e-02 5.577077269554138184e-01 3.978667259216308594e-01 2.244989424943923950e-01 7.539857625961303711e-01 8.887112885713577271e-02
-4.596193730831146240e-01 1.264183670282363892e-01 1.872442662715911865e-01 -3.968552350997924805e-01 7.169945240020751953e-01 7.478774189949035645e-01 -8.430238962173461914e-01 5.839608907699584961e-01 -2.510764300823211670e-01 -9.968732595443725586e-01 1.921439915895462036e-01 -5.956670045852661133e-01 3.532101511955261230e-01 8.969182372093200684e-01 -1.147149205207824707e+00 -1.464322447776794434e+00 7.929994463920593262e-01 -1.132181644439697266e+00 1.669826209545135498e-01 6.372264623641967773e-01 1.569475054740905762e+00 -4.232105314731597900e-01 5.473988056182861328e-01 1.114156246185302734e-01 -2.125214576721191406e+00 -3.910252749919891357e-01 -5.549488663673400879e-01 7.880547046661376953e-01 3.801651597023010254e-01 -9.979381561279296875e-01 -9.893339872360229492e-02 1.334548830986022949e+00 1.611070394515991211e+00 3.587479293346405029e-01 7.061698436737060547e-01 7.451078295707702637e-01 4.829420745372772217e-01 -2.047453448176383972e-02 -2.688225209712982178e-01 -1.791753470897674561e-01 1.393422722816467285e+00 1.004158705472946167e-02 9.139345288276672363e-01 4.456006288528442383e-01 5.486038923263549805e-01 -5.190783739089965820e-01 8.896494507789611816e-01 1.958050012588500977e+00 -4.415562748908996582e-01 -1.563390344381332397e-01 -3.098239004611968994e-01 -1.443569302558898926e+00 6.802648305892944336e-01 -1.538336396217346191e+00 1.436002612113952637e+00 -5.765352845191955566e-01 -3.406434655189514160e-01 9.284694194793701172e-01 1.753995120525360107e-01 8.702167868614196777e-01 6.059246063232421875e-01 2.760004997253417969e+00 9.329490661621093750e-01 -8.924479484558105469e-01 1.041543841361999512e+00 1.176711201667785645e+00 1.257965713739395142e-02 1.228054165840148926e-01 1.879513144493103027e+00 -8.468730449676513672e-01 -1.006844401359558105e+00 5.706405043601989746e-01 2.631560862064361572e-01 3.689741492271423340e-01 8.681185841560363770e-01 4.384538233280181885e-01 -7.609815001487731934e-01 -8.307170867919921875e-01 1.765023946762084961e+00 4.709289371967315674e-01 1.113610029220581055e+00 1.468217372894287109e+00 -4.655505418777465820e-01 5.779102444648742676e-01 1.125021696090698242e+00 9.488665461540222168e-01 5.927138328552246094e-01 -2.681623995304107666e-01 -9.011196494102478027e-01 4.854157865047454834e-01 2.287653684616088867e+00 6.606198847293853760e-02 4.904215037822723389e-01 1.020523071289062500e+00 6.369327306747436523e-01 -1.979114294052124023e+00 -2.013358920812606812e-01 1.211716532707214355e-01 5.691508054733276367e-01 -1.206115245819091797e+00 -6.282639503479003906e-01 -1.719729602336883545e-01 2.290054082870483398e+00 -1.866653323173522949e+00 6.731709241867065430e-01 6.730339527130126953e-01 -4.806555807590484619e-01 8.056795597076416016e-01 -1.838460266590118408e-01 8.822002410888671875e-01 -1.347244977951049805e-01 -2.021811008453369141e-01 -1.029729723930358887e+00 6.554824113845825195e-01 1.586526513099670410e+00 5.216018557548522949e-01 7.205936908721923828e-01 3.412817716598510742e-01 -1.820330262184143066e+00 8.624672293663024902e-01 -3.784414529800415039e-01 -3.781863255426287651e-03 4.178253710269927979e-01 -1.357911586761474609e+00 1.026538968086242676e+00 8.444165587425231934e-01 -4.691476523876190186e-01 -3.518455624580383301e-01
7.299988716840744019e-02 3.162916302680969238e-01 -3.134908080101013184e-01 -1.032447144389152527e-01 -1.999414563179016113e-01 1.900027543306350708e-01 8.843995928764343262e-01 2.011758089065551758e-01 7.061743736267089844e-01 -2.774435281753540039e-01 -2.660605609416961670e-01 1.078195571899414062e-01 3.004613816738128662e-01 5.389839876443147659e-03 2.013511061668395996e-01 1.278774589300155640e-01 6.250882744789123535e-01 3.572172522544860840e-01 -1.053140640258789062e+00 -3.133757412433624268e-01 -6.926035881042480469e-01 4.539293944835662842e-01 6.481791734695434570e-01 -3.840453624725341797e-01 2.730147242546081543e-01 -1.109043657779693604e-01 2.498554736375808716e-01 1.486782878637313843e-01 6.934038400650024414e-01 -2.582076936960220337e-02 -1.013585805892944336e+00 -2.606713399291038513e-02 -5.920485854148864746e-01 3.944073021411895752e-01 -3.244417905807495117e-01 3.739260509610176086e-02 -7.134910225868225098e-01 1.343463063240051270e-01 4.810384288430213928e-02 3.925600349903106689e-01 1.728658527135848999e-01 8.945824950933456421e-02 4.461391866207122803e-01 -1.227342039346694946e-01 -1.100606545805931091e-01 -7.534001022577285767e-02 5.172063708305358887e-01 2.653336226940155029e-01 -6.060192584991455078e-01 1.071351051330566406e+00 1.178168691694736481e-02 6.477028727531433105e-01 1.811178326606750488e-01 -1.629085242748260498e-01 5.312061309814453125e-01 4.472004175186157227e-01 -1.990079879760742188e-01 -7.249227166175842285e-01 -9.237868338823318481e-02 -5.280740261077880859e-01 6.984561085700988770e-01 1.263435035943984985e-01 5.338805317878723145e-01 -5.781574547290802002e-02 4.895198047161102295e-01 6.120909452438354492e-01 -6.525551080703735352e-01 8.491077423095703125e-01 -1.977153420448303223e-01 8.195600509643554688e-01 -1.226014971733093262e+00 -4.814106225967407227e-01 -3.549886941909790039e-01 -6.805945187807083130e-02 4.666543751955032349e-02 -2.407595396041870117e+00 -2.055842429399490356e-01 -5.989519953727722168e-01 8.543888330459594727e-01 -1.301903873682022095e-01 5.161664634943008423e-02 6.635101884603500366e-02 -5.153285861015319824e-01 -3.148091733455657959e-01 -7.331572771072387695e-01 -3.459290862083435059e-01 1.218495011329650879e+00 4.620040208101272583e-02 1.658411026000976562e-01 1.358636140823364258e+00 1.548883914947509766e-01 6.039863824844360352e-01 -3.682031333446502686e-01 -9.077962749870494008e-05 -1.238066911697387695e+00 3.189997281879186630e-03 7.113104313611984253e-02 -1.715163707733154297e+00 -9.229599684476852417e-02 -3.624986112117767334e-01 6.664705872535705566e-01 3.409052267670631409e-02 6.116161346435546875e-01 5.289151668548583984e-01 1.043463945388793945e+00 -3.875072300434112549e-01 -4.063735306262969971e-01 -6.674697399139404297e-01 3.060784935951232910e-01 -8.630663752555847168e-01 -2.858563065528869629e-01 1.073243319988250732e-01 3.425626158714294434e-01 2.531582117080688477e-01 8.440664410591125488e-01 -5.193066596984863281e-01 -7.416093349456787109e-01 7.270482927560806274e-02 -1.575808823108673096e-01 1.234552860260009766e-01 -1.831605881452560425e-01 -1.010283827781677246e+00 2.723518610000610352e-01 4.356950521469116211e-01 2.897324562072753906e-01 -1.843243390321731567e-01 4.339447021484375000e-01 1.795416921377182007e-01
-4.676139354705810547e-01 1.044942259788513184e+00 8.529841899871826172e-02 -5.211173370480537415e-02 2.022685855627059937e-01 4.650953039526939392e-02 6.168184280395507812e-01 9.109439849853515625e-01 1.564587205648422241e-01 2.531955242156982422e-01 -1.647958606481552124e-01 5.374104976654052734e-01 -1.924571841955184937e-01 1.809329628944396973e+00 2.024559229612350464e-01 -1.145232394337654114e-01 -2.242734283208847046e-02 -2.886894941329956055e+00 -4.017747044563293457e-01 -2.233199328184127808e-01 -6.508492827415466309e-01 1.626441255211830139e-02 -2.828640639781951904e-01 1.689057350158691406e-01 6.410973668098449707e-01 9.583322703838348389e-02 9.660724997520446777e-01 1.498401015996932983e-01 3.344900310039520264e-01 1.590161681175231934e+00 -2.469813078641891479e-01 9.818400442600250244e-02 2.831550501286983490e-02 -2.695373594760894775e-01 -2.163617759943008423e-01 8.772498369216918945e-01 -4.868512153625488281e-01 5.231456160545349121e-01 1.316157281398773193e-01 3.362362980842590332e-01 -4.723951965570449829e-02 1.782748997211456299e-01 2.571090161800384521e-01 -2.495669275522232056e-01 1.019161343574523926e+00 -5.374609827995300293e-01 -1.346937566995620728e-01 2.319587469100952148e-01 -1.105471700429916382e-01 8.237591385841369629e-01 -2.257003933191299438e-01 -5.112277269363403320e-01 5.792813026346266270e-04 2.346637099981307983e-01 2.156748026609420776e-01 6.403668969869613647e-02 -1.025083288550376892e-01 8.281353116035461426e-01 -4.042021930217742920e-01 -1.740015000104904175e-01 1.444637537002563477e+00 4.969675838947296143e-02 1.077867746353149414e+00 -3.083689808845520020e-01 2.317106910049915314e-02 -3.473001122474670410e-01 5.347941517829895020e-01 6.134509444236755371e-01 -1.556513011455535889e-01 -1.645602881908416748e-01 -1.819050461053848267e-01 3.829455077648162842e-01 -3.470387160778045654e-01 -3.912303745746612549e-01 4.925317764282226562e-01 -3.287538290023803711e-01 7.702853530645370483e-02 5.239273905754089355e-01 1.508917957544326782e-01 7.421243190765380859e-01 -3.301931917667388916e-01 2.215615510940551758e+00 1.245082914829254150e-01 -1.732725143432617188e+00 -7.768898457288742065e-02 4.497141763567924500e-02 1.928134262561798096e-01 1.376859694719314575e-01 -3.647967800498008728e-02 -1.274985790252685547e+00 4.244370460510253906e-01 -3.124413192272186279e-01 1.973909139633178711e-01 -7.884810566902160645e-01 -1.029077246785163879e-01 4.342256486415863037e-02 2.072064161300659180e+00 -4.642657339572906494e-01 -1.737058460712432861e-01 -1.409000456333160400e-01 2.117348760366439819e-01 -6.337710469961166382e-02 -5.516904592514038086e-02 4.483565986156463623e-01 1.351886689662933350e-01 -4.453838467597961426e-01 -2.453154325485229492e-01 3.535860478878021240e-01 -1.713276952505111694e-01 3.245865404605865479e-01 1.653497219085693359e-01 -1.091518998146057129e+00 3.225290179252624512e-01 -2.982406914234161377e-01 -1.745936088263988495e-02 2.847220376133918762e-02 4.218764603137969971e-01 -9.679549932479858398e-01 -2.556190788745880127e-01 -5.704380869865417480e-01 1.382571309804916382e-01 2.360978126525878906e-01 -4.413400962948799133e-02 7.028816342353820801e-01 1.580986976623535156e-01 -6.307549476623535156e-01 -1.636946648359298706e-01 1.108020842075347900e-01
7.243304252624511719e-01 -8.087888956069946289e-01 2.703980207443237305e-01 2.146396785974502563e-01 5.573902130126953125e-01 -6.989437341690063477e-02 7.904629111289978027e-01 -9.134745001792907715e-01 4.974667727947235107e-01 8.973511457443237305e-01 -9.015053510665893555e-01 -1.376249939203262329e-01 -2.440673857927322388e-01 7.349837571382522583e-02 8.513126373291015625e-01 1.513381004333496094e-01 1.429495811462402344e-01 -2.823735237121582031e+00 -3.374349474906921387e-01 -1.080676466226577759e-01 1.808488219976425171e-01 1.744461059570312500e-01 9.560677409172058105e-02 -5.008609294891357422e-01 -5.852000415325164795e-02 -1.367046236991882324e-01 2.122663557529449463e-01 2.573955953121185303e-01 5.696781873703002930e-01 -9.946715235710144043e-01 -1.517862379550933838e-01 5.219353735446929932e-02 -7.809506654739379883e-01 2.167016416788101196e-01 -5.463397502899169922e-02 6.538099050521850586e-02 -3.903575837612152100e-01 3.268896043300628662e-01 1.076997593045234680e-01 1.618070155382156372e-01 -4.892129451036453247e-02 -5.577351450920104980e-01 2.405734956264495850e-01 -1.636024564504623413e-01 -1.381437629461288452e-01 2.952469587326049805e+00 -8.218710869550704956e-02 3.896656259894371033e-02 4.552994966506958008e-01 1.560196131467819214e-01 -1.403008103370666504e-01 1.632950067520141602e+00 3.542414307594299316e-01 3.531589731574058533e-02 2.953106462955474854e-01 -9.919210672378540039e-01 -1.802832260727882385e-02 2.660634517669677734e-01 1.178086549043655396e-01 6.080602407455444336e-01 -1.159095093607902527e-01 3.420748710632324219e-01 -1.165805831551551819e-01 1.206153750419616699e+00 3.912320137023925781e-01 -9.406517148017883301e-01 4.275873303413391113e-01 -6.858795285224914551e-01 8.645539879798889160e-01 -2.336402982473373413e-01 -9.898284822702407837e-02 -3.334873616695404053e-01 -6.137928962707519531e-01 1.051582336425781250e+00 1.825555860996246338e-01 -2.529643476009368896e-01 -4.657017439603805542e-02 -6.602399796247482300e-02 3.451327979564666748e-01 -1.245737541466951370e-03 -1.267204135656356812e-01 8.760996162891387939e-02 4.316667616367340088e-01 -1.468219637870788574e+00 -4.168133437633514404e-01 6.109033823013305664e-01 -1.000410392880439758e-01 3.659116104245185852e-02 2.349543720483779907e-01 -1.473298668861389160e+00 4.028653800487518311e-01 3.339616656303405762e-01 -2.400179356336593628e-01 7.978526949882507324e-01 -6.055160164833068848e-01 5.960202217102050781e-01 -2.498235106468200684e-01 9.293485283851623535e-01 1.082263886928558350e-02 1.708252131938934326e-01 3.301789611577987671e-02 4.184886515140533447e-01 3.990228474140167236e-02 1.826720684766769409e-01 2.525711655616760254e-01 6.318670511245727539e-01 -1.229732260107994080e-01 1.170592829585075378e-01 1.520187020301818848e+00 4.613541960716247559e-01 6.289285421371459961e-02 -1.921484768390655518e-01 -2.209595143795013428e-01 -5.770497396588325500e-02 3.599411845207214355e-01 -7.164765000343322754e-01 -4.877963569015264511e-03 1.172487497329711914e+00 9.245066344738006592e-02 -1.690858751535415649e-01 -2.527818679809570312e-01 6.158610582351684570e-01 2.308719754219055176e-01 1.228057406842708588e-02 1.698808372020721436e-02 7.115349769592285156e-01 -5.655096471309661865e-02 2.231659889221191406e-01
3.613558411598205566e-02 1.359885632991790771e-01 4.550718367099761963e-01 -2.607272267341613770e-01 5.227693319320678711e-01 -2.817209996283054352e-02 -1.457084435969591141e-02 4.086279869079589844e-01 4.317624270915985107e-01 -2.760434448719024658e-01 -4.866592884063720703e-01 3.444671034812927246e-01 -9.570603072643280029e-02 -2.612675726413726807e-01 2.465321123600006104e-01 2.140194922685623169e-01 -1.799705386161804199e+00 8.668377995491027832e-01 -1.491633336991071701e-02 -3.272361159324645996e-01 -7.797507643699645996e-01 3.472828865051269531e-01 6.802081465721130371e-01 -5.810534581542015076e-02 4.482382237911224365e-01 -5.676526427268981934e-01 5.918027758598327637e-01 1.213855743408203125e+00 -8.390058875083923340e-01 1.302182208746671677e-02 6.157121658325195312e-01 1.084469199180603027e+00 2.782759964466094971e-01 -1.435650289058685303e-01 9.115837514400482178e-02 4.794563353061676025e-01 -1.225491404533386230e+00 7.511693239212036133e-01 1.314575791358947754e+00 3.451727330684661865e-01 -6.905253231525421143e-02 5.229968428611755371e-01 5.981024503707885742e-01 -1.348173469305038452e-01 -9.142370522022247314e-02 4.961346685886383057e-01 -1.229761075228452682e-02 9.512199163436889648e-01 -7.581664919853210449e-01 4.009644985198974609e-01 1.163882240653038025e-01 -9.056080132722854614e-02 -7.053713798522949219e-01 1.222841978073120117e+00 4.929264485836029053e-01 -4.079412817955017090e-01 -1.794229298830032349e-01 -4.328320026397705078e-01 3.153640627861022949e-01 2.396130710840225220e-01 -2.923201918601989746e-01 2.537669539451599121e-01 2.186259925365447998e-01 -2.930105030536651611e-01 -2.294202297925949097e-01 -4.998287558555603027e-01 3.266532123088836670e-01 -2.811975777149200439e-01 4.091467559337615967e-01 -6.778632402420043945e-01 -9.161700606346130371e-01 2.427317202091217041e-03 2.367402315139770508e-01 4.312066361308097839e-02 -8.954861164093017578e-01 4.123675823211669922e-01 -8.482982516288757324e-01 9.487801790237426758e-01 -1.428128927946090698e-01 2.144789248704910278e-01 6.103244423866271973e-01 -8.107059448957443237e-02 -3.767135441303253174e-01 -3.736799657344818115e-01 -2.244938462972640991e-01 6.954509019851684570e-02 -3.369899988174438477e-01 1.012060642242431641e+00 8.163098096847534180e-01 -7.721590399742126465e-01 6.193114519119262695e-01 1.372694015502929688e+00 -2.609286606311798096e-01 -4.224120974540710449e-01 4.856272935867309570e-01 4.343731999397277832e-01 3.945300579071044922e-01 -1.849475800991058350e-01 2.512612640857696533e-01 7.641708254814147949e-01 -3.073902130126953125e-01 3.709941804409027100e-01 6.211362481117248535e-01 2.575776278972625732e-01 2.222025990486145020e-01 6.728556752204895020e-01 -1.816652774810791016e+00 6.419475674629211426e-01 -5.772380828857421875e-01 -7.531692385673522949e-01 2.679441869258880615e-01 -3.720778524875640869e-01 7.361611127853393555e-01 -6.615530252456665039e-01 4.398699402809143066e-01 -3.611385524272918701e-01 6.796360760927200317e-02 -2.967440485954284668e-01 -3.816980719566345215e-01 3.229539394378662109e-01 -1.008810162544250488e+00 -6.257548332214355469e-01 -1.219260215759277344e+00 -1.355574131011962891e+00 4.737804830074310303e-01 5.307152271270751953e-01 4.127279818058013916e-01 -7.185380458831787109e-01
-2.225141674280166626e-01 -4.745576977729797363e-01 2.760748267173767090e-01 -1.254154890775680542e-01 8.210772871971130371e-01 -6.578097343444824219e-01 1.477068196982145309e-02 -1.049288988113403320e+00 7.429183721542358398e-01 -3.599252104759216309e-01 -5.463439226150512695e-01 4.445021152496337891e-01 1.255640745162963867e+00 -9.000807255506515503e-02 6.952431052923202515e-02 1.812388747930526733e-01 2.375279515981674194e-01 -2.961277365684509277e-01 1.516482140868902206e-02 -7.477264106273651123e-02 2.167426794767379761e-01 -3.847895860671997070e-01 2.667144834995269775e-01 -2.853350043296813965e-01 -3.580549061298370361e-01 1.047299027442932129e+00 -1.114707067608833313e-01 -3.108254969120025635e-01 8.774354308843612671e-02 -7.073040306568145752e-02 -1.681210249662399292e-01 3.675215244293212891e-01 3.238999843597412109e-01 2.238697111606597900e-01 -1.535549759864807129e-01 7.714164257049560547e-01 -6.953276395797729492e-01 -6.377286314964294434e-01 5.476261377334594727e-01 -2.173502892255783081e-01 -1.976035237312316895e-01 -3.716414272785186768e-01 -4.553153812885284424e-01 -4.871958494186401367e-01 -1.321761161088943481e-01 -3.503367602825164795e-01 -1.910408586263656616e-01 1.389374732971191406e-01 3.521550595760345459e-01 7.083462178707122803e-02 3.898964822292327881e-01 4.418488442897796631e-01 -2.087574452161788940e-02 -3.810320794582366943e-01 -8.773034214973449707e-01 7.694943994283676147e-02 -2.544083297252655029e-01 -2.675951123237609863e-01 3.554454445838928223e-01 2.058544009923934937e-01 -1.746819615364074707e-01 5.235475301742553711e-02 3.216958343982696533e-01 -6.523249298334121704e-02 -1.087761893868446350e-01 3.392732739448547363e-01 5.624331235885620117e-01 -5.240839719772338867e-02 -2.152045369148254395e-01 1.054611173458397388e-03 1.191707551479339600e-01 -3.552865386009216309e-01 -2.230278104543685913e-01 2.876485884189605713e-01 -2.720999717712402344e-01 1.323023438453674316e-01 -4.026281237602233887e-01 -5.478745698928833008e-01 -1.317393481731414795e-01 -4.438849091529846191e-01 4.038167744874954224e-02 -5.783684849739074707e-01 -2.115412950515747070e-01 -3.862828612327575684e-01 -3.476018011569976807e-01 -2.709212899208068848e-01 6.005676984786987305e-01 -4.581908881664276123e-01 -8.979179710149765015e-02 -6.923155784606933594e-01 4.709378480911254883e-01 5.053471922874450684e-01 -8.830262813717126846e-04 -8.827132582664489746e-01 1.750519424676895142e-01 7.513171527534723282e-03 -5.983772501349449158e-02 2.062650918960571289e-01 4.667503386735916138e-02 2.193088531494140625e-01 -1.024887897074222565e-02 9.100931882858276367e-02 -4.393234848976135254e-01 -1.104712486267089844e-01 8.312945812940597534e-02 4.923597574234008789e-01 -2.236288487911224365e-01 -1.606393009424209595e-01 -5.103256106376647949e-01 -2.378841936588287354e-01 1.256164461374282837e-01 1.685021519660949707e-01 3.460715413093566895e-01 1.843117028474807739e-01 -3.405047357082366943e-01 5.734819769859313965e-01 3.337313234806060791e-02 1.696882694959640503e-01 -1.279585808515548706e-01 -6.068243384361267090e-01 -6.007391810417175293e-01 2.997864484786987305e-01 -1.881204545497894287e-01 -2.260731011629104614e-01 -1.683924049139022827e-01 1.090593457221984863e+00 4.344605207443237305e-01 4.276900887489318848e-01
-7.088097929954528809e-01 -2.071592211723327637e-01 -4.128311276435852051e-01 -1.438386678695678711e+00 9.426278620958328247e-02 -2.036001682281494141e-01 7.288677096366882324e-01 6.023035049438476562e-01 -1.842399537563323975e-01 -9.468526244163513184e-01 -1.687768340110778809e+00 -1.231878161430358887e+00 1.579582929611206055e+00 -9.713674187660217285e-01 -4.545773267745971680e-01 -1.321529865264892578e+00 1.162704229354858398e+00 -6.289088726043701172e-01 -6.793082356452941895e-01 -8.627157807350158691e-01 -8.556149601936340332e-01 -3.794704675674438477e-01 -9.835355877876281738e-01 -3.775785565376281738e-01 -1.196459770202636719e+00 -1.733047515153884888e-01 -1.027474880218505859e+00 1.341904282569885254e+00 -4.757181704044342041e-01 4.545745905488729477e-03 -4.693183898925781250e-01 -2.524532377719879150e-01 2.460952699184417725e-01 -9.924504160881042480e-02 4.851486906409263611e-02 -7.639384269714355469e-02 1.216761767864227295e-01 -1.440808415412902832e+00 -1.351134896278381348e+00 -9.524697661399841309e-01 -3.952681124210357666e-01 1.214810848236083984e+00 -3.424287140369415283e-01 1.408278495073318481e-01 -1.303451776504516602e+00 -7.622349858283996582e-01 -8.077843785285949707e-01 -3.063954412937164307e-01 2.917322218418121338e-01 -4.480303823947906494e-02 -1.024796724319458008e+00 2.368398308753967285e-01 8.331119418144226074e-01 -1.785162687301635742e+00 -6.290698051452636719e-02 7.094729542732238770e-01 -1.702305197715759277e+00 -9.603458046913146973e-01 -1.543917298316955566e+00 -1.072497129440307617e+00 -9.863315224647521973e-01 5.172533988952636719e-01 -1.452201485633850098e+00 -3.393939137458801270e-01 -7.120596170425415039e-01 -4.030051827430725098e-02 -3.155695497989654541e-01 3.045803606510162354e-01 -1.651257038116455078e+00 -1.529667139053344727e+00 -1.378739356994628906e+00 -1.373864412307739258e-01 -3.560054302215576172e-01 -1.457252740859985352e+00 -1.189650416374206543e+00 -9.234826564788818359e-01 -1.081640839576721191e+00 -1.171593546867370605e+00 8.558862805366516113e-01 1.805542945861816406e+00 -5.297079682350158691e-01 -1.425470709800720215e+00 -1.142755389213562012e+00 -1.764619708061218262e+00 -8.424415588378906250e-01 -1.572978734970092773e+00 -7.149662971496582031e-01 3.112121224403381348e-01 -1.683152467012405396e-01 -7.403934001922607422e-01 4.973230957984924316e-01 1.713723242282867432e-01 -7.907929420471191406e-01 -8.019363880157470703e-01 6.472189724445343018e-02 -7.799527645111083984e-01 -1.354446858167648315e-01 -5.408273339271545410e-01 -1.639813184738159180e+00 4.604887664318084717e-01 2.862732887268066406e+00 -1.996000558137893677e-01 2.037120908498764038e-01 -1.412802934646606445e+00 2.713092975318431854e-02 1.158673644065856934e+00 1.711841076612472534e-01 -2.875869572162628174e-01 -6.180965900421142578e-01 -1.194469556212425232e-01 -4.100533723831176758e-01 -1.161406159400939941e+00 2.267369985580444336e+00 -6.008116006851196289e-01 -1.438127636909484863e+00 -9.284332990646362305e-01 -2.093234658241271973e-01 -9.346778988838195801e-01 -5.273434519767761230e-01 1.101214140653610229e-01 -1.259229779243469238e+00 -5.113777518272399902e-01 -1.161009788513183594e+00 1.473887413740158081e-01 -5.372802615165710449e-01 -2.366491854190826416e-01 -1.091392874717712402e+00 -8.074213862419128418e-01
3.936160802841186523e-01 -7.304305434226989746e-01 1.296545863151550293e-01 3.841995894908905029e-01 6.133260577917098999e-02 3.795529603958129883e-01 -4.531004428863525391e-01 -4.691170454025268555e-01 -2.753866016864776611e-01 2.088853716850280762e-01 -1.175377294421195984e-01 2.837760150432586670e-01 -1.712615936994552612e-01 -5.763622373342514038e-02 -1.156362444162368774e-01 -1.065501421689987183e-01 5.432156920433044434e-01 -1.665826797485351562e+00 -2.554951906204223633e-01 -9.223765134811401367e-02 -3.311818242073059082e-01 1.893602758646011353e-01 5.146965980529785156e-01 1.896577887237071991e-02 5.294467136263847351e-02 -3.712211847305297852e-01 -5.245224833488464355e-01 1.760717928409576416e-01 4.868105351924896240e-01 -3.556290864944458008e-01 -7.724416442215442657e-03 -1.787762492895126343e-01 5.496600866317749023e-01 5.560435652732849121e-01 7.804547548294067383e-01 -2.160620093345642090e-01 -4.098246395587921143e-01 -3.531077504158020020e-01 5.276028513908386230e-01 1.928962022066116333e-01 4.400834143161773682e-01 -6.961282491683959961e-01 2.885110378265380859e-01 -1.491963565349578857e-01 -8.973874449729919434e-01 1.678879410028457642e-01 -1.487605087459087372e-02 1.214153528213500977e+00 -2.044634670019149780e-01 -2.269441783428192139e-01 -6.673691868782043457e-01 -2.782982885837554932e-01 -6.761466618627309799e-03 2.017229050397872925e-01 8.452402353286743164e-01 -9.517809748649597168e-01 1.645247936248779297e-01 8.275509625673294067e-02 -1.370198369026184082e+00 8.340915441513061523e-01 -5.220949053764343262e-01 -1.817454695701599121e-01 9.868691861629486084e-02 -5.224552378058433533e-02 -5.025504156947135925e-02 1.172179728746414185e-01 3.334587216377258301e-01 -2.959853410720825195e-01 1.033952236175537109e+00 -2.428564131259918213e-01 -6.343137025833129883e-01 1.596669912338256836e+00 6.107453703880310059e-01 -1.129703968763351440e-01 5.643439888954162598e-01 1.146488189697265625e+00 -1.023796275258064270e-01 -1.706938445568084717e-01 -8.373332023620605469e-02 2.633295953273773193e-01 2.469678223133087158e-01 -2.267415076494216919e-01 1.334325224161148071e-01 -4.902188181877136230e-01 1.859418004751205444e-01 9.991416931152343750e-01 -4.776863753795623779e-01 -3.065010011196136475e-01 8.037524223327636719e-01 9.339196234941482544e-02 -2.572465538978576660e-01 -2.803134024143218994e-01 2.763399481773376465e-01 -2.620299756526947021e-01 -6.554303318262100220e-02 -2.258597463369369507e-01 -2.883919179439544678e-01 3.623297214508056641e-01 9.278836250305175781e-01 -1.076510697603225708e-01 -9.116572141647338867e-01 1.443836987018585205e-01 2.749930918216705322e-01 2.328570336103439331e-01 -4.671430885791778564e-01 -6.437098979949951172e-02 1.015616394579410553e-02 5.750371217727661133e-01 -3.936547338962554932e-01 -2.301746755838394165e-01 9.873671829700469971e-02 2.672508955001831055e-01 -6.253622770309448242e-01 2.258854955434799194e-01 6.599517464637756348e-01 -6.125658154487609863e-01 9.719286859035491943e-02 2.060461789369583130e-01 -5.384273529052734375e-01 4.365820884704589844e-01 -4.399833679199218750e-01 -3.270662724971771240e-01 -1.106901243329048157e-01 -1.850345432758331299e-01 5.870257616043090820e-01 -5.370048880577087402e-01 6.908727288246154785e-01 5.473514199256896973e-01
-4.648635387420654297e-01 -2.101557552814483643e-01 -2.697098255157470703e-01 1.207698285579681396e-01 -2.857319414615631104e-01 2.028497159481048584e-01 2.252407073974609375e-01 -1.174887537956237793e+00 -2.405800670385360718e-01 -3.623734414577484131e-01 6.416354179382324219e-01 7.707773447036743164e-01 -1.771434098482131958e-01 1.169418822973966599e-02 9.966123849153518677e-02 4.766499698162078857e-01 3.938652276992797852e-01 -5.324937030673027039e-02 -1.297902911901473999e-01 -3.312265872955322266e-01 1.436203271150588989e-01 -7.350323796272277832e-01 8.967360258102416992e-01 -1.795441657304763794e-01 -2.642038166522979736e-01 -3.936437964439392090e-01 -3.412297964096069336e-01 5.805337429046630859e-01 -2.754235863685607910e-01 -4.337794333696365356e-02 8.056697249412536621e-02 1.399901811964809895e-03 1.397617012262344360e-01 5.111140012741088867e-01 -5.462611317634582520e-01 -3.797974586486816406e-01 2.090819031000137329e-01 1.236791014671325684e-01 6.859872937202453613e-01 2.190064266324043274e-02 -7.726716399192810059e-01 -1.076586484909057617e+00 9.652356505393981934e-01 -2.204547226428985596e-01 7.535734176635742188e-01 -3.934238255023956299e-01 1.195003911852836609e-01 9.505597949028015137e-01 2.976284325122833252e-01 -7.753098011016845703e-01 9.187401086091995239e-02 6.431593894958496094e-01 -7.123254537582397461e-01 -1.620722562074661255e-01 -5.493734478950500488e-01 5.840584635734558105e-01 -5.484192818403244019e-02 -2.059873938560485840e-01 1.387495517730712891e+00 2.055955886840820312e+00 3.381944596767425537e-01 -2.727249562740325928e-01 5.266028642654418945e-02 -4.829991981387138367e-02 -2.518477104604244232e-02 3.502933681011199951e-01 -1.821840256452560425e-01 9.464872479438781738e-01 5.659718513488769531e-01 9.309955239295959473e-01 7.077525258064270020e-01 3.314974904060363770e-01 -2.944222986698150635e-01 2.680249512195587158e-01 -2.612953186035156250e-01 3.923209905624389648e-01 6.479076296091079712e-02 2.116273790597915649e-01 -1.065065190196037292e-01 -5.100969672203063965e-01 3.482967615127563477e-01 -7.892855405807495117e-01 -2.765638530254364014e-01 5.009088516235351562e-01 1.054053902626037598e+00 4.296852946281433105e-01 9.375990033149719238e-01 -4.963639676570892334e-01 3.122084438800811768e-01 -1.155176877975463867e+00 -3.784019872546195984e-02 -2.316465228796005249e-01 3.203038871288299561e-01 3.353579640388488770e-01 2.371945381164550781e-01 -2.808478474617004395e-01 2.879583835601806641e-02 1.011321902275085449e+00 1.194676876068115234e+00 3.200446665287017822e-01 8.437544107437133789e-02 -9.828686714172363281e-02 6.878638267517089844e-01 -2.065839171409606934e-01 -8.728919625282287598e-01 5.526438355445861816e-01 2.569004893302917480e-01 -6.122592687606811523e-01 -1.005842328071594238e+00 -7.016731500625610352e-01 -4.759563505649566650e-02 -5.198489427566528320e-01 9.879015386104583740e-02 8.333840370178222656e-01 1.565767452120780945e-02 -3.171126246452331543e-01 8.111394643783569336e-01 1.052706390619277954e-01 2.990379929542541504e-01 1.204921007156372070e+00 1.049953475594520569e-01 -2.616593241691589355e-01 1.163525700569152832e+00 -2.382475435733795166e-01 -5.743667483329772949e-03 8.089706301689147949e-01 4.629995226860046387e-01 -2.728405892848968506e-01
5.972927212715148926e-01 -6.764900684356689453e-01 -5.398436784744262695e-01 7.355784773826599121e-01 -5.815879702568054199e-01 -6.037532687187194824e-01 -8.848109841346740723e-01 -1.136203527450561523e+00 1.523098647594451904e-01 -9.272400140762329102e-01 6.211535334587097168e-01 4.640648066997528076e-01 -1.795440912246704102e-01 3.710809648036956787e-01 3.393345177173614502e-01 6.534588336944580078e-01 3.184936940670013428e-01 -2.335692167282104492e+00 -3.055566847324371338e-01 -6.508685350418090820e-01 -1.158076748251914978e-01 1.165185198187828064e-01 6.371678113937377930e-01 8.018197417259216309e-01 2.410479485988616943e-01 1.199362277984619141e+00 -6.039641499519348145e-01 6.935454010963439941e-01 -3.173927962779998779e-01 5.429864525794982910e-01 1.441226243972778320e+00 1.903880834579467773e+00 -3.986838161945343018e-01 3.483484089374542236e-01 4.821538329124450684e-01 2.168542593717575073e-01 -3.154591321945190430e-01 -3.792148083448410034e-02 4.350076913833618164e-01 4.239175468683242798e-02 -2.257319390773773193e-01 -8.076012134552001953e-01 4.302153289318084717e-01 3.664855360984802246e-01 -1.949648559093475342e-01 -3.355145156383514404e-01 2.379555553197860718e-01 1.348387598991394043e-01 1.026167254894971848e-02 -6.404728889465332031e-01 2.618061751127243042e-02 1.807525381445884705e-02 -2.112879157066345215e-01 -6.443671137094497681e-02 -1.788735687732696533e-01 -5.237389802932739258e-01 1.151109576225280762e+00 2.664460837841033936e-01 1.427711606025695801e+00 -4.033269733190536499e-02 1.418336778879165649e-01 -6.395133137702941895e-01 -3.599517047405242920e-01 4.413855075836181641e-01 6.639115512371063232e-02 -5.510190725326538086e-01 3.026524782180786133e-01 7.055633664131164551e-01 -1.490478664636611938e-01 6.929812431335449219e-01 2.240640401840209961e+00 5.836335420608520508e-01 2.671462595462799072e-01 -9.144487977027893066e-02 -4.887689054012298584e-01 -4.120534658432006836e-01 -5.463620647788047791e-02 -5.169029161334037781e-02 7.161440849304199219e-01 -5.205225348472595215e-01 1.268398523330688477e+00 -1.064025998115539551e+00 -4.051749408245086670e-02 -2.759797275066375732e-01 1.076461434364318848e+00 1.580525189638137817e-01 3.150199651718139648e-01 -8.003154397010803223e-01 3.495613858103752136e-02 -4.930459260940551758e-01 1.842079758644104004e-01 6.457917690277099609e-01 4.855088889598846436e-01 2.452040910720825195e-01 -2.823400199413299561e-01 8.934563994407653809e-01 -7.644529342651367188e-01 9.603703022003173828e-01 -2.245681881904602051e-01 -3.151215314865112305e-01 -2.524296641349792480e-01 1.280193686485290527e+00 1.272225379943847656e-01 7.330518364906311035e-01 -3.469479382038116455e-01 2.599776685237884521e-01 2.705461978912353516e-01 -4.766472578048706055e-01 -1.693708598613739014e-01 -1.019253969192504883e+00 -1.517860770225524902e+00 6.545372605323791504e-01 2.319277375936508179e-01 -4.290461838245391846e-01 4.510977268218994141e-01 4.065612554550170898e-01 5.721457600593566895e-01 -6.287661194801330566e-01 7.527259588241577148e-01 1.711785197257995605e-01 4.949865639209747314e-01 -1.193806305527687073e-01 3.782845735549926758e-01 1.146797761321067810e-01 4.450154602527618408e-01 -3.144414126873016357e-01 2.593552172183990479e-01 4.371062815189361572e-01
7.459192872047424316e-01 8.967003785073757172e-03 -8.574716746807098389e-02 -6.296558380126953125e-01 1.786879152059555054e-01 9.412790834903717041e-02 -1.106194138526916504e+00 1.237338900566101074e+00 -3.705134391784667969e-01 1.989805698394775391e-02 -1.076240539550781250e-01 3.483166098594665527e-01 -9.120941162109375000e-01 -5.566122531890869141e-01 -5.101946592330932617e-01 3.249720036983489990e-01 2.415167540311813354e-02 -1.229129552841186523e+00 -6.358914971351623535e-01 5.248540267348289490e-02 -6.072866320610046387e-01 2.194712460041046143e-01 6.762826442718505859e-02 4.051610827445983887e-01 -4.433227702975273132e-03 3.057157993316650391e-01 -7.574398517608642578e-01 9.854105710983276367e-01 -4.683881103992462158e-01 -7.518053054809570312e-01 1.055885195732116699e+00 1.572201609611511230e+00 5.175446271896362305e-01 -2.838979363441467285e-01 -8.270269632339477539e-01 -5.729459524154663086e-01 1.133833646774291992e+00 -5.058283209800720215e-01 2.618325948715209961e-01 2.271991819143295288e-01 7.261624336242675781e-01 7.920854091644287109e-01 -5.088996887207031250e-01 -1.315416544675827026e-01 -8.931167721748352051e-01 9.559204429388046265e-02 9.358541667461395264e-02 6.808177232742309570e-01 -3.044748604297637939e-01 -3.337290883064270020e-02 1.467450112104415894e-01 1.751090884208679199e-01 -5.507158041000366211e-01 2.179092913866043091e-02 1.339486688375473022e-01 -1.428710699081420898e+00 3.312524557113647461e-01 -3.131872043013572693e-02 4.051610827445983887e-01 -8.935805559158325195e-01 -5.488091707229614258e-01 2.617236413061618805e-02 -5.612057447433471680e-01 -6.206024885177612305e-01 2.991918623447418213e-01 -3.182135522365570068e-01 6.625099778175354004e-01 -6.137157678604125977e-01 5.105752348899841309e-01 3.744431138038635254e-01 5.388528704643249512e-01 -7.223550677299499512e-01 2.944845855236053467e-01 8.083406090736389160e-01 -5.616233944892883301e-01 4.907880425453186035e-01 -9.705777764320373535e-01 1.690149903297424316e-01 1.401050239801406860e-01 7.621232271194458008e-01 1.328676581382751465e+00 3.833172619342803955e-01 2.012921869754791260e-01 -7.912165671586990356e-02 -2.723672091960906982e-01 5.035836696624755859e-01 -1.782418042421340942e-01 6.644480228424072266e-01 4.311080574989318848e-01 8.119463920593261719e-01 -2.942274212837219238e-01 1.525038838386535645e+00 -1.044244766235351562e+00 -5.287424325942993164e-01 2.414931058883666992e-01 5.900229215621948242e-01 -7.407195568084716797e-01 -5.312530323863029480e-03 -6.975986063480377197e-02 -5.876395106315612793e-01 8.505147099494934082e-01 2.927959561347961426e-01 3.749558031558990479e-01 2.367925196886062622e-01 3.521924093365669250e-02 2.489533424377441406e-01 1.981083005666732788e-01 -1.834323883056640625e+00 3.273425623774528503e-02 4.117834866046905518e-01 -3.141491413116455078e-01 1.462821364402770996e+00 1.386125385761260986e-01 -8.946716785430908203e-01 3.981962800025939941e-01 6.233915686607360840e-01 -5.427730083465576172e-01 6.966272592544555664e-01 4.014211595058441162e-01 -4.232839941978454590e-01 -2.952527701854705811e-01 -2.926546931266784668e-01 -1.484578728675842285e+00 9.338846802711486816e-01 -2.934873402118682861e-01 -7.632904052734375000e-01 -1.978331953287124634e-01 1.636849716305732727e-03
-9.555981308221817017e-02 9.680467247962951660e-01 1.077430024743080139e-01 -3.657206594944000244e-01 -5.230066180229187012e-01 -1.947602443397045135e-02 -2.584299743175506592e-01 -1.057622581720352173e-01 -2.809923887252807617e-02 -1.250662088394165039e+00 2.290370017290115356e-01 -4.927474260330200195e-01 -6.150464415550231934e-01 2.514865994453430176e-01 -5.834723114967346191e-01 -1.712427735328674316e-01 -5.666539669036865234e-01 -6.025959253311157227e-01 8.257704973220825195e-01 -8.158112764358520508e-01 -7.300549745559692383e-02 1.119042396545410156e+00 -1.883758455514907837e-01 1.827625751495361328e+00 -2.294147610664367676e-01 -2.187299774959683418e-03 8.746497035026550293e-01 3.324404656887054443e-01 -6.818016171455383301e-01 5.934017300605773926e-01 8.401100039482116699e-01 1.273952126502990723e-01 -4.024003446102142334e-01 -3.730976283550262451e-01 6.125440001487731934e-01 2.552992403507232666e-01 -2.946364581584930420e-01 3.712196648120880127e-02 7.667415589094161987e-02 4.332663118839263916e-02 -2.393076419830322266e-01 1.550689060240983963e-02 -3.633455932140350342e-01 6.509819626808166504e-01 2.090172767639160156e+00 -4.644849598407745361e-01 -1.561681032180786133e-01 1.365013122558593750e-01 -1.781439594924449921e-02 -3.159792423248291016e-01 -7.167418301105499268e-02 -4.003159999847412109e-01 -1.747043579816818237e-01 -1.123571917414665222e-01 2.380667626857757568e-02 1.146372199058532715e+00 4.773176908493041992e-01 8.636821061372756958e-03 9.177106022834777832e-01 4.405966699123382568e-01 7.730877995491027832e-01 4.371562302112579346e-01 -9.038910269737243652e-02 -7.750082015991210938e-01 7.239223271608352661e-02 5.705436691641807556e-02 2.794822454452514648e-01 5.540423989295959473e-01 -1.396884620189666748e-01 6.582178920507431030e-02 7.188529521226882935e-02 1.836403459310531616e-02 -2.298026978969573975e-01 -6.528246998786926270e-01 -8.895189384929835796e-04 -4.824661184102296829e-03 8.759344816207885742e-01 -3.683288097381591797e-01 4.927205741405487061e-01 -5.381705760955810547e-01 1.103092908859252930e+00 -7.467386722564697266e-01 3.456033021211624146e-02 -1.609656095504760742e+00 -2.133231610059738159e-01 -1.398226261138916016e+00 9.484191983938217163e-02 5.861992835998535156e-01 2.081250399351119995e-01 -1.875972986221313477e+00 1.586260348558425903e-01 -5.653089880943298340e-01 9.385679364204406738e-01 9.079711437225341797e-01 -8.261865377426147461e-01 -1.394440382719039917e-01 4.574505686759948730e-01 -7.640647888183593750e-01 -4.125175178050994873e-01 3.621844947338104248e-01 -4.899400472640991211e-01 -1.231137886643409729e-01 -4.374040365219116211e-01 3.505158796906471252e-02 4.060265123844146729e-01 -1.817981153726577759e-01 8.480564504861831665e-02 1.606357455253601074e+00 4.924649298191070557e-01 -6.601363420486450195e-01 -3.491965234279632568e-01 -1.501599073410034180e+00 -8.636094331741333008e-01 2.814883887767791748e-01 -2.034935206174850464e-01 -2.693520486354827881e-01 9.408336877822875977e-01 -9.597221612930297852e-01 -2.854366600513458252e-01 8.229948878288269043e-01 3.728114962577819824e-01 -2.635201811790466309e-01 -2.250548005104064941e-01 7.804829478263854980e-01 8.960885554552078247e-02 6.854832917451858521e-02 1.003048568964004517e-01 -2.645899355411529541e-01
-1.099294796586036682e-01 -1.075531244277954102e+00 1.448081731796264648e-01 2.461930811405181885e-01 9.467498213052749634e-02 3.498381972312927246e-01 3.357816338539123535e-01 -2.193172872066497803e-01 4.032642841339111328e-01 2.934950590133666992e-01 -4.140782058238983154e-01 3.029807806015014648e-01 -6.492197513580322266e-02 3.074084222316741943e-01 3.977193534374237061e-01 4.035800695419311523e-01 5.012534260749816895e-01 -3.096791028976440430e+00 -1.076115816831588745e-01 1.056226417422294617e-01 -3.071485832333564758e-02 4.135290384292602539e-01 -3.713557496666908264e-03 -2.164817899465560913e-01 1.447715610265731812e-01 8.269902318716049194e-02 1.658232510089874268e-01 1.133094206452369690e-01 4.618665874004364014e-01 -6.274662017822265625e-01 -8.383408188819885254e-02 -5.559276789426803589e-02 1.373767107725143433e-01 2.234088443219661713e-02 -1.315051019191741943e-01 4.698424935340881348e-01 -8.396016061305999756e-02 3.942280709743499756e-01 4.010009765625000000e-01 -3.354766871780157089e-03 2.652911543846130371e-01 1.115712001919746399e-01 -2.899638712406158447e-01 -8.844593167304992676e-02 -6.750053167343139648e-02 -1.268720328807830811e-01 5.019153952598571777e-01 2.975946664810180664e-01 1.722494661808013916e-01 7.940706014633178711e-01 -5.209926888346672058e-02 5.235195159912109375e-02 2.917600870132446289e-01 4.962154626846313477e-01 3.552347719669342041e-01 -7.097858786582946777e-01 4.460976719856262207e-01 -9.795815497636795044e-02 2.195321768522262573e-01 4.563121870160102844e-02 -2.880838215351104736e-01 3.511160314083099365e-01 9.216144680976867676e-02 -2.393735349178314209e-01 1.652992516756057739e-01 -2.767287492752075195e-01 2.084992676973342896e-01 -3.782598301768302917e-02 5.863388255238533020e-02 1.578507423400878906e-01 1.441584676504135132e-01 -2.759592831134796143e-01 2.615233957767486572e-01 3.954246938228607178e-01 -2.308429479598999023e-01 -6.955486536026000977e-02 2.646503746509552002e-01 4.168255627155303955e-01 4.058367013931274414e-01 8.028520643711090088e-02 6.982750445604324341e-02 5.919510722160339355e-01 4.756087362766265869e-01 -1.821358561515808105e+00 2.046805061399936676e-02 -8.032058179378509521e-02 -6.321814656257629395e-02 -1.686636358499526978e-01 4.716730415821075439e-01 -1.332450985908508301e+00 4.351456165313720703e-01 -6.667570769786834717e-02 5.002207756042480469e-01 -2.671851813793182373e-01 3.343193829059600830e-01 3.710249364376068115e-01 -2.824343740940093994e-01 -7.868932187557220459e-02 1.991412788629531860e-01 2.447760403156280518e-01 2.243229001760482788e-01 2.289849966764450073e-01 1.357245892286300659e-01 3.500946760177612305e-01 3.195474147796630859e-01 3.810283541679382324e-01 5.763867869973182678e-02 1.931949704885482788e-01 3.275403380393981934e-02 3.313194811344146729e-01 1.254943013191223145e-01 -4.218429327011108398e-01 -3.674386814236640930e-02 -2.978255748748779297e-01 3.420276939868927002e-01 -2.413320355117321014e-02 4.273124039173126221e-01 1.877556741237640381e-01 3.913012444972991943e-01 -3.090646266937255859e-01 1.837488710880279541e-01 5.266965031623840332e-01 1.531024277210235596e-01 1.775236614048480988e-02 4.045503437519073486e-01 -2.538651227951049805e-01 8.563830703496932983e-02 4.261696338653564453e-01
8.428308367729187012e-01 1.471798717975616455e-01 -1.800985932350158691e-01 7.540321946144104004e-01 4.258212149143218994e-01 8.389757871627807617e-01 -2.937178313732147217e-01 7.499321550130844116e-02 -1.020643353462219238e+00 3.031915426254272461e-01 -7.389137148857116699e-01 9.826120734214782715e-01 -1.999735116958618164e+00 1.027049422264099121e+00 9.015746712684631348e-01 8.169795274734497070e-01 4.571515917778015137e-01 2.715623676776885986e-01 -4.920016825199127197e-01 1.455208420753479004e+00 7.893477082252502441e-01 4.873317778110504150e-01 9.871352314949035645e-01 5.552545189857482910e-01 3.264203667640686035e-01 4.492802619934082031e-01 5.688570141792297363e-01 8.862550258636474609e-01 1.814176321029663086e+00 5.256314873695373535e-01 4.762503504753112793e-01 8.828104138374328613e-01 4.516271352767944336e-01 5.768505930900573730e-01 -3.279240727424621582e-01 -1.331878006458282471e-01 -1.577825546264648438e+00 9.159430265426635742e-01 1.226456165313720703e+00 8.490602374076843262e-01 -4.718491733074188232e-01 -5.281431674957275391e-01 7.006583809852600098e-01 -1.601020991802215576e-02 5.480800867080688477e-01 7.855510711669921875e-01 -3.537437200546264648e+00 7.239902615547180176e-01 -7.215276956558227539e-01 1.049510478973388672e+00 -7.698923349380493164e-02 -4.709503352642059326e-01 3.941339254379272461e-01 -1.934989929199218750e+00 9.317098855972290039e-01 7.711614966392517090e-01 1.302081346511840820e+00 1.509015202522277832e+00 -5.858417153358459473e-01 2.326505661010742188e+00 8.119713068008422852e-01 1.028173685073852539e+00 2.871351838111877441e-01 3.241177499294281006e-01 4.918502271175384521e-01 -8.388957977294921875e-01 -1.118104234337806702e-01 2.077442169189453125e+00 6.426877975463867188e-01 -1.142617583274841309e+00 1.372793167829513550e-01 1.845026016235351562e-01 2.396167814731597900e-01 2.552758753299713135e-01 2.367783784866333008e+00 1.029702901840209961e+00 -2.441154956817626953e+00 4.222475290298461914e-01 5.868330597877502441e-02 6.240227073431015015e-02 1.560916304588317871e+00 1.177246689796447754e+00 4.652253687381744385e-01 8.459740877151489258e-01 1.165913820266723633e+00 -9.992287755012512207e-01 -5.276482105255126953e-01 -2.885302305221557617e-01 1.319801211357116699e+00 -3.014435768127441406e-01 1.078865647315979004e+00 5.166584253311157227e-01 6.447288990020751953e-01 -4.457740783691406250e-01 7.642685174942016602e-01 8.069425225257873535e-01 1.841257810592651367e-01 1.301510334014892578e+00 5.453541278839111328e-01 -1.058604791760444641e-01 1.012951970100402832e+00 6.950072050094604492e-01 1.099897980690002441e+00 1.075147628784179688e+00 -7.511594891548156738e-01 2.030273675918579102e+00 6.446579098701477051e-01 1.210214734077453613e+00 1.084699034690856934e+00 1.070940613746643066e+00 5.818181112408638000e-02 3.206173777580261230e-01 -4.804386198520660400e-01 -8.178420066833496094e-01 2.593601942062377930e-01 2.250782012939453125e+00 6.449376046657562256e-02 6.940206289291381836e-01 -2.014979571104049683e-01 1.889383792877197266e-01 1.306354522705078125e+00 -8.861989378929138184e-01 7.323831915855407715e-01 -8.890261054039001465e-01 5.384564995765686035e-01 -8.299716114997863770e-01 3.184069991111755371e-01 1.176887035369873047e+00
1.883865892887115479e-02 -3.193387091159820557e-01 -2.629277110099792480e-01 -4.869482517242431641e-01 -1.719700358808040619e-02 -4.986224174499511719e-01 -6.181641668081283569e-02 3.467370197176933289e-02 2.532370388507843018e-01 -1.113743707537651062e-02 -4.848483502864837646e-01 -2.130910903215408325e-01 -4.978021979331970215e-01 -7.306276559829711914e-01 -5.156918764114379883e-01 3.178644478321075439e-01 -4.172238521277904510e-03 -1.820903897285461426e+00 -6.862925291061401367e-01 2.117429256439208984e+00 -5.526697635650634766e-01 7.899494767189025879e-01 -1.854128390550613403e-01 3.140963017940521240e-01 8.014374971389770508e-02 -1.732914000749588013e-01 2.596074342727661133e-01 -3.424116373062133789e-01 -2.273026555776596069e-01 3.250386416912078857e-01 -2.899154722690582275e-01 -4.083338379859924316e-01 8.791037797927856445e-01 -5.929368734359741211e-01 -3.392971456050872803e-01 -1.673372983932495117e-01 -4.469124078750610352e-01 -6.538811326026916504e-01 4.269644021987915039e-01 -4.036976099014282227e-01 -2.906814813613891602e-01 1.405410885810852051e+00 1.364647895097732544e-01 2.773156762123107910e-02 4.258592128753662109e-01 -3.064811527729034424e-01 -2.194010168313980103e-01 -2.668121457099914551e-01 1.983448863029479980e-01 7.549112290143966675e-02 4.659296274185180664e-01 -3.380450308322906494e-01 -5.913336873054504395e-01 -4.269979521632194519e-02 1.943081021308898926e-01 7.140979766845703125e-01 5.111758410930633545e-02 -9.400362372398376465e-01 -3.426259756088256836e-01 2.287184298038482666e-01 -5.315445065498352051e-01 4.082725644111633301e-01 -6.422867178916931152e-01 -5.641052722930908203e-01 4.521428644657135010e-01 5.236878395080566406e-01 3.906742334365844727e-01 8.444641530513763428e-02 -2.457619458436965942e-01 -6.091188192367553711e-01 -3.030618131160736084e-01 -6.830048561096191406e-01 -3.293616175651550293e-01 1.662982553243637085e-01 4.925617873668670654e-01 -1.354883075691759586e-03 2.203803956508636475e-01 -4.759292602539062500e-01 -3.434139192104339600e-01 -3.874466717243194580e-01 -1.324375122785568237e-01 -5.893492326140403748e-02 -3.262069225311279297e-01 -1.077746152877807617e+00 5.524193048477172852e-01 5.976781249046325684e-01 -2.741656899452209473e-01 -1.047534793615341187e-01 4.730186760425567627e-01 -3.995819091796875000e-01 -4.191012308001518250e-02 8.309215903282165527e-01 4.846080020070075989e-02 1.565419912338256836e+00 -3.974267840385437012e-01 -9.275670349597930908e-02 -8.473331928253173828e-01 -7.288852334022521973e-01 9.244851469993591309e-01 4.411917030811309814e-01 4.082897305488586426e-02 6.938163042068481445e-01 -3.379172980785369873e-01 2.771082222461700439e-01 -1.110422387719154358e-01 -5.419000387191772461e-01 3.852268755435943604e-01 -1.147591844201087952e-01 -3.467221260070800781e-01 -5.396218970417976379e-02 -3.777636289596557617e-01 4.841405451297760010e-01 1.677242279052734375e+00 4.963506944477558136e-03 3.564275205135345459e-01 1.714080572128295898e-01 5.449390411376953125e-01 4.109737575054168701e-01 -1.678512692451477051e-01 3.785172011703252792e-03 -2.629559040069580078e-01 4.580906033515930176e-01 -2.744832932949066162e-01 3.221304416656494141e-01 -4.177790880203247070e-02 4.259594380855560303e-01 -1.011935546994209290e-01 5.111133456230163574e-01
1.182182282209396362e-01 -4.458865895867347717e-02 -5.691518783569335938e-01 -2.726424932479858398e-01 2.709752023220062256e-01 -5.513518303632736206e-02 -3.666615486145019531e-01 -4.671634435653686523e-01 -2.865759432315826416e-01 2.631937265396118164e-01 -3.572604656219482422e-01 -4.293529093265533447e-01 1.018799692392349243e-01 -1.454500555992126465e-01 2.905505299568176270e-01 -2.901553809642791748e-01 4.897243976593017578e-01 9.464493393898010254e-01 -7.048467993736267090e-01 3.284971714019775391e-01 2.771083116531372070e-01 -3.004374727606773376e-02 3.093959391117095947e-01 -1.454045474529266357e-01 -6.000500917434692383e-01 -1.244741603732109070e-01 -8.087047189474105835e-02 1.512621790170669556e-01 1.268126666545867920e-01 -4.826281070709228516e-01 2.932136058807373047e-01 1.179708819836378098e-02 2.922169268131256104e-01 4.039119184017181396e-02 -5.534267425537109375e-01 -1.450356394052505493e-01 -1.348545309156179428e-02 -2.677703499794006348e-01 -6.682827370241284370e-04 -4.667469486594200134e-02 -4.140993654727935791e-01 -2.663524150848388672e-01 -2.388794533908367157e-02 1.045119464397430420e-01 1.567666083574295044e-01 3.929790556430816650e-01 -2.451033741235733032e-01 -3.994450569152832031e-01 -3.363692462444305420e-01 -5.976492166519165039e-01 1.914082169532775879e-01 3.419688344001770020e-01 5.547686219215393066e-01 3.504649996757507324e-01 2.423735409975051880e-01 6.551772952079772949e-01 -1.583926528692245483e-01 2.351976186037063599e-01 7.622457295656204224e-02 5.455422401428222656e-01 -4.408816695213317871e-01 1.811552792787551880e-01 3.991528153419494629e-01 5.032390952110290527e-01 3.458362221717834473e-01 7.626934647560119629e-01 1.304938942193984985e-01 2.214355617761611938e-01 4.711588472127914429e-02 -3.537835478782653809e-01 3.259416222572326660e-01 -5.492386594414710999e-02 3.802230954170227051e-01 -9.955648332834243774e-02 3.869259357452392578e-01 -3.152238130569458008e-01 -2.873910963535308838e-01 -5.651001930236816406e-01 2.971107885241508484e-02 -3.655390441417694092e-01 3.709619939327239990e-01 -1.406590640544891357e-01 6.673480272293090820e-01 7.886592149734497070e-01 -4.512149989604949951e-01 3.816962540149688721e-01 4.101721644401550293e-01 -1.860364824533462524e-01 -7.938589155673980713e-02 -1.184530779719352722e-01 2.819190621376037598e-01 -5.273460745811462402e-01 -4.395107924938201904e-01 6.522287130355834961e-01 -1.780828274786472321e-02 1.192838549613952637e-01 -5.325279235839843750e-01 5.311713814735412598e-01 -2.166898846626281738e-01 5.212028622627258301e-01 -2.265972495079040527e-01 3.817004859447479248e-01 -2.945950925350189209e-01 -1.590722650289535522e-01 -2.610401511192321777e-01 -8.834388852119445801e-01 -1.231498494744300842e-01 6.701755523681640625e-02 5.660372376441955566e-01 5.764501690864562988e-01 1.844911277294158936e-02 -6.200892105698585510e-02 2.823504507541656494e-01 5.779709815979003906e-01 5.466831922531127930e-01 2.524392306804656982e-01 1.560472398996353149e-01 6.042902469635009766e-01 3.789881169795989990e-01 3.297765552997589111e-01 3.613495454192161560e-02 3.478554189205169678e-01 5.393670797348022461e-01 -1.691788583993911743e-01 -2.781391143798828125e-01 4.397864341735839844e-01 2.909681797027587891e-01 -4.012739062309265137e-01
-1.286243051290512085e-01 -7.436953186988830566e-01 -2.606525719165802002e-01 8.190625905990600586e-01 -6.390817165374755859e-01 2.269334793090820312e-01 3.552598655223846436e-01 2.654206454753875732e-01 -3.947389870882034302e-02 -2.257122844457626343e-01 6.660973429679870605e-01 6.516931205987930298e-02 -3.126150369644165039e-01 -7.195981740951538086e-01 -4.437738060951232910e-01 4.466589093208312988e-01 -3.368127346038818359e-01 -8.320944905281066895e-01 7.319003939628601074e-01 -2.195182740688323975e-01 4.481915831565856934e-01 4.162596762180328369e-01 -9.091480374336242676e-01 -4.892536997795104980e-01 -6.998042762279510498e-02 -1.926518976688385010e-01 -1.242799386382102966e-01 -6.535680294036865234e-01 3.058349192142486572e-01 -1.838526576757431030e-01 4.415299296379089355e-01 2.549232542514801025e-02 -1.855633109807968140e-01 -6.586128473281860352e-01 3.631961643695831299e-01 -1.351926755160093307e-02 1.014207974076271057e-01 8.247507214546203613e-01 8.960891515016555786e-02 -2.676158845424652100e-01 7.332517951726913452e-02 5.419850349426269531e-03 -3.028167486190795898e-01 -1.456867307424545288e-01 -1.098890379071235657e-01 -2.822777330875396729e-01 3.023230731487274170e-01 5.084106922149658203e-01 5.359974503517150879e-01 1.840173602104187012e-01 -4.582563936710357666e-01 -8.499855995178222656e-01 3.362018167972564697e-01 -2.730844020843505859e-01 1.881740838289260864e-01 -2.759670317173004150e-01 4.474891722202301025e-02 -3.123584091663360596e-01 1.634055525064468384e-01 -7.366614341735839844e-01 -1.349744051694869995e-01 -4.448702931404113770e-02 5.420548319816589355e-01 -8.773096799850463867e-01 7.606413215398788452e-02 -6.443170905113220215e-01 -2.379883825778961182e-01 5.119651556015014648e-01 -6.955671906471252441e-01 -1.202770173549652100e-01 -3.338645100593566895e-01 4.126202762126922607e-01 -7.921683043241500854e-02 -4.433291554450988770e-01 -1.154798865318298340e-01 2.061287611722946167e-01 5.537070035934448242e-01 9.588112682104110718e-02 7.226804643869400024e-02 7.777401804924011230e-02 -1.102448821067810059e+00 2.521622776985168457e-01 -3.234392702579498291e-01 -2.116042375564575195e-01 1.009639859199523926e+00 -9.001629352569580078e-01 -8.060069680213928223e-01 -1.028089597821235657e-01 1.601191423833370209e-02 4.982941448688507080e-01 -5.129410028457641602e-01 3.175764083862304688e-01 8.121207952499389648e-01 -6.919177770614624023e-01 5.486856698989868164e-01 -3.236470222473144531e-01 3.681131005287170410e-01 -1.209504365921020508e+00 1.983286589384078979e-01 -5.299684405326843262e-01 6.574448943138122559e-02 -8.476082682609558105e-01 3.115896284580230713e-01 -2.515362501144409180e-01 1.559777706861495972e-01 -4.717580974102020264e-02 -1.471419483423233032e-01 2.438029199838638306e-01 -6.605674624443054199e-01 -3.017687201499938965e-01 6.610675901174545288e-02 4.656454920768737793e-01 -6.505858302116394043e-01 -7.408809065818786621e-01 2.027949839830398560e-01 6.023388728499412537e-02 2.668813169002532959e-01 -6.244594454765319824e-01 -3.515679538249969482e-01 1.229168549180030823e-01 -6.764791607856750488e-01 2.119324803352355957e-01 -2.236124575138092041e-01 1.718437373638153076e-01 3.822710216045379639e-01 -7.404132187366485596e-02 -7.841934561729431152e-01 8.917663097381591797e-01
-5.084792971611022949e-01 4.144564270973205566e-03 -1.127715706825256348e-01 9.437949657440185547e-01 -1.827311813831329346e-01 -9.368811845779418945e-01 -2.902229428291320801e-01 -1.116587877273559570e+00 -2.314416468143463135e-01 -1.361398696899414062e+00 2.399686872959136963e-01 2.310950458049774170e-01 -1.069490090012550354e-01 1.378634095191955566e+00 6.412602066993713379e-01 -1.669743657112121582e-02 3.513084948062896729e-01 2.707724869251251221e-01 9.639632105827331543e-01 1.432858258485794067e-01 1.882616877555847168e-01 -6.368204951286315918e-01 5.646046400070190430e-01 -6.564114689826965332e-01 2.945167422294616699e-01 8.074690699577331543e-01 -3.728201687335968018e-01 -6.225140094757080078e-01 -7.135466933250427246e-01 1.684552282094955444e-01 -2.268402874469757080e-01 -3.632113933563232422e-01 -5.330673977732658386e-02 -1.723179072141647339e-01 6.230723261833190918e-01 1.149751469492912292e-01 2.040220201015472412e-01 -3.685959279537200928e-01 -2.159151136875152588e-01 5.011439323425292969e-01 -5.537128448486328125e-01 -1.067718148231506348e+00 -2.056119292974472046e-01 1.598440408706665039e-01 -1.603351384401321411e-01 -4.725196361541748047e-01 5.237082242965698242e-01 -4.655494093894958496e-01 9.954144060611724854e-02 -5.690827369689941406e-01 3.933269530534744263e-02 -2.277600914239883423e-01 9.171060472726821899e-02 -6.162979602813720703e-01 -5.775514245033264160e-01 -1.058285161852836609e-01 -4.524919390678405762e-01 -1.113040328025817871e+00 -1.031418219208717346e-01 1.371851861476898193e-01 -5.566049218177795410e-01 1.799417287111282349e-02 1.860797524452209473e+00 3.003675043582916260e-01 -7.286181449890136719e-01 -5.278380513191223145e-01 1.881629228591918945e-01 -1.293884664773941040e-01 -2.576795518398284912e-01 4.426814019680023193e-01 2.488887012004852295e-01 4.033753573894500732e-01 -6.991584300994873047e-01 2.302066981792449951e-01 2.621467113494873047e-01 5.891573429107666016e-01 -4.402559101581573486e-01 8.784666061401367188e-01 -1.264791011810302734e+00 -1.416783094406127930e+00 -9.338982403278350830e-02 -1.186377167701721191e+00 5.723364353179931641e-01 7.339311242103576660e-01 5.376179218292236328e-01 6.060916781425476074e-01 -7.021792531013488770e-01 -9.921915531158447266e-01 2.204129099845886230e-01 -3.490622043609619141e-01 -3.404152393341064453e-01 1.709553897380828857e-01 -8.066020905971527100e-02 -1.563577651977539062e+00 -3.733544349670410156e-01 2.716163694858551025e-01 -4.393710494041442871e-01 -1.467609703540802002e-01 2.955105714499950409e-02 -4.279783666133880615e-01 -1.290119588375091553e-01 1.091476976871490479e-01 3.069862723350524902e-01 9.732406735420227051e-01 -9.234867095947265625e-01 2.797979414463043213e-01 -2.562296688556671143e-01 -7.841792702674865723e-01 -6.055648326873779297e-01 6.390348076820373535e-01 -3.484098613262176514e-01 -9.205864369869232178e-02 -7.109013199806213379e-01 -4.058731719851493835e-02 -5.967589020729064941e-01 1.084572553634643555e+00 2.731543183326721191e-01 6.923931241035461426e-01 -3.777524232864379883e-01 2.137352228164672852e-01 -5.211613699793815613e-02 6.150140762329101562e-01 8.470319211483001709e-02 -3.289887607097625732e-01 4.627266228199005127e-01 4.506017267704010010e-01 1.394915673881769180e-02 -8.929242193698883057e-02
-4.559392631053924561e-01 4.616670012474060059e-01 -2.352691292762756348e-01 -8.464326262474060059e-01 8.299247026443481445e-01 -1.770392656326293945e-01 -1.111571311950683594e+00 -4.190851747989654541e-01 -1.474482566118240356e-01 -4.884467720985412598e-01 -8.563915491104125977e-01 -4.480120241641998291e-01 1.732203364372253418e-01 -4.837963879108428955e-01 -7.221706509590148926e-01 -1.150809407234191895e+00 1.258593350648880005e-01 5.869183540344238281e-01 -1.079542636871337891e+00 -2.719707489013671875e-01 2.465992867946624756e-01 2.407280206680297852e-01 2.025815248489379883e-01 7.396621704101562500e-01 -1.823670148849487305e+00 5.860341191291809082e-01 -2.707923054695129395e-01 9.676735997200012207e-01 8.488520383834838867e-01 -9.145659804344177246e-01 1.480741798877716064e-01 1.921470612287521362e-01 -7.345883846282958984e-01 -2.343328446149826050e-01 1.526955068111419678e-01 -1.513368356972932816e-02 -1.369838416576385498e-01 -4.753956198692321777e-01 1.078603938221931458e-01 7.017676234245300293e-01 -3.635444939136505127e-01 2.360387146472930908e-01 2.577511072158813477e-01 -2.543322741985321045e-01 -1.940562874078750610e-01 -1.381639838218688965e-01 -1.109919309616088867e+00 2.741127312183380127e-01 -1.978458315134048462e-01 1.568328216671943665e-02 3.056375980377197266e-01 -4.950459301471710205e-01 -8.730108737945556641e-01 -6.345118284225463867e-01 -3.600536286830902100e-01 1.978034824132919312e-01 -2.572994828224182129e-01 -4.612317085266113281e-01 1.224882602691650391e+00 -5.474973320960998535e-01 -2.851059138774871826e-01 -1.888732463121414185e-01 -6.785001754760742188e-01 -3.201549053192138672e-01 -2.579595148563385010e-01 -1.831733733415603638e-01 2.379981130361557007e-01 2.465735673904418945e-01 -2.742589712142944336e-01 9.334611147642135620e-02 -5.333517789840698242e-01 -4.977952539920806885e-01 8.592947125434875488e-01 6.432962603867053986e-03 -8.033167719841003418e-01 -7.413920164108276367e-01 -3.377395570278167725e-01 -2.984836995601654053e-01 4.633703231811523438e-01 4.767272993922233582e-02 -3.391841948032379150e-01 3.329989612102508545e-01 -1.640170335769653320e+00 -9.589582681655883789e-01 -5.625140666961669922e-01 -2.672325074672698975e-01 7.743582129478454590e-01 8.975272178649902344e-01 1.424240916967391968e-01 -1.555680394172668457e+00 7.187699079513549805e-01 -4.926529824733734131e-01 -4.016175568103790283e-01 5.210027694702148438e-01 -2.775162756443023682e-01 1.662595750531181693e-04 -1.143474459648132324e+00 2.700691223144531250e-01 4.618596136569976807e-01 -2.073928862810134888e-01 -1.976839601993560791e-01 2.915371358394622803e-01 -5.273183584213256836e-01 -5.141258239746093750e-01 -7.448158264160156250e-01 -4.509600698947906494e-01 -1.440371274948120117e+00 -3.476037681102752686e-01 9.823256731033325195e-02 1.756065897643566132e-02 -1.059938788414001465e+00 -1.352588891983032227e+00 9.353575110435485840e-01 1.900075227022171021e-01 -2.496737837791442871e-01 -4.103612899780273438e-01 7.320426404476165771e-03 -1.377487540245056152e+00 -4.313411712646484375e-01 -4.436502754688262939e-01 1.141463294625282288e-01 3.551242649555206299e-01 2.875183522701263428e-01 -7.797041535377502441e-01 4.527591466903686523e-01 2.241280674934387207e-01 -3.498061001300811768e-02 1.729154586791992188e-01
-8.593893051147460938e-01 5.024535655975341797e-01 2.313449084758758545e-01 -1.142973899841308594e-01 1.606685072183609009e-01 4.382444918155670166e-02 -2.746928036212921143e-01 -6.362949013710021973e-01 -2.589908242225646973e-01 -9.652827978134155273e-01 -8.838547766208648682e-02 -7.545664310455322266e-01 2.209669947624206543e-01 8.410375118255615234e-01 -6.794736385345458984e-01 -1.526991128921508789e+00 2.826516628265380859e-01 5.773990750312805176e-01 -5.808817148208618164e-01 2.049794942140579224e-01 1.052977919578552246e+00 -7.861118912696838379e-01 5.929802060127258301e-01 -1.528072655200958252e-01 -1.923118829727172852e+00 6.422582864761352539e-01 2.505970001220703125e-01 -1.350218355655670166e-01 6.683229804039001465e-01 -5.487716794013977051e-01 -5.373212099075317383e-01 -5.418969392776489258e-01 1.735325217247009277e+00 2.850567549467086792e-02 7.916330099105834961e-01 6.212191581726074219e-01 8.404283225536346436e-02 1.072525620460510254e+00 1.845974475145339966e-01 1.532791107892990112e-01 -9.583247900009155273e-01 -5.759858489036560059e-01 5.154499411582946777e-01 -7.962501049041748047e-01 6.416020393371582031e-01 -5.203144550323486328e-01 -7.478581070899963379e-01 7.667748630046844482e-02 -2.830468118190765381e-01 1.056438907980918884e-01 3.770488202571868896e-01 -1.829918026924133301e-01 -1.011195063591003418e+00 -7.713164091110229492e-01 -2.349046766757965088e-01 6.039253249764442444e-02 -1.741872280836105347e-01 -1.344810485839843750e+00 -4.618991315364837646e-01 -9.191669821739196777e-01 6.329707503318786621e-01 -6.082914471626281738e-01 -2.871702909469604492e-01 -2.829943597316741943e-01 -7.704215496778488159e-02 3.918518871068954468e-02 1.566668599843978882e-01 8.242061138153076172e-01 -3.981836736202239990e-01 -4.752150923013687134e-02 -5.985034108161926270e-01 -1.335414126515388489e-02 1.322072029113769531e+00 -6.506716012954711914e-01 -1.255179196596145630e-01 -8.136919736862182617e-01 -6.593942642211914062e-01 -4.087202250957489014e-01 4.052451550960540771e-01 -6.701121330261230469e-01 4.998938441276550293e-01 -7.236068695783615112e-02 -1.866920948028564453e+00 -2.918297648429870605e-01 1.665003970265388489e-02 -5.153791904449462891e-01 -4.194397032260894775e-01 -9.897027909755706787e-02 5.314521193504333496e-01 -1.073267579078674316e+00 1.710645407438278198e-01 2.256945371627807617e-01 3.086913824081420898e-01 -7.364746183156967163e-02 -6.391011476516723633e-01 1.095123514533042908e-01 -1.546228379011154175e-01 9.100238084793090820e-01 4.982489049434661865e-01 -3.825199902057647705e-01 -2.056126594543457031e-01 1.938440054655075073e-01 -3.339639902114868164e-01 -1.738959550857543945e-01 -6.094628572463989258e-01 6.402288675308227539e-01 -1.363595008850097656e+00 1.056900143623352051e+00 -7.904875874519348145e-01 -1.125110238790512085e-01 -3.861188590526580811e-01 -1.542579889297485352e+00 5.730281397700309753e-02 -1.884271651506423950e-01 1.216024812310934067e-02 2.633650302886962891e-01 2.181279212236404419e-01 -1.394614696502685547e+00 -5.753310322761535645e-01 7.285884022712707520e-01 2.703790962696075439e-01 3.751041293144226074e-01 1.913543343544006348e-01 -3.001429438591003418e-01 6.434580087661743164e-01 1.558366119861602783e-01 2.247271835803985596e-01 3.523082137107849121e-01
-3.499900996685028076e-01 -2.664568126201629639e-01 2.805852293968200684e-01 1.619551479816436768e-01 4.118506312370300293e-01 -1.349402964115142822e-01 -2.169078774750232697e-02 -7.193118929862976074e-01 -4.191806614398956299e-01 -3.162495195865631104e-01 2.335812523961067200e-02 4.404360055923461914e-01 2.003117352724075317e-01 1.176674246788024902e+00 -3.338503241539001465e-01 -9.680415689945220947e-02 3.075135946273803711e-01 -1.383920907974243164e-01 -4.334553144872188568e-03 -7.000334262847900391e-01 2.649202942848205566e-01 -5.463467836380004883e-01 9.835349321365356445e-01 -4.998988211154937744e-01 1.905826968140900135e-03 4.819723367691040039e-01 -3.026026189327239990e-01 -6.777021884918212891e-01 -8.364675939083099365e-02 -3.195078372955322266e-01 -3.501901924610137939e-01 2.570100724697113037e-01 -3.480428457260131836e-02 -4.547332227230072021e-01 1.030261278152465820e+00 -1.775657236576080322e-01 2.350994050502777100e-01 -8.546641469001770020e-01 1.983668804168701172e-01 2.807154059410095215e-01 8.352687209844589233e-02 -6.959283351898193359e-01 1.969406455755233765e-01 -6.620571017265319824e-01 -6.998474150896072388e-02 -6.195850372314453125e-01 -7.865714430809020996e-01 -1.628512740135192871e-01 -1.600643396377563477e-01 -8.266573548316955566e-01 -7.299996167421340942e-02 -1.829441487789154053e-01 -7.444399595260620117e-01 -1.506514251232147217e-01 -3.506420552730560303e-01 -1.731490492820739746e-01 8.989583700895309448e-02 -7.180973887443542480e-01 -1.314678788185119629e-01 -9.280174970626831055e-01 -8.470752835273742676e-01 -6.319654583930969238e-01 3.143556714057922363e-01 -1.687200516462326050e-01 2.259029150009155273e-01 -9.499165415763854980e-01 3.941225707530975342e-01 4.839018881320953369e-01 -2.047318667173385620e-01 -1.212408468127250671e-01 5.435736775398254395e-01 -2.033160477876663208e-01 1.074914187192916870e-01 -1.439207047224044800e-01 -1.483157426118850708e-01 -5.532550811767578125e-01 -5.118409395217895508e-01 1.312089920043945312e+00 -2.570001780986785889e-01 -3.893524110317230225e-01 3.332643508911132812e-01 -3.419328331947326660e-01 -2.171044424176216125e-02 1.114409863948822021e-01 5.504665970802307129e-01 1.098761439323425293e+00 -9.144694209098815918e-01 -3.420780599117279053e-01 4.467047005891799927e-02 -5.874182581901550293e-01 3.362858295440673828e-01 1.693294197320938110e-01 -4.361040294170379639e-01 -6.085491180419921875e-01 1.063194751739501953e+00 1.138404160737991333e-01 -3.970054090023040771e-01 4.834230244159698486e-01 -7.898321151733398438e-01 -3.861197829246520996e-01 -9.147537946701049805e-01 2.535178698599338531e-02 2.550732493400573730e-01 -3.727586269378662109e-01 8.269803971052169800e-02 -3.606534376740455627e-02 -9.191887378692626953e-01 -3.586265742778778076e-01 -6.810433864593505859e-01 2.836675345897674561e-01 -2.815604209899902344e-01 -4.125269651412963867e-01 3.030402399599552155e-02 4.977934062480926514e-01 6.160537004470825195e-01 3.720944225788116455e-01 4.886526167392730713e-01 -8.804713487625122070e-01 3.103277646005153656e-02 4.595419764518737793e-01 6.496412307024002075e-02 3.131234347820281982e-01 -2.282735556364059448e-01 -4.081723093986511230e-01 3.023825772106647491e-02 3.441338837146759033e-01 5.400748550891876221e-02 -1.371262371540069580e-01
7.924047112464904785e-01 -6.717330813407897949e-01 2.984607517719268799e-01 -5.909242033958435059e-01 4.760376214981079102e-01 -5.173997282981872559e-01 -5.975870490074157715e-01 -3.612823784351348877e-01 2.781874239444732666e-01 4.226663410663604736e-01 -7.917419075965881348e-01 5.528687238693237305e-01 -3.774931728839874268e-01 -9.729603528976440430e-01 6.983692049980163574e-01 -5.041592717170715332e-01 -9.864508360624313354e-02 -3.829471170902252197e-01 -1.866336911916732788e-01 2.634203433990478516e-01 -9.793661832809448242e-01 1.070334196090698242e+00 -1.280409097671508789e-01 -8.204349130392074585e-02 9.761526249349117279e-03 2.266950756311416626e-01 -2.770578563213348389e-01 -1.456355154514312744e-01 2.451951801776885986e-01 -2.726041376590728760e-01 1.764159500598907471e-01 7.307080030441284180e-01 -9.180734157562255859e-01 2.969752252101898193e-01 -3.946551084518432617e-01 -1.884759813547134399e-01 2.406636029481887817e-01 -1.907794237136840820e+00 1.335890293121337891e-01 2.244225889444351196e-01 4.188942313194274902e-01 3.986706435680389404e-01 -4.763544499874114990e-01 5.223802477121353149e-02 -7.697446942329406738e-01 6.777473092079162598e-01 1.581190675497055054e-01 -3.042911589145660400e-01 -1.451595723628997803e-01 -2.426426112651824951e-01 1.445266753435134888e-01 4.706975817680358887e-01 1.097256779670715332e+00 2.399511039257049561e-01 -6.526023745536804199e-01 -7.269545793533325195e-01 -3.132873177528381348e-01 1.233605504035949707e+00 1.183697581291198730e+00 -3.942027986049652100e-01 -9.793090820312500000e-01 6.887091398239135742e-01 4.305528104305267334e-01 2.550218403339385986e-01 -1.512360125780105591e-01 -4.565476775169372559e-01 1.062704846262931824e-01 -9.551728963851928711e-01 4.822588860988616943e-01 -6.985791772603988647e-02 6.347055435180664062e-01 -5.283069610595703125e-01 -6.533842682838439941e-01 9.458398818969726562e-01 -7.201194763183593750e-01 -1.235375087708234787e-02 -4.383049607276916504e-01 -2.702596187591552734e-01 -4.729550480842590332e-01 -2.763948142528533936e-01 -2.300027757883071899e-01 -3.454067707061767578e-01 1.295772194862365723e+00 -3.276090025901794434e-01 4.531399607658386230e-01 7.510046362876892090e-01 7.024373412132263184e-01 1.078021824359893799e-01 2.964515686035156250e-01 -2.142306882888078690e-03 -2.349023222923278809e-01 -2.345558553934097290e-01 -8.248003721237182617e-01 1.436855643987655640e-01 -6.403644084930419922e-01 2.942729182541370392e-02 -8.758485317230224609e-01 -2.856069505214691162e-01 -3.501957952976226807e-01 -1.507464796304702759e-01 -1.224970370531082153e-01 4.033014774322509766e-01 2.795481085777282715e-01 3.542115092277526855e-01 2.656028568744659424e-01 -2.008941322565078735e-01 3.145002722740173340e-01 -1.498659491539001465e+00 1.161882162094116211e+00 3.724270462989807129e-01 -6.024409532546997070e-01 4.544929563999176025e-01 -7.162109613418579102e-01 2.741416394710540771e-01 1.213159784674644470e-01 -4.361430928111076355e-02 -3.789419829845428467e-01 1.509107708930969238e+00 7.724173665046691895e-01 -2.684096395969390869e-01 -4.167766496539115906e-02 -7.440654188394546509e-02 -2.987066507339477539e-01 -7.931970357894897461e-01 -3.501703143119812012e-01 1.981500834226608276e-01 -1.337116062641143799e-01 -2.907347977161407471e-01
1.865417063236236572e-01 1.625826954841613770e-01 -1.283068656921386719e-01 -4.710686504840850830e-01 2.019561678171157837e-01 3.097139894962310791e-01 -6.290254592895507812e-01 -5.261886119842529297e-01 2.251794934272766113e-02 2.665281593799591064e-01 -1.360707044601440430e+00 5.942103862762451172e-01 -9.513127803802490234e-02 -5.664540529251098633e-01 3.225022554397583008e-02 -1.159608125686645508e+00 5.886902566999197006e-03 5.317612290382385254e-01 -3.547655642032623291e-01 1.010640144348144531e+00 4.808920994400978088e-02 2.850512564182281494e-01 -3.685992360115051270e-01 -3.969537019729614258e-01 -1.228294730186462402e+00 3.819428086280822754e-01 -4.481065273284912109e-01 -3.589754700660705566e-01 1.090025424957275391e+00 -1.120945811271667480e+00 -4.359791278839111328e-01 1.740215532481670380e-02 1.024869680404663086e-01 3.951390683650970459e-01 -3.351335227489471436e-01 3.973971903324127197e-01 -2.048880793154239655e-02 -3.512050807476043701e-01 -2.162866145372390747e-01 2.300293892621994019e-01 -7.597084045410156250e-01 -1.620754301548004150e-01 -4.936315417289733887e-01 -1.626417487859725952e-01 -2.163285464048385620e-01 3.672671616077423096e-01 -1.251848042011260986e-01 -2.604285478591918945e-01 -3.071191310882568359e-01 1.266454458236694336e-01 3.838146924972534180e-01 1.114053845405578613e+00 1.891090422868728638e-01 -4.524001777172088623e-01 -1.010749936103820801e+00 -2.048661187291145325e-02 2.912548184394836426e-01 -5.128252506256103516e-01 -4.622174501419067383e-01 -1.000948429107666016e+00 -3.924362957477569580e-01 8.138888478279113770e-01 3.853301703929901123e-01 6.255452334880828857e-02 -7.586137652397155762e-01 5.175458788871765137e-01 2.756023705005645752e-01 -6.036620140075683594e-01 8.984886854887008667e-02 2.920270562171936035e-01 6.610649824142456055e-01 -2.067168354988098145e-01 3.204149305820465088e-01 7.796676158905029297e-01 -7.187381982803344727e-01 -1.038378715515136719e+00 -3.105244636535644531e-01 -5.933706760406494141e-01 -9.514544159173965454e-03 2.104148715734481812e-01 1.104356199502944946e-01 -2.319429814815521240e-01 -2.418477982282638550e-01 -1.755409091711044312e-01 6.833244562149047852e-01 3.134621381759643555e-01 -3.543230891227722168e-01 -2.260154113173484802e-02 2.268178761005401611e-01 -7.115977406501770020e-01 -4.473948478698730469e-02 -3.158830702304840088e-01 5.169181227684020996e-01 -4.650489091873168945e-01 -8.715426325798034668e-01 2.966101467609405518e-01 -8.231753110885620117e-01 -2.860111892223358154e-01 5.074983239173889160e-01 -5.821390748023986816e-01 -4.906172752380371094e-01 6.212614178657531738e-01 -1.132162362337112427e-01 4.920628666877746582e-01 -3.911822736263275146e-01 4.919322729110717773e-01 -5.850368142127990723e-01 -7.448421716690063477e-01 1.134423613548278809e-01 -1.898335069417953491e-01 -9.683050513267517090e-01 -4.253937304019927979e-01 -8.029044270515441895e-01 1.287781596183776855e-01 -2.769823372364044189e-01 -2.711624205112457275e-01 -4.442916214466094971e-01 1.931812912225723267e-01 5.152726173400878906e-01 -2.049570679664611816e-01 -1.174473911523818970e-01 -3.518216013908386230e-01 -1.157939136028289795e-01 -1.302233695983886719e+00 4.077274799346923828e-01 3.291189372539520264e-01 -1.811679005622863770e-01 4.169474840164184570e-01
